64 3 7 7 
-682 -402 -118 4904 3710 1119 -831 726 624 -7204 -18382 -17775 -8459 245 -455 3872 19364 38482 34060 16798 4166 1999 -4392 -19556 -28749 -17750 -40 3775 -1804 1051 4757 -3545 -21813 -27562 -16896 2006 2684 4118 15661 27121 25794 10882 -900 -240 -1578 -4317 -9876 -5389 -378 -746 -1744 -2270 2412 2131 43 -1687 2994 2202 -6850 -20240 -20481 -10518 -84 -54 6450 26352 50485 46392 24174 8162 -382 -8428 -27571 -38843 -25090 -2779 4034 -3665 -342 1774 -9934 -30263 -37408 -23954 2153 3642 6531 20850 35806 31638 13020 347 438 -1130 -4574 -9714 -5062 47 -133 -600 1389 5882 5844 2205 -1317 1009 -1222 -8251 -19367 -16608 -8506 -1833 645 3214 14220 28186 22853 6837 1206 1731 -1703 -12909 -17567 -6897 5149 7915 -1858 1206 6464 4013 -7693 -16882 -10125 1360 -172 -2478 3765 15821 15954 7730 48 50 -658 -3614 -9741 -7702 -2513 -289 -266 207 -360 -2426 -1648 -3142 3362 3499 5271 7541 9489 9363 8069 -480 142 2462 3554 4031 5264 7677 -3852 -5131 -3554 -6147 -7672 -4470 1419 -1753 -8059 -8947 -10049 -9219 -7310 -3247 1541 -1133 -728 -520 -1233 -1528 -1931 1880 1419 3138 2855 1671 2316 739 30 796 2754 3910 3041 2649 -946 2848 4507 8695 14239 18747 17632 13719 -3776 -1483 2001 4945 9019 10838 11761 -9865 -11850 -10652 -13168 -11707 -6445 1102 -7088 -16533 -19491 -21116 -18679 -14085 -6763 2667 -2147 -4158 -5397 -6052 -4579 -3266 5435 5739 6626 5104 3454 3995 2699 -1074 -908 346 2933 2863 1488 -3013 2175 2753 6127 12171 17145 15053 10940 -3013 -1072 1757 5839 9798 8661 8899 -6291 -6754 -5958 -6824 -5936 -3565 1851 -4727 -12387 -15328 -15579 -12476 -10229 -4979 3352 -1691 -4545 -4608 -3866 -4033 -2919 7323 5175 4315 2753 2072 1652 486 0 0 0 0 0 0 0 0 0 0 0 0 0 0 0 0 0 0 0 0 0 0 0 0 0 0 0 0 0 0 0 0 0 0 0 0 0 0 0 0 0 0 0 0 0 0 0 0 0 0 0 0 0 0 0 0 0 0 0 0 0 0 0 0 0 0 0 0 0 0 0 0 0 0 0 0 0 0 0 0 0 0 0 0 0 0 0 0 0 0 0 0 0 0 0 0 0 0 0 0 0 0 0 0 0 0 0 0 0 0 0 0 0 0 0 0 0 0 0 0 0 0 0 0 0 0 0 0 0 0 0 0 0 0 0 0 0 0 0 0 0 0 0 0 0 0 0 -545 -1148 -656 -303 442 -732 -601 -1832 -1832 -219 -1475 -4765 -4199 -1135 -2280 -1197 -1673 -5800 -9181 -9523 -2163 -1802 -332 -496 -2684 -4925 -6727 -294 -2456 -710 -628 -154 -1632 -3826 475 -549 1279 290 1417 1231 -550 711 -1142 -1 -1459 -394 -28 -1060 -249 1543 221 732 1052 1775 995 1362 2100 1336 1757 -658 -4673 -2923 1806 1159 1741 -590 -6632 -11115 -10105 -441 1089 1817 -188 -4720 -8245 -8345 1011 502 1040 -335 -1200 -3407 -4348 2310 2092 2500 543 1115 926 539 3621 1789 1941 41 527 857 1102 2792 -3255 -2090 -406 1759 3706 2752 926 -383 1463 3608 3295 677 2310 4814 -647 1800 1012 -2811 -6208 -5477 2052 -407 1728 427 -2022 -4925 -5577 1675 -1063 452 -332 387 -1568 -2644 2988 -1367 -126 -1236 409 184 -179 2598 -1722 -577 -1828 -55 368 659 1963 0 0 0 0 0 0 0 0 0 0 0 0 0 0 0 0 0 0 0 0 0 0 0 0 0 0 0 0 0 0 0 0 0 0 0 0 0 0 0 0 0 0 0 0 0 0 0 0 0 0 0 0 0 0 0 0 0 0 0 0 0 0 0 0 0 0 0 0 0 0 0 0 0 0 0 0 0 0 0 0 0 0 0 0 0 0 0 0 0 0 0 0 0 0 0 0 0 0 0 0 0 0 0 0 0 0 0 0 0 0 0 0 0 0 0 0 0 0 0 0 0 0 0 0 0 0 0 0 0 0 0 0 0 0 0 0 0 0 0 0 0 0 0 0 0 0 0 -1660 3295 1537 -1001 -3926 -1771 -563 3476 11360 6401 -1388 -11962 -8008 -5316 3163 17848 12057 -1068 -17445 -14379 -9541 2423 23185 20557 1375 -20262 -20841 -13608 858 22538 27178 5430 -17709 -21689 -15672 -1378 15956 23229 11112 -9318 -14717 -13039 -1884 11071 15881 11410 -3210 -7359 -10553 -157 -2541 -278 693 2340 1628 796 -376 -1646 -1582 1637 624 2586 1820 -756 -1721 -3246 1827 1123 2507 1348 -1247 -2510 -3884 583 2399 1826 2653 -282 -3542 -1664 -1339 2545 -14 1658 1080 -4274 -2405 -693 1711 841 2231 521 -3224 -3165 -1114 -333 762 1746 1316 -2666 -498 -704 2607 -730 -25 -1196 -7860 -5775 1567 6642 8738 6279 -3742 -13161 -12458 1145 12540 13239 7251 -2319 -17714 -18626 -1720 18560 18482 12867 -856 -19162 -20607 -8545 16124 17536 14237 2593 -14481 -18078 -11174 8004 11893 13662 3110 -8775 -12268 -9480 273 5470 10166 -4228 -2298 -2169 -729 -1299 -2440 -5342 -3808 -3969 -2750 -639 -971 -3318 -5167 -3319 -2461 -705 3719 5020 509 -1948 -1488 1368 4027 15065 18212 9372 -691 -2879 -344 8447 20542 23089 11612 980 -2894 -2104 4877 11394 13720 7090 -551 -3088 -2513 -1453 1869 2224 982 -870 13004 10367 8312 5994 5555 8729 12518 9412 4336 1313 -5004 -5669 -2598 5562 7520 1191 -5621 -15838 -16981 -11617 -133 5637 -3441 -17118 -29592 -31434 -21857 -9736 5037 -6247 -18017 -34602 -37769 -26541 -10578 7447 -4637 -12819 -26371 -28075 -20161 -7968 10403 1641 -5042 -11401 -13438 -10308 -1421 -10530 -6279 -6365 -3880 -2597 -4960 -7841 -5310 -1015 1942 4580 6568 3197 331 -5304 1565 7146 10466 12300 8531 4332 -3299 5283 9110 13761 16884 14470 8218 -2602 6306 12584 14395 16035 14713 11886 -2966 4070 10031 12554 15996 12631 8249 -5702 1812 6471 11895 12275 7552 5070 0 0 0 0 0 0 0 0 0 0 0 0 0 0 0 0 0 0 0 0 0 0 0 0 0 0 0 0 0 0 0 0 0 0 0 0 0 0 0 0 0 0 0 0 0 0 0 0 0 0 0 0 0 0 0 0 0 0 0 0 0 0 0 0 0 0 0 0 0 0 0 0 0 0 0 0 0 0 0 0 0 0 0 0 0 0 0 0 0 0 0 0 0 0 0 0 0 0 0 0 0 0 0 0 0 0 0 0 0 0 0 0 0 0 0 0 0 0 0 0 0 0 0 0 0 0 0 0 0 0 0 0 0 0 0 0 0 0 0 0 0 0 0 0 0 0 0 -1904 2160 -1673 1465 -1555 1713 -201 -1512 1312 1179 1283 -6475 7797 -1599 -433 -4692 11517 -4918 -9794 14904 -6442 2636 -15077 29570 -19436 -9030 20774 -9398 4156 -19596 37006 -28785 -3260 18610 -9878 1544 -11766 23254 -17490 -1923 12696 -6084 -2939 872 7869 -5897 -6263 8560 -2127 -1395 3747 -2476 1077 -3858 1005 263 -1344 2978 1575 -89 -10120 8687 -963 -699 -2888 16903 -10524 -17650 19210 -5222 1757 -13883 41317 -30547 -20246 30538 -7477 3304 -17920 49589 -42202 -12880 28337 -8249 1551 -9572 30707 -27293 -8561 18414 -4392 -3446 2530 9658 -9380 -10556 8885 -1906 -1810 3299 -983 1293 -2251 1672 -597 -1523 365 -325 2509 -5679 6245 -1766 -300 -4797 7482 -2800 -7395 10834 -5222 3420 -14075 23219 -14686 -5802 14802 -6903 5241 -18147 30367 -23130 -957 12274 -5909 2901 -11559 18379 -14569 -729 8078 -3616 -2532 -63 6298 -3420 -5321 6334 -1401 0 0 0 0 0 0 0 0 0 0 0 0 0 0 0 0 0 0 0 0 0 0 0 0 0 0 0 0 0 0 0 0 0 0 0 0 0 0 0 0 0 0 0 0 0 0 0 0 0 0 0 0 0 0 0 0 0 0 0 0 0 0 0 0 0 0 0 0 0 0 0 0 0 0 0 0 0 0 0 0 0 0 0 0 0 0 0 0 0 0 0 0 0 0 0 0 0 0 0 0 0 0 0 0 0 0 0 0 0 0 0 0 0 0 0 0 0 0 0 0 0 0 0 0 0 0 0 0 0 0 0 0 0 0 0 0 0 0 0 0 0 0 0 0 0 0 0 -277 -834 2535 3406 616 809 419 777 -4646 -7389 -5940 -5894 -1653 2752 -4903 -10018 -13909 -16251 -14724 -8182 -1061 6465 10686 15033 14200 10650 7524 5471 7576 16295 25437 30023 21315 10878 5456 934 -2821 -3732 -4529 -5384 -4835 -8 -4927 -11040 -15588 -16873 -14331 -6050 298 -1028 -1227 201 683 -1225 -188 313 -1260 -7855 -13659 -12949 -12115 -6119 740 -6174 -11677 -17638 -21548 -20205 -11778 -3116 10599 16956 21588 20051 15355 11432 8193 11481 23050 33616 39119 28711 16017 9681 1324 -1473 -3012 -3851 -4395 -3362 2085 -5111 -10514 -17288 -19589 -15733 -6371 1110 -3112 -284 1704 1940 1090 -16 -1863 938 -942 -4341 -2574 -1931 -282 1321 -3550 -6353 -9619 -11337 -9575 -5165 -1794 4507 5976 8412 7087 5886 4902 2604 4563 9460 14245 18123 12616 5708 2455 529 -2110 -4396 -4964 -4265 -3483 -184 -1279 -2302 -5737 -6795 -4616 -411 723 3196 1841 3605 -2693 -10648 -5410 4197 1954 5045 10002 9373 -6655 -16513 -8521 -4158 -4 12505 24025 16618 -6767 -12322 -8330 -13580 -1257 18711 27010 9283 -3470 -3878 -15852 -14736 -2360 12819 10094 1294 3795 -7428 -10824 -8027 3948 8185 2343 7939 -1282 -7994 -10383 -3135 4282 986 3370 2026 3169 -4155 -13904 -7887 3729 1749 6312 11417 11624 -8816 -21326 -11243 -5104 378 14755 30508 20613 -8237 -14512 -10389 -14768 407 25017 33034 10676 -4134 -6423 -17686 -15592 126 16201 11018 1592 1454 -9116 -12993 -8406 4683 8639 2571 6614 -2056 -8545 -10661 -2292 5548 2142 463 -946 597 -2425 -8727 -3421 4574 1356 2778 4906 7100 -5314 -11790 -3601 -1673 -194 6156 17342 12692 -5684 -7477 -3925 -8635 -1888 11351 17098 4392 -2380 110 -7354 -8944 -3142 5075 2963 -887 2699 -2158 -5205 -5225 905 3058 -702 5226 696 -3430 -5512 -1435 4763 2599 390 612 134 457 1257 2687 3479 1589 2152 2243 3165 4256 3909 3666 1880 2907 3438 4284 3554 1900 1458 2298 -727 -3037 -2283 -5526 -7835 -7197 -141 -3469 -5998 -6789 -9009 -10571 -9334 1399 1358 1111 174 -1834 -581 265 1341 1479 2612 3622 2246 2448 2739 224 -188 898 1874 1721 1582 1873 524 614 1707 3263 3647 2705 1953 617 1061 2035 3037 2233 773 563 662 -3452 -5472 -4448 -7189 -9322 -8482 -815 -4784 -6470 -6809 -8839 -10629 -8588 893 1256 2364 1976 -332 122 1508 1016 1074 3005 4325 2194 2127 2946 159 -2372 -1863 -2073 -3051 -3200 -2538 -447 -2964 -2625 -1862 -2058 -2624 -2726 -387 -2307 -1611 -431 -443 -1440 -1148 279 -4510 -5612 -3231 -4632 -5877 -5650 -390 -3944 -4096 -2953 -3884 -4636 -3531 1346 1322 2927 3842 2729 3384 4040 615 -146 1746 3557 1778 2006 3019 0 0 0 0 0 0 0 0 0 0 0 0 0 0 0 0 0 0 0 0 0 0 0 0 0 0 0 0 0 0 0 0 0 0 0 0 0 0 0 0 0 0 0 0 0 0 0 0 0 0 0 0 0 0 0 0 0 0 0 0 0 0 0 0 0 0 0 0 0 0 0 0 0 0 0 0 0 0 0 0 0 0 0 0 0 0 0 0 0 0 0 0 0 0 0 0 0 0 0 0 0 0 0 0 0 0 0 0 0 0 0 0 0 0 0 0 0 0 0 0 0 0 0 0 0 0 0 0 0 0 0 0 0 0 0 0 0 0 0 0 0 0 0 0 0 0 0 -3674 -4636 -148 4196 8059 2966 -746 -10680 -8931 -2189 2824 9352 7964 6926 -12880 -11263 -5425 1912 10948 10470 9820 -11537 -12621 -6882 578 9779 9922 10705 -10373 -12307 -5814 -40 9290 9481 9943 -9797 -12080 -5787 -274 7614 7842 8796 -8768 -11872 -6503 -483 6190 6632 8275 -5121 -7112 -1887 3663 8569 5090 1926 -13397 -12576 -5051 1689 9474 9766 9885 -15612 -15345 -8369 1145 11859 13648 14621 -14158 -16379 -9359 590 12144 15077 17343 -12994 -16117 -8157 -163 11773 14865 16656 -12507 -15933 -8409 -1034 8735 11579 13709 -10031 -14589 -8460 -1288 6586 9038 11927 122 -3990 -466 2530 5526 1321 -1724 -5850 -8565 -3232 -323 4440 4061 4213 -7049 -9796 -6325 -1731 5272 6556 7391 -5018 -10472 -6832 -1738 6378 8256 10482 -3706 -10005 -5571 -1685 6735 8529 9737 -2508 -9638 -5951 -2674 4033 5726 7629 -113 -7902 -5075 -2005 3166 4714 7444 1460 1865 6046 6116 1104 -14744 -20028 -1048 1376 10915 24832 28815 12959 -5062 -2888 -6014 1193 19119 38221 33248 13369 -3636 -12692 -16926 -9391 17848 29767 21160 -3376 -14362 -23541 -33258 -18471 2530 9880 7161 -1480 -11803 -27527 -24370 -9814 1236 11957 10059 2496 -14125 -18923 -12641 -4203 -10 -953 -518 -2428 2 786 4713 -875 -344 -1832 -3066 -4145 -4998 -1679 689 540 -236 -3269 -4509 -7000 -4818 819 1426 1370 -1013 669 -3386 -3943 -652 551 1867 -780 690 -1715 -2619 56 861 2799 2365 4353 2960 217 614 2329 4219 3649 3775 4301 4176 178 -1825 -3922 -5872 1162 12934 18787 869 -384 -8879 -20334 -23277 -7971 6573 2019 3401 -1473 -18192 -34806 -28730 -9097 4832 12819 17238 9621 -12846 -24762 -14209 2992 11728 23768 29643 15158 -3980 -7208 -5500 -302 10455 23652 22547 9292 -1749 -10085 -11769 -4553 9966 13125 7539 1780 -3346 -3724 -3094 -963 1029 392 -1242 -1826 -185 579 5588 9531 7238 3608 -3095 -517 1920 9909 12915 9417 6275 -3852 -1250 2493 9716 13351 11620 6371 -2048 486 2440 7559 10964 9958 4622 -2936 208 340 4124 5301 5365 3183 -3239 -823 314 3046 2435 1275 412 4495 2483 1553 -939 -1239 470 1221 2901 1177 -1757 -3543 -3580 -2534 -1995 1850 -61 -3868 -6280 -7653 -6729 -3711 -411 -2522 -5751 -10934 -12520 -8806 -6293 1092 -1042 -5748 -12075 -13654 -8971 -7014 2577 1763 -3947 -9677 -11096 -5821 -1731 2795 1571 -1643 -5522 -6814 -3815 -1142 -282 1031 63 -1119 -1130 -2419 -2170 1133 2058 706 2151 2665 786 357 -21 2020 1312 4215 3663 1220 2753 -643 2562 3729 4471 3658 3553 4059 1342 4439 3900 2869 2434 3327 3084 -230 4310 2079 1150 488 2303 3645 380 4547 3721 3926 2591 2345 2513 1576 3070 2873 2603 2457 1070 600 1593 3037 2537 2817 3009 1906 1061 2118 3411 3225 3285 3449 2336 1935 2373 3272 2961 2979 3255 2056 2278 2453 3163 2666 2697 2688 1544 2107 2243 3023 2765 2540 1907 723 1327 1728 2797 2968 2927 2556 1316 1058 -2632 -1603 -885 -1145 -1649 -3419 -3427 -3256 -1371 -44 868 809 -1583 -3203 -1543 1325 3321 4285 4115 1307 -951 -252 2566 4410 4964 4454 1729 497 -312 1952 3286 3806 2839 463 149 -1189 434 1713 2040 599 -1630 -1403 -2204 -1090 105 843 251 -1573 -2023 -1518 -1706 -1310 -1262 -1309 -2173 -1303 -3037 -2774 -1910 -786 -490 -1791 -1828 -2351 -1033 956 2217 2124 146 -464 -1084 393 2391 3401 2749 512 467 -410 420 1709 2464 1461 -745 244 -335 -217 687 1238 -95 -1874 -368 -197 -298 268 1139 903 -568 89 470 -582 -42 -941 -1073 -351 -1711 -1047 -555 -298 -458 -637 61 -1451 -613 -249 -233 -1436 -918 -660 -2312 -233 -315 -720 112 11094 7352 -2020 -366 -389 -2132 -325 12367 7682 -2954 -1193 -398 -665 -2983 -872 -1881 -3887 -1602 -1314 -433 -1755 -2629 -1727 -3661 -605 -1183 -249 -809 -1158 -389 -1130 -1773 -1061 -710 -876 -1403 -747 -1511 -1265 -962 -788 -1351 -974 -552 -2137 100 345 882 3768 15753 11673 1019 265 695 193 4373 18138 13114 543 -1031 291 741 -43 2423 1739 -1208 -1051 -179 1721 1522 608 2145 -21 1308 70 1042 1310 1688 2389 1111 323 -236 -104 864 1079 1746 521 816 -495 -990 -1387 -779 -31 -1060 1932 80 -474 1242 12824 9689 585 1587 -89 -2197 455 13525 9314 -1148 -91 -823 -1778 -3819 -2206 -1912 -2955 -363 -982 22 -529 -1301 794 -405 -2327 1753 1529 5442 5953 5664 2694 3995 6016 4905 7267 7699 4997 -631 5479 5165 4771 6281 5910 2024 -4346 6523 3731 3091 4211 2213 -2898 -6338 2963 619 -238 638 -2525 -8255 -9667 -151 -1783 -3995 -5258 -8347 -13327 -12179 -3312 -6651 -8326 -12326 -13833 -14275 -7679 -283 2822 2941 6706 6553 6214 4002 4611 5299 3989 6378 6355 3000 -1856 5086 3947 4047 5649 4768 -97 -5921 5077 2010 2197 3092 0 -5883 -8811 1850 -834 -1603 -938 -4910 -11120 -11906 490 -1977 -5062 -6668 -10313 -15147 -13159 -2117 -6225 -8285 -13029 -15157 -14959 -7638 -1366 699 851 4455 5021 5104 2825 2353 2503 1456 4048 4533 2396 -2139 3316 1686 1903 3403 3914 423 -4765 3651 652 809 2920 2086 -2398 -4900 947 -1128 -1295 682 -790 -5457 -6132 1827 137 -1693 -1837 -3144 -6928 -6418 -719 -3581 -4540 -7819 -8353 -8754 -2970 -1972 1641 1877 -4040 -5435 -2928 3879 -1309 3142 1362 -10733 -10156 533 8691 -257 5164 -1140 -18048 -14531 4732 14597 996 6022 -2367 -20673 -14250 9096 18890 653 5352 -4942 -19047 -8348 8316 15025 1044 3640 -5385 -11125 -1895 6103 12977 -2042 -530 -4427 -4871 537 4960 10494 -739 4428 2672 -4059 -6570 -2711 5013 1113 6478 933 -14309 -14642 251 10098 2242 7765 -2979 -23617 -19998 5000 18094 2964 8067 -5600 -26778 -17750 12465 24588 1775 6101 -8756 -24595 -10565 12128 20218 1242 3541 -8736 -13714 -2353 8579 16631 -2509 -990 -6660 -5793 -180 4998 11344 -1968 548 1747 399 -2646 -2844 -922 -344 2780 2791 -3270 -5558 -289 1468 -294 3446 719 -8476 -9472 988 4539 783 4768 1115 -9060 -7989 5513 8635 369 4227 -1139 -8860 -3856 4765 5704 1163 2586 -2053 -2925 660 2273 4572 -652 -730 -2292 398 512 355 2144 3393 -554 -2813 -4432 -5101 -1100 992 550 -511 -2273 -4244 -3760 -1603 -1372 1699 3138 3535 1783 1452 1432 987 925 3577 4609 3059 3537 3867 2856 -183 2081 4186 4585 4291 5467 5210 -3509 -1830 969 2322 3457 3408 1570 -3945 -3132 -3021 -2224 -1715 -898 -1418 2818 332 -2834 -4848 -5602 -2099 -312 2367 2106 -477 -2600 -2200 -700 -538 3829 5925 5683 3802 2434 1701 1302 3269 5956 5895 4265 3812 3619 2698 1865 4371 5544 5471 4484 4986 5297 -439 2043 4214 4744 5751 5109 3615 -1026 887 1056 1196 1393 1411 593 1460 -809 -3427 -5265 -5763 -2508 -504 1111 170 -2026 -3554 -2886 -1331 -775 2402 3234 2331 1352 264 -145 143 479 2072 1406 123 211 -186 -20 -776 492 953 1146 531 1332 2613 -1686 -424 945 1593 2756 2434 1997 -118 732 -14 26 -110 -110 202 1302 7834 1564 -5886 -7978 -1465 2217 6168 9513 3542 -5017 -8188 -3257 680 5170 10719 3786 -6904 -8874 -2893 628 3547 11041 3149 -6613 -8836 -3423 756 2312 8955 2055 -4815 -7127 -2242 805 -103 7343 571 -5180 -5502 773 968 -1198 6308 726 -5417 -6376 962 -1926 5665 9086 1392 -8479 -12218 -2929 3835 10588 11600 3387 -9473 -16121 -7890 130 9159 12937 3898 -11719 -17258 -8488 -889 7322 12834 2868 -11320 -16862 -8292 -200 6284 10956 2133 -8800 -14735 -6484 345 3116 7632 -94 -8805 -11412 -2090 1305 1752 6216 -333 -8041 -10707 -1212 -980 643 3391 -801 -5127 -6260 728 5800 4780 4960 670 -5581 -8450 -2683 2068 3188 5230 732 -7521 -8830 -2268 1632 2835 6353 892 -6042 -7958 -2244 2398 3204 5381 306 -4615 -6833 -1078 3472 1615 4036 -933 -4868 -5407 1756 3397 1399 3801 -217 -3734 -4740 2491 701 15133 11449 1471 -7495 -6804 -1541 -1988 11027 257 -14634 -22587 -13072 -1751 830 1580 -13330 -27062 -29039 -10471 9377 8097 -7924 -22833 -30571 -19825 13508 27608 14058 -7156 -14588 -12005 15460 41313 32725 6878 -2418 -3061 7642 28741 33462 10964 -15737 -2553 429 9294 16380 9305 -13841 -27896 -2464 1245 2748 3415 1003 1262 8 741 4475 4497 4472 1831 499 -357 2271 4088 4372 4389 -570 -1101 -4226 2029 4187 2665 -2516 -3920 -4838 -6841 1030 2711 -1323 -2797 -4418 -5394 -3080 1712 116 -3057 -5186 -6378 -2521 -300 69 -1630 -4872 -5973 -2531 981 3441 -14006 -11892 -4851 4665 2560 335 966 -11645 -4578 7182 17124 10594 1099 -121 -3851 7546 22811 28507 8819 -4470 -4959 4850 18134 28178 17813 -11237 -21454 -10559 3721 13306 9360 -10728 -34700 -27272 -3064 1365 3827 -3926 -22654 -29399 -7045 14177 1396 326 -5869 -12526 -5375 12547 22448 -457 -3061 -6846 1014 5326 1903 -1332 1663 7059 21043 11980 -9950 -7154 -1029 -255 -2485 -29270 -36001 118 11998 3722 -2738 -8688 12102 47325 21527 -7003 -4103 2225 12115 10596 -26478 -33226 -983 3134 -1010 -6687 -18342 -942 20658 2581 -4248 2 1889 8492 6350 -4952 -2157 2606 511 -1067 -4551 2109 6661 2221 112 285 4996 17801 4816 -16914 -10981 -1191 -2449 -7896 -37232 -39599 5080 17264 6164 -2323 -5436 24957 65832 33466 -5722 -5990 5641 18269 14085 -33689 -44656 -6947 1021 -1116 -10161 -25930 -7422 20140 3996 -3861 -1503 702 9175 8938 -2879 -382 4344 1814 140 -6099 -2397 4515 1694 -608 -2126 735 13963 8849 -8613 -7675 -1641 -774 -75 -20936 -28126 454 8624 3806 -32 -5830 10623 37902 17998 -5260 -574 2917 9306 8160 -22774 -24213 2935 2744 706 -4991 -12602 5602 20998 1064 -4442 -618 -270 5123 1051 -9191 -3598 2819 -886 -2403 -2460 1174 1333 2251 2014 -1216 -171 -634 1805 768 539 -483 -2884 2975 2402 2482 438 -1298 -4361 -3478 7224 8056 6062 -1744 -6261 -8934 -1888 10222 11592 6771 -3872 -8668 -11033 -77 8145 8544 5101 -3386 -7702 -10904 -125 5183 5706 3742 -3160 -6481 -8474 -960 -53 -618 1790 594 1716 1791 551 4717 3154 2964 -1031 -1968 -3528 534 10284 8119 4293 -1874 -5637 -9637 933 16099 15443 9019 -4156 -12367 -15983 2754 19691 19571 10436 -5648 -15181 -18728 3863 16508 15505 8656 -4890 -13393 -17697 3312 12602 12089 6930 -4719 -11266 -13853 -829 -157 -1351 190 -107 1475 1332 830 4282 2156 1100 -1906 -1970 -2936 -185 8374 5867 1228 -3367 -5986 -8892 -527 13784 13288 5889 -5068 -11241 -13789 815 16892 16890 7342 -6454 -13797 -16491 1747 13427 12346 4941 -6439 -12844 -15942 2395 10182 8741 2833 -6160 -10356 -11604 -1486 -8007 -7629 -7749 -8305 -8982 -7416 -7206 -12360 -12246 -11611 -11425 -10632 -10164 -3419 -6641 -6309 -7368 -6911 -5336 -4409 -1627 -2211 65 -972 -1528 -59 1146 2148 5170 8463 9251 8082 8166 7459 2050 7587 10011 10654 10658 9412 5569 3746 11020 13063 13355 13824 10673 4666 -3963 -10918 -11375 -11224 -11817 -12125 -9488 -10830 -16697 -17766 -16859 -16368 -15230 -13533 -6203 -10026 -10470 -10931 -10407 -8636 -6702 -2601 -3149 -712 -927 -1362 -736 963 2644 6544 10346 11974 11169 9934 8888 3545 10396 13465 14755 14780 12500 8495 5058 13475 16591 17851 18106 13986 7810 629 -6061 -6187 -5689 -6270 -7672 -5842 -5157 -10264 -11046 -9667 -9722 -9944 -9315 -1527 -5436 -6073 -5982 -5679 -5426 -3886 -572 -2044 -481 -209 -833 -947 1089 2554 4700 7026 8462 7903 6683 6380 1661 6512 8169 9338 9766 7438 4592 2391 8282 9941 11143 12065 8547 3907 4218 489 179 1524 -1409 -1808 -2592 4984 1045 -1361 1022 646 -788 -2686 617 -3655 -6444 -4334 -1894 -4708 -6757 -2459 -8530 -12954 -13272 -12619 -12543 -10812 -3832 -9568 -11867 -13289 -16149 -13775 -10430 -745 -4797 -7895 -9719 -12093 -9620 -6367 1250 -1027 -3252 -4400 -7171 -6433 -4215 25 -23 683 3403 1881 1638 887 3933 5213 4921 9506 10502 7945 5400 1578 4531 4743 9647 13293 8093 3767 3686 5838 4610 7036 8085 6125 4941 2011 3852 4776 5848 3652 4158 4331 1468 4143 3787 4363 2594 3452 4120 1204 4324 4347 5721 3430 2690 3600 -4606 -4930 -5586 -3897 -5706 -3194 -2005 -2340 -1789 -3942 -1463 -1821 -930 608 -4285 -1316 -2832 115 1858 -671 -787 -93 3475 2248 4533 4593 4086 4124 -57 3769 5209 7588 5087 6175 5313 -985 3033 3040 5438 4555 5756 5588 -2678 468 -49 3180 2743 3366 4165 -2073 149 -1504 -1690 -3260 -8098 -4465 -618 5129 4046 5673 3908 -3918 -794 -1813 6511 11618 16857 13815 805 550 -2784 9212 20113 31519 30679 10716 4666 -1926 8916 20946 34224 32153 10501 4318 -4603 4685 11917 18712 13584 -2065 -5147 -2691 5536 6755 8113 3077 -7932 -8310 4772 251 1003 2068 2384 4753 5842 1414 -3835 -5003 -6034 -4575 396 677 1844 -5066 -7439 -13060 -12844 -3339 -759 1368 -7512 -15740 -24337 -21893 -9472 -3274 1842 -8461 -17622 -24526 -23577 -10822 -3142 3787 -4990 -10139 -14056 -13613 -2344 1845 2823 -2612 -4274 -6229 -5073 3708 5386 -1791 -1230 1712 1048 966 2232 -639 -1400 -3116 -1491 -475 984 3356 -1176 -183 -2101 -711 -1829 -1814 3499 -874 1702 -667 -3210 -8148 -7397 -301 -1855 1424 -1012 -4342 -8591 -8325 -1368 -1518 1539 -1032 -2282 -2291 -1298 5189 3079 -976 -2619 -2666 -1572 255 6366 3651 1600 1010 6417 2468 -2412 698 4014 440 -552 -1701 -16177 -21323 -3481 2980 577 753 1714 -4561 -3641 4142 3648 -1166 23 2619 3718 5436 2010 853 -1740 -851 908 1476 1997 -401 271 -1296 -692 -540 -1175 225 -1015 -2364 -681 -594 -1089 -361 725 79 -373 893 648 4193 -2659 -8189 -3429 2508 -389 -2231 -5905 -24027 -29986 -8787 1137 1026 189 -727 -10143 -9344 1927 3390 1248 1894 3360 2953 5598 3437 2330 1291 1949 3181 2750 3386 1845 2737 1233 1571 1392 -299 969 438 150 2175 1804 927 967 2654 2040 2637 -883 227 7389 8360 4895 2700 407 -586 -512 741 -8269 -13070 -971 410 -432 -1420 227 -3653 -2958 3048 1010 -1002 -2069 -533 539 2696 796 -384 -1740 -2092 -1066 -2098 -1203 -795 467 -602 -1110 -404 -1828 -930 -957 -1266 1181 -364 -148 159 1031 556 1179 1142 137 -357 -44 -188 680 1719 -4575 -9950 -12098 -7389 -2139 -527 236 4628 7781 5249 3789 2374 -601 1207 12249 22899 30092 21599 9447 3187 492 -6530 -9766 -10759 -5282 -3356 -1259 -1248 -9875 -18679 -23818 -17009 -8213 -2805 -809 4491 9657 9740 6030 2595 1059 -997 -1022 -3367 -3954 -2939 -2232 -346 1261 -2701 -10038 -13116 -8844 -3419 -1002 1190 10529 15916 13285 9329 4952 597 2969 16668 32343 42749 32482 15557 6723 2291 -10787 -14346 -12963 -6480 -3812 -487 -506 -16666 -28638 -34886 -26337 -14556 -5861 -2294 3493 8496 8077 4405 677 -294 -2325 -353 190 489 69 -1347 -496 -1100 -1617 -6580 -7832 -4571 -1660 -293 438 2719 3022 19 -810 -284 -887 1690 5487 12727 18110 12054 4156 1819 25 -3798 -5463 -6177 -2178 -1193 822 537 -5318 -9818 -14818 -9705 -4142 -794 245 4550 8696 8307 5949 3077 1665 -1196 -6221 -8026 -10152 -11834 -11775 -6799 -5531 -4490 -9105 -12766 -16625 -18405 -12121 -9405 2155 -3529 -11583 -15285 -16234 -12838 -9155 6546 6447 1137 -3572 -7855 -7957 -7764 7428 13171 12925 12603 8769 5110 2095 3153 12311 16031 18342 15221 10297 5347 3975 10229 15005 20859 20115 14892 11912 3129 4037 4660 2946 2660 3920 4190 2876 3815 5434 3159 1082 3819 5209 1450 1372 -875 -2133 -1518 142 2673 1298 3431 2700 614 -14 1031 2235 -3827 -324 552 665 131 388 1028 -6697 -2780 -407 -765 -2720 -3332 -2900 -5695 -5057 -2328 -1128 -2207 -4175 -3192 3709 6293 7796 6848 6271 5386 3255 2642 5702 11005 11538 9846 9290 7911 -2019 449 2814 5305 7289 6407 6550 -1837 -285 2091 3613 6000 7353 7987 -7054 -7524 -7439 -6443 -4377 -1702 1149 -4994 -6999 -7802 -9847 -9886 -7418 -4162 -3361 -7371 -7693 -9305 -10093 -9906 -7256 6719 5828 5225 1799 -922 1109 2253 4506 3908 1052 -2995 -5096 -2419 -714 1644 -97 -2366 -6060 -8289 -5718 -2075 361 -2469 -6807 -9799 -10571 -7479 -2715 -981 -4097 -6623 -5996 -5489 -5592 -2899 86 -2651 -5861 -5754 -5045 -4776 -1447 2460 1488 -1457 -5742 -7433 -4579 42 -717 -175 300 -639 -1282 242 216 -307 1009 -215 -1259 -1292 141 -38 -1649 -950 -1021 -1661 -3240 -2315 -1539 -958 -745 -2497 -2298 -3417 -3610 -2794 -936 -1089 -431 4028 3971 -844 -2931 -1259 -1755 -2316 1631 2142 -1360 -2469 -56 246 -903 -2068 -3391 -2479 -928 -6160 -4799 -3475 -1399 -276 1123 -523 -3476 -307 418 3847 5340 5623 3068 -2466 563 3209 8118 8080 6431 3275 156 3832 5394 11135 11481 8311 4634 1298 4731 7741 16949 18172 10657 4170 874 2427 2770 10537 13150 7888 2830 -548 1376 1749 4344 4688 3939 2674 5765 3633 3162 894 626 3764 6321 6174 3548 126 -3075 -2691 568 2659 4971 1935 -2935 -5553 -5783 -2570 1346 1568 -4400 -9963 -13354 -14803 -9872 -6356 614 -5205 -8874 -14116 -14341 -9399 -6278 1082 -5046 -9336 -11330 -8992 -6152 -4083 3465 -1022 -5813 -7694 -5062 -1883 -1973 -9025 -7348 -6450 -3510 -3613 -6846 -7054 -6786 -5112 -4409 143 1513 -2579 -3591 -7218 -2536 682 7976 10107 5108 2597 -1640 4787 11174 22509 23416 17498 9770 1314 9674 18931 28485 29940 22401 13139 -2188 5959 13714 22885 25641 17342 9616 -4407 3490 7512 14948 17199 10497 4562 3646 4049 4444 2622 2625 3006 3752 3871 4398 4868 3082 2403 1710 2255 1219 3465 3362 176 -1908 -1919 315 72 57 -2049 -8120 -11875 -7274 -2173 302 -852 -4331 -16140 -19721 -12783 -4043 149 -1777 -7678 -18297 -19760 -14186 -4703 4017 3871 -1518 -9011 -9947 -6569 -500 -2230 -1646 -1674 352 691 -24 -1966 -3056 -964 -610 896 892 1352 -561 -3043 -1710 -551 2040 1091 1153 176 352 1492 2036 4963 5114 4456 3670 -324 1409 2603 8202 11881 9859 4926 -165 2351 4591 9669 14593 12817 6802 -1583 288 1765 5453 7295 8218 3733 1742 1000 -658 5 424 544 -1307 536 968 -270 -678 -1547 -240 -576 -882 -914 -1366 -969 -3171 -2991 -2018 -927 -2271 -3192 285 1325 -877 -2732 -2279 -3699 -2686 6908 13648 8625 -1218 -2240 -3267 -1472 7179 15397 10852 -467 -3355 -4592 -5284 -2353 291 118 -5525 1778 1460 -83 -1037 -518 546 98 1577 2648 1704 256 -595 1163 1971 1685 2005 1227 -345 -2515 -1294 1270 1755 647 -2035 -3685 -4037 -4666 -3166 1969 245 -2957 -1091 3374 -490 -5668 3340 1841 -1462 -1327 3807 656 -5077 3669 2245 -1976 -6038 -6384 -4983 -6178 -3092 -3731 -1237 1174 944 -430 -2274 -3180 -1795 2242 3563 4087 3002 1136 -2703 -667 2396 4181 5589 4695 1913 -2856 -592 2352 5320 6260 4043 1944 -2358 -1137 2801 5819 7725 4453 2598 -2744 -1717 1159 3458 5645 3528 1749 -2911 -2072 15 1792 2197 766 119 1723 2012 2843 967 1062 4165 5828 -203 1671 2139 -3899 -3542 2225 5861 1190 3099 599 -7669 -7520 -682 3926 643 1843 -751 -7799 -8412 -3748 1406 558 123 -1019 -6757 -6367 -3685 648 910 579 -769 -6373 -5990 -3094 527 2414 2473 1393 -3345 -4865 -2228 1309 3926 3146 3121 -1959 -1840 3013 5666 194 973 158 -9682 -10342 -3050 2470 1590 1960 -1343 -13209 -14236 -6109 344 1350 1444 -1610 -12252 -14007 -8033 -1057 1262 226 -1147 -10578 -11289 -7047 -1817 1947 1355 56 -9007 -9773 -5570 -1398 3595 3405 2682 -5157 -7334 -3778 583 0 0 0 0 0 0 0 0 0 0 0 0 0 0 0 0 0 0 0 0 0 0 0 0 0 0 0 0 0 0 0 0 0 0 0 0 0 0 0 0 0 0 0 0 0 0 0 0 0 0 0 0 0 0 0 0 0 0 0 0 0 0 0 0 0 0 0 0 0 0 0 0 0 0 0 0 0 0 0 0 0 0 0 0 0 0 0 0 0 0 0 0 0 0 0 0 0 0 0 0 0 0 0 0 0 0 0 0 0 0 0 0 0 0 0 0 0 0 0 0 0 0 0 0 0 0 0 0 0 0 0 0 0 0 0 0 0 0 0 0 0 0 0 0 0 0 0 1041 219 127 -36 134 -139 397 1147 515 -639 -1332 -1027 392 713 1628 1945 661 1626 169 307 1053 514 1418 1875 3648 628 -151 904 608 975 981 1423 -14 103 659 948 1635 1200 563 283 554 984 2120 1089 989 1457 826 1423 1935 349 -1016 43 81 -75 289 1225 -1204 -2152 -1836 -2257 -2632 -1105 -396 -1200 -1257 -612 356 -1978 -1975 -781 -2317 -1975 354 2344 -1835 -2820 -1024 -1550 -2667 -1329 -1010 -2790 -2132 -664 -1058 -2434 -1708 -2409 -2786 -1373 -68 -35 -2913 -1820 -1043 -1553 -185 612 -1747 -1600 563 1514 621 -256 -562 -1622 -199 2494 3088 646 -405 -1077 -876 2613 7683 10820 4436 -357 -1462 -1634 3186 11424 16012 6661 -635 -1629 -34 2184 7139 10130 4295 -443 -1028 -537 23 2448 3366 675 -1174 -1364 180 -1210 696 2077 39 -615 -875 0 0 0 0 0 0 0 0 0 0 0 0 0 0 0 0 0 0 0 0 0 0 0 0 0 0 0 0 0 0 0 0 0 0 0 0 0 0 0 0 0 0 0 0 0 0 0 0 0 0 0 0 0 0 0 0 0 0 0 0 0 0 0 0 0 0 0 0 0 0 0 0 0 0 0 0 0 0 0 0 0 0 0 0 0 0 0 0 0 0 0 0 0 0 0 0 0 0 0 0 0 0 0 0 0 0 0 0 0 0 0 0 0 0 0 0 0 0 0 0 0 0 0 0 0 0 0 0 0 0 0 0 0 0 0 0 0 0 0 0 0 0 0 0 0 0 0 -2012 -1600 2996 7247 -1815 -2396 1538 1553 -2045 -14069 -5936 21817 5781 -2982 -568 7040 11917 -26161 -32955 11942 7899 1400 -8241 5270 42436 -5375 -25049 -1451 2786 8574 -21082 -17185 28188 6214 -4221 -2978 1980 19813 -7642 -12868 844 2151 -685 -3473 -3115 8477 2539 51 -1847 390 -722 2564 5963 -2248 -2808 2798 2009 -1541 -15094 -11301 19200 4831 -3944 1262 13568 24443 -23215 -40463 5970 3806 -4803 -13916 12191 64413 7827 -25436 -4128 -1498 118 -35928 -21604 39619 15275 106 -676 1799 15165 -20608 -19469 2149 6110 2927 -1229 867 8140 -804 -2638 -1451 -1319 -1757 1068 2843 -7307 -3232 4124 2134 -853 -9995 -4156 16664 152 -6309 434 7613 15500 -17042 -24338 9411 -167 -565 -8409 5229 43017 3454 -15720 -716 -1405 4183 -22753 -19861 25063 7986 -1413 -1948 -325 15639 -10474 -14537 1342 4195 2360 -1856 -3369 4889 -273 -1349 -446 -1103 -5485 505 2675 -370 908 -1794 -3613 3367 -6151 7428 8130 -754 -3387 2407 -8075 14130 27055 -18229 -5774 1044 -760 4096 32116 -32228 -16433 9371 -2246 -141 16329 -15299 -26140 24803 -10523 2188 2291 2364 -17983 12039 -4929 -8268 9629 -533 -4138 -2043 1415 -895 10035 -435 892 -1066 4584 -567 -4765 1633 521 -914 3769 -10371 1840 6281 290 -2415 6019 -11198 9721 21060 -20563 -233 2821 -3690 -844 26884 -42370 -10080 20124 -2964 -3514 14652 -18421 -21684 43115 -7658 -3607 1127 2073 -16348 21997 197 -15010 5375 908 -450 1954 2301 -7417 4450 -1429 1159 1273 6209 -3669 -5438 2794 2195 -414 6336 -12526 -8984 3238 882 -935 6472 -13100 -5020 13057 -10049 2927 3003 -3347 -10735 18506 -20505 5574 18919 -4427 -4917 7961 -8317 -2893 36885 -10667 -4250 -508 1404 -6382 23011 -5511 -13828 2576 2233 820 5180 272 -9654 2289 -3195 -1545 5073 -6349 -8036 4669 5782 -331 -459 7193 -4764 -19896 18418 5351 -3597 241 7851 -3243 -33478 31880 4299 -4844 1005 6104 -4053 -33295 32209 1815 -4510 1231 5711 -4338 -20186 17712 1917 -1240 530 4991 -5423 -4845 4583 2608 -154 500 3753 -6808 764 -1225 1696 1804 -1451 6271 -5822 -8173 5561 8657 -3204 173 7535 -8444 -23816 24847 10039 -9154 1111 9270 -8730 -40597 44330 10913 -12431 1430 7642 -9136 -39433 47073 8939 -12495 183 4756 -8066 -22795 25918 5666 -7030 -683 4885 -6591 -4208 6680 4445 -2997 -1233 4109 -5599 2873 -1511 3233 253 -1643 2470 -2053 -2151 2999 5030 -2536 -190 2132 -751 -10888 15296 2632 -5499 -861 682 326 -22581 27972 -280 -8355 237 208 991 -20824 29319 -1335 -6545 947 -267 -696 -10770 14575 -916 -3783 -565 593 -2836 551 2818 1426 -1587 -95 1103 -3729 4740 -1186 3249 74 544 476 1939 1601 -3197 -1611 1875 1428 4880 10019 19726 17515 10762 6050 -4500 -8572 -16789 -20129 -10434 -2802 -3018 111 -920 -7759 -25168 -38952 -27413 -14994 -1707 2884 14205 31107 27566 16906 4987 527 1076 -1898 -2210 729 3654 1005 -163 -36 -1866 -1502 -2439 -205 246 -785 1291 3266 3085 -244 54 1805 115 4970 11152 21888 23061 16094 6354 -6919 -12066 -23297 -29123 -16555 -5996 -6277 -32 -1862 -10972 -33349 -47948 -34903 -19816 371 6299 20658 41017 37992 22244 6729 1870 3355 835 1441 6216 7545 3489 -1288 -560 -2570 -3586 -4926 -2103 -1071 -160 -732 -2041 -3011 -3237 -2534 -454 -440 2753 4272 10176 8911 5039 1161 -3852 -3418 -8107 -8781 384 3342 -368 376 1245 -2258 -13465 -21868 -14384 -6602 -1565 -473 5421 19582 19005 10759 4271 3670 2451 -2355 -5816 -3276 -903 773 -734 -375 -852 -574 -2245 -1689 -664 -543 -14975 -7701 7370 3300 2635 3133 -16591 -18976 6366 16339 2962 3109 340 -11160 6524 27061 20465 2793 2451 -2419 5365 19833 22309 10338 -7910 -8318 -8056 8066 10861 6993 -8289 -21447 -12376 -5447 5337 5179 -1573 -17432 -16372 -1242 3895 2903 -1024 -7723 -13955 -3971 7597 5668 -970 -16894 -9871 5842 1984 640 1718 -17430 -20566 7495 18520 4499 3588 1653 -12940 6732 29446 22642 3478 2397 -1434 3771 21101 24824 11317 -8579 -9085 -7666 6750 12151 9088 -7106 -20913 -11742 -4166 3967 5991 -948 -17913 -16111 -621 3776 2534 715 -6313 -13489 -2632 7557 3819 8639 -6459 -4971 2126 -1545 -2226 283 -4110 -13328 1482 5197 -2820 607 2360 -6342 -32 10470 3943 -2538 2459 1575 -211 4749 5832 2002 -3601 -1346 -541 178 346 1534 -1450 -5108 -422 1871 -366 1537 1614 -5283 -1997 3870 2728 2291 1659 -22 -3450 3290 4739 -97 -881 -2112 -10443 7246 10995 -786 -4841 2727 -4709 -16389 19357 19898 -6396 -7238 801 -7733 -19366 25067 20569 -13094 -7628 530 -7105 -14678 27584 15528 -17383 -7346 -40 -4906 -6985 19796 6781 -13235 -2818 121 -3326 -1688 10625 176 -5954 975 -1165 74 2459 6207 -1283 -1391 1301 -694 -2436 -12349 8527 13988 769 -3021 687 -7509 -19578 23936 25408 -5969 -8643 -1444 -10669 -20929 33550 28036 -14323 -10838 -1447 -9632 -14954 37370 22683 -19483 -9709 -3172 -6843 -7346 25538 8460 -16543 -4993 -102 -1889 -338 13183 202 -6992 1514 -701 1127 2912 6863 -1062 -1149 1904 -113 2492 -7189 2898 4457 -801 586 1698 1017 -12928 10626 7974 -7129 -1648 737 -735 -16070 13820 9058 -10045 -1023 1724 -771 -12791 16884 7996 -11794 487 658 -792 -7710 10562 1525 -9010 2069 1686 41 -3249 4876 -1215 -3334 3838 -816 727 527 3245 -1487 -916 1569 5519 4969 1187 -4482 -4637 3540 8396 4508 1338 -4934 -11936 -13402 -3232 4515 3488 -1769 -8508 -15334 -17162 -8298 2017 -592 -5552 -11411 -18236 -18180 -10927 -1553 -4174 -8306 -11855 -16956 -18047 -12521 -3804 381 -175 -3190 -10027 -12085 -6669 1102 5749 6133 2798 -4051 -6700 -1289 3860 -6467 -2832 -1517 -317 1612 1225 -724 -3147 39 1710 4089 3843 3477 1531 -860 2233 5130 7843 6454 4407 3536 572 5064 8022 9873 10564 7477 4985 -744 2667 5940 8845 9315 5420 4137 -2916 944 3015 4350 4804 2709 3054 -3178 285 709 1409 1527 562 820 -724 1103 683 286 2334 1036 -1283 -406 84 -582 414 1151 -237 -2662 627 496 1046 1560 692 -1332 -2739 836 944 1106 643 1281 -941 -2979 673 113 412 665 1405 -1663 -2525 -409 -293 -44 -520 687 -1261 -1718 -133 -339 -527 -494 655 -478 -1267 3834 447 1757 4199 3973 2769 1870 -3655 -4637 -3467 -960 185 -241 -831 -3734 -3679 -3187 -1951 -462 176 -958 -1035 -814 -247 -1094 -848 260 -1050 2073 4840 5368 4199 2486 2085 -255 1041 2766 3117 3028 1459 -1472 -4731 3261 3375 2498 1894 258 -3879 -6817 2213 -639 147 2117 1730 1829 1665 -3394 -3825 -2986 -1323 -493 209 782 -2524 -2375 -2809 -2137 -677 1073 981 417 380 116 -917 -628 1520 1306 2863 5650 6011 4027 2177 3193 1779 2161 4660 5100 4883 3023 1104 -1361 5032 5796 5200 4767 3249 -32 -2785 695 -1358 -641 816 312 767 1026 -3131 -3162 -2809 -1371 -863 204 844 -2398 -2639 -3344 -2398 -1742 517 1222 -16 -604 -1603 -2056 -1786 1234 2457 426 3004 2726 1280 -286 2480 2786 -547 1095 1308 1708 465 1033 461 2481 2373 1351 1910 1441 789 309 -675 14 -1328 -167 1756 -315 -168 -3060 350 4529 575 -2906 6 638 744 9809 1320 -15038 -1448 6543 2510 4750 -3007 -29456 -5765 25274 5171 -4486 163 -15958 180 44570 15260 -14053 -2220 -2936 1051 25475 8105 -27606 -13225 3196 1053 4847 1026 -17425 -5671 7667 5626 667 1375 -975 -2359 1214 1307 390 -587 1847 3574 -3697 -3894 2553 1487 2682 8002 -7615 -23867 -980 10209 2722 1854 -12043 -40614 -1808 37842 10007 -5930 -3328 -19999 7302 66615 27215 -17595 -6899 -3041 4596 37036 15801 -34501 -22359 -743 2764 5934 676 -23663 -14094 3760 6112 1126 679 -1943 -1318 962 -304 794 -1710 -382 2812 -483 -2819 -424 -473 -165 6701 -795 -14670 -2598 5037 1478 1757 -4771 -26534 -5707 20403 4382 -2955 -245 -12192 1589 40870 15084 -9322 367 -2425 432 21878 7539 -21889 -8839 1527 1940 3500 1557 -12965 -2755 5217 1205 0 0 0 0 0 0 0 0 0 0 0 0 0 0 0 0 0 0 0 0 0 0 0 0 0 0 0 0 0 0 0 0 0 0 0 0 0 0 0 0 0 0 0 0 0 0 0 0 0 0 0 0 0 0 0 0 0 0 0 0 0 0 0 0 0 0 0 0 0 0 0 0 0 0 0 0 0 0 0 0 0 0 0 0 0 0 0 0 0 0 0 0 0 0 0 0 0 0 0 0 0 0 0 0 0 0 0 0 0 0 0 0 0 0 0 0 0 0 0 0 0 0 0 0 0 0 0 0 0 0 0 0 0 0 0 0 0 0 0 0 0 0 0 0 0 0 0 -509 -329 85 1189 1329 -1472 814 -541 -3698 -4966 4130 11850 1258 -1930 1802 -2379 -17129 -17392 10402 12406 4268 5521 12811 -115 -34308 -19733 2026 7163 1054 12944 24728 -2345 -18473 -13003 -2901 -4352 -387 15506 14898 3463 -2255 -3447 -6973 -7756 1323 6994 2801 -953 -827 -1416 -2476 -796 2138 3335 -395 1555 -550 -5158 -7716 4449 16673 5748 449 2065 -3764 -25892 -26987 9556 17332 8667 8311 15927 -5367 -48506 -31300 -567 10038 5386 19721 29189 -8438 -29832 -20742 -4350 -1187 5095 21807 16926 1078 -6356 -5756 -4459 -3236 6486 11067 5620 1167 687 146 -354 927 -206 -749 -2535 -1163 -165 -661 -39 6364 9142 -2679 -4577 -1009 -1196 -10744 -8332 12716 8776 315 2071 8272 2025 -22215 -9062 6172 6921 -1437 4441 16053 -2760 -12717 -8545 -964 -1835 -3474 6724 7290 2059 -750 -1489 -1162 -3337 426 2071 435 354 1230 -1723 -1447 3830 1539 -2164 557 933 -1311 -3658 4464 880 -1267 -1206 -136 2296 -11519 8747 5641 -6492 3472 -2179 8414 -12307 -13779 29170 -12472 2735 -564 3420 14304 -42954 23479 9416 -7864 1612 -8343 21345 -18486 -15956 20512 -3399 -227 708 1058 11367 -16982 2580 2286 -664 -1232 -2127 3309 1396 -504 214 -185 -1044 -4412 4666 1626 819 -207 273 3540 -16541 7767 8103 -5706 4965 -1582 10997 -17983 -20366 35438 -12007 2341 1623 7179 15099 -55271 24137 14429 -9170 2663 -6342 27976 -23563 -24655 23451 -2740 1228 -1887 4321 14844 -22093 808 884 -465 -9 -1698 1465 1295 -672 -381 199 1558 -1100 536 -1973 2189 612 825 3867 -5617 6098 -2234 -5738 5613 -1287 5310 -2869 -6452 18233 -18677 3572 1297 -1683 17939 -26056 20388 -1365 -10390 2336 -11994 16955 -4429 -9386 13164 -6028 1344 -3743 -6023 13825 -8044 2112 421 890 -209 -1380 -1326 1178 2205 -2416 36 -375 239 2694 5178 2357 -7192 -5398 -1721 -5978 -3117 9664 18349 -50 -9596 1429 -5150 -21550 -17805 21402 20379 2809 4061 9829 -3858 -39745 -17107 12811 10364 -349 7242 20051 -4942 -22178 -6719 2071 -3352 -3673 7897 11134 -736 -4366 -4999 -304 831 175 2475 2437 -2907 -280 -3063 89 2860 8099 6975 -5149 -5709 -4924 -8674 -6016 12220 25894 5999 -6456 -104 -8788 -30403 -25016 24339 27492 8242 5144 9951 -10168 -55029 -26735 12050 12183 3271 12010 22656 -10130 -32099 -11887 945 -878 1166 12359 12873 -2237 -6110 -5107 -440 -585 -1425 639 2386 -710 1631 -1748 -108 925 1746 528 -5486 -3072 -1709 -3470 -501 8204 12569 -2121 -6722 350 -2249 -13024 -9957 19083 13544 559 584 4957 -1800 -30090 -12286 8291 4167 20 2506 14576 -1318 -15690 -3723 1741 1021 -3377 2387 6267 -295 -2943 -2629 379 245 1315 -195 -1559 -1997 376 -91 -201 -993 -1326 -1772 -2155 -2058 -1915 -2293 -412 3000 1901 -1600 -2040 -2512 -2939 1961 8547 10202 2903 -719 -3091 -3191 1559 7443 7600 1777 -2689 -1057 -1579 50 1698 78 -3519 -5609 -595 276 169 663 -2377 -4646 -7633 -3475 -930 -451 -1457 -1660 -3978 -3639 -1378 3477 4027 4853 4880 2328 847 -1123 4064 8900 14457 13885 7671 4394 -531 5877 14376 23067 24865 14981 8627 -1223 5607 13428 21393 21870 14211 7686 -3202 2715 7029 11536 10947 5868 3480 -5413 -557 1820 5613 4279 1682 -230 3146 -1360 904 2576 4015 5940 4730 2864 -2175 -3807 -4683 -3761 1409 1808 4703 -2904 -10160 -16002 -17097 -8695 -3219 4686 -6074 -16670 -28970 -29021 -17921 -7844 3493 -5942 -16246 -29762 -30363 -16838 -7021 6236 -125 -6282 -15038 -14853 -3383 4002 5310 -84 -2514 -4568 -3085 4849 9180 -694 95 264 -201 -418 295 -501 -1269 2567 -3332 -283 3917 -4101 -28 -1364 7651 3241 -21059 10504 5978 -4024 -1365 -7792 33523 -10051 -28182 12041 867 7142 -18559 476 44504 -15915 -9294 5198 1552 5526 -29618 9467 19187 -8765 -175 -1993 6690 2986 -11564 4592 26 -1502 2384 3033 -369 -4636 -966 1868 898 -762 6034 -2215 -4528 3127 -2790 2556 -3031 11103 8729 -28243 4246 6856 -1805 -5924 -9133 49374 -6018 -41381 6268 286 4167 -27694 8144 65556 -15679 -16356 2588 1273 -1969 -37897 17283 28892 -7327 1394 1548 4247 -3694 -17171 6073 2144 2206 1327 1632 985 -2216 -1867 516 371 -841 2907 -1415 1255 2359 -3892 1098 -2702 6677 3738 -16444 9959 4002 -2866 -2788 -9737 29228 -8210 -24156 10884 173 7067 -16516 -845 39212 -14428 -8555 2173 465 5656 -24127 6810 15724 -7015 -223 -924 2302 3660 -10426 4241 1661 1430 1651 3340 2201 1362 138 -1667 -2515 2384 3638 1981 444 -1365 -2491 -2930 1649 1644 -1156 -2486 -2910 -3053 -3114 1266 71 -3030 -3468 -2666 -2074 -1676 2753 1079 -1706 -2247 -1525 -289 700 2479 1551 -549 -888 -677 -36 948 1764 1684 537 927 1044 789 1738 1980 3110 2289 1658 275 -1611 -2342 1590 2562 1185 -266 -2220 -3116 -3613 824 754 -1447 -2731 -3406 -3569 -3526 323 -523 -3071 -3422 -2924 -2444 -1878 2118 718 -1570 -2051 -1440 -409 528 2075 1490 46 -287 -206 416 1369 1401 1406 886 1329 1204 872 1718 -872 -1521 -1064 -169 -521 -1653 -2339 -2103 -2175 -1739 -1366 -1934 -2262 -3114 -1973 -2139 -2328 -1925 -1700 -1660 -2350 -2018 -2375 -2722 -1946 -1123 -989 -1266 -1097 -1865 -1954 -1456 -969 -424 -311 -1159 -1800 -1572 -1209 -1314 -1158 -930 -2406 -3271 -2741 -1903 -1994 -2506 -2143 468 216 1525 -2274 3626 -1304 -2321 -755 2800 191 -7652 14708 -6980 -1765 -449 5796 -15457 10271 17405 -28277 9289 549 96 -11476 33996 -28791 -13563 17866 -311 -3733 9510 9977 -39380 28391 -1156 425 -108 7547 -14215 -3425 16412 -10332 339 -467 531 -7673 8554 539 -2152 -63 -1929 -131 -1975 6747 -522 -4760 -147 1860 -1319 -4556 19527 -11683 -4784 -873 5047 -13487 20838 17501 -40438 9641 -849 -2174 -7267 43053 -42811 -24642 23756 -660 -3694 14716 8769 -55076 29414 6678 1327 1052 9977 -20543 -8669 22533 -5585 -690 -1080 154 -11072 8756 2751 -1628 92 -1056 1920 -2015 2725 -70 -1780 -1 829 509 -8556 11595 -4715 -3146 -1201 5526 -11553 6070 15432 -23017 6166 -203 -59 -12071 28521 -20897 -8271 12492 -633 -3937 6642 10692 -28894 23642 -5950 952 -385 7560 -9400 -867 9315 -8218 -461 -489 1210 -7212 4252 -2542 533 847 -1347 -1544 1435 -3482 -7016 2207 987 -1041 -1911 2450 -5099 -15582 -13206 2216 1169 -234 8413 3324 -12256 -18110 2653 4444 2035 11194 12618 -3668 -14577 -959 2378 3346 9418 11643 965 -10436 -3358 -3297 317 8055 7961 2556 -5655 -270 -2686 -3581 5581 8079 5264 -3033 88 -1682 -1412 1113 -4030 -8173 2340 325 -1364 -2092 1818 -7219 -19920 -16781 2732 2187 865 9767 4010 -15733 -22800 3129 6396 3747 13562 15737 -4995 -19240 -223 5359 5710 11369 14946 1887 -12508 -3950 -2031 1265 8975 10059 3732 -5601 -832 -2786 -3651 4931 8642 6157 -2018 -240 -886 -886 773 -1468 -2450 8885 -427 -1459 -3143 -253 -4321 -9501 -3577 1715 416 -1999 3989 2415 -7482 -7732 2186 3484 -57 5597 8911 -1886 -6894 -928 2468 1575 3190 6113 -214 -6322 -1765 -1282 -58 3164 3152 232 -3225 672 -793 -2340 2126 3806 2439 -1682 -2256 1291 1706 445 632 1365 -2556 -946 5407 7887 8506 11724 12277 8769 -1665 2383 4289 6208 7654 8111 7356 555 2720 3880 4360 5190 5492 5777 -2488 -56 349 -829 -452 1169 882 -2925 -1722 -2470 -5295 -5385 -2528 -2111 -5966 -8232 -8901 -12221 -13537 -12363 -12199 -1218 2684 3642 3156 2902 2433 -1738 885 7861 10656 12245 15464 14945 10980 -390 3948 6280 9131 10404 10029 8830 1552 4370 5320 6134 6852 6522 6137 -2535 -10 55 -1548 -1156 850 -61 -3688 -2978 -4439 -8059 -7785 -4721 -3615 -6739 -9799 -11412 -15256 -16303 -14568 -13765 -3352 -515 -917 -922 -637 -1423 -5464 -1047 4652 6141 7743 11790 11236 7352 -1681 1701 2462 4680 6373 6093 5404 841 2778 2572 3095 3323 3038 3073 -1427 1282 924 -576 -1018 -447 -1318 -281 372 -1328 -4025 -3952 -1774 -1330 -2010 -5153 -7178 -9810 -10407 -9045 -8496 52 946 -784 1170 7 547 1122 -60 118 435 493 -186 -832 1328 1422 317 -1970 -1939 289 400 96 1819 -6647 -9860 -7196 -3741 632 -525 1498 -8402 -12515 -9181 -5066 -1407 -1963 4580 2030 -769 489 1164 1569 97 1705 4607 4508 3185 1289 842 653 263 -363 -1919 -862 -2116 -237 982 -3 -1279 -1594 -1653 -1905 -1993 403 1123 -1566 -4450 -3957 -1423 -541 -54 1857 -8852 -13022 -10363 -6237 -542 -1061 2200 -10096 -15694 -12596 -7784 -2311 -1719 5124 1156 -2626 -1664 -496 1456 405 460 2406 2479 1606 -351 1080 750 -403 1302 89 1877 933 1530 1162 1078 2219 2465 3046 2683 661 1518 2605 3230 2213 2614 3811 2355 1135 3710 -1852 -4251 -2128 239 3434 1555 2456 -4438 -8453 -6357 -2792 869 645 2729 1184 -2002 -1781 -893 556 -991 -166 2374 1905 440 -1193 -149 -274 229 -1469 2677 -4113 776 -2931 1967 571 -936 3248 907 -5252 387 3325 -461 -849 -240 9069 -17115 2006 4373 -819 268 -3063 22886 -26652 -3079 12323 -1504 -193 -5653 27747 -26030 -13507 15624 -190 210 -4787 21182 -14623 -13410 13710 338 913 -1272 9083 -6572 -11791 7409 1300 -809 5391 -2714 -1614 -3334 622 663 -669 7260 2210 -8958 -479 3596 -1582 -1760 5197 13322 -24466 -1545 6626 -2215 -1029 3756 34501 -37191 -11194 16825 -2006 -2025 155 43202 -36121 -25052 19550 -1231 -1749 -578 33572 -20163 -23426 15779 422 -1005 1020 16027 -7704 -16225 5739 895 -1503 3710 -3154 -1171 -1431 -494 590 -715 4326 1906 -4386 2700 1266 -1000 -154 758 8734 -13874 4019 -178 -2085 982 -2321 22345 -19928 -1534 4877 -2792 -111 -4620 27641 -18189 -10155 7255 -1694 -671 -4454 20668 -9254 -9597 6644 -224 -567 -1327 9733 -2718 -6642 2282 586 -770 -2348 -288 -653 289 648 -5567 -6001 -273 4290 2649 1158 -683 -2597 5557 16912 15430 3459 -410 -2941 5702 16351 13648 -8335 -20687 -8000 -3711 8383 2128 -19223 -32641 -10505 7064 3705 -3048 -13893 -17123 -3099 16306 8974 541 -3636 182 6745 9274 6550 -2933 -4845 68 1036 517 1497 355 170 -565 -3103 -1315 5020 8238 4404 795 -1341 1730 12695 23918 17844 245 -5317 -5172 10760 22068 12497 -19694 -34022 -15593 -5829 9248 -896 -32286 -49434 -18583 7546 7188 -8303 -22614 -28105 -7926 21235 14918 4452 -6744 -656 8882 16339 17228 4501 -1606 1792 1662 733 -129 -538 -58 -258 -1178 -3150 -1277 408 1426 129 -223 -1590 2949 10230 9896 2793 -1232 -1352 1586 10490 8115 -8433 -16806 -7907 -2750 4952 2375 -15023 -25675 -5750 5551 3741 -4257 -11892 -14307 -1474 14398 5229 592 -3735 1329 6679 7607 7254 -73 -107 -4056 -1979 1259 4878 2861 -1449 -2766 -2494 398 3001 6787 6293 3883 1963 -1944 181 1340 5076 3920 2714 1516 -822 1614 854 3610 2262 2519 436 780 2995 2942 5888 3107 1459 -360 -2127 -800 1443 6389 3805 -491 -3914 -2838 -1845 -387 6676 5797 553 -3278 -4016 -917 1129 3590 1202 -2143 -2690 -2064 1602 2982 5475 4378 3059 2178 -2111 1357 1529 3852 2311 2390 2050 -292 3190 1797 3533 2060 3445 1934 1162 4000 3161 4988 2476 1893 916 -713 1446 2800 6399 3948 1061 -818 -1460 866 2024 8027 6817 2629 -349 -5591 -2792 446 3774 2015 -2281 -3273 -1914 1190 3348 6382 5911 3502 2632 -2616 -72 630 3281 1580 1723 1670 -1701 975 -476 636 -447 1223 267 -208 1995 1069 2749 360 -410 -554 -1506 -184 1520 5083 2351 -936 -2124 -648 462 698 6104 4619 851 -546 -515 1304 2241 2416 1880 840 1188 576 -2154 -2340 1752 4753 3007 3432 -2367 -7784 -9022 -5228 2215 2477 1765 -753 -4780 -6386 -4701 2 1481 1263 1135 259 -539 -895 180 1200 1052 -62 1076 1124 471 220 1497 43 404 1778 939 787 497 1230 1023 -879 -33 530 247 -399 605 1032 -1202 -4455 -4632 -912 1956 1721 1558 -3562 -9609 -10624 -6564 772 2128 785 -1957 -6452 -7600 -5204 -656 1596 660 54 -1151 -1280 -926 -271 1615 844 -41 772 1625 1333 400 2569 633 -470 438 345 372 -498 1786 1162 -15 -323 150 -1097 -3142 -1714 -1541 -21 -3375 -3930 -1876 -1138 -1529 -2445 -1485 -6515 -7324 -5112 -768 -548 -2661 21 -3863 -4437 -3622 -1904 -756 -2167 749 -526 -98 -1127 -2236 -571 -1541 193 44 1306 403 -1441 970 -949 -1250 -1928 -1525 -1866 -3184 -855 -1596 -2378 471 1251 2425 1284 974 -1133 -724 5614 8301 6234 900 -3 -1976 7419 12212 3319 -11466 -11359 -4721 -4094 8973 -2487 -24704 -25889 -3840 5734 3496 -3477 -16895 -17529 3439 17551 9400 3613 -1376 -1964 6713 18348 13659 -272 -2498 -1451 811 5524 5593 -2948 -9625 -5956 -353 2149 1014 469 -507 198 73 4045 9764 9597 4186 -1893 -1325 -602 10581 13687 -1677 -20737 -17876 -7035 -4126 4670 -12417 -39823 -37711 -6501 7573 5222 -8993 -26779 -25264 5591 26768 17171 8841 -3892 -4009 9303 25383 23448 5956 -113 515 3827 10052 11474 3083 -6616 -6417 -372 879 -1734 -735 294 135 911 432 2961 3949 4635 941 -332 265 3621 8124 2830 -8450 -9493 -4881 -3770 3514 -3053 -18502 -19075 -3180 3863 2234 -2065 -10704 -10351 6471 15010 7875 4718 -685 -73 5543 12748 10320 1451 -660 -318 -328 2381 2661 -1596 -4665 -4376 