1000 
-172 196 42 -1763 417 869 -732 1352 -238 -807 -827 -472 -1266 -1635 -778 -545 -627 -1091 601 -1006 467 2014 867 -508 310 732 1045 -1095 -66 -243 427 -789 592 -54 580 -1724 -956 192 194 -1253 -314 906 647 -1206 1293 111 813 -365 -695 26 280 -871 1354 1111 183 48 862 211 685 1082 60 258 -370 1269 493 880 -864 -657 471 -151 -1238 820 128 483 -633 1323 502 1214 1029 1217 -454 1119 598 -2547 -1580 -450 -763 516 118 1866 -1269 -1067 686 -853 -551 -1914 -162 -571 -1074 -609 -1044 -1726 -72 1480 140 -1521 -923 -368 -1316 -1984 -3248 1525 980 -507 -258 -2466 -1587 -668 -504 -270 -193 -407 -791 -459 -255 -1111 -1611 362 -546 -463 -1574 -417 48 346 -1453 -1767 -1179 -1074 140 -1056 -1055 432 -1313 420 -825 -499 747 -2954 -603 -1019 -890 -94 -1275 1359 -686 414 545 -707 -1238 384 -132 2125 2659 -2 713 -1084 -34 -1500 303 -317 667 1176 315 405 944 -792 -573 127 962 816 462 -273 789 -1323 649 916 -67 376 91 39 -36 1600 1512 -957 733 2268 1110 283 -1678 804 -1691 559 1339 1478 1505 579 -910 253 -609 1521 -979 453 328 -1133 67 -669 -635 2263 401 759 -1345 -1438 348 2234 -380 1927 -576 -344 -1250 1989 1208 -1390 1207 906 1169 -293 2349 1426 713 2638 -131 -198 611 -1068 63 1223 -1085 980 -243 -502 0 260 -629 -1103 3 -420 543 315 -75 320 1136 257 -511 1051 647 -664 1370 -414 -1516 76 1472 -438 1200 958 -763 -937 850 -634 -408 863 442 3042 -1832 -990 1881 602 -351 -395 -472 -605 121 -203 -550 -1098 268 409 -81 -846 234 721 -870 172 589 428 -788 1123 1176 -693 -1766 -888 -636 -138 2318 1205 1748 -69 -222 -320 879 -914 -1281 -1526 -2479 -959 -1397 -2028 -2019 127 187 -1389 684 -741 -279 1484 -843 -722 808 -1314 -1431 -446 -687 -1723 -652 -849 -162 -464 1179 -421 518 -805 643 174 -1410 180 -603 -1149 -112 -956 289 2254 833 2024 85 -4 -151 -248 -730 1127 -442 -8 -584 -1066 -294 742 -104 -577 -323 299 -717 844 -436 -167 183 735 -1445 -257 -435 -1234 -1421 -48 -1787 330 -1357 -2234 -1466 -1091 -1829 -648 362 1049 -976 229 589 -550 -2456 1358 -385 601 -1330 -479 -111 -91 211 1914 818 -1317 1387 -1658 2085 -69 -684 -1534 954 1392 1083 -212 -1339 -2423 -571 357 72 144 193 -3 36 -241 352 -1622 607 629 600 595 490 -782 1402 1829 962 -163 1893 879 112 163 -1392 -54 276 563 1227 561 -578 1144 -897 143 705 188 2033 560 -930 -147 1228 -845 2645 -50 122 477 -1737 -1154 -1582 193 -1043 106 729 955 -536 -501 -1209 -592 267 2915 -1550 -344 -1279 215 358 -324 503 -216 -172 -727 1567 1184 -1188 342 -888 1274 719 1760 -437 -58 -228 -1288 -1213 -49 -1073 -1039 -898 1148 -74 -415 -728 862 -1537 18 -23 1559 -179 -1456 879 684 -1540 1103 286 -867 -187 355 130 -44 -25 1166 1205 1865 -2217 -706 -810 -125 -107 1133 -260 -993 -706 352 -22 22 -665 -263 -227 277 -96 865 495 12 196 565 -733 2520 -1718 -1327 -418 1435 -481 345 -767 550 186 -309 1515 -498 184 -766 -289 776 -115 -803 -139 791 442 -12 -1645 831 1052 532 90 197 -924 1296 -60 -1207 511 1003 -836 -590 1181 1628 1165 580 -618 -89 847 590 1091 -355 1800 -2082 -873 365 -870 -1259 -872 277 1982 -537 543 1244 697 2052 1263 220 1289 148 -1286 1320 -749 -498 987 -199 -612 -273 150 -334 -950 -1813 -2537 355 885 -83 2455 99 1575 -1347 644 678 2529 -780 -1423 549 962 1483 -246 1020 -615 350 1283 -731 995 357 1506 1917 -99 432 -2093 -687 -292 2087 900 888 464 -1097 -1669 1294 1750 -307 1158 2129 953 1710 743 -145 2309 -779 -1224 -362 -463 -345 497 -1210 -1107 663 852 -119 43 -734 888 -1189 -1735 397 2602 -936 1179 -920 -1229 -771 -1077 592 -476 1147 -47 669 1558 532 525 781 409 -1613 1930 -929 -1223 -921 523 -1381 -1806 -233 104 620 1197 -155 77 -37 575 182 44 1040 -461 167 -1174 556 284 1606 240 671 -877 29 675 998 2615 -529 901 -431 432 -2063 1616 225 1374 1270 -1368 468 681 1 -1257 413 -11 581 -312 -949 210 480 1356 -32 1233 2565 -1775 -1198 -1302 -616 272 352 -305 -853 -1602 -584 -957 167 -2016 731 -446 -497 -610 97 -153 29 -708 579 -1377 -526 -708 -424 -135 1463 -1260 267 50 112 -1143 -864 -485 -115 84 -439 -462 411 -1184 -621 -1366 587 1395 1115 1377 578 -644 -1461 1592 -732 -496 400 -1353 -1065 1733 -968 1222 1670 1579 313 1528 23 1648 1120 1166 1617 590 154 1709 -924 -35 58 1386 317 -1999 -491 -2209 -1894 1028 406 -711 1279 -1060 589 602 -187 -715 710 3197 -129 1759 -319 884 -951 -1807 401 315 141 -2461 2016 1309 1211 199 614 29 4040 -566 -1763 416 511 863 -109 1367 651 577 972 217 238 1883 -1449 -469 678 1076 765 -380 -45 1741 576 -2076 1241 -562 2243 -998 -391 72 -1205 -1261 -2382 261 2702 905 -480 254 159 -1417 -951 -10 41 -1100 1512 636 -538 75 -1375 -436 -923 223 -508 -965 -1398 354 260 -302 -1013 -499 800 -317 -581 -673 481 -395 155 1379 -561 -762 -1791 -1353 294 -1222 -757 30 -405 -1601 -466 -943 -154 1412 1502 -899 509 -560 1587 250 46 1056 1699 1186 1920 109 -197 2098 -919 1793 -1235 169 884 -884 -979 -714 1221 279 -1097 -828 -2979 -333 -1644 444 -1170 -51 -415 