1000 512 
-1210 -4617 -3392 -644 962 -865 -2506 16424 -1687 -3550 -5595 -1430 1904 -4401 -4690 -1871 -3556 -5893 -16 -2475 -2634 82 -4409 -5270 -1305 -8722 1257 1790 -3598 663 -755 -4132 1232 8092 2104 -4334 -3312 -1512 -658 1483 4227 -2462 -8201 -7312 -4471 2584 1539 -9562 -1170 -618 16843 -4960 -4629 -4381 -3406 -1065 153 -1939 -3090 2503 4392 -4231 3538 -1262 -204 4067 -3273 7267 -1275 182 -679 911 7854 6729 912 -1247 16077 -73 -3375 5201 -6273 3346 -4066 7271 2021 -926 -76 10099 -4530 783 -5896 -5490 1870 -1673 -4223 1965 -631 -1012 -2777 7167 1985 -710 17007 6249 -2341 3119 6344 1420 -4794 -2849 205 -583 3156 -3487 770 -472 2336 -244 -1815 -3738 -1449 738 -2935 -1534 -3431 2988 -2183 110 -3062 -345 -2742 -1920 2628 3856 667 2778 479 -833 -2726 2206 4017 17177 -3143 234 3120 4268 -5377 -2819 -6209 -3226 -3691 -3422 11246 1182 1329 -781 990 -4274 -2554 1289 339 -10311 -5185 14108 1159 -42 -5508 8643 -2744 -292 4916 -4349 -384 1181 -2367 -2723 1161 -1194 -2698 -2097 -4799 495 -4080 417 -4274 194 30 -4533 2911 -6634 -603 -6751 -3957 -2856 -1683 2892 -287 -5479 -499 -4479 1430 2223 10265 -2772 4584 -1945 -5022 -5996 -3800 1930 -216 -4559 -3804 -3347 4441 -2941 -1073 713 3050 -2391 -3290 4165 1611 -851 -7048 13041 1366 9601 7201 -697 -3310 3002 -1244 495 -3453 -2656 -1975 -2474 1715 2218 -3623 197 -3196 127 -2660 5646 -338 5267 -3427 1123 -1209 7784 2526 -6587 441 2796 -2443 -5457 586 12999 6445 -4951 -3680 -839 7438 1052 1850 -2897 -3753 -1689 -3387 -3883 -3417 3770 -3692 1513 15718 14646 -3250 770 -4155 3355 1066 -2891 426 -4838 -344 -2110 5354 2104 -3961 -1164 8185 -3680 -5093 -3739 -3869 15884 -3179 -4791 -1958 -5611 -68 -3962 -5307 6133 -4119 1665 758 9368 3717 -2094 -2757 6183 -2482 5268 -5707 -3393 9228 -4046 -161 -4971 -2444 -1745 15106 1460 -927 -4095 -4041 -2530 -4506 4752 -3933 -3673 -2055 4454 -2489 -4069 6978 3330 -1073 -1559 2313 -675 -4919 13278 13142 -4608 -3294 -5565 6340 713 -5848 2248 66 -439 2558 5689 9002 -5955 640 1479 -3005 -3502 -4851 472 15771 10497 -1497 -2555 -2467 -2025 -1625 19797 -5450 -2731 -2127 -3097 -1702 6389 4152 1037 -1224 -1790 5455 1491 4606 2252 -1072 -4323 -2621 2687 4295 199 -203 -2618 -4116 -1929 -4275 -4329 14111 2500 3 -670 -5377 -1593 -4237 -1169 -337 -4342 8656 88 -4949 4768 -2022 -2798 -1307 -3339 1377 6811 2253 183 -3937 -4445 998 -329 -3506 2045 6481 -1081 1772 470 14683 -4068 -4804 -4503 -4520 315 5660 5584 1551 -1796 3549 693 688 -2724 -4450 -365 -1300 -295 -7755 -9273 -6578 -2325 3756 -3655 3590 -1312 -273 793 7205 -1576 -3002 -2947 -6243 -2882 -2684 -798 -1274 3029 3621 -3440 -1984 -1767 -915 -2401 2676 -3411 -3559 -5211 2696 1953 -2112 9896 -2293 -4251 -2260 3515 3159 -2761 -3513 -3221 -2876 -4491 -1095 -5187 -1068 -4817 10443 -2000 730 266 -4388 -442 6741 2351 -5173 4558 -4966 -2557 11371 -2685 -5360 -6184 1137 9235 -2286 -3047 443 19786 2877 2071 -1723 -3834 2578 2993 -5897 -1712 4054 682 6635 -2813 -5118 -3147 -1418 3419 -1566 -4760 7868 -3854 2987 2672 -38 -1778 -3746 -197 1262 4795 -3469 -6778 466 1482 -2130 -6452 -6387 -5337 -3082 -5366 -2455 -363 13690 -3644 10938 -1081 -1817 -755 -2641 -4359 -4288 -8082 2990 28 -3378 -5136 -934 -1418 601 63 -513 -1297 -5471 -2125 -1973 -2383 8796 -613 -6675 -2981 5052 4220 2949 -1381 -7779 -4603 1718 -3740 -3902 -2038 2158 370 -2342 -1958 -2781 -2886 1092 1259 1419 -1285 -4832 -1501 -2223 1913 -3203 3609 16325 -15 4084 -2601 -1719 -1396 7242 -2675 -2015 3287 1918 -3781 -1845 -1349 -2197 4353 1273 -5612 -919 460 975 -3244 -7029 -3154 -1035 2929 -1882 1958 -8131 -3768 -2033 -2182 -5015 -7230 -4155 8411 -3800 -4927 -2000 -7537 2122 2985 2957 9641 -1823 674 -1514 -1270 850 -347 1080 -3639 -1434 -167 -2155 -886 -3741 -1792 2308 1513 -1250 -243 -762 -6076 -1495 12550 -2656 5880 -77 -3667 13882 -4227 -756 65 2829 -1369 2354 -6487 13922 3012 -9369 -4113 -1306 3720 580 -1918 9004 -5525 -4000 8874 -1069 4956 -128 11418 -2834 -842 1160 -1079 -2174 1823 -4080 -4245 -516 -1558 -654 -7369 1139 1050 14037 -2487 -2847 -358 4251 -2995 -389 6293 -1940 -2302 -513 862 2563 -2631 -3955 1155 -2200 -1924 -1569 -59 -3890 -1285 -2759 1192 -2206 106 -4207 495 9534 -4441 -4496 -2506 1985 -862 10592 1966 -1965 -1984 1372 -2299 -882 1521 3907 -3546 6063 -407 5235 -2380 1217 10220 1459 -3497 -154 -2178 2343 -598 1243 -4319 -3101 348 836 -911 1778 9514 -1042 -2266 6863 8234 -3859 2438 1240 -4115 5567 2369 1987 -1354 -667 -362 5240 -100 -1895 -1483 -962 -1781 -429 3141 -1645 -136 -3514 132 5608 -6115 -2751 -3126 -3148 3131 -1120 -4869 9709 -3688 4850 30 -2523 -2287 -3560 -5828 -4070 -2209 -5041 -1705 980 -2895 774 -2625 9158 -746 -2970 -1259 484 -1447 -2033 -1176 -4131 152 -1721 -2380 2072 -1371 2002 -1581 15563 2492 -2695 -314 1796 9021 3439 2634 3002 -5111 3222 -2788 -869 19087 -2137 5133 -133 -3304 10844 -1730 214 -2020 -3721 -6406 2479 4781 6749 -2564 -3665 -4815 273 -3763 -2877 1586 3 1910 -4002 721 -2655 1364 165 4521 -1364 -6652 1261 1796 1109 23706 -1637 1846 3690 3250 7354 -1301 3425 7425 5250 -1440 1424 -2159 -33 5661 -2135 -3896 2582 -3832 -3180 377 -5749 -1401 -2262 -1571 -2548 -2789 -5265 -3870 417 1082 1527 2603 -1650 -401 -2708 -3036 -112 -722 3369 64 2235 -1912 -1727 2140 8618 -3605 -2436 -1291 -416 -1138 -1369 -894 4865 864 -1307 -1294 -1754 -3633 -3555 -1826 -1103 3707 -1609 19924 -1973 294 -4360 -3279 -3663 -2684 -3890 8819 15614 -1871 -5005 -3570 3053 -2444 -180 255 -1917 -1159 -1697 2072 -597 5775 242 -2090 400 -2123 -5028 131 -1900 -3401 -959 1278 -3724 -5695 -2732 -4306 4185 -4277 4752 1199 -216 -7706 543 -491 3098 -289 6698 -2215 2897 -290 -2537 -3554 3636 -5542 -487 2915 -4515 13293 -1624 2436 -2173 -3707 -1583 16165 1452 2613 298 11955 -6577 157 2986 6796 -1523 -215 -339 -5175 -1840 -3274 -7058 -864 5497 -1992 -10 -1253 5127 -2456 -7010 2162 1659 467 -757 3135 4023 2411 -1525 449 -3551 -3892 -2765 -6506 -252 -2560 1231 2232 -4743 -2475 7192 2878 -2760 -3172 -2477 -2809 -2104 -3923 1836 7837 19086 -1433 -876 -1858 -3809 -3034 1399 -5292 2695 -10177 594 -2849 2961 740 -387 -2046 1819 -2421 -1338 -3092 -1915 475 4095 8480 1816 -4604 2940 -3123 -2502 1371 1801 -5151 -2511 441 1810 -5549 -3271 -2158 696 -3410 -2718 -617 273 7396 -1831 16502 5557 -2924 390 -984 -1004 1679 -1530 -759 1366 -3277 14368 2239 -6938 -4172 -4359 -3790 -1806 -1053 23 5025 -1802 -1467 481 -1434 2071 -2459 -2858 -1450 694 -2709 2713 3855 5257 4088 5967 -5630 -4977 642 7486 3719 -1266 -1995 -6836 3342 -2648 1606 3719 -3696 -886 -902 699 -2880 -2776 2710 5819 -1220 -388 -1239 -3753 -6312 -1614 -5569 10418 5023 -6607 -1019 12286 -3614 -4631 -668 -1704 1954 -92 -1545 2467 -1378 2859 -1655 -2973 -3089 -4184 -3619 21183 -5937 3249 5496 -145 -1054 924 847 -5685 14595 346 -6087 -258 -145 -1458 5539 -1961 4786 -3797 -2083 -4077 -569 -3895 4283 -4053 9068 -2016 -776 -2252 4408 12186 16236 -464 4143 -1851 -3687 3933 -10306 2251 5437 370 -1439 -3561 4211 -2281 -3597 -4348 3372 -1776 -5208 -3271 -793 3339 -5115 2553 -2894 -1825 260 -472 -3971 -2299 3340 1211 -7755 4635 4197 -5718 6695 3136 4451 -1731 351 -2791 -2162 3095 -475 -5298 -1656 -2420 1640 -1598 -1886 -3181 883 4002 -44 -2990 -2285 529 -1657 -4078 -1384 12450 691 893 -2005 -1747 686 -2186 -1429 -3007 -1166 6420 -2144 9313 -2488 379 -1086 2712 1988 2083 2705 -1870 -5163 -4216 -639 -6104 62 469 6967 -5119 6090 1464 4063 -579 12146 -5604 -812 -1530 348 3429 18512 -3462 900 -814 -2366 -1763 822 -2874 1050 4707 -1053 -560 -3022 -4277 462 -2769 -900 -4486 -1851 -3367 -3822 -4697 2894 4772 1761 -2272 -3232 2401 1576 -3751 1429 2704 -650 -987 -3812 17710 -4459 -607 -1549 -3288 -4900 -2472 -1394 -1670 -1207 5196 901 11455 -1821 -4162 254 9627 -528 -3935 -5624 -7762 -482 -2919 -2355 -2052 -6704 -5505 -5769 1533 -345 -2908 -5453 -4104 -1635 12430 6263 5990 2145 -3960 921 -1959 -875 -5309 1211 -5502 -2904 -6689 2145 3037 -233 -2518 5979 -428 4447 -5914 2950 -3703 -1377 -6443 -1064 1132 -851 277 4057 -3101 -434 14412 1430 9631 -2068 4286 -7402 -3697 -1833 4629 -2578 19102 -260 3630 -2114 4056 3657 -1424 -3504 -7703 -4919 -5174 -650 -2299 7614 -1710 7597 -4915 -3526 5524 -4201 -2588 -3447 -2503 5718 -6392 1485 2712 -5609 -3185 -742 -3718 -3300 6357 -8462 10165 -4158 -1923 -2928 -1748 5099 5064 -3169 -1654 -4627 1696 -463 -1787 -2368 -2566 1397 -3159 -6535 -3666 -3009 499 -1700 -2023 2777 -4882 -1247 9416 1806 5705 1108 533 -3656 300 -538 -2892 12184 -4134 -990 1512 434 -5793 2313 -2194 644 5911 -2105 -4549 2174 1571 -2254 -1485 1291 -4326 -48 -1103 10577 625 -290 -4508 11551 -3007 -1014 -2050 -1077 -5231 2545 68 2951 -4446 -6450 -3957 1677 2643 -270 1558 3154 -2848 -1690 1306 -573 -3920 -1852 -1498 -2352 9333 1101 -3294 2649 -4344 -3687 1560 -6557 70 -2 -1370 -2666 -1530 3776 -1043 2275 1187 -2082 2746 -3606 -1975 346 -3685 -1821 18305 -1476 5537 -1820 -3860 -6487 2974 -908 11366 -3124 -3730 -5063 -9000 -975 -2343 -1938 1826 -254 -2647 -2404 -2310 -1176 -79 1036 296 -2990 3195 -5249 1358 -4469 4115 -3873 -4069 -5048 -2125 -143 207 -2363 982 5757 1340 -5016 -945 7081 -3532 12135 18146 -5025 1158 -5618 -2014 2852 -2576 -5088 -2138 -4855 12557 -27 -5208 -4629 -960 -6289 -4497 -422 -4115 -1209 -3216 -2628 -1124 -4159 7684 -5485 -6221 -65 -513 -951 -2864 3330 -5518 4741 -180 -1756 -1463 -273 7529 -5099 -6806 -2793 -79 -51 -1117 -2142 2557 -7611 -850 1883 -2384 -5835 -258 -6531 6591 -818 -1340 -2398 -431 -8092 -2024 2338 1158 7234 4675 5984 -899 -1324 -1638 4962 -1978 -5720 418 349 514 -2341 228 -2390 -3749 -3614 -6824 -2241 9699 -994 -379 4572 -956 -2012 -891 -5061 -1928 15219 1748 -4136 -1165 -4837 -4445 6390 -1017 2738 -1127 335 -4215 -1746 3733 2572 -4293 8835 -272 2764 -1319 775 3084 14232 -6739 3219 -2255 -1662 8184 738 -660 9887 -2943 2318 2808 3891 397 2703 3838 1538 704 -5347 5376 -4159 5350 -3933 -458 344 -4864 -1761 4405 -1216 4702 3961 -1126 -2369 -30 -3096 -1944 4274 -1054 -1726 -4398 13 1284 -1309 -2182 3670 -3226 -1636 -2985 9021 -4368 -2867 386 7778 17582 -4245 -6685 2737 -3377 1326 -3539 -303 16240 5181 -1098 -1860 -1915 -3611 -5053 -2930 -805 -1776 -181 -4375 1612 -4633 -740 -2156 -3250 4059 -2988 -5282 -515 -5485 2592 -2334 -2041 -4030 -2166 -5166 1047 15182 -4087 -2452 -4497 12183 -2765 -5381 -7042 -490 8306 18555 -3870 -799 -6778 -2214 -1924 4274 -1575 -3512 9557 1939 -2730 -630 -2109 -2917 253 -1795 -2631 -2458 -3148 1044 -1687 -1399 -717 5361 -5374 897 -4394 449 -3986 4967 3986 -2635 753 858 18917 -3207 -1342 -2259 -880 3369 -3231 1172 1565 -1992 4489 907 5995 2824 -1379 -4192 8509 -5105 -1917 -2558 4799 -2615 -1420 -2680 -7379 -198 -1927 -7487 540 -2004 -2167 19 -4544 -3079 6932 -2286 6646 -5736 3767 -3342 -1900 -4568 5312 -2234 -3492 -5736 -3475 -2430 2887 2455 -4671 14350 -960 60 -2167 -567 880 1742 -976 -3124 175 2178 -6502 4945 -67 -4783 3486 1756 5145 -5282 5445 -2596 5927 -2600 1759 -1632 7871 -818 9137 -4178 -1628 5277 -3905 -2254 -561 603 37 -5197 -1230 10828 984 2616 2507 679 -2894 2338 958 8154 10288 3584 -3080 -1021 -2635 939 -2730 -1309 -5673 -1411 8374 451 16120 -1246 -3113 -3304 -2361 2158 67 6249 -4286 -4439 2539 -4687 -937 -5812 -126 463 2276 -3624 -5130 -43 -5259 -2447 -2446 1168 -5170 -1928 4869 -2348 -5983 650 -4962 -3850 762 2515 -2019 2453 3123 4182 -2093 -5228 2326 -6240 -6260 446 3332 6109 -2431 -5954 -1559 482 2448 -387 -3879 4265 -3153 11981 -2025 -4630 -6542 11439 3182 -3855 1473 -557 -7288 -1646 -4402 3146 -1783 -5100 -1818 -1346 -2193 -6475 -6618 3706 -2300 7708 1308 -5143 5409 -4846 -5830 6299 11678 5242 1716 -3062 -278 1401 -950 -33 -1015 3969 -383 -3053 -4006 -1247 358 -4613 -2527 -371 475 -4660 -4667 -2778 -2230 7086 14628 -5452 2793 -2846 777 -778 4253 -3803 2114 258 -2037 -5399 -4093 -1462 -3486 -2937 8616 1200 1571 71 1308 -238 -3708 -3534 2999 -2215 -2278 4005 -1429 -2475 2475 -1866 -23 4832 -4019 -3079 1451 -7324 -7052 -1316 -873 -787 -3000 3648 -97 4626 15056 -1956 -2315 -2747 5567 4824 1469 -4526 587 -1005 4325 -2991 4683 -3478 -8032 -5247 365 -164 -1061 -1215 -1915 4205 6816 -2640 10608 2139 -4876 -3015 260 -1362 -828 -92 -4014 -1184 299 493 3793 -1848 5163 -6958 2988 -1961 -5287 1332 -3472 1263 -5442 445 3737 -1650 -3401 -2660 -3611 -1640 11878 -2978 -3332 -1312 485 -4375 2907 -5505 2018 -7408 3395 7886 -1359 -2862 -3028 -940 -452 -6386 -1171 5737 10530 605 2460 -6201 -5144 3861 -8309 -4982 10686 -755 2459 -5966 154 -1444 -2753 -3872 3444 11997 4468 -1398 2733 -5981 -967 -3413 3109 -4002 2157 -2071 -7219 -4590 3231 89 -5015 2260 -8279 -2508 -3609 371 14272 2776 -5312 9521 -3056 -2850 8733 2786 -5732 -829 1341 4030 -3754 2351 4290 3389 -4103 -1492 -4102 -1865 3700 -3400 514 -4982 498 3466 -2455 3712 -4021 -6063 308 -205 2340 -5382 7694 4344 -5326 3879 -482 1476 -4910 -812 8951 -4951 13179 5382 -2394 -4537 -3454 4601 2823 -6494 4580 -2749 3603 1670 4573 -4550 -201 3292 -1109 -488 16957 -1628 -1460 1351 5191 -476 -1883 -1536 -4560 -3146 -734 -1296 -394 -2186 -876 -7923 3262 2199 2568 1359 -2519 -6394 -3002 7919 -423 -1801 7026 2544 4896 14343 -2552 -4323 75 10073 -3925 622 2302 -6828 -1447 7587 -7493 -2886 -581 -3889 -5596 3084 -4136 1785 10895 106 -2465 -1723 -2297 -293 -3438 -3348 -314 -3652 -3143 -989 2338 -2207 -2286 -941 -3632 1229 -3403 -3415 1693 -6683 -3429 -4398 -1237 -1654 17350 -5075 -1727 -5891 127 -4038 -2764 2146 949 -1344 10510 2911 2159 7175 -4219 4694 3861 -3161 -5450 -5560 3751 -7790 -5771 5989 -598 1521 -326 -5184 -1033 -688 -2028 -4211 1540 -2324 7640 -2259 3206 131 2036 410 1076 -4514 -6113 1294 587 -6469 -1549 -1249 12590 -2910 -7353 13176 -2811 -2150 -5387 -609 -2183 4352 4063 3248 -1153 4102 -1440 -918 3048 1043 4575 -1635 -6391 -8285 8290 -3988 1215 -2579 -1007 -3523 9659 2652 1598 -3614 -1050 13661 -8699 -300 2758 -1554 2657 2168 -1104 2981 1733 4165 5313 5600 -1113 1305 4644 519 5234 7857 -460 -5870 -1505 1867 928 -1967 1044 -4391 4081 -3478 19835 -4942 -9273 -949 -677 1859 -1381 -3701 -4345 -2138 -556 -5003 1620 -1073 -1263 -3793 -954 -3325 -7071 -1276 618 -484 476 -7363 -2260 -900 12334 540 -6158 -558 -2578 -2939 4768 3407 -3515 -1950 310 -374 -1561 -660 9188 5068 2036 -604 -4795 2309 -1199 1388 -272 -5728 3277 1597 7753 140 -4388 15897 1396 -907 -2873 32 906 -4721 5227 1874 -2518 2506 -5416 -2261 -5211 2621 -5212 -1431 -8470 1049 776 2646 1432 -1196 4086 496 2114 2311 -2805 3919 8280 -2386 -3737 -2738 -816 -1336 -2778 -1466 -3909 -1855 -2811 2914 -2060 3578 -2523 -7777 -4676 11210 2728 4015 -1652 -5965 -1185 -1023 4584 -2618 772 -4386 -1078 2720 -4835 672 8239 -928 -2225 -353 -4763 -2846 -5165 -5201 6813 4788 4858 855 -3987 -4743 -428 -10259 3012 -738 -5583 -8382 -534 -4462 1316 6242 2695 -1617 3593 -3166 44 -2746 -5827 -5423 -854 -4051 1402 523 -5252 3845 11167 -4087 -4028 5760 11 13206 -669 -2972 415 -4514 1596 1362 3282 84 -138 -2391 -1462 -695 -1745 141 -4390 -1486 -5222 -1832 2366 6334 -2803 -1539 -1764 1009 -5209 -677 -61 3569 -2695 18169 -1180 -4692 5311 -904 -4227 -2389 -2362 669 -2884 -1099 -2147 -1417 1318 -2121 -2075 2449 4966 9988 12554 -2561 15385 3314 -1724 -9645 184 10791 611 -13 3143 2128 -4832 -3799 -3556 425 -2197 -2486 -2384 -479 -1574 -5383 251 -4185 -2482 7345 -7633 184 8824 -2570 4106 6346 3528 3050 -2029 -3270 -506 3352 -1648 -2255 2167 -2756 1996 1508 -5657 2436 -2302 -4011 -6212 -512 5835 4951 -2299 -4796 -3210 5190 -2497 4045 16056 7528 -2988 1925 -1212 1159 905 -3049 -2663 -3803 -3977 5928 2707 -1579 18790 -621 3741 4970 -4627 -311 387 -6621 10750 -3848 -4821 19 790 -4399 -3028 -6596 637 8297 -507 -127 969 5863 -5316 7281 -3503 5902 2542 -2916 -2611 953 913 9546 -3901 -1834 728 9610 5897 -4756 -1174 -1606 -5157 -2687 1525 -1429 238 3563 -1723 -1401 15408 1785 -5606 2969 -2209 -702 0 440 -810 -5291 -3777 -8616 -2265 -761 2190 -2919 -5266 7390 -4074 -5024 -849 -6471 3398 -155 7061 -4980 1532 -3523 1850 5340 -7494 5274 -349 -1592 3774 -964 -2590 3171 2105 -979 -1521 -6612 -780 -7060 365 1311 -7319 -706 -3619 -1392 -5629 -3676 -1922 -3193 -2477 -2713 -4249 -2838 -5080 -3606 -2983 -3056 1536 2444 -2714 -1318 -2275 -5423 -1117 5612 1473 179 -909 -2019 5622 -768 -2652 -2926 797 64 1464 5032 -1569 15553 -3184 10177 3992 6064 -611 6459 -2614 -4935 -4558 -1244 13409 -3955 -974 -3187 1250 -3694 -4368 -5397 2229 -4271 4950 -3256 -5023 2467 -2921 3204 -151 -2251 2682 1546 2530 -263 4295 -3339 -5030 -565 -4686 -1249 3931 -2147 -1409 15648 -4376 4151 -4016 -2856 4122 -1529 -2459 -422 20010 6083 223 -5856 -4353 -1488 -563 -2092 6779 -4523 6313 1542 2185 -5033 14187 -2806 3308 3907 2163 3980 426 -4630 9738 -499 1729 -5061 -5501 -6583 -1258 217 -1166 4186 -5172 5134 -8538 -3414 1690 -689 8721 4644 19082 2474 -1898 -4563 654 -5046 498 -5357 -3212 5128 12863 -2002 -5711 -509 -4313 -1270 -2547 -2947 3078 2708 1104 -3552 -1940 5703 377 -884 -1058 982 -3535 261 330 -2304 -46 -2389 -3039 -2902 3622 -2387 -1359 2185 -4511 -5510 -926 3529 3774 -885 70 1220 -2216 3452 2966 9907 -2395 -5838 6986 -2046 -8668 -3794 -2587 -144 1629 4906 8170 656 -1677 12191 3191 904 -3290 6271 -2484 -2294 -3573 1906 -6834 2951 -3541 -4479 -2217 -3620 -2881 -1358 -8190 -1662 -1880 -2019 -655 -1336 3210 -3658 -1510 -2364 -6505 5802 6132 2568 -3833 -901 -2302 -1142 -5712 10033 -5279 1369 8142 -2454 -5766 7096 -5879 -785 -3162 11107 3062 6211 -1780 -8412 -6504 3565 16496 -851 -2009 -7658 -3476 -7494 -904 -1168 5937 5541 -4614 479 -477 -4509 -780 -5097 6030 -395 3832 4276 -1185 -168 -1462 -1321 -1162 4543 -3893 -4332 1496 -4684 3904 6093 -495 -313 -1943 -1568 -170 -1057 -1948 -5710 -581 -4289 5347 5531 -69 4605 6004 -5325 -213 -8119 -1257 21269 -2882 -4423 -755 -6334 7575 -898 7576 -2131 617 -5989 -2143 5516 -1408 -3276 -2568 -371 -3969 3197 9090 7933 -4954 -701 -694 -4624 -2573 -3528 -3847 -2524 -530 13731 -4473 -2396 5998 -41 -6644 -4591 3267 3638 4253 955 -2503 -2836 480 -3635 -4488 2386 -4741 8092 10941 -2513 8206 -2207 -4224 -6898 -1742 -12265 6900 -1226 7521 1863 -1667 -4375 14 -194 -853 -721 -497 443 -2725 -5309 4298 -6141 -2179 942 -3110 49 789 -3476 2573 14598 -2725 -814 -1944 -2565 1928 1655 -815 958 -1300 -2986 -1606 -3793 1949 445 -11 -3768 -6692 281 -3044 5034 86 915 -3554 -656 -3232 671 11150 15686 -3392 -2377 -5841 6189 6796 -1417 3212 -6110 -2630 7545 -1853 -853 12854 -571 5263 9913 4382 1393 -3798 -6737 14882 892 -1226 -4179 946 -1710 548 3785 1698 3956 -2153 572 3890 -5848 -5842 -1399 1222 3604 -5350 -1827 -2104 146 -1755 2115 1817 -6263 752 4439 -1864 -3935 -1384 758 -2591 -3183 -2206 -4574 4202 3778 2483 3731 18112 -4204 -3887 8459 1904 -3099 -4655 1947 34 4868 -4708 229 -4112 -1022 -3953 -375 -2603 4109 -4492 -727 -2299 -5434 -3589 810 -8595 -6009 1368 -1799 4216 13739 -3195 348 -2878 941 1840 -3623 -7062 255 3619 -2506 -3918 -822 31 -5614 -1287 4260 -3873 -5479 -2612 691 -1750 -573 1417 -3505 -1154 -5146 567 -2418 -4175 -6137 7481 -1713 -1473 5886 -3517 -1789 -633 -4016 -3086 6574 2268 -4146 -4368 1334 4537 -3131 2045 1825 -3006 -3263 -3330 15029 1697 1717 -3805 8009 3986 10431 -1754 415 -844 -7263 2222 2831 14182 -2563 -790 2534 -4042 1149 -1166 -636 677 -1039 -1774 -3002 -5669 4887 1069 10024 2610 -6055 9573 -3315 1728 332 1574 -1250 1626 -2562 -3196 -5522 -6245 -2284 -4848 4984 -4040 -3526 -4633 -1050 1427 -1685 -3977 -2118 5710 1358 -5228 288 593 -620 -48 -2282 3150 -5274 -597 5495 5059 -5761 710 -1419 -1439 1177 7306 4471 -1200 -5452 241 442 1671 -1138 -4450 -2581 -3868 5240 -2309 7267 1022 -155 1117 -4741 -955 977 7819 313 8513 -3235 -1596 -3455 2287 -4893 -894 2953 1165 6860 21912 -433 -10188 -2487 -1210 -3357 -6350 -443 -1470 3196 1817 -2924 -3480 3738 -4065 -1722 1379 -3791 401 3821 -934 1395 2297 -3458 -6212 -3473 -761 1258 -1236 -1826 -1377 -2852 -1033 6988 6274 844 -5845 -3385 -7150 2226 3198 18732 -5252 -3873 1209 6826 -6498 1044 -4007 763 6127 700 -669 -934 2728 37 778 18543 -3453 -6925 -329 -892 2054 -933 -2611 -464 -3728 -2716 -1948 1343 465 -531 -4229 -1194 -4531 1578 -1494 155 -904 -7627 4310 7118 -346 4872 -4555 2237 -5814 3966 -3246 -3089 -2542 2049 -930 -4876 -1390 -228 1852 -5749 3846 -4030 15261 -2067 -641 1473 -7477 -3413 -935 -4888 725 -8275 -1053 2031 1850 6368 -991 -3718 -3673 -1576 2363 6778 -4230 4044 5497 508 -2215 -2244 -6153 -2922 1732 5390 7760 3825 4732 -2501 12974 -5800 -1106 -2340 -2935 -4846 -446 -1077 -3607 -5211 10802 -3401 904 -3378 -2502 1183 7672 330 -4592 461 7174 -1213 -1795 -734 -5376 -2482 -3336 -352 -2202 323 596 1654 3686 7586 -1733 -1294 3780 427 -1103 718 -6232 274 -73 5234 -3185 -3948 -1421 25276 -2872 -2062 2971 18183 14947 441 251 2112 -1177 -140 451 801 1517 -3019 -188 470 -2572 1807 10675 3265 -1046 3489 -4302 9 -4559 3972 -5352 -819 -2975 -198 -3415 7439 1535 -7694 -2234 -2669 6752 51 -3044 -4507 5163 -4548 871 609 -1671 2511 -3878 -1112 -3328 7635 -3197 -3911 2986 -3203 -1464 -4833 -5068 1607 -1593 1767 847 6251 -3259 -3949 -2253 -5632 -5246 1364 -675 -4169 -6 -301 1392 -7021 2643 6017 -2706 -5808 904 446 11002 12536 -884 4883 6778 668 5392 6871 -5816 1308 -3494 -1958 -1240 -517 896 -6018 -1204 957 9741 -1078 3474 666 5383 -506 521 839 -619 -3884 2448 -2624 266 4841 7360 -1533 -1417 28131 -3418 -3686 -4396 8529 -1538 -7979 -1500 473 -3054 8111 -2010 -1349 864 432 356 -2617 2969 -1423 8148 -3421 -323 -1267 4278 1226 -1902 -3266 -5313 -1603 -4373 -225 -1 1785 4051 -1047 2804 -3081 -932 -1591 3184 45 -1528 1772 -2158 183 -2689 1687 48 866 4812 -4321 -1649 13341 -3620 3785 -5656 2661 -65 6152 9075 7264 -2455 4686 564 -2127 -383 -2070 3248 -7225 -3498 -1401 11888 -2925 2541 -1007 -1595 -2510 2170 -4284 -2163 -5337 3567 -6207 1453 2151 -551 22 -3813 3597 -4243 -1784 1736 7032 -3274 2799 5501 -1101 -2159 -2896 1067 3899 -7759 -2861 -2630 1480 -4277 -2839 -3479 12806 294 4662 -292 1615 -526 4297 -4004 38 -2715 -365 697 12938 -4076 1097 -1099 -7515 -1221 705 151 3035 -814 4221 -3869 -3410 -7623 -2919 -1967 -3694 -2019 1830 -1928 -1376 -1195 8148 5681 -4328 486 946 -639 -2632 2402 -3944 -479 142 3390 -2015 -919 -1186 437 1279 2853 -2016 -2938 -5241 -1129 -2253 -3650 7494 4983 -5489 3282 -1744 -2548 -4593 -5203 1521 -3565 -4529 4319 -1115 -3210 5401 -2021 -4918 -946 -116 366 -3486 11251 -4329 5255 1407 -1800 -42 1928 970 -5259 -4466 -1898 1909 2422 -4692 -1743 7623 -2187 -4143 -690 10666 -1968 -491 -3402 -3360 -375 -3912 -147 -2043 -491 -4119 -5957 13385 -772 -1978 -195 12807 -6780 -381 1319 -605 -8111 -7715 -3950 1452 -762 -2607 -6907 1368 -5295 -4684 -3336 1966 -2181 -1178 382 2312 894 3691 -4753 4951 13791 -7123 604 1212 2479 -993 3701 2040 -4983 -2513 1859 799 -2114 -698 931 -3783 10371 -1570 -3895 12143 -1496 -3963 -1850 -1562 -1453 3966 -2206 -4477 2192 -3363 2767 227 -5089 5467 2045 -8550 -6117 302 5676 -2604 -2269 459 -4953 692 -3304 -3511 -3248 -4660 5477 3457 -1564 6648 -652 -1022 4808 5904 -3795 -2337 -1420 1726 -740 -269 5769 -413 614 -2527 -269 -7414 9978 4320 -4850 4341 -751 -655 -5465 1166 -4138 -4865 -3098 1261 3051 9445 -2204 718 -2899 -4660 -2071 -1164 -4964 -3089 5300 142 -3584 2061 -3821 -2957 -2021 -3429 11248 3758 -659 -3947 9627 -3910 -3872 -2230 5528 -1933 -1125 1168 -3122 -3996 9388 -6329 -1373 -2750 -1521 -3202 2882 -1017 3440 214 2691 -1151 -1948 -1501 -6985 -4327 -535 2600 3378 2085 -1885 3313 -849 2729 -2541 -3336 4432 745 -3734 -2246 -3793 -729 -5677 2751 -2579 19 -3828 20461 -940 5001 -1356 17529 13485 -7397 -4287 -580 -3331 -658 2532 934 250 2861 -5385 -3707 -292 -2941 4461 5852 -6004 960 -3355 -2182 -196 7437 -7526 2493 -188 7254 -5002 7185 2559 -6808 1530 -909 7957 4337 1483 3066 38 -3350 5209 -1215 -4351 -1814 -2609 -2249 -3212 6085 3793 -2911 -3648 -5622 -2779 -7611 -654 3973 2660 -2728 2776 -2950 -4002 -4389 -1310 -4768 -4467 464 -2419 -2817 -2867 7816 4096 -7472 7874 10050 285 -423 -895 401 2685 6554 -408 3830 7451 5777 -1734 -1855 -3747 2053 155 -958 6604 -4994 670 -5078 -1723 -4614 11683 -1307 7052 800 -2356 553 -538 -6200 -1580 -5371 2455 -5620 -1203 2364 1653 3032 -2201 31788 -3159 -4182 697 8509 4562 7013 2381 5774 -3299 13139 2322 1504 7213 -567 2307 -1523 6816 -1682 13216 -1822 -2505 -1262 2971 3797 43 -3666 -2325 -797 -2709 -3534 -2091 -2618 2934 -1614 41 3998 -48 1358 10583 -2381 -310 -1309 -1663 1213 -5377 9817 4897 2830 1495 -3615 235 9279 913 7546 -5807 -1466 -7971 4968 5048 11203 -827 8664 2591 -5453 1173 -1368 786 -5131 621 -5389 10735 1058 -1538 -2981 -2486 -1254 -1229 1266 -4644 -987 1610 -5284 5892 558 -5479 2749 -1147 -3653 -2608 -2487 -1339 3278 114 4993 -1299 -1817 -4982 -4241 -6928 6710 -7276 -1056 6078 1521 -7124 -46 1372 7035 -2395 2514 5119 5586 1206 1233 -181 -441 3113 -4744 -3348 2150 -5127 -2855 1832 -4128 1390 -2621 -717 -1511 -2920 -815 -2386 -5091 -206 -6606 880 -2554 141 -24 -6625 -4074 -4648 8888 57 -5865 4470 -2068 -8290 5893 1513 -3852 -3039 -1779 1869 -5381 -1080 -3189 -2003 -550 -2656 -3824 -3029 -5287 -2987 2345 5924 4004 2880 -2852 7480 1896 -4404 953 -4126 737 -1200 -3450 8326 -3748 -1920 2166 -3741 -4843 272 934 -1680 73 9491 -4128 9375 907 -5717 -705 4553 -5581 -1282 -8434 -7063 -896 2034 -1093 -4054 2852 -6688 -5008 -1574 9656 -3995 369 682 -363 5792 -7800 5735 1074 -2461 -2852 -1990 18167 -926 3964 -27 7378 -3623 531 -4203 -458 -4336 -2353 620 500 -5508 489 -6060 397 6217 -3430 -4041 1944 -6864 -881 -1300 -1537 -453 -2493 -1994 2186 8635 205 9111 650 2059 662 2083 -2297 -3991 2406 -2245 -913 4578 -3500 1308 2310 11984 -2302 -4779 3576 -7843 -2890 -712 3472 8481 9761 -2767 -7602 288 1893 5223 15181 -1263 -1542 -3838 2835 -5029 899 5253 -4812 319 9704 -3881 -4900 -2806 -2890 -1951 -3000 -5441 -2085 -1799 -3219 7278 -3722 -492 -1846 -2374 2773 -3241 -1043 -4137 -3634 -6641 25960 -5324 1458 3565 -6737 5262 18880 -6585 -3413 -2577 5710 -4249 1769 1320 96 -767 -5730 2128 -2899 10397 -4681 -1072 2218 1354 1696 -4304 -3590 2778 -2760 -4163 -1894 -2872 -3701 -4836 -4996 2659 -2200 9178 -4093 -397 -3155 7671 -6218 -6261 -3014 -5001 -654 9271 6202 1089 -1772 -4471 827 1756 -4930 -1095 2224 5968 140 -5454 -4474 -3773 1813 -4608 -5367 -230 -3981 717 -3103 -3934 -1942 -4140 5423 391 552 -2402 6920 13385 -3084 -1842 100 -1018 3020 5003 1838 3178 17581 2333 -5305 -1135 7403 -3078 -5060 6715 -2888 -3869 -1045 -1799 -3567 4216 -4205 -4456 -1798 10112 -127 -2888 9252 -1772 -2471 4977 -2362 -562 7100 -4794 -1571 7420 -1920 1476 8883 451 -8704 -484 -3063 1191 -6768 -5376 -3094 895 -1290 1423 3192 4903 1621 -5987 -3177 8646 -246 -3403 333 14248 -3237 -7451 1278 -4724 -6885 8782 -1979 1113 1089 -1291 -1122 -490 -4065 -4977 1707 -2926 -1816 1193 -5599 11432 3371 -267 1162 -2546 1040 -3019 915 2673 5666 -4092 3439 -6360 -4043 -2864 -443 -2244 -2146 -3551 10927 1386 951 -391 1552 -1283 -906 4635 -3316 -6324 3112 -1331 135 -5642 -888 -2041 8435 -4010 -4372 178 -6401 -2917 -3690 -2687 21644 -3396 -1801 -1340 -5778 -3073 7470 -7699 -10 -2295 -3109 11728 1279 -9896 257 -1401 -4544 1118 380 4252 8914 180 2997 -3516 -2452 -3046 -1321 6304 1518 -4082 -1196 -3533 -5011 2586 -1116 4209 -3274 -4054 -516 -1982 1809 2000 -1437 -1278 7211 -4283 -1220 -5855 12868 17567 3826 -681 6221 -2236 247 -4180 3927 3282 846 10960 -5007 -3784 3053 -2967 -638 -2159 -2131 -5325 -3056 7216 -6018 4182 -289 -4098 -2573 -2617 -7547 44 5171 -490 -4439 -2234 1044 21875 -1332 -6932 2110 1221 3214 -3301 -3883 3717 251 -3732 15105 -947 -264 1788 -1795 10632 -1895 -1753 -4001 -5858 1260 -684 5846 7456 -4999 -7142 -1515 -1126 -2881 11571 422 -3332 7089 -1252 6541 -5395 -3278 -5931 505 -2779 -5697 4658 382 -2009 -4396 2640 -4532 -1338 -7408 5653 -1340 -3101 -1026 210 -4495 -2206 -1624 3132 -3817 4916 -1570 3208 -4501 7454 3556 -4794 -5762 -515 407 -6633 -5014 6371 -3162 -1349 2880 -4106 -3305 -5216 1955 1725 3926 -3250 3475 -449 -2127 6762 14986 -3268 -1342 -3284 -2997 429 -4840 -5076 -2166 -2981 1048 -1186 -1271 1453 -3911 -4308 -3855 -2117 -4394 964 -3244 -4584 -3332 5687 -3043 -2037 1821 -2029 4403 2454 2036 -3026 -3407 -3325 -254 -4547 -8427 6057 21034 -4181 951 5124 5959 -1719 4802 -3103 1335 -1640 268 -4907 2104 3147 720 -2136 3693 -2775 -4858 -4988 -2711 -4247 -7311 4506 -2245 -1530 -3926 7421 17265 -4082 3139 1138 -3930 8399 -3178 -597 -3768 37 -1094 -3390 -1274 3374 7650 -3279 -5478 4445 15644 -618 -5182 3389 -609 -344 581 -330 -1952 -1592 -4302 -4035 -1175 -318 -125 -2970 480 -3600 -1922 3101 2549 -93 -7180 -2937 -1127 -3689 5417 -2661 -4534 -4193 17862 -2544 5740 -2289 -3998 1727 3766 9665 -4186 8130 -921 7073 7238 -2054 -2131 5622 -4198 -6385 762 -2616 -2802 416 -390 1548 -1260 -3923 1140 -2046 13113 -3087 -5190 -2782 -2722 -3302 6134 -1173 2717 6946 -4941 -7070 -3450 -646 -3176 -3970 3995 1018 -804 735 6653 -3144 13688 -2674 -5281 -2508 3443 -3414 8417 -292 -3417 -3640 -2661 3419 -4127 -1596 -3051 17862 -3958 -1132 416 1245 -525 -2855 -3824 -971 -3929 -5800 -6456 2583 2859 -2960 68 463 -2702 -1075 5126 6899 5675 806 1777 -2311 -2237 964 770 -3955 -14 -740 -6694 1020 -1650 -3521 7724 -381 -115 -5015 -2189 -4755 -3990 -242 -5685 2711 3745 -2867 -2242 913 1652 1591 -5675 191 -2507 -238 9065 -1476 -3418 -3237 2254 1483 1867 -285 -1713 -420 -4029 -1626 3493 -3082 22 -1776 -4339 1491 -2056 -2740 -2319 6290 -1237 -3308 9065 -3606 10316 2766 -2768 10091 -7994 442 -911 763 -4866 15854 14517 -3951 -1681 -1215 2839 19250 -2029 -36 976 345 -3207 -2924 -3378 1536 1011 -2078 4601 4521 1832 -4832 132 -5249 -740 -1905 -2040 1288 -1678 -3192 -5125 -532 14972 -289 6282 625 -4896 826 -943 -517 3702 -1472 -4293 -8334 -1205 -1715 6812 535 -2519 571 3329 -3749 -4309 -3464 5543 -1263 344 -7932 -1855 8349 6585 5519 -264 -1391 -2131 -3509 -2219 7002 -1229 467 2320 -6665 -2247 -3610 8719 -3327 -214 7360 6097 -545 -1347 -2143 4212 -1492 8773 -7987 -4197 -2293 2028 -2168 -3264 -1225 -1738 -3702 -2024 5694 6345 -176 -1568 -2479 -545 -629 -871 -5743 -1932 -4738 -1315 -1402 -3235 5176 -1501 -2946 5455 -616 6311 -1868 -3400 4880 -1432 -1550 -2238 -1286 -4883 -6821 206 -563 1839 -2403 5093 5701 -229 -3353 3490 -4447 -2500 32 8431 10735 1617 -1162 -875 -3059 61 -5545 -2870 8415 5161 403 628 -2465 6887 458 3208 -4107 -1831 -5860 927 -1893 -2981 -7394 1018 9523 -2169 1583 -2165 -2607 2511 -1937 3808 -1875 -1593 -5393 -1317 -2886 756 10701 535 1331 -582 897 900 2740 447 -6008 -4885 -1631 -3234 -3095 -1985 -2658 839 -5472 -1994 -2232 30 589 -3309 -2717 -1628 -1351 -4693 -9 11539 -3093 9854 -4968 -3451 -2726 -6343 -2559 2751 -280 -4005 -1354 -4116 -837 -4702 -2896 -511 -4392 -959 -1721 7911 3670 201 3744 -1025 -4238 6128 -1955 -3576 14227 -3860 7286 -3948 -1351 2811 -4390 5661 7699 -2647 -2414 4033 -2234 -4021 -2783 1412 -2265 1717 3026 8592 22972 1086 954 3408 -4544 -7182 2441 -1057 -1833 -2087 1410 -3132 3814 621 -2399 -2981 -103 -2673 -2482 1972 989 -3581 -5944 -5724 -2854 680 -5231 -2803 -1407 4967 1259 6510 440 4241 347 -4381 -6179 -4105 2928 17940 1845 1257 -5189 -3758 -2833 -5189 -2488 -4855 -3871 6886 -3694 1090 -1695 -1312 -1676 6809 3104 -3646 -2928 -2396 -3607 5491 -306 -6656 -1432 -1987 1641 222 436 -897 -186 744 -5264 6082 -1688 7038 -4060 -5327 -1835 -5467 -3582 2890 -7846 -2425 4399 -3497 1557 -2539 -6155 -4577 3514 -1052 -2289 4537 -1269 -780 -1454 256 7482 -2946 -592 -1991 -1680 843 483 -3892 -4720 18951 -2202 -4319 -134 766 -34 -1974 6600 -4765 -1387 -1816 6724 492 1607 -6579 5884 -1713 -1555 -4519 -3279 -2831 4971 4395 889 -831 -1499 -3301 1772 287 -436 -4395 -4362 -1488 -4746 -1102 728 1700 9340 -4028 -5157 -5272 -1553 878 -6906 -2952 -3377 4121 -2703 -5714 -1148 -5989 11682 -5877 3566 6159 -1533 -3035 -782 805 4877 -2920 4852 -3322 -4487 -5640 15073 -6262 5503 -2836 -808 -1392 -2850 -4173 -976 -1898 -5052 -2486 5293 -860 -1912 -574 -3382 -1912 17477 6103 7255 1706 3286 -3245 -3025 -742 -1215 2144 11256 -1654 1287 -3024 579 -2112 -1847 -6316 2312 -1147 -4633 -883 -6631 -1912 -4443 -2269 -1983 6996 -208 3448 -1310 34 -6147 -3908 3521 3319 -2457 -2176 617 -5710 -1491 25673 -3609 675 1556 -1507 -1243 -6191 -3982 9 -2532 -1064 6807 -3729 -1032 341 -4190 -1882 -4094 -1798 -434 7443 -3225 -5931 3631 -3304 -419 -3864 -2839 -708 2822 -5725 6468 -1095 -3946 -2383 678 1648 23483 -513 -5671 2979 3447 -2671 5039 -5040 151 -3330 -3562 393 3384 -4864 -4604 1857 -3547 -4852 -3213 -2658 195 -310 -664 -1722 495 19521 572 7488 -1765 -957 4244 7457 273 2526 1000 2018 -8910 -2328 -604 13171 -2114 -1400 -5427 13583 585 -3013 -4189 1780 -4043 4023 -2973 521 -594 5898 -2375 -3039 417 -4349 3645 -944 330 -3710 2299 -5194 -1800 1401 -3698 9698 -2264 611 233 -673 11 3294 1252 -1586 -3456 5538 2684 -1114 -245 -720 -2422 -2390 5622 -3680 10824 -4692 118 98 -4746 3006 -5114 -3868 4058 1594 -2677 -1587 -2248 67 -3683 -1372 -4834 -3717 -3128 -2592 3345 4634 1386 -1866 13343 1693 422 -846 356 -5606 -4786 2584 -1057 8015 -4547 3812 -3323 2861 -5139 -2149 -4216 1159 -2016 1363 4502 -3542 -4775 -5056 -337 2359 -4595 -1489 12220 -2130 -3167 -1046 -1811 -661 2388 -3514 2144 -170 -3303 3744 -2028 -5844 -1834 -2941 8017 -2279 4224 614 -118 4331 7600 8703 -4829 -32 -865 -4203 919 -717 12257 1230 -5363 3908 -1686 -3497 -2922 8686 81 -4652 654 -2948 -2119 1628 -911 1082 -7541 -3304 3498 -2814 1988 -1877 89 8269 635 29 -4597 6147 -4434 7157 -5682 -6597 -4431 -4329 -5076 2156 -2228 -2101 -4216 -1212 832 2908 601 1992 -4247 -1092 -1619 9059 -545 5231 6278 -3501 -2456 -6186 -2608 -1379 -3824 -4429 2020 -2400 -6041 -2975 -2761 3944 -1914 -2635 165 7433 -1167 4101 -1093 -1247 439 -766 1230 -2260 17440 -1662 -3855 -1979 -2589 -4718 4975 6496 -3606 -2192 -2360 -1976 -2371 -1247 1414 -2190 978 -3281 -768 2171 3644 -6398 -4760 1872 -2094 7356 -7450 462 -1660 -6192 5497 9150 4829 3714 -2849 -2437 71 721 643 13430 -4984 -1202 -3178 -2505 -2106 452 -3808 -589 -3029 735 -1132 862 -2226 1218 -4086 627 10253 -2720 -2569 -3047 -4965 11808 -2301 -4633 483 -4547 8499 3926 5441 -2045 98 1914 -1645 3931 4600 -2199 -3395 -2778 -4628 -4556 105 -1174 -5343 -3745 3804 -304 1616 1063 257 7304 8031 -6585 -4464 6042 -5560 1071 2634 -2274 -1526 -3306 -1373 -2239 -1685 3678 -1850 -1032 -5015 14906 -2837 1368 -304 -1754 2315 -1940 8218 -2912 4372 -1120 -1913 8044 -1930 -4149 -1552 -1611 -2221 4115 -3244 -1980 -1486 843 -7689 945 192 -853 2884 12095 1352 -4406 2753 11053 296 260 -3848 -1658 9450 12369 -3054 -4072 1562 -1844 -2032 960 391 922 753 -5824 -2480 -4917 -2455 -2363 782 1595 -1474 2247 -1695 2202 844 -413 5338 5773 7284 -4817 15901 -6675 685 184 6880 -5938 -2468 -3402 85 -2750 -5492 -3859 1321 -2290 -10 -1712 -6813 -967 184 -1131 4648 3220 1600 -2421 -456 3989 -2767 3751 -4798 -2455 3186 -4151 625 -2026 -2463 -4239 -1885 -5987 -3955 -1948 -4484 -702 -809 -6988 2351 7053 -1923 -2817 -2949 5560 544 3103 7837 -2006 -3855 9718 -1141 4892 -2979 -3148 -186 -2289 -69 764 -3871 -5568 2041 2939 -4596 1323 -3849 -5084 1301 -4717 -3559 -2061 -5258 -3705 -1532 6969 -4257 -5854 -502 -1433 2555 -6742 295 2706 -5233 13 7288 -4328 -2795 -3229 485 -1289 24413 -2869 -7722 -3041 719 -842 -1075 -5147 5544 -1684 1130 5398 4862 -4986 -4800 5363 -1482 -5728 -666 439 5442 -889 -1801 3814 -2789 12197 611 8224 -57 1244 8728 530 5338 1489 939 -1425 -7323 7409 5123 -601 -4426 -2678 -1578 4999 -1326 -4460 -228 6675 -5032 2566 -6666 154 5351 9352 -5484 -2341 -312 -1996 -2153 1350 5923 348 -7210 -4378 -2789 1579 -2342 11745 -2696 178 4609 -354 -863 5539 7220 -8402 -762 1887 3309 745 2114 2543 -1757 -1293 5029 -3666 3779 -4944 -5979 9891 -5626 2788 -1881 178 -3313 -1862 -4913 -3675 -3433 -1066 8077 3335 5627 -5201 -4088 2061 295 -2008 2621 323 -1448 3621 1939 5238 3573 -5666 -1699 3560 2375 5014 3266 4111 -2757 24858 -2474 660 -655 3238 -1224 9084 -7563 2216 -1268 -5884 -134 -4424 -1438 -1291 4749 -3751 -3474 -1704 -676 1218 310 -4366 2318 -3773 -4696 3235 -739 -5781 -3576 -2006 4573 -2251 3099 -1626 -673 -1476 832 -2187 13407 -1936 -4013 -3805 874 -3341 -4562 -1039 -4730 7136 -261 -2777 2382 -234 -6844 8941 670 -2041 1511 -1038 2225 -2335 -6720 -4903 -2271 -2613 -1014 -3595 -2602 -3236 1251 -1588 -532 7540 -1913 7435 -3219 -81 -1861 -6649 -205 -5786 -3482 -2964 638 2594 106 11678 1972 1837 -2541 -4027 -215 8781 -694 -4342 2241 -1653 -1829 -5277 -1122 -1915 1349 -3340 6135 -752 -6244 -2711 -1946 11645 -1467 -5473 -783 -899 -5268 528 -914 3924 -1274 2852 2104 -872 14698 -4232 -6526 -6056 -2047 176 1584 -256 -3087 8548 4369 -979 -9791 347 3399 7750 -4113 -3043 947 -2726 634 -4151 -2812 -4529 -3975 1469 -2927 -5050 -2036 15011 -2244 10999 -3564 43 -4026 -6210 -2345 -2672 3025 11611 -1327 2550 -1322 -1441 -2490 8301 -4161 -4879 1436 4453 615 821 -2977 4347 -1316 5499 -5495 -4712 697 -1777 -5528 5557 -3290 -3091 -1567 -2395 4294 -5232 4257 -883 5134 12171 5409 -4065 952 -347 -4719 -3442 -584 -2226 -5453 6752 -2116 -4166 3518 -1342 3121 2424 -4440 3017 -57 804 -4335 -483 -7246 -1911 -4189 -3106 644 -2912 59 8 -7815 3556 3062 -1367 834 16947 -1735 2848 -37 -1814 1411 -4653 8517 -139 6146 1019 -530 12927 28 -4044 -3042 -2256 -1453 -3049 -2400 -1223 -396 -298 -2514 2074 -804 -2219 -279 13491 -832 -3014 -2219 -791 -3060 -183 -703 2582 7790 18583 -3197 26 333 -2302 -5081 2819 -2656 -1600 1586 3005 -4266 -2424 -5512 -526 2165 172 -986 2083 -2211 -2114 -2086 5232 1012 -3803 -3580 -3753 18790 -4715 -6439 1816 -551 -1840 -4212 -5008 -1891 813 -4726 -2972 5972 9243 -1853 -1388 -1688 -998 8608 4767 5726 -798 4369 -513 -2605 386 -503 -1086 8235 -32 9289 -967 3386 -5212 -1675 -8058 1048 -6610 -4081 3890 -5143 -682 1434 -6866 9462 771 2113 -6323 -3567 3238 -495 -6699 -583 -9456 -357 5945 -1254 -7436 -4665 -3266 632 -5052 -2579 -1620 -5689 -2851 -4041 -414 -1980 -1590 -21 -1220 2037 -2467 -4281 -1185 2131 -193 -2322 5749 -4182 -7290 3374 761 18796 1707 7514 -1405 -2655 -2526 -5052 5731 -4001 168 -449 3352 22617 3640 -3278 1992 -2035 -4096 1542 -4524 6376 -5305 -5353 3312 -46 -4857 -2116 -1037 -6044 -2474 -1349 -705 -2316 1644 -2633 -4981 -6375 23007 -73 -2118 -541 -4456 -604 2240 -1739 2827 -2058 -2571 457 3508 -3965 -601 -229 -1882 4324 -699 -1185 -1468 10 8003 -1865 30 -4366 -3022 8505 10795 -3412 -1864 -2562 -3081 -2655 3092 5419 -2503 -1160 -3002 -2993 -2059 819 14913 -4666 -5286 4783 7095 -1544 9608 3795 -6524 -5320 5388 5775 -822 8358 2168 -2398 -4757 10829 413 -1792 -2699 959 12596 2831 5997 -2906 5213 2324 -2592 630 -3498 -2757 -4300 -2478 -2718 7505 -4756 244 5301 -1926 -4529 1831 -3479 1654 -3969 -2088 4435 3345 -789 -2228 -1373 -2125 -871 -2074 6566 -6233 -4590 -2358 -2855 -1974 2324 -1404 5761 -5564 -3244 3577 -3724 -3121 13111 -7149 -2643 -3806 4552 2203 -1124 -2040 2250 2180 54 1294 2431 -4898 -445 -2704 -1883 -498 -589 8193 -3873 -2708 -58 197 4502 1901 1807 -5832 5049 425 -2012 -1346 683 -2375 -2982 1261 -3749 10042 -3234 1199 -877 -4373 -5428 -661 -2753 -2626 -577 56 679 1857 70 -2611 -1201 -1745 -3511 1579 -10197 642 851 -5199 8502 -353 -3537 -3830 4337 -3404 -3875 750 -2122 1072 -4216 -2338 2703 -88 -1396 -2799 27 -5014 -1620 -778 9578 -2140 -2028 1177 -344 -192 10404 -1101 -5091 10189 -249 5200 -3775 -261 -829 -7172 13137 9353 -3320 -3160 10 -3119 8854 -2386 8949 -63 4401 1493 5176 16125 -3240 -7470 10792 -5076 -1946 8538 -2617 -3207 3428 -6594 -2978 -5025 285 -559 -4400 -1143 -2581 -770 5150 -1304 -4384 794 841 -5729 2680 -7517 -4678 -1755 -1918 2041 740 6281 -958 -6151 -3095 554 2797 5226 6141 1971 -3029 -383 -2767 4114 4649 -2567 -2047 -2418 682 -3005 2331 1004 1007 -4820 -2099 -10421 -2536 -870 -3248 -2594 -3762 -1145 -5820 -1364 -4541 6785 -4914 3269 2256 -3215 -3971 -4186 9676 -3641 -5 2503 -3649 -2048 -440 -2842 7315 -6106 -2722 5379 -4859 -6484 -1590 1148 -4317 8543 -6145 -4423 9178 -5643 -3143 1226 -508 -2345 -46 -3219 175 -4046 2437 -2951 -84 -4623 14702 2336 -2066 -3066 -3530 30 -468 9901 -2903 5262 -3356 -3750 8809 -1481 -2456 1786 -473 -4784 -1293 -375 291 -820 3583 -1597 -3641 -849 -5699 -2971 14520 779 -3815 -2071 266 760 -118 -1929 554 10166 -3083 -2200 3364 3479 -3280 -5214 1774 -1892 -1836 -1829 2611 -202 -2972 -4462 -3302 1808 4049 -914 -503 -819 3192 -2843 -571 -1892 -403 -1971 -3315 11673 -3929 13254 6694 -1740 -3422 -4095 -1561 -1742 -3603 -4208 2324 6852 -3748 -3527 2585 -2571 -3483 11418 -1506 7432 -894 2455 -2096 -2541 3571 -4321 -1834 -5094 -253 5343 300 6387 -4238 -3810 -5693 7538 -3724 -4515 3298 -6182 -960 -3388 -2943 4500 14926 -3713 -5447 -3031 731 -155 -1653 -5090 -1759 -2922 1018 -4266 6348 -3030 -2551 -3468 -1239 -756 -3202 -2379 -7026 -1784 3064 -1773 -886 -7594 -1236 -1646 -4674 -3471 -1834 2996 -2717 -7431 727 -2646 -623 2576 -1455 52 -8786 217 3466 2929 -53 -3142 -7337 64 2821 -2931 1645 22631 -1280 -8294 -4514 -4330 -1008 -1762 -1492 1035 649 -451 221 919 -8613 -4024 9948 -247 1891 -2325 -1900 1710 -374 1184 -4361 -2080 18470 299 -764 -2248 -4308 4381 -152 -1755 5029 -1281 -3156 2439 -2322 16397 -6290 -3209 3569 -1344 22099 -583 -3585 -393 1346 -5168 -2680 -3525 -639 515 5135 589 -1619 -2864 -3389 -1179 -2002 -912 -1591 -3132 2423 -3258 1883 -4003 6226 -2051 2508 5699 2490 -1128 -3856 4249 -1795 -4211 9072 -3186 4869 3628 -1656 -1032 -874 8514 -26 -6097 -4587 -4190 9236 -3855 7267 -1006 9486 -3292 -548 -36 -2530 -1071 53 -1977 -2546 1902 -1420 -529 -6102 -4559 -5549 -639 -571 -3881 -643 -1167 2394 -3435 -5169 -2886 4001 -2198 19437 -1830 3178 -4444 5267 76 994 1842 -1516 3992 15 -1960 -3949 -7792 -3989 -2412 5469 -3364 -3800 3672 -3676 1248 -1895 437 406 2038 -4729 1650 -3495 -2897 1679 -4067 -2998 -456 -346 2302 -5987 7445 -1923 1422 -3490 5292 -1561 -4298 3800 -3145 -38 -304 -1533 -1710 -2717 81 12964 -5857 5300 -3529 830 -1706 3692 -2153 -2383 11116 1967 -3069 4301 472 -2301 -568 -2135 5194 -3986 -1595 1732 -774 -3518 1653 3785 -2072 4400 1223 -2071 615 27586 567 -4175 -1686 -932 -3746 -2591 -537 -9549 104 -1692 -2645 151 -1177 2740 2300 -1282 10901 -2716 -2138 6504 -3241 -3919 1873 -1531 -1002 -2599 -1317 -5528 -1850 -1223 -6237 6139 26 -635 -2340 -374 400 -3205 4401 5257 3198 4766 10925 111 -2263 -3691 -4553 -1657 -3446 867 -5082 9227 -4501 849 -6000 -5866 2493 1414 2226 31 864 -1809 -337 -4241 886 -4628 -2278 1407 24651 -3834 -1863 -413 -656 6795 -9 410 -4959 -3828 2520 -4644 3090 6349 -3203 -1958 -442 -3791 -3396 -1370 -2053 -3802 3373 5472 1770 7503 -468 3563 -3076 1458 -6862 -2670 -1139 -1010 -2149 189 -4015 -5612 2501 -2508 4049 -510 -3287 -5230 9973 -7003 -3852 -2766 -968 5631 8168 -2648 -2065 -5180 -1596 -2386 -6302 -74 3383 -2947 -489 1208 -1476 917 -1558 -4925 3252 7794 -3527 -769 2924 -2815 83 -2185 431 165 1585 -3823 -2922 -2375 4002 9948 -4002 -1499 2505 -693 -2372 -3045 3250 666 7622 -2075 -9108 974 -3908 -4276 234 -869 5 -28 -3520 1673 -708 2946 -3774 1669 -2575 -3233 -3676 -72 -5111 -5366 -3081 -1751 -3456 -4877 -2812 -1996 14711 6921 -2968 -1679 3522 4100 -5364 -4436 -2756 -1829 11 673 -1162 16812 -371 9244 550 5428 -4033 5014 -4261 -2743 -1646 -4727 10202 -127 4216 -3557 13296 -6496 3922 625 3861 6692 -1403 2195 2187 -2830 829 -5511 1077 -2955 366 -2860 6429 -507 -1018 2598 7362 6017 -1586 -717 -3160 -2224 -5136 -4003 -2136 -2624 -3494 -2058 5376 -4478 -514 -4439 4759 1615 -1997 -472 -3574 -660 -4236 -5847 -1613 -9237 -1442 -4211 -2389 7680 -2691 -2475 2630 -1333 -3688 5078 -4714 7525 -5433 -5548 -3293 -2260 117 1236 5383 -1823 2922 -180 -1257 -4654 -8255 -2902 -245 4307 -876 -3693 4188 -1749 949 4836 -1664 -5852 -1079 -1230 7918 -2324 2450 -3810 -2184 -2162 -4232 9246 -210 -837 49 7464 16140 -2993 20248 -2076 1661 -914 -5397 -3918 5146 985 5764 -3737 4632 2680 -3942 638 -4927 -2238 -3553 3130 1206 3390 -3692 -1699 4630 14706 13612 -1625 -725 -3652 947 -1099 -4792 -3976 -4947 -1605 -4820 -462 -258 -9478 -2127 -2521 -4961 2061 -1404 1313 -4720 11106 -2224 -4965 -173 -563 3337 3118 -2553 1190 -1095 -2360 -3344 5560 2713 -2112 -6099 773 -1473 1972 -2361 15073 -1386 -465 4764 7796 797 -346 2633 -3808 -2513 9020 724 182 -280 694 -1953 -1917 -628 -3067 -1242 -2352 8947 205 -2265 -11293 -1745 -5803 1152 -2492 -5235 -3145 -1892 -4709 -4262 -1592 11965 7260 -1971 -2985 2028 1599 -2325 -622 -2955 -6939 -80 -1103 -7060 -1079 -3418 -4826 -2657 3646 -1932 4259 -62 -2085 -5091 -2086 2290 -796 -7120 11761 2384 -957 387 -1420 3492 6538 -4275 -810 16250 -2932 620 -4107 -1806 8445 -534 5732 8868 -237 -2628 3209 -3760 -4474 4 -3122 1332 -1242 1721 -2877 -3784 3095 -5026 -5001 16341 -3729 1289 -3875 687 -3669 6457 129 -1197 -5936 -3142 -380 -3125 2381 -1522 -1290 -5502 299 483 -5864 -1398 3124 -2285 607 -1098 -2484 789 -4157 -335 -3198 -3855 -2348 768 4656 4247 3319 -941 11502 411 -8439 144 -2043 -447 -2104 -3337 1754 3927 -7846 -584 1093 -4842 -4914 -3841 6970 3042 -5013 4157 -2269 -895 1488 -4428 -3270 15659 -2799 2908 -1101 -2356 47 -1447 2856 2158 2553 -3377 -3286 -1189 -7760 -579 14232 -4342 1002 -3522 11013 13307 -462 -2717 8985 -1557 481 -2347 -671 -1913 4945 16924 -1246 -3694 -4017 -1480 -1510 -4441 939 -2992 7512 -1784 -3031 1585 -3900 -1912 -3911 -4479 1965 -1521 7831 -4586 2159 -3022 -794 -2619 -2374 2892 -471 3127 16149 -6009 -3639 -751 -3215 -887 -3824 -4190 -7334 196 7805 -2310 12940 3850 -859 -3539 3005 -4809 -4604 -1580 102 -74 -619 -1251 -5937 764 -1450 1034 2794 337 1566 -6605 -1811 -3366 -4571 -3464 756 -3988 -3955 -4406 -1513 1398 11882 10406 -4986 10771 2520 -2077 2895 968 -3567 -4824 -2355 9677 606 -529 1067 -592 -1546 603 -2931 1952 637 -2307 665 2710 -1062 -1049 13252 -4545 -3386 1221 -6700 2710 2391 544 -4421 3877 -3122 -976 -3302 -4197 -4702 -305 93 -4973 4954 -6368 -750 2488 4714 -1817 4658 -3428 4330 -905 -1948 -5144 -5378 -5646 -2311 -2078 -4956 5681 -814 13525 16295 3061 -4306 3736 -774 -1967 6546 1431 -3833 -435 1203 -3396 4902 8887 15022 -3092 1310 1590 2263 -6649 -1997 -4520 -4014 2809 -2847 -6047 -997 16668 -1790 4115 -3152 -1477 -803 -1931 2799 525 1055 -4652 2245 -5263 6406 -6254 -5147 -7204 -4500 -1400 55 4775 2984 3916 6341 -1795 -6564 -3607 -4619 12630 -3369 -6037 -4042 -2336 -7299 -5238 -5867 -197 -1082 -1629 -1765 -1737 959 3651 2327 2169 -5840 -5535 2634 373 6194 2895 -4216 2288 2831 -5326 3195 -1820 1870 -3315 5984 4873 1818 -1029 1682 2294 -7518 -2162 1954 -650 -659 -1209 -2375 8810 -4234 -8034 -4693 -4366 416 -3578 9845 945 -2454 4270 -8142 2146 1764 -2897 3373 748 730 -10886 -4859 -5115 5548 -471 4636 18345 5591 -5530 -189 873 -6857 -190 -3726 259 8058 5243 -6316 -1275 3875 -671 -2250 -5860 -1250 -8287 1397 -3631 -1505 -439 -275 -4082 17482 -7897 -368 -2108 7487 -2062 -2517 332 909 -2110 -3174 641 -5607 3446 3149 -2382 -2231 -1828 9157 -234 -273 819 -304 -4914 719 -3010 -1317 -2633 7430 -7008 -3855 -2800 595 -1730 -1210 4301 -3817 718 -5667 -1713 9407 -4331 13878 -3757 -1469 -5541 -3037 -5247 -4984 6395 2728 -3174 5910 -387 119 7024 -2252 -3088 -2695 6739 490 4654 -698 -2888 3095 -6694 -863 -3504 7290 4939 -6251 6736 -1783 -2698 -990 3619 -6197 3840 3781 -6438 -2916 12763 2274 1310 1224 -444 -2307 -669 6793 4378 -2639 -1234 -2137 -3248 3483 -3894 3637 -2634 -4035 -823 -5541 -113 -560 -4292 5938 -843 3969 -5148 -4451 -4040 -1656 -1332 -2840 1621 1383 -400 813 -2443 4557 260 561 6810 -3412 -4109 -487 -3006 -3485 -2232 -717 1901 -2913 -5462 283 2160 -2160 2847 -7288 11608 -2033 -3707 -4826 4441 -6086 5325 -3760 1127 -5827 531 1633 3999 8454 3871 -6104 748 1974 -1895 109 3653 -3747 -469 -1059 -160 -5651 2121 -6830 5944 -512 -816 -4085 7354 225 -3434 3918 -985 15075 -438 -10410 -5599 -28 -3728 -2184 -6659 -3553 -1497 13124 -3390 -4666 -1506 -3413 -2181 7056 3721 4996 2837 -1911 -2187 2224 -11303 -1160 -16 3066 3397 785 -2741 -3433 -314 888 13633 -429 66 -3636 -4886 -8436 -3104 5752 -578 -2546 -2259 -254 4852 2 -3327 8033 -2399 -1354 1359 2939 -1284 -391 -2383 -3339 -4150 -2308 1247 -2336 -334 -1773 -1943 10964 -1750 6656 885 2142 -2177 407 -12119 420 -2980 -2834 -2107 -4707 -3243 1065 -4530 4275 1258 210 682 10011 7465 -3973 -1296 5821 -4157 5680 -3014 -7908 3961 3680 -4190 2021 -2738 4058 -1353 -1832 -4344 -2552 -4417 -3832 -1707 1276 -3269 13321 -3517 -4586 13202 -546 1814 -3028 -3491 9431 -990 4619 1970 -1441 8594 -4703 -3125 -1543 -5014 5955 10156 -2437 7396 -950 5324 -1411 3736 1926 -427 -612 4345 -3164 -2504 -3372 -6788 -4473 -4260 -2835 -17 3521 -1213 2200 -694 -3284 637 14023 -1572 -2041 1647 -1555 -394 52 3565 2174 -288 -3398 3732 -6732 -1109 -7373 4527 -2757 -2433 -4841 -2795 -2026 -4063 -1025 5794 1844 218 -1739 -1836 4463 -3111 -7239 -5121 353 -4053 -4816 -836 -3568 5107 9570 -6699 -2431 5309 -3065 4509 678 -191 -1905 -412 834 662 -9758 -3752 10594 -926 -1762 238 6945 1158 -5968 -790 3646 -37 476 -5662 -5495 12420 -5766 6205 -2556 -4124 -3317 -5120 3092 2371 299 -1785 -2911 3758 3201 -2878 -1916 -4730 -2025 11838 4447 427 -2755 -2525 -2409 -1493 -117 7709 -4100 6706 -5673 -2889 -4004 -1100 -4914 -3417 -5939 2554 -1523 -1882 1798 -2245 -1585 -931 794 1446 9876 -35 -6346 419 6555 -3954 -4966 -10512 2378 -3746 -899 -6304 3201 1174 -6749 -2627 223 -763 -3587 -2984 -4783 -5829 3669 -2737 -2617 -4963 -4788 -1853 -6186 -4194 -3003 -915 -579 -2373 9070 -1012 -10944 -1073 -3670 7146 3541 -1969 1336 3909 -736 -814 4234 -2974 -1194 -452 11961 16555 644 -1827 347 -2774 -2333 2762 -798 2963 6152 12013 -2868 2797 -3904 -1559 8589 -896 -4620 -3319 -598 -1935 -4927 -3721 -3498 -139 16052 675 -8282 -4649 -2804 4270 22 -1398 10351 -1825 -1041 3351 -2535 6812 6050 616 1971 -1080 6270 -4386 -447 -751 1577 -4196 3632 -4394 3416 -1007 8375 -7393 386 1641 -3853 -5264 1541 -1368 -2492 -842 -821 -322 -296 1096 14276 2262 -2468 725 1695 3484 -2692 3086 16459 -2319 5689 292 -1393 1199 403 -1893 -5313 7150 -1678 -1810 -2698 -4790 7618 -2767 5179 -5297 8495 -2672 239 -4781 -4578 -297 -3782 -1074 -4144 8385 -2280 -1563 168 -5941 5760 3217 50 5273 -634 4390 8119 -3281 -3721 -3510 -2769 1478 11126 -4255 732 -4070 -2400 4355 -1248 -3807 3990 -1767 5072 -4541 -3936 2131 -2204 1857 2938 -564 -3132 509 2476 739 3984 -3305 1054 -1992 -51 1312 6343 -4038 -3197 -2697 -4398 -1773 2661 5990 -3627 2908 -2582 888 7433 2991 -3846 -3319 -3712 -751 -3974 -996 -3538 2892 -817 5435 -1869 -4702 350 -5348 252 9211 -2696 3393 -4950 1856 -4836 675 -1178 7694 -3408 1071 1378 -3242 9 1733 11297 -1280 -1580 2706 8764 -1980 3189 6343 -4491 -4287 32254 -1610 -2489 3532 -3693 -311 -2272 1211 -7432 1832 -6 152 -4441 198 9333 -3344 4279 5125 1191 -482 -6994 -3377 -5492 155 267 -3530 -1121 -5535 -8043 -1111 -2355 7861 16522 -89 -168 -4262 -2098 -4 11423 -6189 418 5923 2620 2947 -4905 -6053 -1053 -1421 687 2567 -2599 -5348 2437 -5930 -2076 -6551 -2663 -1768 380 2167 -3026 -1413 4276 -2090 -2566 5867 -3105 -4585 -1583 16502 -2542 -1391 -4010 -5504 -2201 3181 -447 -4122 -402 1543 2696 -270 8657 64 6690 -1372 -1508 2022 4947 687 -711 -1535 4560 -4782 3877 1202 -1667 -4977 988 2276 -4311 2240 -3389 -1851 -1519 -3217 10651 444 7249 -535 3799 64 -899 -5857 -3814 662 2298 5958 2059 1959 -1834 -3253 -1789 -54 -1355 -3870 334 3190 -4631 3559 1141 1426 5806 -1804 52 4638 -3268 -3923 1973 -5127 -3769 8560 -3601 -523 -4019 -2455 -4588 -3445 -3163 845 13598 -275 -2119 -263 -1834 -2216 2651 -1493 -4023 58 116 -4494 1661 -3596 -3392 4026 760 614 -2738 -327 74 3251 -5043 -4 9360 -2363 -1114 -2803 1671 -2827 -6269 -6544 -2895 -4458 -3435 2719 -2684 13134 -3212 2759 563 1489 1990 -1143 -2357 -1386 -2709 -331 1798 5518 -11898 -4775 13797 2136 3995 -851 -1951 -3906 -2237 -1569 -6179 4136 -1811 1494 -5005 15530 -7519 2683 2893 -4306 4520 -4922 -2899 5751 5039 -8562 -2766 -2071 2253 -2023 2939 -2695 -1194 6167 816 6412 6435 -3550 -1793 -2838 -3043 1474 -836 9003 -743 -2016 2064 -469 5341 980 -3258 5240 -2063 -1086 -2448 -3752 -2699 -5002 -4412 14691 -1723 1712 -1862 -3997 3543 -6372 -4616 -7373 9209 3860 -1020 3320 -800 -2261 -6739 -1333 2440 -5012 2384 -1119 -1353 5087 1342 -3697 -2417 -4512 -5121 -2962 2031 -6799 -2166 3848 8089 -2213 6349 -2630 -11392 -785 -4443 1746 -523 -2492 -308 2005 -1060 -5093 -7447 -1053 -1004 2458 12892 12051 -4088 -160 -800 3224 -1076 -469 -498 5529 -1005 1707 -3727 -1318 -3684 -3556 11080 509 -3590 -2718 1948 -3812 -4886 -6017 -3012 4906 11274 10852 -6084 -1130 -3391 5052 -372 -2987 4196 -4977 -3278 -2213 -2683 -28 85 -2204 8 -2919 5485 -1241 32 35 -4891 2117 -3138 4896 -1562 -1960 10767 -3336 5839 1738 -3236 -4176 945 -1800 -2340 -1158 3889 -2331 122 235 16454 -3565 3790 1397 6474 -456 -757 708 -2071 -2325 8641 -8628 1575 -543 1886 -1421 -3075 7003 -4766 577 -2138 -3061 1801 619 4016 -2091 8168 -2296 -4506 7675 -3711 -736 -5643 -4363 -4043 12152 466 -3189 -7070 -4768 4825 -3200 2572 -326 -4691 668 2593 -6368 20096 -4316 -5723 3216 7025 921 3826 -2530 -5003 2748 -2302 697 2522 4005 5937 -136 -1600 -2329 -3380 6185 2947 -3266 -7270 10959 174 1135 -4114 1738 8517 6363 -1122 4530 1561 -3216 -4709 103 -3027 1287 -2770 11729 -3255 1490 -2657 -2856 2956 -2337 -2010 -6655 -2798 866 -5565 2148 -4150 -2124 -3214 9299 -6120 5824 1581 678 -3109 8205 6524 375 -3985 1063 98 -375 -327 -9280 -480 -4662 -202 -3097 -4631 5253 399 -1016 -3167 -514 4075 2212 8516 707 -498 -3713 922 -528 170 -2760 -682 -1226 -2040 -1768 -9363 476 -1346 -1288 -1627 -2097 5569 2141 5494 4938 1197 -2264 6613 -2823 -3345 -804 -1045 -2493 -3390 -1940 -3492 215 -3395 -10063 7876 1489 627 1262 11251 -2252 5432 -1974 2488 204 -1996 -1981 1551 -4739 9539 1797 1535 4269 -4771 -3537 -1408 -6692 -3452 -1283 -1026 -4400 -970 1940 -1444 559 1223 -1373 -2645 4632 -3682 -1217 -5672 3727 -3143 272 -5853 -5338 -2973 6282 7298 -2919 855 -5023 -434 7678 7247 -2253 128 580 -2719 2841 -310 -2989 441 -1440 3258 -5377 1616 -174 -5976 -4608 -233 19160 -2164 1553 109 -4388 -6204 -3529 1735 1047 -4645 114 -1240 -3843 2686 -2169 -4306 231 -4022 5806 -3332 13036 -3676 -5927 -659 1402 3275 163 254 5938 -4991 -3400 -105 1262 12097 9359 1137 -4391 5122 -3576 -1962 514 -3351 -551 -3180 808 -1537 -6646 3201 -17 3306 1815 16644 1197 -4055 4052 -432 -1362 -6741 12820 -2561 5447 7284 6230 -3415 -2472 -3087 143 -4331 -7674 3527 -1193 -3845 294 5002 -1014 -932 434 2729 1693 13707 -3484 -3694 -1901 -2190 -965 -1579 -4508 1707 4986 10436 -1708 -494 232 -1123 -2157 3162 107 2276 -189 -1553 3151 6138 -6136 7182 -2265 -1360 1574 -2053 -162 -217 1990 4289 3293 1146 -4125 -2215 16778 -5115 3073 -4400 -1865 -1144 363 1345 -1658 -1739 -6055 -216 2284 386 -4133 -5268 -6534 -3501 10594 827 6657 7898 1888 -3435 -18 -2357 3560 -2453 10051 -1818 -4983 -5627 4143 -7435 -1056 -4907 -1646 -554 -2662 1154 -2578 1884 -28 5227 12091 -5665 -2320 -5212 -1865 8215 -3923 -5145 -2116 2480 -944 6007 -2391 1191 1523 1473 1262 -7380 431 -2287 -3343 -6637 -2471 -2514 -2518 77 -1184 -2207 -1214 -4800 -5929 -1692 -176 303 -2750 9576 2747 -9525 -63 -882 4058 -6482 5326 4056 -6409 -2240 -7340 12255 -2345 -2757 758 -2605 19833 -3910 159 1933 -2285 -2166 -1724 -2899 1695 -956 -515 -1982 -1089 -5277 -4466 4641 -759 7698 36 -1865 -2152 -2159 -1658 -2037 -1329 20470 -2921 2043 -2371 -3904 889 -2585 2949 6714 -4203 -1669 -4298 -4871 1784 1830 -1784 -3022 -1578 324 -2319 -1013 -398 -161 -3541 961 -1417 -347 -692 11849 -5139 -1004 -3982 -2190 -774 -2996 -185 -2663 -5106 -4539 -1443 -707 -929 9000 -4747 -25 7374 -8664 2591 -4587 2308 -7972 -2204 1912 10071 2310 6128 2012 158 728 15645 -1398 51 -2279 -3833 6847 -1772 2878 -6928 7945 2345 -3637 3489 -1460 -3185 808 -3354 -4352 4738 2355 -1691 4361 -8194 5055 1046 819 5755 -5689 -349 -711 -191 3381 -4390 1203 386 2483 -4451 -2046 -704 510 4776 1733 -6046 -1527 -15 6454 -4963 -4168 -2966 -3077 524 -284 -7590 -497 -3137 2713 3365 -3417 -3598 -1025 -1810 -2397 -2579 1467 703 -837 -1370 -2505 -4653 74 2588 1076 -317 836 2570 4898 -3052 916 -5786 1574 1131 -500 -3827 -5767 7251 -291 -2256 -414 -2014 -2739 -3832 -209 -5439 -1039 1592 -1502 2696 -3618 631 -2304 5640 -394 -525 345 -5085 -2666 3813 -4388 -1890 168 21829 11172 -954 7506 -3378 12321 -5813 870 -2102 828 -1371 -3245 -316 -693 2261 -7962 1735 -994 -3375 -4320 -3001 11040 -4455 -7795 5692 -1324 -3174 215 -3298 -2205 -4533 1146 1868 -4334 -5261 -1922 -2464 286 -3276 -644 -5247 -4038 603 3189 964 6950 -4776 5203 2274 7166 949 -2680 -5874 10786 -1875 -2728 -3829 -2587 -2323 -220 -1249 -517 -2463 -860 777 -3131 -2286 -3278 565 9804 -498 -4289 -2823 -5752 -1206 531 -2460 -4058 -4058 504 -2549 -970 7730 -5161 -1148 1429 1928 3689 7604 10742 1996 -1554 -1617 -5111 1254 15556 -5196 -2717 -383 7644 -2234 6077 -4479 -476 -4566 2749 18953 -2202 -3342 -3404 -3304 15456 463 4137 -4710 -1975 12942 7682 2684 -419 -3568 -6802 -3999 -2144 99 2577 119 -1981 -3174 -5143 -3096 5949 -5445 -3243 5392 -5483 -6496 1423 175 2567 -1044 313 3832 -4116 -2148 379 -1906 18155 -70 -8560 952 -2356 1213 -3441 4442 -3732 40 7853 -1992 -5713 -883 -4380 -4831 -2540 4464 -4026 9488 -2421 -6141 3356 -2971 -882 811 -2572 -8229 2945 -1914 397 -3258 23856 -1200 -2046 -3236 -9235 -4870 1076 -4437 -5074 -4848 5271 -3194 -4898 6887 -6669 353 14833 -993 907 -4443 -3344 -1072 -3805 -1998 -4893 -3965 17600 -1930 7225 -2098 3522 10131 -1712 861 2413 -3662 -3373 -4707 -1992 -440 58 -2471 -4926 7136 -4743 2895 -4121 -2192 1921 -1142 -3486 -1070 -1436 -876 -2019 -2858 80 -4312 -3335 1171 -3576 5573 20040 6740 -3265 -3487 -3021 -3782 -4764 -3272 -4538 -6783 -2165 -3075 -1816 5777 3810 -1470 -6331 10688 -5504 -3384 -1897 -1105 7391 -1872 4032 11776 989 -6432 -6768 -3212 15772 -1663 5568 -7120 4197 288 -2631 -2948 3902 2483 2176 3962 837 -4015 6675 -5256 -3570 244 3907 -3046 -1580 -2688 -4007 2545 -3071 -2246 -3324 1857 2101 -1275 19865 -1640 989 2634 2001 7318 -2789 12125 -1157 -6362 -1998 -3235 -3226 1753 -1186 -2798 9530 5639 -3234 -3598 2802 12589 -2629 -1060 -3343 357 812 -809 -1034 309 -3413 -4451 -3493 -197 -3267 -6266 -2452 -1073 -1498 -1841 6781 -3465 12381 -593 -2709 -4054 4263 -3474 -869 -5618 7304 -6918 1082 9426 4724 -1190 -1571 -5462 -1648 -393 5404 -2089 681 -4284 4036 -4540 -5292 -5467 -3894 4196 3653 -5748 -1421 -4097 -3446 1623 -2295 -2306 -3423 4314 3074 -4226 1142 -393 14833 -3547 -3691 -1356 -669 3372 -2216 2001 -5296 423 3008 -311 4538 4519 4191 -2797 -2033 8265 -2991 2380 -2760 230 -445 5208 -2512 -3263 3559 4770 3121 13646 -5039 -5217 -2978 1169 -3033 5239 11335 -1747 3637 -8097 -871 -1389 -1271 -347 -3124 -3686 1222 -85 1543 -4379 -4177 -4487 -4561 1268 -1088 1936 -8476 9896 -2636 -5213 -5992 6364 -966 -668 -4082 5481 -5089 -5513 8369 -3970 -693 4645 4446 7969 -237 -2157 4178 4200 656 -4000 6387 416 -5316 -1400 -5985 -1430 -1861 1833 -4086 -1545 -3425 3002 1348 -1728 -2012 -5161 262 -2475 -403 -5527 162 -3578 -3569 2285 -1459 1749 3283 -2700 -3243 -1779 -2280 -2035 -561 3137 8517 -239 1474 1157 442 -3551 -4492 -4314 -3544 7961 -7921 5951 -2560 3548 3338 -2336 5882 712 5116 -6407 516 -4097 -3588 -6008 -2681 1651 -4508 -3628 -5965 -3984 875 -5844 -762 -4699 1532 -4269 1039 694 -2717 -4651 15283 -1550 -5213 7870 874 6429 -5015 415 -2290 -5082 -26 -997 9200 -4952 -1878 -2677 -2281 294 1058 -2229 -113 5750 9034 11572 -4105 1445 -1812 -879 -983 -4318 -2140 -6643 1069 1110 -3511 7788 1191 -4331 -2579 1543 -2057 -5064 6057 -1727 -1848 2630 -1927 -4572 -481 -6506 -66 -5351 -4125 -1989 -5331 -1750 3568 -2670 -3694 5132 1117 2387 4521 3179 -1348 -3497 -4777 5528 -781 -5150 -5763 2092 8775 -4622 6805 -168 -455 -3544 11365 926 -860 -5691 -7876 -2665 4493 -3745 -3906 -1603 2424 -1603 3243 3870 2946 -2057 17978 -4708 -5587 -1586 -2124 1662 -4107 -1349 3102 -2865 2072 -2508 12 2941 -2590 -271 -4944 -3195 -2795 43 -1220 4910 -3693 993 6770 -621 4402 -2745 7319 -1968 657 12457 -4718 1520 -2918 -3822 6584 -2380 -448 -7241 -3571 -4810 -775 22 -1768 4455 -4489 4735 -5462 -3348 1995 -2424 3246 882 -1749 -6264 -621 -1400 2724 -4824 5884 128 2527 -3657 -3018 -3543 -6303 5016 4434 -1836 38 4455 1231 14076 2225 3944 -6253 1397 2295 -2566 996 -3854 -4455 -3607 5701 -1887 -1256 897 1094 2350 7870 630 -7475 -2248 -3654 1052 -425 7285 -3045 -6204 3521 13087 -6291 2866 -504 10409 -3782 -2416 -4223 -4742 2347 7831 -4091 -4215 2815 -6554 -3553 1358 1857 -2414 -1247 3612 -350 6140 4705 4162 -2337 5656 -2639 6780 -2330 2505 290 152 3185 -5903 -2051 -7520 -4054 -2560 10914 1551 1320 5427 4183 -302 6918 2322 3714 9 -2104 215 2977 -8812 -2402 -7280 566 -1561 -545 1898 4608 -1080 -122 -175 2587 2803 -235 -355 12941 -4171 -2067 148 -3988 -3285 641 -3140 141 971 -3651 -4255 1658 -4714 4905 -1437 -7392 -1708 961 -4938 337 -1829 -8816 -3166 3138 844 -4466 -5471 4389 4634 5740 3001 -2683 18965 -2216 -6165 -3888 1692 5500 3580 371 -70 -822 -1947 9550 -2685 -4930 -416 -2062 -4212 -79 -4980 8964 15433 1653 3460 1739 -3201 303 -2407 1963 -1085 -3788 -3355 -4323 9577 -1727 -823 5722 -493 -9299 4179 5693 155 -981 -1539 12529 -5653 3992 -3512 -492 5027 4154 -2384 7499 -2545 -3497 -3891 -1481 202 -387 1474 -7271 4076 -3613 -4770 19379 1542 -4407 -77 -8162 -3546 -957 -2451 3906 -4997 9630 -599 -1834 13634 -8691 -4216 -4041 -5830 482 -1578 -4285 11260 2609 -978 1876 -3766 -3321 -674 -5000 10483 -1695 7672 -304 2950 1794 1426 -414 2020 -1084 -262 331 -106 -442 10525 10379 -2231 7584 11249 -4993 -4608 3995 -7001 7457 6491 2065 -1828 3870 -1631 -4969 -2747 5405 -2920 9394 -1472 -907 -5323 5170 -7069 -1594 7925 -3462 5533 -2021 -4398 -5226 -1604 12886 -6995 -2882 -869 16 -1954 -7028 -6363 -2080 -7179 -3936 3794 -950 -2954 -1730 7477 3787 2071 8339 -1259 2343 -3118 324 1644 -686 -2686 -2776 -5990 -5249 3455 -4405 12310 -458 -5189 -946 7710 4289 -8915 -5909 6614 2237 9242 -5073 3083 628 6465 -4041 6824 -6320 1954 -3209 -3490 -1867 -3292 5219 -2747 7255 -6432 -3803 -4611 -361 925 -3113 -445 -2189 -3133 -6911 3605 -744 -1008 -5274 -2873 3149 -169 -690 273 -1558 -3041 -1394 2082 -1037 -5474 -5174 -1473 2701 -5413 -5676 -6227 7917 -1096 7930 -6186 -4457 523 2313 2040 13972 -3059 -355 -870 1063 -4343 -3394 -3707 -5431 961 948 -5402 -8570 -4124 6639 7027 -5115 -2553 -3973 -4917 -4275 -882 -4147 -341 -91 -5155 57 -2644 -3519 -6336 2468 -3574 -5864 -4224 4617 -3717 -6919 2828 -5476 -5000 -6072 -4951 2924 2075 84 -3185 4151 -300 -5291 -646 -882 -4220 -695 -4459 3926 -3195 6206 -4100 -2926 -4275 -3009 397 -3260 -8442 1566 -1869 -2340 -2777 9526 9609 -2616 -4111 -3961 3561 -4332 7991 9140 -1711 1746 8250 -4583 5020 -3415 -3774 -8094 2354 -4878 14350 -5083 2573 -3531 -3023 -2685 -2717 3947 -3383 -2897 -3121 534 6513 17711 -3045 6977 -105 160 -4109 2457 14664 -3632 990 -6815 -3580 -1691 -2324 -3944 -2814 174 -4335 -1371 1998 -2554 9784 746 -2413 -6518 -2399 9705 1969 3616 -3731 -2845 -5715 -4681 -3965 15526 -6585 -2703 -6316 -4734 -1408 -4510 -6111 -4015 3973 1843 3166 -3625 16893 -2097 15327 -4397 4075 133 256 -4358 -1777 -7752 -894 -4926 -656 10155 2323 2181 -2577 2341 3904 6723 -3574 -6301 -7208 -3377 -6155 2688 -2823 -8074 -3472 2615 16210 -3240 6627 4181 2411 -4643 523 -3441 1215 -1417 6769 -1571 -5012 -1778 1077 -3637 -2139 -216 3133 933 6343 9692 -63 4875 316 451 -4690 -1420 -217 -6068 -2723 -81 -4558 20505 -2858 -2915 -6471 -2256 1547 3420 -2754 2036 4141 4674 -9009 -1485 -367 5097 -3959 -5207 6482 399 -6842 -2029 -4141 1802 -3364 -4052 -298 19679 -3709 -3544 79 -4030 1011 2164 3510 16389 -5136 -3625 -4592 -3656 -2860 -1323 1519 -2799 1182 -3162 -670 7884 -2931 -8400 -3065 1856 912 -3578 -3668 -5865 5030 -1465 6178 -2033 -494 -2776 -2042 7673 6639 -3405 -404 -5019 19778 -1232 -2301 -3144 -3544 -6859 6272 -3025 1932 3954 -4428 5082 -1919 -762 -3161 -1909 -546 -3301 413 -1680 8741 -1861 -2439 -3510 -3986 3434 4438 1191 -4389 -1546 -2520 -4931 3274 -4971 8954 4679 -3215 -1847 -3646 -3386 2687 -350 -4875 2124 -3049 -3136 -6004 -3690 1146 -3067 1465 -23 -1499 -1434 -108 -2763 -2389 -1452 -1338 -1108 3756 -1882 -4121 22210 -1452 -456 -5702 4289 7877 5630 -5531 -4794 4420 9550 -4575 213 2500 -4346 -1081 -3730 -6207 2222 -5331 767 5249 -1697 -3102 -6036 -3952 -3806 5204 771 20191 -469 833 -2219 2040 -1613 1319 2155 -798 4119 -8246 119 2090 -486 3534 3786 1598 8778 -570 6504 4677 -2316 -5360 -5120 2081 -1713 -2382 -443 -4268 -3647 -440 2976 2179 10143 2455 -3955 3576 -3513 -2635 4570 10873 -3927 3696 -1174 -3696 -3503 -4590 6961 -598 1908 1360 2030 -630 -788 -930 -3458 -2406 -2300 12017 -3025 -1372 978 3201 8016 440 8375 -8143 -214 -1863 -3039 979 5694 -5547 -1978 -6818 -927 -4223 14493 21626 1884 -7138 -3865 5569 1799 -386 9015 883 -1102 -5863 -2844 -3639 -5487 2677 -3281 5167 -1417 995 -2323 -2438 -5865 -2451 -4900 -3087 637 -1853 -3404 -2666 -3808 3556 -3909 662 -493 -3062 -11025 3208 5436 -789 -2616 -4112 10008 -5455 -9083 -4272 -2807 -5579 -2531 240 -1811 -3143 -3662 -4114 -1923 -827 -2538 -706 2901 -6859 3485 -852 -3715 2548 6697 3105 12221 -2122 3444 1633 321 -1981 -116 1201 -1581 11434 -510 -6427 3571 -2157 2847 -2743 -2386 -2204 -7386 -1160 1440 1595 -2080 -2647 -2189 -3803 256 -3043 -2681 -4684 1535 -4294 4103 -4306 -6224 -4372 -6251 -5932 -1207 -3364 -6260 -1980 2784 -145 3171 -3389 -3048 -5551 -3411 -3267 521 -321 93 1527 5705 -3638 -7450 -2443 1055 -730 -2494 -5982 -1845 -2981 361 -2324 -63 -4234 3088 7639 -5473 -3908 -6513 -4935 1852 3845 7889 -2351 -1799 741 -5137 13267 194 -1134 -1786 -1249 -5237 5544 -2369 -2967 -1150 6638 663 7462 1930 -4470 3758 3175 -1747 7476 5742 -860 1623 -3833 981 -2694 -2826 13500 -3679 -2800 -1157 -3617 3263 8552 1840 3422 371 -1075 -5243 -6054 9138 4654 -4059 3988 7896 -5002 -654 -753 -943 10771 -2954 -3958 639 266 -2103 -4427 -1441 -2121 4936 -127 -367 -2221 -2819 1123 3593 -3324 -6261 -1793 -2653 12841 4604 2105 -5170 2906 -3667 5977 5117 -1829 3090 -2177 7849 1598 -6069 -8272 3870 3357 -3353 -2183 187 -2529 -3919 -1252 -2886 19 -1445 -4270 -5476 17830 -4586 -224 4378 4345 -1953 -5940 -6735 1763 -996 6515 -3391 -2957 2543 -336 1308 -2656 476 2388 -4307 5258 2767 4138 3441 -3290 2881 -1593 -1542 -546 936 1665 904 -24 21491 -1579 -1237 2786 -1844 -401 920 -514 -2098 1306 2479 -4683 2848 1487 4528 -6060 2405 6969 11012 12550 -5669 -7073 -151 -4530 -8072 2361 -8274 6972 13930 2510 1194 -4339 -1952 7076 17851 -1347 -4425 78 -873 2201 -8072 -2829 3453 3777 6784 -1775 2240 -2488 -6544 -316 2570 -1207 -1340 -441 1226 6806 -2944 -405 -2410 -8977 2324 -5114 5474 460 -2756 -453 -4325 7947 -5357 -7288 3615 -1059 -1512 -2619 -1616 -4340 -5319 -1501 8442 4976 279 2154 288 -6293 -1436 -2596 -7600 8652 -2080 6905 -987 -1499 3862 -718 5573 1583 1846 2523 -1724 8919 -2529 -5236 3812 -5692 -3708 1415 5969 -672 -2774 -3126 -1915 -3061 5568 -1223 -5096 1552 -1301 -348 -3772 -301 -4023 -6132 3793 -6920 -576 -3561 2520 5321 -4922 2781 19095 -794 -593 -2497 -1306 -2337 9483 -968 -8059 -7875 10114 7463 -4076 4941 -3587 -4152 -3666 -2473 -140 -3292 -352 -1991 -4435 -5577 -9211 -2319 -1416 -1385 -2974 4902 -2283 -1029 2479 4298 3971 3912 -6031 -2575 -1078 8542 -4849 160 -3072 -4827 4755 1440 10271 78 2459 1055 -5617 -985 8585 -2103 2935 -3416 1182 -2050 -1371 7394 6893 -5920 8739 -6336 -6945 -247 3033 -1530 1377 8727 493 2328 6040 601 -4507 -6642 8960 511 -7924 330 344 -4264 7240 2471 -5295 -393 -403 10138 -3499 -370 -739 -237 71 -3722 4731 2667 -1347 -2295 -4136 15305 -4309 -2780 -5778 -3585 -4586 -1123 -555 16390 -3998 -6408 -4679 -5211 8702 1278 5418 6350 -4450 -2788 -2499 -3734 -5148 382 -2070 -880 -780 3346 -3178 -3385 -2178 -257 -6699 529 6925 868 442 -4245 -3780 -1173 -5277 2289 1018 -4785 -1776 914 -4815 -2120 -2953 3319 8825 -725 -6126 -4803 -1048 -1731 8892 1866 -634 -3327 -3148 -4296 -1258 1546 552 9791 4302 -5511 6255 -458 -4369 609 2662 -5801 468 -5166 10269 3530 -3016 -228 -3103 -5762 -3007 -3525 1482 2052 -8385 -3605 561 -4327 3892 593 -1242 -2934 -2293 5849 -2574 3236 -5358 -4849 -4850 7515 -1481 -2790 -2788 -8711 -1982 -381 -6221 -1278 1852 -2006 -5453 -2036 5423 -1825 6556 309 328 2619 -510 -6799 -900 -2675 7557 -6675 -3048 -1204 -3041 1847 4360 4736 -4265 -5847 -5367 -8727 3794 2149 4932 -1737 1294 -2595 -2496 13579 -4726 -6140 -7721 -5784 209 11907 5896 7475 740 -478 2278 6249 -803 1358 -2813 -437 8105 10368 -565 -1687 -5150 999 -746 -2981 2505 5301 -887 -569 2681 -3749 3074 1130 -1419 -1753 7557 -4807 -1534 -1284 -4041 -8257 -4196 -2380 5273 2572 -3289 -842 4478 1177 -499 -4822 4350 2844 4125 -7494 -3834 -1340 -6402 -3790 -1252 3787 6145 -4469 -207 -2832 -1668 -4800 433 -2432 -5283 -326 716 -2762 -3474 4368 11689 -3931 -7539 4201 1689 7227 7322 -2216 -1972 -315 1590 8976 -2400 -3068 -2870 -4670 242 -1326 -5118 4294 1070 5850 12426 -5970 494 -1131 -3445 -4950 1650 580 -1047 -5081 -3305 11246 -6008 3264 -1882 17630 -2044 -851 -1025 2041 -1192 -156 -3532 -2113 -489 -1166 -665 -3466 2510 638 -2369 20 1118 -1112 -1746 -3116 -2070 -1611 -4732 -1102 -3297 -3995 -1220 5211 -3291 -1660 2050 -2454 -1443 -5329 5218 734 1901 -3361 5591 3117 -4318 697 -1456 -5237 -3780 4096 7523 -6621 -2266 -3430 -4300 -1835 -1604 -1855 1540 -6341 -3971 -196 -3531 17304 -3969 3240 14825 -4478 -3898 -4773 -549 -411 4581 9092 -2159 4409 12335 -3048 7155 1995 -11892 -634 -3647 5067 5071 1932 -4425 -610 -3864 -5103 8779 -3711 -4581 -4294 -3007 15072 -1680 -36 -1338 7743 -992 -4029 91 1669 -1028 -5816 2669 457 1160 -2717 2403 -2529 -2656 -1511 -2667 -2158 -3584 -33 9813 11509 -4036 8620 -3071 1212 4422 6244 2301 -805 -1854 6763 2764 2083 14174 -1529 -1112 -485 -1260 -4605 1186 1573 68 -3492 8342 -4815 3112 -3170 -2811 2674 827 2013 4156 1833 -774 -5247 3000 -3511 3959 -5845 -1440 5877 -3817 -3028 12787 -408 -2202 -125 -7011 7938 -4612 -7134 -594 270 6672 4960 521 3670 -891 -3924 -1130 -5273 -3423 -6518 -2195 5159 -3435 -3418 -379 -520 -4751 -899 1550 -363 -5235 -643 452 19503 -3656 3740 -3866 -1702 2364 -2937 -1167 3346 305 4260 -1151 2483 5199 -1573 -2284 -3100 -1952 -1873 93 21149 647 -3963 195 -3272 -456 -8413 536 -5081 5596 1129 -1173 7343 1614 -672 7886 7602 -4752 -720 6780 -7820 -4475 -3501 16296 -3254 -596 -632 16979 -6821 864 -3108 -1571 -3018 -4374 3375 -1127 654 -4738 2323 2512 687 -5072 -2629 -3749 4351 -2892 10265 -42 -1794 -1173 -3478 -2797 4030 -6022 4409 -654 -5622 -5132 3310 -1549 365 2332 5956 -56 -378 -1934 2914 4466 3914 -702 -4714 4516 1239 -770 -2530 -2331 -2752 1030 -1121 190 -3621 -6227 -2550 -3130 -1034 589 -2627 -3534 -1782 -5893 5114 -20 -423 1694 -1494 9251 -2970 -1940 -2943 -1526 -5077 9695 1123 -262 245 -1669 -1733 -1169 10260 -3534 -838 -635 -5476 -2453 1108 -3675 -111 -6621 -397 15862 1215 -69 3829 -2788 -8227 -3587 544 9556 -2037 -1582 2804 8229 -1328 5180 -1006 -4113 13186 -3625 -3945 -4589 -2202 -574 -496 -2929 -1257 -2638 690 -5548 -2646 -2331 -4622 -2129 -1109 -2159 280 -4931 38 -4082 -4015 -3625 -4397 2206 -2534 -1318 361 297 -4932 -4150 -1363 -103 4327 -4377 -288 8880 -2498 9443 -5050 -4596 677 844 -2218 -1512 472 -4204 298 -1904 -2105 3795 3484 -4938 -3165 -4539 -114 2829 -151 -364 -5884 -4158 364 931 -3173 -5621 -2371 740 5384 3467 5935 -2579 -994 -520 -5959 -501 -2187 -3809 -7899 -2144 -3170 -162 13407 -3424 -5697 -1602 -679 -1095 -1864 3270 5483 -4362 -1592 417 -528 16055 2444 1181 -3844 519 -2575 9165 -2193 -3212 -1601 -2054 -2183 -1246 1768 -3869 8727 3763 7516 -3023 -2734 -2467 -457 -1221 -355 -4891 5086 -2153 -946 -3413 -2912 -2716 7071 -571 -761 -2752 5121 -220 -4967 -1154 -3998 -1876 13688 2398 4658 -12 -4122 -1158 7970 4240 431 -6473 2166 -2053 -2865 1863 8416 -820 237 -168 -2406 -1852 2466 -3739 -3950 -346 -3980 -2828 51 -2749 -206 -2160 -2866 -1895 2095 -207 4632 -4240 108 -1428 779 -2661 2661 2324 -591 4466 2806 -2538 -3773 -486 2900 -1835 -3526 -941 681 -305 -1074 -2921 -4315 2259 -887 -1826 10509 -2597 -3961 -3460 1803 -1743 2793 -1075 -2854 -2053 -938 5651 -3246 -2049 -4091 -449 -5284 11691 -552 -3912 2167 1876 1187 13355 727 7478 -641 2393 -3443 -4777 3397 -2727 -4194 -3605 -3230 -3782 -1517 3396 -1069 -1561 -2248 2254 -1464 6340 -2768 -1877 8035 -2868 -1294 -1181 -1599 754 -3610 -774 -630 -1227 -2585 -1752 -989 -1551 -2359 -785 8603 3531 -3170 168 -6935 -732 -407 -3049 -5211 5809 2752 16795 -2278 -4656 -3639 2846 5288 -4701 -4451 -4389 -1262 -2596 2079 -296 2891 -2347 -614 -4877 -2584 645 3921 -694 -3043 -3725 364 562 -3577 -3427 -5046 1526 -2796 -1010 -765 5194 -1742 -2013 -3225 6475 -193 79 -4549 -4674 6710 -1577 18081 -4102 -3076 -2125 -2172 1306 -1635 -2836 -510 -2284 430 -2905 8725 -2328 -1094 2662 3350 -2764 -3897 -5407 -2369 605 -4746 -278 -2033 16142 -692 -2608 -3068 -1763 5604 -1373 11834 -3972 -1347 -3828 -225 -6046 -4882 4622 -2251 -1492 -4050 -931 -2298 2958 -1277 -152 -1731 -1368 2993 10290 -3538 -1980 6306 -3874 -2610 -2808 9508 -4838 -3399 -2728 -3331 7681 3016 378 -2483 -2660 -1771 -1187 -977 -1299 -1647 -1479 11255 -2538 11342 -4203 -5071 910 87 1237 2118 -5464 10646 -2029 -2792 2495 1090 -1933 9416 3479 -526 1382 -2175 -1210 -375 -4243 1482 147 -2475 -4298 6515 1468 -4090 -3204 -5357 -3699 -345 5911 -937 -6062 -2949 -3160 836 -1289 -3138 -3558 776 -3078 -1184 1534 -2357 -3555 5632 -3328 -96 -971 -2093 -2010 -1202 -3473 2438 -1088 -1670 13975 6148 -2890 -1968 -3730 -2381 6338 -239 -3688 -3765 -166 19553 8905 -1508 -4538 1339 -3513 -4438 -4336 -510 -372 -5303 22063 1367 -4786 -3570 -2067 2258 -4364 -208 -2503 2117 -2351 -4605 -199 -2483 -1124 -3031 2127 -223 -3305 -2201 -1708 -1085 8662 1022 -2083 -696 1202 14364 -5101 9389 6555 688 -5073 -2417 -1087 -6283 -542 266 11948 -959 -3823 -403 1992 -1321 -2815 -3646 -4907 1875 -1766 4670 -1412 -1174 -2821 -4379 -2073 -1801 -1200 -3920 -1662 4661 -2983 -4069 -1959 2712 -1527 -4458 -2740 3131 -237 6059 -2022 -1292 -790 -2754 -1919 -2338 388 -1666 -2994 -2832 7915 -3603 7644 949 6975 2822 -3759 3249 -2288 -3041 -1267 -2280 532 -2335 -138 -2216 -1945 -769 -4148 5099 -918 13081 -880 1307 -1256 9318 48 -2088 -177 -1246 934 379 -18 -2678 -47 2361 -4693 -2705 -1220 -5775 3838 -2096 308 -2504 4454 9858 -4106 -1168 5326 -332 -1850 -676 -2150 -4121 7280 -517 13589 -8991 19793 -1861 2708 -973 -262 -1311 2832 1702 659 675 -2519 -1981 -3437 -3307 2543 1791 3540 3579 660 -1446 3729 -3799 -5336 6712 -2092 -1035 -815 -1425 -7 -3379 -9557 15212 683 -4226 7036 3506 -1475 -6315 -4211 -5112 6415 7645 -1267 2245 -416 -5409 -1922 17849 9353 -1898 948 -2130 -2712 -3689 1962 9061 -89 5082 214 -1661 -5260 -2928 -617 6517 -4828 -2937 -2099 694 -4038 1485 -2734 -4372 -2325 -1782 558 2730 -2808 -968 -1838 659 -2643 -1086 -1975 -2868 2379 9032 -5527 3999 -3540 4843 2032 -2608 -4672 -3002 -3116 -2754 -378 21 -4269 -2827 -6254 592 -4400 -1739 907 -2276 386 6139 -2481 -783 -5405 -525 -1066 542 -3117 -6195 -2769 -5259 2140 -2484 -2536 7113 3481 -187 4206 6138 6033 1227 4165 -4998 -4884 -1766 -2053 -1767 -3462 -314 3653 -668 -1284 -282 -1949 7274 -4034 390 5333 3264 14121 5281 -1209 -315 3851 -826 6342 -4776 -871 3576 5913 -905 508 -5628 876 4207 1656 1381 6760 -5183 -5990 -3872 1524 -2417 -4178 3959 -696 444 5363 -5698 -1421 -3451 11188 4498 -2828 -5311 -2210 -4442 -2728 -1650 -2689 1321 -442 -191 569 2913 2707 -2343 -3478 -750 -2494 373 1175 -2784 -5957 827 3735 3569 2509 1491 -1205 -3147 2313 1882 9486 -9031 -3076 -4436 -5353 -2684 -1917 8465 -2640 -406 3487 6810 1310 -4394 -4222 -730 465 1521 -4187 3327 1305 -3859 1748 -6901 -5168 3270 -514 1438 -1238 -6526 2341 -4089 13430 -1345 -592 -506 456 3480 1562 17551 2643 -4594 -3846 -1611 -1905 -3465 3986 -1838 -3257 -368 -1350 -3883 291 -909 3932 1549 -5322 -2269 179 4825 -2243 2322 -1782 -4300 -2530 3024 2535 -2479 -4996 -834 6449 -680 2973 1152 -2026 -227 -4827 -4611 -8565 -5385 -4692 4912 -847 10643 1005 -4371 10601 -3132 -971 1181 -2696 11313 -4328 -3068 1096 -4469 -3082 19735 226 -3426 4450 1673 -575 -3233 -2434 -4043 312 -2850 -2485 7561 -2453 -3290 -1682 411 -3409 -7039 98 -2104 2334 -3236 1859 -3295 -3981 1649 -5108 7510 -2075 751 1292 -3333 -1467 2176 -1410 -104 -3733 -4985 -267 -2957 -3407 3564 -3979 -2790 2406 4458 -4339 -3148 -5035 -1439 -1658 -4995 -4007 -4657 409 11576 937 -3312 -5296 -6566 351 -966 2460 -2150 -1919 -1929 19003 -216 -2923 5747 -922 2678 -1901 -896 -1856 4916 -883 325 514 -218 1484 -848 7522 -5155 -5708 1853 9885 -3489 4476 -2531 -4581 731 -3034 8784 -2140 11095 3223 -1028 1451 6887 -6221 -3664 1114 -2950 750 -1249 12392 11917 1289 1997 794 -4209 -5074 -4017 -2088 409 -3057 -1516 -3608 -7286 -157 -896 -3347 -5743 818 -286 -7157 -841 -2158 1774 723 -3397 -2019 -5101 -1161 7105 -4717 -7784 -3542 1104 -3533 165 -6525 -2189 69 -1359 8781 -4210 248 -768 2237 3377 -618 1442 -3693 1635 -3485 -914 1700 -3858 622 3355 -808 -3989 -5196 3070 -5297 17266 -2475 -4645 -1272 3637 -4312 2730 4332 -1139 291 263 -57 -5200 -3673 2408 2970 -7586 2899 -749 330 -574 81 -3780 4658 4093 -3431 303 989 1005 -1650 -2331 -312 -2209 -1343 -2613 -774 334 19157 -230 3139 -4101 -66 -479 -3329 1 6060 1802 -3551 -5325 -4614 -4275 2257 -2895 8661 2264 -384 -5953 -1903 -1763 -854 3518 -930 -4891 -1699 -4061 6519 -3496 -5898 11181 1067 2149 12036 -2698 -4658 -2872 -2822 -4338 8924 14640 -6665 567 -6180 -4487 -767 9418 1874 661 278 -3632 -3820 -3372 39 13197 -1213 -2222 -278 31 -1005 -2124 -2406 -4654 -2199 -3333 -3840 -1741 -1978 -446 -5512 -3585 -3554 -634 -2757 8808 9549 634 -637 1917 -2745 -1503 367 -3852 773 5307 809 -90 453 3639 6019 -3596 -3997 -2031 756 2238 -140 -4454 -3780 -2449 1493 2760 -1445 -2110 -2227 1975 1319 8442 1831 558 -355 1612 -402 -3677 -3764 -6317 -4205 -3578 -8417 -2003 -3087 5783 -1808 -1227 -2185 13858 4904 -2401 -412 -2625 -4751 -2433 -4561 -1547 -413 -3126 7217 -1783 603 2373 -2988 1359 -3769 1245 7059 -982 1760 4351 2844 -3122 2701 -953 3720 -6562 3840 14230 3249 4711 1662 -2140 -1308 2468 262 869 6365 -5115 -2357 -2976 2959 -2344 -1999 -408 -2817 2774 11796 -1889 -5663 -3841 14112 4078 -1940 332 -5143 2450 -2039 -1697 -2631 -1405 -3824 -84 -4267 908 -1033 -1631 -2623 -6639 -3708 -4165 -3060 -3601 -3487 -5420 2799 -1862 5628 4386 -1562 -1262 1645 -2096 2703 -6340 -2171 -1862 -107 -4216 -206 -2229 -4666 -340 -2468 4148 1379 -1045 -2909 3046 1086 6488 -2006 -2777 -1907 -3554 -2408 6423 -4055 -1814 -8150 389 -4935 -269 -3965 -2719 6554 708 -524 -1909 180 2977 -3599 21577 -282 -4294 -3160 -1344 -2287 901 227 -4006 -2334 -3799 -1880 -992 481 143 6001 -3579 -1684 -1550 -3232 -1957 -1209 -12 -2306 -1273 -5946 306 -1877 1128 -3520 -3620 7089 -141 1708 -957 -2182 359 -3472 -4810 -5464 -1388 -5469 9772 -247 18975 504 -2401 3351 -3104 1670 -4816 -1242 14437 -4833 -1418 -2803 -758 -3410 8174 3385 -2913 6876 -639 -1476 -3440 -1300 -1244 4108 -5487 -4092 8604 8832 -583 1369 11020 -3273 -1741 5116 -3809 13215 -3817 2617 -2225 935 -1743 -3407 5016 525 -568 3623 -4104 1045 3206 -3644 2709 -1155 -782 -4169 -3183 1663 2535 -3985 -3419 -2446 5258 -5198 911 -4560 -592 -724 -806 1326 -3188 -2476 15584 -806 -3311 -2488 -3168 -3726 -1346 10577 1278 -2087 -1717 18487 -3538 -1733 -3568 2388 -2174 -3986 3558 -4329 2994 -1240 -814 1101 -5024 697 -430 -4983 -6142 -4236 1096 8407 -480 3468 -2284 -3869 59 -912 6712 -4172 9509 4785 212 3812 -2248 -3417 -3218 -3157 -3951 -3795 -236 7793 8017 -2632 -1188 -1019 -2134 -4694 -2431 -334 -2173 -4888 -3248 620 310 -4192 -2940 -1034 -4017 -902 439 -132 -4561 -2314 266 407 -1208 -5723 878 -2217 2797 -1874 -6206 -3454 5315 -5379 6805 -3836 -169 -1586 -3373 6811 -2770 -2897 -6136 -2120 -1478 765 7577 -2103 -1148 -2027 2782 591 -4163 1288 2796 -860 298 -4301 3237 5793 13780 -4254 -2446 -2542 -2471 -4656 6876 5410 6448 -1272 -2055 737 -2198 2993 3605 -6500 -3103 2250 6233 -1369 6355 -3182 -3031 1329 4973 -1011 -4446 -38 -4604 -6187 -1367 -2403 -2299 6728 -808 -4033 436 19871 -3032 4087 -2640 -4949 -1010 -1070 -3392 972 -2899 -1278 -3769 517 1711 -1843 -256 2970 1530 -33 -4990 -2362 -4507 -2780 9783 1292 2248 889 -4870 1538 -3699 1455 12544 987 68 -323 10016 -3813 -532 -1732 -5190 -265 15492 -6652 -1328 239 -712 -796 8080 -2797 -2686 -5367 8706 -1830 -3290 -1644 8958 1230 8821 -741 -3053 -95 -1702 1884 -2630 -516 -7513 -1898 -1444 -2543 -2006 -2156 -4034 -3037 -290 -686 5496 -899 -1383 259 -1665 1992 -2333 -3684 -3917 3856 4305 -32 -2006 2696 4541 -1923 -2506 -2032 -630 -2284 8107 -4287 -142 -1718 -302 5089 -717 -4366 -3941 -696 -1108 310 1664 2409 -2282 225 -400 -3717 -5046 -1788 -1743 -2594 -3203 9213 1403 -1907 -2080 2821 4163 974 -1254 5767 1316 2281 -3814 2517 -558 -2862 4522 -2311 -4561 641 -1516 1430 3302 -437 -5279 -3577 -1840 6274 -2082 3408 1650 -4684 -1063 -2249 -4572 1539 1295 -4384 -2296 4989 -490 -1675 343 -483 -6857 2030 -4474 4993 -3884 -829 -3793 -401 -3478 -1483 -3433 388 5780 3199 -1367 -7451 -4971 7257 5812 -2179 -177 198 -3373 -3383 -233 -1337 3187 -2520 -5540 7032 -2137 -1983 -3755 -3105 -1922 -587 358 364 -2217 2509 -1154 86 -2834 3701 -1481 10234 3924 635 -3647 10843 -2481 1799 -4897 -2537 3651 659 20631 -1944 -208 -2595 5530 -1670 -5518 -2341 -209 -686 -1012 -6025 9745 3685 1170 -420 -2531 -3251 556 1941 -1183 -1574 1436 -2128 -3402 16166 -323 5294 -2417 -1370 -3292 -2972 4765 -4451 -4989 1531 3199 -1415 -4858 6114 -4755 -2156 -629 -4086 -2963 1190 2833 -2484 -3870 -2657 -112 -5662 2400 -3061 5741 -4252 -1635 -1652 8128 -727 -1670 -2236 -3749 -1421 -1237 -1934 -2555 -2474 1963 -1450 -6827 8928 -2411 -3725 9629 1886 8456 1134 -4957 2183 -152 -3886 452 -3840 10013 0 -1352 1158 269 -2835 10346 4999 -3030 -2348 -441 -1204 -3027 -940 -236 5830 -4251 -973 4268 7713 -2649 -1567 -4247 -4130 1495 3969 -4460 3500 -2686 -2744 5349 -4955 -2689 -4160 -70 -1975 1445 -1351 -2460 -3067 770 -3566 2543 -1432 -2890 217 -4604 -4273 453 1955 -1136 11618 1654 -301 -3275 -1118 -3096 4888 3615 -4842 -3679 8812 21784 -703 -381 -4774 2152 -5799 -2374 -4034 -3117 -1694 617 23081 -2424 135 -5645 -4009 -1960 -3074 -1638 -4671 -492 -2651 -1192 354 -4422 -3718 -2758 -2421 -2969 -3023 4887 7900 -1075 5582 -1443 -4535 -2399 -1487 16837 -414 17637 6907 -2596 -1785 2967 -864 -289 -1270 3913 8534 -1813 3389 -3510 -726 -657 -2543 -4105 748 -1930 -1021 -1211 -2144 -2885 -3333 -3442 -602 -1502 -4621 -4302 -1929 2612 86 -4387 -2659 3926 3440 -2242 -876 -3016 -2540 3800 -2660 1324 -2414 -3922 -1333 -1251 -1990 1078 120 -1583 11794 38 2892 1538 3176 -4500 -2664 -3967 -4694 -4062 -4267 395 -2751 -330 2755 1197 -5186 -5516 -4199 -953 3390 13054 -4859 -1562 -661 7535 -488 471 15 -586 4269 -3572 -1870 -2465 921 7540 -4425 -5129 993 1750 7511 -3961 -2357 -5399 1798 4113 -3816 -3639 -2620 -1766 4036 -1046 -4524 -2063 19065 -506 4308 -1440 5029 3464 -4079 -3809 6213 -990 -3885 3004 1804 9421 -5315 2588 5495 5317 15808 -6005 -659 -6678 1634 -1096 -6673 -1611 -4111 -3142 -6214 -36 -3776 2604 886 -4734 1278 8886 -3533 -618 -2719 -4553 -879 -6465 407 -6660 236 3301 -1472 -5115 -2629 829 -2733 17160 11304 -2144 -9289 1247 2009 -4273 551 -5061 8612 -634 -2807 -6973 -3391 -7111 -5311 -4276 -6331 -6966 -3793 -3390 -3010 -1108 3365 -2588 -1373 -1759 1142 783 -1905 -1118 2010 -474 -3815 -971 -7492 -3587 2741 26625 -5329 253 -3867 1057 -1272 -1954 -2521 -2296 -4505 5901 1692 -5939 -2089 4845 195 1317 -4755 -3198 -2855 -6116 -4624 -5433 -2523 -4938 -5182 -173 -3936 -2404 -1011 1335 6882 3115 474 -3061 -2729 1320 -1009 -2018 -2234 8591 2425 2737 -2627 4254 4877 -2098 -4428 -1339 -4342 -1743 -3819 -3384 -3861 -5475 -4815 4830 3794 4089 8400 -2815 10857 -361 1492 191 1668 -694 8097 -3603 -428 1734 -8023 -2155 -538 6852 -990 7351 2388 -4461 3603 -5704 -3621 5336 -6235 -794 -6 6164 -3836 -2774 -4167 -2093 -3251 1428 5669 6893 -1646 -634 -662 -5229 667 -4794 456 -3114 -2216 1237 3391 988 411 996 -3454 -719 -1513 2445 4440 -78 12414 1750 -3125 6162 2585 -653 4308 -4870 -1721 3591 11580 -2601 -143 -4637 -6169 -5437 -5869 -327 -2513 218 7038 16402 -2981 -1051 -3368 4338 -1975 5185 3723 -4263 1524 -4045 -8380 -4230 1011 -3279 -5400 4668 -3090 2895 5480 -3025 6396 5192 -1919 -1997 -1577 6677 -2995 -181 4667 -1955 -2417 -6339 -873 -1113 15498 -3057 -7121 3708 6095 -6428 -2413 2568 673 -1465 -5923 -5268 -3533 3893 -2803 -2167 -5116 -1616 1691 986 332 8364 -3897 -2122 2082 -1646 -601 1957 -2980 -2868 143 -3492 676 1368 -4201 4947 -1621 12239 981 -3667 7378 -1311 7695 3037 -2414 -4685 -5466 -3101 -6851 964 -216 11155 -5757 -1409 4255 -5116 -947 -76 5149 -780 1367 -1614 -212 -4024 -11202 -1616 -2230 -4149 -3592 -6542 -4231 -4539 8691 -3245 4665 10615 -7000 9593 -598 5927 13407 -322 228 -3021 -760 12389 1901 -3274 -3156 -3567 -1060 -4624 -3785 -3476 -1772 -859 -6901 199 -6125 -2436 1605 -2498 3927 -1956 -3032 -3247 -1844 7886 -1991 -4895 -7356 -8255 168 -1033 5861 2914 -4663 1886 5461 766 -4454 8014 5224 -2326 -2391 1559 -2092 2778 -4486 -2218 -4300 -2454 -2544 767 -338 -4319 -4463 -2030 8096 -311 2949 -1590 2839 -1626 -2270 -1672 2347 14552 7255 402 -231 3975 -1149 -1332 -4863 7561 -3999 -3379 -2686 5387 5110 -2348 1023 -1786 1401 -6469 4679 -2848 -3016 4499 8433 -6529 3834 -2127 972 7015 -1901 1232 -1147 2846 6983 -1671 317 -4060 -3524 5790 -653 25316 -2178 428 1463 -739 -791 -4586 3278 -4837 -1760 9635 2210 415 -3144 452 1398 2038 -4063 -5521 1116 -3793 232 -1534 11100 -4626 879 -9471 831 2710 281 2833 -1603 21156 -7435 -2370 11387 4946 -2125 6212 3372 3016 -4365 -2135 -1173 2049 -6698 -179 -1496 -1436 7731 6273 6635 -338 -642 -1846 2995 5656 -2102 11644 16090 2605 1918 -1374 14999 -2597 -1833 -2874 -1832 -1143 4040 668 -2358 -1565 -3743 -815 -2389 3334 -3569 -4719 -7539 -4026 -3914 -4684 -3785 2118 3328 6637 10867 -3502 4561 -21 5360 -2556 331 -1247 -2008 -3274 -5030 -3288 -5311 -3067 -69 -336 4259 -74 -2803 -4898 -2972 -3557 303 3833 -3474 8444 -4 301 1835 -5342 19484 -502 -3440 8599 -1203 -2608 -403 2722 -7372 4617 -2978 928 -2798 4217 -4410 -949 -927 -5788 -3654 3099 -6150 -2632 441 -1810 1986 -3994 -3380 -1699 -2266 -5797 -3085 -2458 -4391 -157 -2307 -3529 2505 14145 3568 1188 -4147 -4675 151 -1729 1222 -2973 -1597 1853 -2080 877 -1837 -1672 -5158 -4132 -2848 -3640 -1556 5826 3630 -3181 -1350 -5217 -3204 -2083 -2220 -5030 3266 10224 -3395 -3003 -1897 -4129 952 -4405 -5170 9 5121 -2391 931 15231 11255 3030 -2827 6562 -1975 7094 1516 -959 -1155 -2745 4223 7311 -720 -1926 -3117 4651 4297 -3714 -5973 4936 -2184 4036 14181 208 2299 -69 -1905 -3512 5097 4584 -2586 -1557 -1577 -712 -3043 -3262 3076 2463 3443 -297 -1340 -6847 -1109 508 355 2379 -4793 -2608 10735 -117 5091 -839 1890 1752 1949 -3982 -2338 644 -635 2112 -2508 -968 -151 -1634 -3897 -568 -3196 -3118 1441 -2377 -2349 -2677 -3605 -3813 5670 -5557 3987 -5061 -6699 -4036 16202 -4174 392 -717 7891 -303 -3319 -3381 -1288 584 -6245 1194 -3226 7462 -6328 -3550 -2413 -1929 2349 400 -5333 271 5750 -3609 4396 -6927 -352 10142 687 3137 9525 -3503 24 1333 17269 5101 -1130 2179 -2487 13974 -1604 7650 -2370 -2003 -2616 195 -1952 -2332 4957 -267 -1012 -4449 780 -633 4762 -2461 -154 -4418 2021 -4294 -2095 -5438 -2522 -3963 -4781 -2963 -3545 3109 4213 314 -187 -1756 3733 4950 8853 -4105 -4767 -2205 3784 -2345 -3566 159 -2534 -5395 5528 6281 3573 -2764 566 -214 -2971 5668 -4953 8798 -2872 2742 -5794 -2687 -4920 -292 -4115 -5674 -786 -4353 4543 -2839 651 -4650 -5540 -1395 -3945 -345 -1762 4760 -3674 -3671 -3134 -2071 -691 -6132 9766 -4166 201 3734 -4396 -4815 7733 7059 -20 -1882 -3101 9462 5508 3908 -1671 -4573 -2581 -467 -3230 -136 -2063 6634 -3753 -2920 3554 3978 -5537 -1006 -2564 -18 3517 -36 1245 -2106 1578 16246 -267 -2891 -3790 2394 -4475 -2569 -7599 -1005 -57 6033 -2865 -7643 -3776 4934 -2091 1620 -1200 -3601 571 -1224 -6387 -2434 -4922 -4224 -2667 -2810 7159 -2293 -175 195 -3089 -2723 -630 -3522 -1501 1534 -2305 293 -5148 -555 10259 2182 1750 -1145 -3669 1469 12255 -1415 195 -2291 2307 1448 -1038 19046 -3216 -4593 -1716 -448 468 2278 869 3272 -1811 929 -3746 -3051 -2952 1250 181 4789 -2530 -1179 -1342 -1210 -873 -3213 -2600 -3926 -2955 3971 -1467 -103 -5109 -5860 -4849 -6572 -4565 -4602 -436 -617 3756 -622 9459 238 -6331 15096 -5931 -3264 -2872 -4836 -853 2489 -3215 -2888 -2567 -2931 4468 2367 -4346 2824 1618 7427 1397 10688 8068 2902 -386 -4562 -2499 6051 464 -1377 -4043 -2402 -2753 4853 -2238 1050 2697 -998 2919 -159 -231 596 3555 5611 -932 1177 -2422 6346 2952 521 9832 -3927 -7385 -5457 -8307 717 8945 755 -3904 -4028 -5226 2611 -338 801 7188 -6492 135 -2038 -862 -3560 -3946 1972 -327 14536 9962 -4088 4694 1406 -2152 5926 -1724 -3449 128 3518 -1174 -2479 -4401 -4005 -4184 3315 -575 272 1154 -3419 1242 -2974 2417 1906 -2655 13282 -4670 -442 -4256 -2538 2054 -2602 -3565 6605 -5656 -2708 4206 15062 -4288 -1034 -1073 2844 -159 750 -2923 2880 -5856 1607 -2675 -1605 -2910 -5403 205 -2815 -2638 -2124 -4197 -3767 4002 2702 -4598 8089 -4515 -1593 -483 -1580 -2011 10623 -2717 -214 -3772 -2317 -2525 1982 -3277 2471 2462 1988 -1571 2512 544 -1704 -1165 -1962 -873 -4238 -3484 2610 3470 -2317 -4584 -5300 -3640 938 -3049 -3424 -4804 -2866 328 -4567 -7676 -564 -6793 -5024 3464 -126 -2029 -1215 91 4524 -3009 -839 -2614 2622 -80 -2679 -2456 -4217 -1716 -651 -53 -4278 -2871 -3778 -1931 -1157 10174 1549 -6230 2655 -3933 -3203 5311 -3419 2538 -1727 4550 680 -1815 -731 -1206 3785 -2945 4283 269 6463 13396 -4855 618 569 8073 -1779 -3007 -5408 -3169 -2912 -1204 -1249 -2481 -1622 -2541 -1661 3062 -2358 -3691 -687 -4718 -4157 -387 769 -2144 -2956 -1725 -2716 6931 -1426 1294 -4041 316 451 -2921 -5562 -3508 -875 6145 408 5318 -8130 -2616 -6541 11644 -3429 -2943 -6140 9800 -2510 -2167 -3854 6628 -1970 5186 1447 -4076 6902 -6139 -2214 -1886 799 559 2016 -3221 108 -2352 -4049 -4613 4182 2664 -3862 -6799 -1507 1268 -1668 26 2622 14235 12353 -2503 -1013 3099 9155 -987 17818 -4901 -4120 -3222 -1754 -3313 -614 7144 -91 -996 -963 1739 -1986 4467 -1549 -4562 -5805 -1493 -5607 5796 -1814 -1486 -1159 -1741 -2179 3743 -4671 -2080 1366 1384 -473 4066 -1992 1973 -2481 2037 -3009 521 -5303 -3979 -3360 1249 -3969 5962 4169 -1749 -1922 -546 -657 -3351 7603 -2246 2000 362 -5133 -4288 -399 -1256 -1497 1201 -2660 150 -4065 2984 -1477 1839 -1211 -4015 880 5357 8329 -2943 4197 -3538 1643 1606 -5564 9275 -54 10172 -1018 -4122 1879 2801 -3089 -2765 1716 -1711 4197 -4236 5823 6015 2248 -1411 -3046 -6148 6757 2613 1968 -5799 -802 -2874 -981 6786 42 -2907 -1822 -6342 -2204 2489 5644 -2517 -2204 -2651 14051 4506 2201 -3289 -4581 -466 -4586 3077 -3590 -3150 5084 -3090 -7755 5728 352 -360 7362 -2017 908 -2485 -5686 6651 -3692 -1482 667 0 -4068 8500 -1862 -1023 -202 -3551 -3532 9562 -627 1889 -3162 -3169 5644 -4342 -488 4822 2554 -6658 -1436 -4932 -1934 19362 1092 -1473 -1713 1371 -2168 -2125 13587 -1843 -97 -3059 4438 -736 3176 -1983 -237 -3591 -5415 -3106 -3368 -527 -4590 6607 4099 -6018 -2408 1581 -601 -1083 -5684 -2772 -1288 -1320 -3078 -3323 4630 -2800 -3257 -3834 -3530 -607 -199 -6144 -4818 5226 -3641 13715 -2307 -1830 19867 3772 -1659 -4991 4223 2116 -120 7127 -7235 -5012 -3604 6757 22597 -1910 -1185 -822 13636 -388 4415 7521 -2956 -1943 4823 -6614 12290 -1253 932 662 -4629 -2196 5003 -3665 -5480 -1739 -300 5550 282 1334 -3215 4733 12065 -4773 7432 11221 -408 1188 -2116 12106 -684 -2846 -4852 -503 -1770 15229 609 3042 1851 -3071 -1013 -2096 7547 1897 -2604 1023 -4468 -3551 -1103 -2398 5125 -942 16527 15427 -1183 3775 -2427 1979 1356 2015 -2437 3799 -2319 -1264 -2780 -5946 1064 4410 1265 3600 -2579 -934 -5848 -1775 -4083 6120 10784 -2669 11064 -3889 -2615 -2693 417 12619 -4149 -6225 437 -2090 -4101 -1925 5372 -1385 2331 225 -2732 1376 5952 -1451 1505 -3750 -4780 -3859 250 -2616 -6388 398 -3250 -762 -3488 -4577 -2794 1647 -3227 -1646 2426 -1781 2282 1473 -1836 -866 14139 -7466 -1724 -3738 -71 -2930 -1657 -2067 -176 461 -99 -2402 -1439 -2231 -3371 -5854 -3704 -5449 -5086 -3708 871 760 5074 -1057 -4710 -3000 -2471 1462 -3149 -601 4083 -8594 -4824 -465 -2224 -4424 -4749 -2348 -3055 -1843 -1574 878 8961 1324 5903 -523 -1088 -1341 3031 -1261 -2684 658 2398 -5367 -2707 1567 1105 -5296 -3343 3247 1010 10749 4496 -4491 -1837 3789 -1063 1673 -1821 -2736 3534 1355 2151 -509 -4472 -2480 -4577 -4293 -346 13159 491 2508 -416 5933 -1706 -766 1069 -2005 3735 -2438 -211 2270 -3076 9866 2370 -2426 -1847 -255 -1358 -4642 -2715 -1487 1763 -2649 -4569 1021 -1372 7161 -835 -4100 -4982 -735 148 -4920 -5093 -1822 -4923 10741 -1349 2217 -7627 -2489 -4418 5065 -75 -4249 -3151 6067 -999 -4177 -1782 3767 -102 3539 -3698 -2925 4312 -3114 -3574 -1804 -1987 -3392 -5026 -1733 -4527 3228 -503 2467 -6426 -1532 1630 2213 5192 9357 -199 3518 1713 8362 9868 -1386 -790 1522 7968 -5739 11628 -712 -910 -3734 -1540 -5414 -1930 4239 -3597 -2378 -4177 -2505 -4950 6376 1397 -5324 -1905 -5920 -4648 3416 1850 -588 -4832 -251 -3969 3164 1637 -3545 -3541 3263 -1464 2560 1234 3237 -80 7482 -4605 -854 -403 -6728 -4557 -4979 117 3945 5976 -1005 -1412 -1449 -29 -5849 2674 -4260 12619 -764 -2947 -3035 -647 -2392 3607 -554 -5050 284 -1022 712 -2672 -788 -796 2608 1526 4961 -5658 -4632 3503 -2631 -1824 237 -8031 7717 -5282 2132 -5056 -5 1454 1940 -4530 2386 5506 -4823 3227 -857 8155 -1109 122 447 -505 -1249 -4500 529 -534 -451 4961 -40 -3257 1666 87 -5869 -3125 -6163 -4091 2448 3022 -1603 -3195 2516 17883 1517 -2046 -6850 -1467 1756 69 -697 -5613 1161 4446 -1433 -3940 -5318 2452 -2709 742 -850 -405 -4174 -2897 1617 -2294 -5008 -4370 -938 -6909 10690 1625 -3242 1994 -1459 1274 2223 -5306 -468 -1940 -3670 4751 -4807 1911 9368 2320 -853 5991 -2544 -1031 12446 915 -2694 -4291 3014 3066 -4021 12154 -2643 -1681 -535 -15 -1738 8296 -2182 -616 -4632 -7936 -5161 -2088 -1604 -1554 2048 4341 -1781 -3061 495 2768 -87 -5243 -3609 -847 -4122 3660 -4423 4308 -1218 -3485 -3872 -4559 -1449 -1633 6125 -4697 4108 -444 9711 -723 -976 19378 -502 -2804 -2767 938 1112 1108 4237 -4644 -923 -4773 2687 7854 -1869 -1926 -7061 13214 4736 7470 4127 6405 -668 1285 -3352 8755 1128 -4787 -3918 -638 2447 -187 -3366 -2492 -246 -4086 2355 -1932 -1751 -2530 9790 22023 784 -682 10642 -4082 697 -2854 -2382 554 2224 -1316 -5069 710 -3127 -2007 2593 -627 -2196 -4267 -610 -1819 -1160 9642 8923 6562 -634 -2167 -7132 6310 651 1467 8334 -2331 -4563 -1975 -4702 -2251 -4548 1101 6961 -4319 -6505 -751 -2541 -1595 2234 3600 -155 -2981 -2999 -1919 2293 15037 3751 -166 1515 7746 -7181 1526 -2979 -4133 -1344 1181 3078 -1218 -1759 -3627 -2738 -2052 -369 1964 -3135 -7561 4091 -23 2514 -3288 -3722 -3116 3000 1739 -4584 6519 -7349 172 40 459 -3111 -2809 -437 -5083 -2118 -4525 -5614 -3107 1318 -5006 7300 642 -2729 -1106 -4998 -1597 -4890 -2082 -3423 267 -1262 -1213 -4348 7864 -1947 -1828 -1808 -3078 -422 -2216 -747 738 -298 2455 800 -4935 12109 7913 -5056 -2313 1160 19536 -604 -9355 -5049 3429 3200 -688 1153 253 3368 -4443 2155 880 1783 2336 -5635 -4509 -541 -682 -1079 4048 -5272 -729 -2052 2590 -2639 6404 -2118 7822 -3442 -1378 -3496 -6540 -8064 2452 -1889 -426 2418 -4587 -1072 322 10857 97 -1230 358 -3065 3142 -6575 5072 565 -7997 -151 7334 -2543 2350 -4839 3304 -3020 -2956 -6790 -1912 7125 -1415 9360 8522 -2407 631 587 -4705 844 -2763 -559 -4470 1256 4138 -4820 -4965 2177 5465 -2867 3607 2105 20811 3749 -2867 -3974 19838 -7282 1137 -8073 -511 -1833 -4593 -1277 -4685 1771 3188 1120 127 -3903 3134 -6439 -2813 -4376 2906 -3746 -1225 -2660 -795 -323 -2109 2918 -1504 -225 1959 -283 7204 -208 1820 8615 -525 4911 -64 6423 759 -3460 -781 -2529 -1340 773 -3657 2172 6936 -3616 4091 -3122 -1830 -5994 632 -5577 -558 2611 -5004 -5152 12219 1903 -3687 1730 2815 -2091 3359 -3233 -839 3121 3523 -100 22830 -4111 -2761 -2160 12450 -3197 -4910 1137 -1860 -9321 -2841 952 186 -1423 -2891 -2200 9736 5380 3239 -3031 -595 -3533 7505 -2848 -31 1472 330 -455 -1874 -1702 6956 -4428 -3012 6828 -2336 453 -1843 -1419 -854 -1258 -714 3399 2380 -2201 -2127 5367 -1989 -4164 -4844 885 18767 -1820 -2722 -1058 -1477 1203 4073 -3789 -2933 7382 8837 -6462 1324 9643 2727 -2715 -281 6287 -2395 251 11816 3317 -4403 -1968 556 2192 -5706 -4595 -2345 -1645 -19 -4058 3782 -5633 920 145 -1769 565 -1775 -2276 -4069 -3473 2990 -4408 -4143 -5899 4053 4075 -4636 -7111 8344 -3224 -2458 -6144 -897 -5124 2656 -2870 9246 -1901 -2940 -5017 -3712 12498 -153 -2432 -3821 -3260 548 290 -2593 2464 541 -6044 -4905 -7236 -2203 -2457 -1008 -3922 552 -7188 1005 9332 -2640 661 7002 731 6178 5253 -2606 2657 1965 -4562 6306 -3978 2273 -4466 -3135 -1044 -2243 1326 -262 2356 663 2620 -308 -5167 1218 -5624 8600 9230 4906 2275 -3103 -1361 -1402 -4232 -1070 -3693 -2501 -1527 14162 -563 3005 -4254 -670 -1304 1752 -1236 -1945 819 -747 -1787 -5498 -225 -2878 -6598 4637 3220 -2129 -431 -3600 2094 -4539 4958 -3743 -3567 3699 -7418 483 258 -5522 -3540 539 -1257 1459 3767 3484 -5688 692 -5325 5432 8359 -5241 -248 7986 983 4227 -2800 -1975 629 -1108 -2243 -3074 -4864 -2759 11398 24795 -758 -2191 9976 1168 -3538 -2887 -3317 1978 7065 -3751 -2931 -4162 -4355 -5223 3551 -1416 -5105 -3189 -543 -564 -2064 10369 14180 -1663 2242 -155 -2642 3822 -1316 707 7771 710 -8455 52 -3506 -818 1729 -1695 15614 -2572 -6918 2357 6591 692 7564 1083 -2315 -2565 -3130 -1334 465 10594 -1188 2753 -249 2209 -1970 -3131 236 -2460 -3529 -5616 -676 -2243 3900 1662 -2891 -3563 1317 -850 -1972 -3360 5992 -3322 1534 -3573 -3574 -9062 3063 -1604 -395 -346 -3234 2003 -1516 -2502 -1181 -3228 -3051 898 -1614 -3092 -3874 574 3741 -2083 13160 263 -3315 209 -1183 2291 -2667 2018 -2730 2210 -3966 -6339 -3226 11266 -4058 3895 -1425 -887 -321 -1252 -2545 957 -842 -2895 -2136 -3543 13252 12310 -3641 -1615 -2097 15189 55 -5617 4754 -3023 -1602 -5497 -1772 -5385 -4435 -6428 -1726 3773 6700 3081 3199 -5637 162 -6262 254 1386 -3426 -1683 4317 5412 -1543 -1164 1536 899 692 2290 1455 -3021 -6878 -1427 -61 -2295 4736 493 -5742 -2163 11787 -646 -1331 -7288 -1702 -3079 -3359 -2337 1945 -690 -804 5187 1448 2277 180 -1186 -37 -4392 -5742 -2367 -2677 -1444 9662 10406 -3717 -2541 -2822 -222 7970 -1683 467 -1288 8762 -845 -6958 -6530 2356 500 -3138 7217 1532 21357 -2557 1302 -910 16940 -3013 -334 -6100 -1556 -6559 -5396 -1139 -1575 7212 8383 402 610 -2545 5986 5535 2692 -5016 967 -1208 -2697 -736 -2658 -3894 -2173 -383 -4588 -1977 -1530 7720 9166 830 2036 3475 1938 2345 -2983 827 -1508 -3946 3712 -4728 -3884 -2355 -690 388 -1091 -1636 -3273 572 -1891 -4539 -1010 -4319 -888 10117 -3456 -5106 4830 -2329 -3547 -2171 4669 -1486 -1372 -541 248 66 2762 -3927 9266 4308 -2745 -2729 6214 4287 -4292 -3685 -3579 -6431 -2785 611 -2128 -824 -1550 -6065 17594 1779 2217 -3699 1300 -7845 1375 1777 -4243 11857 128 -6474 2558 -4972 4895 -3801 -2690 4493 -7950 -180 6677 6142 7594 -3097 -4955 -189 -1815 -2902 -2785 411 -4707 -3497 -2779 -3191 14227 -2932 -4475 1705 183 1757 -3862 -7163 -2543 5267 2822 -432 2426 1642 -1139 -1307 -4217 -3095 -777 1068 6152 -442 345 -7748 -3022 418 -890 -1262 -3913 -2795 -4214 35 -5069 -1757 -1372 4683 -2911 -2590 -7959 80 -2821 11204 -831 -5289 -4125 -4543 1876 146 4002 -4626 5594 -1903 5450 -1937 -5269 -6674 -1926 -2499 12747 -262 -3480 -5884 260 7947 -4883 -1364 -7017 -3962 -1142 -3404 -4500 -663 4514 -5166 -1406 -2768 -5761 -3746 14979 6248 1938 -3913 -1182 15664 -1144 8844 12244 -195 7123 486 -6655 5944 1001 -54 265 -5184 4340 554 405 -1669 -3351 -2314 3281 124 -434 -5026 -2939 -2641 5441 -1844 2334 5607 1550 -292 -5029 -3949 3065 -1315 2411 -7409 -1603 1776 12714 1851 950 -3204 -2901 -4099 -2003 -2912 1566 2575 -2508 -380 -3785 2182 -2774 -4129 5243 1765 1348 -345 -2736 1042 -609 5977 -3988 -5915 6670 -1853 1419 -5085 -4575 -2955 964 -801 1307 844 -3086 -965 -3051 -7271 4306 16350 -3787 -1945 1048 9391 6818 -4133 -3193 -9223 6765 -2044 -304 -2382 -5134 -1627 12899 702 -3542 19130 1988 -5225 -3869 107 1075 3544 -2385 -7192 4014 -640 3158 1271 2608 -2964 -5466 -4825 -2780 -2674 -491 158 -10 211 -5222 -1519 -563 878 591 -903 -2678 -1549 -563 2237 -2600 -3045 -4108 3645 -79 -4167 -4947 -1648 -1747 4639 -93 -2493 -4550 -3483 -3209 7562 -3476 1089 1297 -2577 5411 1820 -2152 -1299 -2191 9022 -4671 1493 1308 1390 6690 2643 -4863 343 1999 -804 -3043 -2200 2688 -1562 -5831 -3680 -4156 -4598 5839 495 -3557 -3325 4343 -1606 -2231 -5192 3949 -2805 -3261 3679 -3190 -2076 -1555 11488 -3530 -3119 67 -1759 611 -4364 -1591 -3524 -3792 -2461 587 1092 -605 1695 3153 6508 -4373 -6854 -3435 -561 -2536 -4571 -2429 -948 5918 -3355 -5239 10088 1667 -714 -6413 4911 17767 -1056 -3025 4450 6907 -4370 -2981 -3159 158 -2571 -2603 5438 -2310 10246 -2442 -6484 -108 61 -6238 1332 -1147 -4433 15 -3010 1117 -1900 2334 2099 -169 10693 2770 4103 33 56 180 8667 679 -2900 -3434 -2137 -1698 5250 -1642 -2790 499 -1075 -4874 -1343 310 422 -374 319 -6826 -2475 460 -2894 -5073 -1542 1159 4015 -3768 24 -2593 5408 18218 -2194 -880 -2732 -1127 -3942 1968 612 2446 -2980 4994 -2734 -1598 711 -601 -4846 1188 -603 7225 912 -3576 -1840 26942 -2877 -2126 1178 -4554 -4645 -2281 4846 -2387 3810 2932 -2094 -2204 -5026 8073 -1386 -3428 -5887 -2650 2056 4447 -1324 -3596 -2179 2370 -320 633 -3700 6855 9057 -2618 6603 -4094 -2349 -1643 -1210 -1667 11848 1596 -1968 -2158 10148 3554 -4986 -2506 -5216 -1402 -3461 2287 -4167 -4000 -1533 -1978 -3919 -925 -1084 -4247 -4146 -1307 6935 -3672 7652 2057 1926 957 -5719 -600 -960 -2118 -1614 10722 -2439 -3064 -3405 13992 7051 -620 -5595 -1975 6671 12 1825 833 -3312 -3525 -554 4920 -2873 3318 -3619 13251 -1530 8191 -915 -9338 6941 1518 -2669 1401 2843 15604 -488 -677 -2408 -4956 -1417 1023 220 -7792 -4709 -2685 -2203 -3284 -1544 -1717 -2204 1202 -2953 -2590 -959 6268 -2243 -1567 -4398 113 4 -2135 -3650 -4797 -849 4783 -4318 1796 8510 5554 1676 -1568 11071 -2241 4540 4570 2398 -518 -6857 3092 -3227 -4584 1405 2208 -5901 -1922 -2828 -700 -58 -3876 187 1766 5633 -2601 -543 -2998 -3069 12877 -717 -2881 -1189 -1903 1124 -697 3762 -2424 -577 -2988 -3405 -4741 -4642 8479 -3484 463 1437 -1878 -6542 -279 -6253 -996 1927 -2030 -5302 350 -3083 -4305 -1687 5935 -2164 -1883 -5056 -1266 3268 2547 1170 -715 -7588 -2563 14472 -3634 3693 -4778 -362 -558 4601 -342 8389 -992 -1255 11440 -1374 6102 -1387 -4663 -2782 -4074 -2341 9384 1840 191 -3734 