128 128 3 3 
-487 -642 183 -706 1690 2983 -1785 348 863 2322 1645 512 264 1303 1798 2315 2323 872 1262 -1398 -2372 -1283 -1236 -3901 -1431 -503 258 495 282 896 -1179 541 386 -618 -2051 -474 2036 1878 -580 2298 2664 -3138 -668 -3871 -17 1304 3209 -607 1591 5373 1986 1203 629 792 1292 -62 -2210 -151 -274 -1838 239 -1283 -1015 -494 1274 377 -1016 -584 -763 -815 312 -1420 804 -240 1106 -112 -977 -521 301 -723 -215 -1154 951 687 996 1193 -421 489 661 526 -1922 -1425 -412 -1656 -655 -1127 -1743 -34 -740 -6380 -2894 704 -4448 -823 1785 -2969 207 753 -1557 1827 2259 1146 3859 2725 -1468 230 1329 -51 1013 580 -2944 287 1546 -1659 -2045 803 300 558 -1299 -1660 1111 -970 -1773 -469 -483 -113 -554 613 72 -905 -167 -758 -260 628 -919 -7 -47 193 1294 628 -445 -869 -328 -2298 -2695 -949 -3080 -1959 1631 -2314 -750 278 -2282 18 -935 -140 2305 317 -194 178 920 -1271 987 -882 -343 2922 -2712 229 1004 -3155 -1182 992 -499 1540 -1514 -169 800 858 8 -153 45 -788 -920 699 595 -1571 491 767 184 -1069 -565 974 -1892 -997 -489 -1653 -957 688 -657 -758 -27 -1005 -65 -838 1884 207 -211 194 392 -810 -432 -231 -31 -1246 -1488 238 2290 -328 473 -553 -1139 -343 -678 -423 -1262 220 383 -434 -251 2778 45 665 1803 1635 1279 -2742 1717 5549 3114 723 1730 -1782 756 -391 778 -934 -336 -630 771 780 643 -1474 -2993 -108 -994 -3526 -2594 -730 -3109 -1889 -532 -1257 -2457 727 1370 -1232 -834 292 -1814 -961 -640 116 -373 46 -1347 302 -99 -978 -1108 158 1380 834 2114 1574 718 -726 466 -1191 -1355 -485 -378 883 -245 308 856 2077 706 -367 -1386 63 441 -445 317 -504 1579 -923 432 -647 246 -1174 915 -1304 -1652 -595 -760 423 626 -42 785 -158 -378 2211 731 -1190 1005 -276 -917 -701 -599 -644 921 -764 384 116 102 -158 1145 976 1368 222 432 -345 -476 210 -405 97 90 388 -2602 -1021 -3463 5481 972 -4213 159 1479 -7005 -4321 -3352 37 813 -704 3671 6016 576 4947 7461 2967 -4539 -9843 -3533 -7041 -14804 -4563 1614 3733 -609 635 484 112 995 150 864 -216 51 156 2754 525 -176 -277 -362 -160 -1209 -2222 -2078 -2172 -952 822 -1763 -448 2960 -1470 -629 1559 -908 -2604 -2576 -896 -2121 -3550 -1121 -1423 -3796 -510 -596 -1329 -432 -547 114 594 209 1022 -1390 76 -716 -1388 -1144 1258 -683 -881 -1496 -955 -1777 -343 -1867 -1838 -823 -2189 176 80 -427 761 -504 853 2553 270 275 286 1832 -1123 -819 924 -240 -129 85 -459 -1294 -1100 21 157 80 -419 -766 -338 1462 -2166 -741 -569 1472 709 -44 1600 -1026 -275 -333 -667 -44 -1124 -1666 50 1894 -149 -988 -735 405 1252 1102 -387 -717 -1058 759 -1545 -1363 -1649 635 1571 1853 -2945 -6257 1069 -158 -586 -64 -1716 921 2108 -4098 3582 -117 140 -1125 -1213 1496 2568 826 210 1135 -232 -895 503 -1321 -274 807 -985 -592 -1006 516 280 305 -242 -915 1717 2058 509 -327 1112 -1304 2382 1858 660 221 768 -372 -2661 -1774 -2129 -1887 -1961 -529 -2074 -139 -773 -149 -1556 -672 240 -637 1076 -487 292 27 2134 1226 724 0 -353 -1643 -698 4898 -2809 519 2061 -6902 -5407 316 -993 252 1819 -1520 2022 -2771 -3061 1110 -260 -367 498 -285 875 -16 19 -351 -1254 -1191 486 -1649 -596 912 -124 152 337 -1055 734 -2942 -851 -1375 -891 627 -1401 -593 -1611 -137 1906 3039 1939 1875 3576 791 -1067 2239 1187 1177 -195 -596 1455 -117 -406 -796 -1304 976 584 697 470 749 1877 -267 -330 1843 -442 -3583 -3301 -1851 -3178 -3156 -3441 1500 6550 2364 -548 530 -1612 1416 -1725 45 -612 466 -754 -909 -897 -22 -802 1227 1904 -767 -171 377 -854 -1117 843 -817 588 -674 -36 -38 -1238 -932 -3902 -3773 357 -3625 -3130 1323 -2019 -1995 696 -260 -714 -1189 -1011 143 326 -935 -413 -382 -1781 -289 -773 -2310 -1435 -934 -1023 -302 -607 -832 -299 519 787 471 110 1000 457 674 -375 57 -1436 -174 -2124 686 2401 423 -27 -420 -1234 1247 -782 1390 -431 391 -1199 948 20 -1034 -264 -1622 553 -226 685 629 3384 1461 -1318 7132 5839 -233 2011 1619 -375 -837 -1486 -663 213 -4537 -3856 345 -3518 -2357 1036 -360 533 1162 251 316 -1499 -391 491 926 128 299 -300 371 2392 -533 1244 917 -723 -1587 -974 1266 769 116 -1114 459 127 -475 -307 -2358 1178 -539 -3391 -1311 -2465 -2232 279 583 -169 -466 1093 752 -212 -36 1023 -1196 650 447 -169 355 321 -68 -310 -1656 707 -1465 -1379 -2611 587 -146 2004 520 -1532 900 1205 -1208 -212 -330 -437 -112 1016 671 -622 75 -638 1382 -1151 473 1232 2225 -1671 2082 -2485 -177 4595 -4752 -6275 3408 1320 -2570 -315 -347 156 842 291 796 -1228 226 -311 -1366 -1086 -1559 -853 -187 998 -82 -44 504 -2997 -3401 518 1491 2729 1172 -2086 754 -661 357 -932 -1135 -365 226 -67 -887 -433 -325 -980 1636 223 291 1411 9 -478 -635 594 1057 374 -12 -180 242 854 -94 1285 1393 -863 -55 -1389 -43 584 50 -390 -795 -83 -785 -969 -777 -568 484 -1013 -1095 1145 987 -395 -1901 -2191 921 1193 -5008 1455 4328 -742 2147 -1098 -3320 952 1048 -4371 1813 -1369 -2213 -308 292 -805 -374 860 -173 754 460 1813 603 1142 267 1934 2416 -253 406 252 533 4289 4867 -1077 3517 1792 -4739 -761 -4871 -9111 716 -82 74 25 -1339 949 -636 -1103 363 474 1184 621 836 722 432 -1874 -2026 -1586 -330 1072 1147 -589 6512 9075 514 -26 1491 -154 244 508 -558 750 -380 -671 -678 -1022 1424 5748 1593 6068 11897 4278 -3315 -2867 -2278 -903 -1283 -1496 -1841 -1857 -3361 -1947 -813 -1457 -398 -521 -103 -1111 1634 946 794 379 578 -1266 768 -2564 405 340 686 -813 -355 614 -1881 -575 463 -363 -2180 1508 357 -218 -538 190 607 814 254 525 443 -976 -1461 821 -149 1700 -854 1267 587 2060 -1298 629 -654 310 1590 2698 305 1738 3755 449 -1815 2484 63 181 180 -403 -2369 -204 -1748 61 505 -340 695 -307 58 1636 168 387 604 302 -772 1058 -270 701 -802 743 46 382 536 649 -145 895 720 -720 -1038 126 -1882 1604 -1453 -2854 -825 -117 -1364 -1339 -663 1258 -618 -445 710 -242 883 744 -88 533 12 36 504 506 288 -668 -766 -631 -255 1189 871 814 -1762 -784 1759 1730 -1407 844 181 -355 841 1214 -175 -1099 -804 2324 -56 1605 1189 -438 -1357 -945 -479 2789 487 1811 1048 1044 -1500 -1348 1546 -1803 -3674 -4580 1343 3362 1441 -2816 882 -3054 1056 2402 -1249 -4024 -697 1691 1421 700 679 1364 584 -790 -452 -1128 -69 191 -1228 -587 -766 885 1843 221 3581 3061 -1360 -2367 -1698 1085 305 2048 900 -1502 1144 -762 -1808 -2809 -2322 -4439 -5299 -2915 -3320 -2721 874 965 853 1835 5136 3793 -342 2220 871 1428 69 1091 1378 2785 796 68 1081 1558 -1883 -3708 -1537 -2736 -3873 -3155 -1553 -3011 -1297 1194 320 136 184 -1588 -53 -2236 -1320 1829 405 -557 1797 1069 905 1512 1271 451 -400 -44 698 247 152 1471 323 1 -1205 -857 757 -131 1014 3003 2398 -413 -323 570 -1004 -419 -793 637 659 2127 994 727 1750 2046 -215 1887 972 1652 4102 730 -27 1978 1879 1328 3702 -42 991 804 -348 -1731 1420 -1595 -387 -849 -419 -1529 -1381 -478 -1286 -1770 -2017 -1774 68 -1051 -1771 3309 2838 -335 1519 327 -2398 -4291 -4202 -3898 -9037 -6018 -2837 -6503 -8638 1341 1480 2761 155 2568 1283 -492 1464 2677 -263 -748 2781 -1949 -1633 1260 1601 -251 992 -844 1763 -16 -181 2778 1794 931 1312 3400 -561 1665 358 -1929 1808 635 76 982 -400 878 2662 2585 3488 7029 5775 303 2525 1357 669 -100 -91 162 -602 1779 -1206 -3504 1184 136 512 -437 54 881 -17 -1452 -846 610 -11 2330 173 1304 4102 2878 2788 4314 471 -1934 -495 1011 -1702 -2328 2084 -307 -3492 1993 1502 -145 56 245 -1122 1249 -274 375 2006 8 -1066 -256 -3808 -1045 -625 -1735 521 -949 1341 613 49 693 3715 2992 -67 289 1871 -1080 -3259 -3003 -2580 -3779 -4210 -3235 -2279 -1955 550 48 667 -677 981 1181 -367 3705 -1111 765 -21 -515 171 1431 1311 1519 906 806 511 1505 2279 1518 103 -2077 1049 976 3926 -331 821 -110 -514 1399 355 -320 2002 688 1152 607 1219 395 2335 857 -1758 -840 -168 1524 3782 1519 -363 5831 5603 4194 2115 4461 66 -663 -1307 433 -95 -2745 -774 166 -1838 -492 -442 2153 -1585 -2986 -103 -603 -250 963 527 614 -1866 -1229 -2490 -2821 -445 -3241 -866 -365 889 -155 -104 2515 658 959 -1005 -3963 1299 1483 1232 1584 2930 834 722 2342 650 992 -2542 -3030 -1918 -8484 -6931 -3285 -6977 -3439 -175 852 1191 1286 247 -1692 864 727 -3188 369 -1623 -1254 -4013 -4143 -3498 -926 -1917 -3283 2277 3155 967 2162 5214 5473 2897 4728 2710 596 -491 897 1445 1690 1095 1337 -1985 332 -489 -145 -778 852 1817 -907 -396 846 790 3017 3429 3068 4982 9336 2947 6409 5671 3650 -107 -2183 422 -1705 -2362 -757 -545 -1760 -1289 -691 -2931 1801 2546 -534 1696 485 116 -35 -1224 -3587 -1454 -3925 -8081 -4683 -3072 -6178 -2101 2260 2389 2068 958 2446 5980 1858 2203 2237 815 335 1173 1626 -3820 -2071 221 199 3576 886 -2135 -2408 -1543 -1313 694 -2354 -797 2185 -1516 49 290 -2690 -1407 -2101 -1181 -1166 -993 -5572 -7219 -2131 -8126 -9193 -5249 -4927 -6104 -2239 -436 -1373 -208 -3035 -4681 -2681 7 -3224 -2830 691 -14 -541 291 3977 2939 68 -1430 -860 -1234 14 1510 1326 983 -1902 -218 1588 -1935 612 2616 -289 313 2961 1920 60 1590 -4685 436 2361 2019 23 4018 3867 386 1508 1318 779 -117 -1861 1322 832 -4629 674 2129 -4595 -64 -405 2285 178 1206 2203 -6 185 409 -1673 -1425 -1840 -2004 -686 127 -1277 -1245 243 -1943 -4246 -5341 -4873 -8038 -8280 -5524 -7413 -7649 385 -1680 -597 -818 -377 -2056 -823 -337 140 660 853 -167 -324 2589 -1564 -1288 -2374 2682 -1136 -1862 -450 -734 -1240 -1538 198 -1047 97 762 1355 -342 1210 1097 2409 1148 4039 670 -53 3729 35 2793 4121 3721 2295 2350 1674 1237 1046 2305 1314 2329 3149 1288 2420 2531 -9 -973 -2061 -993 -2860 -4415 -1616 -3034 -4160 -2878 -2089 -1079 -3584 -4164 -3096 831 -126 -1475 -1488 921 -1160 -2049 -2677 -6444 -624 -1378 -4280 -205 1172 -1553 995 2357 833 886 203 149 372 1085 634 -82 2041 -2410 195 673 -1705 -1269 -782 -34 -2702 -4494 -3111 -4468 -7406 -6164 560 1739 1674 -1935 2342 618 190 298 18 -2729 -404 -539 -3320 -2793 -2936 -994 -1719 -1137 1988 -371 1051 716 676 1646 -193 868 800 -893 -1573 -2230 805 4665 1799 -460 3911 2533 -1519 -290 631 135 2049 1926 301 1701 -510 -1469 -1242 -1292 -2484 -4464 -2520 -2618 -890 -2879 -1870 -2533 -3823 -2480 -6536 -5812 -1069 -1233 -840 806 1765 499 -43 429 -427 2036 1103 -555 1607 144 102 143 2440 273 422 862 557 -849 -5439 -4532 -4501 -9683 -9103 -5794 -9299 -7574 -718 7 -1054 -1078 266 1586 -2250 1271 4668 -96 179 -2432 -1298 -1964 -1467 20 -569 -693 -409 -2502 -2107 -1280 -4530 -3878 -400 -4807 -4947 -214 -287 2922 485 -913 -1469 2489 3665 157 3988 2177 4054 3166 5539 4262 2802 2955 2830 -598 720 2025 1924 5049 4995 3078 6747 1941 838 -1556 -306 -975 -193 862 -1311 86 588 997 1619 2817 2347 5577 5428 2440 6563 5873 1608 -426 -172 -955 -32 -667 -1186 -2634 -2009 -923 -1050 -1051 -1665 -3264 -371 -1440 -1483 335 -2413 -5011 -3080 -6911 -9038 -8655 -3672 -6286 -8168 -2053 -4461 -1575 -3188 -6865 -6532 -886 -3734 -3402 -385 139 -504 156 -1982 -61 2821 1006 -231 -795 -1376 1674 -2826 -2915 -774 196 -1743 -1511 891 2262 2017 -470 1753 368 683 2741 859 -635 -2011 -486 -997 -2088 -1042 -407 -2033 -2635 -114 -742 -665 -2341 261 -243 189 1123 1876 -802 -582 -692 -1996 -2787 -1065 -304 -1800 -2074 2720 1231 -529 1797 4688 3708 138 1229 1028 1376 5009 3700 1644 3890 2885 1620 4855 1814 1102 2972 3709 3373 7754 3873 974 5120 3884 1054 1623 1426 3130 4360 2049 4398 2386 2078 230 84 -652 -1632 423 1130 -1915 -2068 -302 -410 -2125 -2496 -537 -3334 -1161 -2510 -1703 -1831 571 2633 851 1152 4581 3096 2012 2108 1187 -1050 266 1031 -45 1650 -175 -1358 -923 -91 1253 -1159 -313 -2127 -1745 -952 -4582 -2687 -3633 2720 166 1659 422 -468 224 369 -250 -607 1259 70 675 612 -2146 -530 1828 -201 -420 450 2107 1713 1574 1591 2690 1374 1732 2622 650 736 821 966 1333 1223 732 2071 1520 973 1090 -195 -570 2084 749 -298 3735 3807 593 797 321 1804 2239 -1152 802 1932 -118 586 1018 -1629 911 1898 -1331 -171 853 915 -1781 -2553 -2588 -4070 -4910 -6268 -3962 -5091 -4890 1878 1922 1880 520 3087 955 -119 1444 482 102 -1101 -302 -533 -1669 -3434 -608 -63 -2477 310 396 -465 1545 -6101 -5198 -517 -3311 -686 970 1061 -3372 563 533 -2809 5949 4284 2852 -906 -419 556 906 -813 353 1323 -231 523 -2009 -5886 -11499 7737 5645 -5076 5925 -1828 -2288 -3009 -3258 -2042 1017 4765 -2060 1024 1740 -2674 460 55 -861 1884 10 -400 -40 -185 -286 685 278 -1695 325 1546 682 -17 1415 -1587 -533 -3080 -772 1687 2082 -2696 2969 -134 -4551 1082 486 1020 -424 -3744 1048 -3087 -3417 590 1029 1235 1914 -1901 8037 5237 -1833 5276 233 1 2215 633 -555 630 -278 -32 234 1533 280 -968 -1759 2705 -1238 -1512 2271 407 -536 -162 938 190 288 652 1705 -115 -443 773 405 -244 1225 -1723 5964 2792 473 -325 -1631 -1953 -2263 -1847 -621 -43 3753 -58 220 1381 880 1601 1233 2944 1586 -2526 -700 -4209 -1911 -35 -552 -930 3945 3733 -2803 3855 700 -1508 -1406 -2867 -2534 -741 -1856 976 952 -4177 821 -1229 -2043 -1364 839 -871 -190 1727 -1794 -2643 955 164 2247 3165 -5906 -3972 843 -3565 -2286 -406 -556 -1288 -1009 -2275 -19 -192 -646 2045 102 -1573 -1444 47 1152 2195 -3003 324 -3713 653 -3549 3125 -1402 -726 1451 -3715 110 -1365 -652 -2858 -716 -891 -78 687 -807 -2360 1455 -1084 -676 146 -1650 8893 2616 1192 6508 -1083 3565 317 832 -141 -6726 -1623 -1227 471 -2126 -853 -35 -2644 -233 3859 -189 -919 -229 -1357 -427 -1050 -508 4502 3351 -2298 2951 1019 -948 -1330 -1839 -7007 -1823 1074 -4873 2566 1335 -3231 537 -1491 1733 -2077 -1277 1694 -23 2856 163 -208 -1178 -1940 -1524 -5569 -3244 -2045 -2217 -1190 137 -709 -1971 -619 -318 1884 -2426 572 -1672 1411 943 2645 -3037 -2417 3373 -777 -615 42 268 830 1510 820 4394 1743 -1183 -2416 1804 -33 -282 -2166 -1375 -847 1531 -3505 3463 2370 -387 1508 1270 -431 2754 163 -692 -1223 -1721 -1336 -2683 -4285 -770 -3119 53 -1196 -1762 -1835 -845 1229 -2559 4652 1259 -2269 47 -227 727 -1463 2015 -1278 -2913 657 4283 -2457 758 4216 -523 1329 -1130 -1840 -697 2607 894 -2732 4142 712 796 395 -458 957 2350 -326 58 1181 2162 725 1223 759 -1727 -106 -408 2138 2252 -670 256 -1206 1035 -575 2 55 -1225 -1093 -1490 -3026 407 -4178 -3899 -4400 -2154 -4503 -4172 -2280 -2808 -611 2043 3414 -3916 1228 1197 -2647 -1515 -2093 -1840 -566 4344 -1232 1198 4308 -315 -4760 -999 -1527 -2664 -6499 4780 -2066 -1283 2441 -381 246 2589 447 1192 1305 2230 1324 2283 262 1249 126 -2279 -2956 3603 380 -835 663 -570 1964 1033 -1895 1963 -3565 113 -715 -34 1011 748 -479 2111 7432 6436 3494 7354 5332 140 -2251 -2675 -911 990 927 -1324 1077 -2001 117 -35 -49 -1699 421 -3891 -2580 -983 -2398 -165 -9174 1434 -844 -2920 -2165 -2081 1538 -9989 492 -1345 -1646 -743 3361 1266 -2749 916 -1601 -1773 1095 1963 -1272 -1828 1342 961 -1811 2767 -458 -1289 -2206 3012 2914 -4537 2506 -389 -1405 -1239 -2159 -3707 4448 -1445 -4750 874 1419 -219 1213 -561 650 1056 -4363 -2977 475 -2261 -714 -1214 44 348 -115 1689 -891 11 -243 -110 275 572 -478 -997 -8 1289 -402 1337 32 790 1167 2434 -2530 1037 2051 -2742 -285 1752 1013 -1026 2010 -144 2037 3665 679 1764 1639 -2011 -13 479 -554 -890 6571 -385 -154 5775 -1845 -1246 511 -1790 807 1372 -610 -934 -268 -71 3446 -1495 2223 2225 -3055 -1486 -3548 -3300 -1081 1073 3949 590 16299 3689 2300 4809 2944 -2324 -4275 -4019 -978 -1362 -2537 -1369 -1301 -3710 603 443 -956 1846 2400 -1104 1605 -1995 -936 1575 286 -1160 4773 1193 -1860 2561 1265 -817 122 518 856 968 2872 -809 3235 4246 -983 -33 -1942 -1355 1274 1095 -978 1393 3028 844 -291 275 -1659 2854 2187 35 190 -1849 -550 -2559 -2524 -2757 -1703 3350 465 1812 2621 -2455 -422 2413 -1601 -1867 -721 1967 -3446 -2990 1463 -256 222 -1145 774 1345 3455 758 -1052 -375 -1494 -633 1313 -1893 -537 1629 -1399 -4162 1050 1491 1657 427 -84 -3114 68 1062 101 -569 63 -541 -1349 165 -782 -4321 16 94 -4239 1896 1019 1606 -355 -3386 808 -1809 526 -1679 -245 -1541 -675 578 -4241 -2069 602 -3174 1268 430 4060 522 5808 9340 9021 5622 5538 5160 -314 539 1123 -99 60 3852 51 -80 -318 -430 -1305 -996 1188 3079 -54 1698 3351 -840 1128 -300 948 1025 -1096 85 36 -1303 -1929 -537 -1229 -691 1641 3408 -1507 317 -193 -1399 -726 957 -502 -1851 -1329 -123 1640 183 2816 -10 390 -757 2775 3634 -3810 -181 -2430 204 1667 1381 203 -699 -4788 -2184 -1918 852 1620 -1003 -1602 -3365 -1727 -4589 -2998 -1574 -2807 -311 -2047 -1657 -964 -1431 133 370 794 -1158 -90 2212 543 -981 -1830 -2720 2214 150 2119 2604 -375 -789 768 -1999 -713 184 -1448 -2269 870 -534 728 1785 1613 1034 1310 -1035 114 -2753 -2133 -2339 1605 -924 -1886 3278 -1039 -1160 1235 -593 -2343 377 1618 -2223 1245 -904 -724 1093 -422 -1681 -1794 2315 4228 -4946 4656 1601 -6086 -573 -60 3147 -278 -2051 -401 -1009 -1528 -1640 -129 -114 -2360 1001 737 -1403 -2262 -1950 -1101 1482 1640 1565 121 537 660 107 -1217 937 -1401 1121 -159 -996 1095 767 -920 2533 -373 1480 -1974 -786 -809 -5112 -1327 -2779 -631 -605 -274 -4040 400 -1920 -1447 -1113 -739 181 1665 -261 -1532 -399 -669 -1022 4023 -2096 171 1701 1959 -1569 6 -1492 -5646 1995 -2076 -2957 675 2499 -484 3431 -2955 3791 1719 -682 -2711 -3447 -764 968 -32 -421 -811 584 400 290 3855 124 -519 -3776 2622 1733 -3877 2084 1172 -472 -175 -1282 1074 -1139 1398 1088 8 -1658 2240 -201 691 -1037 -1072 -1546 3596 -1302 -2472 1083 -818 -1549 -1373 -537 -1769 -747 -831 -550 -2179 -394 390 548 3147 -174 -5133 510 -5771 -2814 -47 207 517 -1408 53 -154 -1166 -952 474 1431 3126 -473 2890 -3745 -6094 -924 -3986 -2341 -883 -765 -1109 -589 -2036 -224 364 -409 470 -2087 -3417 828 -1539 -3386 1618 1084 -1837 -807 -143 -1674 -1648 3637 2954 -3399 2978 964 -1427 -1011 -1508 -1023 1730 1777 -3138 1147 -3583 -2859 865 -2063 -1413 -501 2500 1823 -1073 1889 388 -3357 -245 -97 -2951 2021 1258 1090 2416 1758 849 -81 887 -68 69 -3160 1012 -2273 -788 -1460 -2098 -5167 1653 -616 -1679 2731 -3227 -130 62 2320 -1267 4626 -1281 -3920 -3106 -3241 371 265 -1128 -607 1636 1252 -1781 1827 3208 619 -535 -328 1921 738 94 -2919 258 916 -3900 -60 1210 -2005 -1116 371 -3215 -2147 -2452 -3010 -303 453 -69 -519 -3270 2759 -4925 -313 -380 753 -959 2482 921 3181 1517 1408 -661 2213 2428 658 -262 1598 918 188 600 -648 -1323 -816 -329 502 -944 1368 225 92 852 366 -345 990 542 -1747 -694 -2508 2242 2531 -991 -264 -1757 -165 -427 -550 -784 941 -223 -2290 1147 1094 -19 3144 70 75 410 -543 502 -2415 -2301 -1797 -2549 -176 -2364 -1246 -2126 -396 1434 2914 1096 3986 1767 1777 -478 -955 3332 -2094 -618 -384 -1000 1030 1271 1633 2595 644 -887 131 -509 -648 221 -1011 -1614 -446 -1371 321 -655 444 -1133 722 1005 277 -1470 -449 1883 400 788 1946 832 -838 -90 117 -479 2097 -754 -4444 -277 -3019 -3909 -2654 -2248 -2335 -93 -723 -1316 1432 3277 -2731 -1768 254 -907 -588 -3813 -658 -271 -150 1890 1472 4612 726 -1481 -121 -922 1604 2881 -403 -119 519 -2251 22 -107 240 397 -103 -1082 1542 723 229 457 -1344 -290 -2111 614 3788 516 1767 -2054 107 -1722 -640 185 -1903 -176 299 1856 -614 1813 -2466 -1970 1059 -3280 372 -1168 -70 1189 -371 172 1711 518 -1763 -1682 252 -809 -30 361 882 -1712 -1947 3276 1380 522 -1210 -48 -681 1084 1564 -1323 -1208 761 1073 -806 2594 69 -1027 -570 44 -18 553 1246 630 554 77 846 176 -782 -4 -1764 -691 -1289 -746 2904 -710 818 -23 -1429 61 -768 -366 690 403 -236 103 -527 1795 467 -1069 197 -595 -541 -2547 -29 -1758 -2936 704 -1085 -160 -46 -1851 -1710 10 -3310 1056 2603 -719 3789 649 -404 -838 18 -1181 41 127 -757 -357 -1825 1975 1371 378 127 -4008 -753 266 -2567 850 1245 3968 1257 502 1663 1549 -697 -2235 -1676 -76 773 -140 201 760 -147 968 53 1456 3090 2433 3250 591 -4986 -301 1024 -572 738 655 1200 500 -1065 -3642 -1872 389 -281 -773 1281 -1189 -1402 742 -195 214 -17 -512 691 -51 1099 -676 832 2303 1482 981 -1955 -1608 -362 957 844 -783 -937 87 -210 -390 -536 951 -349 -1171 -973 -2462 -950 -840 -47 1037 -508 -212 563 1196 -1308 -1851 704 -175 -490 -553 -2950 -558 1000 64 -1789 -421 1377 492 -1765 -1635 273 248 -1597 -1739 5155 6053 -684 -2273 -624 -2163 1621 2332 -59 1811 3359 860 2446 4289 -3012 -1994 -2080 -4902 -2987 -6452 -648 80 34 412 -728 -773 -864 861 380 -1032 -234 -715 -917 -525 1182 2740 1636 1101 1003 -140 -2028 -790 -1044 -936 -273 -1191 127 -1356 -212 -1243 2303 923 -2858 1241 -1124 581 3027 -868 -1665 256 -37 -2021 -2301 -2411 -1795 -377 504 -1380 -528 -369 106 -1551 67 -672 -2034 876 2178 1072 -1079 308 -62 -394 -760 -1814 -637 -652 507 -377 1268 1339 82 -7 -157 -440 -301 -913 996 137 -294 250 -416 -2114 -577 -766 -474 1262 -559 -1114 -212 -437 -1251 -1988 -334 -175 -2709 -624 405 -1217 -1671 41 1271 159 723 2849 1241 1100 1377 398 180 -1229 266 -1416 -635 242 -1245 -528 -545 -949 -1140 -441 -1927 -217 768 -4610 -3392 -4787 -2362 1593 -2946 -2116 -46 2796 1182 1032 2638 1805 953 1993 597 -38 -1734 -1134 2219 1611 553 -515 766 685 209 1612 64 -652 344 -219 187 -568 -2004 -640 -2109 -2306 -3033 -2601 -1569 2502 5739 1984 1942 5854 4102 0 339 -320 88 2322 1149 1454 320 1348 2090 2055 964 30 -1627 -446 -236 -1813 -1449 4 260 -5 1514 3933 1503 3118 2963 2933 3625 2059 1768 43 582 -393 -3651 -451 -794 255 93 -2006 -286 -1473 -476 -6 -4 981 894 736 1346 -1557 -1257 -634 -91 -1693 676 -1783 -355 -359 877 -696 -631 -1139 375 -5 526 2001 -715 -423 -1718 -1306 -2089 -61 -710 -335 -395 -995 705 -2815 -720 -2096 -3419 -1223 522 -1462 -2319 2357 2533 1255 320 3104 1088 -86 1154 -61 3253 3396 -603 2081 4661 -368 -754 2633 1188 -622 -160 565 -848 -1732 -909 -577 -2164 473 332 -1335 1150 1470 -1408 2288 484 -2640 664 751 80 907 679 1760 2857 -1056 1634 849 -519 -2298 -428 1782 1197 -1195 251 2577 -797 8 550 -99 -342 606 -2146 -955 -344 491 -553 1778 3529 169 -1835 2802 2003 -193 60 625 90 -1070 -1506 -3367 -1160 645 15 -45 -755 -1481 -1808 168 341 -1816 -7 872 384 224 276 141 2292 -269 899 553 760 402 -492 -2782 -584 169 -412 -633 -1064 -239 755 528 -3213 -1884 -1351 -78 -2216 170 -86 -1751 -2272 -3004 -3101 -4816 2099 -5877 -1882 1767 -3835 255 -342 -1294 -8 871 -1480 -527 -633 -448 979 1453 254 1102 1050 -1003 533 -1523 -228 -547 987 -480 640 771 -1000 396 1227 1779 -2439 26 1599 -5524 137 1604 16 1337 3224 -427 1928 -369 809 851 -180 -205 -1209 -470 -140 142 -364 -1191 53 -218 -1416 -215 -2061 2790 3094 1643 822 -306 -4729 -2339 906 1927 225 -1238 33 1641 473 -246 322 785 798 -151 -119 526 -737 -587 1550 1292 -956 -1265 -236 914 1056 709 2785 3849 -272 -2965 -2344 -732 -328 -107 -308 -1654 -384 1095 -1938 797 50 -371 -1581 57 -2048 521 -1638 -2119 -1845 1569 1231 1291 356 1673 -1775 1684 1707 217 -871 -24 -145 -241 763 909 922 1983 -111 -1893 -3597 -2120 -4290 -6424 -6255 -1898 -587 -2534 342 1344 -182 -1124 667 157 -734 1401 495 720 -518 795 1321 2060 320 -585 -179 61 -2138 2048 2495 -2217 -1170 7012 1204 -1669 -1569 -2829 -2 1252 -2549 196 2419 -1243 -3772 -3551 350 -2770 38 1681 -1134 -3092 -959 1492 1386 -1012 56 1617 -661 -1925 1432 -312 -132 -442 -23 1591 -498 965 -3072 957 1146 858 -1773 1197 2142 1150 2027 1319 3704 39 2837 1138 -1049 -1012 -1354 177 -171 239 790 2104 368 -769 605 173 1748 548 -1218 -1097 -623 -1292 -141 1272 -556 1765 3579 67 -3194 23 -302 831 -324 333 -529 527 -475 72 1392 455 -2087 -1186 -3982 1743 2900 -1272 -189 3142 -643 963 664 341 1038 -3352 -1600 1485 1313 1227 1530 -242 860 -1646 -754 4934 -485 2256 1445 318 56 -823 -2264 -884 -451 -476 -870 -694 -732 -1348 -2746 -425 1079 -2407 -1441 -1871 -1709 -1654 -967 -550 -494 1170 700 494 556 -105 739 -570 -1568 -454 1842 -3185 218 822 -1631 -1247 -1743 -4 42 2685 -254 -1407 420 367 -1214 285 1485 -2413 98 2281 1651 523 -455 486 -1091 -191 299 314 -1125 115 -2088 -1428 -328 -2118 -560 -498 1723 479 1004 1176 -1382 -643 1244 -545 359 1304 850 583 2532 -826 118 -313 -175 64 -747 -824 412 746 1152 -236 786 -596 821 3188 -589 -1196 -948 -750 -552 -1952 -1360 -369 127 493 -869 420 -1428 -385 1333 -95 973 -605 -901 1261 1255 -109 -769 -1603 -863 1015 1341 -100 815 2226 616 -2118 755 172 398 768 843 498 -637 -2994 -258 -3725 1021 3332 -63 -3398 261 431 1002 -1316 2461 1071 -2703 -3170 1317 621 -2316 249 1019 2700 3212 105 1430 3752 1404 -533 -5 -445 -334 -811 -1669 858 2638 1300 -931 -42 -247 983 -181 3915 4603 1073 1684 -1229 -2430 -1277 -1145 -1114 78 -432 -1771 -2070 -864 613 -1650 -1523 -2346 -1031 -1133 1087 975 -1938 -793 1165 -985 -235 308 -71 -1197 -2896 -1079 -436 1053 1618 2058 66 -814 741 -1054 743 842 2539 2285 -1121 1249 -400 -1978 -63 -1050 376 -497 -1355 198 -996 -1731 631 652 1297 189 -721 -924 -1406 842 1274 -1112 -415 -1659 422 788 -1897 97 -1134 -1447 -568 -1543 410 2558 415 -581 -902 1512 -4089 -1259 2097 788 2020 -1521 -1290 -923 176 -926 -902 -473 1566 -738 1178 3950 883 2067 1020 1010 2005 1861 688 -886 214 1081 -2465 -965 -1388 -1922 647 347 1841 2383 531 -176 -2483 3369 3155 -3070 -818 -77 -904 627 -7 -1192 -1925 -1022 -468 -1985 305 -426 438 135 -323 -2387 -128 458 -1525 2493 -1943 -880 104 617 8 -441 1380 708 807 -1976 -1000 1291 655 -3198 -1871 227 -1608 920 358 -507 245 417 -781 -369 1486 -1977 -2550 -1155 -813 294 -5719 -834 -1603 -1868 -2147 522 -2248 -499 2836 1932 591 -447 4182 5458 262 641 1033 472 1172 -196 819 1693 1297 -2648 -48 418 -3024 -472 -833 -45 -303 -918 -1837 866 -1001 -2295 -1821 -443 -293 -3569 -2456 169 -1193 -1068 -359 -2457 -1783 1564 1496 1456 944 1346 -1892 -2371 3703 -1259 -417 -1376 -1650 -2291 -8051 796 3004 -5987 -5259 4908 7741 -1724 -668 852 2105 -1452 -704 1430 -1112 -1888 -590 -213 1448 708 -336 2284 794 1164 28 -1280 -909 2024 1542 -552 -1650 1834 -1019 -543 348 -1040 -966 826 717 -1361 1700 2315 704 -316 -1168 -1123 -456 164 -511 -2115 -483 -91 -1197 -1214 1462 611 -262 -576 912 -1951 -123 742 631 -295 -684 1184 2453 238 -2333 770 2004 -582 186 3158 -2206 -2525 1062 -1732 -4389 -1214 -514 -559 31 -426 -1483 1151 3325 -1676 -2024 1001 -582 -1924 -614 -179 -1462 -2873 -3505 -937 -1515 -408 342 452 -16 1288 1231 115 -1056 -3 1026 -3476 -3073 1457 -4420 -4426 912 2165 209 1237 51 471 2019 1019 -1256 2097 -548 -1336 1639 -841 -1408 -1753 981 -1187 -1165 -302 399 384 -2485 90 2096 1224 -327 -1652 646 427 2771 -2509 -498 -456 4166 1469 -3685 -1089 -1519 624 1561 251 -886 307 -925 -1202 -1566 1736 -396 43 1484 792 393 -651 266 306 -1303 -737 -1036 -2877 483 -1713 -2502 134 -880 -1011 1195 -1498 -1331 -586 -176 -2661 74 -248 328 -1814 608 -1164 -1797 -1551 18 -394 -387 -635 1302 -1868 -2475 -728 -3008 -3756 -2310 -1386 -326 -314 -438 -169 4010 199 158 843 1347 297 -282 -81 -591 -2790 -660 3177 -654 -910 274 -1400 -1629 96 -3545 -3200 2189 -813 -637 -1242 -5193 -1345 4004 1257 -3666 -2151 5238 1489 -493 -410 -482 -1599 -2077 239 1362 -479 695 -2196 751 2415 1664 -5891 2996 6370 2471 -1668 -2585 -166 1373 74 -387 -207 -97 1350 1540 -521 705 -2380 -486 1843 1395 -4148 -3870 -1001 -413 25 423 343 -121 1056 446 -2771 -2395 -958 1124 -1707 -1500 109 -1396 -2506 -1163 -144 -2608 -5679 -4066 1165 -2819 -7565 5074 8904 4364 1512 2737 1646 77 3384 1308 -1462 743 1873 -1482 -1735 -1376 -62 -1272 -1595 338 -1196 -2792 -712 876 1293 -1268 -502 -310 -59 -1598 -1605 110 -1078 -581 72 -575 -53 1330 -371 0 3469 -2058 -202 7380 10196 -811 -648 5104 2839 1218 -2032 -938 -511 -2068 -1043 -732 1541 682 588 1184 -8 972 -1047 -1164 138 -2395 -716 407 -1193 1020 -842 -1334 -1185 -1631 200 -403 619 1537 -660 43 100 -1355 -495 -1045 -1077 -584 593 -2658 -2095 2897 -545 -977 -4270 -1115 -1360 -151 -465 -1992 -4661 2205 -1234 1161 -3412 547 2431 436 -1426 -2688 -1225 414 -2423 -1280 1255 -3638 703 5066 1691 -4888 1018 7439 -423 2203 996 833 1150 -949 -239 187 -463 -1321 302 -1656 -3642 70 3083 -3357 -4318 -1235 2087 463 -534 989 -1559 677 2289 -228 -345 715 -183 -1941 -1667 2163 4559 -4240 -3821 2751 4187 -712 -1665 -1296 75 -1427 -1650 -386 -450 402 315 -421 260 -296 -2059 -845 -106 -37 1968 288 1454 1125 -277 -2611 -1008 803 302 -1670 76 -1866 -76 970 4347 -2686 -2645 3427 -846 -1552 -582 -895 257 6005 877 842 3415 2833 1598 1032 -148 542 1256 2096 2872 2449 2208 -461 2899 -57 -1630 2237 1908 -1729 -2428 -783 -215 -2275 -692 -626 -1632 -208 -771 -926 -1708 3961 4037 1021 1749 3111 7742 556 -8719 -6254 887 315 188 447 3828 199 -762 -395 954 922 -669 1274 -789 -792 1363 -1397 41 748 -3202 -3560 1236 218 -1779 -4816 783 524 -81 813 -2199 857 -1066 -350 -254 -1424 1464 -520 1400 1562 507 -551 -734 -1051 485 611 -157 1095 -504 1467 1384 -773 -1251 291 982 1395 -16 -1358 -733 -184 -1120 -4097 -2635 -1396 -1572 548 2476 -4086 -4866 5525 2198 590 -2951 749 727 -35 83 -94 1895 -260 1537 4729 2083 -2638 -3123 -4634 -1427 -784 -762 -1469 -3237 -2199 -2042 -2851 -1572 -1282 4293 -2124 -984 -2844 -455 -2302 1477 -1476 -2874 1014 2199 -1587 -6059 -943 788 11760 1965 -11575 4938 12954 -8348 -14491 -2782 -1131 -1264 42 905 -1287 -168 -1392 -1808 -1364 -1880 -1715 -1152 1214 4397 -2527 -2172 2852 101 -64 -228 -1376 -228 -948 -2592 529 773 -739 -1066 -706 -1762 -969 -564 -2420 -959 1529 3975 -3953 -1392 1419 2555 -1598 -1293 -2592 2964 -505 -253 879 1972 2077 -2517 156 -849 1305 -322 457 -1124 -1556 -1659 -705 -964 -556 -1573 -3549 -382 997 714 -667 -2472 1107 -273 1143 249 -353 -436 -255 -726 -4221 316 -815 -2478 -2321 -2022 -2064 -3003 -1215 1346 -1164 1753 8939 6823 164 -2733 1970 2129 3160 -3104 -3085 -1898 -898 -1529 -99 -771 -1099 -1210 -1648 -444 -758 -392 -888 -1092 -718 -414 -4303 -3960 -746 -937 -2293 -869 1785 -645 -725 -366 5322 1908 -1235 -1462 557 3212 -1705 506 2427 1585 -970 -131 1666 -624 209 -1126 1861 -1751 -193 -406 -1849 -901 -1890 -632 -2488 -2391 -1513 -1501 -664 1145 -1530 980 966 2723 -22 -3466 -741 3328 1768 1518 -270 -1297 -1457 -2087 -2151 -2722 -2554 -1148 -562 258 -2520 2297 988 -3939 -1963 -2499 4876 -1769 -148 1194 1317 -151 -1945 483 -1209 -3154 -1593 231 -2360 1128 473 1456 212 555 -808 653 1800 3340 -3750 -937 4979 -3824 350 -56 1641 -565 -2033 -1456 -1307 -3561 2665 -1704 -4008 951 177 558 -1050 -1680 899 1529 873 -1029 664 -104 -2877 1132 -1173 -1489 1812 -1307 478 -36 -1024 3308 -1390 4318 -3610 -4274 -531 -5792 -1355 1729 3212 -2594 3646 -1799 -94 2266 -284 991 -332 64 2671 263 2040 1801 -2106 -701 53 -1764 2640 -541 470 2070 -559 1290 -916 -3369 1287 -598 629 -1657 1679 -824 4586 -825 393 699 -594 43 2440 -3134 2258 812 -2432 1334 -765 1413 -1864 -186 648 -3097 2608 1817 1417 -1877 1119 -1253 -499 -379 286 1587 203 595 -808 3126 -1483 -1068 4410 -5971 -1138 -170 -601 101 -401 148 -1393 917 352 679 1042 1845 -2716 1154 219 -1906 2403 -1626 235 2316 -99 -970 1227 -2200 -899 1817 -6443 -778 -1464 -4715 -255 199 -78 1044 -3107 -1454 68 -3853 522 1651 296 733 -1442 1498 -3988 -347 -1023 -1061 -176 -4340 1107 -1305 -139 -720 -1372 3045 -3423 -4186 4891 2568 215 12302 323 1762 3208 -2291 -888 -1198 -2781 859 -6471 -969 549 -8894 8178 1234 -934 785 -389 845 -314 -93 1216 -2453 -256 4318 1124 -391 4598 -3043 -3330 784 1378 -1689 4780 875 -753 4252 2098 -1838 -1317 4227 23 3138 -2262 -652 1164 -1818 1762 2142 -432 1334 314 1420 -73 3268 -2189 1633 2540 -1507 435 -525 2071 130 -1606 1370 -1458 -959 624 -575 -4082 -614 -1198 3991 -3660 -3903 224 -1441 -168 1449 -17 -580 4682 -2932 1674 247 1869 781 -67 1996 -2375 4970 -939 2912 3599 587 -1786 -593 -3519 1515 -4786 -2119 2676 -5760 2424 -3479 -2606 152 691 -2782 188 -4475 1795 399 860 -2955 2121 695 5581 -1847 -3378 5478 600 -2393 4298 -2121 600 2309 -188 2738 -3159 1445 425 -1494 -1169 -1528 -225 -734 -2059 -2337 -2679 896 -1869 3718 -2119 7480 -717 -2888 4926 -6498 165 959 1042 1423 2239 -2011 704 310 -1330 697 2409 281 1198 4429 -4852 655 1163 455 -923 -1142 -2936 -1468 -2053 261 1518 -1595 -570 -2445 -363 -3789 -572 261 -3103 -2460 391 -2218 1803 1588 880 487 936 -256 359 931 -958 -1073 -1120 -172 -2379 -2439 -684 -1707 402 -437 33 -253 681 -922 -604 908 -779 -1 1423 -1398 -1602 -2517 -2916 4965 -3620 759 206 -1791 216 857 1396 -704 -75 277 -39 -141 -3344 -107 791 -1223 714 -1082 -2163 1463 -648 89 -182 1309 -2383 1050 4998 -2172 -1430 -1293 -141 -3192 -3182 742 -2956 2430 -790 831 1201 -1315 -477 -1563 -2305 -1533 232 -1446 -93 1830 -1865 1793 -2270 -1355 -147 1076 614 -1231 522 -2125 -352 1218 2173 1749 1149 -1395 1738 -1423 646 580 3490 1538 343 -82 1363 1678 2537 1204 1982 2182 -1433 1233 2274 -1751 487 -3700 -759 -54 711 -1323 -101 -287 1573 663 -133 1888 -1548 -596 -29 -1461 -4189 701 -2386 458 1474 -1675 743 -1085 -856 4939 -1183 828 -525 485 1833 2950 1350 155 847 671 1926 1922 542 -239 1679 -2820 206 8077 -5886 3556 -684 -92 1682 3872 -5491 5670 2378 -5646 1089 -2380 1218 24 -2169 852 -1211 1003 1028 -534 1267 512 1415 307 -2255 421 1687 -416 -10 -1160 -2055 -2114 -2501 732 -2968 425 3318 1556 4156 48 1471 -335 -796 -397 -1495 720 -933 -187 -523 1218 2030 -2261 1375 2186 -1335 1846 249 -958 683 -2765 1699 -1656 -2373 -474 -878 71 -2046 1123 -1180 22 -920 -285 557 950 644 507 1009 2699 -1345 1150 -5561 1731 248 -3477 1639 -711 1168 -1744 488 5851 -3403 537 -437 -882 470 712 670 -2123 2996 -2488 -182 1445 -4392 -423 -152 -602 279 -871 -3341 72 -2186 -768 -692 3144 -915 454 1014 -2457 1742 -453 -1709 -4175 5176 -3446 -1325 3220 -4144 1820 -1335 -1622 -4434 -2616 -836 -1057 -5296 3998 -1514 12 3425 -1012 3250 -1562 326 5936 -3837 -739 -68 -556 1672 1702 402 2607 5075 718 -1218 394 -845 447 -3117 8058 -1009 3374 5101 -782 8386 -3794 271 -892 1224 258 -2307 -1429 -68 -339 399 994 5616 1077 -692 3106 786 2008 1044 -860 -2245 2199 270 -1762 2701 -4210 -2784 3109 -3169 -1572 -1952 474 -1382 -7290 1697 -342 -2501 1955 -2339 1917 1093 -1376 13392 313 -204 7599 -4111 282 -178 490 1185 656 597 -1057 2178 659 150 -1279 -1036 1231 777 -1501 2392 1112 -2648 17 -1466 568 1276 1857 749 2188 -487 -1181 -1670 3690 -2520 284 4164 -5513 -1004 28 922 479 -431 -997 363 -444 -643 -395 -800 -1789 211 -2705 -332 -1883 -1599 -398 3550 -235 1412 1287 523 174 -3363 1326 157 -594 2144 -114 -359 -254 -653 -1657 663 -2969 376 155 1046 1908 -3773 590 -1703 -5850 4868 118 -3989 1620 -386 -3310 -1872 -169 -5666 -978 -2495 -2656 -1363 -168 -465 -890 1416 -530 -619 -30 -773 -2777 561 -6090 -734 1043 -1398 2449 1442 1327 1095 -4027 -1083 -2044 -1551 -2526 -1917 -1383 -3138 -1190 -517 3335 -1853 -1589 1177 1033 1457 1630 2302 -1378 -307 -448 -981 513 -270 400 3546 -2330 -808 2481 642 126 -1549 -2036 722 1471 522 135 -544 249 -1326 2499 -886 3734 -1769 -1656 1381 2785 -975 1039 3284 -612 1940 813 2680 1088 794 27 1799 -62 -2861 244 -436 -1768 1493 -887 1127 228 -499 1621 1081 3550 170 -1438 -1389 -669 -2626 5560 -1472 -6158 2907 -1469 -976 -642 1628 -319 2080 871 -268 1659 -2312 525 425 -1866 -190 -2281 804 -149 2421 139 -1497 -1461 -2091 -3007 -618 109 -540 4326 1444 -2697 -4270 786 -3371 -434 2634 -1511 1252 773 980 539 7 2262 517 1368 2597 1642 1027 1010 -489 -1212 512 1597 77 576 3184 -1665 -936 1870 979 -754 7778 -4742 -270 -1382 -684 742 -1358 -1990 963 234 -222 1801 2281 -1962 1223 -598 -123 -806 1113 1313 -1550 -1114 -82 -1234 2163 -1732 191 3600 -613 -413 302 368 1908 184 2093 642 -1295 -1029 -876 -1674 1793 -1535 500 1722 -1468 -120 1595 339 1610 502 2363 -7467 -1543 -31 -12043 6798 147 -2320 2877 870 -985 1880 1280 -429 3914 1061 730 -343 -110 1658 -803 343 1881 652 -177 95 -2480 -1249 469 325 -1309 1752 -2713 -200 1819 657 574 1995 1116 457 -628 -161 2507 -265 2327 308 154 109 406 2811 -4131 1764 -300 -2737 157 -1293 578 -2297 2454 541 1226 1454 1016 536 2352 354 -566 3671 -2193 1600 2507 903 -316 -3056 3654 256 10297 2355 1943 5063 -1460 -558 -1659 989 -354 -3979 -192 386 -3700 1260 1532 -888 -841 1117 2203 -3644 709 -2531 -1843 -1248 637 -1852 -2895 -4380 1128 -582 -38 922 523 -728 -254 -1167 7807 -1391 -229 5081 -668 1517 -3413 -792 130 -1321 -900 -1581 -2742 -816 626 1225 -309 1418 -1657 -1382 778 2423 750 73 -1415 480 -117 -3595 -4687 1895 403 -1645 -1589 -1183 -1720 -130 -1814 -1647 -1492 -3503 -1716 -760 -1388 -33 -3871 -10048 -3584 -3875 -9515 -5002 225 -1014 -923 1109 1408 3937 -1558 4156 1283 2350 911 -909 2213 -4426 -1469 -1003 -262 -1058 -877 49 -341 -389 -1886 -296 -31 2628 860 -98 -453 2440 -1421 134 4457 449 4034 6468 -406 779 -271 162 -149 -421 -1185 -272 2326 -545 -226 19 202 2957 2094 -266 1386 -131 1229 946 -265 -2167 -3764 -1023 14 309 -1448 1603 616 70 -608 2029 -1754 -847 -1725 -1622 531 723 425 -893 3003 612 -637 -1868 -4923 523 1245 1040 -1255 922 2671 749 2849 990 -227 960 -1379 -227 -302 -445 217 -2269 -161 1126 135 784 -2314 465 5716 -171 3677 2783 1836 179 -1282 -756 -3703 -5286 433 -2884 -3150 -303 1101 681 277 929 2 -1691 894 -286 145 -1435 697 -942 -1956 2042 -845 538 -383 2354 -529 -880 1503 -5478 -1252 -1999 -4533 -658 2713 -378 814 742 -3389 -479 1214 1539 183 -2004 -3559 -3360 -3606 -10310 -4993 -21 -4468 -4303 281 -813 -97 2031 -2798 -3731 268 -354 -2878 -352 -1078 799 -1165 5079 3897 173 646 177 -318 652 627 721 -1821 -244 232 -664 -1596 2068 -1785 -347 1058 -3629 367 -763 -1847 -482 -183 -34 3272 754 -1781 1184 1008 788 -1218 -867 4057 -769 244 10623 915 -2191 2598 1546 98 700 883 313 961 -1232 -2757 -2181 -1751 2402 325 -2282 1639 -2664 -107 -1100 -2582 938 162 -1565 -280 1874 3321 1106 -3844 -5964 -2177 131 -1088 2365 -2318 -2178 1012 -1478 -617 -52 2010 -1221 165 -2490 -4172 7504 1790 -120 1128 -1165 90 -980 667 -624 -2057 1957 2254 -983 386 297 1184 -2935 -5891 -4902 -1329 -5010 -8098 694 -216 -237 -745 -2884 4249 1016 736 2049 651 1442 343 -670 1378 79 -425 3614 1572 1825 -1807 -1380 -660 -2470 -2184 34 -965 1322 1944 1252 -912 -466 -2398 349 -396 -229 1631 189 -860 1008 714 -1441 -636 355 -1328 -1730 -678 1335 -301 1278 4449 2382 -1414 3656 930 307 525 1998 520 1308 2657 -3145 -5464 -4361 -1852 -2477 -353 -541 -1480 -1780 -1170 -2622 244 655 -2709 -1932 2075 -2058 1146 794 1418 -998 -766 -1426 -2173 434 -2255 -868 -1348 -47 -1332 -990 1584 720 1819 5324 4326 555 8270 4667 -340 -2683 -3424 162 -3476 -3974 -1389 -3906 -52 1569 -1115 -1564 -340 -4330 -3383 580 -2998 -2921 -749 -751 -178 -4916 -6107 -556 -2034 -7093 -4303 594 -133 2768 -1285 -2294 1575 58 -4104 -3658 -1282 -718 -438 -2378 1724 -2364 -1763 -1329 -776 468 25 1120 -1817 -3752 -1407 2255 -242 -1658 539 -180 2537 -584 2321 2199 2570 2874 841 -2365 -1758 895 -2074 4341 2412 -2119 2035 -270 1128 -1456 1392 728 -2442 998 908 -1498 1618 -217 -3171 -903 2667 -3393 -63 799 -1418 997 -1368 1766 -87 1501 7497 2534 -1013 4271 2148 105 -841 -1653 1172 4792 -389 -1566 -3434 236 280 2180 -649 1025 -2286 -670 -2488 -2596 -1602 -178 -413 703 -500 610 -477 221 2398 1837 -2370 -5115 -3681 -7441 -10555 -5217 -3080 -2874 -681 -1457 -2858 -1660 -1315 -7103 -3681 1999 -3861 -2766 1082 953 578 5981 9651 1907 2516 5846 3124 -587 -1110 1847 -670 -1445 2665 311 -833 1692 -416 549 -1076 1271 -1170 -1767 1077 2088 1992 1481 1108 -1456 3485 4244 -630 -139 8655 574 -40 -1955 1168 -3476 -2090 2885 -1149 -2626 -229 1564 180 152 -936 -4334 -583 -1004 -2575 -855 -930 -63 -813 -345 -2107 -2519 -747 -998 -201 878 -2873 -5747 -6560 -11786 -8151 -5260 -7223 -3634 421 630 -2032 -1211 -1356 72 -3015 -3205 -776 -2841 -2574 -1689 -2886 4451 -1040 -1713 -1391 -3519 -362 -504 -410 -2107 -3598 366 176 375 1661 -2549 305 -1611 2183 4334 -746 -2639 -1230 -1366 926 2069 -587 1201 -1397 -2238 -1375 -1676 483 1105 9 -1033 1567 -381 -2753 341 -926 -1679 1460 -729 -255 293 -365 -14 2140 1000 2028 -2059 670 1841 136 4676 2166 151 7702 1161 1778 -1155 779 889 -722 697 1155 -2240 -2247 -506 1479 -1968 1484 1686 -1613 1365 1415 1489 -1483 -939 -64 -601 2850 1148 3351 2379 1227 -2206 -883 -746 -730 1120 143 -1425 -3941 -2645 1018 -885 -840 -1302 -1768 -891 -663 -873 545 -393 3217 -390 303 7018 3255 937 -643 1641 249 2176 1510 -255 1469 4549 1374 3444 2320 2403 1673 1522 2042 829 -1396 1002 -2141 -1598 1315 -116 -136 105 2272 2921 -498 3454 2660 -578 -890 789 -869 -6133 -2001 1271 -1200 -2313 933 3762 -1530 -475 -4382 -8554 -1589 -5803 -1579 461 -133 942 -1920 -2342 -619 -271 2291 3644 -458 -161 621 433 -2387 -1910 380 -1725 -2385 497 -2669 -3593 -1504 -8412 -6473 -2608 -4479 -1805 1147 2109 -85 133 -3566 -3736 -603 -3209 808 -1359 -1862 -650 -416 -1668 -1660 2300 -81 -1372 192 -914 236 -1788 -5683 -1140 -507 -4258 -4385 1187 4991 508 -770 145 4463 586 -1455 -1554 -630 1752 1320 -729 -2759 2719 516 -1005 -1289 2556 1418 1280 1702 -3038 -1706 -1390 271 1634 2263 259 1975 1101 -2633 1796 1088 -2958 -1478 -19 1242 2221 -235 2919 3760 -403 1963 895 -3551 -4265 -2327 -2294 -3278 -3329 -1578 -315 -2534 -2580 3340 878 3065 9217 -1027 154 2039 -17 -1071 -3021 -2907 -1569 -8687 -6983 1792 63 -1349 -866 -1513 617 -901 -4386 -3438 1642 -851 -4044 -850 -1090 -340 -475 -57 -1635 -1791 95 -1560 -3509 100 483 -149 2001 747 -1561 -2856 -1709 938 -657 -497 -1417 -3774 -1906 -678 -2227 -994 -955 683 -564 -2526 -3845 -1688 -45 -457 -2792 -2195 -3693 -1469 -4517 -2799 868 -3351 377 -371 1034 1871 -593 1710 6631 2225 817 5787 2447 2537 -623 888 1437 -2283 -1753 2316 4873 -2010 10 676 1303 -241 979 896 -1386 333 1014 2035 259 3003 3001 4661 1906 272 768 2430 -252 -1751 -720 -878 -1753 1735 -904 -2022 -1765 -230 -1589 108 -908 -3231 -2142 940 223 -546 2200 917 -2488 2804 -1856 -2220 -3075 -4283 -494 -1455 -415 1558 2136 -3120 -1301 154 1149 -291 -158 -2698 -1023 -1947 -610 -389 -1988 -2334 1141 -138 -47 36 -1779 3373 1301 1397 5798 3064 -239 -2544 -1156 552 -1922 -523 1195 976 977 -197 479 -880 3935 3296 -1174 1654 3181 -1210 2162 232 -534 786 984 1603 1098 1369 1161 1809 682 -513 1402 -2969 172 588 -1038 224 1767 -625 726 128 -3189 -495 -532 -494 1512 -1681 -737 -264 -1081 6621 1210 -630 1199 993 941 -724 93 4881 -4044 185 60 1008 -560 1985 -2676 1072 -2014 -3542 809 -1479 -436 -679 14 -767 867 -4 796 258 1806 2177 660 -616 -785 2291 1584 1978 1848 1501 -1047 -98 -374 1270 732 -2200 -875 -884 937 433 -608 2115 729 203 585 1348 1110 438 2687 2149 -871 7420 4439 -606 2402 513 362 6254 395 2156 264 -2104 -624 -374 19 -840 1627 -389 287 -138 -786 -1104 201 986 157 4873 1703 -604 313 -730 -3324 -4789 -4071 -3442 -1612 -3465 -3007 -572 -2105 -88 2152 1847 376 2894 3383 916 688 -2818 127 -6106 -2711 -1546 3040 353 -2253 -1437 -1172 -2165 31 94 -1568 -1322 -734 176 214 1205 -133 2174 -633 1540 134 -504 816 571 55 1970 2767 368 1738 188 -253 143 -1055 -2414 -3447 -8040 -4431 -3089 -2920 1110 -50 429 -144 1173 -150 528 1471 1996 17 2662 799 -224 -398 -2922 -2695 186 1367 -893 772 1238 108 2462 134 -2723 3635 981 -588 2379 1966 1769 1096 1367 1085 1644 1463 898 267 -2459 -812 -121 5025 -1384 -792 -449 136 -417 541 -1825 863 4228 -2055 -1954 -3339 -3154 857 1938 590 -253 980 663 -1109 1043 86 -1652 994 -2194 -4296 3159 2538 -864 4045 2275 78 2302 3030 364 -1885 3005 556 2183 -212 1478 1746 2544 3097 433 1913 43 484 951 1400 456 877 -309 232 -24 -409 2273 -427 -1433 311 -762 1666 2137 -313 -205 146 -1360 896 -459 -678 1654 -2131 302 -717 -401 -38 -451 1205 -2203 589 -780 12 261 1521 246 1472 -413 -3339 -774 -2599 1254 -3399 126 1948 -1557 1193 -1332 -1142 -2180 -339 -422 3107 2294 -557 483 -1859 -1053 -98 1917 -1793 87 745 2722 3291 1310 1560 -501 413 -2072 -2304 805 1892 3586 2166 3055 4013 2851 3074 2357 1127 -590 2802 -751 984 2783 68 -1204 1140 646 111 6672 5765 1266 3169 3943 -766 1173 957 -128 92 347 119 -738 -206 -865 -2914 -930 -802 -829 -196 274 -341 187 -1281 767 2303 -753 298 -474 -1501 -382 98 -89 -1727 -1215 1626 264 -711 394 -769 -984 -637 -201 -1379 2112 1462 -668 412 62 599 821 -1678 -1509 343 875 1136 -423 -777 1009 -850 151 357 -2640 -1613 -603 -1003 1559 -934 1285 -90 -1715 -1767 1671 1325 -2149 -3495 -1468 187 304 1259 -2147 -2794 730 -878 -1030 -728 2756 2693 2150 2428 1119 484 1460 -2362 957 1202 -1567 2114 792 -94 -1662 1305 -806 -876 -628 -388 130 -3566 -5902 -4278 -3590 -5255 -3825 -2808 -9620 -4732 981 953 388 -980 1767 -2223 -475 178 -118 -525 -624 -2185 -9 314 -2140 -2103 -3723 -2691 930 1867 1368 -30 4850 725 -1656 1160 1387 -1049 -22 857 -1193 1198 1773 1039 2125 1294 -720 2016 226 -3376 -2441 -1944 1948 -366 193 504 277 -199 1389 -710 -157 2326 570 -912 -495 1674 -737 2009 4947 712 510 2534 1322 60 2143 1039 737 988 -265 2173 -982 -179 1311 3611 3401 2056 2052 1110 -482 998 -1112 963 -792 741 -116 710 -132 -1066 -142 -1542 -675 -344 -1215 1712 -929 -981 -588 1616 868 1725 1424 -569 -480 -87 -86 -1015 3930 1310 4587 447 -1969 -744 -744 780 -2225 2724 2473 -622 1575 -902 -2561 -550 -1911 -2395 -2962 -2437 3120 3359 1944 -445 -1957 1118 -171 -280 317 -2730 -29 -4761 3293 5728 -2076 7580 11160 747 -690 -420 -639 190 -796 -699 1089 1455 -2984 704 -195 -1641 196 -670 -2834 271 -1546 -1723 -830 2314 1746 711 1157 -824 -498 -281 -1177 -368 -1859 -346 -2418 -1299 1146 -1768 -5109 -1266 -1426 -1809 -1264 -2679 -4887 437 -2098 -1864 3335 1044 1408 425 3093 1673 1825 2595 2249 1628 3687 1774 -1119 1526 41 -40 1044 587 -823 -1441 -257 2020 123 4323 491 991 -1636 681 -523 -2283 -3042 -920 -1746 -721 -1203 -1472 -2208 -844 -2366 1771 -889 -2269 312 -2539 -1554 -746 -2005 -3227 -1761 -178 -1414 11 -2023 1062 -225 917 -439 -2192 -113 -5543 -2034 1241 3439 186 -1132 2278 1569 522 -1853 3474 -992 1622 2312 1070 -278 1474 1765 -420 1553 434 955 2343 484 -77 -2222 103 -1650 533 -512 -131 1842 -1828 1470 505 -2666 -2862 -1922 1698 179 304 370 1341 3318 1895 2605 4140 1446 1587 1576 -74 -118 -618 1676 -2975 1189 181 1895 -429 490 561 -1603 -301 167 -475 1252 714 -1068 -3007 -4926 -2473 -3851 -2104 -3122 -5125 -7089 -4047 -532 1410 -2484 -905 2417 307 -1430 1081 1083 -1218 -21 -961 532 -2088 -2171 -412 196 -49 2298 848 -1205 2893 378 -1442 -646 -2810 -1631 1987 1585 1495 561 -906 -213 1383 -882 -511 -973 -1961 -975 -1130 834 984 -1249 521 552 -752 -488 -561 902 -543 -900 111 -315 -63 1623 5820 1246 520 -2409 -1089 -438 -754 -525 -1297 -2555 -3304 -195 3393 1572 -1030 770 636 -1679 -775 -786 -1722 -12 -612 -624 1316 -1965 2205 1783 509 371 2845 1014 288 -113 1306 4921 4994 1435 5472 9675 3966 4362 9975 3684 -1273 856 1492 -153 -654 550 311 40 -1271 -211 2447 467 -452 -131 1789 -381 -441 2113 383 674 1840 1268 285 -1530 4694 4707 979 -45 -1127 2559 953 -1324 1664 1288 2192 -1691 -1021 2 -2104 2421 2475 1264 -1092 -2623 821 2258 3972 2390 -1682 2284 3603 -2695 -1470 408 -1539 -1349 635 -990 383 1552 1615 2476 640 -2831 -4218 -2589 -869 -4478 -3931 -2897 -3679 -5603 -15 -2239 -648 202 -339 1171 -93 3180 514 -2080 -2514 -194 -1678 1452 220 385 -2182 -1186 -745 -324 2096 3069 -1031 -1622 3067 621 -1286 -1399 -2294 2823 -65 -6398 -609 1569 -4771 -4608 -2985 -9837 -8126 -4375 -8333 -7631 -3098 -5496 -4058 -420 859 594 -444 -2672 -1629 64 710 -167 308 -810 1415 -519 -2390 -1300 734 47 -1002 2784 1226 -1508 1517 -651 -2674 1523 306 2029 -1911 -2231 -244 -1907 -2616 -2733 917 3346 -995 -1815 -2707 -2014 1036 1153 -480 1559 -1884 -3211 1619 556 98 334 -1000 815 835 2126 540 482 -2000 -1187 -736 7 -3768 1066 4258 1313 -89 1526 396 -2481 -3077 -1265 -739 -1558 -277 -4115 302 -1905 -3736 2194 92 -1928 -1549 -1171 -708 -633 -644 -2713 -2474 -2822 258 -5628 236 193 1970 763 2070 549 191 368 2263 -1156 -1514 -3956 -1285 -1955 -582 -1795 -2033 -2389 -914 -1054 -1236 -2709 -1753 -5000 -2805 -1757 -3887 -1556 666 2076 -1904 -1077 -643 -813 -986 -945 543 -2724 -1538 -693 -1699 -871 122 -1884 -1717 -27 2449 788 -1182 683 809 281 1179 1429 1576 -1096 -385 -1031 -665 -153 1556 -2425 1669 797 -1443 -52 -2874 234 -2241 -1849 454 2529 1242 778 -1358 -920 107 918 -806 723 3003 -835 -1321 -597 -1493 -187 -198 -294 1089 83 -1358 -25 1652 247 1245 -93 1747 1358 1542 3542 -1197 -645 1641 -901 -2053 -689 1568 2229 1770 -1528 -1204 -2304 -1283 220 -2513 773 1075 -322 598 219 -696 -1145 -2063 122 1141 1250 1688 -1138 301 -419 -1160 -2529 -673 -924 -3763 899 -548 7505 3641 -1438 -1578 1955 1994 -3189 -2076 1617 1537 -2664 -9 -207 1100 -2117 -2106 1379 1315 4754 714 1129 -2527 -1172 -1774 -1973 2225 1049 -42 876 889 4590 1137 -282 70 -1435 -12 1602 -1285 -3218 -7518 -4712 -2069 685 2276 1084 -729 -1779 -243 6596 661 -756 -768 -1194 -366 1120 496 -1011 -2786 -2118 -468 -2431 -886 -964 552 -279 2034 3748 -56 530 786 -1125 1544 458 2606 1559 -1244 422 1484 4074 754 -1035 -962 -286 -1500 3183 510 209 -284 -1473 349 623 849 217 -178 2133 -21 -1468 758 -647 -4599 -1367 607 713 2633 164 -75 449 1649 287 -1846 2017 868 1294 1648 1915 974 148 -177 875 1247 5329 1420 1106 -258 622 -1322 -3086 -1265 -1085 -2468 -1298 -790 -1387 -1463 659 -3016 -1097 1410 -724 2861 -457 710 295 -121 1229 2295 1855 756 1154 -114 -2011 -641 1187 4584 3061 -479 1504 -2834 -1048 -1624 -264 -623 3121 787 -2614 -4738 196 -590 -4668 -2145 -2181 -2321 3713 -250 -1211 -1704 -1020 3206 -3369 2463 -3103 -3357 -1360 3742 186 -1664 2892 697 -237 -1306 381 788 4000 482 -296 -108 -1270 1258 170 1000 -1226 3838 550 1047 -568 150 -2116 -3661 -873 -282 779 -1968 228 -755 852 -1402 -4914 -1379 1203 9278 4406 2386 6686 -1301 1184 -391 -163 737 1642 -2264 -813 -2827 349 513 -523 -1584 -1674 1100 1238 -848 -320 -204 355 -1287 -998 17 -8149 1573 547 2677 1383 1472 -372 1072 -1530 317 -458 -979 -62 325 2928 4701 -6676 -1112 -6775 457 -2165 -1398 4196 493 -932 189 455 -5334 -7083 -77 -1364 -3313 408 4399 2562 3131 2960 1533 167 -650 0 1353 -900 -4985 -2297 -2865 -1697 -2496 -1699 1761 -1010 317 622 1579 1826 863 -380 1759 1289 462 -1255 -7 -380 -1840 1513 154 1784 -1395 1746 416 1094 -288 4483 3984 589 304 1352 1249 -1400 -497 1867 3976 -339 888 -2523 -2000 -1455 -4121 1025 -182 -2708 -4089 12 1730 -910 -662 24 -3142 675 3964 -59 217 -905 1105 474 1640 -289 -285 -1810 585 1215 -161 765 -123 -1181 -1566 -3123 -3089 -1779 -1643 -1758 -1397 -797 -1163 1159 -1537 104 800 -678 -401 -2481 -545 -2819 -282 352 1487 288 -552 499 623 82 1577 1040 4312 685 -445 1772 -277 415 -45 -2595 1254 886 -4371 177 -2823 -489 1862 685 2033 -619 1688 5087 4759 381 -4807 1694 1046 -284 589 -1200 2124 926 1558 -775 -40 -497 2184 -279 1711 2460 1653 751 1158 1080 1370 734 2562 2148 2763 -1149 2426 487 244 -140 -3612 -1600 -1874 -1286 -2914 -1696 923 351 64 -2124 -1452 1332 9346 4442 -2205 4095 2649 -1268 -1663 1011 512 -2315 2422 -639 946 -537 111 278 1593 1907 957 310 -1371 -1196 -668 -1342 -5310 -729 170 2300 -2388 -278 4712 4 -617 -590 -2085 2277 10379 -596 -1221 -2145 -1226 856 311 -836 945 -1085 -979 986 1869 2906 368 2783 4134 -2290 -1972 -2831 -856 -398 -103 1045 3585 -771 -4971 -7175 -1982 -2427 -1957 -842 -2528 -889 -323 -4874 -1360 -5224 -1078 -1271 -5275 -1090 -5621 -2067 -2988 -1142 -5368 -362 2120 -2302 230 907 -312 991 2917 3463 1066 -226 1826 -888 474 -282 -660 1339 3047 2686 -1494 -1056 -1706 -710 1237 -2809 182 620 -1369 1593 961 925 -2094 -4004 -871 2202 4657 -1327 -977 2077 1649 -1417 1463 -764 3258 996 -922 -379 -1033 -762 -3839 580 442 1042 88 -1356 1241 126 706 4378 3447 -2101 -5494 -4115 -3337 -7962 -3221 1258 1652 -2438 1284 189 -2553 -1289 -3090 -1104 -1807 -8219 -4025 -1581 -1063 -2704 -2213 -437 118 -3221 -935 -1319 -2649 -625 -1953 -1630 -453 -565 -574 -1651 -908 782 6776 -1082 1879 1314 -1052 -475 206 179 -116 839 71 791 -449 -553 492 -3380 -20 -579 338 -2173 -108 1182 -1638 125 -1641 -3126 -324 1673 1552 -556 -1826 -119 -4068 -5508 -4776 -2164 2482 615 -465 534 722 -594 -55 -461 646 -904 -900 1503 1628 2601 -4274 -3784 2655 -2792 -3136 -5966 714 1082 -2170 -1795 -4666 259 2556 5353 1774 2694 5263 -1170 -826 -3217 -2880 -1036 559 2846 -3307 -7918 -2538 731 400 -420 -1965 5127 673 -1172 2433 -602 -794 -1924 -2890 306 11950 3042 -1239 -759 970 503 1600 -3017 2584 1114 -49 2289 1031 1803 -65 -1326 -612 1799 358 -340 1461 2057 -484 192 -1706 -1393 -2779 79 -523 -1224 3402 936 593 2825 2465 -834 -5611 266 671 -4399 -609 1003 4763 3874 2991 9780 2156 723 -2226 -598 -457 2972 3031 880 2869 -2930 193 -228 61 1195 -648 -1400 814 1889 -743 -1439 361 227 -1010 2256 -27 655 -3281 -2949 -645 -3140 -253 -3628 -1994 -2365 -1418 1120 -5249 -2608 -304 -797 -1926 -910 38 450 2601 -3026 -1854 960 -1607 646 2090 -1873 -543 508 -12 -628 -4354 1042 -1416 4251 240 -1287 3284 7032 247 -3617 -1475 853 -459 1673 -467 777 2259 -1827 -430 -26 -323 -1866 1372 -2509 -1333 -1151 -2455 -1645 -1344 -21 -3906 595 150 -2237 1553 2449 -500 953 709 -3029 -893 -478 -946 -1710 -1027 729 -1299 -1097 -3133 1795 -3972 -1815 143 -1690 -835 -2901 -3160 -5293 1099 3098 5834 112 1393 4505 -3023 -645 1705 -28 -2457 -8051 -5178 -1685 -4348 -3643 440 -1756 -3496 -727 -3029 -985 -377 1000 -662 -1018 -2683 426 -1406 -2562 -2453 503 -1437 184 1672 -1062 2652 1713 91 3165 -1575 2211 2459 -1235 -1625 -1742 -399 3454 1444 319 2235 -1518 -366 2445 1 -2582 -1363 1961 -772 -3014 -1942 -237 -776 -1057 -1050 1497 -860 2371 -1299 -730 -1599 -2717 -1511 -1368 3764 977 104 1303 1793 698 1179 1522 -1915 -7303 -7615 -524 1173 -2805 -365 -527 271 517 2251 -1049 -518 1666 258 -1398 -3205 -1115 -1832 -985 -1990 -628 6401 3228 1737 1196 1318 334 2327 794 1403 1386 747 897 4598 -962 -3850 -3046 -2974 -559 -2073 -1456 -1486 755 2790 1828 353 1922 3503 946 -1326 -1219 -174 1670 357 1325 -2619 -1439 340 -1122 1676 310 -592 -415 -3977 -2892 796 -2596 114 -2119 -2972 -1121 -2220 752 -2456 -3574 75 -1184 -113 2000 999 -141 -1268 542 121 -4305 -671 -1946 75 807 -191 -1789 1792 520 -1875 1128 938 -618 595 -452 -374 2364 -138 5396 -572 -33 -1222 514 -2567 3415 615 -1197 644 -304 1162 591 247 -1097 -289 343 1409 1117 3111 -524 -2165 -2685 -260 1271 -806 -673 656 1251 -2409 1 3149 -649 -3470 -1973 462 2815 -2916 3696 -2398 -1930 857 -3379 -1586 604 3700 4046 -600 -26 -1198 501 5440 562 -342 -1459 -1523 1317 -2857 917 1080 5101 4039 -1083 -1029 1611 -610 556 2856 711 2591 3100 -204 2379 2922 3440 2793 1207 5465 6341 6590 3337 4758 4941 -2009 -4375 -1111 -1869 -5554 -5329 521 -861 -1700 2201 628 2666 869 -8 1620 610 -946 307 -3462 -5286 -5232 -4611 -6048 -4479 -3907 -4464 -2818 1798 2868 1868 726 80 229 -281 629 117 1439 436 137 548 4946 -890 1002 588 -1944 1358 1456 1669 864 -256 -2257 -1420 -2025 240 740 2091 4181 1542 4890 5039 3035 3356 4790 1875 3229 3205 1096 410 1689 3140 499 1347 2416 811 3167 -189 -274 2957 895 2100 1819 969 124 -1483 927 -3556 -1029 57 -1672 -1013 -1665 -2246 -146 -2151 -1582 -170 1060 -868 -1590 -215 -197 551 -1325 1951 -214 -44 2214 -2000 1188 -2863 -2171 1111 -5102 -3714 -332 -931 -2402 2613 496 1436 2588 -96 514 2592 820 1904 -1736 -1817 -3965 -3596 -3059 -4159 -3782 -2692 -3489 1745 3488 4060 -2051 3355 3497 -1430 1248 1057 -202 2468 3640 -778 5406 144 896 487 385 -550 499 -761 -887 404 4739 -209 437 2795 -1511 -1242 150 -1378 -5160 -5416 -768 -3403 -5604 -764 126 -1212 -150 2747 -729 559 3079 631 -2593 -2431 -614 -3009 -376 -571 -1982 700 -74 -298 1397 1235 1073 2524 2394 1305 991 2738 -139 2382 1337 721 4113 1650 3442 270 2360 -2849 -2240 -2434 -4242 -5567 -4816 -3852 -1828 -4331 -229 -451 521 662 3176 -1813 135 1901 927 -625 -1496 -2038 -1959 -2564 -3978 -2486 -3243 -2193 1784 652 135 2924 2660 1655 2756 1143 297 -563 -1804 -1642 1044 788 -3415 3111 1847 -627 -96 748 322 -966 -2498 -1135 -282 -659 -2890 -1006 -1417 -521 -549 540 -1403 -1283 -456 -255 -2004 -1897 -656 -2546 2745 3134 -3136 2155 2568 2072 263 -414 691 3186 581 1345 -636 1517 -1376 1574 -889 594 963 -1134 694 854 364 1451 2024 2416 3065 -1875 2025 1723 910 925 3549 1119 1386 2963 591 1993 1539 1492 1222 -587 -1419 -572 -301 2296 1491 1354 813 -744 487 1437 2322 3135 1813 214 1938 -869 -417 -2010 -2084 -752 -611 -1487 -3714 -2199 -3664 -4295 -505 -1200 -623 5 -2453 -2039 -1083 -2270 -2782 -116 -2009 -766 -2732 -1696 -1585 -2267 -2561 -1055 -2116 687 -928 -188 -889 -2790 495 -1932 285 344 1041 915 2668 2183 759 1849 341 990 -1628 -3132 -3590 -3316 -3686 -2503 463 -181 -1576 2238 -1997 -2012 -630 -3220 -3428 58 -816 -660 3135 3011 1188 599 1632 1164 2100 -309 -2246 473 457 -666 -1055 346 290 75 -898 -946 -1708 -1630 -542 -49 -996 -1221 548 -1742 -3573 1476 -2427 828 1741 2063 4575 5147 2412 3353 1049 2236 1762 2236 -949 1142 723 1793 546 -765 -2417 -2083 -956 -4233 -2097 -1131 -1887 -1635 324 808 283 -588 1166 150 -1761 2028 903 718 -1090 2364 1111 2031 1550 2583 2237 573 -258 -2432 -1462 755 -3520 -739 -233 -2321 -1361 -2824 -2826 593 -1903 1333 -2458 -303 -1885 -2015 -1472 -1917 -1043 -2035 -4944 -2437 -2518 -3819 -615 2359 -2758 -1131 -1877 -6459 -538 -373 -1285 968 -1063 -2124 -3782 -4866 -11011 -7257 -937 -1573 -2322 -354 -1480 -512 -1670 -3748 -821 -1332 -1354 -168 -3051 108 1618 -2246 -883 -1979 -1262 -1725 -2316 496 -991 821 1969 3276 -832 760 887 229 1394 245 -2604 759 2838 1406 902 403 2517 523 961 3709 1348 652 3445 1359 -604 1248 -1183 -1711 1188 -2709 -4271 -1237 -664 -1510 -1443 -903 -3805 -1666 483 624 2213 30 -25 1206 116 969 2647 576 1805 2017 1247 2171 2761 503 1033 829 1612 3200 430 2376 712 -1692 -436 -1109 -148 -470 -2411 -2987 -1589 -3578 -1073 1404 -531 -1687 -2672 -4740 -1812 -977 -1230 468 -1369 -1888 -724 -3721 -932 -936 -2115 -1727 -1343 -6148 -6809 -7353 -7600 -6397 -8443 -7214 -7695 -7486 154 1030 -1574 2095 -2654 -2106 -750 366 511 -518 -3732 -2164 -2065 -2345 -919 -1363 -1035 -451 2017 2491 -1503 1920 2311 971 1165 2257 -397 -2247 -2066 -1486 -73 -672 -1166 -1254 -1019 -52 3099 998 -570 3363 6595 4058 -529 3003 1411 891 4226 3033 -273 -1654 4107 1089 2123 2769 -349 741 -986 -1592 376 -1292 -192 471 1492 783 1563 449 2085 3659 -364 -643 1131 -1186 368 -234 -232 -3422 -4681 -2841 -2820 -4946 -2528 1224 636 1713 673 -828 918 -191 655 -297 1398 1650 2298 202 -2070 886 -677 -1001 -56 -379 484 -157 2380 512 80 2123 530 3901 -3251 -1266 -343 -946 4791 2786 -286 2864 160 -1403 -619 -1048 -618 1041 770 -22 41 -786 -3408 -2110 221 -2717 -6120 -2431 -787 -1443 -2280 184 -822 -669 -1247 -1503 -1354 10 -501 -356 804 1226 -2126 436 -246 36 -3199 -285 -2120 2087 -676 2225 3037 1523 2924 1331 3664 3496 -294 468 -542 1475 -3260 -858 1454 -1789 1576 -922 -2340 -2592 1728 1841 1195 32 1038 381 1283 972 678 516 2270 -798 -1195 -218 1307 -509 784 778 1429 -3008 862 839 -1338 -48 -485 -3680 -1481 -324 -2442 -2745 -488 -1403 -1292 -48 -2454 -1011 -444 -2342 -2051 -93 -2422 -2388 210 397 1262 -1425 -743 -1433 -576 -894 -965 -1676 387 1622 524 2612 6731 -1865 6663 6200 -1468 -58 -1489 -573 -901 -556 -665 -1228 -2902 125 -1069 290 1010 -1464 -2816 405 -410 -1756 -904 897 -422 1025 2827 1264 1128 1397 285 -1883 -621 -3045 -2300 -6113 -3590 -898 -2743 -2867 3093 3559 -1303 515 8229 5518 -928 -2006 2060 637 -719 627 31 -3052 -112 4 -1029 -742 -842 -3674 -1154 -1138 12 -136 -1250 327 -549 1984 -693 2392 4486 3934 2806 3652 -294 736 -2409 -2359 -941 -2733 -2825 -3227 -80 -2430 -1875 -1097 -467 -459 -864 -3823 -1952 -226 -726 1315 -178 1849 46 -2316 1422 1163 -1144 -2022 -2018 152 -210 -920 627 -1915 -1087 423 -1006 -1719 473 1035 1621 3494 2575 3869 2211 4793 1431 -499 -1316 -1405 -1939 -1619 -886 -2264 -3905 96 253 2691 1000 1418 656 72 4123 5812 856 1280 4251 2944 497 4687 3786 -1258 484 2689 -191 1308 1336 1223 4326 -244 1606 406 -269 1410 1082 611 3157 4163 2013 3281 3381 2761 45 -385 -2217 -1032 -1737 -2096 -1738 -1989 -362 722 1262 1238 592 -2848 -1621 123 -1863 102 -2335 -4100 -2863 -1167 -7193 -5399 -1346 -5366 -5462 -2500 -2753 -84 -1622 -2813 202 946 -1126 -948 989 2302 3096 3359 396 -309 2186 -19 -455 1068 1064 2048 1890 3030 501 1657 2172 1048 887 384 1488 1607 1800 3599 645 1722 3274 -80 -1901 -3967 153 -3878 -2751 -3015 -2377 -2980 -1030 -517 -854 -2282 -69 -658 -2652 116 865 249 2712 3607 2871 8453 2383 4476 4113 -1678 1380 582 -76 2307 485 1762 2389 1411 2616 -1198 -794 662 -1251 1126 -367 -904 -92 902 -196 163 -645 -1108 607 -612 -1183 -922 -2009 1332 -925 -771 -1112 1643 227 -1013 -367 -168 185 -2845 -2421 2459 -383 -329 1256 8000 1097 -3180 -1758 448 -1882 3622 -1237 -319 -532 -1632 652 2255 -905 -221 -105 -520 -644 -1685 -830 1706 1121 1059 296 -691 146 1962 1093 581 1309 1998 -535 1283 2703 -3245 -327 -2812 -2371 1445 1500 695 1017 878 1433 -2353 3093 492 1766 -732 -357 -261 -123 -1779 456 214 487 -10 47 1014 -516 232 288 -501 3493 76 -326 -132 -695 -1301 -557 -1039 -1545 379 -1055 -296 -280 -3950 1366 -2477 -5390 -4394 -6855 -8940 -2338 -1643 -2789 -75 -972 -4471 -1278 1993 -656 1759 -2363 -745 -1724 225 40 838 808 752 -1771 -4111 -4358 1685 -144 -5750 -343 684 -3957 -256 -479 -1411 263 4879 -656 -1167 2551 500 549 0 846 712 1749 3396 1289 209 1660 -696 -2527 -1333 -1400 8279 -1590 405 -1535 738 -1278 -784 -1974 105 -4216 -399 1493 966 1627 -821 1423 -2433 -377 890 -1836 379 -374 -826 878 340 2904 438 5130 2950 -138 1395 2224 2041 -454 -1014 1230 100 3580 971 122 -491 -157 -1018 1174 5872 -585 181 1297 -908 223 1050 -1487 -1339 -1544 -1920 1456 1550 305 -742 2340 880 -1123 -103 -331 -1620 201 1306 -27 -1502 -1282 -1796 -240 -2866 -1473 -1738 -2343 -945 -941 -2188 -1698 -2701 -5366 3875 -1536 -764 2798 -2006 -1554 -1101 -2566 -6193 -2071 -2029 -1987 -886 -906 467 -584 -872 1152 -2108 -1067 -976 -239 315 110 -265 1391 -190 -3405 2934 459 -2422 1177 1744 -154 159 2481 821 -2815 -941 -114 -559 -768 79 3241 3582 -3681 -604 -380 -1628 183 667 1441 1338 -60 2127 2002 -4940 -1003 -2164 -940 -172 -1877 660 57 462 -1139 -2234 -390 1395 -1145 381 3232 -2194 -1845 -3024 -1192 8 -396 -67 -990 928 452 -1521 88 316 -977 1576 831 -1762 -1572 276 -2017 -2750 -453 -403 1160 -1761 683 -2045 -740 -1602 705 -353 -979 -766 -377 506 -825 -966 1082 1371 -773 -9 968 1308 463 836 882 -775 -2063 0 1620 -181 -492 1682 -1957 -1323 1744 -653 -2532 3556 2805 2419 1425 1822 4008 48 -208 2700 4 -3169 182 -882 -7605 1275 1001 4897 2538 -1447 -959 -892 -2092 -1319 1313 -1498 -3243 -268 837 -304 -576 -1424 -1706 -149 -2850 -2782 -736 602 2252 2661 2248 2661 2344 2172 2343 1483 121 -38 -2545 829 2045 -941 -166 -2543 1201 -844 -112 -695 -1454 2183 -1697 -1285 1008 -396 -1331 -1684 -2539 -2182 975 -1330 -2464 -2027 -975 42 -160 -472 -1524 1428 -403 -843 557 1064 -539 36 884 29 1120 2932 522 2902 2001 -414 814 1177 -947 -1815 -2200 -1982 -114 115 -1024 93 -1456 2533 -1195 -2334 1348 3567 -1621 -557 460 -503 -1822 1141 -105 -2709 -2079 -2769 1298 1394 2341 1279 2257 3462 732 1886 2076 1579 1046 430 -397 14 -657 -2099 -1586 1101 412 1298 1935 2795 8560 3446 -891 3316 -376 -5278 -6314 -2367 -2374 -1356 2897 -1825 2396 1229 -1634 761 247 -1514 -1083 -2762 1595 3193 1384 -765 398 68 -151 4071 957 81 -172 -1036 2508 957 1631 -1404 -2418 2715 -1094 -2485 -592 1570 708 203 1636 1726 2009 -913 -1806 -27 -1060 -979 -405 -308 1177 -1789 -1030 3517 -247 -278 513 -883 1134 2684 -1362 -899 -1616 1071 -1187 326 -1156 -2188 3358 1448 -5210 -5845 -3509 24 2993 158 1440 1610 -8267 207 1650 -3401 367 442 -19 1406 923 1898 -274 514 1054 -543 1193 -2224 1075 33 1136 2777 -169 318 -1127 -211 -670 1337 3003 175 0 -234 607 190 115 1966 2568 8628 3255 1361 1621 650 2790 1057 -1035 -272 -3424 -3788 -1533 -4889 -3207 2123 -534 602 1515 -75 265 1935 1295 539 1408 -1075 3235 1673 2621 4128 2049 4169 -747 -429 507 -801 -104 823 -391 -319 46 -857 1742 -2514 -1519 -7 -834 1001 -1085 -2092 1586 1342 2583 1121 993 2053 2692 -731 2000 957 -824 -3587 -4073 1162 -3481 -3801 191 -1900 -3686 2361 993 -622 -896 1383 1641 -1437 -2967 450 1042 943 2452 837 -3292 5301 82 -778 -574 977 -1608 -211 1661 -553 1458 -1023 -866 85 2148 3503 3249 -1255 1840 73 1502 3304 1764 571 1754 -58 2027 -559 1248 1272 2117 612 264 -1446 -183 -695 -2243 -2707 1244 3475 -1029 -433 1453 1704 855 -2217 979 -1242 -1712 -796 -1858 457 -774 954 -2242 -1640 1844 438 2057 520 2049 -481 901 -1180 -2510 -1789 -4362 -489 -561 904 135 2563 -322 -1791 -1322 -1589 -1913 349 -1300 1653 -705 -88 1859 412 2634 1266 -2396 -388 2755 -2059 -1264 3276 -55 -110 1758 31 1167 543 970 3749 -3096 84 -423 -1363 -694 1156 2272 455 3329 2046 18 2018 648 2810 -404 -407 -2129 -2421 875 -670 -540 2780 651 511 1227 314 653 1526 -834 1808 1622 654 504 278 -182 543 -551 883 146 277 1216 986 1030 1350 3198 4854 -612 -380 -430 -732 -741 383 311 -2146 -860 222 -1131 -1705 502 -123 -2522 1410 165 -2865 -693 -2601 -1824 -1307 -2338 -2250 765 2676 1073 -1082 -1950 -253 -151 -651 -129 -741 -3206 -2141 -558 -2679 -1450 -1393 408 402 -4206 -3167 -4502 -3151 -3192 207 719 -2176 -715 -805 -1482 4340 -1060 -1587 2596 -868 3811 525 744 2777 2797 1515 2456 1541 -1039 1355 974 -2612 1735 428 -2197 544 2369 -884 605 -1024 -2505 -1408 4183 -7966 -6780 -3186 3759 2750 1676 1235 -829 1612 2629 247 1431 -623 -67 -1737 -1973 214 -932 751 1666 1118 1485 3927 1673 2678 7270 6362 1000 5398 3954 -598 490 1798 1389 5289 -1967 -1154 -6025 -3661 1256 303 1387 1316 -1279 -348 -519 1939 -1870 -1141 1389 -558 -1519 285 817 -170 -4710 -3335 2688 1652 449 -847 771 2664 427 1623 -175 -896 225 -1037 -2499 -2847 -4943 -2934 -3924 -2502 791 -504 -6 2089 3762 2581 416 -2774 583 1164 -487 -345 1667 2556 -2176 -1149 862 -321 -531 -703 69 -2855 1867 3042 1004 3141 4593 -1158 -1829 -484 -1237 -1770 1083 740 1222 -658 -2016 930 -1392 -388 1606 -1046 -2192 -250 343 337 656 893 376 246 -27 -479 129 862 -48 -210 -932 -634 228 686 -42 -164 -378 2013 4947 -505 -604 7037 1618 537 3401 2058 -896 -156 476 -1645 -1445 -1032 -1969 -3302 -1196 -1285 599 -1096 -192 -522 -1705 206 1534 951 -1412 355 -589 120 -228 593 -177 1604 1248 800 1663 115 -428 -406 1151 1537 1259 785 -1432 -2201 -779 -3137 -2245 4518 -1363 -3430 415 -518 1630 925 1670 7305 -1522 214 450 -1400 391 1725 -654 -1100 -3016 -1967 -490 444 -111 -452 -988 -305 -48 1687 104 313 921 -1221 -2030 -604 -713 609 -816 150 696 526 -345 -323 -1679 -254 -156 618 1289 -649 649 2857 222 -1906 -2446 -676 -2078 -2680 -2906 -2453 269 49 -779 -146 -1025 -361 -2215 244 -2509 -2561 -3443 -1171 -1621 -193 5067 1477 -881 -444 -351 1560 -424 154 1617 55 -920 1902 2658 1361 45 2024 2934 2080 9410 2726 934 6925 1761 232 1393 -2245 -77 -999 -2605 -748 680 2015 192 777 -585 974 1952 -114 -736 245 2624 -1092 -1152 1300 661 243 1747 -1394 4400 178 -478 -609 -372 1143 -2372 1351 -309 -448 1217 637 2883 1747 -397 299 -1732 -316 169 -543 520 1268 -315 -309 1805 -695 545 -1518 186 2561 1544 16 -74 -494 -1028 964 -636 -4999 804 -273 -3058 -1400 -1223 -3739 -1387 -1916 -1139 314 809 -380 708 1024 198 -1162 -680 -401 83 -919 -336 -286 2638 202 -964 -911 -1642 -1030 1122 3605 -475 1020 1143 -469 -856 -136 -1492 -1966 278 -2486 -7209 480 -2713 -3265 494 93 -950 824 -2305 -277 1717 -713 -44 3058 -1188 -525 -1271 -1007 1767 -2731 204 -1658 -363 -832 -2340 -2149 -1271 -5007 -205 -1027 -4744 -4718 1544 4647 1671 3366 4273 -459 2227 3780 1047 -546 -1221 -808 1518 -2004 279 -1860 1660 -1596 -1592 196 -809 -696 -311 1080 -1507 1106 504 -301 535 1486 -426 569 2981 1446 -231 -1446 -42 721 -4633 957 -5237 -6163 -1284 -3917 -3545 369 246 24 -682 -3530 1510 -3067 -957 943 458 1507 -815 395 1806 569 375 59 1395 -609 -1748 812 824 828 -366 -2881 -130 60 -48 -913 -772 -2225 -2873 -700 519 -816 246 2098 7285 2906 979 11561 2416 2483 7043 3267 971 -810 -1931 -3331 -2685 -4078 -2945 -2039 -1646 -212 -473 -441 -1692 -2705 779 1194 -2161 -396 -707 4016 4134 2186 7647 3440 2665 4619 5433 1353 1360 784 1470 2490 1969 -227 2876 800 401 -1560 223 1025 -71 15 0 637 1275 710 1561 -1098 147 -860 -855 194 -599 -293 -1001 -1254 -1878 -265 141 -1290 1089 186 -959 -974 1715 1980 -814 -1760 -32 2274 705 -1061 -263 -1139 -1286 -926 -101 27 -133 2838 1682 47 -1347 352 -343 1332 -997 -558 396 912 -51 1059 1782 414 -1650 -733 -958 -729 -200 0 387 1216 2047 -1469 728 930 1665 1506 -1497 182 -2729 -2514 -3492 -6300 -2380 -2646 -4046 -3102 -2316 -1865 -945 -3044 -4504 -1734 -3068 -1897 -580 -1291 -1229 -843 4338 -631 -1404 1524 -571 -652 2136 -844 -945 5222 5689 2830 1638 4287 -1418 2501 575 -856 1530 4653 1089 -2727 -177 1422 1309 1694 878 1724 1820 543 2824 1226 -928 -1366 -426 -664 369 403 -484 1514 2696 831 2426 1970 -924 5276 1489 2 1613 -267 1802 3838 659 4550 5079 2269 3883 4020 876 27 -610 -990 -170 -471 182 152 73 -3021 -2394 -1000 -1304 1845 -735 -1984 -734 -94 -2121 -286 -733 451 1311 2638 -1712 822 852 -1334 -1616 -184 -1456 36 1323 491 -668 604 -1931 2173 4459 -2023 630 4690 -929 829 1316 608 897 21 -608 -1937 330 -802 -255 820 877 1008 2324 1076 930 2697 -460 737 1954 -1386 -844 -2529 356 -2290 -8014 964 -2789 -6918 -2431 -2513 -3755 -1034 343 -6484 -3686 797 -973 -1347 -1377 -2094 1401 353 3475 2033 -1813 3709 4522 -806 204 -1463 -804 -95 -574 191 -443 753 337 994 -1218 2090 2683 203 -772 -563 -1205 -433 -4002 -3184 -6721 -10678 -9026 -3892 -8075 -7611 -406 761 -1351 602 1479 1021 -2135 323 939 -218 1913 210 891 4062 -1523 -752 -13 -31 615 -41 393 240 4803 1002 275 -1400 -1457 -2314 -1953 -987 -1352 311 565 -1564 -1244 -1661 2477 1661 -200 1196 -928 -1370 1223 63 -2294 1463 -3173 492 -1601 -2677 -440 197 -1145 1070 -831 346 937 559 800 832 -704 -132 670 -1146 -1411 2920 -1547 1297 2854 -746 136 59 -50 -965 349 -260 845 -2026 96 422 -1472 -1361 -2118 -331 -66 2828 1017 278 625 -851 714 1899 -131 1938 482 730 -181 -801 -379 -2312 -1656 -550 -1876 -1485 -1143 -2033 -2802 -3191 -2985 -6343 -2814 -1734 -9478 -5730 -2161 -6440 -7513 339 -2178 199 -715 -5424 -1193 -574 -3369 -1176 -2557 -1182 290 -3194 1397 1170 -2327 781 1989 -689 -312 -1087 1000 -79 -771 682 -628 -1390 1418 690 1394 2888 7302 2705 1268 4906 592 -150 -614 -686 -2837 -133 -2128 513 -1028 -455 1507 575 -1482 1446 -1404 -3107 672 -297 -36 -143 3058 1773 2375 3349 1599 1733 2665 797 -1481 -814 -699 -1011 241 -2068 46 -1914 -1707 -947 -3360 -2749 -4776 -9631 -1816 -3492 -4441 -1995 1071 -1228 -123 537 -2386 -2356 1825 -3361 -2968 739 -1627 -631 426 1056 1169 1614 614 -1116 550 -976 -135 -487 2071 949 -1140 -1336 877 2615 3987 2809 5695 11219 5606 274 5758 3659 -1621 1618 -1547 -1327 1126 863 -847 912 844 148 3834 3538 2414 5853 5830 3455 4227 4830 658 240 -2522 -2429 377 -2052 -1323 -147 -2774 902 1328 2549 -97 444 2893 1809 -1232 12 32 937 -624 -9 1532 1182 1037 1082 1255 2850 -14 1744 2865 1054 916 2618 294 1117 -1194 2887 1909 933 1109 517 -63 1163 520 691 -50 -1324 -1104 -586 -1534 -1371 -1095 -2198 -842 -3347 -2918 730 -5264 -1171 -611 -3890 -1619 -1301 -1875 -1014 309 706 -1431 -623 -121 -687 -1389 -1673 145 -613 -551 -1168 -797 -53 -496 -958 -591 399 -1330 -2105 2495 -1195 -484 388 -3000 5194 5521 511 10176 13353 205 2682 5068 -539 -578 244 1494 2420 2856 1946 1689 739 -358 2064 1432 -1135 806 -58 -124 349 -1337 -190 1948 -196 -222 -643 -396 686 583 -377 202 578 762 2429 6736 -265 637 3432 988 -1822 -1713 136 -928 -5608 -2514 1472 1006 -4886 517 -280 -711 -2756 -1699 347 466 -1264 1656 -65 908 1130 1295 -264 -111 335 -172 1716 -1196 297 1765 120 -1641 1583 -792 -1405 1315 290 1007 -960 299 -1024 540 -1084 -389 1768 -1394 -7336 -4120 -9847 -13648 -2759 -7968 -10447 -576 -1793 -1042 -429 1201 -2449 -729 -1342 499 425 24 -808 381 -1177 1035 -470 -113 -518 -268 -503 4316 5 1367 3691 201 2763 2500 1636 -2616 -377 192 -2837 1010 7376 -2000 -3184 2202 -1825 -538 894 -2821 -2835 2837 -2214 -2402 -478 -859 1242 -824 -987 -2351 -2407 -1110 -1741 -759 881 848 -418 34 -749 60 -1791 549 765 1342 395 49 -990 -1638 -191 -1406 -149 1712 -1567 -485 -1080 1020 366 -990 448 923 568 -2432 -4638 -871 -358 -13646 -526 680 -6597 -3168 -712 2054 4224 406 4309 5322 -624 3935 2598 310 1990 936 2579 2912 439 1256 2283 -84 1758 4850 1130 2347 8554 3503 864 5236 2991 -2160 802 957 -1034 354 342 -403 1124 458 -1193 -115 -1109 97 -6 -860 -496 -1956 -880 1868 988 1272 1349 2316 5222 -1314 -1501 1611 -30 850 131 2010 91 -896 2245 2244 238 241 216 -257 -339 329 50 -1111 -636 -66 -2110 -1351 -3009 1730 7264 670 1059 2010 1561 484 2464 314 795 1888 -610 -246 -104 810 -685 -1108 -728 -324 -1042 -299 -2877 -1084 -68 716 3720 949 274 3296 2470 1153 384 1333 689 274 1069 -585 -1056 140 1255 1156 399 171 415 -747 -2040 -623 -959 148 44 -553 -3167 -1981 -1781 -1399 4666 4976 -1189 5194 6300 -165 -3177 3042 937 -5421 388 2376 87 1829 -1280 -64 -537 -33 160 -182 254 -207 -852 2254 2262 1455 222 2042 1392 235 502 2244 -815 2939 1440 854 2637 1411 -613 2323 13 -1055 228 -1458 15 3869 1443 462 380 -140 -1816 331 1410 -241 1048 701 3665 2976 -114 -242 -707 -1155 -1616 -376 -1901 -1552 -1308 -1108 -287 615 -1251 -1507 2605 -366 -2830 602 757 -242 58 -1443 1004 1827 130 294 -242 397 -718 -613 -1447 -430 -1134 1691 89 -606 529 932 -1253 -1463 923 -2487 -1038 -1111 429 -611 289 478 -579 -30 -322 1688 -394 -316 2323 810 433 511 -1062 492 -506 205 200 140 -773 2263 342 35 1851 -511 337 2259 1142 -387 248 261 424 1133 539 -1416 -1633 -426 736 -1851 846 -332 -6158 -939 -130 -2505 -736 606 2287 1218 1723 -832 -863 -45 1034 645 415 -1156 -1703 682 1250 -254 -52 -974 -498 -160 -1575 -1741 -570 -94 -1314 1051 922 431 -257 239 -26 1780 -1231 -2093 -1551 -2334 -1084 -1271 1185 -617 -171 954 84 1215 181 1530 445 -719 -330 126 1047 305 560 -416 -159 60 424 -186 542 779 729 55 183 466 844 185 930 -934 -661 678 -632 -561 -535 612 725 -1698 1249 1054 -97 -490 -517 6 -521 386 -1551 -2006 571 -1742 -1331 -1230 -306 -134 1775 86 1200 2020 893 1159 2148 -519 256 -299 -314 1337 2319 1142 -471 786 -455 1356 560 -2117 -1080 805 -546 -6657 -4279 -2456 -3691 -2877 -1561 -3482 -6838 -3265 -251 -1977 -1691 -3318 -7551 -2148 -2835 -6041 -3576 -2414 -5777 -5999 1342 1080 528 10 1756 607 1127 -253 -1552 -190 2070 914 2020 1814 -1205 1482 224 1030 653 -684 -669 153 320 -490 -1062 784 -22 -1522 -2941 -2892 485 -726 -3782 2363 1306 386 1334 1426 -1025 -205 1461 -276 -800 345 -1225 -81 2030 -1295 -6 -709 -592 1045 1756 1246 -20 -1268 250 -1564 1103 -608 -107 -126 420 629 1079 558 -703 -166 -445 -482 -90 1773 884 256 -411 -158 589 144 271 275 -654 -484 150 -1857 558 -1476 1019 345 -1318 1444 657 1819 239 1191 -168 2388 -1005 -259 1833 1074 111 85 -1195 129 785 1726 1514 789 411 710 -1012 466 -1179 836 45 1333 449 -2640 -1556 -4293 -1761 3173 -2012 -2095 4933 -211 2647 2320 3846 434 -641 767 4451 -2346 -456 -1315 646 -327 1674 853 1166 1716 2834 738 431 -857 612 -425 821 670 -379 -863 -39 16 758 -18 -3934 -2348 -610 -5588 -5397 -1766 855 2419 1967 2167 827 572 1729 3668 3475 -620 -1579 -1532 -126 3802 555 -325 152 -2133 972 1212 -1715 -80 947 2182 730 269 1172 1969 3999 2793 496 6572 3925 -535 -419 2907 139 1377 -1843 -227 2006 -2480 630 1049 522 1265 817 370 818 -883 458 -885 16 -886 310 -606 -1247 786 -843 -1766 -163 -679 -747 962 1138 347 963 -2552 -1609 190 -1023 -1506 -1807 3522 865 1495 10125 2240 578 2816 129 1465 1371 -375 1308 -421 -2087 -781 -1238 -356 1096 125 691 -1414 -370 -1322 -1412 -1461 -1623 -709 314 -1293 2998 10772 4961 -170 5005 2493 427 192 430 1416 1381 2742 510 313 824 -1418 1516 671 1152 589 -277 378 -1394 -2031 954 -1264 343 1413 257 851 1431 2569 1825 567 874 -950 539 554 136 -1276 -794 -76 552 911 496 150 673 541 529 540 -460 -418 1724 -396 -1215 -426 -344 911 309 -84 358 -231 -164 -1135 -2273 -981 -698 -522 776 -826 -1288 1027 596 2542 -411 -525 -2156 -1664 1310 49 -229 1723 880 -1485 729 1034 -609 -313 -750 1135 -314 -1510 -1319 -694 179 -1452 -962 3034 1042 -369 12849 3665 -2571 813 -2476 875 -494 1098 -708 -2571 5 -3182 -2143 -1601 511 90 -369 -1206 194 -332 -209 -1386 -2138 1083 -1624 258 123 -1642 -916 811 75 2162 1927 -1399 -1450 -3078 238 334 -1182 549 -86 188 -1094 -3622 63 -2676 -5122 1200 -1781 -3354 1705 1690 1365 1219 1543 314 447 1310 -97 -331 895 1080 1226 396 596 530 -104 -992 -42 -1001 -2423 834 1695 -4343 518 1271 -2575 -433 -349 -1873 -861 -935 -715 461 159 1189 1531 225 -723 1950 2448 1085 -512 772 -235 -3486 1376 -1829 -125 7738 325 2845 5333 -2475 414 888 1507 1209 1920 92 -827 -438 -1439 -460 1769 1260 864 1578 1183 -1894 223 -758 2793 -575 -284 1791 2269 -285 318 2248 2102 -253 1242 740 1846 1530 336 931 1547 1180 -1056 -1352 -1176 -1106 -54 -1947 -3337 -2578 -2897 -707 -1628 -1326 -733 -535 11 -89 -1059 -1127 -223 -716 -1888 796 -612 170 908 1766 2025 -1412 -2129 142 -1569 -926 -984 -121 -2058 -1969 -909 1826 -347 1030 -1468 -1158 5715 4877 1846 -972 1489 -1286 -2896 -2551 -854 -647 -878 -557 -834 -1543 -1717 -1097 -989 -700 -116 1190 -626 -2099 2122 -364 1156 6486 2272 -1566 889 -4452 2433 2760 -269 2567 1377 -3217 294 -2548 -3303 -311 1083 -43 -1969 -2023 650 493 -720 -589 -357 -235 -59 -1674 -1988 -2317 -1686 -2044 -1460 -1517 -852 -2368 -780 -2903 450 -2668 -2987 -1943 -647 1287 882 -1043 -278 0 -888 622 -766 450 -3161 -1859 -4839 -6165 -4406 -3049 -6622 -3082 -1868 124 -1482 -1067 545 -1174 -369 1645 802 621 25 -1812 1379 2519 -1475 888 -133 -246 -76 145 394 547 -1583 161 2 1253 333 1160 -123 -3015 783 -5693 2845 507 2232 1623 -621 46 -460 -755 -1938 -480 323 -966 -5 -1113 -727 -512 668 1548 2108 -647 -1414 -316 161 -1811 -2269 3906 9642 -444 226 1607 -771 728 -730 -323 1877 -1981 -1655 23 -1578 -2003 -1302 573 747 149 -2306 -464 -860 -768 502 -922 992 -506 -399 679 -854 -255 845 -1187 -159 -1209 -726 -521 -283 182 654 3751 944 -775 260 -1757 -1438 -1008 147 -366 -1179 -166 548 2032 -71 198 -46 310 872 -1156 60 -472 285 -786 -826 -96 227 -2528 -216 -458 -154 161 562 2 793 -221 723 594 165 -741 1124 299 -311 1604 833 -143 -1797 160 458 973 1239 285 -1244 722 1123 27 2301 1278 2344 1421 -42 712 -855 -3157 1974 1753 2210 -932 -2584 880 -2169 -863 499 -2250 -297 715 548 3243 -1156 -77 -1043 1145 2496 1426 -149 1482 889 2174 1685 227 1304 2067 703 2451 3156 2427 -1939 -2211 -1969 -1082 -684 954 -729 399 -1209 -2137 -849 -3012 475 -93 -541 411 2974 3082 47 3520 1661 -497 4663 3026 593 66 -839 -183 -2293 -333 1256 -81 -34 -468 135 261 -353 -302 975 1075 758 106 -429 358 -2224 -1025 -112 -2322 -1393 -911 70 -1963 -411 219 156 320 283 -333 432 -1260 -2090 -4237 -2740 1832 644 1175 -311 -1615 -1609 -261 -1328 -1161 -570 -2670 -1647 -586 169 198 -328 436 -2161 -1707 -2474 -2479 -43 -818 -933 -1775 -1531 -2568 -193 -2960 -1739 -4247 -2906 -3764 905 -3961 -1806 1624 1063 -433 1850 3803 262 1856 435 237 -183 3613 909 940 1544 -989 -1255 1268 -505 -338 4333 -2482 -14 1238 -409 -1758 -2873 -195 -791 1810 -749 1076 -1107 -258 -452 1312 -1284 2048 4242 -1219 -610 4075 206 -871 2536 1520 297 2057 595 578 404 -1569 1036 -1082 964 1010 -24 2428 1490 429 1038 957 2191 1786 397 669 3664 2425 2197 4505 -461 5016 3924 1933 7179 2828 501 5806 2951 -644 -538 -1026 184 -1001 734 -783 -2164 -151 -153 183 -346 805 114 -2096 709 2293 -551 -56 881 -365 1648 -11 812 -138 -1357 -127 1465 -2596 415 -836 -7093 -433 2559 -1185 1297 -761 -922 -715 3365 9042 5699 345 786 17 727 1243 3132 91 -246 1805 -98 648 88 780 -2760 -1193 -2313 -6298 -5167 4539 4761 6007 400 -634 755 776 -1204 -259 -1876 -1733 -1167 -259 -377 866 -857 88 -1701 -2186 -584 -1605 -1351 -600 -608 -738 -928 -639 -353 580 -2038 -2293 -2481 -2093 115 -1835 -750 -466 -2010 -3238 -912 -2970 -2670 -1319 -4158 -3721 -2105 -2734 -1327 2361 1847 1638 1418 66 -1321 1697 -883 -3490 -1943 -2325 -2994 -1510 -2674 87 -1535 -4513 -2802 -2682 -1727 -184 -6105 -4779 -1926 180 674 118 -636 -881 -282 -2068 -464 -496 -310 1753 1192 -129 -2449 -788 95 -1153 1299 90 -266 -503 408 273 222 -1940 1723 2719 70 150 292 -1251 3126 613 3004 6278 5185 -3225 -2218 -2745 7 -941 -1569 234 -488 1119 151 -1803 97 -1802 -3158 -917 -1107 -1395 -2282 -1362 848 -741 -1581 -260 -689 1459 -1633 1339 -409 -804 564 -1569 2027 449 255 2307 -1239 -1936 1005 1617 -826 -3024 -1547 -719 -5536 -2888 902 -1599 -2422 90 -1157 649 449 -2523 -1345 -469 760 913 510 -200 2189 2600 161 842 808 1838 2478 -1503 1419 646 -727 -1671 279 -1059 251 -934 1476 153 562 2544 1597 2197 -85 -1528 -322 1695 2572 1684 682 761 6 1037 -1387 -2 -811 -1448 -762 -63 -3491 -1227 -1364 -2608 -2380 -1554 3304 1096 -1369 2671 395 -663 1556 -828 -957 1372 1917 153 -1084 -1872 -2194 2646 144 311 5637 3246 6498 15613 9225 4468 11790 5780 253 273 1289 1648 1818 1076 1852 1314 465 4833 3177 549 -136 -3516 -2495 -1529 -136 1340 727 1926 463 1866 3534 1670 -699 742 -1430 423 -1197 -481 9 -1703 -1553 -1892 -832 -1565 -1180 -2471 640 -371 -3738 -658 -431 -1020 -1143 -4702 -3597 -2015 -4053 1450 -1238 -1066 892 -1130 859 835 -210 17 89 -241 -2065 -1785 662 2136 1360 1455 263 -144 2281 500 5513 3472 1626 2185 945 2863 1165 -492 347 1159 731 429 -149 -925 1594 -151 91 951 120 -309 -971 1416 878 2436 4604 2528 -779 -196 -231 -291 -1945 -2482 294 -1532 -2827 -3188 -3315 -1265 -2426 -1846 1092 -1501 671 1626 -477 -2203 741 -261 -1255 85 -1707 -3373 -2146 -465 510 1157 407 -376 554 2024 1863 269 433 2920 -566 -1010 -643 1221 433 830 3298 -620 1411 3464 408 -984 2752 321 -1684 -864 369 -791 -2861 1858 2842 2026 -666 -2874 -37 1042 1782 404 585 -336 1438 2620 827 2096 1749 -1346 -743 1875 630 -235 467 937 350 -175 -819 -1977 196 301 -911 -1176 -102 -2706 -1378 1475 -2091 -2451 1889 -1091 608 8327 2665 627 3118 695 861 2079 -1070 -1793 969 -2421 2180 3873 -322 -1138 302 -903 -2366 89 -2703 4 -1002 -184 -1109 -330 -170 403 -435 -926 -988 -2170 -1638 1889 2407 1731 -1628 -3133 -2551 702 1148 1383 -454 -1046 -782 584 278 -288 -2494 -3989 -2121 -1438 -1336 -219 -2161 -675 -2343 -1045 -1250 -3171 -79 544 -1634 1125 1713 -405 1657 2031 -223 -2175 665 825 -2370 775 1113 -2553 -2986 282 -1016 -549 1186 382 -2951 89 568 -4962 -1138 1580 -1011 2859 1119 -1023 1119 1009 512 1681 -1307 -1040 2483 -1227 -6444 -2357 3551 323 1384 -780 603 -263 -1862 -2691 -1038 -400 -2175 -621 -172 876 1058 1458 2349 3479 1116 2746 2783 1168 2336 365 -610 -2378 -1735 -1086 722 547 -765 -12 823 1731 6215 3484 390 2918 2066 -1246 -2680 -3332 2927 137 -1578 -685 1739 -2138 2181 981 2054 2297 -1720 -1894 1027 -1018 89 -372 63 -45 602 1191 713 1028 449 2795 -974 767 -1415 -581 3025 106 -2213 -2212 -2291 29 -485 96 -1197 -249 787 -197 -1937 -158 793 3895 811 4488 3805 4885 -1807 -2195 -994 295 -1039 -1296 1987 2386 -1342 992 2165 1083 -730 -1119 -516 -501 2553 970 1115 -1080 -1046 -1468 2967 671 2570 3822 976 -824 -1788 -4383 -1066 -1783 -2669 -1836 -307 -2179 -738 -173 -1610 -2096 -1736 -1342 272 1765 -1136 -1582 -423 719 809 2447 -126 407 746 -1369 -570 -2151 -3153 55 943 -1073 -3085 -2465 -2311 757 -1912 -2365 10 -842 518 -2385 -475 -2338 -2922 -5429 -3822 1122 155 383 800 727 1952 610 -598 2302 -801 4253 1735 2365 6427 3407 2055 4004 -16 -108 -499 1066 -1537 -2270 -228 1212 3976 2911 -2623 3130 1302 -3909 2522 -2030 -2540 3760 -681 134 93 -3654 4934 2308 -25 336 589 -3030 -1144 -2589 817 -1119 -3418 890 -438 -2373 -70 38 656 -2426 363 518 1055 -3237 -2992 -1781 501 2734 919 -1277 2684 -920 -761 1452 -23 -795 -3584 491 -160 -1363 145 207 134 1163 -822 -443 668 -624 456 -23 -87 -1510 -1855 193 -2762 -1443 -356 2368 2619 356 -916 2079 2588 -67 1119 1312 -1141 377 -280 -76 -819 -2107 -1631 -2501 -3459 -3973 -3812 -1083 -1742 416 -2162 -1815 -2828 -4751 -2276 -1841 -2937 -2768 -3718 1002 522 -1565 -1319 219 -2332 -651 -315 -216 -188 -1146 3155 -95 -893 3559 -644 -226 2666 -2967 1006 -772 -2162 -540 -2053 -360 -667 -2000 -1080 1115 2458 1164 -117 7 -1061 -271 -274 756 762 -930 1115 57 1315 431 931 703 2299 2480 3077 394 -326 -629 1481 77 1400 -284 3557 -967 -2778 -4407 -2503 -3003 -2998 -3812 -1010 299 949 -15 -1566 -158 -1241 17 -1314 1337 623 -43 2225 -2001 -894 2046 640 2635 -253 521 -2054 -466 344 -1850 -2151 -2746 -2662 -168 1230 1794 2917 1721 3961 1790 3054 1888 -873 1153 -726 -309 -1337 -2805 1169 14 -403 666 3596 2514 593 -356 338 1923 -521 -1054 -40 -2849 -1598 -2190 -482 -1245 -1823 -1729 -588 1232 525 -43 -876 1276 303 1331 1613 1103 -5149 -2045 -1645 -824 729 2653 755 2855 2428 -1482 3418 -1993 -3529 52 194 -2840 -2991 -753 1466 2044 456 841 3325 1377 -639 -2005 320 -254 2350 1186 -3203 658 4368 -1707 -724 2924 117 862 -475 -139 3085 -237 -793 2109 542 57 -1887 -1499 -660 1192 -611 -486 -1754 -709 -61 -1141 2161 14 591 1695 -1976 -2655 2786 1781 -1 -865 974 -1825 1350 759 -76 993 -209 768 1176 -525 -792 2159 -3344 -958 -1519 -1666 -1424 -1241 2025 -270 283 2224 3156 2710 -196 -2145 -1600 1372 -703 -222 -512 1201 234 -1007 -244 -1624 360 736 -345 76 -246 422 -81 103 1324 -116 453 841 168 2014 1201 1626 -1006 20 660 -696 -302 714 2925 1524 1737 -176 -127 -2152 -2224 -289 -1406 -2392 -1706 1091 -43 -1866 1100 1714 -1700 74 -1845 -1794 -3091 1348 -661 -613 2493 -1031 -2980 -3861 -4886 211 -961 282 -371 1169 -42 483 1209 646 -3170 -3824 -1416 -1337 90 -2458 -436 3082 -1801 -56 -1496 -2059 -1874 -3819 -2306 -1204 -2142 -2008 264 -840 -1447 29 188 -129 1582 201 316 -340 1671 3019 226 1078 1737 2663 1934 747 11 766 21 -796 -2325 -714 -1092 -2635 -2200 -1022 -837 -417 1063 -924 3238 1076 513 2669 766 -1149 -262 -48 -1885 160 980 2467 2114 -1702 -487 287 -134 -246 -1702 -2001 793 -1066 163 1561 -904 423 425 -280 -152 1372 49 -480 -204 -249 218 -827 -1017 -408 1276 -1580 350 -1266 -1539 -611 620 -1618 -3093 -2077 -1768 -2177 2111 1224 -1391 -775 656 -826 -2753 -2507 -634 2073 413 3483 9810 3370 301 4008 2351 -1014 -1484 -388 -492 -4451 733 547 2518 940 -970 133 -546 -700 -1026 1072 -2072 -1167 -1091 1385 662 1398 733 153 3768 704 1767 1012 -1236 -1315 1442 -1740 2062 1444 24 3869 2717 -1433 -3260 -1927 -2946 466 -58 -1025 2762 1365 -2573 -2226 -792 -798 -481 -695 1501 -1253 -788 116 1211 -64 -1566 -466 -1202 1195 -1019 -841 -328 -1377 -738 259 -869 2530 -146 14 -1099 278 -1668 -55 -1076 -694 -193 -1041 -1250 -594 539 -586 -498 -1923 -2190 -1263 -130 -722 -893 1348 672 -389 1899 2876 1697 424 -19 428 -1282 -158 2085 -2190 -2068 -2114 -694 -518 57 -745 92 -1341 -643 -2337 -2450 105 -59 682 -192 -669 -1040 -763 1843 -780 -2064 -2805 -710 487 1291 1343 618 -3735 -89 -186 -359 1318 631 2832 -669 -587 -1832 -3847 -2268 -3474 -4421 987 868 876 626 40 -149 1230 -1356 -198 -1019 -3523 -1607 -1323 -3941 -1251 2042 -300 -279 -297 -1138 -1187 353 1922 517 -741 1171 -396 2809 2146 1932 4135 9366 4204 -1047 2579 1493 -1548 -576 1660 51 1750 -264 1384 3434 3249 562 1240 -708 -232 -199 -418 -939 -500 324 2285 -49 -1210 3458 -827 -1532 3146 1951 -546 -601 -1365 790 -1551 -122 931 -1140 -2254 -283 36 -367 -2183 459 -745 -2106 -114 -416 -1774 -871 830 -184 840 2811 -3148 1555 1355 -967 -547 149 -725 -422 794 -2164 -145 -3508 257 -283 -217 1111 1354 4248 589 920 2657 1910 -443 1763 2934 63 6120 4860 640 2065 630 -5894 -6332 -5182 -2783 1401 -3010 -1402 474 -1727 -1033 1621 -1573 2203 979 -2151 -232 -2273 -2145 -202 -169 -527 490 -4165 -1257 1015 -1752 -220 -1023 -708 -1177 924 -82 -1332 1813 77 2045 -660 -1922 -1708 -595 169 -1056 699 -587 -1542 2254 1997 486 -1380 923 78 1857 -1856 -1345 1318 2982 566 -2094 -254 4415 43 -971 1258 -100 -2 582 806 1990 100 276 3048 757 -1426 526 -863 -1983 746 -1421 -857 -633 -170 380 -1534 -1711 16 3447 472 302 -40 -1299 -19 203 -839 -465 -397 -1929 -187 -2361 -1190 1210 1989 -350 -679 2616 2419 291 590 -1664 1888 660 -1469 1737 1257 -2938 -41 -1664 -3802 525 1463 -471 524 767 -1389 328 1978 582 1545 -413 637 1550 -68 1835 859 1608 -541 -2448 -1207 -2677 -972 -3698 -3184 -370 -1180 -1196 -922 568 -2175 -1829 -4013 -1392 -692 2259 1178 -1396 -436 -1368 2489 2217 -3341 399 -3331 -4560 77 2069 1011 -885 148 -2521 1927 866 -1069 -1021 1101 -684 -89 3149 391 886 1280 2137 -2964 -2496 -821 -584 1330 -58 -3493 -794 734 -380 451 -3152 -383 2017 -1369 -2045 -3645 -1009 -1287 -2126 54 1505 -1310 -1052 1901 2492 517 433 67 2101 197 -3540 -305 1800 333 -1896 -333 725 -372 237 -2852 -274 685 -719 -1733 1554 358 375 -831 -1311 74 -819 -808 507 -1061 748 -813 -617 76 -860 -795 1073 -1573 151 -164 -592 -1512 -1993 -1437 -1767 -2315 -2384 1165 -1006 -1087 2644 -322 -112 2745 1118 -1308 -996 728 -1134 114 4940 1320 -869 1039 -228 -2102 -3817 -2659 -1985 -2982 -3236 -1264 515 -871 -188 319 4124 -763 -595 -954 953 2285 -834 -2666 -2259 -4482 -790 119 -3775 -2559 1666 -3000 1530 878 -439 1065 1802 2072 -2686 -141 -707 -742 -1214 -677 -2748 -1172 -2438 403 195 1491 2593 1488 1593 3373 1483 1231 2215 3333 2793 -238 -973 -2167 -247 -3881 -1412 -4626 -2266 754 -90 -43 -545 -295 797 545 -1275 -695 -644 1523 273 799 418 -240 1138 92 235 108 1926 1794 658 3460 618 -1852 1427 210 -573 371 -808 159 -129 1482 581 -1025 -1569 -3433 757 2130 1803 819 -1211 778 2526 2282 1056 2549 628 -838 1475 1772 42 -647 1239 -138 -174 -361 -2699 468 3008 -1506 -242 -2486 -1527 -437 -554 19 531 -1770 517 -815 350 554 -2248 -2859 -721 -2337 -2978 282 -1730 -1042 -4150 -1135 -456 -260 199 1857 -1896 -2474 -641 -241 823 2011 988 2312 741 1368 2786 760 2252 1846 1091 2115 1183 -744 3222 -536 -1610 3510 -343 2093 1947 689 2053 -2376 -680 -1270 -2311 384 402 -458 2105 -487 -816 694 1646 -309 1460 2363 1581 1032 182 -51 1228 272 719 -42 -1340 -1339 -1746 1855 -382 -1168 1614 163 647 49 601 2244 357 1160 1627 3410 1685 2255 220 541 1386 -1266 4019 2223 3977 2017 103 264 423 150 1296 335 693 2387 -1492 -1105 347 -810 97 3653 253 -205 2665 198 -157 -535 1442 1056 -1579 2572 438 -424 -407 2626 2650 1725 1905 -1357 1231 1160 890 2518 -435 24 -2543 -1218 5504 1859 -1773 -4035 -4528 3159 284 -924 -1495 1652 1251 -868 361 -926 -2106 1366 230 81 2113 -243 -806 -117 1309 -186 -358 15 -1967 1565 -1833 169 430 -957 3809 2481 1529 -321 -5250 -1028 1137 1674 4268 186 -2589 -2364 -1062 1003 475 355 1609 -1152 359 3244 2306 3170 4535 418 91 821 2762 1503 317 608 2648 98 -966 2175 2545 -2323 -1762 -1756 321 -1779 -4023 -579 -2135 -3089 42 687 1227 -659 1859 5920 189 -2148 -225 661 1018 -282 -552 2599 3638 -806 -968 318 -11 -912 -1966 -1598 2510 -20 2417 1709 -600 2773 -559 77 -331 -563 5871 2286 -1167 1038 -473 559 -526 -2177 -5236 -6366 -4159 -885 -2012 -1912 -984 -1133 346 -2037 -214 47 1492 -1593 -328 -1464 -6061 1205 -1746 253 4255 601 5057 2266 -709 -2594 -2122 335 -2956 -529 -3457 -3216 -269 1988 2431 -1270 2534 -1920 -8408 2715 1035 -1135 335 -1756 -751 -928 587 521 -496 -378 373 -673 -2815 617 96 -5570 1737 869 -3383 601 -1176 -956 -1433 1285 950 -377 -148 -255 -890 -3578 -1257 250 -2318 -3781 -3113 300 -1768 -2548 -163 -2466 -1556 -153 -2431 -1356 -964 -469 112 402 351 1416 -175 2332 -324 -2075 -1704 -1178 626 269 1059 544 1013 3699 442 1515 -441 -502 -2739 1628 -977 3411 1394 -320 1451 -2531 999 -2409 -1434 -642 -1832 -1739 -2821 -1973 -108 423 1015 773 -1345 -6405 1200 -775 -110 -262 -1483 -2811 -1808 1950 3173 1965 -23 -1792 -181 -1451 -3123 -487 -2346 -2299 -2575 -1615 199 -1546 2971 2195 1274 1096 -377 -3463 724 -270 -302 452 998 1059 -2185 -4869 -4395 1217 -582 -2495 2158 -26 -1137 1815 -2275 1809 -241 -444 -895 671 -1778 -1599 -1672 -1261 -5297 -5348 -4250 -3773 -498 -1194 -1881 -1282 -2877 -2336 -2487 -2992 -356 1757 1154 -1793 558 -2819 -2544 -1520 1635 1103 -1031 -2424 -1368 1894 -2301 -606 969 -926 -2046 2342 -173 -942 1040 -65 1199 -2016 -407 1103 -1821 179 1775 -1376 -488 59 -1882 -2103 -2625 -751 173 -1912 -2094 -520 -1849 -931 -599 -2760 2308 -1075 2783 -1160 355 -570 729 2630 1285 202 199 -1156 -1070 -235 -1371 -2000 -1848 -35 -3132 1541 1556 -1236 4429 1149 -2077 -459 -1858 118 -1238 639 1403 993 -435 -879 -761 -2594 1008 -2688 -2612 2973 -3855 -5427 1504 1902 2087 -706 -1108 1186 443 -3168 -2311 -380 713 4 532 31 -104 1013 617 683 -1499 -1510 733 -2097 -1911 -3525 -3047 -6899 -5429 -2886 -2371 -4567 -470 921 1064 -1120 990 -1678 -314 458 -2064 -847 583 1560 966 1789 -1058 -242 -944 1296 546 -711 435 791 -762 -2468 181 1247 -459 3586 2297 -788 537 88 26 417 -1229 154 -1605 342 1733 1010 3075 -108 -499 879 657 1102 964 -357 951 166 1587 -1095 -517 871 -1738 -642 83 3353 6455 457 -1945 -2904 -378 -2359 2753 111 2896 7945 -1029 -3327 -1411 415 -1493 2136 -613 -1065 6311 1221 -1450 341 -363 -437 -803 122 -963 -991 -337 565 -612 955 -1369 -1171 -1139 66 2006 125 172 2762 -435 296 3451 798 -1200 40 3553 1976 451 -986 -1080 -1034 2874 995 -1005 1749 2241 2950 1823 1216 1847 84 209 3850 611 -1942 575 -2113 -2304 -710 -1847 -686 5001 -867 -708 1256 854 -118 777 -1228 -1516 -2504 -1314 1844 1561 181 -86 -282 -1548 976 -1847 401 -352 -592 -29 1807 -942 1658 1411 -876 1343 1062 -1729 1643 -1180 -1596 -797 -571 -3534 -1118 -1411 -1200 -1349 -1903 -547 -984 -779 1265 -1097 -1348 532 -1193 -1488 3730 1028 4545 3820 -1710 2569 902 40 -4368 -1358 -2008 269 8267 1635 -315 679 -7 -2034 -2544 -325 -2272 647 -3279 -1073 -1359 -29 -1362 804 -562 -339 324 -1037 -1 -1847 -223 -1281 -1887 -1019 828 -838 1067 -365 -2585 -1516 126 502 156 78 561 92 1076 588 292 250 -533 -1026 1339 864 -2771 -1017 -704 299 -671 -1015 -3766 807 -1291 -2298 -2313 -5196 -3512 -208 914 4926 567 -3158 -277 1835 -266 -989 1154 -1795 1519 -2776 -3977 2724 -1246 -757 -1017 -1406 -2977 -1535 -1513 2198 -723 -2467 -1634 -1615 -462 1212 -879 -266 -370 -1332 -1438 -1677 -728 665 1024 1165 1826 125 -516 114 -739 209 -794 -2363 -969 -1072 1448 -906 -214 1138 1163 -395 556 -1126 1667 -3887 -1117 -507 -1807 -931 -779 252 953 43 1349 -2323 119 -26 1281 1929 -304 -1334 -399 2553 83 -2467 986 611 -718 -602 -492 -324 1220 153 157 1740 503 -197 2159 1154 -2474 758 -927 1228 -229 124 -1497 -858 1704 -517 -1661 1070 1068 -1933 43 512 -1042 -727 622 -387 -2927 -201 -1443 -1770 2096 2360 -218 -1293 -2195 -2686 -442 -853 2128 -2834 -2344 -1602 -4591 -5587 -3819 -1246 -4811 -2962 -900 -1491 -196 1219 -1620 -2372 -165 -717 -253 -591 1488 -1295 -2013 2628 3266 -663 -319 236 -658 1575 -1066 512 1837 2224 295 -2038 431 1914 -1177 -922 -1873 -783 -272 -705 1320 840 2927 2744 1366 2973 -257 -746 1314 -2817 25 -894 515 811 -41 1812 -152 1242 1715 -1278 407 2472 675 -1132 1813 5301 930 -1238 203 1304 -2588 -404 478 -2657 -2776 229 -102 -720 -201 -1645 -1537 -628 -265 265 -2146 -2534 -965 -2724 -2643 1606 -1543 -6136 -5893 -1379 -2989 -2420 62 -103 -1055 750 4987 -1061 48 136 -1413 1620 1523 638 -593 621 -81 792 440 -548 132 749 -250 -1279 -4745 -3942 -1492 -1365 -1901 375 -418 -774 -772 -2717 647 63 397 1364 817 -1068 -1447 942 3093 -1016 870 1219 1520 -60 328 815 2096 2353 825 -347 898 2312 777 1301 79 -42 2311 717 172 -122 1539 279 -1289 768 -199 -2949 -2117 -998 -1719 -1841 685 -383 -214 1480 3985 2922 -801 127 -679 -290 -23 -2731 -3564 -1796 -2154 -1127 -444 -1362 400 -2300 1313 -3153 -3437 -334 453 1211 67 1052 85 1017 -933 -1956 150 0 1663 481 -3324 1325 4 -2695 -2587 -1947 393 -784 -2578 -559 -706 -37 571 1922 -743 -1273 -873 -2144 -847 -509 1072 -2196 1209 1514 932 603 -1721 -402 1460 1589 -626 4389 1765 -2333 886 157 417 -1685 -1729 -71 323 -1475 353 98 -678 -1276 -1144 518 1033 3018 2865 -921 -1620 2592 -169 -2479 -2081 -2027 -2228 -2269 -3599 -2530 1067 881 96 1174 -966 -1700 -1975 -2304 -1256 -387 -1695 -960 622 57 1254 -902 1237 -332 -1493 -949 -959 2126 -2459 -197 -55 -1342 -345 -2605 -523 -212 -1607 -68 -3820 -2894 -2441 -1003 -1164 2274 1618 753 -2453 -1627 -2128 1389 1197 -749 344 -789 633 -315 -1726 -163 -528 -1275 -409 -497 -1002 1346 -798 -1253 1890 -1703 -536 1973 27 255 -537 361 240 189 -859 -1177 -2 -651 -595 -3321 1188 4016 2910 -733 4304 2052 1616 921 1645 317 323 437 -2225 28 -62 1060 1979 2312 87 437 -2588 2564 218 -1566 -1727 887 195 508 -961 -1305 -254 538 -308 632 1681 1077 693 1250 2461 1155 511 841 -405 -910 -1552 -385 329 -432 64 290 341 1064 710 1104 -629 -1441 2236 -602 -1736 1393 1040 1252 1896 1792 1557 -116 986 -480 -1535 1146 679 1394 -379 379 2029 693 590 1562 2778 762 -877 3707 -330 -1189 1457 -2333 -2732 908 -627 -2373 6088 1762 -1973 739 2330 -1110 -2886 217 -2123 -524 261 -1074 -2117 -3209 -3946 1030 -1416 572 9723 3517 4895 5135 1865 -1119 -905 -12 -639 -1281 885 2176 -1946 465 2131 344 577 -67 1438 -2983 -1938 1190 -151 -1198 -96 -187 -1343 -178 1198 1162 1546 -1846 -2741 -2023 -1098 -1420 -921 -2495 -173 -1616 -3752 -909 1540 1686 1078 2806 -2241 -1008 2671 1631 2577 -422 2421 601 533 -1802 1807 -154 -593 -439 628 -971 -883 -981 -1261 -2202 -1963 -2708 -1396 -1217 201 531 2361 3879 1121 1129 -4 -199 -1032 -220 -488 -336 -1685 -1796 -1604 -1022 -1302 -952 -1719 261 904 -1868 -639 -637 497 951 707 -698 -1466 2719 -2034 -4727 585 2920 -351 -177 -3906 -1998 570 -5488 -5903 898 -2670 -69 242 -1036 -3446 -403 -1575 -6240 188 -774 -1560 30 -638 -1363 211 -1521 -1949 -164 -1461 1037 -1613 -1793 -1350 1881 -378 157 622 -2356 -1891 348 -352 -1262 1781 789 -203 1258 1781 2087 883 -771 673 2957 3053 3315 1633 340 -628 -4535 -1351 940 -1427 1580 3724 1284 -626 -2902 347 548 -828 -1956 359 2895 -1671 -827 763 2263 1944 818 1229 3463 2288 2342 3172 2264 690 -408 31 1596 1 1627 -193 -1539 62 1001 -505 -195 1092 2290 137 560 1873 541 -604 183 640 900 423 774 -2576 -637 -235 1927 550 -854 -2728 -58 674 -467 -72 -366 156 -1657 -652 1233 -648 -4737 110 318 -622 1045 588 -1386 740 2338 1271 2040 2206 1216 -1339 -1627 -457 -1930 -619 -2282 -265 44 -1493 1020 -1321 -782 1373 -2307 2002 1151 298 3238 1849 916 -574 901 3202 1321 421 2301 1862 1486 889 100 1457 -2936 969 240 1293 4360 -466 -1841 -927 -259 -1584 -246 -159 -752 43 -908 -780 -2863 1583 2320 435 -509 -751 -782 42 1481 285 360 4776 2347 -1066 2178 3607 -85 -554 -196 594 -1241 -1435 1209 2572 -567 -564 1411 921 722 -223 1236 -66 678 -599 -75 2021 1163 703 2361 137 1275 1625 -1657 1842 -134 -768 4298 691 438 2340 2835 1439 -701 -635 2226 561 848 1151 -156 -66 1200 861 -3418 -618 271 -555 -1237 -1965 -944 903 263 -1826 372 -2000 -837 -809 -831 -1693 -1087 444 -551 -204 1002 -1656 -1376 -26 219 -27 1612 22 1167 1079 -2728 1297 -160 -2231 3136 -1034 -2158 -4689 -4950 -3288 -5111 -4770 -2436 -2483 687 -556 -1826 1778 1188 -2841 -147 -558 301 -351 1999 2280 -3163 826 566 -24 -1315 -1747 -2627 -3032 -2313 198 -278 -3526 1447 83 -3987 -2327 -1689 -1856 -1288 -4582 -3831 -2043 -1834 -1929 -2906 -723 39 -1478 3311 1917 -2945 1744 2013 -748 -476 868 1985 -771 204 184 -2176 -1967 -1775 -1443 -1511 -3833 -3208 -4766 672 -2409 -2495 1577 340 -2673 9689 8133 4150 1814 3807 3191 397 -129 802 504 -928 1261 1433 -3149 -1758 -484 -740 734 111 -320 2902 875 -2474 187 952 484 1816 -952 -1540 5351 -4012 -1506 -768 2885 767 2180 -1980 -898 1647 319 637 1481 -209 -190 -48 -722 -237 855 -457 358 680 477 722 729 1587 -822 -317 2136 246 -1769 1285 -1204 -327 -411 -3022 824 -1061 -1581 -1401 1656 -1645 -1293 747 157 -2046 744 -923 -1166 210 223 -87 -693 2133 893 -1160 -206 915 1700 183 -1046 451 -1399 -3649 -895 -1911 -1712 876 -1024 1147 692 -1237 908 1415 980 -187 -699 -1399 1696 -2772 -456 620 -2713 -1422 -169 -2547 -3061 -1764 -2605 -4783 -2804 -2353 -2772 -3232 -3416 -584 2280 -3953 806 3745 -1273 -469 1740 2403 1546 925 795 -740 223 -2267 -1763 1655 366 699 1657 -588 803 -219 875 -1405 -1250 1458 1779 -148 3020 1078 -379 -183 2258 2407 177 -1031 2863 277 -3352 1713 1404 -1203 1245 -1203 599 3337 76 -492 1737 666 984 1357 -308 -2 1228 453 980 42 214 -284 -440 -621 -1014 -4372 1723 901 -2159 -2412 -3378 -3576 1147 -2151 -2307 72 657 2847 -2563 35 1082 -486 -2817 -95 -2558 -7671 -3044 -1485 -3428 -3775 148 -281 -562 -962 -1585 131 -2755 -1207 791 375 311 234 -602 -325 673 -507 -885 -621 1327 -4349 -833 -5729 -12342 -6460 -1580 -5661 -344 -320 -341 310 -2932 -834 850 -3888 -3470 -2645 601 1800 -1575 2214 4962 2043 -1402 1652 1034 502 -351 3548 4256 2140 3957 4794 4192 1589 2143 99 -87 2186 -1377 227 2256 -723 -1170 1440 926 764 2514 -1781 -1184 -892 -156 -2084 1730 3658 4261 2447 4975 4344 -1840 -1453 1906 265 -934 -1042 1709 -641 -537 789 1283 -316 -2519 -1313 -1418 -1988 -4001 -1026 -339 -1552 -156 -1900 -1459 -26 -2714 -3144 -1142 -599 -1230 -1083 -1569 -605 -54 -2947 1011 -339 522 -1910 -1996 -3443 -2851 -1999 -1841 1568 1991 -1208 -1757 -1901 -7222 -4813 -5894 -8289 -4582 -9196 -9189 -5383 -9175 -762 -2509 -992 -1153 -6869 -5517 1169 -1995 -3125 230 1556 -180 2224 2175 1161 443 997 -141 1607 1464 2808 2561 -718 349 2514 112 762 -1028 -417 1411 -897 -1059 1460 -1773 -1980 -34 -369 372 1594 1865 47 -2051 2525 1922 -1398 -938 -567 -51 -2231 646 -580 2294 -2877 -5027 7 1310 754 -925 202 -57 467 -698 550 1322 87 -873 5 -1491 -829 3353 1414 -267 433 1376 805 245 -694 620 437 -104 562 -2187 -1567 -404 -3812 -4028 2516 -1279 -1106 -868 35 -1909 -3531 1196 -1026 971 -1263 -1028 -1346 -138 -1535 -925 -510 -2131 -1279 -1879 -972 -2220 1058 506 -1062 521 581 -1551 -1692 -753 -1082 64 -429 244 -672 626 -169 774 -1996 -3851 -78 556 320 -879 788 661 -1102 87 -1091 -897 -628 226 -1891 -1733 -1879 -1195 -1877 -1679 -152 278 1676 -653 -421 1007 2338 1870 1490 -1617 -1453 365 -317 -960 -1923 -234 -1135 -860 -624 431 878 -592 348 1049 0 1272 841 1397 342 -1536 1221 -2559 -1265 2759 677 86 -2347 -2498 -577 -2743 -2293 -1462 -2958 -2053 -2541 177 -794 527 1714 -241 -114 854 -1732 -2006 -1168 -548 -130 697 923 -113 -1376 -312 -533 1271 970 -828 2209 4344 -43 612 1122 1690 -2590 -1355 246 205 2079 1850 645 1785 2155 1094 -854 -2000 242 1073 450 -701 1208 -1596 170 2618 950 699 -697 -2088 1556 -1726 -1728 -180 -850 -966 -2212 1351 296 -2051 1783 1078 -19 923 109 -863 -226 -3255 -1478 -1919 -3676 150 707 1992 -1189 -932 3466 1071 768 2193 1711 -3516 -4675 -157 -5694 -5700 -367 -5277 -281 -796 -1604 -731 -1229 2300 2586 -2328 1713 2063 52 68 -1541 2862 186 -2516 1057 -184 -1655 1417 906 2058 901 -1484 365 -2899 -440 904 753 -935 -1178 -615 -261 1058 973 -1234 -568 1094 30 -1858 1153 -145 -25 -573 314 -361 643 -5 528 -119 326 562 2727 1565 -1955 -1500 -828 1848 -410 -516 3873 -2056 -2121 3733 -991 -1014 3183 -484 2061 7496 -904 -1867 -77 -2137 464 679 647 3182 1897 -149 219 1076 137 1201 1349 2167 -2405 -49 -506 -1690 -1027 66 -787 1414 722 1638 921 1269 -1804 -1875 -767 915 1337 1148 -148 3036 -29 1273 2160 -1606 -3096 336 -2137 -4806 -1772 -1422 -685 656 1251 -63 -493 916 -1689 1982 -1273 -1573 -829 1117 1157 2816 433 34 2364 1444 -72 2012 1976 -1559 -2568 1375 -3673 -1643 -686 -2631 -2119 388 -219 235 -1532 2952 -12 -57 2006 1079 -544 661 -20 -345 2315 -676 1629 2782 1505 -214 584 546 445 403 19 -3346 -280 -1261 -2474 -613 4294 -1644 -378 2829 -160 1062 -594 32 -1160 973 1422 2580 -463 -710 -1093 -244 -671 764 -15 1029 -104 -1423 -255 326 1147 -891 -3058 -1012 508 246 658 268 370 -1484 -401 -280 842 -1015 -366 -1189 725 349 213 1254 1965 -5830 3031 -1888 -5507 -1363 -3071 -3576 -2198 -1823 1060 -251 622 4835 -922 -1435 -1054 -36 254 344 1547 2994 -2215 -92 884 -61 2594 108 -4884 822 -2745 -5493 -2886 -3980 -795 1169 -74 267 374 1460 2746 1365 407 2835 