256 256 3 3 
-608 -2221 -781 -1611 -5227 -3192 -2850 -5250 -4276 -1895 15 -1871 645 671 -1158 -700 183 -818 -965 1482 290 1016 714 -264 -1360 -1182 -1131 2746 1221 81 2532 -906 -1273 -552 -3525 -3540 -1504 -843 -322 715 658 255 -171 514 368 736 2563 1403 2936 4931 4216 1257 5492 2367 -1063 -602 -346 -1509 -634 -312 -308 781 821 -477 -562 -767 -443 2255 650 1660 3724 1136 -2417 -1145 -219 -350 -2930 -1374 392 343 -1225 -1659 960 422 -3713 287 3203 -2502 -1270 154 -3434 -1463 -2609 -2387 879 -920 -3017 -199 -1298 967 148 1387 724 897 2929 1764 410 1106 1318 4565 2334 1701 4094 3072 1765 3868 3048 166 779 -683 -393 -2300 -1789 595 -1871 -2590 -1250 -3919 -2299 197 -2214 -959 -1162 -1596 -1391 -2247 163 174 -631 1883 610 -1142 956 76 2142 2504 481 1669 2394 514 1492 2114 1588 -2049 -2331 -2006 -2796 -1104 -1267 -332 281 -184 0 233 957 1207 1294 1062 872 2659 779 231 710 2076 -1600 99 2016 -1304 -1549 462 -95 804 710 1078 1766 1865 1790 1418 1841 -2990 -2739 -1546 -2712 -470 413 -810 1598 553 -392 -1492 -746 -1138 -807 -95 -1328 -1163 373 808 881 2268 1669 1853 1445 1183 -316 191 -748 -530 -1018 -2569 -1404 430 -1822 45 -1110 -136 -168 437 244 78 1455 1888 2108 2715 -251 766 -334 -730 -1059 -1681 -833 -1019 -1952 1595 488 1700 1563 -1285 1303 1003 -100 -174 217 203 378 918 2113 1802 2065 2009 1739 -1096 -1575 -2011 -828 0 -1919 -743 757 -1037 1270 250 834 2820 175 -1066 3537 2468 840 2669 1831 1894 -423 1009 687 394 -1966 -145 1619 667 945 35 -84 804 -526 971 1027 57 1454 970 -120 3731 969 -451 1648 -773 -1310 -1262 -321 -165 -1620 -2137 2593 179 -978 -958 30 -330 -2413 -580 820 -4573 -2143 -599 -1137 -555 -647 -894 -695 -789 -349 1585 513 -3164 -1060 -862 -1793 -6 460 -1041 229 982 -1128 2161 -787 -768 -1049 -953 -2440 -3176 -1620 1010 1743 529 177 656 -440 904 -1048 -25 -389 2118 1065 586 -1421 53 409 -1175 49 756 1199 -151 -465 -426 -748 -1155 -2833 -2044 1320 2172 2550 1039 1609 2267 1142 1348 1595 -191 -1154 705 -31 -855 450 750 -2484 -936 -181 68 231 83 215 -225 1864 1415 216 9 -1582 -117 -1689 -1043 -172 -755 -1601 -1473 735 2217 2 1303 3071 124 -193 1639 -1497 -910 -41 -859 -760 -1238 -34 -868 -1978 664 -459 -451 -5 -516 -101 632 1082 2068 1125 -985 -471 -831 555 2081 1623 -837 479 25 78 308 -1558 44 -1578 -918 -615 -1762 -1424 278 874 -535 -254 -415 -1541 -73 -826 -1985 -1555 -791 -1006 -2985 -2033 -2577 -2112 -1674 -2618 -1877 -1792 -401 -918 -2090 -1342 570 150 -165 -120 2269 1680 1305 958 841 3252 1473 904 1320 248 2863 1395 507 2969 1811 793 2270 -426 383 1190 1471 3449 2454 387 2698 1617 -981 -1949 -267 6 -443 -172 633 330 2039 -522 -1044 -720 3191 3243 2325 2831 4231 2023 -904 -2978 -3085 -4172 -5394 -3905 -4084 -3071 -2590 -2044 -1023 -1507 -1329 811 -1270 -767 1369 -256 388 -1483 -1542 678 -876 790 -952 -1567 1384 -2634 -2108 -3084 -2140 -2461 -2145 -1989 -3485 -3050 -862 -617 -1277 -1440 -1085 -1255 -1553 -1376 -1230 -41 -1203 -1976 -1819 -1042 -2071 95 887 -996 223 -979 -304 -1613 -2088 -799 -1206 -723 -961 -437 169 -821 -1507 -663 -538 -2297 -1862 -1028 319 209 1632 581 1466 -184 -694 80 -1184 -301 -1037 1267 127 -842 1150 -1154 -796 225 1858 382 17 -977 -1236 -1368 -1540 -3045 -1781 -1220 -2343 -801 690 -206 -462 -70 953 1346 -1804 0 441 -94 783 299 58 439 917 963 1959 314 804 -255 618 -322 -1356 -548 -1092 -3310 470 583 -1896 -2179 -217 -1509 -3009 -1549 -446 -1224 -2048 -2661 -1808 -1942 -1609 -2193 -14 1745 896 934 2700 1714 -596 242 150 859 710 70 682 1386 83 1038 -525 -258 432 -593 -1001 1689 -351 422 1949 -675 -123 -388 -1993 -888 -51 -1473 587 604 700 1937 582 -2016 -1604 1256 -1055 -1853 2178 -774 -2566 813 -526 2203 -565 -3476 -595 -1436 -4405 -2593 431 240 -1825 -2335 -1058 -862 -2717 -1033 583 2708 1205 -243 1371 -675 -3159 -171 -1303 -1844 967 415 1441 -906 2716 7927 -1826 3372 7611 34 1344 -88 2098 2878 675 2408 3907 1818 -2706 -2016 -757 1745 -543 -3005 2159 1983 -168 1619 321 404 -8 -1766 -1531 -1712 -3365 -3374 1631 -435 535 -631 -2178 421 -1054 -3059 -1974 2266 1978 1514 -41 -95 -1347 -190 -2360 -1280 117 935 -859 -409 -367 -1117 -1799 -2057 -3435 -1007 -1133 -1853 -1504 -3529 -2376 -455 813 2178 88 -616 -1339 -110 261 -2240 -1298 -1577 -1628 -180 -1376 152 -1675 -1988 659 -1723 -250 -131 791 -578 -1961 -83 -59 -3108 -1927 -2121 -1757 -1972 -1215 -1275 -1551 -1220 -1765 -196 -744 -1473 592 -92 1153 -668 -283 -305 -1877 -1313 -1626 35 -498 -2670 -883 -1134 -1935 -1395 -841 -1203 -250 -862 -1115 469 1791 -182 890 1935 296 695 2903 200 2425 2969 228 2655 3214 441 -168 -623 -1475 -801 493 913 300 938 1336 -2507 -792 -1148 -2604 -2642 -1854 -1249 -1854 -2824 -1126 -476 -1876 -954 -642 -1346 -135 -528 -893 785 1239 415 -654 -219 -539 -1080 -986 -1246 -102 708 1077 1733 4085 4045 1786 5791 4413 -894 -1011 -984 -93 -518 -1008 -161 -152 -1136 -1176 -196 -704 -902 -48 -824 -1787 -2228 -380 -992 -367 -245 374 224 531 696 1246 1207 985 3655 2562 209 1317 301 928 943 988 -1002 -671 -1227 910 1831 1135 914 1298 1627 541 1034 928 699 1061 669 201 -775 -494 2459 1176 2167 1422 -84 1942 -922 -2107 270 1042 2439 1756 1938 1957 1408 518 170 142 1049 2442 2990 -1277 -801 1731 -924 -1529 -1048 -2622 -2694 -1108 -3772 -4545 -2326 -2606 -2613 -3548 741 1303 817 532 1049 1763 338 898 1086 854 -2162 -890 -112 746 -964 -1374 -873 -1157 49 2405 1615 1866 3767 1277 -70 659 -1257 -534 842 2226 -1529 -304 1701 -1080 -1045 557 -642 -301 -505 -848 -709 110 606 115 114 -1 -130 22 725 1003 305 -230 115 322 1319 -63 2315 994 -1755 660 1139 -1159 -738 2863 3990 2510 1019 633 745 -873 -1507 522 624 -192 2472 586 -159 1134 391 330 384 -3 -627 -956 1951 -85 509 963 956 655 525 -1926 923 43 126 -315 -12 -1926 -168 -1127 -953 -1018 220 678 -748 -141 323 612 -392 -2513 -831 1029 712 1370 588 -35 253 2107 4179 2486 2906 4082 2645 1245 867 259 -380 154 236 -2627 -1300 -313 -1991 -2656 -2255 274 2053 861 1246 804 944 207 -515 150 -113 -2723 -1339 -16 -2490 -2557 164 -1168 -2133 -60 312 -840 -3464 -4190 -3581 -2416 -4744 -2772 -1952 -1191 -921 -239 -723 -417 -444 -116 -55 53 976 1362 2843 3275 2237 1706 2624 1336 -1180 568 -3111 -743 -158 -2031 -759 -1005 -2354 -466 -718 -87 -272 -1368 -371 -25 108 134 -112 114 325 -467 3792 3768 -1197 1823 2619 -75 2037 1008 1547 1680 -237 614 1461 162 382 -10 -448 -209 1248 1056 -480 235 229 -241 -16 2244 2193 -927 -1750 2572 1408 -4990 1509 1808 1172 1188 4572 2885 3808 8382 4803 -266 -1188 -1012 -1085 -2976 -1514 -982 -1189 -827 1258 1894 1921 553 1006 1489 573 -587 -438 -388 -608 -86 -2117 -1730 -783 -728 -2418 -1403 -1953 -2198 -1286 -141 -663 -481 -1384 -1858 -1143 278 886 -409 -392 -819 -69 -520 -1715 -919 -1635 -1409 -1901 -2275 107 -2706 -2993 -1661 -2790 -275 441 -458 37 914 -1446 303 551 210 1282 618 -1366 907 71 -421 -1570 -1447 771 -339 -1344 -788 -525 -1169 -1099 -33 -1978 -1703 181 182 784 -794 538 627 -1305 -593 -202 -491 -618 -1064 -1439 -2544 -2645 -2438 -2274 -2971 1435 120 2 390 -1463 106 1392 -699 366 494 974 410 963 2069 1306 826 1295 604 85 2498 113 791 -35 -415 -288 -211 -2028 518 -573 1025 1914 1214 3003 2401 5061 3254 28 169 -786 -61 -2497 -3393 694 -2501 -3559 -535 -1114 -1404 -865 -657 -1263 -333 -587 -1433 -626 1042 1098 -1139 -841 360 -345 1312 1721 -2186 -3797 -4019 -3201 -3206 -3143 -2582 -2699 -835 -1899 -1537 -417 -1629 128 -6 800 1131 -631 228 719 -331 -666 -575 -572 851 1869 685 -1520 -1654 -653 -685 907 -226 -415 461 20 -718 132 123 -412 -1454 -1120 50 983 -692 -1060 606 -596 -1339 222 -1130 -2456 -1959 -1412 1005 -775 -910 -469 -1898 -1337 1190 621 -64 964 -1235 1078 108 -1596 123 1452 1646 2273 549 -580 130 1900 912 1074 2779 594 1139 336 3185 1046 28 2412 1264 -1171 -371 -247 45 -2006 119 400 -987 147 -732 -333 -470 403 1099 1142 1264 1008 1450 -1099 -246 -585 1430 3608 112 813 2011 -829 -215 160 -790 -1126 256 -739 329 3817 2196 -1407 1881 -342 1266 918 2076 -679 -1908 -1465 -453 -2307 -2572 -446 2150 1020 244 1881 959 1215 17 931 479 10 -914 1946 326 -930 2929 1453 -874 1417 1739 1970 464 -257 -286 -755 -681 -1715 2809 2395 287 2402 413 -249 31 883 1141 -596 669 321 -85 2733 279 -440 763 -515 5129 2442 4787 6714 -389 4269 2945 -925 2683 -527 -1087 -433 -1956 -1497 -1865 -1409 -3079 -2248 614 1305 202 -1582 -444 -1762 -476 -2139 105 -2032 -524 -1209 -996 -1258 518 -554 82 927 1089 115 -22 664 -162 602 367 -601 -78 162 -104 85 -176 446 932 -2688 -1300 -644 170 -747 271 -622 648 741 249 2300 960 -87 -2534 -754 254 -2723 -895 1646 -319 477 301 1249 -666 -1678 -1618 -1236 -1021 -1392 -939 -615 -1384 -1064 77 -550 -619 1311 1582 681 140 -1753 -2843 -675 -534 -520 213 800 664 -2494 -565 -2125 -1607 223 -35 1623 2004 1940 1068 836 -233 3568 3868 966 4083 5882 3081 -489 -353 20 -412 -965 405 -246 -407 1076 -1807 103 -876 -1884 -3027 -1856 -500 -1104 -1620 -103 543 65 296 -413 985 -1489 506 1102 1598 1672 1086 -470 -1542 85 466 -627 512 388 1129 -407 6527 3402 -2250 6870 4367 -2069 -1250 -220 -941 262 2486 1148 -952 458 -88 -186 -387 506 -3270 407 3534 -1106 3814 3104 705 -133 -1571 -159 472 -524 -1059 780 -445 963 -557 76 477 -723 195 964 167 1687 -1349 -2526 -1987 -1046 -752 -1347 -364 -1250 -1812 -1894 -2062 -1538 55 -1259 612 -2144 -1514 -1090 372 -355 -1272 740 -1981 -1292 -795 -1388 -1508 -160 -57 -472 449 400 190 -240 -425 151 -1517 -960 -749 -2224 -276 79 -699 152 -685 -912 -97 -956 -1074 -167 1030 -187 525 29 -453 -2123 -554 -680 -1917 -2128 -768 -1305 -1397 -82 -1070 -563 811 -886 -583 -978 326 -318 1779 1114 489 -1082 -1311 -892 -825 -162 959 2744 -431 -1763 -653 -1522 978 -3088 -566 2909 -488 -2124 -801 602 562 518 1416 1759 872 -3716 -1043 -2347 -1902 2021 -739 -3352 -268 -1807 118 -1234 1134 -172 2185 740 -731 -251 -578 -1251 -548 2918 -174 -2215 1139 -586 -3733 -1276 -1353 955 257 -203 217 434 -953 -1846 -689 -276 1320 -264 78 -147 -382 1174 1620 1438 -2218 -1728 -2483 -1516 -1954 -1854 -404 841 489 -945 -2122 -1689 -3530 -4713 -3431 -3511 -3911 -3388 -90 252 512 -42 -509 209 -861 -1168 -953 2048 1233 1390 385 1467 969 -101 365 1471 -504 333 2114 -1919 -603 5182 -1961 461 4157 -591 -1679 -1636 -529 -1555 -2233 -1144 -675 -1726 -2510 -1485 2678 -1660 -1589 2990 -815 -1962 1835 -37 -158 -848 -107 -1194 -3985 -919 313 -1088 -335 -2441 1283 1321 -3224 -2248 1074 -2351 -2715 392 -125 8 56 1152 1784 1569 762 2322 -1488 -58 344 -2298 -2361 -1122 1465 -597 -1299 1639 1532 1351 -1003 -1867 -1121 -212 -1448 -258 -1075 -4160 424 1319 -3115 1872 400 -3495 1602 90 14 -2205 -111 1729 -83 -1054 -113 -780 1564 1201 1621 1785 1241 2656 1217 852 1183 -1826 -616 -234 -648 240 -1090 695 3305 1840 -220 238 -512 1380 1013 81 1296 1548 642 2149 2565 -2518 307 419 -3801 -842 -852 -3230 688 -31 -1163 -112 73 -1541 -313 -173 -1310 -455 -2195 645 -139 -299 2387 -1574 -383 1371 -961 -1150 -406 -155 205 1258 -1501 -2348 -574 445 -943 441 2013 621 1574 2387 2123 1612 -2323 -2101 -1904 -1278 -578 -501 -1798 -1639 -922 -942 -676 -345 -1700 -1630 -1141 -31 -1070 262 2652 2227 1400 2740 1619 -347 2017 -248 -1764 2214 -1716 -1450 -365 -1265 -202 -247 -1620 -177 838 2658 491 92 1761 872 -125 1254 549 1703 -1018 457 -883 -1128 1397 1296 634 2955 -209 32 2333 1338 569 2008 2861 2632 3119 -599 -955 -1410 -2058 -1309 -36 -3231 1130 1757 -1683 -2934 -3622 -1104 -1863 -1281 -1095 -2154 1032 1239 1397 634 -17 -166 768 1190 512 510 1587 1364 1077 1986 1413 -507 410 1501 -1225 17 -1324 -146 1492 217 663 681 -829 294 -1858 68 312 -2291 -2104 111 -2073 -1513 -820 -1357 -69 -1993 -1384 195 -865 -2585 -788 -2279 20 -268 -52 -1419 -1463 -1957 685 227 -748 632 1203 2427 243 683 993 552 1202 1976 90 551 636 1733 2718 3623 1107 3999 3689 769 1081 335 1929 1339 1417 516 870 764 -1003 -1397 -587 -1911 -3381 -2857 -298 -2440 -2753 19 2607 -9 842 2172 1065 -628 -370 -1111 644 1729 964 870 450 147 -387 38 687 235 994 1168 -1113 -423 405 -1443 -1064 -1350 -971 -1419 -2088 -165 -853 -1002 -265 -136 -106 -866 145 104 45 510 -1295 -419 51 -285 -182 1040 -254 -1017 -942 -1100 1177 -653 148 -222 -153 -802 -612 117 -369 -2002 -453 -1273 -364 -1600 -1001 558 -916 -2189 -34 -689 -2295 -710 -23 -1193 734 2922 1829 1158 3403 1612 -842 -884 -660 -10 -2752 -2840 -645 -2527 -2145 -171 -902 -1385 2295 5353 4214 1699 4590 3083 -1173 699 270 -1129 1081 1356 -1648 -44 779 1514 1171 1064 25 102 -113 -753 -200 -605 -1891 -1300 -2236 446 863 1074 -600 2456 1527 -1369 -458 -1696 1032 -55 -533 1206 1159 227 -372 -159 268 -1581 -944 -886 -2761 -1752 -1872 867 1256 2008 2169 3854 3311 1671 2588 3183 21 1453 2970 2939 2864 2777 953 1367 1530 137 929 249 1067 1847 2242 1232 3578 2172 -652 751 33 450 -858 -96 1153 333 1473 -369 -2072 -1950 -1107 -2059 -1583 -381 -161 -823 2128 1930 1975 717 -1130 -609 -81 -2134 -1601 432 -466 -689 -1625 705 1793 196 3520 1606 -200 -595 -346 -390 -1428 822 281 118 1351 -821 -905 110 -68 -147 -1174 -387 -1158 -1788 829 282 347 742 -711 346 -556 -2915 -2431 -577 1007 -1864 1190 2268 269 166 2238 97 616 -1328 -1087 350 434 908 -364 664 1227 -1382 857 -355 -1643 356 -1597 -2070 280 -780 351 -258 -1933 321 -1960 -2322 -1315 -1695 -1330 -887 -2001 -2259 -2527 -1326 -2427 -2192 -582 -655 -1565 -1321 -2071 -1978 -210 -848 -2569 -2190 -2372 -49 -485 -265 -815 -757 -1233 -1612 -1100 -658 -2071 -425 116 -370 1497 764 1203 1753 -1417 -1194 324 -235 750 2544 3233 -150 3038 2843 602 2058 -397 1806 1456 661 -30 -60 -223 -848 -2635 -2316 -311 -22 -472 844 2722 1277 -1667 -580 -1813 -735 -393 -1114 -2130 -441 -1353 1050 -1520 -700 1292 -340 -2151 1292 1000 1155 -325 -1315 -2486 1320 -750 -2511 984 -503 -2412 1647 -412 1729 474 -1237 -242 874 -704 570 -379 -160 395 -649 -1126 -611 -664 -1226 -360 -86 263 -352 1097 2946 1427 -802 315 1149 873 -297 74 530 -729 -2852 837 -2796 -3846 1161 2513 260 1345 3112 -327 889 441 -341 -29 2018 2262 799 1060 2194 774 2314 1956 111 628 673 -561 -851 -64 -537 552 -920 1226 2505 3060 819 -241 2328 -572 93 849 1250 -76 -365 386 -685 -1360 1459 674 -532 2287 2170 2298 192 1403 724 -861 -439 106 272 -368 338 -506 -2435 -3813 -753 -3380 -2088 -1190 -274 479 -699 925 621 -282 -127 368 721 -108 90 -485 -2854 -2392 111 -94 -162 -737 -1789 -1885 -2194 -5661 -4411 -1932 -5034 -1783 -2124 -385 -1427 817 3268 1845 -1112 1513 1672 -1215 -160 -1575 -68 556 -2118 -165 296 -700 649 1358 397 -586 -1771 -1779 -293 -2242 -1196 -657 -737 389 -924 -3628 -1847 -138 -1921 -920 -113 12 680 616 433 516 691 365 -83 132 -229 -244 -484 -419 211 -1919 -878 -349 -1452 -1238 458 -680 -994 965 -873 -1508 186 -941 -1690 236 -1462 -1396 1479 801 2022 4215 614 176 -329 305 308 -1359 -494 -1088 -1209 -38 -129 474 58 -736 -1000 443 -943 -853 1781 349 767 -387 623 -1360 -278 -260 -1099 543 581 1276 749 935 910 264 1952 3087 449 895 1323 -2028 -3193 -2448 -2429 -2733 -2215 1062 1329 1010 331 -549 1682 139 -1754 1100 61 -587 200 -354 -1070 -363 -330 -902 231 -304 200 -983 600 515 -646 877 804 236 -364 -2233 -1714 -1905 -2183 -1019 -1126 -710 -815 -711 373 -52 -832 695 1414 -201 -987 1981 -495 -1305 -700 593 449 595 -68 -492 104 -2649 -2814 -3603 -1339 -566 -1988 -1179 -1140 -2400 709 2591 2274 -615 1011 2137 -2161 -927 1499 650 2175 1034 -342 1472 3360 -845 -619 1088 -636 -1875 -1123 -494 -1541 -216 -247 -1978 -1169 -312 -742 -1376 -256 138 -124 1001 -433 784 877 163 409 591 -1131 -19 452 -1825 -668 -483 438 860 -1000 -903 -1491 -2307 -1739 -510 2118 1454 2030 554 1920 3279 132 1020 1289 -1331 -558 1048 -1747 -1458 496 -483 -697 747 -765 -1651 -417 -720 -2170 -1250 -1522 -1245 -823 -1054 845 -295 -1064 157 486 -2229 -1049 -1144 -500 -1360 52 -523 84 301 -135 631 -603 -1449 -570 63 -579 -1669 -397 -1494 -1801 -820 1582 1351 2674 568 278 1720 1120 -26 1163 -437 -1975 -1697 -2114 -3860 -5468 -90 -1976 -2821 300 26 -1129 -892 -599 -1404 -1283 -987 -1708 -398 660 54 -764 -307 279 540 -88 208 -2011 -1766 -759 -1552 -2391 -2299 -1763 -2262 -1808 840 1351 -336 1169 1456 -2155 630 1386 -1571 1563 939 1832 756 -228 -1646 1232 140 -757 -571 -347 -1298 -359 577 872 -1393 -264 1008 -1332 1419 1305 -2192 850 1739 -796 2149 3541 -2210 -1921 -1551 -1401 -1469 -1039 -1495 -965 -1145 -751 -16 -918 -307 2475 2447 1501 4227 3127 -1555 -308 -604 -339 -450 -2115 107 437 -1927 -1586 -16 319 -183 -1388 -53 -824 154 94 -583 -1872 -38 -2979 -1825 1067 -187 490 1551 -2125 -2404 -1820 -1608 -3458 -1569 -3375 -4450 -2667 -351 2309 340 146 2360 2026 -17 156 1106 -1207 -292 -877 481 148 442 -638 253 -448 -1433 -1479 -1740 -96 1920 1108 -637 -1242 -834 -818 123 874 -122 -747 236 -782 -1298 365 -2066 -3272 -1503 -555 -1379 -1309 -138 -835 -764 238 -874 -1071 -582 743 -549 215 199 -1117 -172 -189 -234 -1509 -2825 -2755 -2151 -2531 -2876 -959 678 464 -487 923 -921 -191 118 -309 -197 135 982 259 113 439 -479 885 650 -690 -100 1314 1618 1109 2135 1985 808 1439 1352 3122 2763 1865 2724 3077 1384 2367 2425 -1040 -2281 -996 -694 -421 -621 -1313 -198 -408 480 1191 110 2224 2940 -2 1996 2113 865 1219 2972 1704 -1139 -228 343 -2499 -1814 -198 -227 -1353 -852 -350 321 -1004 45 1510 -496 -1065 -866 -384 -1357 -1460 -1839 -1784 -2389 -1707 -716 1896 91 161 2093 1269 -321 2249 1013 2014 1474 827 2280 339 -1106 1956 420 -1722 1191 406 1169 835 778 746 -95 717 1162 -886 -820 -29 -364 -440 -218 -676 -1343 -1104 1578 815 795 123 -2189 -338 -280 -508 -1185 814 -285 585 1355 78 1080 968 734 788 1648 1819 616 360 2681 2031 1430 4655 2558 -1254 -2249 -1924 -1659 -2015 -3244 253 -2036 -2467 623 176 1604 -1548 -2243 -686 -1039 -3227 -954 -3212 -661 -710 -1727 -1055 975 -2835 -1264 689 -1886 -2256 -1611 -139 -752 -701 -557 -564 -1236 -2878 -2216 -1126 -620 -532 -58 -146 665 921 -1176 -391 138 -2256 -582 -1742 -786 -1257 -1341 775 871 1864 -1352 -2829 -820 -1298 -2888 -1468 -1205 -1798 -1290 -288 -274 -183 -1172 -435 -1408 486 447 1046 -1603 -2203 -1384 -1163 -2759 -977 1496 2554 484 1498 4714 2249 -278 2613 884 1129 2741 2984 2358 3854 3897 607 1277 1229 176 1147 -284 -1174 623 218 -1774 -1912 -1979 -1042 -767 -1368 880 1685 641 2529 3107 1981 1463 1019 -988 353 1681 1303 -1960 412 1561 -474 -252 -681 371 -659 -1318 -723 -585 -1998 -448 -467 -29 165 1066 1020 812 1591 2081 -288 -473 161 -1803 -1308 -2013 -1235 -3364 -2466 -856 -748 -197 -2047 -1738 -2714 -1377 -1455 -2481 -1384 -1754 -1363 -352 437 592 2108 1934 1555 111 1125 1315 -514 427 1037 -930 260 -348 1316 877 922 -1564 -2076 -991 -2332 -2329 -1956 1613 1445 1062 180 -190 715 537 -420 42 -1299 -893 -1536 -856 -867 -93 -1114 -590 1764 -1560 -298 93 -2811 268 2514 -1647 1278 1614 -717 563 -620 -296 2183 57 -1356 523 -1103 -264 -28 -420 -392 353 -1461 -814 483 -1159 989 155 1580 -815 -1556 -2728 -110 -1695 -792 -832 -133 -798 575 1682 537 1767 876 -41 -2569 -2389 -2150 -3784 -4594 -4117 -3753 -5395 -3808 214 2058 1613 2661 2730 1138 533 2357 1595 -98 -1023 -367 373 -209 -1366 -120 227 -883 47 1866 1217 592 1502 657 1250 3425 868 -2081 -2724 -2533 -329 -711 -1316 -599 -816 -2152 254 588 957 664 -293 -653 -111 292 244 -650 -697 -728 -834 -33 -1911 -966 -1606 -1966 6 346 597 0 -604 317 -267 297 862 -379 -2179 -2576 -1468 -2058 -1680 -35 279 -750 -399 -726 -2560 -573 -1692 -2849 -1528 -4029 -2529 -559 347 1554 -1127 -288 -1182 -51 -1514 -336 -817 -1510 -925 -2360 -1750 -1639 -1160 766 -1145 159 655 -312 -1366 -828 17 -990 -1388 -1323 -524 195 -227 -1016 -875 -754 -1503 -1813 -864 -312 -550 98 1403 2529 2081 873 1419 1685 86 -763 513 51 -239 -232 1014 211 941 -163 -1473 -170 -1740 -5443 -621 -201 -3437 -19 -982 -1950 -1444 -209 -459 -217 1340 1483 488 1012 2388 1557 2092 2355 1364 2202 1413 286 1554 20 1268 68 -913 -66 699 130 336 1833 777 2462 -1036 -2641 -835 -24 -1415 -286 295 536 -355 -233 -451 -1013 1708 2306 182 -948 1617 434 639 995 297 -1331 -1257 -2014 -284 319 486 -278 1338 1327 -1502 1334 2117 -962 1592 372 1347 3972 3053 875 3285 1961 1230 1203 976 -523 -2812 -1524 -885 -3080 -2017 -346 -1052 1351 -1941 -5083 -569 -424 -3344 -702 605 -974 -267 -239 310 933 -586 -712 -414 -1216 -114 -1127 728 -662 -534 -522 -427 -150 -821 -4699 -3493 -3038 -5989 -6099 -569 -2422 -2761 -2443 -3384 -2941 -434 -1342 -2282 -1409 -2123 -1684 -1909 -1723 -2509 952 1574 -562 916 1453 139 536 868 1935 240 -363 563 901 1338 1665 -1365 -1720 -2224 -36 87 -1728 -1672 -1709 -2758 -207 613 848 496 1115 1058 1509 2327 1397 -162 -2901 -1595 103 -2291 34 1108 -483 642 1019 1578 693 -1836 -2004 -2537 -1041 -458 -1964 -664 906 -433 -898 1543 -1037 -379 2552 1551 -153 983 -101 -759 -1034 -640 -885 -937 -477 1021 892 963 815 838 1412 94 670 937 123 1323 986 322 444 -51 1830 2669 2288 1044 939 1771 6 1243 913 1322 918 916 482 38 -815 522 -650 -2213 147 -1585 -1554 -711 -76 430 -1226 -1078 -538 -979 -2335 -1642 -2680 -2415 -1384 -734 -484 936 -162 -1447 -1111 -1678 -1160 -1412 -2109 -3591 -2488 29 -1022 -561 -637 501 -52 -922 -670 -427 -143 1105 634 -2588 -2714 -3114 -3510 -2895 -3581 -2824 -3997 -3898 2492 3136 1996 1024 3066 1977 571 2251 1675 -51 -1371 205 -2160 -1570 -800 -783 -97 -993 973 2089 259 3923 2093 -392 3516 74 -1459 728 2180 -528 4551 6195 4431 2964 7254 4613 -885 -700 -433 1332 -454 -880 -422 249 -839 -790 1691 1123 -261 2125 4159 -929 1014 2513 -772 -3495 -1954 1051 -2306 -2317 905 803 -455 1694 2118 -406 2620 1000 -1196 -425 -188 -2090 -343 -411 -709 909 -17 1064 2364 836 231 1113 641 1031 2015 2354 2695 659 -689 314 2204 1143 494 6 -643 415 111 1293 1668 32 -1387 -839 -276 -220 -2220 -2373 -2386 -3174 -1584 -1376 -386 -1674 -3088 90 -910 -2557 -266 1173 417 1009 462 -1841 -1210 346 -769 -13 -843 -376 -1412 373 -263 -685 -347 -660 -535 126 -139 -1446 129 -206 -1804 1250 1135 -93 41 844 283 606 1085 995 692 748 773 1457 3083 1392 3060 4054 4179 788 3372 2118 180 1465 1450 -1531 -820 -3472 -1953 -3572 -2621 -1424 14 143 -205 57 -71 789 189 -2031 376 634 919 -675 -1320 -14 -69 -1822 -334 -196 50 -2023 702 -16 -1584 1466 -139 -2088 21 -409 242 519 1539 1218 -284 925 1661 182 573 -765 -466 1690 485 -178 633 46 1683 1958 -581 159 278 132 -295 1180 -69 -1034 -1012 -2340 -765 -735 -1453 719 100 -570 -14 -2542 -1080 -239 -2194 -961 465 -2365 -572 -999 -1399 -3 -1898 -2186 -1562 -125 -1441 -1504 -918 -2129 -1619 -1319 -2093 -1786 -790 -2172 -1906 -872 -2213 -2224 -582 728 -256 548 -806 -1006 1306 486 -1090 -180 211 -1277 -1254 -1536 -1178 2207 1197 -1066 -183 -729 -1445 1172 -55 1349 -1626 -670 -1566 -597 -1183 0 -1896 -1839 -738 -96 -794 -934 424 -678 -2184 -1040 375 26 -1359 -425 -947 81 632 -1256 556 -1828 -1663 -878 -629 -142 107 -101 669 -346 677 976 758 879 803 -42 -294 -44 -101 -502 -707 -357 -50 -236 -1300 -1921 -711 -224 -1908 43 1391 -977 427 -217 -764 -354 2237 539 1265 61 711 -70 47 2988 2339 1654 2204 3529 -504 -192 845 436 1264 1912 12 2155 1315 -137 -840 210 490 422 1077 -204 1878 1448 460 228 -284 -1314 -1532 -2103 -1521 -2233 -1735 572 -1132 182 509 -1207 -740 -2427 -2922 -510 -1960 219 28 -1798 -196 1013 -2204 -108 792 715 -967 164 -313 -2285 -1037 771 -321 -258 -1432 -1680 -1077 -1562 -1849 -2743 -1373 -2775 -1949 -220 215 -1176 1063 995 281 1674 1883 1445 -228 794 -421 419 1544 568 -2409 -2167 -1781 158 -261 -282 -372 1661 -677 -1162 291 -731 639 2324 2410 598 1660 1023 311 595 -10 2926 537 1105 -433 -2430 -388 -1567 -3977 -1897 -373 -2769 -1438 -1492 -2059 -3822 -1284 -3473 -3178 425 214 612 68 -323 -721 -1047 -663 -953 -400 -438 -453 -338 -583 -938 -750 -1122 -1555 2614 1093 1375 1081 -1719 -762 386 -1349 -1001 394 1585 1357 324 -403 969 646 -1830 -355 266 372 1101 -238 -168 -991 -507 -319 -602 -1394 -1447 10 -258 102 953 -780 -1375 -960 -1710 -174 1195 -754 -1066 210 -150 -1702 156 1920 2103 1450 1453 2933 1238 -51 120 632 -471 252 -190 -1069 -69 -186 -275 -683 -191 -982 -1153 -595 -362 -1220 -62 694 1100 -615 2831 1912 1755 2233 2251 3351 415 3618 2858 780 -908 399 591 -2615 -1482 9 -3559 -2711 -540 -400 -81 -537 -931 -1685 53 -1417 -1605 -2727 -1744 -1453 -576 794 1088 1007 2783 2168 -859 1268 -93 361 1420 2321 681 3351 2886 -897 1009 -24 -2295 352 -759 -1634 -513 -1821 -885 1355 1458 -699 1606 2332 -1665 -623 778 213 862 1503 -118 -75 -14 60 -1568 -1154 1124 199 95 877 247 297 -243 170 1920 127 254 1413 221 -793 262 -8 -403 27 637 -58 167 1556 256 -1337 -551 -1267 -359 -15 -396 -156 142 841 -137 -209 -1802 -326 -603 -476 -683 -458 17 -604 -353 -528 -574 -707 -1423 -34 1333 1956 411 314 1787 151 966 2157 2219 1957 2897 3128 411 1208 2004 -348 -301 -917 -605 -1017 -281 -944 115 168 -1331 -1182 -961 -459 86 131 -1060 -1760 -1336 175 774 1647 3135 3935 3494 3159 4918 3668 -552 243 80 -1558 -1085 -1999 -119 -1776 -1610 1288 -486 167 -577 -1297 -1361 430 -161 -881 218 835 786 10 -829 -650 741 -92 642 -519 -544 -1808 -167 -2154 -1041 -604 -553 -2057 148 2242 638 753 1271 829 2514 1576 -415 77 879 1297 2095 2039 3548 2095 2901 3473 -817 -2322 -2286 -1733 -3828 -4553 -1150 -4548 -3821 -2308 -1108 512 -790 443 344 -1039 1292 835 -896 -336 -638 -834 861 -359 18 -230 902 -1041 -2163 -1880 -905 -3470 -4145 -730 -2814 -3058 1078 1946 -607 1689 -685 -1668 -926 364 -292 558 1123 1141 1710 4013 4211 2629 5962 5505 355 279 396 1309 1080 970 560 80 1051 1193 -206 -906 1069 -967 -2275 -450 560 -1379 -1890 994 2936 -1871 476 2879 1200 1054 1995 132 1773 527 639 -70 -212 436 -865 -1104 764 1050 1211 1631 1134 574 2551 1950 765 62 -302 -1442 -62 -2124 -2155 -153 -825 -1591 105 -893 -311 -477 133 3116 56 562 2173 -478 -671 -736 -741 436 900 -771 280 -661 -542 -88 381 936 480 1162 534 -569 921 -26 680 1102 365 1603 1254 1304 2144 3117 -94 1541 1730 -197 617 1192 295 -314 421 860 478 -504 -634 -1560 -1774 -1898 -1386 -1620 -105 -182 199 -589 -516 285 -518 512 458 -1005 -2713 -2615 -1847 -4176 -4214 -1527 -3648 -2781 400 1088 178 57 1658 1314 398 2373 832 703 2184 1858 -334 496 1322 -337 -1718 -1069 693 -1226 -722 813 479 -389 984 376 -938 164 76 524 -613 -1501 -2034 -1418 -2234 -312 -1123 -1092 -576 -1054 -736 -1214 -117 -620 -25 -758 -504 -1022 -1357 -649 -1466 -208 -553 -1382 -175 186 1367 124 -3627 -2531 1364 -3091 -3224 -2035 -1867 -1627 -1292 -1507 -1892 580 1352 505 -375 -470 1771 -326 -839 1994 445 59 1022 113 -597 -861 316 80 970 1121 959 418 -267 2644 1493 990 3173 2544 2537 2395 2954 201 2110 557 1129 4655 1821 1800 1325 743 -823 128 27 -825 -822 -256 -1083 -918 -1388 1590 -746 -660 412 -507 -1230 218 -1646 -445 655 2731 2388 333 5089 2776 271 1675 1276 -783 -1660 -1428 -1337 -1496 -1434 102 -179 59 123 -321 -917 50 -1582 -1135 1257 1055 1202 -834 367 1179 156 823 857 -149 -397 -135 -183 -724 -1811 -1859 -2461 -3424 -2242 -3709 -2873 1286 217 1524 788 1873 1555 256 1643 2472 158 -761 -785 -382 778 193 807 -148 -713 -264 -867 -1136 -755 -2055 -2139 -2262 -3356 -3638 -3255 453 -1334 1083 5007 4210 916 4194 3486 295 508 851 2103 3089 3402 -141 2126 2016 -2091 -539 2431 -716 -2467 -108 1403 -832 -2487 110 779 248 -608 1343 1457 582 2453 3083 -597 -904 -1098 -171 -1652 -772 1025 -880 647 -457 -862 -110 -1343 -1570 -976 -643 -1218 -476 -653 -548 -1085 -311 756 965 -289 696 993 -1055 -2119 -332 -367 -165 731 766 108 -661 -455 28 1719 576 -983 651 947 1071 -751 -165 441 253 486 1731 1358 1240 2779 2799 588 1213 692 358 1151 2193 399 -224 349 -1108 -790 -1820 -675 600 1303 -1422 876 718 251 -47 784 -651 -2366 -1458 -1836 -4157 -2715 1068 1068 1169 -309 -35 2312 -501 1104 2214 -936 -136 170 -185 1099 480 -1184 331 1163 -37 -784 -1805 579 -525 -2545 -112 -1255 -1214 -2305 -473 -224 -1715 -987 583 -1659 -2224 -1129 293 -1285 1016 -503 -677 490 -44 287 917 -902 -1199 -1984 -578 -562 -2267 -685 -1505 -2442 -841 -911 -112 -690 2495 4942 -1064 4346 3696 -1860 -1319 248 431 741 1170 100 1252 51 3 802 1604 -773 1100 2784 809 483 246 -1405 -1904 -1498 -449 -90 1365 -652 823 1359 875 649 880 -69 1035 2515 1048 882 2238 108 2533 1926 -354 1153 2367 -833 -2148 -1362 -267 -1569 -2038 -2096 -1893 -2165 -786 -1457 -1801 1175 425 201 241 632 737 583 -46 697 -635 186 -2098 735 1370 486 1102 1772 592 951 232 1195 1033 664 1053 429 1296 3588 319 304 -92 -1268 -560 -926 -2165 -1693 -1452 457 -112 -250 -586 -1147 -1599 -1250 -2671 -2407 -514 883 2139 1687 4226 4964 1160 4546 4872 -629 -1167 67 546 -681 -355 1060 1739 2024 -1389 -1078 -1303 -1832 -1705 -1677 -1150 -2380 -967 -1120 -775 -1115 -2528 -2791 -3259 -716 -3344 -1818 -1488 -734 18 29 1838 511 -892 1053 -306 -1585 701 -391 -438 649 956 1262 2016 1183 -3181 -3216 -819 -3244 -4944 -3688 -3179 -4915 -2557 -369 -143 23 234 -247 -820 221 1388 1096 -21 -362 428 -848 -1231 -806 -94 -1786 -162 518 38 1925 -815 -1735 -479 458 -1057 -964 498 924 -419 -579 -941 -1065 643 -86 -271 424 -453 899 1896 1667 326 2004 1452 -820 994 -394 -664 1347 1046 641 1205 310 866 1959 2231 1936 1629 4679 4865 1413 4326 3550 329 1044 279 768 934 -727 -802 -67 -1563 2039 1106 1558 490 2990 2368 1306 2440 2522 1004 1759 1337 -146 980 1203 -817 -1670 -283 -934 -956 -1038 -1925 -1134 -1883 -208 -1236 -1073 359 1626 1526 1622 1726 1428 1656 1754 1371 -928 832 -292 -1059 945 -502 -297 -494 -1419 774 1065 795 596 2911 3232 1414 1814 2336 -1017 -675 -632 555 1266 1199 -78 1572 988 1390 44 -457 1124 -924 -2873 937 -1024 1950 762 266 988 618 722 -126 150 -285 -461 -1093 -1463 -939 -1546 -3622 -2172 -2470 -3439 -3554 1629 1470 516 183 2758 2567 -75 2573 2532 -311 -849 -248 -219 -1868 -1998 -9 -2870 -2050 -86 -153 -449 394 1327 1359 240 669 984 1586 2801 1739 978 3415 3131 -526 1021 1359 640 620 -76 -836 -791 -175 624 790 37 -1091 685 589 -570 1118 944 729 638 -866 32 -1398 8 -269 -4479 -2949 -691 -1726 -2419 -663 310 259 -911 1570 587 -2325 -1554 -2023 -49 -113 -1714 1320 658 -1496 -1255 -176 76 -442 172 486 503 234 446 365 675 916 -175 960 1897 2313 3637 2601 1730 2775 2794 93 1919 1426 275 564 1620 -224 2028 1020 230 -1552 -2228 -642 -2366 -3760 -972 -3384 -3881 -494 24 -1033 -448 -349 -598 -1631 -2085 -1166 -263 -1045 -1057 -972 -934 -1717 116 -543 -1359 1762 2015 846 -177 1139 1328 -675 1203 1094 -602 -780 -451 -1080 -1244 -1328 -1644 -1706 -1808 400 1130 -210 446 219 -1800 -952 8 -13 -1000 804 -1303 1934 780 -1915 783 1043 50 -2790 -1386 -2745 -276 -182 -1867 -197 -1147 -1798 501 952 -97 167 804 -457 -1169 -1410 -269 -378 -1452 -1474 -657 -2052 -624 -1229 -693 861 780 -1466 -1039 1398 -2083 -1309 36 -718 -979 -1075 1050 -50 699 3276 3051 2215 4861 4295 -822 -1675 -714 -2777 -3861 -2809 -2257 -3737 -3055 948 588 741 -154 329 588 -1221 -287 -360 58 1520 992 -96 3534 2438 -1025 2209 1280 -2446 -2285 -867 -1265 -821 -194 -901 -936 -608 230 -1664 -2265 -751 -2416 -935 -806 -1530 -2996 422 558 1595 -473 -974 104 589 -1069 1068 137 -662 -905 -1001 -2257 -2008 -505 -2200 -3439 1 -721 -788 -186 -730 -342 -1364 -918 420 487 1035 -1395 -112 -1676 -2513 -587 163 331 1942 1568 1080 1762 695 1355 -805 -437 -1048 -2122 -1963 -1186 -3022 -2460 -1915 -2227 -1140 -102 -838 -2460 -2535 -863 -967 -828 -824 703 -141 1892 -363 403 1098 1660 1477 3194 3447 2260 -174 1182 445 564 1600 1695 566 594 2129 1503 192 933 317 -173 -27 -683 -100 -685 1118 708 1901 191 -2095 -784 -2 -1080 -1860 1607 1083 2277 -95 -1188 -363 960 -1405 -1754 245 504 156 -1447 3 -1397 -2372 -1333 -2820 1231 60 -345 711 -368 -942 1501 761 278 -1489 -790 -946 -153 927 1683 349 3219 2998 -263 257 838 -209 279 227 370 1209 -327 299 -1269 37 -943 -3398 -1682 -877 -2871 -1973 -51 -1257 -2424 -68 -3980 -5617 -1422 -4244 -4247 883 405 389 335 -553 -2528 -325 -610 -1275 444 1970 2420 -397 664 1293 -881 1149 1299 -1166 1372 882 1313 3621 2708 38 3226 3357 -994 -2342 -2324 -1442 -2570 -3745 414 -2258 -1937 -307 1636 561 -117 467 -2096 43 -1165 -2476 778 1078 1325 1300 2883 1336 1242 1740 1612 -175 -1084 -823 -430 -2236 -203 60 -1012 -166 383 1339 2128 1499 466 1274 -419 -808 -724 255 -130 21 -464 -1994 -1884 -10 -1836 -1003 564 1005 -302 689 152 351 1970 1458 1589 -428 -679 -1113 -1920 -1300 -2117 -1153 -833 -1322 -197 136 15 -856 -1875 -1936 -45 -1539 -2378 1209 1347 172 -1182 -853 757 -901 -533 2 -88 1210 595 320 3674 3405 -452 2601 2331 -247 1613 2453 -2912 644 1383 -1116 -434 1384 -403 -831 967 -498 -3023 -355 -227 -524 -1881 -841 374 -2090 -196 -367 -1508 -1839 -1318 -3097 151 139 319 -1009 -2070 -2270 -639 -3219 -2809 1176 52 -1793 1176 -11 -1528 1482 741 1285 975 1885 972 559 765 -968 49 59 -359 -362 -659 849 -877 1053 -67 -571 308 829 -2739 -2296 -1699 -1692 -1099 261 -2475 -1211 118 70 -582 -803 313 1461 -489 -486 -700 -755 17 -10 1256 824 486 -229 934 790 -181 657 2337 1562 113 4674 3456 1605 4194 4756 2056 1917 383 1257 1918 1062 -30 2472 2353 392 773 216 694 -1081 694 -1307 -1385 1475 -377 561 -676 1007 2311 1879 655 2619 1395 -109 -1369 -1818 897 -2371 -1652 -72 -1840 -96 -448 1280 152 -520 -617 761 -1467 -358 529 1142 582 -87 1260 1183 1456 1307 2096 2406 12 -572 27 -925 -987 -443 -1291 -1709 -1372 -996 -83 -233 -1520 -607 248 -508 -434 -503 1028 462 -1083 -6 -189 -697 159 122 1768 -291 -173 -228 -1330 -899 -2080 -592 -368 -1432 -46 500 986 724 1082 265 453 509 -88 217 143 -1596 291 457 157 2166 1896 358 -385 329 171 866 4624 4194 524 5410 4446 -601 -1055 -762 -628 -876 -623 -981 -1695 -1413 -1265 -520 867 -1205 -1035 -675 -170 -304 -621 -643 40 -286 -918 -1056 -86 691 141 962 -1745 -2099 -1239 -468 684 752 292 1597 2422 887 2740 562 3898 4555 3094 2875 5763 3514 -23 163 589 603 -1198 -216 800 145 669 -1744 -1704 -1922 -1656 -2763 -2487 -1322 -3433 -2845 -715 145 906 1063 -144 1716 2712 -624 -1013 -2247 -1003 646 -509 -744 295 305 -651 -2134 2278 1119 -439 886 1685 1376 349 1738 253 -1586 198 1373 -1589 1898 2751 -431 354 328 -475 -216 778 34 -1011 -303 1572 507 -249 -133 -548 -617 -1544 -533 133 -1481 -777 505 387 218 -220 961 1541 854 2090 2817 486 -1314 -1326 -1620 -1201 -664 -336 -730 -1695 -1405 -468 -1680 966 -372 -1179 -722 216 -2186 -773 -292 312 106 -83 1379 -172 -822 654 1034 -1901 -1442 -1283 -2177 -1941 -395 -611 -1449 -458 1426 505 1132 1490 1584 1256 1715 2569 187 -1622 654 494 -1360 1076 796 -1450 -391 -301 -785 311 -18 565 -1808 660 -1713 -196 874 97 2974 734 -129 622 -814 -328 -121 -913 -422 -855 -580 331 1886 1258 438 3007 1518 283 1280 662 -936 146 1098 -916 -2591 -1345 -110 1725 373 -88 275 -416 -1355 172 -1035 -161 -991 -341 -141 -1859 -2634 -479 -1876 -2611 -798 -1771 -604 -1458 -1392 -1121 -1073 -2786 -2405 1452 1092 1562 552 999 905 765 1706 2840 -588 -517 -160 -1012 -1178 -1626 -1169 -694 -1943 -1540 -2302 -1504 -526 -966 18 -1913 -1411 -434 1330 1845 -701 1016 1188 -35 19 1023 2418 -606 -825 -740 -849 1384 678 -1196 -506 -1242 -240 -258 177 -191 -264 -826 -1078 -936 -2326 -1108 -1764 -1510 -223 -1189 -2861 -632 -2017 -1261 -551 -347 -344 -1439 -945 -107 24 -439 403 52 -318 -340 -528 -1719 -1746 -96 -351 -2062 680 226 713 2038 2056 2087 1358 1370 1127 -638 -111 -662 -40 2841 2499 248 2947 2566 877 453 1286 442 1640 993 117 -288 242 -1142 -1065 -1572 -1292 -1137 -1168 -1966 -897 -1380 696 -1402 -458 -683 -120 -102 35 -496 -334 1883 1463 1566 1203 2138 713 101 -356 785 -939 -442 -153 -2254 -1278 -1657 1162 2231 506 -681 134 -1244 -1364 -1843 -2247 -1655 -2119 -1869 -910 -1900 -990 266 -388 369 1060 927 289 688 926 1634 1077 -303 -681 -391 -570 -1361 -388 1282 -1007 -617 -2573 -2765 -240 -3307 -85 -412 -803 -1595 -3261 -1997 -2118 -1329 -2020 -863 -444 65 -216 -271 576 -641 536 519 -38 44 1043 -139 -902 -254 -1522 -1823 548 -1368 -1531 -1777 -1314 190 3795 1483 -2345 747 -845 -251 -1006 -404 1186 -2293 -1115 910 -392 124 -1712 -124 90 -994 1966 318 -999 797 -651 -699 165 1673 464 -676 94 2878 2225 -339 -1535 -854 -2599 -1930 286 -1161 -1555 -920 -1153 2122 750 1041 1490 3081 1690 2057 3268 2459 -1116 -2153 -1137 -1532 -3734 -3518 -1163 -2239 -2196 781 1054 1071 1808 3953 1923 -1781 -622 677 391 1171 79 1001 1441 923 -1396 -1393 -1110 -6 1420 766 -412 1379 1120 -1001 -836 540 899 259 425 1094 -1584 -779 592 -1805 473 147 -45 -910 444 -38 704 -495 2092 460 1229 1837 1955 -149 341 848 -1326 -947 928 -1147 -1998 -1288 -524 -494 -629 -228 578 -550 1002 -688 -1553 202 -41 -274 220 244 -604 -285 396 -599 -1232 -3718 -3001 -1828 -978 -1461 1494 -994 -549 1422 3500 1339 1051 3357 946 -660 -446 -1003 -444 952 -362 -214 1684 -1275 1577 2795 2485 5585 12233 5668 1219 5688 1863 -1036 -1737 -868 -1221 -876 -655 -3 -975 -2081 -2031 -1161 -1022 1675 1582 -229 844 715 -174 1121 -66 2013 1622 -2090 -628 2093 2189 74 -818 352 -348 150 2716 1979 -1460 -509 -324 -541 -115 127 -1206 3185 2391 -2338 443 -102 733 1005 -829 597 4203 2202 -1265 1265 872 745 235 -391 378 772 -1379 1414 -132 -136 1313 2686 1329 809 3957 1201 238 1340 -423 2154 -309 -504 -107 -491 4068 -94 1889 3713 -897 7 -327 -2007 -3769 -2553 -2592 -3554 -2513 1773 2956 3488 3442 3677 4423 1430 2883 2570 -1154 -39 -964 543 -1405 -2339 756 2450 -1442 -590 -958 -289 745 -1663 -193 3415 581 -705 1177 -453 5 55 -1231 71 553 193 1555 221 -516 -259 148 2157 1619 510 -140 -317 -1403 -2040 -2729 -1822 -698 -797 -1527 -1764 -127 2629 1443 -2385 1659 763 -3040 -786 -909 -333 -435 184 -432 -1322 128 1465 -217 -270 275 94 763 819 1807 1245 1542 683 1437 1367 634 -174 104 547 3590 1240 1430 2236 1877 -1025 -1662 -423 -400 -2038 -1978 -415 152 -609 -291 -1662 -318 -1558 -860 -1077 -619 -652 -1192 -382 -437 -648 -1468 -710 -2658 -2801 -1479 -2615 -82 -745 -860 100 -2226 -1849 697 -313 -38 626 -908 -1008 240 770 -1439 -389 344 -683 1333 2179 2051 -25 2392 2094 1088 207 931 507 304 1683 -1362 -2498 -644 -1450 -4323 -2399 34 -9 -64 1303 7484 6038 372 6530 5026 -578 -113 -918 -732 559 -1551 670 12 -913 309 -265 506 -437 -2367 -1032 -115 -824 -683 -914 -231 552 280 -1869 1247 -124 1599 1045 97 -798 -101 -499 90 406 -252 -1396 -1679 -284 842 930 470 572 1868 -2719 -932 2247 -1117 1201 500 258 2458 989 -453 1918 856 -1015 -1269 -994 -717 -1508 964 -1509 -1345 -131 409 2079 1008 -1637 -960 -670 -559 -2423 -1034 275 1232 738 -101 235 886 -736 -170 609 1981 399 252 1894 -1674 -1127 1705 -823 -585 940 4013 1593 1676 3046 253 1374 -556 -455 -1180 -167 321 -407 480 532 141 343 285 835 -321 383 -211 -1142 -1043 -881 -3085 -2150 186 -430 -459 1641 3331 1186 1645 1092 371 -434 -2300 -861 -1135 -2300 -1449 422 -2278 -1907 1311 -317 -784 202 -1531 2716 1487 1691 1719 139 1422 1657 -476 991 2671 -1532 -936 256 895 1456 451 662 53 -191 445 15 989 360 38 217 -343 -2711 -554 -684 -2093 150 -790 -540 916 -458 -1286 1429 1435 -250 804 876 -157 783 3369 1711 -321 3067 3049 365 -729 408 -30 -92 1413 259 1417 1707 1097 435 888 -42 1370 419 152 1310 436 -403 -287 -1394 -511 -741 -2619 -1532 526 -700 -344 -1030 -1407 993 519 2096 1481 784 1341 -1844 309 1886 690 1220 2192 2205 725 336 -456 -870 -1660 -1086 -312 -1429 -2136 -1911 -2239 -2662 -2366 -1752 -3181 -4529 -4273 -5746 -4034 -5875 -5694 636 1345 -158 423 1521 1766 -413 -1384 -1300 318 -1017 -50 -952 959 1268 911 1347 1860 -280 -2006 -2130 2 -916 229 1559 1124 1754 -1093 -331 -271 -1411 -2414 -585 479 -19 1257 -174 -681 -1826 176 958 -423 -1201 -1892 -1488 -423 534 -141 1832 1353 -612 -109 -104 -632 1408 -109 679 -544 984 542 -892 -402 444 -916 -387 -1130 1483 1687 447 -157 979 866 -684 589 -255 420 25 -1175 -1274 -1152 -431 858 3129 2608 -618 2744 4391 1772 2158 1920 -1242 -133 -410 -375 -91 453 -671 -14 1232 -446 -1865 5 -957 459 1908 772 2315 623 -1515 -1139 -2278 -942 341 -2036 577 1584 -951 -567 -1301 -2080 -516 445 -758 -694 -302 -1063 1285 2745 2941 862 1046 979 3936 3505 -76 84 -486 -325 -39 1683 1385 56 -251 271 1148 -246 939 866 -413 1275 1527 1697 1497 -939 -838 -1458 -1376 -1934 -1396 142 -939 283 -496 1723 867 722 1117 1107 2317 3491 1783 549 729 872 1404 2903 1264 1373 2572 571 2514 4111 1858 1087 2979 2068 -62 685 -762 38 1057 368 -740 1889 -1107 -606 423 -1812 288 929 1905 2511 1368 2033 753 1119 1399 -737 -2482 -698 -1128 -1057 -2043 -667 -1822 -2183 1266 -1091 251 -302 -4220 -1081 344 -583 1183 -1016 -1005 -479 1003 1067 1288 -1349 -975 -2035 -1507 -661 495 -1487 963 1191 -1910 79 -457 -544 890 480 148 2041 438 -516 1591 112 -242 778 -539 -996 150 -1240 -422 -606 735 1954 2189 2869 2734 2628 2318 1474 1215 2129 -538 -578 -284 -126 -271 -1852 -1714 -988 -1821 -2838 -2248 -2502 -2443 -947 745 -2521 347 -251 568 286 1822 -12 -1472 -235 15 -1614 -1636 -902 1923 308 755 3958 -554 163 1695 -762 -366 740 755 -2355 -1277 -378 -552 695 460 868 -389 762 1723 401 1139 791 -911 -1243 -470 -2422 -397 -128 -1102 -362 -204 448 3 -881 227 -908 -2037 -4081 -2305 1024 1455 313 746 59 847 154 2034 1141 1011 949 1100 -942 -20 912 -1725 -1715 389 813 -278 2196 -384 -1320 -1682 -2798 -4418 -4056 -2045 -4752 -4149 993 -217 477 1582 3319 2622 -983 3095 2223 326 -401 -201 608 1284 285 1199 -249 405 998 547 -915 813 -1155 -1506 -57 -1862 2768 -637 -951 1512 172 -518 613 218 -186 891 -1055 -2425 -2589 -1368 907 -359 -2028 3158 81 -414 417 49 -1027 -1425 -1968 841 -620 538 1197 612 1273 2431 -483 932 1157 -58 154 -823 -763 -847 -1046 -2179 -2728 -720 -2789 -2963 -1549 -555 138 -460 1133 363 278 -1035 -1038 492 -742 -964 -363 -2911 -2062 -89 -1751 -2232 -854 -1345 -990 1306 1068 95 780 1505 -293 -1346 -893 -1522 -614 -1994 -2488 1096 75 477 -1966 -2263 -1791 -2545 -3636 -2089 -2676 -2861 -1358 1050 1083 -2501 1566 3124 -167 -918 1475 1712 1107 596 666 -684 252 -1071 346 157 516 -1154 -537 -353 -690 840 -1017 -557 959 689 592 310 679 -789 -2625 -1129 -672 -280 -136 -591 -1187 -1206 -91 943 30 -1119 451 -617 -925 791 22 -462 -152 -1293 -724 -69 -782 217 -303 -738 -1085 -3571 -3753 -2543 -3306 -3666 307 852 -94 -76 2327 677 -136 894 13 -846 -603 -982 417 2169 -207 229 1271 -277 3162 817 -629 2016 -943 -583 -1777 -369 3351 825 965 -1 2200 1998 84 -1420 -1410 227 670 -1473 -837 -101 -1773 -1588 -425 -3097 -1667 -157 -1137 -814 -1149 -1825 -689 1480 -311 209 -611 -1136 -648 1091 -1091 -1647 2026 712 1348 -2113 -1051 -982 -676 467 -419 362 468 -1342 -1217 -242 -1616 914 427 349 -2004 -725 -1755 112 857 37 -263 -1035 -427 -209 -1799 -1298 -181 -490 -501 -1346 386 -697 -856 847 1955 271 219 1037 541 1073 2344 -276 882 241 -1218 -1298 -377 -1799 -2769 -1176 -1130 219 -762 1379 1741 2325 30 470 433 613 353 1113 194 -983 684 -1575 -1397 -1500 -1828 -2926 -2580 -1145 -2117 -1461 -907 -3789 -1849 312 -615 621 206 1798 799 768 3652 3317 14 1929 2714 -527 -978 34 -74 -3085 -814 1787 452 -91 -49 928 337 991 3554 1559 161 2347 1559 -241 -1046 -2141 -903 -1047 -2106 -1925 -1559 -2107 296 24 501 7 -1929 -327 10 666 -744 26 1041 -557 2624 8585 4937 3201 7676 5109 -1706 -124 -662 -2051 272 -255 -820 -1771 -2768 495 -109 48 -119 848 -2783 385 116 -1382 3159 4056 2903 5493 8251 4993 1505 2232 979 -1015 -1476 -1990 -224 294 -2243 -679 -118 -220 -418 562 1320 -707 2490 2167 340 1626 179 -1437 -2004 -1923 -2829 -4150 -3360 -2147 -3453 -2595 709 -640 -173 -1206 -4175 -2359 -665 -2283 -2043 -1134 -1440 -2189 -305 3 -785 -860 -581 -490 730 883 744 -543 -1798 -1441 -985 -4097 -2466 632 785 -738 347 330 462 -967 961 1493 -712 833 1570 18 4381 4899 388 4214 3353 24 -925 1283 762 -804 340 -1058 -291 102 -1300 -1387 -921 -266 -629 -958 -393 -3135 -1219 -460 -669 -613 -1336 -2466 185 1486 199 125 1448 1146 -520 1588 -718 516 919 1586 2284 -864 -1150 -460 389 827 -196 -3 -1202 -459 -168 -337 -790 -818 -532 -988 -2068 -1880 -3041 -2424 -3248 -2393 -899 1288 -97 452 840 581 -123 1923 1173 -1872 1624 216 -1019 3253 2601 -182 -1591 -1436 -19 -2068 -1279 -82 -381 386 -322 527 712 880 1995 2016 2840 3064 3678 6 -789 -800 -422 -1905 -1534 330 23 -292 426 2232 1137 -447 323 711 -200 516 1337 498 -587 -1473 169 -1833 -3432 543 -892 -2304 -1034 -769 -764 -212 -844 -999 953 926 -2025 -159 -1244 1561 1465 -1767 -1028 1737 686 -206 -159 162 -242 -37 -779 996 147 -1360 -552 -317 -15 -365 -721 -131 -766 -1044 -1476 867 -2369 -2253 -723 -1665 -1260 161 -1333 -265 -1203 -564 -442 444 -598 -576 -1282 1299 1151 -155 -1668 604 1363 707 1766 1010 -756 -1408 -2912 -1448 -723 -1944 -509 4663 1642 -3161 755 -1834 671 2621 510 543 504 -335 -303 -366 -729 -1332 -3213 -2467 -575 9 -594 -1149 -1768 -711 -130 -66 -1499 1029 3417 1266 762 715 671 -501 152 -846 1218 948 -73 -1367 -2366 -1439 -399 894 -95 -53 1003 1912 -42 2117 1843 677 1429 -8 1538 6281 2064 1283 1073 -511 -270 272 -651 -65 -465 2032 837 1259 2244 -1114 873 233 -749 633 1648 -502 209 -549 1093 409 131 -1137 -3010 -2811 -221 -2803 -704 -632 -692 668 -841 -717 -760 1836 -180 -378 -540 1751 1838 -672 -198 490 794 1810 -549 -839 -199 -705 757 1681 1392 710 244 819 1112 995 1522 736 2636 2295 870 757 1433 1192 -986 -276 1622 719 -110 -213 -1854 -1231 -290 -317 -691 422 1765 587 284 1885 344 249 1033 554 273 -861 -345 2192 -441 1167 -1663 -498 -1290 631 723 -285 -458 -130 -1589 1137 -767 279 294 -475 832 -628 456 -31 1414 3457 1086 502 2827 152 1180 1847 1107 110 -713 676 -202 -464 -18 -832 -1214 -395 -1630 -1840 -1814 -2642 -3024 1170 -729 2622 2256 380 -798 -1772 713 1110 -1325 1390 1927 -215 -42 -202 -670 -1128 -3260 -2152 -636 -1261 -1202 583 445 396 1166 -931 -25 1556 506 -204 -909 457 -1244 988 600 2949 574 890 -21 177 1912 208 -553 2308 546 -581 -362 299 61 -422 -1671 488 -1299 -1645 2284 519 -1802 -264 2131 2604 -169 708 1616 861 748 -880 -13 2227 3533 690 57 1871 985 -376 1559 -697 507 1224 -107 -1845 557 -310 -1251 -1951 1325 2349 2305 1426 4920 1897 2587 2806 1901 664 1197 141 1154 3712 1487 -983 879 79 -2140 -1314 -1814 120 -264 -1097 -831 -265 -262 -393 -1847 -891 2077 -1468 -2129 2544 2053 955 1184 2 908 -1142 -936 1231 -984 -175 2879 -1136 286 -382 -3203 -1404 -1217 -5099 -3374 -3525 933 658 254 1449 597 1284 -825 -208 1256 1216 3601 3124 593 813 1900 840 1914 1930 -104 -1193 -1312 -2027 -2181 -2656 -1152 -1785 -983 258 -1233 470 -373 -659 -746 986 1601 606 -1059 226 660 -937 469 26 1698 2311 182 -841 -84 956 -1120 -162 -971 15 -577 -1459 1156 -1462 -1319 449 538 -391 -932 770 3 197 -1199 -1278 -409 1031 -46 19 459 -447 1678 1246 2154 -115 -1108 532 966 785 750 -949 237 -879 -1981 -2559 -3543 -2080 -4650 -1986 748 248 -86 227 1252 -249 -638 796 1194 -103 -882 2648 -843 -1489 282 -859 -521 -1381 402 -253 -635 -819 -29 -900 -621 -1035 -483 326 1801 2297 -122 67 430 1104 237 1415 -343 662 -520 -1089 2472 346 -1438 -1207 -1175 -715 -2565 -789 344 -311 -378 510 -949 -591 1089 -19 1580 1735 2686 971 1721 1417 2660 190 -56 -547 -1278 16 183 -1603 -1417 -1810 -1369 -2807 -1556 -1677 -3853 -3102 -884 -2332 -141 -483 -97 311 2654 3312 3152 1790 1506 2174 1443 -306 -2355 1996 1275 707 1067 526 318 2143 1422 854 632 -1429 -2889 1276 -1770 -4560 1085 -114 1569 385 1104 867 -1015 390 1062 725 2848 3536 105 1806 2074 -421 536 839 -2114 177 -1044 -1203 -331 -1214 -1031 -1366 -1587 -695 -2625 -1848 -1233 -577 -405 -1857 -682 -477 -405 1313 1135 429 -1149 -1868 -5 -522 -107 90 -1101 -1999 -410 -1525 -3492 -499 -2385 -2743 315 917 419 -226 -581 -2260 233 -65 -853 -991 -584 -288 -1334 -688 -1776 -567 -1229 -2726 5343 1077 -1257 4425 -3234 -6224 4062 -4633 -5368 -1402 257 -426 1731 3752 2584 727 1242 1582 -1457 338 -289 -1504 31 -1755 -2328 -534 -189 1145 79 180 -928 -467 502 -984 476 891 -84 -608 -505 -234 -214 693 277 -130 875 1266 797 716 418 -668 -510 668 -709 -682 -566 -155 904 -610 2944 2822 -857 1286 198 -327 -814 -871 15 -1938 -1376 601 1274 3271 675 371 844 2002 1999 -104 1606 1916 1624 640 706 310 742 370 698 -785 -410 -685 43 1893 1404 640 591 2112 1435 1247 1464 520 826 1385 1456 3650 1827 232 -826 -2725 -119 -712 -2104 1764 1295 1159 1267 1675 1885 -1234 357 1363 -682 -1314 636 1363 578 1396 -401 -1176 -932 132 -2915 -5987 205 -2810 -4641 -962 -409 -491 -842 568 1008 -353 2722 2564 -958 -27 -383 -1744 -412 229 -1338 468 645 445 355 907 579 1630 1836 -325 -2 -102 -564 325 -544 239 232 -251 697 1684 -153 706 -675 -386 901 240 -314 1204 621 959 219 1169 -860 -234 -51 -601 -55 -1160 -2245 745 597 -1230 897 -440 -2073 976 660 962 -2048 -424 -2859 365 794 -2946 26 -1796 -2834 380 -42 -124 -242 -718 -3988 247 107 -3137 -1649 -1899 -905 363 -1093 26 -354 -519 -1446 592 -88 436 -651 666 488 -451 -658 -957 1405 686 223 311 -995 -312 155 -1192 433 1438 2184 869 2816 1321 -13 185 -404 210 -1470 -1946 -1722 -2091 720 965 -1928 2557 3130 -836 -758 148 -841 -170 871 -636 -1266 249 -380 -1473 -1475 -723 -1068 -1740 -648 -2805 -397 1673 406 1057 -1212 -986 1578 -1902 -3613 1150 449 1198 1808 2813 4751 5147 1214 2915 2890 -1355 -874 714 121 1447 895 -668 -446 738 868 2458 1816 929 2806 1448 2498 2612 1690 -4512 -2718 -1763 -3208 -4563 2706 -2127 1088 4185 1461 1457 107 345 -38 -1468 -1500 -1775 -2454 -718 -2033 -803 585 -1643 0 308 -1084 215 78 349 69 1372 1489 -484 591 2251 2235 -502 -870 -214 -1340 -424 -679 613 574 412 -529 -448 327 -29 2956 3807 663 4262 2331 1669 1832 2711 -49 2020 2029 698 2399 2209 2691 627 317 1352 -3347 -2655 2322 -1431 -9 690 -25 -2159 364 35 -1645 1067 -1015 -2097 -304 223 2179 515 1410 555 296 480 170 1434 -623 -580 1112 1779 -1758 326 2154 825 1047 1865 2573 -183 2047 4106 -35 1376 3287 -1593 -1757 -1593 -876 -2600 -2483 -1883 -2022 -1155 534 652 1240 86 -971 258 -241 -1609 -1343 -171 -1540 -2278 703 -1027 -2566 386 467 -454 -544 -1934 -2003 -614 -1928 -3002 -1024 -936 -593 1171 -576 -126 1186 -734 458 198 -1996 352 389 -200 224 -361 -1177 -44 1256 400 0 -2238 47 -959 -1793 -210 -1175 -1716 -2772 -3470 162 936 150 372 -328 -724 2619 2407 2173 1426 1291 -26 991 -1096 -626 -542 -2269 -2243 1801 2217 874 2792 1291 157 1330 151 -593 582 -840 -1149 234 -1673 -2133 -1743 -2403 -3139 -2060 -397 -1149 -696 -54 -1532 -595 698 -1138 -3410 -4242 -3799 -2827 -4179 -4824 -2815 -2180 -652 775 214 -207 -1851 -2592 -1534 -1766 -1446 -2120 1896 804 559 1774 518 701 1353 1253 469 881 -331 -617 1177 -2420 -2153 1063 -13 -215 -170 -223 1606 777 147 657 522 -172 -715 -1840 -802 -1361 -186 1027 612 -396 11 -280 -5908 -2729 -2088 -4005 3220 3532 -3556 4341 4472 459 -702 -2152 6 -2213 -1745 -702 -2333 -321 501 -497 2713 -72 -1329 -2458 -695 -1439 -3136 526 624 -604 946 -362 739 -585 477 -155 -370 -846 -706 664 529 -1717 -893 -1057 -1584 -1115 -1345 -1588 -1552 -2699 -2517 -1300 -1910 -2086 989 2071 -1114 -418 1000 153 -1632 -175 -881 -180 -1089 -839 -776 -812 -2562 -1778 -271 -1457 -967 -1113 1723 14 967 432 1173 1662 -505 -1284 854 1662 154 2941 3492 -320 1180 2285 -1702 -1584 878 -803 -1506 -452 1542 677 -912 -4208 -4028 -1942 -1468 -468 233 -535 1234 1216 -565 -630 -330 -1014 -1046 -2069 -1541 -2044 -2738 1904 759 1168 1194 2246 1614 1078 1738 1781 -73 770 3847 185 1832 4368 1935 2722 3157 1306 1837 15 1465 1100 -532 723 -1008 -1953 -745 -1721 -435 392 -1628 1371 896 -2182 715 455 424 -195 230 -104 196 -227 -1061 115 213 -536 -450 379 -628 -1221 230 -710 327 274 -27 137 -2395 -428 -825 -653 -280 -605 -1465 -374 -1221 386 1265 383 -1882 -384 -1121 -426 275 -591 763 -528 2 -915 -3001 -2728 44 -803 -340 -771 878 363 -1705 -841 -1744 525 4 -1177 89 -1142 -2910 1049 1063 -1319 250 436 57 -432 -1791 -2664 954 -1049 -3864 -665 198 -978 -344 -551 -2863 126 -1389 -1654 442 334 -1234 759 1613 -1036 -377 1149 -144 -417 459 -105 2424 2166 -1388 3543 3020 1015 861 -179 654 397 -1009 -1665 -688 -1376 -399 -2777 -1231 138 -2779 -581 -797 -1099 -586 -1053 2168 864 -935 432 -2272 -3287 774 -932 -2770 -3484 -3371 -1433 -2473 1363 1800 -2053 3387 2747 -245 153 17 379 216 -668 881 693 1988 1023 915 -207 227 864 215 -1052 1094 639 151 576 -1305 -267 -2852 -3343 -717 -3167 -3466 -1224 995 -378 -99 1326 647 -66 351 -149 1134 -845 -732 369 1277 1805 -807 660 1190 2243 2495 1174 2629 311 900 -249 -680 -107 -683 1476 -37 528 -231 55 178 891 694 955 1010 -77 -750 -835 -1553 -362 -850 -1067 416 -1228 -806 716 52 -1136 560 -1947 -1351 -329 -935 524 -684 1360 1679 2521 2875 2948 431 -686 280 281 -1294 -1192 -686 -380 -950 -238 861 2517 -713 2960 2968 -1675 1307 912 164 -581 -2733 196 -213 -2101 -91 -1584 -2762 -857 63 1313 -1341 -2538 -2673 -1673 -3220 -3865 -1106 -1149 -840 -1366 -995 -2266 -1829 -2089 -1769 -167 1390 979 1385 1390 1906 1983 -600 -1144 -135 426 1950 -199 1254 4781 136 1752 2614 1489 86 840 56 -586 402 2057 520 1536 1126 95 -1384 1780 -1799 -4026 1727 -2642 -2902 -134 893 664 1376 1380 1566 1123 1091 918 -1547 -1114 96 -530 -2370 -45 -453 -1805 -433 911 -549 -241 209 -838 -904 1133 -999 -1590 -130 -1083 -87 -366 -1025 -1226 -396 -845 -421 -376 -487 -534 -1037 1468 337 -545 -1275 -2546 829 197 293 701 -1955 -940 -78 -713 1196 -1512 -1177 -50 -582 485 2223 -1 85 1158 185 1571 3381 -488 540 1692 672 300 434 -2402 -671 1240 278 1277 1915 -941 691 -401 854 -1964 -3439 239 -4007 -4800 944 -4056 -4323 -238 892 1180 -130 -429 26 -1218 -2707 -2339 2215 2085 2112 28 -179 945 72 -4755 -3788 -721 -321 -175 -1106 999 347 -2627 -442 293 969 -45 -536 55 97 899 1852 884 -28 1840 977 759 482 -508 -522 522 -468 -865 919 -1251 -67 1100 370 1341 -210 325 251 242 668 -825 -1011 -594 -1683 -527 991 661 -1186 -2284 -1170 1669 -1006 427 2310 1955 2070 -292 -1317 -989 -575 852 1257 -1503 613 -357 -272 1664 1404 -43 -115 -81 886 -513 -605 -222 835 -371 -1636 -325 -1290 425 334 34 1577 981 785 -8 1124 472 -676 208 134 1068 -1288 -1777 979 38 -4135 -1003 -1530 -944 -208 -356 -319 -110 1251 -155 -829 714 35 -2367 -1186 -1125 -1064 -1696 -556 -126 -87 -65 -95 -614 872 728 -1769 -609 1042 -1453 -1412 -431 1054 -366 -460 2002 1814 -464 782 1956 -4370 -4179 -1663 -4319 -5256 -3661 -4852 -6268 -228 -3641 -1449 736 -1080 6446 7559 616 8577 8821 1150 1492 189 444 -930 -1745 302 -951 -922 911 849 1273 2068 1638 -180 185 -112 -707 -881 -803 486 -1744 2630 2780 -362 3067 4186 935 -1096 -633 553 591 1131 -710 -1456 -1734 17 32 -665 -347 -843 -1955 -977 -1287 -1319 -426 175 -1227 -54 -3531 -4720 -129 -2825 -3024 -973 -933 -953 -768 -205 -2736 -197 -1600 -2615 3153 2986 279 2227 -1504 -5247 1425 -3880 -4568 162 -986 -1322 1407 -3575 -5347 406 77 -1127 168 -1384 -532 -162 753 3540 331 2189 3336 797 -876 132 1473 1295 2337 503 -297 514 316 224 -436 -241 3413 3029 218 3984 3969 709 -1669 -1598 -1131 -2102 -2450 -1440 -1895 -2453 -1653 -1243 -399 -1653 -993 -2255 -2085 -2083 -2021 387 -666 -618 -1289 -359 -672 -1319 -2029 -2649 -1265 -1923 -2044 -2330 -260 -534 -1145 756 -919 507 -148 222 -93 199 652 -1151 -1587 -81 205 188 -1013 738 -751 -2169 972 -1519 -376 -339 472 624 26 893 2351 -750 336 1361 -2570 -1737 -161 -2342 -1189 -2216 -2590 -2386 -2895 -170 555 837 449 -46 433 1234 -382 21 574 -531 -765 705 -1521 -1858 1617 -904 -2086 -260 1373 1126 1144 444 135 1002 -1925 -2824 -1201 99 402 664 1292 2031 -321 1487 1451 263 677 1604 -813 -754 645 -372 -1362 -587 -1415 -14 238 -7 193 1376 1947 2913 2851 -475 357 -975 690 -764 -1134 -60 -680 -1069 647 277 -668 -146 -432 -2960 213 -2501 -3419 -305 -478 -460 276 700 1374 1021 277 747 42 -245 -1039 -911 150 -897 -704 323 -662 882 -1333 -1354 1342 -4865 -4421 1681 -1420 -313 245 202 185 518 246 198 80 -636 78 -134 -915 660 -4 -33 338 -123 576 1029 -824 -279 -649 -780 -887 595 -420 1390 2290 1056 1378 -154 1566 -273 -111 1342 -9 654 -724 -645 -1070 -733 35 211 902 1102 646 1259 2653 1188 813 3338 3327 -259 2279 2970 -754 439 800 107 -317 -1579 -400 -646 -930 182 -35 1494 279 102 -477 2247 1178 -279 218 -1524 -744 4311 4637 1778 3913 5456 4723 889 883 -53 1742 -2319 -1708 1703 -1414 -2247 2909 620 -1163 1048 -394 -173 360 363 1441 555 952 -445 576 -260 -1882 415 -1942 -3519 487 637 -402 659 -1230 -567 -419 -1244 1350 -2320 836 767 -3278 4371 6532 -2797 4210 4859 813 1702 1159 175 2074 1367 1079 24 159 879 1130 386 385 -724 -1515 -113 -2131 -2331 248 -898 159 534 268 -163 1310 1235 479 -891 -2331 919 -2427 -3379 -1885 -1100 -2237 -2495 416 559 526 -214 981 231 -1038 1251 -565 -1069 822 -12 320 1900 899 1139 1730 2075 -1454 -3101 -1312 -1377 -2437 393 -776 -1490 69 941 228 293 1071 -53 -1324 144 99 -243 -436 -421 -286 -1568 -2115 -1312 94 -2451 -2756 732 1795 1731 1780 -480 -512 1624 1007 1213 1559 -49 207 539 525 -377 -606 -1931 -1132 42 -136 -748 -45 281 -626 977 -520 -333 -345 88 940 -639 -1231 663 -511 -1456 -1372 -994 -1421 -1957 750 -393 -558 -673 -1262 502 255 2380 1222 -1293 1485 343 -1086 -1239 -1188 405 627 1380 -933 -143 -769 -1732 -1941 -2554 515 597 -559 -923 2560 2434 -177 1908 2035 1508 519 -28 755 174 -937 -721 -550 -1345 849 -329 551 2450 4739 2829 122 2469 1925 -1041 62 -334 -599 2083 1863 -1571 -581 -1073 -149 819 -229 -791 2326 521 -694 -508 -1696 -887 1336 1068 905 1880 -348 -636 -89 -1738 -1920 -1195 -1096 -1642 15 1458 -628 -72 -338 -376 -581 7 720 477 -166 95 -41 -1532 -395 112 -1632 1095 980 -2171 969 1932 -121 1234 588 -1174 1171 772 260 1346 642 -581 -494 2015 2198 -1217 234 2364 -418 -463 1819 -248 -270 -630 1750 -356 147 2643 693 -4 -915 -876 -37 -1528 1091 -194 -1931 -1644 -2269 -1920 -1837 -570 -1201 -320 -650 -1232 -427 -358 491 925 612 -129 3402 3797 -403 2475 3370 376 232 -1610 -214 -937 -1103 -341 -1037 -1839 -206 -339 -1133 -1613 -840 -332 -757 717 1741 -1707 -1290 -397 -1010 -1335 733 -1217 -3555 -2331 1637 1092 1098 1867 -752 1263 -894 -707 334 -3370 -480 -678 -2277 3 619 -2317 -724 -1147 470 -992 -820 379 -443 -1266 -1998 -542 -906 618 -1035 580 -304 741 2186 -1064 -710 600 56 -248 99 -1109 1763 2567 -616 279 1660 -1759 -2533 -2251 -3252 -1721 -2466 -2173 -2066 -1832 -167 384 -1128 952 2624 2395 1376 2138 669 -344 -894 -1676 -1085 -1466 -2007 825 -559 -953 169 453 306 1028 267 -1180 500 91 -1818 975 671 237 2515 1881 -625 2472 -541 -1814 -122 -2443 -1247 -663 -1984 -2699 -36 -2308 -2241 -728 -216 -1119 18 -818 -1964 147 -225 -1428 -1049 -460 -685 -1047 -590 -822 -1440 -989 750 -445 -760 -1542 299 -1956 -3265 1289 -1536 -2347 521 694 600 796 1513 1842 1352 375 1006 80 111 453 1006 2302 -498 1147 -381 -1235 -47 863 813 282 293 302 -848 -1715 -965 -596 -1557 -4188 613 1242 -3742 2232 3030 1316 -635 243 13 -903 966 1052 -519 1611 2645 -197 -1251 -1218 740 -1897 -343 1092 -140 802 2699 3030 2247 1114 4406 5044 1880 2923 4120 -491 412 -116 -2684 -1554 -1411 -1771 -1893 -1538 -875 -1046 -502 -1023 -986 -553 -78 223 335 824 -3729 -1072 -3614 -6142 -6496 -3471 -10459 -8014 1877 1140 2005 1349 1658 2225 563 1332 2288 -1894 -376 -887 -1224 150 -686 -1310 -253 -369 -139 1424 96 1069 1082 983 300 2710 842 434 853 710 -293 998 144 324 159 1274 -567 164 -30 610 8 -669 2225 2132 2041 -762 491 -102 -87 1578 2826 534 3898 4485 56 -353 -462 705 1942 214 661 1411 2583 -937 6 737 503 1532 1926 36 1245 1084 -485 -381 1263 -935 -402 -260 -1617 -1814 -613 476 1936 1866 1453 1889 2057 1116 1083 359 -1454 -1607 -347 -591 361 201 -1921 -1491 -1484 -210 1153 2592 -262 422 1223 727 -280 890 -1577 -41 1239 -326 1851 2386 -215 1280 1326 -1091 -552 -1654 -1327 -1264 -1611 -1345 -2673 -1422 -1227 -1608 -1653 -1461 -816 -1016 -610 -947 170 198 796 294 -484 -193 -385 -987 151 -509 1742 -67 -12 1302 966 124 441 197 -688 386 -331 -1719 1671 42 -1581 48 -2042 -789 -780 523 659 -96 1541 69 280 594 728 -261 -873 464 663 647 1860 1353 3259 3061 -210 -856 540 -2612 -3159 -1823 -1681 -4624 -1983 -291 -98 -759 -732 643 1501 -10 -1784 -1873 -31 915 901 1467 2325 3033 1101 1767 3945 -2172 -1364 -2327 -2540 -1798 -3280 -1118 -2251 -2054 638 688 0 -497 640 351 197 -155 297 603 2050 1858 841 2778 3224 138 1389 2554 -469 -815 -945 -417 122 -521 323 -126 397 522 1251 951 322 2156 1668 -37 1091 1169 -876 457 272 -1003 -245 -843 -597 271 63 11 -989 -2474 2801 -498 -1190 3061 2202 300 1420 3399 187 2759 5655 5964 2124 6087 5022 -1475 -1753 -1523 -3973 -3953 -3315 -2637 -3656 -4170 -1413 -2017 -1852 -102 957 221 1166 1305 1210 -590 -118 -862 -579 -679 -669 -1134 -241 -116 23 669 1093 141 2094 2048 576 1414 2170 1011 1211 778 1557 451 1428 2140 2203 2866 -449 -253 177 -167 -238 -666 210 -434 -704 31 1070 1648 586 233 -106 454 -32 1006 36 -707 1309 -505 659 1519 1031 1180 1026 -1865 -806 -1457 -634 -1062 -681 1938 -1392 -1201 432 -883 33 272 -797 -1208 378 -543 -499 -256 -2084 754 36 332 398 1729 596 561 1678 3195 2625 1204 3989 1443 1805 1322 1815 884 574 565 1885 1566 -36 346 -392 -298 -181 -88 408 -335 -983 -26 -317 -657 95 -1375 -377 -164 -1892 157 -114 -764 893 1073 411 2023 685 1392 2786 3214 2203 3678 1796 420 258 -27 -1163 -1144 -2576 -870 -2215 -2407 -16 112 213 662 1069 401 1052 79 403 183 -1577 -288 -367 -3087 -781 1653 -492 -24 -790 -474 -736 -256 858 -1185 379 61 -644 -1733 253 -834 235 1412 432 1844 1845 1217 -852 -872 -1318 -2998 -4012 -4871 -4119 -6428 -5631 -785 -1116 -1177 -1060 -2226 -2579 -270 -1189 -1301 1161 1110 2060 228 216 562 256 -828 -711 -1520 -274 -327 -580 248 825 1242 2100 2161 -1314 200 732 -995 161 587 -359 1714 1907 -176 494 774 -601 162 1583 1049 2576 3654 -1897 -1829 -1328 -1958 -2724 -1973 -1185 -1363 -2012 -370 -56 -331 32 -591 -275 481 -492 -294 -628 -15 821 -984 8 725 195 -87 637 -155 -872 -1008 -348 -254 -774 -451 -154 -1559 1652 1292 494 21 1595 601 110 -425 424 1040 1767 1625 493 310 831 98 195 1082 791 537 214 -90 -935 -782 970 1106 448 1579 3906 3143 2204 3247 4307 3216 6395 6515 -1666 -1236 -49 -1104 75 2266 -222 1650 1625 -35 354 1279 3305 3358 3267 2401 4013 3553 905 907 749 770 142 -1229 356 -372 -353 90 470 -669 36 -612 -314 1166 167 840 -802 -161 187 1404 1086 2364 409 3123 5003 -105 722 137 428 656 1655 -725 -606 195 350 76 365 1050 1971 2772 1424 2495 1856 -478 -1076 -620 -1123 -991 -2147 -1261 -1910 -2858 -112 540 1513 -261 399 814 -1649 -426 1809 -825 286 893 1018 -559 -345 1620 3337 1071 -342 -1237 -866 -413 -1067 -1590 -1159 -1707 -1150 442 -1123 -499 1074 -1025 1581 637 -801 -294 -287 -1176 -892 1532 1208 1174 1091 13 -65 -432 -78 -1181 -496 427 456 -766 512 827 -629 195 1388 -1036 583 1018 114 -893 -185 -487 292 -331 688 442 1148 1465 877 -690 -1907 -1535 -1585 -1865 -1651 -2238 -1316 -2224 -2408 -61 340 -467 525 -699 1041 -82 -214 441 -1390 -1961 -2028 -2682 -2566 -1453 -3251 -2891 -2020 1452 575 1222 562 596 1211 773 745 179 270 -358 573 -199 708 422 -1051 46 -195 2023 2686 2105 2226 3510 2659 1666 1179 839 -1129 -506 -503 -1309 200 624 -594 -449 178 249 -325 -535 -275 -926 1196 1199 227 1347 37 -223 -170 -345 -106 312 13 -541 -675 -440 -719 120 -153 163 -809 80 -681 -174 1445 -75 274 1529 834 3569 972 4800 3665 -3021 -2180 -1847 -1638 686 892 -561 996 1534 -687 -3 944 -179 1348 2704 1086 2025 2297 -1701 -2668 -1403 -1220 -1101 -192 455 -263 1209 -2846 -1494 -1463 -1663 1506 592 205 714 545 846 3248 2768 1787 1378 1543 3676 1512 397 -1793 837 633 -1393 1620 2353 91 2312 3089 249 182 -43 708 -187 -293 -424 -442 -1179 -1369 562 -1490 -1069 14 -630 1205 107 -570 192 336 314 -798 1040 2008 852 2880 2144 -371 -1693 -472 -1408 -709 -1027 -964 -1304 -404 423 -16 1216 -355 642 1189 -1198 -1116 879 -436 2745 1693 1724 3943 5237 1891 5753 4957 1825 901 921 956 369 239 -542 -152 328 -1019 -1869 -1421 -1501 -1597 -3040 -309 -1735 -1431 2618 762 939 1571 -1376 -237 530 966 735 -1597 -1585 -988 -1993 -2596 -2096 -1540 -2144 -2094 -105 -1350 -494 -896 992 880 539 1931 2656 55 -346 -989 1429 910 -459 1345 183 350 67 1163 -374 792 769 535 782 917 558 -352 -1767 -1510 -1562 -2603 -2971 -477 -3422 -2497 -256 -2044 -206 -1614 -2853 -1430 -1230 -2788 -2225 -1127 -418 401 917 -748 2590 1121 1908 2453 -1137 -1189 -605 1049 -825 -2196 202 -2046 -2455 191 78 1223 225 1106 2148 1486 3106 3827 -200 2124 1553 306 2143 4300 -455 2406 2332 -723 -549 181 669 238 -101 845 123 546 -953 -1099 -1274 -971 -1101 -1442 -927 -245 -34 -1755 -2063 -964 -2206 -1723 -1362 271 -1198 -736 1289 -642 -552 -902 -1311 -4235 1016 -2317 -1279 -352 -1013 -881 -2033 -3458 -1965 -1219 -4084 -3267 -532 -597 -82 -1701 -2831 -1663 -2742 -3762 -2812 1780 1049 886 187 812 694 201 1909 727 -161 882 645 -224 378 -45 -504 -704 -1186 364 191 -481 787 -719 -1106 106 -1286 -1332 522 78 771 523 1932 207 1634 736 410 547 -235 1207 710 -95 -149 90 145 217 -636 -716 615 811 1076 2121 774 3011 2509 -510 -95 4 248 1367 1980 -250 1344 1402 -13 -2098 -1875 -3085 -3344 -4369 -2180 -4463 -4786 32 -1373 -593 187 -751 -979 726 -1415 -591 -363 -1562 -1117 -2364 -4962 -4476 -1461 -3151 -3236 -334 1132 1278 272 601 -301 152 -700 473 1025 58 113 2049 1510 880 1137 1344 1282 -1165 -1185 -1350 -960 -1745 -3088 -2133 -4013 -4335 -1448 -533 -170 -582 69 1544 102 -315 1191 1019 899 575 145 987 1245 1431 928 2265 -151 -774 -1643 72 1798 1163 172 1398 1767 -80 676 629 17 -277 95 331 1381 1326 718 966 1381 169 126 857 826 363 526 -807 -936 -734 -2213 -2455 -2136 -445 -2265 -1142 -1480 190 -1641 -1230 -200 -1882 -1074 -566 -636 1950 3041 2422 1876 1471 1962 -78 971 419 1158 2107 1385 1297 1972 2537 1756 2980 2362 -684 -732 -1907 994 -431 -1385 -21 -497 -29 -1192 -1149 -934 -1772 -735 717 -902 -487 -370 -2099 -1375 -352 -3700 -4536 -4391 -3731 -8010 -6961 -516 1018 110 216 835 1021 972 1105 1992 -1367 -2321 -2234 321 950 -616 774 1594 -454 954 -78 -451 691 -290 -290 2243 466 659 1229 772 1179 1163 1205 1064 1031 641 348 580 573 1058 1653 384 382 1669 1454 2214 -1505 -1364 142 -64 1527 12 -843 1349 173 -553 -18 686 -1279 171 -1111 -631 -664 950 -477 -1342 158 1134 -4 569 1155 1091 2207 -1114 -131 -805 -866 -560 -535 1324 1983 -378 -431 -1547 -109 -361 -981 -679 -71 -667 1508 465 988 1725 2622 1436 3942 -224 1215 1971 899 2534 1509 1606 4003 4217 36 3682 2384 661 2188 2775 1268 2399 1614 1869 1518 1434 -693 506 -539 -434 -1237 -1370 -409 -1393 -1304 -593 -1276 -165 -136 1118 1550 -28 726 1463 1691 2160 1879 1047 1827 2793 1252 2138 1508 2938 2649 1973 1958 480 2709 1710 2783 3893 321 1532 1476 25 3276 2918 262 2383 2160 -33 81 377 910 1161 -500 1601 851 854 -4436 -6401 -5486 -8775 -10533 -10768 -7949 -13023 -11901 1048 1316 1204 1186 1314 385 -574 -1507 -1226 -1197 330 564 -2456 -1109 -165 -1405 870 315 -849 -1267 -1254 632 570 486 593 1582 1051 703 -1178 -1168 940 -914 -1842 651 844 -123 -1246 -2883 -1753 -1354 -590 -790 -1446 -1438 -519 -714 -1548 -873 -688 -1096 -222 -1407 -2834 -1440 -486 40 -327 198 1535 1774 -798 852 969 -952 410 561 253 1693 1569 -319 622 158 608 1396 -186 137 111 -1282 223 -1022 -1153 831 694 -419 1098 2880 2685 923 2546 2527 627 -148 -144 1358 2399 1000 2186 2309 1870 -1350 -2082 3 -805 -1979 -765 -65 -551 -1242 443 529 368 665 -1609 568 1250 2249 1468 -246 -161 365 405 255 862 593 2466 1553 221 295 1071 161 1915 203 1106 1214 463 1585 927 121 1824 1154 720 1459 1209 2115 611 1279 956 1740 473 898 287 1525 1314 -286 -264 -460 578 770 978 725 2422 502 157 1081 1809 1862 2191 2438 1255 2388 2058 -119 751 53 -1240 -849 -278 1174 1897 430 532 493 1090 162 909 155 636 -158 393 -728 -1387 -1379 576 -1353 -823 617 65 -317 585 -25 542 -727 -796 526 -730 -1356 154 -780 -1699 -409 -847 -1398 44 -2359 -1247 -432 -215 260 268 -322 -711 235 -455 -1903 165 19 -131 980 -184 459 1928 -536 -934 1995 2514 1529 1365 975 160 516 1276 483 406 45 -1522 -1372 -172 -1173 -1037 667 374 -172 -2605 -2353 -2141 -2285 -504 -297 -2017 988 500 -604 -528 262 -807 949 780 560 536 605 -2250 -2095 -1586 -846 -1632 -105 -653 97 760 -446 -821 -1879 -1089 1021 279 311 1875 640 607 -433 -1419 -287 -714 -2704 190 -2162 -3698 1726 -770 -482 1294 -1125 -1309 -597 -2313 -1389 784 2640 2897 632 2556 2719 -216 1667 1767 1430 568 -203 1023 1339 478 668 1056 1467 -1868 231 -138 43 -48 344 559 90 -453 -2545 -7229 -7055 -1517 -3876 -7212 1334 -755 -1401 283 1426 -16 517 952 -991 1 398 190 607 2149 704 780 1369 1519 1394 3385 1992 2179 1536 677 -647 312 536 -987 -706 -369 1097 493 -551 1484 1157 -1961 460 -259 -1222 -166 -923 -1254 664 808 -1366 654 529 -598 68 -367 -1331 1576 1331 -548 1338 847 559 68 -424 -487 272 -401 -612 1718 -710 -347 595 -343 -150 804 885 -265 2466 411 -210 1581 969 674 -236 -944 1132 -500 -115 2410 1317 281 846 -162 -1692 263 299 236 1677 -1461 -2120 -1804 -1668 -3107 -2282 -1243 -3462 -2099 -788 -1135 -226 926 830 251 240 1348 1431 -869 -1315 -159 -955 -662 1332 -793 417 488 767 -463 -35 81 -1038 383 21 -318 -1507 -1499 -750 497 -448 -1568 -158 819 -751 -195 -805 377 2109 -799 1435 3234 -527 1139 -597 -1622 376 1209 -43 1708 1802 957 131 1748 -1156 32 378 -126 1531 -535 2896 1823 -470 -427 -1764 -1011 -328 -268 214 118 228 -217 -1498 -1696 -1034 -820 -449 -449 -670 -486 -504 389 -1571 -525 808 -1506 -576 704 395 -299 214 -693 573 -212 739 -1119 486 -458 143 -427 -2131 -886 -943 32 -75 -1449 -254 -909 -368 -795 -723 532 1067 24 41 239 936 505 -248 -1125 -381 -332 -280 620 906 907 235 -542 -2112 1627 610 -1319 1576 1659 208 1003 2205 1778 1437 3906 5386 801 3025 3360 -30 585 -387 -6 870 -900 -3 -492 1247 -212 -401 434 -6 -1614 -471 -415 -1066 -233 -136 -417 -1151 -1022 -2234 -3215 -1527 -4035 -3627 -1176 -2676 -1360 -2364 -2754 -2802 -1266 -3511 -3595 44 591 659 -1776 -506 -292 -44 -648 -1440 -441 -1106 -1355 272 343 -1873 -916 -1437 -1261 -1327 580 637 -110 -831 1133 -188 433 1119 -256 -167 -1887 -31 -6 1218 389 4358 1238 117 -877 971 1162 2105 2084 1647 958 2431 -1055 -1761 95 -1256 -2343 -771 -943 -1104 -1643 -535 -576 -888 724 -1238 -681 401 33 -1055 -682 710 -527 257 1288 371 -380 -51 -1130 301 747 1450 1029 3475 3331 1260 2816 1916 -1475 -388 137 -746 -1044 428 323 109 327 1801 1188 636 360 -1307 -1413 -805 -1358 -2007 -1022 -1142 866 145 -639 137 -174 910 964 122 -3 624 -257 534 -766 -447 165 -389 -628 -295 92 -2622 -750 -84 -1944 -125 226 -674 -2635 -1844 -675 -3699 -1800 92 -2507 -1954 -1373 37 -419 178 662 -907 216 955 159 -469 -741 -1157 -1925 -2473 -1874 1514 2332 2677 526 594 967 -374 868 834 442 1222 -148 -541 238 -430 577 -857 1099 -1330 743 -1105 -355 -1373 -136 -13 -1623 -1671 177 723 914 893 -621 -1145 1181 -435 -2766 -845 -3474 -3729 -614 -113 -271 -1287 -2986 -789 345 390 233 -17 1363 27 1475 3299 2152 1678 4903 2273 -1249 750 -140 -1431 -834 -403 -998 57 551 631 231 348 -1386 -838 688 -346 -2139 380 -471 350 474 1166 4143 1677 409 2177 533 1325 1529 479 -1598 -1614 329 -547 -1175 -329 105 -799 -836 -1137 -2289 -4246 -110 661 169 -108 -804 -307 915 3676 683 -1503 -389 -544 -309 237 361 -1240 95 -88 1227 159 1029 426 -459 -1679 -302 -2445 -5716 3053 3417 2853 329 -3 -1154 -403 -1091 93 578 -1048 -1145 299 1290 1140 -731 -2173 -818 -2260 66 1039 -779 -1572 -2006 -955 -1533 -2390 622 -899 -1602 672 0 548 -638 24 -1165 -281 833 1285 444 1394 936 -2321 451 1828 -905 -570 606 -310 -147 355 865 -3958 -3218 -1305 -3281 -3283 -34 1791 1435 704 1216 1692 -564 -300 927 -2491 -1820 -481 353 4 -203 -2249 -2431 625 1949 235 -24 1642 661 1099 737 2200 3231 -798 -732 -432 -512 1803 1995 1055 604 562 663 142 -397 -1751 -2050 -805 837 -208 -466 -31 -339 -1633 -1841 417 -358 3 -244 -212 1406 -947 983 215 -1473 -325 1271 -1170 -629 1189 790 1355 804 -679 653 478 -1541 -1292 -70 -401 -1182 -1102 -1193 -955 31 2255 2310 25 92 616 2564 2910 -3210 -1649 346 -871 -93 -100 172 -1127 -1718 -1068 -432 -235 -149 -1611 115 -536 -667 -965 -588 1429 1713 550 -294 -641 -1371 -551 -1294 835 195 438 367 1506 246 -2673 1048 6165 539 -1877 -204 1263 1172 2469 7318 -1503 -1628 1429 -3067 -5380 -1548 -78 188 -36 202 1035 396 -723 -387 -172 1580 2340 2487 2897 2205 -2122 -1090 -144 476 -1226 -887 -2413 -1058 -2350 -1013 558 -664 -242 -1483 -1029 -1985 -2814 -1859 -1531 -3071 -1613 -1395 -924 -2389 -778 -386 -1613 -2217 384 -422 -463 410 2200 171 489 1171 2109 -434 231 -252 -377 -1019 -1685 -1213 -2038 82 577 -1812 -1057 769 -1082 -1759 -36 -4597 -337 303 1970 1381 -262 1053 42 316 -94 808 -832 -896 162 465 2248 440 1390 391 -1033 611 1026 -684 -1146 -991 -565 3231 2919 1597 728 640 -1286 1060 1161 901 1042 582 2003 -638 -1460 -1289 -1175 -1799 -10 -1105 -286 -35 264 219 1599 952 211 762 573 1701 1922 -546 256 126 1036 -119 1326 -2 -286 -167 -400 -1587 -234 -1266 -2417 -2759 1877 7790 2654 511 2764 284 1021 -460 230 2729 -2101 -1098 3672 1473 2624 775 621 -86 190 -681 -1675 1164 -2110 -516 -1382 -185 -1123 982 602 -362 -121 -977 -975 515 2023 467 -1125 240 885 -959 -986 -1412 -96 244 597 -823 335 1145 -1798 -24 -328 288 575 625 -2325 -252 3 -879 -149 -1078 832 -462 1397 -188 -1452 -1670 -863 -1735 122 1066 747 -753 1828 -788 -1239 138 592 505 -794 -1599 -559 1143 141 -199 1404 2414 725 774 -1341 645 -133 -3816 -1341 321 1278 2330 -604 495 -748 330 998 -794 -1238 -640 -571 984 -129 -10 -923 -877 460 -972 -584 -893 620 -1245 797 -1349 -5540 -2570 -1318 -4474 -2842 319 -45 -449 -905 753 259 921 540 569 -1304 -549 -1407 -1420 1920 2262 -686 909 1333 13 1237 -1300 -1611 -1022 -819 -1610 -251 -1816 -874 3200 1273 -472 3150 1496 -1336 -2826 -2601 -169 -607 1850 -411 -51 -336 1478 2284 1368 284 -1072 -811 2784 849 -1987 73 37 382 -1435 -3722 -2680 -2544 -3137 -989 -2385 -3297 -1872 -264 -890 -426 7 -139 191 -1134 -529 1641 -24 1978 -374 -1032 -1119 -1522 -736 -406 799 -41 931 -212 -331 3753 1483 625 276 652 1518 675 713 321 -739 -455 -449 -1278 -365 -401 -596 -295 -283 -804 -1538 295 -43 -615 927 1004 857 902 -567 1279 363 -171 433 -244 3174 -328 -752 2427 -2037 -1035 -2951 -389 -1231 465 -222 208 -1779 -1265 -929 -647 56 1143 689 564 2887 947 1139 628 630 912 -2526 2512 3637 -525 7219 981 -563 -1261 -3743 -588 1325 127 -250 -3023 -2429 -534 -2531 -3561 805 408 -2556 218 825 -2059 -1507 -493 -901 -963 -439 123 -2290 530 1897 795 854 984 1425 1682 -1133 -35 2830 3533 -157 59 2724 -331 -1535 280 -624 460 705 -1306 245 155 -770 -3060 -1329 -1170 -1429 -293 626 883 1154 -69 -371 -9 -228 1337 1840 -1304 -555 -103 254 689 -326 1462 -732 338 -9 22 -122 319 263 -293 2037 3851 -1879 -2314 -2472 -784 -358 801 1440 -1297 -1340 1369 590 2687 1514 -1375 2291 2712 -3296 47 -411 -793 -2772 -1141 -414 2073 -788 2637 7496 -665 94 407 -757 -365 1571 393 -553 15 588 -278 572 -243 -1881 553 862 -1649 -2663 -3307 1441 774 -1164 -459 -1782 -2023 287 2588 300 237 -165 -2764 48 -251 889 487 1071 1020 1449 73 -237 -504 -3272 -3479 2684 2565 1062 800 395 -1916 -1760 -600 1061 -1561 -929 -1422 587 1261 -164 1925 123 -1580 2440 1162 -2041 871 -2674 -934 759 705 243 1480 644 735 752 -129 -816 995 -551 1297 514 1689 1584 259 419 656 -512 -1524 -1743 -282 -267 477 1318 3059 1748 1071 -584 443 -600 955 -3 343 -964 -88 700 1747 -110 2140 6683 1418 -1222 -1541 -916 426 -224 67 -518 -1189 20 741 -54 1067 380 1117 -35 -801 -779 1093 239 1511 1210 329 1137 -893 -919 1218 997 -285 86 -29 1161 145 -206 154 705 1563 -151 660 -764 -880 -1961 -682 -1168 -515 952 485 -237 -1181 182 -298 -1234 887 811 433 944 596 -252 -2524 -1140 -1551 -2043 -3381 -1774 -2217 -5444 9 227 -1819 -410 97 637 796 491 519 2368 -415 -41 -244 470 2287 1839 -1184 -2723 -891 -51 -771 -671 1219 1516 1224 -305 1580 -1255 835 2566 300 1468 1564 2647 -1224 1710 657 -751 418 -498 -319 -3583 -3087 -1541 -1992 -1545 -557 1228 -66 -462 2113 325 858 -129 520 -719 -277 218 417 -1250 -730 442 720 -369 790 11 1532 -188 -1253 -1955 -423 -1382 59 -127 -1619 -150 423 279 1097 -231 622 274 -760 -1467 -2602 298 -1622 -1537 -1003 -2809 -1140 15 -229 706 1103 382 1491 612 368 169 59 13 154 -1849 -2068 -391 -659 -1143 -145 -1144 -428 -1043 -1328 1150 -931 863 -416 -309 1293 -176 -679 1175 405 2307 553 -643 1158 119 896 -97 -1279 580 -1879 814 1325 425 426 1758 -1178 1247 2455 1100 -651 -468 214 228 -171 1287 -133 -3571 42 22 -917 98 -1320 -1051 -1049 -2190 -4192 -3533 -935 537 1108 649 -1143 -835 -1150 -2690 -2707 -385 -151 238 2674 3691 1535 667 -1326 685 225 1795 1848 -389 1071 119 -241 -256 -2182 -1947 -1345 -1793 -302 -2755 1192 -1478 -1800 184 -195 -979 -179 729 613 1054 167 1945 2059 -889 -1143 -975 293 -1224 52 -1193 -1640 -2827 -101 87 -545 77 552 -429 -2589 -1908 -1525 -302 224 569 2944 2315 1639 1096 -1991 219 1673 1639 1981 -1797 -3555 -2576 -2307 -3921 -4139 2403 589 486 161 346 -453 -426 630 1605 -596 1814 1215 1405 1463 888 1903 -985 -4025 -710 -2393 701 -1292 -1516 -2132 -27 -1043 -1736 -1083 722 -341 266 1404 662 -148 1575 548 704 -163 -2313 -15 -354 -1334 -1574 -1057 -1529 -326 4 -1799 354 -145 1067 746 -1930 979 538 -535 1073 -2392 -4330 -3826 1448 4239 -1552 1116 2960 -45 -285 -2593 -1980 -1157 401 -624 -806 -84 -1206 138 928 3431 -509 319 2342 -2510 -2455 -1375 295 1434 -1677 446 3935 1547 -1088 24 -256 -550 -693 209 -425 -453 -1907 -1068 -2107 -466 -83 -471 -419 -276 523 -642 635 -349 293 271 -1299 1357 1303 -1499 1160 1659 -1116 2381 -2082 -1808 -840 -473 1479 1697 -635 545 -865 1046 1811 752 258 -38 547 1143 775 1647 -1759 3933 -475 329 7113 1084 -2887 -2413 -3017 588 1127 -1790 -1284 1847 -1320 -670 -1877 -93 558 -582 -299 43 857 979 -1290 -927 -26 -556 3179 2843 -5478 -10527 -4198 -3053 -2200 1230 1640 -1413 1499 1286 2874 2597 213 -461 -100 -943 -1412 -606 -938 -255 972 -217 -1761 -769 1242 2316 113 1050 -639 -10 -1044 -1077 -491 -796 -335 -954 84 -665 -1200 199 -308 -402 1041 -650 -262 -152 -365 -1008 -1008 1018 -1037 854 1314 520 -927 -1200 879 387 -1 2312 -721 -1108 -552 164 1655 -1210 1976 1721 982 527 390 -466 -646 -724 218 -1228 -1425 -1201 -40 1047 -1405 990 1982 651 684 432 887 -287 893 -517 1295 6455 4273 -26 -1187 -1699 100 815 736 -646 -656 -1730 1365 -884 -1052 286 -139 70 -1173 -1695 -1294 448 1172 -244 295 1415 1509 -1063 -1375 539 71 -245 636 -547 -2012 1125 2258 585 168 -1965 -776 -1890 6 1038 1025 1211 -2094 -756 766 -724 1402 1248 274 -286 -170 -1929 -2573 38 -1136 272 -831 588 -1519 -1975 -2787 -1388 -95 -1276 -575 -784 474 411 -984 -84 -653 -484 -1164 -989 -1316 -3344 -2267 127 -358 40 407 -2977 -1917 1894 1367 833 1181 -13 420 917 -602 265 147 -1061 807 1176 -1856 163 2608 -492 1316 -301 5 -113 -988 -3490 -763 1307 750 1818 -333 -4359 -439 -674 -4671 -215 2354 2444 2192 2220 2146 1391 1276 -725 -680 -1557 -1224 410 849 -101 563 1037 32 -78 718 1609 607 771 1678 95 -192 -330 1471 -445 -1327 -356 467 -511 -409 -827 1283 397 -651 494 896 -1755 -1484 361 203 4374 4059 1685 5910 3563 -1597 1377 235 -561 963 919 -1136 -328 141 -227 -1047 -902 144 -1612 641 -373 -2283 823 -821 -1701 -1447 -410 -92 1161 -129 733 2205 -205 588 -4634 -214 -1656 -3530 -1704 -927 -1225 191 -200 532 1070 2932 1471 -1480 -1276 84 -667 1934 2548 875 3889 4069 1058 1063 -881 1916 697 4126 364 -1491 -380 176 1188 900 -1175 -1254 -1516 -897 -1643 -3265 -1881 -2592 -1827 183 -670 -364 -602 706 -710 679 37 -338 -1239 -1710 1464 -3075 1139 3756 -1272 -1536 -782 351 964 912 -1460 -671 -190 1877 2184 1607 -2630 2469 3122 -605 2126 2290 -1203 -894 130 -742 -962 -367 -670 -225 -1454 -519 -232 -1750 -427 -1453 -273 31 1179 611 50 454 -355 -653 -674 -663 -591 -627 -611 -1046 991 -224 730 1301 3544 -4154 -2657 -211 -2820 -3635 -874 735 415 7 2009 1826 2303 1809 125 246 -628 813 1654 -335 844 -634 16 479 -1960 161 -604 -788 2138 2399 1646 61 -59 342 635 -2518 973 733 -2402 -538 1996 4291 2494 3012 2877 1266 1040 1928 1135 -1043 -366 813 1296 1740 898 -958 1151 1160 -40 281 244 1532 -794 -140 -208 -1219 57 -1211 -1069 -125 602 425 2378 -2047 -3197 -2078 -2748 -3991 -703 1919 -298 -1623 -891 -1110 -1919 -376 2495 1867 -987 -3635 -2968 221 -208 -2216 1921 3053 852 -262 -941 -1375 933 763 458 -154 -1924 -1790 -1637 -1742 -649 -3603 -2695 -214 -2442 -4503 -2024 846 214 1266 1467 7 1938 693 729 486 899 2739 801 -983 820 -953 -205 -254 -677 1122 1088 594 1166 1120 1864 -918 -81 676 -390 -1136 -1233 -98 -1490 -1661 298 2402 672 -67 481 1126 277 -1150 -1676 148 66 233 68 -1020 10 -1020 -2173 -1130 -1575 -1351 -316 101 -181 -1192 1400 -119 80 -454 1925 1559 138 -52 399 -1019 -2879 -41 588 -18 609 -76 -1728 -888 -1372 -2677 147 581 53 -1214 2477 2007 341 1640 -1421 -2381 2085 223 -1933 -217 765 -429 19 -1902 -2098 -102 486 554 1503 228 -1005 896 642 -1571 -1026 -1410 -131 664 996 639 4412 3342 -537 -1610 -163 -389 649 1282 -618 -220 -1191 -947 -284 -750 -1027 -236 -2 -640 -1066 -2851 -2131 1601 3293 1540 708 165 804 -621 640 486 250 456 -941 -60 1552 1314 -1788 -874 334 -168 -550 210 -1608 -555 -482 -2039 -722 484 -1100 1103 1539 909 1464 -2839 -1264 756 -409 -893 -1906 -921 -1267 -937 -894 2540 3143 -308 836 2723 776 -164 -1163 -465 294 -1526 -1748 462 -181 241 -188 370 -543 -591 -3427 -1439 -1491 -97 -1051 1715 -445 1483 3027 2801 2336 -806 953 -549 -1844 -516 872 397 290 2067 934 -224 1671 126 -1126 -381 -1040 -2771 -373 788 780 1307 -742 -308 135 -893 1169 -1552 -1393 -586 -984 114 -1839 595 -525 -559 1116 1175 165 -302 1921 1598 1486 -224 -939 739 -2180 -3416 -949 108 -1423 26 -1405 -1861 -293 -688 -1128 -1617 372 208 -248 -824 -1058 -452 300 -17 1580 -2764 -1883 -2499 -1580 3747 1480 97 2397 -1133 -550 510 1380 -1291 5137 6654 1113 1116 -1208 228 778 1422 956 -227 -341 -1480 -133 -605 -260 -169 -988 357 -1098 -186 1291 816 465 -248 -485 93 -3077 -3238 290 -340 796 360 -752 -1128 -2262 3021 4877 71 1115 -807 -2933 -815 -424 1273 1078 1828 2332 1242 2323 896 737 1417 7 179 812 -624 524 -1068 -413 -925 1236 -114 2077 6352 3893 -902 -2046 -2644 469 -1220 -312 614 -930 -22 892 226 337 497 -380 -737 3305 1791 807 3542 1515 1234 -534 -3100 516 -457 -3425 -1153 295 -2451 -1384 1421 441 -347 669 2190 -608 -552 -651 -286 1579 -246 553 841 -5 -77 -27 -1481 -3509 1641 1913 2571 264 2138 1862 -3575 -4231 -4480 -2439 -2375 -2116 1613 2266 3676 1299 5735 4433 -1594 -2942 -2229 -1015 -4661 -4000 -2466 -2156 -2313 563 -849 -884 1413 1239 1676 2763 6179 4097 -1516 -1943 -715 2887 -932 625 2965 2758 1678 -3 -1973 615 329 -782 -1533 -1267 2711 1409 -2381 169 -1231 -381 -1794 -1860 -694 -558 392 -633 3880 123 -1479 2866 -68 -2572 -4815 -4463 577 -552 -1228 -717 -1113 -216 566 616 1677 46 151 -824 -675 2 -140 -1863 866 671 868 -644 576 1732 424 -2128 2248 2724 -1209 578 -661 1995 -1710 -4168 -1813 138 -2369 -388 766 2693 1815 -534 2308 1018 -1402 -1546 -1586 -1110 -151 -1612 -359 -546 -1305 -641 -659 -1471 238 -207 -438 -2243 -2271 -1249 1234 3091 1313 -1328 -1027 -753 254 1979 238 742 791 892 -2353 -209 -290 -2940 -1404 1696 -302 647 -20 79 -1914 -713 1325 -497 1093 2914 894 1587 206 495 -1387 -695 -1476 -1785 -1307 -2447 -1761 -1575 -2278 -2344 1087 1936 -723 1161 -173 -948 -52 -98 56 -591 -801 -960 1287 -590 -715 -1747 -2410 449 -2588 295 -1176 885 -168 -874 55 -2510 -262 353 -614 -771 840 2622 539 -772 -185 -1845 356 3958 -486 1052 2363 494 491 1620 526 -114 1366 384 -1214 -345 -806 -973 -532 -40 -632 1652 974 -88 -2370 -944 -1691 2958 1954 -1104 -646 160 -1574 -3941 -2842 656 1163 -139 -202 -682 -1618 -143 -1560 812 -13 -648 566 776 -1227 -757 1295 243 -1412 -744 -530 -311 300 953 2059 1532 45 1372 952 884 -121 565 1573 -291 1079 -1631 -600 -1694 -1427 -837 1155 -1197 -1904 -425 2270 1054 155 -3854 -2938 -680 -5564 1615 143 1168 272 2313 1806 1121 392 128 721 -982 -1802 -743 -385 -4301 -1247 -2561 -3753 -1610 2758 1425 2858 1714 1244 1404 -101 2928 363 910 1645 1426 -1483 -2359 -1748 -2942 -2703 -1263 646 1427 2108 -1223 -1008 -590 2766 -2262 -1296 401 4558 469 150 183 -935 2540 30 -1251 2477 2080 -1070 99 2903 -205 1195 660 -524 -2469 -1409 -1178 -1224 -1303 671 -1519 501 1637 -1228 2247 3030 -1000 -1573 -482 2394 -556 2363 1245 4107 2486 -72 -52 631 -287 -2485 -2081 -1168 -2011 553 -76 -161 -1293 -340 -1271 -2281 -1623 -113 -1840 -670 2644 1856 -674 -425 905 2096 -458 311 350 619 959 732 1652 1889 -833 -2984 -918 2549 1970 1485 2028 1941 1604 188 -1940 -1225 543 -610 522 309 -1924 1350 -7 -883 -239 -2195 -1129 -2542 -1507 -1887 -3267 -344 -1832 -644 -952 -325 195 -585 -803 -74 -881 72 388 1150 -543 -1204 276 -2877 435 1707 373 27 -21 -547 -214 1582 205 -413 -646 330 -509 -81 -586 -129 419 -3215 -882 433 -643 -458 208 2436 1373 478 2925 1084 -391 -1876 -1919 -454 -1316 -728 -608 -1795 -1487 767 1717 308 253 75 1021 183 -638 -1701 349 -473 -805 -176 -654 17 -77 732 257 -1026 481 790 1160 41 -1087 1678 2468 -208 2201 1901 762 206 -1093 887 655 -651 2989 -304 -431 2771 -1446 -1053 -824 -1244 -1031 548 -2604 -1965 -520 -2408 -1615 -1502 -311 -2221 1379 1303 5226 3507 -1396 -1179 -377 -2897 -3721 -2711 -1813 -1425 -2760 -1887 2110 655 -1248 1558 636 419 -741 -1164 -866 231 -1375 196 -383 -847 -1234 -2779 -2300 25 465 -35 -679 1258 -204 794 808 -230 928 499 -281 -607 154 -86 -2480 -1372 -2663 -1566 -1058 -1602 -855 575 -1673 303 -38 88 -3083 -3160 -2496 -2133 -2111 -1141 -755 2532 3774 -1649 -2937 -491 -391 -3242 -1102 -1969 -1941 -2178 -170 -108 156 28 -1430 284 -771 1516 1609 -196 -3433 750 603 -2621 -2406 -1454 2974 -1106 -762 -1322 -716 1514 -1822 2494 1311 3956 2159 -1542 -3055 -1605 740 -1592 42 2974 6548 4373 -69 -1253 45 1731 -1832 80 -194 1774 13 282 -2277 -578 1900 1328 -5555 5028 3989 766 1424 -2982 1264 680 -517 -461 -659 3788 1265 -2355 -470 1198 -725 -1324 -1658 1759 -1213 -685 -1500 -996 51 -1047 620 933 661 208 107 -840 -695 448 -4007 -2463 2130 -145 1434 -1180 -675 -428 155 3280 -1205 -816 -835 -1320 1510 -494 1011 269 105 1293 452 752 56 -1051 -1427 -908 -950 -26 3363 458 -732 107 -978 -1970 -1742 1782 3627 180 -4211 -1142 2354 1258 449 432 -899 -904 -2677 -1760 -403 1051 2608 -454 -3611 -441 42 -2790 92 61 1348 2596 735 -710 526 622 -698 584 2049 2684 2172 -1565 -2470 -1387 -1094 -936 -903 1364 2717 2309 355 -2318 621 -1256 1494 2392 156 5209 2124 1418 -1020 144 1749 1647 -536 1502 1908 -1067 494 -2063 -2035 -140 -4923 3137 1641 6253 1753 -168 1991 1016 -1371 -2984 944 80 -52 -783 -1129 -1593 -241 -1397 1430 1879 -502 -114 5 2176 135 -563 808 -1678 -423 -777 -4491 -2657 -626 -1095 -8 -1760 -1564 2726 1215 1932 1977 1374 2593 2671 -393 2212 1076 -687 -2031 -842 119 1055 151 -2368 -447 -2104 -2883 -4476 -4008 -231 -1240 -1301 -1686 -2064 -179 -2553 -1138 -1455 -577 -192 -1233 -1785 -829 -875 -899 -1765 -973 -1087 -1267 -666 -900 -1084 -210 -634 -1979 -772 -146 -1625 -1543 -936 -1739 -948 -2136 -1408 -682 676 -727 507 965 2309 620 -1599 -1573 -2557 38 468 371 -815 776 -293 -1810 462 -1075 -63 443 44 1717 879 1154 -175 465 -599 91 2242 1250 -762 -305 344 99 1071 -581 -258 2158 -1127 -384 2338 -857 -2354 -3602 -2255 696 -1461 -2034 956 -765 -1602 755 4944 1110 1073 459 -36 1451 1885 1078 1436 -87 -85 -1186 1539 -693 -1028 1441 -1002 322 707 241 311 -290 -560 -717 -1200 -1114 -696 -29 -244 1709 565 500 396 -2036 -1879 2021 1829 -12 -956 -1773 299 -2278 -4487 -1739 -1909 -2365 -2647 -1914 -3553 -2200 -1229 -1824 -112 -114 465 407 -1279 658 -363 -480 1852 418 680 722 1697 348 1583 -955 1522 4063 997 369 -431 -585 -1530 -578 -779 -1096 640 4141 955 4778 2580 -2789 -1978 -1845 -1879 -2186 -1835 267 849 1003 215 -618 -950 -833 854 -850 -1020 84 -256 873 -955 227 1114 -708 -1076 1052 -305 -814 -515 -385 257 -669 -1952 -996 1052 327 205 -1281 -601 -59 -1485 -2231 -759 240 1434 -258 -435 531 541 1579 3848 2889 1232 1304 745 -334 -1268 -7 1970 151 2038 1910 2425 2363 -19 -976 482 791 1514 2626 1876 3197 2852 151 2210 2263 -887 1976 2332 -1590 -3218 -1744 362 -3259 -522 2943 -4067 805 2559 1868 2869 466 399 163 -477 -675 1941 -1408 1338 1868 -1136 148 -566 -1022 1949 314 504 1106 629 967 3560 2478 -184 6385 3311 -85 -1925 -1117 1469 710 915 -685 -517 598 850 624 2228 1163 -1466 -1115 -2039 -3505 -2367 -2250 -1235 -1872 -411 -986 -1707 445 1603 376 2082 2894 1592 -3778 -4218 -3490 -2848 -3632 -3037 -3425 -4071 -2607 306 -28 -1205 -676 -2459 -2024 -1203 -1128 -734 426 130 -1927 -773 -871 -1288 -298 -1085 -1660 605 -1113 477 2156 1573 871 317 2807 62 947 2641 841 -570 2493 775 -791 -3051 -2585 -347 -2298 -2826 63 -2126 -3286 -3023 364 -2014 -1028 -967 184 -76 -196 -1103 1805 -603 555 -323 -788 2316 -1104 -3489 1349 -792 44 1211 183 911 1033 -747 2285 1420 -1646 785 36 617 1595 623 230 1609 573 1452 868 883 1353 2135 808 1664 3473 2639 123 -25 -1653 705 718 1279 -621 2087 1696 -489 1039 -526 -1124 -508 -1319 -2082 -3461 -1605 2633 3874 1462 719 1300 -297 617 -471 -266 -1349 -1336 -2176 -629 -1119 -1875 642 -1518 -1146 -1496 -1562 3418 -1219 -2205 -321 -505 -3453 1858 1827 2326 -1070 -615 809 -703 -382 -1758 -2436 -2321 -3406 -3669 -1195 -2652 -2385 2038 -3295 298 1079 3023 3634 772 -1882 -511 1653 -3206 221 1023 2328 1990 83 1499 -1883 1569 239 -4447 491 -653 297 1315 508 -799 1799 -1503 -268 1659 1780 1695 -384 -2630 893 -21 814 4079 961 4487 3083 -2066 729 1440 815 -218 319 -1818 -4 -942 100 593 1486 530 2835 1647 -346 2111 647 1123 402 1386 -919 1724 923 -1360 -2122 -647 -805 -2489 -827 -563 -1577 -1791 -1205 540 660 904 -761 245 909 1663 -189 1005 943 728 -954 -1176 -1334 879 -522 -487 2209 3015 1318 1417 741 1469 -866 -76 -384 269 -161 -384 376 1667 2064 -294 3410 2914 572 1371 400 2147 5069 1943 856 4963 1745 -1676 -3573 -3083 -360 -715 -1160 -996 -2006 -1976 -1311 -2185 -1761 46 -2687 -459 -982 -3054 -238 -1473 889 -365 -62 866 1313 -351 210 -723 -582 -1837 -2060 -255 -3136 -1689 1019 -3580 -775 1213 2396 2774 -1094 -1042 -99 -1895 -1972 -1337 -479 -3361 -1064 442 392 -1027 -950 2927 -1028 -2019 -1730 -1403 165 844 -1284 -932 2945 1527 -2085 -509 356 787 -1042 111 1625 1161 2378 1457 1825 221 -1209 -2088 -1162 -1724 -1578 -1462 -360 740 1552 -1815 -843 -1679 -275 447 -436 -326 1153 -284 -975 -1126 -110 2868 2000 420 1006 2633 861 -1350 290 371 -38 1830 2136 465 367 634 -712 939 -639 -832 -1261 1043 -1167 -213 1260 -1141 -575 -692 -684 1015 11 751 1336 1612 -1230 -302 -1955 -1834 -1236 -1917 318 -809 -313 1185 486 373 -527 315 792 778 -1223 -1279 642 56 1882 1131 847 1050 -798 -82 811 914 -679 761 -844 -1076 113 1859 1638 393 -283 322 106 -278 103 760 -530 526 -372 1412 -166 1030 546 930 441 -1758 1715 -1022 1863 2358 765 1698 4838 439 913 132 399 -2090 -3415 -2956 -639 -3292 -684 2427 1078 2751 720 -68 251 40 1481 1151 961 -1529 -8 -550 -805 221 -581 263 555 -1016 -2664 -997 -101 -521 -619 -787 -1825 -2643 -647 -336 -407 -2354 -2328 -1365 -470 1584 -6 1593 2451 2292 -990 1671 1706 -2030 172 -135 -716 -2004 -2124 -108 1660 -1146 1194 -920 -2144 47 -648 -1569 1271 -489 -704 2219 2386 -1508 1352 1548 583 709 -2239 -68 1244 -2464 3884 1738 1189 3263 475 -259 618 1346 1105 643 359 236 -440 -203 3983 1020 1511 2392 -784 499 -722 -2312 667 -14 372 -1158 -2829 -2658 -8 -1911 -1791 -776 -1760 94 -4021 -921 3114 1665 1123 -3378 -1335 -342 -658 -2446 -1696 -1799 -920 906 -778 1238 -263 1607 -1147 -1435 794 -1976 -3786 -2350 2177 5048 1760 318 2741 -556 -1812 -2479 -3127 -1140 -3224 -1106 559 -4956 -2420 -623 324 -874 309 -248 653 -1925 -73 3105 1382 2633 1027 -934 -1929 -762 -341 -444 1162 1183 1965 1319 -430 -490 845 -60 717 1593 -477 1934 1419 -1087 -2441 360 -3706 753 2208 1255 801 -282 -306 -525 -1380 -1868 -1090 -257 -400 -704 -553 398 1642 2054 945 299 891 1437 859 1119 -1244 -1069 -384 391 -1578 -1762 22 -964 -2959 -1988 -297 24 -1399 -2014 483 -2093 -1398 85 -100 -3058 -2558 76 292 -56 2874 4974 2403 -569 -894 34 -1198 1776 1190 -1296 -809 -1051 1036 1934 1233 587 -2494 78 1787 2530 1661 629 2351 -767 298 954 -1280 -2133 -1848 -2132 -500 -1478 -886 240 1246 -87 598 -362 -99 1414 1529 920 -517 93 -1507 285 -1898 -1825 521 304 -52 764 970 469 182 1691 1100 22 -720 1695 -2405 -1732 -895 -2913 -3530 -1293 415 -446 -1347 -517 573 -621 1026 2308 1209 490 990 374 202 -506 -553 -10 1355 454 -605 1674 -1213 -663 -729 -510 -2011 -3880 65 1873 2635 1281 -1284 3 -1380 -2426 -3187 -2462 -971 -2153 -1930 -1397 -744 652 -1397 -869 1654 -220 -3406 -1759 3886 -1431 -3949 -1547 3206 2972 1487 -1985 -131 2069 -3283 -1609 225 520 -2222 554 1998 3847 -310 -998 2950 -884 -95 1249 -905 384 0 3151 -3959 437 1743 5521 466 -2324 -1493 -1777 -1904 -2841 -849 -623 -193 1297 2469 -468 1838 1154 -2622 3249 -98 -588 2966 498 815 9 -232 -366 76 -208 190 1042 -810 -1407 -2561 -227 -2596 -1141 -266 -1125 71 3419 1578 -868 1540 1088 1568 -1112 -942 951 -519 -2347 -513 2803 3399 1905 2968 5251 3848 676 460 253 -261 665 2244 1021 826 373 -42 -9 -204 -1832 -2671 -403 670 323 890 -286 -3222 2084 -3197 568 4548 1117 4354 544 -550 -99 -1292 1079 -3276 -100 509 -656 151 1048 874 485 -16 1541 421 -1532 375 -991 3822 6603 3323 2908 6641 1405 -2086 -3014 -3148 -869 299 465 401 1004 1214 -187 -469 -252 -878 -612 29 -954 1368 1066 2152 2036 1312 1459 756 -493 373 -1000 -1752 352 -1156 -2267 995 1137 93 458 1151 -589 1269 1401 58 306 1059 -322 -1545 1409 -895 -717 -56 -843 -2764 -1584 -1590 -555 -3878 -1459 598 2350 648 1235 2336 -145 -627 -2549 -285 -761 1451 351 230 -1955 -144 -675 -2134 -251 406 -275 790 -104 968 -368 -1701 -1994 -203 -3185 -2359 -1565 593 1151 634 1543 300 277 415 1181 1185 -1115 -1354 -1534 -1640 -2555 -755 2237 4107 4873 133 -517 -838 -814 -1192 -1836 406 548 -472 -783 57 -1536 -549 376 549 -1384 -1134 -1476 -1645 -2050 -980 1614 -75 74 924 1548 241 1609 533 437 1226 -153 298 -608 -771 -402 -937 -2093 -1416 -416 -670 -979 -410 -915 -1782 -1794 -1109 -2966 -2464 -2431 -4533 -2202 -3454 -3998 905 1584 1805 549 1183 418 -169 1824 264 1481 1393 1138 1356 2256 3747 1846 2620 3244 1317 1788 312 2943 2227 2444 2728 3900 2483 -1262 148 -111 -277 -106 -280 -989 915 754 872 293 555 73 -99 -320 -709 -2325 -3077 -488 79 253 1674 1382 1850 1620 771 875 -1510 -1603 -1124 -3345 -3924 -3197 -3151 -4414 -2951 -699 -420 -557 511 -902 -1130 336 1840 949 1324 -378 981 -833 -1111 191 278 -1186 -2161 1674 2266 997 871 -1843 -882 1387 -1223 167 357 -87 -445 -1639 -1681 -2408 -1744 -2852 -2235 1440 3213 2087 2796 2149 2348 1741 488 1598 667 -268 -1592 -162 206 1554 -870 268 1357 -1476 -561 -2026 -1331 -1708 -1847 -2459 -3476 -3140 -108 545 265 1402 1046 873 1593 835 1677 -135 158 834 352 -977 593 940 -930 453 -418 281 156 375 309 -1116 -1948 -793 -915 256 -1568 -366 108 -470 412 1244 1682 2415 798 2242 2788 201 2549 2812 376 3598 2228 872 -1668 -977 -1139 -2142 -791 -911 -1272 -89 -331 -645 -692 10 193 -1839 -269 -175 -1944 -1265 750 784 585 2448 2716 -110 1286 1545 -545 -2039 -1011 -916 -3017 -2262 -461 -2895 -1616 -816 -642 1640 688 -586 1932 2222 2777 2862 -428 625 54 -687 754 593 -21 2569 -94 -1720 -3346 -3371 -706 -319 -1311 -1034 -1730 -1618 1340 1452 1307 -325 -525 315 379 -1034 -64 1022 -972 293 -674 -3239 -521 -1112 -1475 -357 1369 1116 1130 483 -57 145 44 -397 693 1166 345 -971 1557 199 34 360 227 -682 338 -908 -691 1247 -277 -1065 80 -1315 -1093 1143 323 24 175 1023 -674 -1285 -1189 -947 -894 -581 -1456 -328 108 -1109 -1420 -1793 -2753 -301 -1743 -2854 1597 -1776 -2605 35 -624 625 -435 1120 1767 8 2636 2514 1651 2481 1270 334 1417 -383 1497 3346 2504 2129 3519 2436 1643 1758 1111 3764 5483 2581 1215 510 376 -1964 -2564 -2216 -2273 -397 -94 -634 2531 2116 1725 1905 1780 1207 1811 1082 1983 1403 1471 1913 -633 -1918 2037 641 -1360 1291 3115 -333 532 -1545 -2316 922 1039 -1499 -330 3544 1135 -1102 -2121 -1471 -2946 -3140 -2933 -2734 -3510 -3089 -697 -61 -2342 227 -64 -1496 170 -1592 -3467 -413 -404 -688 -93 -1399 -539 -229 -1260 -270 445 2898 3197 686 2956 2097 2270 1324 142 2111 2007 1106 2073 2778 1678 1061 183 2353 -821 -1484 -1590 -2014 673 515 -918 2054 2321 49 29 46 1224 3010 2640 916 1537 2072 1514 2218 2266 1750 2414 3503 1164 1846 1729 -1114 -1033 432 -1845 -178 83 -976 643 -806 -970 316 -1776 -1905 -31 -2075 -1114 45 -608 742 -976 17 35 -1830 -1903 730 -65 878 -2859 -2884 -3164 -1533 -2981 -2946 -2122 -2011 -2128 140 134 -457 263 -935 184 -1425 724 1175 -1218 -1688 -2314 -339 1335 -503 -3283 -2249 -1625 -996 -182 -509 -938 176 -12 380 -202 670 -1658 -2147 -1073 1398 159 -276 1066 -1030 -1440 -559 -2346 -1132 -660 -3949 -870 -744 -3053 -1737 -1636 -1312 -859 -926 -2365 -2483 -1773 -1991 -1951 -360 -413 -2005 1272 3786 2254 521 3209 1959 -520 559 -2064 215 2050 2030 -817 1988 3479 -791 -1158 -2299 -2054 -2971 -2684 -1901 -4805 -4657 417 -346 -9 493 -540 -921 151 -619 -1719 799 -432 -144 1930 3429 2482 1090 3767 2797 -783 -1347 -1995 -1241 -644 -1564 -2067 -2823 -2655 -530 -856 -1010 -72 -1503 -2516 -879 -2879 -2487 877 1148 1753 -102 -1487 -879 317 1407 1445 956 -644 268 799 609 1567 2196 2939 3203 -54 -28 295 1097 1820 952 -542 2020 979 -1952 -1205 -2022 -2017 -1758 -3419 -1519 -2178 -3750 -685 -950 -640 -296 -630 -934 78 -17 66 -1323 -1419 -793 -2179 -3219 -1313 -1244 -367 -423 885 681 354 841 2082 3056 1079 284 1735 -1515 -1317 -1143 -2444 -3459 -3267 -3278 -4849 -3253 816 2042 2293 -263 1366 668 -950 -130 -1849 -1566 2288 299 -1444 -29 1545 -3193 -1794 -770 1963 4410 4002 -304 1891 3373 606 -1093 423 -1921 -1268 -2422 -13 -859 -201 -1356 -1858 -1794 555 1263 1091 1252 1498 -698 622 342 816 -549 -720 -3 -1265 -1998 -1178 -816 -1319 -1338 -2424 -1210 518 -1415 -1756 205 658 -1202 -966 1608 1248 -320 1810 3422 747 2151 2771 -203 1663 336 -600 2265 -307 -2109 609 -50 192 -1581 -1117 -1873 -1932 421 -403 -1465 405 -730 -1200 -273 -148 -602 1732 865 -1145 115 68 -534 -1020 -1496 -450 -207 -236 -457 896 -1098 -124 572 708 -721 -984 -1243 -2050 -3081 -2816 -2665 -4035 -3175 -2653 -5020 -3119 -1823 -4285 -2429 136 -801 -139 -17 -2372 -1659 545 -1873 -1219 -673 -955 -1409 722 -16 -142 51 1450 1544 -1993 -551 -442 -1893 -597 405 -2584 -1540 -742 -2025 -3779 -1963 -2508 -3039 -2242 -2775 -1391 -2825 197 269 1166 -524 -213 746 119 -266 -232 1432 1796 1175 1491 2005 2199 1255 3354 4813 -2838 1258 -470 -260 1810 390 -2102 556 -107 -1749 -895 -584 -1563 -233 -549 -3550 -2416 -2338 -2279 -1919 -2375 -2345 -52 -500 -3121 -1155 -1550 244 -897 -343 1080 -793 1408 1181 1680 2048 873 -257 -1124 2466 1965 1077 158 2004 1712 164 -68 671 -374 -555 -827 -693 -1045 -868 642 551 2764 -622 -1079 1458 1226 1204 852 -2581 -3357 -3503 -909 -920 -1631 -1778 -1600 -3098 2312 1112 1707 2321 2492 3151 628 2569 1877 -934 -434 -1323 -1652 -2512 -2891 -2828 -3517 -3757 1306 1655 1136 1500 -575 1230 -408 -1053 -236 -3140 -754 -1810 280 4679 2363 -255 5554 1780 2297 2556 2368 2277 1134 1984 1718 2891 3803 2289 2595 2441 1764 1259 3002 954 3990 2613 523 433 -247 -1680 -3124 -3524 -502 -2752 -2535 -37 524 -1530 213 1898 -673 -571 -3 -209 -3132 -2456 -3713 -552 1345 -888 -3251 -365 -2039 -408 -888 867 -2391 -1542 93 -2896 -2237 -216 -1937 -1410 356 -1629 -1360 680 -764 -1671 -818 16 -1513 -69 -363 568 395 513 1872 982 437 1520 2232 617 2881 2453 -504 1414 9 2887 5902 3391 5611 10070 7406 2246 5840 4114 1362 1559 316 1881 2220 1399 2436 4904 1943 -1393 -2038 -1548 -1408 -1581 -1959 -1229 -1658 -1810 -1236 -1705 -2138 -923 -1324 -298 921 -479 -996 1253 995 246 1032 844 -134 2386 2682 1505 1740 1493 595 697 -956 -1367 -303 -1541 -1732 -486 -162 1227 1310 2659 5045 1204 2939 2755 1971 971 1332 2404 1232 1547 1653 2623 1294 959 1431 819 565 1564 737 2052 2714 1312 -1529 -792 -219 681 1906 868 -610 1247 1305 513 1254 1442 793 1303 842 461 749 -711 -344 334 -845 906 54 -1299 -1961 -3750 -3523 -1133 539 1772 -1450 922 1609 808 2435 528 -64 498 204 -508 270 -81 -669 433 -670 1358 764 779 451 2015 1926 2235 1368 1216 -744 -973 -1207 -49 -1532 -1508 -329 -842 537 -1496 -1547 -503 -472 -1545 -1697 -1580 -4099 -3312 -1002 -756 -1442 -1111 928 -242 -1225 852 258 1386 1363 1448 528 607 486 1096 2562 1953 734 267 1085 1344 2461 2903 553 2841 2451 948 2592 2093 542 3534 3403 -251 2140 886 -383 -192 275 352 -608 400 -1162 151 370 -1613 -312 -1742 -756 -374 163 -692 -1145 -953 168 -1052 -892 -1003 -809 -1166 273 -1013 -651 2469 2848 2571 68 -1031 -155 -241 -209 109 -2473 -1647 -2636 -1528 -1486 -3133 -1655 -1063 -2304 -1999 -1987 -1308 -1579 -1273 -699 -2277 -1579 -2086 -197 -106 395 -207 -1438 -658 -1699 -2908 -2139 -906 473 -152 -1444 1248 243 -2075 -1713 -2832 -883 -242 -715 -770 -516 -1130 -645 -949 -2540 -388 -790 527 -471 -432 91 778 513 936 754 142 1 -153 -1173 -424 -657 -1777 -925 683 429 1173 240 69 318 1562 1247 3113 -1828 -905 -138 -1337 -888 1398 -440 429 868 -2305 -1309 -1456 -697 3370 1680 91 3214 1464 -2934 -3750 -3906 -1967 -2925 -2958 -2575 -5255 -3836 985 -1432 227 -289 -1297 -698 -372 -1313 -779 2198 1343 341 1022 218 -255 342 -126 612 2141 3960 1437 2840 3773 2812 1053 2654 828 -2691 -2505 -2060 -2943 -4494 -1867 -2740 -3385 -2703 1652 381 -9 382 -746 -1248 241 830 389 -1065 1685 1089 -190 1436 1880 1018 2622 2250 1472 2462 214 1605 1775 1551 1359 2559 2190 547 -193 -181 154 -2492 -1166 -971 182 258 477 471 709 -1026 -2023 -1582 -974 -1084 -574 1552 2739 2241 1093 2062 1458 458 1032 1108 -241 -1467 -2109 -263 422 -438 73 1538 124 -564 188 926 458 -2791 -2024 311 -2518 -1694 833 1855 1562 430 1934 1020 1908 2505 2113 -1135 -1179 -467 -2310 -4150 -1624 -1074 -2363 -1920 -50 -1757 -1202 1106 386 1826 2426 3186 3246 -1318 -902 -586 -1420 -1422 -1515 -1134 -394 -482 -1618 -782 -674 -1095 -2838 -2684 -1970 -2698 -2105 -1267 1633 253 -783 2674 -679 -997 2297 438 -186 -2957 -1684 -1921 -4271 -3254 -2276 -4512 -3162 1020 1024 2143 -635 -3049 -849 330 777 1617 -758 -1119 -1382 -1682 -315 -538 -2287 -915 -1250 1292 1288 633 585 -489 -10 1323 1261 85 936 629 1466 806 -1467 -333 -1123 -1200 -1211 -1916 -1020 -844 -1852 -1435 -1034 -2443 -2391 -1743 -329 -336 974 -594 -319 1291 -547 212 669 -375 441 428 -210 457 -918 -1006 -857 -1896 -887 522 -1530 596 608 -393 365 -374 -799 -1383 1906 636 -423 2621 554 511 2732 740 -90 -1681 -43 -2034 -4152 -1647 -2317 -4835 -2284 -688 -2594 -2542 -2113 -2891 -1315 -866 -898 -1909 44 841 354 721 1084 785 -84 -1038 -1032 1132 -152 665 -1862 -3012 -661 -88 -2309 -121 2227 1307 1384 1197 1533 470 37 15 216 1487 1406 738 1448 169 -125 101 -139 264 -1354 -2319 -2523 -1421 -1960 -1793 -207 -5 -152 339 7 102 90 272 564 -592 -1418 -286 1047 584 613 -829 -1922 351 831 865 1935 1436 1619 1318 -213 -1542 -521 -183 -1842 -1818 533 1693 168 -192 901 -87 -2078 -1057 -288 -1322 -380 831 1312 3322 4484 718 2298 3401 1606 2106 -3 516 1230 1011 -524 -328 213 -1676 -172 -2388 -1176 356 -98 -1426 -1519 -207 351 1499 493 414 1588 1548 1317 2031 1166 -1527 -1232 -1311 -896 -307 -517 1161 1276 -97 1011 1070 3384 -149 -244 1701 1896 297 1033 -1736 525 1084 -793 -1402 585 -1221 -1424 -442 183 173 -85 760 -337 507 -448 861 1166 -2176 -395 -1725 -473 440 