256 
-1729 6523 -448 -5746 513 2664 -2014 390 111 3130 4129 2343 -3303 1400 -591 -2208 -2983 -12608 -4430 5076 -2225 -5239 8610 -8342 -4117 -360 -5997 -11514 -543 -6191 163 -2090 -1032 9419 -227 704 -3347 2349 5755 -2964 -3000 962 4501 1101 -3127 3723 3013 -3320 386 -6773 673 -6894 -1085 -1259 -2262 1319 -8926 2595 -578 -710 -1953 4726 -4383 -617 -2028 -1749 -9295 7798 4386 -14008 2799 3131 2222 9 -9713 -1552 -4871 -4484 -1315 963 -2596 1270 -4563 -3655 522 1549 -16896 416 -6580 1838 997 -3172 -10063 6876 3269 4304 -3548 506 6166 -1309 -15440 -4081 2186 7220 5046 -2128 3151 -9826 -10815 8063 4663 3859 -3155 -6371 -12192 5591 -3381 -20184 -3959 -5054 -17879 1897 -8703 1131 -2567 3548 -2439 -10015 -11575 5500 4543 -5416 7325 -3327 -2934 -2454 1989 -24788 973 447 -3413 -19334 5889 1942 1306 -5471 -6318 -1561 2287 -17449 -10606 4820 1806 -7265 -676 -6389 917 707 5140 855 -2587 1625 -5075 -1862 682 -2774 -10901 -6219 -2249 2984 -19661 -454 924 -17140 -4823 -6964 -691 -4663 -6775 -1952 -9356 -3388 -3743 -3564 -2769 -557 1041 -4283 -4020 -9503 2617 5350 -508 -2232 2095 -2933 -4607 6693 -11791 -13876 -3918 -7599 2573 -2978 -12088 -7109 3655 -4171 1102 10 5234 -4406 5231 -261 -12462 1312 4795 6765 -1732 1570 -2899 1500 1536 -1538 689 -14086 -8395 -1201 -39 -3383 3707 -3558 927 -3267 4407 3389 -263 2297 5425 657 3881 -13388 -4991 2715 5080 4981 -10432 -5479 -10895 150 -4488 2498 -6470 -1329 1008 -6912 