64 64 3 3 
-1413 -299 298 -536 2735 1507 -585 3758 1954 3842 2809 2943 1460 -849 498 2973 2012 2470 -1012 -2535 -3015 -1515 1854 313 -1332 901 1696 99 -5444 -3014 -3111 -9873 -6958 50 -4881 -3696 -372 -1417 589 -295 948 1183 -1559 -1720 -2425 -120 307 602 631 -25 -1106 1604 912 -1518 363 -959 57 -1992 -825 2204 297 252 1298 190 21 -729 279 669 508 -908 -481 389 -147 -110 572 230 -64 331 -2511 -2802 -2425 -1946 -612 -1307 208 -33 -1269 -876 -2350 -1646 2123 4269 2856 7096 2827 -5177 4623 -119 -6871 570 -1029 -1212 -2341 -2687 -2680 769 -1743 183 241 474 331 246 178 1031 2002 467 60 -2902 -2253 249 -4684 -8947 -39 -5796 -7506 -142 280 -2457 -460 -187 -365 641 -259 -485 2575 -4247 -4423 -2672 -3953 -4381 -3307 -3179 -3121 -4147 282 -331 -2045 239 -44 1021 -742 -1231 -321 798 615 155 -127 -692 -739 -191 -937 -1003 -4342 -6092 -3064 -9530 -13160 -7730 -8601 -10587 -6662 2023 670 1490 1164 227 1089 930 482 942 516 -79 -448 1638 546 -436 -795 -1082 -1522 -402 -387 -425 3581 144 2108 -648 -1788 3338 1304 1228 1732 880 -388 919 732 1452 1119 529 -936 1536 -656 -3341 1360 1027 854 2288 -561 465 111 527 338 174 -747 -1198 -1522 1396 -1117 -2288 335 -119 472 -33 327 -1189 -741 -577 -1180 1206 -305 -1293 319 -645 -111 29 1831 4446 -1344 2122 2414 -2526 -644 477 -473 -1009 -1392 -1116 -787 -870 -1832 -1442 -908 -1203 -381 537 418 -99 237 367 -661 -1773 -2657 -3100 -4238 -5123 -2694 -2914 -1278 806 1181 -3087 -7526 -4187 -4204 -6185 -5459 -1910 -3555 -4589 1443 2032 1693 1366 4819 4785 1692 4480 6860 -1294 765 -10 59 4140 3546 -1854 1177 2142 663 -1681 -204 -219 -2622 -2128 1425 -383 942 755 -103 319 1918 -323 -739 2136 134 2029 2433 1947 -590 2981 4042 -421 1767 3016 515 296 398 -1899 -81 -18 -1911 62 -1047 -1371 1258 771 1032 728 1296 364 1421 3485 4036 232 -2346 -826 103 -94 -2022 -1560 1280 1185 -2797 -4808 -5193 -2951 -2904 -2681 -2370 -2416 -1226 724 2756 3145 -1895 -514 2139 -509 753 1291 356 -196 262 -249 1259 1569 -1331 -40 1566 270 1021 647 -2464 -1272 348 -4595 -4174 -2459 -3152 -3042 -1610 -2903 -3614 -2237 116 1062 766 -1543 -4238 -3022 -1360 -6604 -7826 1293 -2024 -3519 -248 -1017 -1575 -828 -1120 -1855 -468 -593 -1476 -3015 69 188 1341 2310 2814 -1169 -1010 -2784 -727 -2182 -2810 1609 110 2074 -494 1354 1955 -60 -2552 -2180 -315 -1001 -888 -2123 -741 -1735 -549 -456 -1014 1321 1592 422 1459 1498 -300 -900 1038 1177 -273 3089 4302 1383 4634 4123 3872 5476 4064 2338 2267 4160 1688 1987 3152 2722 2968 1993 1395 1355 874 2003 3208 320 3306 1393 353 1756 847 -2668 2473 2911 1659 391 -1455 36 -747 -1254 220 -538 -2671 -753 2562 1404 750 213 -998 -3280 -246 255 -2363 -901 41 1534 -137 -213 547 -93 28 -807 331 640 -726 174 2123 112 263 1856 -376 539 2848 2247 -324 -2010 -520 -419 -2655 -4564 -1521 -788 -2354 1576 2307 975 2586 3032 2827 3362 2771 3790 2962 3660 938 933 1177 940 301 823 3206 -430 -1732 1039 864 1245 907 4062 4582 3999 4014 6524 3870 3820 5351 5341 -661 -849 640 3631 2850 3734 3501 2301 2410 160 -1979 -680 -2968 -2969 357 -2933 -1016 457 2599 2414 385 1520 257 -1368 -971 351 114 -2659 -3176 -3818 -1257 1335 284 -144 1353 462 -600 870 107 1374 3838 701 -1733 -894 1487 1979 2371 1491 945 69 -497 465 -1195 1206 1022 3100 2495 -1746 2049 2585 -2151 1942 2094 1014 8150 5937 1510 12148 9350 1677 2442 2539 -1216 1921 1036 -2383 -1161 -28 -2636 -1394 415 551 4298 -524 -927 4238 2097 1329 4242 1017 273 1232 -272 -10 319 968 28 -470 2692 -2598 2658 4013 -4657 -285 2238 -1583 -301 501 796 -1751 1377 1603 -1216 1860 2726 2136 3812 -498 765 164 -888 -583 58 -985 501 -400 500 662 1394 -1590 -1438 2092 2632 1867 1037 -1290 46 884 -3182 -1424 1344 -1501 1361 2077 876 2718 -101 -7381 -641 1599 -3374 1694 5751 -5277 -5538 -5862 -2079 384 1507 2531 5291 6588 1395 1701 124 556 1183 -319 2157 1353 -2048 598 2303 2495 -2023 -120 -267 -140 673 -1252 -1541 -215 -529 -1881 352 -283 220 975 -234 567 544 -556 2107 1004 970 -403 620 38 967 564 331 369 53 1379 -2352 -3306 -466 -735 -2016 1022 -215 1019 -274 -737 2360 3215 -3234 -3801 -216 -748 -1749 -888 1213 859 -1148 94 1679 1193 581 434 38 -992 -2265 -2429 44 450 2405 -1820 -1108 608 -2963 -2014 990 -1376 -3892 -2897 233 -1265 -878 1182 -72 -941 482 -173 762 334 -374 -223 3202 3192 1495 -784 -2190 -2028 535 -2997 -3256 -1006 -3210 -3998 209 -1605 -672 1917 1039 516 2023 4184 2725 -1021 -4192 -4389 367 -472 -1901 2388 3868 3119 -190 1427 1371 -20 -930 -1521 443 17 -1035 -947 -1167 -4045 1338 -255 -1230 -476 -3868 -3311 -1886 -1115 1029 221 1662 2395 -1028 1694 711 1498 1817 2255 -54 -580 -624 1160 1664 2206 -3472 -4970 -3306 -1172 -1157 -1376 -535 1078 -816 -829 -984 -589 -296 -2073 -2054 961 -907 -827 -2312 -2261 -309 -3123 -1103 -1338 2608 4971 3765 -1767 474 1901 -3882 -831 218 483 491 1862 -3444 -3747 -3694 413 36 1149 315 1202 390 2059 -425 -555 -785 322 3600 -1298 -1140 369 -1403 -1725 -2542 -1218 -1852 -1195 -2804 -1169 -1314 -409 -2105 -272 -848 -3961 -1694 -517 -2784 1135 1215 2333 2323 -1004 -1408 -2252 1751 2416 1557 1962 596 -1415 -1235 -1741 -1009 134 -1209 -217 -2442 -1104 -131 -1013 -763 -404 -275 -1103 -1360 -449 -2696 341 -235 -4373 -10697 1463 599 -8652 1029 -949 29 2501 -153 2818 962 -3006 -529 -1690 1769 472 -25 4125 982 1293 1702 -2842 -3316 -3969 -2700 1065 904 -666 -1368 -2367 -3014 1928 3197 3259 1681 1599 1019 570 1571 738 2037 -449 -1880 3322 1035 -1808 1038 1786 -942 -1705 -2146 -2138 21 1238 270 2216 3673 3777 -1016 -16 177 -10 -1285 1776 550 954 876 -10129 -17336 -16382 -12234 -20405 -18885 -10146 -9032 -12199 -703 -899 -2150 -151 -644 -900 3886 2674 -478 -368 -465 1818 -2461 -266 227 995 -648 -1650 -566 555 2157 -2184 -371 1538 137 198 1 -1476 -1209 -1879 -1338 -1339 582 -464 1346 3190 2996 3301 2859 1157 2756 122 -86 122 -280 2107 3869 3174 -1734 -528 -678 -1749 -625 -1894 -1915 -2561 -2946 -1333 -2941 -2456 1287 -101 -381 -3322 -3204 600 338 1344 4382 1896 3061 1400 1425 -1858 -2133 2000 1214 999 90 1117 2098 -2378 715 2973 878 4212 5780 3060 6530 5741 -1594 -1941 1280 -2189 -1460 -1892 967 1129 -1191 -2487 803 -1456 -1669 4081 2119 -793 5041 3932 1992 1919 -867 2428 4795 1096 3355 6374 4953 -257 -924 1322 1264 436 4857 363 700 1843 222 35 1508 3315 3559 663 2733 4047 3022 -1002 -1357 -904 775 1475 1358 -1594 -551 683 1773 -2020 -242 1103 70 293 460 366 193 -402 -1051 -716 -130 -1694 -257 1283 1376 215 671 774 4216 -287 1617 5573 -3225 -463 4094 3714 1304 -1387 3732 372 -6137 4888 165 -2541 -475 115 -2364 1108 5329 2057 2649 4187 1106 189 -2 1747 2744 3242 998 3696 6743 3165 -1174 510 2958 210 154 2502 -747 -499 -238 -51 1095 2100 1891 5960 6699 -1751 2766 2412 1807 1448 1667 -26 -339 542 773 -1255 -1742 -1293 872 1109 1826 3212 2728 488 1298 1470 -295 -120 1710 -1865 -2263 254 -153 -291 1425 -2636 -1810 -2698 -957 2203 -724 -2615 -391 -1758 -3084 -2592 -3029 -668 2037 256 -242 2298 820 1243 -2124 1595 -1970 -3397 -405 1439 830 690 -2615 -2709 -1872 -1218 864 1153 -1202 2856 1468 915 -408 -1216 1814 1201 3251 3767 6322 4165 -893 -825 -2712 -532 1294 -720 -714 -567 762 -1573 -1274 -5280 192 2511 2660 2976 7082 7283 -1182 -835 -4452 -1683 -1570 -3903 -783 -1092 -2512 2573 1111 2992 1166 1112 2715 2311 257 4106 488 1971 -286 2740 4015 1132 -502 -435 -569 -570 354 1140 -465 802 651 -397 644 -3236 -1389 1611 -401 2031 3921 2776 607 1934 316 492 3535 4461 -1345 4081 3941 -813 1765 2923 1777 4079 2109 1969 5262 3230 -285 2601 -212 -1110 -2276 35 -2255 745 152 -2812 630 -111 -3180 -728 -1025 -108 2070 3101 -54 2520 2048 438 -1368 -4421 1570 444 -4833 -2186 -3054 -7687 2411 3014 801 1947 2039 -85 661 -1143 -1443 -1484 458 329 -655 312 -224 -1112 527 286 1898 2479 1916 5371 9253 5021 3524 6171 2145 3006 888 18 709 766 -508 -438 944 1304 -626 387 415 2738 5268 4831 325 3275 1240 -783 -1096 3485 1865 4207 3973 2350 6883 6586 -2246 -2186 -92 -1131 1893 3232 327 3645 3537 1254 744 159 -612 -1444 220 -2335 -3986 -3525 670 2594 4917 -1493 1231 3186 -137 993 2778 -346 -455 1581 -841 1527 5891 -2477 2548 7211 -654 343 52 -729 1362 1446 -809 956 743 458 1199 1247 -2437 -644 146 -1910 1375 3161 130 -726 682 -2469 6290 6946 -3892 9619 12078 1598 870 -711 2744 1750 1052 -573 -1184 -1888 3182 2463 337 1387 1359 655 -960 -1710 -1587 4164 7709 7398 -1238 1436 3372 -2167 -928 364 -1222 -1355 -724 -1301 23 1694 -1441 1731 3097 -3850 -764 -849 -1771 2240 450 -1615 3124 -137 2319 2630 367 765 4041 3778 -677 1510 1480 1251 1204 2337 313 1092 1622 1271 -838 284 -2188 -609 3872 -438 889 2464 -2178 2355 5581 -782 412 -982 -1062 675 2269 -327 667 969 -551 -179 669 -2351 474 -466 -495 1938 1033 -300 56 349 3432 4790 3590 3116 5713 4372 -104 558 -344 -1799 -1561 -1621 -373 -626 -1402 -2612 -4657 -3836 1500 732 -1550 5367 7861 6110 2096 4910 4326 1867 7819 7929 51 2871 2926 2146 2716 -536 2984 1928 -559 7 118 971 -9336 1488 3148 -7173 -1246 -2290 -3189 2280 282 -727 85 183 -458 -431 -61 1443 68 3433 4880 3215 3388 -9616 -3577 2342 -12011 -58 693 -2 1067 244 2115 2619 4163 -1205 -827 98 -1013 -164 106 -1670 -1033 2474 793 3815 3574 811 -4979 -5090 -2047 122 3493 -3486 65 4071 5162 1801 -148 355 2481 1054 -1065 418 -876 147 -1790 -112 3081 -1701 532 3994 -939 -2263 1631 -673 -1982 2110 3963 1893 252 1481 2289 1697 -556 224 657 -296 3146 268 544 1228 1725 580 -4329 -1287 2364 451 -2237 1142 -612 229 -6382 -471 -1142 -12331 -3166 4514 -5528 -2793 -5401 -7113 -3454 -3577 1078 513 -3169 -1605 -2307 27 490 -890 182 2504 314 283 -225 -840 -1847 250 -3436 -1775 3542 -14 -145 2191 1668 -825 -2977 -1577 -7806 770 7301 -4530 2687 4636 3349 2398 344 -1902 -4820 2282 2399 141 2615 -1055 144 -436 585 521 -289 -502 344 564 -928 -2149 2580 -2350 -1645 3129 -1585 -341 4389 3015 -4081 490 12066 -7618 -6959 6940 -5834 -2508 638 752 2164 2161 -627 -1263 3987 1085 -1410 1024 444 -2998 4227 -5403 -1167 476 -1031 -102 2096 838 -329 -3884 1482 2191 -2203 -154 2008 -1473 1357 1462 -2405 -371 -1109 -1642 -3105 -2875 -1337 706 2484 -1413 -1419 -1719 -605 -442 -3196 307 1322 1527 373 -830 2119 1196 -2510 -2865 -1091 -3121 -1511 4874 1613 2805 2862 -1059 -2737 1671 303 1000 2047 -3568 2467 -1027 -2925 2942 542 -1285 -164 1346 -842 -354 -251 -833 127 255 1413 1519 179 788 1948 106 1122 1021 1850 -1726 -920 540 -337 -2405 515 -2729 -1823 331 -558 -1782 -756 -763 305 -1204 -18 1035 -2254 -339 -1367 -6865 4809 3811 -3038 4008 4 -788 3638 1930 -1299 1712 -5240 -865 749 -4734 1892 3542 2149 2179 516 1609 -811 -857 -1533 1677 -936 1645 735 2870 4349 4725 4186 1953 -1231 -1658 -2321 2931 1242 647 1541 -751 -90 185 1156 -1374 -377 -572 -1452 1045 1499 781 -1686 -2480 1644 -2601 -1264 8539 997 -281 4230 -6212 -2406 -3924 -6765 3309 2526 2877 6476 4389 -883 1523 1271 528 -1124 -264 1350 139 -1254 -5055 -2792 -851 1274 999 -633 413 399 193 -2821 -682 -1091 1937 -1463 -3135 -293 1882 -852 -9007 3042 1803 -7403 3997 4952 -2706 2947 842 1894 309 4668 -1809 -272 5410 -475 -2244 -574 -218 709 -520 -1950 2650 -564 -1083 2950 1650 1150 -289 -868 2459 459 -2745 2712 405 -2658 34 -726 -2333 -1536 16 2512 251 867 439 811 -469 94 1114 -2704 -4455 -2039 -2919 -2967 374 2349 3437 -1413 -1566 5946 -826 -1428 3648 -709 1440 1741 -1071 1049 999 -731 442 472 -972 -3840 -925 2321 -250 1964 3216 292 563 -2057 -2158 -6374 12054 5983 -5679 9602 6314 15 -1471 3128 2444 -8567 7596 10635 -7186 2291 4752 -4131 -5983 -2381 3831 -6933 -2535 7279 -130 3229 1887 -1287 -599 3336 -1483 -575 2045 -953 501 -951 -610 381 3113 3574 638 1910 -530 -1032 1807 800 1580 -6041 -1413 4622 -5440 -1888 839 2141 3692 -3961 4351 3312 -8376 -593 -3105 -8721 -3651 -1406 -367 -1730 -928 697 -1155 765 108 -2277 -966 -38 -1145 137 -709 -207 -1398 304 1159 454 -4851 -1932 170 -3604 -4630 -1100 -2108 -1253 412 -2135 -4861 2034 -2998 -762 316 -2279 3878 3000 2993 9033 1809 -1891 -2910 -4187 -8789 1443 -55 -513 -275 -1342 -1399 -1693 -3677 -1086 746 2369 1105 2031 3944 3693 87 2153 215 513 3603 3266 489 -658 1633 2000 2235 2807 1861 4774 4270 -1945 2096 956 1606 6036 4629 -1163 -3112 -3211 3180 4379 678 1624 3754 1923 816 2306 3509 945 5133 7286 -88 3722 5680 -701 -1072 786 635 355 1126 2973 2887 624 -495 -2554 -75 1274 995 707 2147 2206 481 1363 -1092 -932 1898 -533 -883 840 -1107 -1744 305 693 1169 319 -1015 947 1017 1351 1790 1268 678 101 -307 1666 3716 -691 2722 3329 50 -362 1157 -2380 -4054 -110 -1107 -3905 92 1890 3293 1582 1053 3549 2726 1298 4876 3884 2723 1989 762 7224 5276 -1283 5964 4541 -2978 -967 24 321 -182 1085 1683 -1100 -81 -1934 -382 -2323 -787 1749 585 1094 1090 -273 -299 689 666 -941 -104 499 -1571 596 790 -2070 198 323 748 -87 126 246 240 879 1089 1866 1689 1377 3357 4230 2421 3657 4717 2341 -182 562 -341 -116 1248 -1354 -294 602 -1396 410 -952 -1342 -1048 -1556 -2158 -938 -1599 -1634 3705 2730 1936 -661 -425 273 621 331 -525 2071 2444 2307 3139 5230 4971 1155 2449 2270 -1329 536 -874 419 5377 1336 -1355 2022 751 242 -1499 1313 -706 -1766 317 -283 -2083 1114 2123 3108 -315 2160 5449 3874 -2067 1404 871 333 1357 147 1352 3232 -702 870 2794 -86 414 -1237 142 -1393 -2612 -3941 -179 -1576 -2023 1625 1668 -109 2325 2787 296 1250 540 -643 -712 153 351 443 1075 159 342 1307 306 -2823 -2860 -3519 -1155 117 -1375 -999 234 -1071 4214 10988 10353 2533 8753 8535 1554 5140 4284 20 1694 704 -292 2861 2992 76 1571 2288 -1658 -7665 -3413 -5906 -11121 -5336 -2796 -4321 -1046 624 966 -1007 -497 -139 -1602 -35 290 -1210 2533 3342 2910 -656 -2911 -5113 -2165 -6089 -6640 527 1580 2036 -1314 -865 -203 -1234 -2695 -1578 -63 1015 2582 -1230 -1140 428 -1928 -1935 -1594 3752 2674 374 3869 4303 2387 2616 1631 2333 3950 2682 193 3375 4115 713 2866 5009 3075 -692 347 -828 751 1858 -332 1181 1936 576 1621 -522 111 330 2849 2366 -2355 1689 1174 -1719 -750 -366 -1932 -582 104 -2047 300 767 1852 3060 1930 1615 4005 2220 -275 -51 -208 56 3548 1464 474 2825 1664 -263 -330 -1807 -195 1247 1150 -2079 -98 2389 -5527 -2700 1072 704 343 -532 -475 -157 -647 -478 -555 -819 -476 -532 518 -2309 -762 512 -1826 29 1277 -379 -980 -1815 -1541 1030 -1260 -2244 230 -1822 -1719 695 -1346 -184 2014 237 201 1028 -351 489 274 514 -1688 -1271 -1661 -2007 -2225 -1200 373 1858 417 -379 1103 280 460 2313 341 -1459 -936 -1740 -921 -2810 -3674 -1521 -2537 -4512 259 1498 600 -3 1838 1780 333 3621 2334 -527 642 498 -1210 990 2476 1576 1562 1445 -342 -892 -737 -935 -1737 -3282 -54 -2063 -2197 305 3266 4073 106 2066 3994 -2166 2291 3185 1718 6035 5024 3783 8142 6962 4364 7028 5590 757 -1375 -552 1108 144 1187 -418 -1730 -291 1512 2217 -1100 1074 5656 5457 -1871 5150 8295 214 -2211 -1281 -122 -1407 -1118 -579 -3502 -2457 2265 3066 2169 42 -505 -1445 -3148 -5501 -4703 -46 1171 1626 9 3271 1727 97 214 520 2443 878 -1418 -918 -1668 -1664 -2005 -1542 1314 -2002 -330 2099 -2439 283 -869 -1452 245 -1597 -627 -715 338 -1400 -2349 -1029 -894 -1337 8 3221 2673 583 4543 3240 1128 -1260 -1781 -312 816 -2114 -2489 1338 -1409 104 336 -4009 -1836 600 -910 -1288 2177 -401 -1558 99 1695 2180 -2092 -356 -1924 -1721 -160 447 -2805 47 1470 -1680 -297 1621 -59 -746 1334 -623 -1332 331 228 2001 -2764 -160 248 -2192 -2350 232 1137 -1123 -4301 -1744 -3782 -9265 -575 -2788 -4825 -1278 -7494 4317 5577 -698 1782 -2523 2796 -1460 -7076 -699 -1386 -425 209 1105 -1226 2772 1958 -3569 2602 -2970 -926 557 -5315 -2210 -490 -3292 -1916 -435 -993 -2400 1463 8 1956 451 -1228 1432 -566 1072 -2357 -3538 2919 -671 -2016 2440 638 -6203 12308 -700 123 14984 -1197 679 -6052 -299 -1241 -2020 337 687 -1053 412 1164 1708 540 2136 5612 2768 4354 11436 3480 3662 4356 4782 -19 898 -738 767 943 -1204 -1161 -2083 -1440 882 40 70 -869 528 2558 3 1342 3431 -161 -1124 -331 1994 -670 1610 -202 -1309 -1139 -8845 -5078 1693 -6812 -5459 226 -908 -410 2762 99 986 -728 1678 1414 -2979 -1058 -1148 -1582 -499 1682 1561 -232 -1721 196 -945 -3911 176 522 -76 240 830 1751 -904 -2834 2906 -580 2649 1921 2020 1385 1023 1154 -1480 -1167 -785 -383 -852 982 -26 -399 -1421 623 389 -324 -1117 4229 1417 -1611 4345 569 -1904 2617 -425 2720 2671 -557 1158 2480 -830 -1458 3121 -1067 3085 -1017 -3649 4035 -202 -3009 2477 -2125 -3479 1449 9879 2911 3932 19861 2145 4491 16504 2426 1126 -3234 -375 2637 -3911 454 2624 -1068 1730 -1176 16 -1280 1965 2123 682 982 1875 -71 563 3140 169 -1179 607 1984 -1054 1237 1460 -1762 -1021 -1682 -398 3304 329 -1371 1447 -1802 -1348 1383 -795 -303 1853 1085 -2035 1416 459 -1315 -427 -1375 892 800 1831 821 1113 6579 -2319 -2024 1761 -5185 -408 3257 1351 3208 -3083 -2706 2889 2280 -6198 253 951 -8611 -388 5659 -439 -893 -521 -1906 -3588 1691 532 114 1483 -1022 1784 786 1382 -504 800 -1560 -1627 -1512 1126 -276 -2060 624 129 -1024 -1407 61 -1378 1163 666 -1950 -429 1301 77 -1880 1322 2111 -1386 -893 -384 -2340 -1825 -1671 -2717 -2746 -3135 -938 -2012 428 -194 23 373 1318 2802 1155 -2591 -89 -3008 1825 -558 -448 2514 1733 926 -1378 2342 849 258 1811 302 120 -451 14 -1260 685 1545 -2786 202 469 -1564 910 -379 -3954 -7393 -1530 -1383 -11520 -3453 -4536 -8762 -3524 -1541 1647 7 2165 -733 -3944 320 1067 -561 1230 -9195 -428 -2762 -22259 -5343 -1991 -16095 -2330 4273 -1970 -8596 -693 699 -6011 -3636 5267 2212 -2881 -710 -1577 -534 3496 364 -529 1281 -436 2057 2725 887 2826 858 -1755 1710 2022 -185 -1252 -899 -196 2794 935 2549 1160 -1088 -315 -2048 -1684 -2311 398 153 1331 -793 -2422 621 -1244 -766 1558 -3448 48 1611 2376 2846 -2614 -2080 2568 1067 -31 5794 2222 -1025 -59 -2787 -1060 -322 -1495 1161 -1848 -1572 994 393 -1094 -1294 2822 55 -2980 1110 46 -224 2775 1903 1481 1144 -1621 1156 -428 -149 -274 829 1342 -2014 -1151 -2650 -777 -993 -2102 -1067 1586 673 173 432 -445 54 1441 -1080 361 875 -1080 -917 -1282 -1310 -1304 -2151 218 1439 377 236 -4019 -1245 423 -1924 1715 2601 -421 649 47 -1592 -152 -182 -477 -467 778 864 -1766 396 221 336 -749 512 -2434 -426 1070 379 -774 1055 -252 555 921 1527 -876 -480 1074 -531 1105 -116 34 142 657 749 -919 388 1326 792 798 790 -1090 -1392 -247 22 -43 1246 -307 -1306 62 -494 -809 -1204 26 -654 -1266 484 1814 1901 1528 1196 -1251 1086 808 -311 -6766 -14574 -11486 -4219 -5519 -4989 -140 16367 11439 -1332 941 179 103 3365 -1910 -1557 1774 -2566 1070 2276 2249 650 -317 783 1426 2686 1426 1736 -932 -1904 611 268 -520 1235 1139 -534 -999 1558 -885 1890 2305 -2487 1526 3823 -607 1200 1868 1294 2021 2031 1244 1407 1597 593 -1613 -2215 -1328 -17 -1963 -1101 1114 -422 88 -173 2973 4299 4069 6 5568 -913 -5933 -2370 1176 388 1494 656 -1316 -353 665 1142 -848 1559 1632 -6568 11741 5100 -11413 4827 1929 -9722 -1505 973 1607 1897 2378 2710 43 2694 2794 -1640 -1953 -1234 -710 -325 -1794 -54 -211 -290 -2336 301 1004 -3223 890 743 -2935 -242 -1529 3856 -882 14 2820 -3970 -1429 2452 -1426 -277 2008 -374 -1767 -1429 235 -2707 -1663 542 -459 1276 -393 746 572 -551 1513 -873 -781 -1373 1920 -999 1607 1147 -327 1020 522 -1161 -56 -4574 -3676 -6622 2440 5924 4191 2460 3089 3185 1083 -775 -2517 -351 465 -677 -3218 -127 1627 -161 -778 -831 91 -909 1417 -27 -355 296 13 -943 1228 -387 -83 484 -1074 -799 1648 -6280 -4758 -2363 -5397 -3453 -868 -1925 138 1911 -4019 -2525 1298 -4931 -1162 9423 -1876 -941 7985 -1315 -846 -843 -102 974 531 -956 1157 1886 -1191 -59 381 -2123 135 233 -1712 -4859 -2606 -104 268 1227 149 931 732 -767 637 856 935 996 3704 685 778 334 -66 -1029 -1475 462 -458 -103 87 387 1881 334 470 2195 -758 576 966 -85 536 3340 -99 3974 3842 1137 4661 2706 -1690 -727 1738 -3196 -4807 -3569 375 1615 -242 -1123 497 -191 4861 4710 4639 -841 -891 1837 -388 1283 -221 385 1231 801 -1301 -1599 -859 1294 9 -719 1100 71 -938 1090 589 -761 80 1805 972 553 -27 380 155 -190 -1112 2585 865 -1780 2345 2172 1298 -508 -1217 -4112 -2136 -4547 -6353 -4875 -6469 -7312 -676 -3799 -3372 79 -10 904 334 1302 2401 -256 76 2038 -1025 -1055 837 92 130 2797 343 -2537 -1044 19 -3501 -804 287 -1796 -772 -10488 -7927 -6947 -10841 -872 4298 -13873 -3623 1885 -7067 -138 7133 -13663 -3640 18316 -8405 -4698 9552 744 1473 1181 -1201 -662 1109 -1056 1424 2929 -1555 -444 -906 -625 -1733 1166 -785 543 2183 1384 1660 2820 1687 1934 1567 2961 -333 1713 348 3684 2016 185 683 -180 -378 -1144 -1917 1301 -267 -840 3901 -1052 -2167 3545 -968 -4154 329 322 1613 -723 1248 1675 -1125 717 1454 -535 -2431 -67 -85 1139 1059 252 -238 -885 -7386 8921 2664 -1055 8220 6083 -11133 -19029 -15226 437 -1856 -1014 2609 859 1034 300 -856 1180 -410 -956 -2805 2192 -318 -3615 1571 659 -970 249 456 208 1865 -476 -448 75 -485 532 -888 -2559 75 -629 -727 85 2665 3580 1597 1580 -1057 -297 67 -749 -1077 162 1482 477 283 -457 185 237 -546 -960 812 2335 1957 685 81 1509 -476 -351 1968 -761 981 877 1371 292 -1656 1615 291 428 -142 55 -1033 2089 -1343 -1235 -549 7830 4121 -505 -1944 -1700 129 2446 4170 -419 -2361 2496 -1615 -2592 -5103 773 -133 -187 2330 -452 1474 296 -3368 -4793 -834 -661 -1894 1549 1539 -418 -1772 -3363 -5164 -1306 -2892 -3037 2444 -1401 1543 1647 4455 10684 -171 1106 -1199 -176 2120 2398 -1164 -2768 742 -432 520 -987 2699 1719 1860 1198 2589 1073 -797 66 -288 -503 3489 2099 -831 1076 2467 1896 -1723 290 2021 -3257 1528 1404 -1007 3159 -3037 -2942 -2011 1195 8148 5738 -1006 1788 1929 -1172 1842 1630 1054 2559 526 2163 -4692 -8216 1573 -2298 -2613 1247 -418 3875 1859 4713 12051 132 5231 7809 223 390 -688 -1017 -10778 -11867 2440 4049 5772 2570 825 -3155 -4721 -12119 -9655 -1996 271 -3029 1200 2906 4424 -670 1569 2177 590 782 -1130 617 2048 1617 -831 -3270 -3889 427 -744 -239 -1554 -1485 -1087 2078 2087 2663 -856 498 2435 1820 1805 1379 -1257 -3086 -4127 -906 946 446 -906 1027 1602 959 -245 -322 -2534 -2814 1023 -2823 -2351 -871 -1293 440 653 528 509 -111 1381 895 319 -953 -1687 -2197 -822 -2544 -3161 -1260 -2805 2237 4292 -1461 1187 -80 1031 1423 -123 -224 -2925 517 1824 104 2689 -1 -3167 2325 -2109 -2133 -1261 -2766 3404 101 -89 355 1509 2203 1586 558 1335 1270 -1381 -6402 -13401 -513 -1536 9986 -4696 969 9356 917 1110 305 131 -1448 -349 3190 -1122 80 -3266 -3342 3966 -2475 2639 -1128 -836 1348 -2466 1058 2589 -288 210 509 -2869 -786 -838 -2954 -2253 -3088 -2279 504 2071 1876 646 1496 -1285 3025 3883 5832 260 -1302 -1075 -529 -5553 -3793 1881 1944 1442 3595 -8837 -15109 549 -1627 -1958 2671 -2061 -2836 -974 -2631 3739 -522 -2510 1775 -3785 -8350 -7917 -1325 718 4715 1741 2902 5303 -368 -1010 -667 1362 1123 1762 -1178 -686 -1635 -2961 -1227 2770 360 785 7843 2307 1727 1141 -2315 368 -1023 546 1201 -1108 639 5189 3496 77 -2371 -3029 149 1048 1624 8 4277 4127 -4781 -7111 -4479 -3964 2959 4100 1772 10034 5933 814 2314 2594 702 4479 1007 180 2010 -1069 -1032 -811 1655 -5237 -2168 3623 -843 -6149 -5163 -2172 -1751 -76 5257 5584 1710 2278 271 -3216 -2459 -2800 -606 197 423 1685 1096 -533 966 479 -3534 -2577 -426 947 503 -46 1679 2906 1830 -349 -4554 1157 -695 1091 -282 6846 11034 198 -2749 3681 -723 2474 -1153 -642 4165 -4347 -1127 -783 -38 1292 916 -562 394 -904 -4583 -784 -1516 -1382 2568 -255 560 -26 -2535 1231 -2847 -2261 -4119 -2612 2946 1129 -5309 -3162 -6066 -2964 -3230 -4255 924 3824 6390 1855 -1504 -1555 -44 -1429 -651 -2268 1634 3065 -2494 4818 7453 2153 4266 4734 2433 526 855 1504 -14042 -19184 1061 302 524 3252 -2368 -961 185 -3191 -2762 -423 -707 1650 -2146 -39 1402 -5263 104 1683 2753 -1666 1975 -313 2183 -453 -2265 -727 2253 -574 -2352 -3126 -1366 1905 6099 -541 -196 -648 -82 692 -1258 1456 166 -2223 1893 2643 -307 -837 -2803 1181 -832 3034 3276 -3162 694 -975 2635 -2258 -1226 467 -663 -401 289 1479 877 5136 4734 1095 4040 2808 5697 647 -9706 -10987 2536 1105 647 -2084 -5873 -4951 -3881 2581 9158 1584 -1037 -1743 -1178 -4727 -8121 3538 2943 -1831 -381 955 111 -164 2995 -1278 247 -6853 -533 4884 6647 1427 755 3257 -1611 2399 -1086 -2634 -363 -2123 2771 -3208 -2248 1632 -1965 1600 3231 938 -4385 -42 -6754 -3957 -3739 -335 -1157 4464 2178 -1377 -534 2240 -3601 -1417 -406 -3446 -158 461 -6415 -2419 -4230 -8575 13 -624 2710 4363 -582 6110 4044 -2778 -9212 -3284 2015 -5485 1666 1776 -269 3813 2905 -3548 1856 -230 -6601 798 258 -2434 954 -2980 3318 2342 -1845 1565 -2652 -252 -809 1768 -288 -4770 3298 875 -4165 310 -1770 -173 -2611 626 3872 -4914 28 -1540 83 -1757 2105 2989 -390 -1209 2405 -1071 -474 478 -2444 -3138 -1209 2198 6996 -5328 101 -454 -10518 587 3733 3022 2751 -241 -11 -2897 -1966 605 -3557 -4736 -2835 2411 2900 -2225 1643 2831 -2400 -5879 1846 -2731 1279 2382 -8984 2153 1515 -9354 -3002 962 -1309 -1252 -1494 -4891 -1480 -2794 1909 1036 -1533 4286 -306 -2423 2459 510 -1929 4155 -68 2123 -3494 -113 323 -2522 -1181 1200 353 68 -4600 41 489 -5405 1614 513 -3607 461 1918 -1694 -472 174 3338 3115 -1302 239 -1611 802 -858 5576 1577 3322 9739 -168 1356 -59 3372 1363 -1542 768 -907 1215 1214 1379 2079 -543 -1912 -9521 2226 -9345 -3128 -435 -2798 2175 2954 2747 536 3340 -980 1242 -494 -3208 2475 4148 -3348 -374 1794 -6035 -2794 1036 6677 -1741 -785 850 -1573 -1398 445 -791 1581 1316 -647 -112 2561 3311 -1484 -12325 2709 -2461 -6337 6431 -1749 -2083 -1575 1478 4468 -1998 422 -26 -1937 1111 1834 3728 -5155 3562 870 -1920 4641 -4762 -698 -944 304 -2393 -1120 -1684 1596 3661 1049 762 1481 2332 1629 643 -678 -1612 -1534 952 831 -1570 -22 -5318 -1674 -1296 -2618 -2313 3846 5564 3463 1035 5584 1048 -803 2840 -967 -4197 2143 -2354 -747 1149 -6037 628 -1773 -6689 -1431 -2513 1711 827 -1542 2287 2074 -2338 -1805 -3469 1274 233 -3442 -1655 -4150 -1990 -5046 -4446 243 -102 4751 -466 2302 1725 6348 4618 -1595 3022 951 555 510 1917 -1447 -221 1467 650 -76 -747 -1471 669 -866 -694 2302 1508 2664 970 -9198 -3797 2817 -18421 -11023 13570 -2860 -2712 8964 -4423 -2408 2055 -5135 2202 5390 -52 4577 7232 2334 -4014 1388 583 -2828 1496 928 -3623 -3242 -2046 -358 2335 -5824 4382 1610 -699 -1177 1535 1003 -167 -627 1463 -5320 -88 2027 -863 1898 -875 1317 3985 -1514 -729 -839 2266 2155 -318 839 -1663 -3781 5419 -2178 -469 3229 -2386 -674 462 -2189 -4916 39 5492 4946 3733 6124 9451 1935 -128 845 747 -1974 -610 175 -702 37 171 658 -4887 1254 137 -5162 2416 76 3067 1445 -3554 -459 525 -12932 -11472 1009 -6678 -3049 -778 4290 1005 -2698 -1643 -646 -3353 -1132 -1792 -2616 -1683 2981 -853 -643 -1340 919 1037 -252 3514 -2682 -5788 5942 6494 -8086 2124 -1999 -8306 -1247 1837 -851 -2741 1022 -198 -3458 457 550 1512 -3778 1829 -4366 303 6682 -381 3084 805 1198 4301 2386 7815 1192 1017 165 2035 -2691 -389 -196 576 130 -5940 3420 41 -5106 1425 3989 3793 -820 -3052 12377 368 553 2674 -4675 3315 348 3278 214 -3718 3493 -2740 -784 689 2936 2190 714 4027 2050 808 -4793 -1094 2411 1597 -4399 -910 4984 -5599 -925 3999 2230 7283 86 491 2356 -215 -3948 519 2809 -1602 3724 3091 4657 -6040 1503 3825 -3202 -4293 -3387 -5336 -2466 -5073 -6526 -4444 -4778 -1564 -695 -2514 3369 -6179 1273 3439 -3246 3549 1687 -2795 4862 5947 -336 13 -464 -709 -2663 -637 -590 168 -216 125 5 1733 650 -665 -1700 -130 -1182 -1209 -38 673 461 182 1687 -1585 -1931 -3118 -2866 -1721 -2432 -988 -1160 -1253 1210 -1335 -749 1623 1136 -671 786 1581 400 -1629 746 1689 248 -237 -1240 486 -879 -615 -39 -787 -1126 1054 -821 -445 -813 2300 -568 -2733 1570 70 -405 3826 -1688 -5522 2177 649 1 -7600 -2823 4165 915 1978 3630 2397 9195 8313 4902 6816 6075 1002 1715 -2786 664 2208 -2109 -14 976 -2428 -1935 -807 737 -2278 1782 1497 -1243 283 -893 563 -1502 -1746 939 -3029 -2728 -560 -2040 -1345 2095 -98 -1252 2579 964 -837 1367 -1556 -1376 -1622 -485 29 -2450 2843 3722 -2250 1602 1840 678 926 2004 -1362 -940 65 631 -2680 -2039 2477 -62 -2075 931 -724 -2470 -636 -1138 -27 4814 5100 7285 6770 9449 10309 6707 7590 7659 -1886 -403 -3131 3328 2570 -1695 899 1384 -1510 1 -643 97 -2057 -417 1046 -3783 -1983 -12 -73 -1395 1166 301 -386 612 1050 -577 886 324 -3398 -2011 430 -3612 -2146 1646 -1822 -392 338 -381 -737 1664 2697 -359 -838 1009 -2762 -38 -1419 -1767 159 -1234 -793 -302 -2256 -1246 3117 1164 -1760 1085 953 -925 940 574 2555 -1807 -1325 426 1238 910 977 1225 631 -1374 -2023 -1244 -7 -509 871 240 645 1532 367 -372 1149 546 41 -796 -533 -573 396 3 1439 140 -530 1049 1085 -1549 615 2691 -460 -803 707 886 -1221 717 330 -724 1290 1649 -7067 -5556 -7476 -12804 -9888 -14103 -12281 -8004 -11830 605 -2187 -456 3068 -4425 -2689 2792 -1140 -1214 -1124 -344 743 -972 735 2323 -131 1426 1417 344 1825 626 228 2518 -149 -672 -697 -78 -702 -132 778 782 975 603 1165 -82 -1942 1056 -921 -313 1401 -851 1379 1324 -1721 133 -2286 -4467 -1190 735 -1938 -87 2395 -267 57 -1744 -665 478 -999 -2025 -559 2725 1312 -713 1280 2820 -1879 113 2282 -4133 1383 3107 -1249 421 -2230 -793 385 -2992 141 398 -643 1612 502 -578 803 207 -260 1140 -901 -389 -421 223 -465 -1606 543 -232 -1412 -68 42 -64 960 2031 -977 -433 1979 138 -678 1712 904 756 1057 -211 1705 1684 -1702 -275 157 -3781 -666 -797 -33 906 398 1584 404 34 1770 -680 -2023 -3205 1192 662 -968 662 -108 38 -1111 -1284 -867 180 1185 -89 291 1516 -1061 -742 67 -1201 -1615 284 18 -2980 -1087 -651 -6637 -9086 -8293 -12448 -12025 -11721 -10676 -8733 -10216 -784 878 1056 42 -1100 -1347 613 -152 -1079 1600 -1605 -2028 2117 -161 1281 1774 -198 3924 -972 -12 1904 585 30 1573 1002 17 -1296 -1042 241 -1219 342 706 779 -173 -1137 -1019 2093 1019 1617 -373 -1424 -1190 2324 -2364 513 -3785 -2050 1767 -1865 -459 1899 -1320 -352 1804 -415 -917 -230 -847 -1756 14 -1917 -291 737 -2962 -2265 3972 -2617 -427 3153 4222 -1051 -5774 -2938 991 2886 -1412 1961 1451 347 460 -1278 -2400 27 1813 -2861 -96 -169 -1566 -416 -878 258 784 2403 -1278 -87 -2 1584 1040 1175 -44 -1524 -894 197 -1718 588 424 -1929 878 -2711 -1901 -883 -1602 -1770 -1642 -56 701 -2016 85 162 1901 775 731 1779 -978 -725 834 1313 -789 -2302 1734 15 -1147 1937 138 1006 -1526 -833 -1442 -670 803 154 -663 313 -112 -1629 -2945 -489 1749 667 -1799 -1337 -1947 -2154 -571 -920 2070 -2780 -2241 -1185 -234 557 1192 766 2873 1627 -862 831 1546 -2841 -2995 -1631 2807 3662 2990 5348 7280 5883 4504 6739 5047 -319 -3304 -16 1195 -1344 -949 -1028 1277 -649 3236 2530 2547 63 -3565 -2567 1808 770 -2407 1566 2973 -293 959 -1796 -836 1705 -1013 -2553 -866 356 -1275 785 1563 -589 -1482 -1534 -2090 2353 848 239 -93 -1713 -192 2550 1067 1687 -436 -267 1 -448 1065 -466 1468 1215 1200 2051 4255 6062 -2239 -2586 5911 -3064 -3227 6905 -478 3127 182 3750 6831 3150 -1470 631 -1600 914 1063 1040 -2494 -4668 -3832 -1995 -4554 -3847 1977 1163 -660 566 -3524 -844 80 -1610 944 -1340 -393 -540 -1203 -1435 177 -621 -923 163 -1237 925 -795 2075 4056 -20 2294 2115 506 -1588 196 934 2638 -406 -1393 1129 1254 990 95 1321 1261 -521 -11 -181 -1149 -909 -858 986 2001 -89 2999 2970 107 2583 2203 -138 1013 445 442 3032 1536 -31 3170 2918 1427 -1035 -525 -1193 310 1595 778 523 1655 1135 -406 930 5279 -3464 17 3318 -3513 2052 4797 1532 887 66 791 44 -444 2913 3306 647 -2238 -2534 -918 -885 -1794 1215 1762 2263 647 283 196 1178 679 52 814 -1328 -1051 270 -4633 -7061 -6280 -1848 2446 -106 -776 8203 2395 -291 -907 -169 -2059 -2957 -2462 -3131 -2854 -1640 -2500 -1859 -1304 -449 -386 1077 -11 -589 1484 606 1841 223 -124 1077 -70 -1479 64 477 1272 1411 621 -467 66 -387 350 -475 -1941 -1296 173 1415 -414 1283 1791 -1740 -1245 -244 3180 204 396 2702 849 -1330 3865 3053 2031 1033 3897 1657 1169 1715 957 -1237 309 -888 -1510 -36 -1057 -1031 1937 1022 -3192 -405 -1228 2357 1883 2567 2854 1564 18 3597 2833 757 2243 3171 591 -70 2169 1190 -1350 -486 -127 -622 1855 233 -206 1752 -68 -2223 -34 -1135 735 895 1030 971 723 1499 -51 969 1490 832 -731 -3991 3593 3017 -3774 -387 635 -4606 525 302 2163 -213 -2080 498 1186 281 1165 -4105 -2502 -2697 -5999 -3518 -5781 -1831 -1515 -1284 2133 579 910 3314 390 -657 1231 -1881 -1452 -1057 -1067 -2369 -1609 -69 -888 -396 -1829 -1544 -3204 -3854 -3327 -937 -927 106 -87 -897 1280 3611 1549 -113 2678 542 702 3657 2189 1653 2725 1412 -1676 3605 2302 -407 1045 -252 -1281 -682 -636 -963 -29 218 -276 -307 -398 -559 -122 -957 309 -1122 -2277 -715 3524 3795 2377 1688 442 638 1042 1224 2583 660 -1148 -642 196 985 865 82 -1096 -1014 -4542 -4950 -3197 -1688 -1234 -1357 -1813 -991 -1291 1627 2258 2365 4753 2785 3119 1052 -8652 -5689 441 -4372 -2699 455 106 672 -186 4498 3348 2540 4392 2135 3888 3334 2478 1433 -580 -1802 3152 1632 1197 1630 747 1664 22 387 -2337 738 969 -214 -73 1079 508 148 1568 104 588 2592 845 3485 943 1307 3173 -920 -73 3223 -156 -460 -875 -685 -1422 409 123 -2507 372 -995 -1506 1204 -216 -2434 -416 195 -727 428 63 -855 3876 354 -389 2317 -461 -4620 4456 629 -2241 -10 -744 -1370 -60 3023 -28 89 -687 -1245 1510 -53 -212 3053 895 69 1840 3597 1896 2209 271 1538 -1046 -1596 -992 -489 -235 459 2891 -376 116 1306 239 -874 2323 1994 2840 1469 149 -1033 -1553 2937 -476 1649 2235 -2522 -742 331 -2799 906 2347 -763 -1522 -4820 -5417 658 -2094 -1782 1114 -13751 5705 2992 -1760 4429 -1697 -221 4510 693 -5362 -2870 295 -4463 -2601 2245 2804 -1792 -2942 -3711 3778 83 -1634 2692 -327 3107 4379 1449 242 -2044 -3086 3664 -2519 -2958 3125 1996 -219 -6998 -2907 963 -5360 -1450 -268 2704 1487 -1217 881 -1116 -1122 2016 -863 1144 -1279 -2242 281 -905 370 -1945 2010 1900 2816 -3534 -1447 -2454 2524 2514 -239 1763 -648 -2690 -3794 -3964 -5270 -4052 5596 793 -4713 1939 1834 -10599 904 13866 -11381 -7865 5566 128 -1052 857 1858 3386 1012 24 1070 3931 -3296 -317 -1238 -954 1365 2142 -977 -358 -2298 556 2939 -1532 6259 1907 -1254 -8372 1974 -340 -2636 1527 2355 -2244 -8004 3273 290 -3786 4658 828 -4712 -1746 -2852 3568 281 2808 -1949 -1360 2997 390 -592 -652 1466 -1147 -768 2778 -47 -568 2035 -7280 2092 -6 -128 853 -580 2262 -1860 -1054 1388 -2667 -1377 803 11080 2558 -4576 126 6809 -2503 -3004 1044 -338 1098 2067 813 1826 -446 -29 5177 -2360 -2861 178 245 -663 -2555 5972 -3737 -4933 4474 1883 -2945 -3687 3170 5241 -4771 1395 493 1396 2369 6520 1557 -156 1642 -220 -791 -1542 2015 -646 1324 -3199 1557 -1424 -4366 715 329 1682 -868 -7412 4628 2654 1496 2976 -4635 -22 599 1347 2342 -1212 -502 -3049 -1341 -190 5902 1695 -10304 6169 -2972 -4465 2047 -740 -886 3860 42 -919 2464 -1548 -3251 -604 -502 2481 -4422 -669 -1535 114 3789 1211 2840 254 -4935 1456 5021 2053 911 985 4513 -2578 -2721 84 -1924 1993 4489 219 -933 -3768 2008 -553 2335 -191 587 5832 -11713 9031 6110 -5626 -441 2820 2561 -6055 824 6363 -2449 1069 564 370 -1998 -7637 1669 -914 1020 -4771 492 7860 1195 1648 -1399 2530 339 5328 3319 1483 1418 -757 1832 -1719 1443 2549 -4547 2224 -1713 -4898 1004 -891 424 1115 1398 -1889 1095 -829 -1953 318 -691 5845 170 -1283 7597 7005 -2536 -4349 785 3991 5009 -3714 3249 1128 6862 -1804 -7848 -148 -7029 -1587 2820 -4094 1292 876 -1649 -595 884 877 8643 -1688 1176 4494 270 1045 570 -1803 2808 -147 -1015 -820 791 3395 -3071 892 1393 5608 446 -4839 4112 -2628 -1285 862 -2760 149 -4561 -4378 9537 7477 -4840 3817 3421 24 1486 -3402 -1599 -2627 -3637 -2408 899 -4926 -1763 797 156 -1472 294 -2105 -64 2549 -2323 -897 3295 23 -1933 2471 2057 -1686 -953 708 1514 4315 1820 -2666 -2462 -2288 -8373 -8229 145 -2084 -4288 972 2002 684 49 426 6773 2259 -5897 -2274 1893 1239 81 -1129 -620 110 -1074 1233 286 -2244 -180 2805 1316 -845 1585 1792 2807 -516 1505 -116 -723 -1318 6433 3989 179 1294 -2691 -1434 -6051 4912 9375 -14210 -779 4564 -1369 -2483 2713 -322 -2404 5503 5665 -591 -802 1888 -629 -2999 1896 -794 -1287 -2042 352 1254 3439 12 2097 -565 -6256 3800 -1999 -5014 133 5982 4652 -3915 -3972 4938 1257 -4692 3165 3210 -3886 -1734 -1577 2749 750 -8962 -470 -4337 -196 3940 -1990 -7083 1531 -785 452 2413 7263 -767 -1250 1148 -5051 838 -1888 -5281 -783 6195 1110 -5426 4771 -1216 -1276 -6610 5432 3375 -4737 -575 1521 -1355 -8713 -7468 1445 -5757 -3425 -5049 6497 -2138 -5278 5537 960 395 -3855 3131 -5980 -662 -5489 -3173 -654 10623 733 -6061 1149 -4802 -2524 -6150 -4652 2031 -1361 -2952 -2538 110 403 -244 5585 1409 -379 -6307 402 974 -2457 1894 2897 4864 -1664 -1598 -3737 1307 -2309 -7352 -1755 1760 1567 -3436 -107 3819 -1190 -1323 10452 6207 -3473 -6288 1677 -2498 733 962 -3962 -764 -1684 233 4578 4980 1404 -4038 -1225 1717 5536 1430 573 -818 -5440 -487 743 455 -1754 -1471 152 410 -2132 -910 726 -3322 -325 2813 -1695 -5223 1518 2158 4577 -1784 -2098 -2041 -491 1581 -1276 -1150 -1211 1879 701 1109 -433 -3087 -5854 2993 -1264 5328 5073 -3416 -936 1453 686 -640 -3383 358 -884 -1879 -865 -1204 -232 -1476 -11018 -89 4127 4990 6897 2221 2434 -3599 -5637 -4697 2737 8057 5630 -3005 -2129 810 466 2798 1971 -877 -1041 -1753 120 -3197 -533 -6286 -3511 -656 -2317 607 2461 352 2869 2121 199 -3610 -2224 3231 182 -948 -3339 -2831 -2136 545 -1330 -1812 1598 189 717 1094 -2528 -215 -3015 -1410 -2042 -3800 1898 3970 -5160 190 3314 -2334 -1251 -803 766 -1446 -2304 1808 -37 -1031 646 219 104 -905 1052 1280 -226 3759 7104 -1613 1557 -8875 2092 -858 -366 512 729 -5244 -6398 6525 6309 2586 442 4612 2320 -2283 -865 3321 -4003 2534 -2611 989 -1329 -4205 394 -1538 -3672 -1951 2208 916 -1614 281 3296 -3412 5473 4843 1398 1250 -3786 -21 285 -5533 -4102 -2280 2348 2203 73 -3977 147 648 -740 2640 6251 -54 -2440 3174 1947 -2927 -2817 1929 -1116 805 1364 -806 61 1411 1494 856 969 21 271 90 -3375 -1668 5896 1672 113 -2100 -1276 -532 -32 -227 -505 -606 800 -911 1652 -4504 -19091 -7712 3649 12403 6695 4849 15467 6782 -1042 -2620 2996 -172 -5279 -2243 -3325 2455 -1478 -1177 4413 -2902 -984 416 -2594 2255 380 2471 1097 1433 -1793 4230 -8 -2682 -1901 2709 2424 -445 -3896 -865 -151 2316 3991 2052 -2272 1292 1684 -1568 -4 674 -1258 948 -316 -237 242 -2541 714 1248 -1213 -279 -1574 -2183 522 1044 4108 5019 -4332 4230 3896 1364 -3308 -120 -547 -3263 -2259 -2970 2734 3435 -247 -4890 1408 3228 -10090 -11847 -7065 -2767 -2394 -20 1300 950 2963 3493 -185 -2045 536 529 4346 1113 -1001 400 1000 2367 732 496 -141 915 -4003 -2009 -1718 82 10259 1304 -431 9433 -3159 -1439 -3800 -2873 3314 -2452 -3733 2857 6925 -105 386 1028 -4990 477 646 -577 386 -791 -2447 448 -6643 -2326 2316 2136 2415 137 -459 163 -1610 -2334 -2343 1808 -2313 -1061 -1756 183 -1949 714 -536 -1619 -1054 -3906 177 1528 209 -1543 3009 2030 224 1887 3139 2011 -568 -4725 4212 -526 1579 -3376 1057 3775 -599 310 2130 278 -1185 -5573 1005 -2845 2494 1085 1882 -13646 -3489 3338 10705 9026 1319 -1037 1178 520 1709 2625 -1494 126 -1440 2565 -1795 893 1270 3697 -651 -404 3252 -707 -6053 4151 2486 628 -1180 1400 3211 2108 -4381 -1221 967 1077 -167 -454 -2002 300 120 394 445 -1469 450 1719 -803 -4932 805 -517 10 1302 3142 -258 1296 -1813 -4342 1613 -4741 -5447 -2106 -3403 910 2860 -357 -1103 2817 -1338 -6 -2506 -382 -1553 -2760 -6717 2772 -3276 9605 11551 -658 -3139 -97 -914 5351 -1226 -2163 918 -605 -5949 -3574 -1212 4447 2251 -116 3290 5388 -460 -4895 -4224 689 578 4612 4301 590 2265 1118 -550 -263 -8499 713 166 -422 -357 329 -681 -714 -714 -744 525 -225 -34 -1941 -845 -1866 1591 -1631 -1847 -2882 -6872 -5437 1537 -890 -2537 1973 752 518 1595 -1101 -156 -13 -2053 -1261 -1278 -2558 -2114 -861 -2480 -913 -1638 -2512 -1565 122 3347 4148 630 5192 3742 1442 3942 2348 -288 -760 -879 -3180 -4975 -6676 -385 -1578 -3468 -1970 663 2697 -3336 -2839 1825 -594 -1463 847 764 -851 -378 904 65 666 225 1973 1174 -1027 -218 -2324 -247 -1805 -1289 -285 -683 -180 2672 3941 2702 -879 -1023 -1245 5 1202 214 837 893 -2055 1046 -1865 -6814 -2074 -4961 -7963 -4253 135 325 -3593 5922 5347 -4150 2236 1276 588 -994 583 -864 -2396 -1341 942 -69 428 -2626 -3781 -3436 -1711 -6798 -9929 -7717 -9273 -8728 175 -2315 183 806 383 2098 -963 -187 -753 2087 -322 1562 3320 253 2069 2594 2394 2596 -3695 -1971 -2364 338 3992 1784 -2492 548 1060 -2763 -1798 -515 -2037 -814 465 -1252 -692 -613 784 -371 -38 503 -1324 -551 213 -769 -219 -2425 994 221 -3636 72 -80 -2870 1758 1189 -3467 -1925 -2668 -985 -211 -593 69 1601 688 -5678 -5162 -3675 1669 1156 3296 -2294 -2693 3734 -2118 -1497 -1902 -5299 -5045 -5451 -2669 -1893 -3370 -393 -1075 -2286 143 1275 351 132 2506 1407 -212 -1196 158 1514 -1023 -273 677 -665 -442 69 2141 2364 1929 2390 5339 1826 -1663 1539 1074 784 -78 -4350 -5044 -862 -3616 -4031 -955 1193 -732 -150 6032 329 1664 3598 -2631 -6 -2143 -1022 -1189 -1331 399 234 -2485 -1195 -1414 -757 274 -456 1968 2764 1529 -1078 -2738 -49 -2147 -555 -3052 -3596 433 -1665 -2337 1401 -353 -7651 -7403 -4915 -6200 -6872 -4617 591 -815 678 453 -886 760 -2189 -1637 1529 -197 -355 3443 2303 2593 2297 2321 1973 3424 32 -1539 191 -1892 -2064 -1398 -2185 -3090 -640 500 -2152 -713 -1282 5934 4250 -696 4775 3462 1276 6573 6497 -1784 -831 -2136 -462 1167 -939 1291 3797 2071 484 2424 1963 435 679 1730 983 873 2512 -452 -1681 -2191 -507 2407 984 167 4252 3175 -5229 -4273 -1006 -1901 -2642 1088 2247 2408 2431 -46 -3233 -3783 -1573 -6390 -5596 1328 -1315 -398 -2091 1865 4012 -8113 -3223 3959 -3982 -4244 -96 2584 995 885 -677 -1818 -1506 -2356 -3185 -3533 745 -1961 214 4178 1026 3338 1341 2611 2563 -2967 -5039 -4383 57 -3424 -3029 2415 3943 1119 -4319 -7141 -3757 909 -4516 -1583 1802 -1925 3138 -229 -602 -289 -133 -598 -343 362 -548 -826 -2798 -1699 -1548 1778 1606 1653 -999 167 -800 3222 787 190 2169 200 -17 1086 -3737 -4271 -1535 381 1320 250 1748 10 218 1384 -1546 1350 2551 356 875 1593 416 771 1339 879 -8014 -9641 -5629 -10024 -7772 -6701 -3881 -5440 -5305 -1002 1167 24 -88 1488 1932 -1060 731 1875 -2139 5 -2603 -2015 2338 638 -2191 3094 52 -643 -3580 -709 -1389 339 -1620 1223 1288 587 546 -899 -844 372 43 545 -357 -181 205 -3225 -888 -284 -646 -1495 346 -1428 -269 -2016 915 2406 1884 -438 -498 -1145 2395 2381 -992 2374 1942 1554 -2472 -4485 -1710 72 -720 -564 -342 -1858 -1352 -1797 -4625 -6328 475 -3120 -4369 -1957 -3613 -3097 -1193 -2207 -1253 332 -638 305 911 2655 -1052 883 2841 -1348 -2215 -828 -613 -2067 -4384 -5650 -1164 -7897 -9781 2789 1668 -1855 -5250 -3065 -1537 517 1272 -1015 853 2803 1966 2996 969 855 949 3354 6102 1452 -249 911 2377 163 1675 -1032 -1436 636 -1990 -2436 -2454 -1535 -2789 -3482 8657 1307 -448 8095 3735 2330 -2445 -2846 -363 337 -995 -164 -319 -1513 -742 -730 -2835 1244 115 -2922 -2626 1145 -266 -1288 -1591 1821 3905 -68 2006 -66 186 4427 -556 -4941 -307 -3016 -67 1571 -1403 -232 3241 3236 -4425 1146 618 -642 2522 -437 -363 623 -1322 2910 1298 1176 -246 -774 134 1426 401 -759 -1672 -1216 -1247 -1218 -1936 -1295 1624 713 -534 -985 -2222 -2638 2191 -3368 -2410 1483 -1996 -1121 2758 5461 4929 10877 12049 7169 5815 6093 5384 2197 -1440 -1735 2626 -1435 -1147 2561 -992 593 2107 3903 -1664 2495 5105 -3451 -90 4407 -4579 -846 149 90 -1045 -909 -1955 -2931 -754 -2050 -3133 233 -317 -3880 -2255 -1288 2678 -2195 -5197 -309 -2386 -951 -1353 -4186 -3377 -3054 -4308 -2344 -960 281 1124 -192 710 1274 249 -68 183 6009 1250 -911 6941 1063 -1863 5309 59 -1775 -3366 711 4174 -8501 2296 9420 -4854 1211 7339 185 -541 200 -909 -121 3362 -684 1081 3212 2505 -106 -1852 3129 1779 -3330 1508 691 -2772 489 -438 369 2461 -456 -207 3046 338 1123 1514 -1057 -4095 -1452 -955 -2474 -548 853 -4146 1999 1988 -1693 3274 3913 -432 1022 2879 1548 1710 520 -211 907 280 -2192 -2569 -866 -2115 -216 1421 1237 -1575 -1478 -2118 -1028 86 -655 2476 5203 -1809 1631 4357 -3910 -1907 1499 -2150 -165 2146 -215 313 2097 -981 -1607 -781 -2161 -660 2259 2171 -465 1251 -702 909 2700 -75 466 882 2964 115 -720 2690 2456 -1173 1473 -2377 -1468 877 2151 713 -61 361 -1517 -1700 267 4548 2778 5846 3764 -3176 3307 2555 -3425 -1403 1074 4161 -5671 -1270 3024 -6764 -2173 1456 -773 -3766 1753 1283 -844 3186 202 -1842 2746 2200 -793 -1467 363 -411 2623 82 186 1436 -1526 2911 1213 1674 3867 427 12 3012 804 -1092 815 60 693 1052 -1153 1042 1699 185 409 1235 -867 995 272 36 765 -509 -390 5509 5237 1209 3385 -1155 -4914 -3802 -4710 -4522 1672 -103 -548 -4249 300 3470 751 836 -1692 860 -484 -3931 524 4079 -903 -1408 3359 -1242 -612 1272 2558 -5009 -527 4075 -5240 -1592 3487 -2021 -1749 -2560 -1845 -1747 -1846 -605 -192 -1917 -123 422 -4732 3455 2803 -1231 2319 2310 3390 -250 -23 -2931 2736 -626 -3295 355 -2134 -2596 -1811 1343 1524 -1295 1469 1417 -1704 141 209 579 5293 877 2287 5524 1676 -1428 1832 42 1232 2507 -1238 -666 -696 -588 486 16 856 1225 920 -50 4668 -1693 -4455 4244 -3124 -2286 -540 176 1584 1828 -753 1128 193 -600 386 -1391 -1051 954 2772 1848 -653 1385 -1546 -1616 -1501 -2804 2743 -11846 -8685 1192 -6948 -6234 256 3203 -1466 -2933 9036 326 -4170 5234 -444 -1309 -1636 -866 1036 -4430 2363 1452 -5341 -2743 -933 259 -1620 -2353 1311 508 -1688 -3388 172 42 648 257 -5038 5587 3946 -3583 2925 -308 -3329 749 -384 -1719 5078 2811 -3354 620 -859 -1948 -4249 -4180 -2174 -3133 -108 -1641 3192 2207 -2380 592 -1512 -1139 3245 114 -1093 257 -982 -2067 1486 -48 -80 119 -621 846 352 592 1196 -2660 -8 -355 1557 1973 -892 223 2237 928 -2539 -1093 -1406 -1880 -1648 2256 275 -2102 673 -966 748 -60 -2006 1479 3818 2379 673 2764 -1541 1869 867 -2392 -2284 1421 2799 2463 -377 -909 878 844 1983 -564 1033 150 1913 708 842 -676 11 -1384 -2910 308 -2209 -1775 -792 -908 -3665 -1521 2713 -1315 132 -387 -487 -652 -698 51 -78 1625 -60 -604 2296 1791 350 428 -877 937 1132 -584 -860 1348 2064 2422 830 1540 -1300 1157 -916 -918 2330 -367 -635 -1210 -3651 -254 -2323 -6553 154 1788 -2033 2913 645 2594 -3728 -1201 5456 1276 -7354 -27 4526 2015 8219 -1865 7056 16112 4894 -4621 -3451 3622 -3105 -2389 -328 -2143 -2013 -983 1640 -145 -1 1605 3233 -388 2731 2424 -4321 589 1547 -2659 1008 -1308 1172 496 -1882 -918 1251 700 -701 631 1245 -1044 -2049 -2627 831 -279 -1414 953 -1156 9667 12234 3389 -526 -2322 -8218 -10796 -10035 -316 415 -216 -13 2947 733 1774 3611 672 -4480 -1491 3611 1606 -2978 396 1437 -1805 -289 872 -2900 -2763 1488 -2761 -3202 2206 -1013 -1281 -4352 -1417 -1069 -2449 -870 213 -2528 -272 -1095 359 216 -509 1213 990 1286 -97 -90 -1137 -5019 -4840 -3977 -6594 -8242 -6526 2551 306 1997 506 -817 -1318 2675 -176 -1426 -3056 172 -1113 -594 -1188 -421 -27 -1069 -361 -2015 -187 -23 967 2879 -544 1005 3109 2595 213 247 2917 1262 2167 2018 82 353 2143 -1047 -1792 -2120 1238 1696 1434 -288 -821 -723 -2848 -1922 -2133 -523 -2608 -2214 1010 -1792 -2058 3117 -384 -2007 45 395 100 -3168 -2299 540 915 1015 -689 -105 1955 -1488 -1608 827 -4226 -4032 -1404 -4405 -5311 -4597 -502 -3125 -4302 132 1849 -218 -2256 -365 -1739 -1413 -297 -2909 -946 132 -502 832 489 -1880 -2292 2039 2114 545 229 1619 -472 -594 -503 2814 -988 -3155 879 601 460 119 -656 1529 -1687 383 3205 -346 -919 249 -2219 -812 -664 1121 139 1037 2536 1172 1349 2125 -2693 -975 69 1633 5577 4020 -46 2905 3698 -2447 -3693 -1935 2346 10751 5875 -2952 928 3301 1344 949 -742 -463 -1735 -2457 4334 6574 4203 -1726 -1895 -842 -2156 -2333 -776 -1243 1553 -1223 -612 -870 -1188 2408 -785 -279 -611 -580 -1691 -394 632 2046 -225 33 1102 448 1653 1971 -626 -77 1038 1276 -407 1084 829 158 -1227 1041 121 -1246 -1781 -1279 -1049 -933 -703 -1190 849 -640 -4564 1089 1776 -1060 947 -164 -96 -670 -404 -468 1636 1126 1689 899 998 1299 -749 -1326 383 1090 652 693 746 282 -1508 1968 -375 -2618 907 -810 -2659 -247 -1198 -2151 1938 2129 -1276 368 3275 3236 -1280 -3248 1743 -776 1301 -355 654 105 93 -54 -555 -1137 1359 673 -4724 -2259 2627 -1743 -5422 3696 6948 1842 -2402 -2160 -3300 -10317 -5200 3019 -159 -2245 659 -37 1164 321 -4095 -4294 2946 975 -1584 -773 -327 1919 909 -253 -797 -1136 -1227 -673 -2243 -140 1150 938 1512 1273 -3498 -602 -664 1466 1275 -199 -613 -1364 -542 236 1639 -45 -2185 -619 1732 -2493 677 2291 -3215 -3860 245 1423 988 622 1355 1271 868 -764 -2938 -1402 -165 147 -833 136 -1943 -2740 -950 -2726 -3291 -228 -695 2383 -2371 -4649 -512 600 4 -16 -204 -506 1960 -1449 -485 407 1292 1699 -683 -781 -143 -519 950 3515 -569 -455 -173 -1893 1669 -1988 232 2907 1499 2500 794 3489 2340 -1465 -789 -232 -982 -2363 -649 2134 -605 -1058 -1441 235 1651 2321 1229 2662 2184 -251 -2020 1444 1511 2093 2904 5353 3965 1777 4113 3186 660 506 -113 -2147 -1362 -621 -2602 -2030 1322 1436 997 -3271 692 1660 390 2256 2335 1171 499 -1430 -771 -246 -368 -677 -2069 -984 -1038 -233 1512 498 148 673 1895 330 -160 125 1210 3625 2089 1987 1389 1480 265 -1296 895 1082 1533 2585 0 2462 2610 -1588 973 1056 -7909 -15954 -15550 -8145 -14927 -15552 -8558 -10239 -11970 -779 2492 1821 466 -1460 -2554 1901 -1763 -614 -2152 4043 2384 19 7923 6087 -485 6494 2816 -912 806 -337 -865 1073 975 824 3038 1405 -3318 2829 4281 -7297 -2507 3511 -4796 683 2415 1747 15 2970 2068 -894 1521 829 581 961 -1350 726 410 -3761 -277 1246 -501 -305 -626 1220 -3985 284 2896 -365 -1592 1363 3128 -1252 -3032 -171 -381 -673 180 3688 810 1111 1364 -2453 -3133 -290 1056 -1257 -4659 2355 199 -4276 4007 5971 6833 1330 1010 1876 1709 79 1032 15 232 724 139 77 -926 1586 1383 -702 -255 2008 4165 -1928 530 1208 -2099 713 1356 -336 -1685 -982 -1623 -3030 -3103 744 -151 -304 -1272 1392 -1829 -89 -108 264 -550 312 -1562 -1130 -1598 -2067 791 517 595 -365 -433 -113 740 -365 579 -53 1328 -783 454 1479 311 -919 -1493 -5233 1745 3430 2159 1433 2888 3763 693 2509 1781 -2255 -2090 -647 -2544 -3984 -2529 -2247 -2369 -2069 1175 1238 282 1271 1455 2397 1444 -2470 354 1716 -2953 -2462 3797 -1188 -2125 400 1891 688 1065 3437 1962 1665 2980 1166 426 -962 -365 -2390 -1756 1183 -4499 -1024 -224 1229 -229 387 1844 293 1137 1567 2692 2308 -620 -1238 -3584 -151 -297 -1169 803 2227 222 -1338 -1274 -1529 -2353 -2166 -251 -712 -751 -358 -869 -3185 -3153 -499 -3931 -2706 -1178 -3904 -4291 -500 -404 1010 989 1646 1648 94 568 1763 79 1253 3824 750 -1214 1814 834 -1269 3384 -1176 2821 2071 2606 8215 7310 649 5341 5174 400 755 1759 -1376 -553 -844 -2723 -3026 -2721 -1076 -979 -1153 -825 -528 -457 1305 2199 2232 -3189 -1296 -1215 -1016 956 -1836 -222 712 -915 1328 717 519 1752 1363 671 -607 -1245 -1200 -552 -975 -3 -43 -2074 1287 1134 -2736 428 200 -46 81 -1261 -1408 -674 -4698 -5412 -3994 -1412 853 353 302 -2454 -2644 -1833 -2524 -1106 1111 -495 -748 -179 -1487 -1802 -276 358 -1184 635 1033 2660 943 144 531 621 -2044 -1501 -5690 -8370 -9961 -1051 -1045 -1354 1187 2259 3161 1663 801 -5034 -3487 -1933 1306 -3989 -4174 2589 -133 253 1770 1138 714 1861 1069 -2009 -564 -2382 2670 440 -3576 2302 3311 -2249 44 3651 -2722 -2757 -2943 39 1978 1293 -2630 -5790 -2066 -198 1805 957 954 1437 1764 763 1130 3043 2740 2094 648 1776 999 443 1542 497 -1491 -1380 -208 411 -1454 -381 -112 651 1281 1610 -823 1296 2380 -1335 -76 1954 1261 2686 1382 -2067 5574 3723 1073 8576 4863 5796 6330 6184 -1235 -513 848 -1923 -436 -1864 744 1347 610 -1339 111 582 -888 824 2037 -16 267 -390 204 1117 1406 343 -166 831 69 37 452 59 1178 -153 -2541 -1903 254 -3015 -1567 1940 3329 1442 2217 1263 107 -672 778 312 333 565 3640 3032 -1794 -451 2160 -4345 -4991 -1669 -1095 -2167 -1826 -1565 -1731 -935 -280 -2195 -1119 -521 342 -193 400 1555 1954 946 4223 1604 396 3004 -808 1640 7484 -2908 -2882 -1141 -1368 -820 3937 -425 2281 -5983 -3253 -3498 -48 -740 4173 2479 3635 -4417 -11750 237 2745 379 861 -1679 -1488 -487 -2453 1995 1441 -3190 -2319 1408 -1824 -2770 -775 -3176 -3464 -698 -2588 -387 -1515 -5500 -11879 -1805 -2224 13853 2151 -1958 18602 4974 -233 -795 -4239 -4892 -13010 -8608 5735 3142 -3272 2953 1601 866 -1497 -3355 1597 1415 1967 1444 4607 703 -496 1288 -1895 438 584 1332 -4259 4057 3313 1025 -4084 -6493 -342 1661 3237 -1014 6126 -1158 -4557 1085 -3074 -1574 5654 7374 -5873 -4605 -90 2606 -5019 1564 2285 -3453 827 -6421 -3739 -2750 -2378 884 2858 -1822 4140 3056 -708 -3651 -2068 -1843 3006 2003 -4410 629 3336 -3714 1198 -5809 -4136 2467 2304 2301 -1040 1812 -5833 3411 6992 -3956 171 -384 3866 6724 12026 4655 738 -1774 -1223 -772 2867 2394 -2280 4328 -5673 -2860 -574 1495 -2909 1509 797 -1757 4 128 -3284 -5787 -3770 3166 1776 -3264 4444 1617 -437 -366 2497 182 1259 3405 -4333 -1645 -3108 2864 53 614 897 -799 751 838 1570 1681 1146 -2246 -903 -1413 -185 10623 1513 2808 -479 -1537 -2996 -5198 -2982 -2284 1467 -4547 7152 12319 6 -826 559 -3186 869 -3065 -3940 3308 -5275 1399 516 202 4010 88 -2989 953 1102 -2577 812 2512 1769 1532 -1954 504 9 -2118 -2794 -3973 556 1250 -403 -5977 381 1876 -147 1565 1446 1053 3580 2759 3366 80 -3632 302 -3250 7567 -1342 155 -650 4606 3242 514 -1417 -3721 -2317 -825 -852 2160 -2333 2327 1944 886 2136 -3010 -305 -449 1407 -2896 -1266 -1 -5530 -3317 -876 714 4748 -4851 2212 4127 -2617 3921 4091 1942 3910 3065 4740 -4849 2964 3418 2211 4490 -3204 3499 3204 1383 1947 -269 2658 2075 -2670 -2448 933 4042 1850 499 4661 2933 -1937 -2942 -1098 3632 -1570 -1153 -2864 -6812 -3280 1473 4127 261 -268 2577 -148 3261 2114 1322 2274 -2707 -1377 1041 1587 -87 1003 549 245 -621 -4396 -817 -3291 -3401 163 -3394 -92 264 -6293 -5870 -3784 -2852 -975 125 -3731 -6043 1603 540 2753 3498 2285 2557 322 -8876 -13674 -6662 -3887 -2332 -2554 -1819 -3330 -711 487 2144 2420 -4938 2754 1464 -68 1364 695 -646 -4618 -681 847 1067 1483 236 -1658 438 48 1783 -999 3183 2504 -561 742 -2061 -3819 272 -6691 -6873 1564 2012 -3113 3305 -940 1769 2290 -2231 1074 -3157 -2177 3725 -2702 -352 -840 -592 3083 1245 -791 -679 -2143 658 1954 1307 -2905 -726 -795 -1661 3950 -3444 2261 1599 -566 -935 -951 689 -1064 -1148 475 351 823 -673 -2882 466 -51 1392 5548 -2870 2045 2771 -60 -3142 -5384 2067 -80 -3277 1629 -3843 -4789 -4297 1149 6237 1833 3616 7772 -1862 4013 1377 -867 -2145 -755 -1960 30 -1941 -1501 -2012 -854 1208 -399 355 2713 -1575 805 356 -2443 -1893 2539 -1022 6562 3911 -5757 -6491 -739 2254 2334 -235 -2247 -4363 -64 1599 2701 201 -646 1186 -1528 920 -1302 -271 1709 1793 7356 1967 -943 -1235 2079 1428 -2726 3636 -2328 -3241 -2072 -2224 285 -352 -3764 -2271 390 603 -3567 -3076 -1357 3191 3342 3185 28 -736 1837 3812 3196 6886 5358 5116 -3710 3008 1514 -15455 4730 2386 4664 -117 -2272 -30 -2925 -3282 -3545 -1614 -2072 1158 579 -4060 -7354 -1842 -2012 -1835 -3639 5979 1643 -4379 3359 4455 -3205 -63 -9346 -3526 -1571 -1418 -4007 1475 4655 -281 -1182 1024 -1117 -3569 484 192 -453 4909 -671 -2533 -468 -3369 -960 -637 2436 -4011 1230 2784 -1987 4049 7186 1911 3520 2264 -1221 -168 -1519 865 2964 2547 190 1829 1304 -487 -1144 -409 781 -948 -883 -598 -2124 -377 -980 541 711 -2007 -741 955 -2373 -1558 376 2211 1200 308 1276 865 -3420 1175 -1396 -1271 -63 -3055 -2630 2142 1061 362 2431 -370 548 69 -3659 -679 1204 -1602 1768 2256 960 381 -106 -688 728 1130 283 -368 1135 604 -1102 2704 279 481 1074 -613 1224 -2301 1258 -553 776 -151 -2804 -3952 -1969 -567 -2268 190 -1506 -796 389 -2277 -1466 -898 -4205 -1715 1 727 2529 -152 -1397 1217 -1430 -902 2018 -1479 -2614 -227 -2725 -4347 -776 2449 1171 -3234 -1456 -847 -1260 2230 -3190 -303 2386 -668 -496 -765 586 444 -3309 -995 212 279 -490 -3386 -4417 -3219 -4453 -5787 -4850 -3713 -5043 -4204 1083 2159 -146 2279 3682 -204 2564 2688 357 -728 -1717 -2109 -383 502 463 -831 926 624 -484 -134 -1580 -479 154 -649 -1919 -669 -571 630 -598 4145 -2124 -3949 2207 -1086 -1363 3173 -671 -832 -278 536 1699 -357 -481 350 -3215 -197 3019 -372 -1415 2306 4347 705 -1508 1232 520 1891 507 -440 281 -240 -642 -710 -895 538 -1390 -914 133 -98 379 -1267 2648 2319 407 1056 -441 11651 9892 -4661 12885 11723 -3166 -497 645 323 -1667 -882 901 -3389 -1451 -537 -2807 -3461 -1471 -6715 -9292 -5864 -2730 -4669 -1357 712 -1042 -1234 2388 -811 -148 1545 -483 -2546 -3283 -1241 -2131 -1235 2156 -1850 -2126 -3730 -3615 320 2287 2423 -2534 50 -2389 1233 1773 83 1128 363 -115 3065 2238 1481 1803 2384 -283 -237 -38 753 -530 4193 4979 -173 2827 6716 219 -425 813 -1463 -3801 -2556 1480 -914 870 3023 455 1401 90 -80 2619 -345 -907 492 2235 2574 1443 2416 645 3080 873 -1648 -2009 -1109 766 -406 -1113 -1866 -664 273 1380 1723 2304 -1362 -856 4240 2882 787 1586 -1786 395 51 -1936 333 -1828 326 2244 -426 2629 573 -2691 856 161 -3204 3182 -503 115 1653 340 1032 1206 -1113 1205 2548 -3844 -755 556 -3069 -4846 -2611 -3065 -2871 4089 1976 -1606 10029 9132 1839 16199 9181 424 7962 3030 -5939 -8179 -7333 -3163 -1421 -432 1772 763 -993 1547 1567 -1077 1831 1303 -803 462 -333 1300 -530 1556 2142 776 -663 -1985 157 -1616 -4037 -199 -2525 -5287 1280 -879 604 -934 -3551 -1663 211 93 -75 251 -3035 -2116 -1377 -557 -112 -734 748 1833 -810 689 516 -956 -2141 264 -222 266 -768 853 861 9 -161 -654 1068 -992 -132 1656 -1025 573 2466 -2804 -4031 1392 1181 534 3653 -2851 -1007 -1454 -7578 6494 15684 -8034 4710 14750 130 -303 1223 -4820 -2573 -1783 -2765 3216 1134 -3082 -2006 -2320 491 -663 -2918 2665 -217 -2162 -1000 -1053 -1118 1631 -1277 -2397 3065 900 -107 8 3846 751 1061 268 -2354 -590 -1746 -483 -3813 -126 3179 -1848 2664 5426 -1992 388 2552 -3043 -705 -156 -161 1229 -1830 -1747 1816 -1697 1429 -809 -820 1299 -1588 236 -105 -1583 2446 122 41 1664 -512 -565 1445 1942 -1760 -3372 1359 -1144 -2475 412 -2279 -3063 726 3388 730 -155 2056 1154 -837 4401 720 -1702 -1869 -2099 336 902 -627 -411 430 -945 1889 2159 473 -953 4200 1885 1379 5681 3544 352 3656 1816 -975 -2316 -1471 -2167 -2301 -1233 1024 -668 -833 -944 -6633 -4405 -1627 -5262 -1924 -202 -2268 -1453 -994 461 267 -963 -397 -206 -2454 -2914 -1045 -380 406 -425 526 2629 661 -402 901 -1244 -1424 -2488 2122 -2879 -56 2786 -1350 3277 6698 4296 1481 376 -1579 -2396 -3354 3052 675 -2513 -315 -993 296 1290 632 1620 821 -276 414 -1481 -2067 269 -2353 -3583 -3269 -1 882 1162 -875 -1565 -2526 786 3111 241 448 1217 -2112 1722 3203 2209 516 -720 -1002 2368 676 -1487 -2095 1043 -159 -328 2047 -2171 371 -35 -4980 463 4178 2331 598 1394 995 2016 -851 1702 -940 1543 3541 1168 1541 1221 1835 -875 63 -1887 -4814 -694 836 983 2822 -611 3091 3691 1525 381 2449 1767 39 219 -120 735 -899 2937 1259 -1794 523 237 -354 585 401 -2978 2719 2971 1702 -374 -739 -2213 -211 -1487 -2538 919 528 -609 1220 1449 1193 3412 3669 3913 708 2347 1045 -900 -1995 -4217 1440 -1130 -2319 -69 1639 940 792 1074 769 230 -687 -1186 719 2389 2028 2143 3944 -454 -473 -3567 -4755 -3106 -1952 -1590 1287 3164 2251 5512 8374 4405 1718 839 923 -519 -398 451 -1392 -2158 1492 923 1219 738 1036 1328 810 -1175 -47 779 -108 -394 1751 -478 -862 587 -1538 -2731 -3613 -1319 -1015 196 1464 1901 -1457 6885 5856 -395 -977 1722 2961 -2401 -294 -1746 -4611 -488 208 2862 2476 2984 -1322 -2732 -446 -1901 -2265 887 -97 -1683 -1801 -14 141 -371 2022 2962 682 1673 751 2336 1286 -554 579 809 -1720 508 1733 1947 3364 -108 -2254 1148 -2497 -4357 -2232 -844 -507 609 -2497 573 3163 -1182 695 1565 -7329 -6341 -3858 -314 2129 2667 2290 104 109 1706 3561 3570 -402 -606 -240 -1043 -2252 -2786 -1297 -2825 -1637 -1721 -2495 -1177 855 2865 2354 -674 -632 -3081 -1630 398 -611 1558 3498 2687 -386 -1319 -2160 1241 -2059 -2085 -611 -1601 -1565 135 74 268 -699 -283 -3641 -762 -482 -1415 2583 -15 1832 1493 -789 -1592 -991 999 2601 330 732 -929 -2161 763 1426 1127 4197 3464 1724 284 129 614 -2577 -1164 2205 2249 849 -1977 -2914 -1695 117 -1005 1313 1350 4772 4236 4394 8273 6612 6882 12359 9752 2564 5536 4512 -229 -1482 2292 -2363 -3462 1750 -156 1198 -307 1210 -2074 -3677 627 -3609 -4055 -681 -2572 -1459 1780 3522 3987 1494 1202 58 -1468 -3090 -4699 526 1493 1907 -1645 -1197 -1954 -179 416 -689 1654 24 -968 -694 -552 -1420 -2350 1174 221 -1921 -2558 -2287 1435 1318 -202 1995 1914 -1502 -1172 -1481 -1635 -115 730 -1174 154 2571 -648 3766 6410 3425 -62 4231 3591 -1397 -2508 -870 666 3207 1604 89 -940 2085 -3673 -2141 1324 -2021 -129 -375 -5791 -852 -926 -1707 5939 3657 -797 962 1093 738 1094 -2272 -783 -3110 290 390 -1518 -251 -397 -1107 -1655 908 1499 363 1696 1883 2214 -1178 -3205 -2947 3101 -117 -1754 3205 2462 2204 862 -2184 -941 1363 -540 -2301 -729 -399 761 -1397 -407 1630 1420 4250 545 1910 3226 -272 1520 1957 -1810 500 -2764 -5006 -2133 -5202 -4538 164 -4106 -2523 -342 -2144 -2734 -3875 -6175 -4575 -2048 -4566 -3926 -4189 -6167 -5057 -2366 30 -330 -962 1717 986 -1072 2605 4908 3265 3864 -925 25 -362 -3069 1682 -3530 -7213 1792 -116 -5356 2006 575 -6800 1118 -187 -2180 -1104 -4297 -2982 -2030 650 -5270 1740 -964 592 1186 442 -6157 8252 9949 -3283 2640 6108 1246 -2825 -1292 -640 1164 2779 3954 -365 682 2327 2171 3036 -2539 -1389 -2235 -1885 39 2704 1811 -4327 -460 3498 -3254 -2230 -2099 1956 427 -2282 -2590 -6510 2456 -2902 -1606 5683 -169 726 5191 -1641 1472 -2520 280 4395 -2278 -345 674 -784 -1506 2196 312 1764 1970 -132 130 2577 843 1787 630 -584 222 -42 434 -2826 -201 3155 2892 1162 -2045 -1455 -1234 2413 -1556 900 2861 -1137 -1912 -5596 4394 -3776 -7091 1943 1357 -4139 632 -4156 -6843 3397 620 -4489 3026 770 -2877 -1185 -3809 352 -4109 -1505 2883 -1865 -1501 3519 3254 -1178 -2529 2612 -4221 -2227 156 -28 1850 -4127 -1835 9413 4896 -1321 -8487 4312 2554 -4056 1615 1131 590 -2743 -1624 932 -631 -1065 287 528 -770 102 -2132 -2237 -428 267 299 1080 2080 484 -1417 778 -2479 -2643 2225 -118 -1363 -1324 -3732 5126 -9583 -3343 15616 -2354 530 8400 1199 -1491 859 1128 -2014 1851 1563 532 3895 213 3019 -215 -3564 -769 7921 -3330 -3245 2749 -441 -973 716 2729 -955 -1127 1479 -2323 -358 -1660 2872 -88 -2398 4160 -2327 -1524 -20 2534 184 81 -1763 -979 -87 -385 -2414 -1190 -1535 163 706 1992 -2409 -4471 2474 535 -309 340 3618 -963 -1407 5776 -6306 -6737 7065 -2994 -1521 -3488 5132 3489 -6605 8560 10701 -4807 6664 3259 -4286 257 3300 -4814 -182 2738 -928 1297 2388 -364 -1882 -402 -845 -6215 1000 84 -3975 834 2396 -1746 -878 2463 -1610 -2708 3356 -457 -832 -3551 752 3638 -2418 -1190 4291 -642 -1387 -224 2080 1553 -419 4345 -5084 -10070 2165 -2097 -4394 -1268 491 -2137 -121 1487 -1438 150 -1452 -3156 1372 -1091 1761 2028 544 4539 511 -2282 1814 -626 -5436 -836 6127 7443 -2502 863 4543 -161 -1805 -1836 -2857 612 523 -830 -1092 754 -2657 1837 -1304 -1948 1274 -2579 -2814 2555 891 -675 1301 -783 -1224 -769 -2776 2382 1737 -1969 1617 3199 2757 3302 4629 992 -4375 -4773 -4797 -7600 3508 2825 -3917 1112 3099 -354 -3507 236 4118 -2395 2426 199 -488 -1552 105 826 -662 1108 1890 110 -2719 -988 981 -2480 584 5788 -1061 4664 6266 -9742 5348 3509 -6896 2788 1447 -3299 -1958 -104 -3233 2226 814 -3735 2421 3539 2665 -664 1004 955 -1259 485 1218 -405 216 -212 -678 -902 1184 -1027 -1761 1864 -1670 -847 1877 349 -254 -43 3318 2052 -1472 -698 -3990 -2521 -2587 -3865 -628 -1616 -7910 -7046 -1264 -1317 -5301 -1744 796 -869 -3447 175 1384 -2337 -1278 3198 -3099 146 3019 1050 1025 -1922 -491 273 -609 -1679 -1875 -1329 -212 3113 6906 -1263 2416 2201 26 1661 4350 -5820 -7578 738 -4671 -3043 466 424 -998 -5956 4189 4420 -6916 2769 4483 -4656 4420 3141 4665 -3028 640 6517 -5035 -5956 -1944 -349 318 310 1703 1312 -1518 1547 464 -1648 -1016 416 2254 2591 321 3207 -2173 2378 501 -1888 -1293 -3174 -353 857 -4418 -347 -108 -1245 -2966 -4585 -107 -2286 -9583 1893 578 59 4420 -439 -3804 -2184 1228 -747 2526 -1272 -172 4758 2403 626 -458 1439 -1852 -8172 -1490 1775 -5466 -2345 1447 961 -2696 -1033 2197 -1107 -1429 -1542 967 3463 -3460 -1440 4741 -4092 2120 -782 -2187 -4929 -1578 -7497 -3125 3269 5434 3405 5832 4772 -1842 751 617 877 2140 2201 730 1108 2229 689 -1671 561 1686 -2327 -670 1594 -2470 -526 -2236 984 -841 -2999 -2319 -1601 -4760 -3688 -940 561 893 1457 624 4420 3896 2164 6587 5343 -4893 -7771 -7524 2176 -3707 -3081 881 7407 2976 2551 245 1196 1956 -1232 715 1785 531 -30 -656 -420 -476 -258 -1200 -2243 -639 -3643 -5166 1616 -1252 149 -1134 -1222 -888 -602 -809 -643 1909 723 1043 638 -3569 397 31 -2291 571 -606 -2676 -810 125 -1766 275 1306 688 1208 3809 939 904 -2176 -797 6979 -4675 -3368 5275 1227 -323 242 -5002 585 1381 -4682 -920 -414 71 -2650 97 -2677 -3963 -2577 -2720 -3419 -4795 -1055 819 2300 -1602 -2253 2456 -3395 -3672 2642 -631 -680 -118 1929 816 2666 -1230 1406 1528 -2254 -3341 -604 -2840 -2325 -1665 291 720 487 -446 426 -1037 -1921 -502 -2348 -901 -2782 -2986 199 665 170 -1258 -1881 -2611 -647 -2109 -2741 -2628 -2795 -2469 -3343 -4622 -4964 -4741 -7058 -8422 1365 2985 2315 2463 4785 -474 3006 3817 1083 -1681 -1997 -2500 -2 635 -1488 1408 1760 -717 3028 358 2446 -146 -164 2718 -2005 1169 673 -1541 -2607 -818 -3129 -3684 914 -4176 -1121 1213 346 -1389 -3030 769 1958 231 -2644 4002 3093 1210 -913 2406 1125 -425 3894 139 -1124 3617 -106 -6564 -6940 -221 6525 3254 -2102 10665 9153 623 592 313 -2777 -1416 -435 -4923 -3813 -1172 1406 -3275 -1683 7121 1162 -4645 10596 2960 -2216 -174 -606 -1454 -423 -578 -512 -1311 -834 -1142 -827 1744 990 -1910 -1153 -853 -2303 -3298 -4110 -1472 42 -633 -1962 -791 -1218 -2491 -1386 -2436 1339 -4009 -3669 -410 -2378 -4833 1860 -1795 -2900 816 1387 -1593 -2616 777 1263 593 4114 2810 3920 -2130 -1259 1416 -4148 -2374 26 -1181 -250 1876 -1677 918 1006 -1891 2685 465 -2769 639 -2061 2006 256 -648 2102 1784 -942 -2363 -723 466 610 -145 -855 1702 -931 -1902 166 -2337 434 37 481 -771 -636 -1217 -851 -674 -1733 -357 -1711 -3055 6809 11294 1781 7741 14730 7469 -577 -2650 -2999 3061 1213 -3962 1481 1937 -3690 -1963 -4121 -3000 -3650 -3635 -2760 -1703 -1590 -3513 -1174 -1930 -2633 1592 290 663 1724 -3144 501 -1632 -547 -673 -1838 1279 917 -2412 -1547 -25 -368 371 814 145 -825 -2584 -1344 -731 -4119 691 -88 -875 -568 787 5645 -1372 -215 4167 2088 3050 -163 4268 8079 3269 858 604 -2938 1905 1782 698 1390 1384 65 865 -389 -1186 1449 483 -770 -1990 -2548 475 -2131 241 2676 -3587 -2249 -2009 -957 4786 4108 1444 1712 -241 -2610 -172 -1502 905 1298 -1555 -81 -2545 -4644 2098 -1061 548 2806 271 1141 1860 -1288 1415 1941 1177 -877 4161 -1054 -4630 2933 -3453 -7222 2478 5143 5917 5226 3099 6182 5757 3057 5706 -690 919 -387 883 3131 1907 2243 1919 306 -1845 -140 2488 -3193 7501 6723 804 10162 9336 -637 -4145 -510 368 -1267 490 580 1253 1467 -648 -683 168 -583 -83 2960 779 2560 813 -3757 -2905 -3955 -4202 849 -2186 305 3319 -1916 -1405 -311 -218 -2510 2432 4514 436 5670 6086 -1241 -2186 -1079 -1299 5017 4657 -3517 6042 6540 -1041 678 568 1270 2764 2958 2862 1915 1861 1189 3405 4138 -667 1822 -310 -5244 -4897 -5132 -965 -1256 -14 -1613 -899 2416 -794 -2848 -1028 3032 1669 -2084 5942 3746 -1194 3535 3475 -588 -3039 -33 4842 -199 -2548 -4749 -828 437 729 282 2763 -3928 1109 -6854 -1786 -2910 -4195 -760 3745 -330 5875 -3147 -9917 3120 -1790 -7076 3374 3046 2120 556 2257 -807 -1965 1098 64 -1439 1435 -2700 -1735 1417 709 1409 450 8235 1563 3723 -3173 2461 -1933 2010 3555 -686 -3036 -278 -633 3396 -935 -2622 4697 -385 475 -152 -3327 -466 1254 83 80 306 3868 -2156 -108 601 4787 432 -1380 705 -2341 4487 1416 -2342 -1862 1204 -535 543 2248 -2888 3296 1053 2201 191 5881 -6351 2985 4455 -3377 2055 1717 -6122 -2870 2714 1665 4644 -3117 1517 7118 1606 2323 229 -2315 -2548 -946 -7023 -689 -2164 -8625 -5449 -4484 -965 1915 1735 -3271 -6197 399 -3939 -5011 302 488 -5781 359 -215 -1376 5594 -3121 -2426 -628 -46 1433 -4333 -2517 -2300 -3067 -183 -1680 773 2233 -968 125 1851 -3326 8039 -1024 1018 1813 480 2382 -337 364 2947 -1216 -1378 258 -2609 4289 4116 6467 -883 538 2649 -1085 352 4681 1927 732 -2179 11516 2674 -12652 5518 2090 -4107 -521 865 1123 1034 1450 -117 769 1272 -1970 -1686 -1042 -4908 178 6218 -8505 317 6789 -672 2061 -1960 2518 -1180 -431 5094 -967 -2589 718 -846 -4058 -3002 -1508 -6030 -2206 2653 -2926 -3009 1771 -2508 2331 3001 -2148 -720 2527 1082 221 4567 -1649 2636 -380 10630 4934 -4922 5705 -3347 -366 1878 4323 -22 4937 6302 -2642 -313 3376 3083 2826 -3512 10139 5896 -10662 2623 -28 -3424 157 2865 -2710 1122 4610 -1317 -10 1033 -1662 -1352 -2859 3219 649 -2435 2951 33 -1408 4753 490 3462 943 -1027 3658 -343 -400 2290 59 -1377 1163 -3267 -3549 -2740 -888 1542 -5397 -452 -1139 -5600 -523 -8777 2373 14943 -3718 2241 8546 2276 1628 3172 2186 3465 -756 -858 3624 0 2875 -2827 -883 2863 -5411 -1662 2299 -4526 -678 -598 -255 2401 1584 -1572 5651 3323 -4212 -2078 -5968 3310 -5652 -2335 5998 887 -1748 3233 2062 -985 1832 -1858 -95 2358 781 2795 204 76 -2124 -6830 -1787 7431 5816 -1016 -2470 -573 561 -1457 -4310 -5797 -328 1247 4811 2787 2248 7328 -2329 -2359 -3180 -789 -689 -4531 1730 1544 -2194 -659 -2648 538 6536 -4195 -4496 1208 -6201 -667 -209 2592 3283 1139 -3357 -212 801 -6406 -2703 -153 -1786 1814 1101 -1441 1108 -2023 1115 3725 1387 -3869 9092 -4041 -4341 10462 -1736 -4749 -136 955 -2292 1948 3272 -1952 -694 2135 1826 -2416 -249 448 613 -1249 1472 627 -1369 -89 -414 3675 -1996 295 2105 -5901 2757 510 -1154 -1108 -3402 1005 1531 -208 -971 -3828 -1032 -8857 -8259 -1506 -2602 -2109 3442 2937 -234 1810 3289 663 -3949 1169 -3390 847 -1024 464 780 -1470 508 2103 -3960 -318 240 2184 5307 -2386 -6373 1628 -2912 -2596 -5927 1187 6111 -2797 2037 1971 1124 2418 -259 2201 -4675 -8383 5290 -1340 -7306 1054 -2974 -2341 -7804 3757 2213 -10225 4771 5655 -1722 -1064 -3237 2261 -499 1624 2640 -3255 612 -1163 2841 81 478 316 -4944 -3402 -301 -1144 2857 -270 1695 718 -942 3867 -1417 -1196 -154 -3061 -2317 3105 1267 -146 5492 -4150 -5876 -1076 -6815 -854 1504 1532 -2697 1755 -3831 -4707 -4447 87 -4905 532 -327 1237 -2224 382 5760 -1315 5621 -624 3342 -2677 -4847 5850 -582 -7951 -606 -4002 176 -1521 4523 4109 -4348 -3695 -2188 4119 -2981 4512 1781 6410 5221 5976 -7888 -4588 2240 -10773 1468 -3381 -2180 1494 -709 -709 149 -1365 -1472 -2067 -1025 -1345 -2934 -2863 -814 -2332 -1003 1884 2517 715 -278 1059 -494 28 113 -955 2033 625 -363 -450 838 -2073 -869 -1806 -3342 -3985 379 1284 2651 -1399 -681 1568 -1594 -1575 -2029 -64 -540 -753 -310 -359 -416 268 1841 2764 554 -667 -868 -1711 -837 2472 -1057 669 -256 -1744 -250 3944 -870 2096 4467 -1652 -3362 -109 -7469 2248 3336 -901 6856 93 2298 2774 -1598 4314 -849 -1316 -2888 -9726 -4042 195 4249 155 -305 431 -260 -1815 -1616 452 -2273 -2697 -951 1048 2426 -2766 3820 2940 -6103 5308 1731 -2358 1622 82 666 668 306 1256 1345 881 2596 264 1078 227 266 237 -1128 2682 5189 1155 1763 3885 8925 -5784 3436 17011 -7077 -8583 -7889 -312 -3173 -1255 412 -1065 -1114 -754 -475 -1461 187 -6602 -4862 -4266 -6799 2641 -1497 399 4248 2624 228 -1754 2563 -1310 -2789 1193 -2016 -1974 2139 2311 -543 1849 3542 2091 2742 3704 2105 569 -2257 -257 2411 -245 1332 277 -875 -388 -4455 -7570 -7956 -4871 -5709 -3407 -224 3048 3414 -298 -1494 -683 1175 1143 -238 -1683 1480 -1129 2211 546 529 492 -2682 -597 -241 -706 1202 -407 108 -1073 902 548 969 -1888 -1361 -1363 148 -937 -995 253 1982 2019 -1153 -2461 -1071 262 1933 1801 -15 1095 2885 -691 1251 3587 3040 1105 692 2254 1532 988 579 876 369 -649 99 488 -2760 870 1255 -292 1193 641 -885 4375 -1107 1850 4625 451 -3213 -899 -2353 3672 -3841 -2148 -2742 -8183 -1159 861 1550 5075 -1401 -2568 -2845 313 -1344 479 1110 936 4153 -705 -1543 -1154 1111 1070 2077 1924 1328 623 -1817 -1929 118 1201 -1122 277 1415 -634 -1402 -2316 2979 1086 2275 7318 2481 -898 -785 -2527 -169 -202 -182 -1158 -569 -411 -2158 -3218 -263 -1693 354 -912 645 3114 1738 3537 4787 4641 1358 410 -1275 -5431 -11681 -5470 -3975 -297 5623 431 3759 4116 -1935 2610 -417 -3690 -7362 -7677 774 -1046 -45 -1094 -3170 678 23 -1194 988 1822 410 379 2538 610 1452 3306 2602 2290 1191 -499 297 839 259 1209 1320 2076 1407 -172 -1843 -1776 -289 -316 -4034 -1291 101 -1547 144 456 -1736 -1274 -2195 -2203 -3936 -2927 -1176 -672 -2409 -617 30 1585 2476 733 710 1298 -3175 -1336 -838 -2766 -433 1304 -1433 2179 2573 -1142 -1406 -153 644 -200 -775 1968 415 -1776 2901 3817 -312 1517 -386 -4967 -1663 -4495 -8670 -3749 -1135 2101 -34 605 832 986 -663 -828 -336 96 -282 1980 156 -622 282 1085 1438 1597 3338 3203 611 2344 -2358 4946 4131 -1539 -3379 450 1137 4764 9952 1860 965 -3843 -556 2724 2939 1582 3312 491 -1858 273 -1909 -2738 -2272 -3182 -4656 -2181 -2279 -1962 -1595 -3202 -1173 -1273 -1561 -1193 -1502 -576 3113 -2394 618 2398 -1318 -1218 -1940 -764 1373 -37 -1145 308 -871 -1599 -899 1508 645 323 4177 1492 3699 4212 169 1763 -261 1045 4202 2201 -1151 -1925 -2686 2769 3116 -199 3758 3287 -1724 3034 1823 -3260 593 791 402 763 -192 -47 2008 2868 592 -252 -1325 -617 -2124 -4081 -3200 2137 -2173 520 -1352 510 -702 -620 398 -920 -614 2153 -2633 -2997 -3000 -1041 -961 435 841 1115 3201 2670 2407 637 913 3027 748 2302 1093 77 769 -2993 -1419 -878 -2951 -1521 453 -3744 -4340 -2647 -3177 -750 1129 588 804 -535 2690 1855 905 -1280 -743 962 -2472 -1553 -4275 2047 -87 -728 2186 1121 2189 2152 1682 1031 1134 414 807 1028 -3105 -3455 -1443 -4550 -2953 -642 -2449 -2846 179 514 1753 2982 1085 -768 1613 -271 -1529 1520 661 -2520 -910 -1980 -1324 464 1623 889 158 84 362 726 2895 1882 110 215 -3367 -1379 1570 -571 -182 2080 1029 -1498 -923 -515 1415 2800 2941 3302 1519 582 1325 -451 -978 707 3110 1528 1460 -160 -295 -2076 -1317 460 1798 2486 245 3850 -1654 -4710 488 -2221 -6640 -1143 1769 2896 -2643 -1228 390 -1043 -3047 -3925 3005 6 318 889 -2962 -888 1821 -519 894 -811 -52 2011 -1875 -5960 1513 -881 -4503 942 2231 2601 1660 -159 260 268 -953 -1225 1832 -1695 -1265 1146 135 175 -2375 181 2305 114 521 1805 -818 -752 899 1765 -434 649 142 740 -1003 -1972 -88 -2372 -1748 810 -372 -605 -2038 -4397 -3521 -4624 -5929 -2282 -2349 -2822 275 -71 61 -2185 -76 925 -836 185 1425 -126 -1483 -1318 -819 538 90 -443 -237 -171 -599 986 3906 -286 -670 913 -82 -3937 -2285 1233 1372 -175 -1263 766 -1207 716 751 2388 3113 633 -348 3324 -1549 -3796 674 872 -2243 -1291 1114 1922 2396 1413 1125 1777 587 697 602 1974 1268 2650 1680 -64 -1704 -3116 -2590 -3910 1258 1144 1061 2134 1681 1327 1752 2210 1230 -536 -734 -37 -703 860 -1817 -652 -4242 -4394 -2077 -1373 -248 -1926 -1195 -262 -917 -669 660 -1206 -1380 285 94 -1609 175 1391 -991 -1249 -5857 -7177 -7568 -8193 -6095 -6489 -4073 -1450 -1154 319 -4669 -1358 282 -767 1674 1223 475 -2639 -2546 1258 1020 -522 274 2792 -403 1363 -113 -361 2257 1240 1347 -661 -2382 -2723 -1601 734 -2324 673 -97 -1159 -864 -1530 226 1296 1729 -1598 1323 1090 1845 2164 1480 -949 -162 614 -1893 -727 -1700 -116 601 -220 -1932 -1303 -1059 1182 621 -1274 857 331 -864 809 -591 -1174 1056 1243 -2680 -1637 1429 -908 -794 269 -331 1046 -536 122 33 139 386 -1063 169 1463 -2279 -3042 -2747 -3590 -1790 -1309 -1402 742 889 2688 3823 650 4685 2953 -2749 2269 520 -1151 49 1878 509 -288 47 -1256 -465 -828 38 917 1198 809 1199 2004 2413 507 1789 3272 -641 1540 2641 1430 2483 4240 3952 2119 -606 1009 -151 14 1289 1280 1521 764 -108 3027 -549 -1084 -1855 200 -900 -2464 597 -234 -1705 486 1259 995 4086 1786 -58 -562 -2053 -3484 -3383 1123 1489 -795 3411 3508 977 5985 4148 -252 -3388 -2537 -1590 -1845 532 1656 273 -664 -936 258 -755 -71 1949 -521 -1648 -678 -2083 -2841 -827 -2750 -1376 1299 1978 -1058 2494 2925 -1204 -1067 -114 1013 322 -459 -102 -163 -3030 -642 -1076 -1615 -601 -947 431 484 968 31 -621 1390 -1478 716 2978 844 831 2573 -2068 388 2713 1057 1471 1338 -538 -325 -916 32 3863 1101 1166 4560 976 2361 1368 -1671 221 1546 1629 -381 3872 2961 1920 4247 3529 -448 -940 1399 1617 1910 1765 2212 61 319 1327 -764 -2982 -3404 -3205 -5354 -6503 1411 -1109 -2247 -501 292 -1262 1061 4159 -246 -269 1284 -1061 1124 676 1301 1854 3705 3335 1110 182 -1304 447 1151 3318 881 3746 4837 -2446 1980 3502 -1439 146 1202 -1807 -866 -1506 -176 -195 83 -2420 296 -501 1524 320 2336 -1011 1316 1113 -3139 -3675 -1457 -2669 -1777 -2114 317 -1653 -1723 -871 -32 544 -2871 -537 235 -3941 -470 623 821 3446 2851 3470 6927 6184 531 2193 2294 1566 2196 922 -1893 -4294 -3489 -929 -2019 -406 2818 1457 -186 43 967 1055 1186 370 1653 1173 1120 2530 990 1187 2132 1728 -39 1264 -1759 -590 341 223 -468 -473 620 -1165 -3419 0 -791 -1337 -724 -622 -1200 428 782 324 245 -2807 -422 -1471 -2870 -37 -2422 -1808 612 -146 -2257 1591 -3097 1440 6813 -3053 -958 6389 -2572 -2519 -2708 -805 -2842 -2958 -2161 -1447 -2710 -910 -1325 -2488 2042 2789 412 2282 1989 153 -657 -735 -1908 880 1862 -2018 -234 583 -1217 -172 -2629 -1579 -1099 -3173 -2344 2022 1830 1457 1468 -2021 -452 -1354 -1762 -847 -329 -2289 1105 242 400 -1229 -2295 -1937 -2106 -1822 -782 -1352 703 18 -412 1245 427 -31 1347 1033 539 -3823 -2886 -4015 -3253 -2251 -3909 -2839 -3265 -5382 1857 -2198 -597 1513 -3112 -3304 2307 -2500 -1746 209 573 1276 50 -284 84 222 -953 -1087 81 2786 2536 -2494 -2593 1488 -3303 -2432 -2048 1797 1714 1549 119 1855 1867 1082 1427 1555 813 2875 1736 1547 3343 1509 2917 3735 2358 -728 603 1158 -1670 -582 551 -2016 -725 -392 378 28 1746 724 -277 -665 4691 2740 1659 -1261 443 -177 -1195 -1103 -1014 -1444 -1348 -2089 -1180 581 1054 -2704 412 1013 -4475 -1443 116 24 -1132 1185 -1397 -3035 -196 1302 5 1881 1269 251 -80 647 -2151 -1795 -373 -1985 -2733 177 -440 -386 1236 131 -975 678 -1192 -1351 1107 3275 2418 1592 2485 505 906 -52 -320 1144 1235 -190 338 -1484 -3162 947 -1908 -3397 -361 -956 -1305 -871 -3030 -3843 -1902 -3127 -4074 903 -979 -267 641 -2283 -1047 793 -256 -1178 267 -1562 -2717 -352 -1878 -1927 -793 575 -1804 536 2090 898 1245 619 -940 423 112 -1788 -448 -1750 -3024 626 -2959 -2451 1837 1052 -575 4023 3142 5590 4480 3663 4674 4767 -59 1820 803 1042 2977 1757 1125 4577 1299 -2484 2818 -47 -1780 -1559 -672 -2627 -2174 549 -1653 -1936 1339 300 3181 1306 -1225 2625 906 -636 1573 -2450 -1192 910 -993 -464 421 203 1452 817 -1229 -2457 -1624 349 -2183 -602 -383 -1777 -570 1846 -949 1877 1114 -3923 -363 1717 -2289 140 331 1331 47 -1096 -436 2212 -1922 -2454 292 3307 1905 191 3479 1519 -1292 3275 1564 -1098 -771 -12 -2136 -271 1034 -2077 1856 2941 1366 -481 -2790 -468 -149 -3878 -1564 2121 -1680 114 2012 3846 3340 2238 1874 -525 1188 -1043 -3612 -1096 930 1792 -1463 -1525 217 -2552 -2590 -2422 -512 1617 -1715 922 3579 -992 -405 -770 -3688 2250 1316 1028 2940 4394 819 2495 2094 -499 460 1934 1950 -1566 1098 426 -568 -516 899 3574 1601 964 4154 -1816 -1532 2458 -2958 -842 2749 580 -1054 1659 -806 -2615 -696 -29 -2031 -1478 -353 905 207 155 206 162 -939 541 3408 1382 2789 3192 2746 3367 2039 -461 1498 837 3573 3685 2713 4555 4824 2998 5800 3706 1561 67 12 2080 3773 2991 1902 3585 5114 1956 4299 3767 1298 1085 158 2448 685 1024 975 4088 19 1972 2875 -433 -575 884 -990 -619 -2287 -5254 -2204 -3003 -3191 -1919 -5147 -1900 -866 195 2976 -889 -124 2358 -745 125 406 875 -4891 -544 4175 -1067 -887 1955 -204 1280 -47 -3494 -1788 126 200 -741 909 -893 -2247 -269 2841 893 -6025 -3 1384 -6203 -891 1482 -2289 600 -279 -2509 1013 382 -2230 -565 -656 1088 4693 3068 -1387 4386 1855 -4263 -1400 -2462 3806 4966 2738 2599 187 1568 245 -3224 -3955 -182 4044 3318 238 1915 2521 -1796 -1556 -614 -694 -45 -731 581 537 739 -1210 -1705 -1313 2176 884 -1538 -760 -264 -1578 593 -343 -1627 -873 -1322 -744 -1744 -2476 -2514 -2521 -757 -505 13 -209 -1701 -2596 -2027 885 -1863 69 2349 -6265 12 -2130 -1497 0 -3736 2736 1506 -3478 3055 4560 1468 1468 1870 31 2593 1426 1890 251 2190 1568 2898 893 563 1112 -1474 -3141 908 435 -2477 1191 915 577 1357 2183 171 -2249 602 -761 -4669 572 -842 2290 4487 4168 -1466 2917 324 -1496 -703 -2003 -1085 466 433 -1214 -220 -722 -1405 -843 -910 -2071 -2211 -1531 2840 3315 2897 1051 1039 1242 -3080 -3873 -2434 -1350 -2185 -2498 -2369 -1302 -1755 2330 6915 4044 -1276 -1304 117 -1509 -819 404 -572 1670 1820 1271 1153 -254 -627 199 -1264 -2336 -2156 519 2922 3642 3218 -540 -2440 -537 -2325 -4718 -2331 1194 2492 1284 -1609 2020 2915 -2079 409 566 -2140 -1660 791 1510 673 903 1147 1043 1406 2403 7474 4516 -2635 1350 -1741 -2068 -1507 -3511 -4068 -2086 -1139 -2353 -1664 -212 -2062 -2412 -471 1729 2883 1770 413 -461 333 625 -1461 1141 661 1138 -5 1102 2024 1016 -706 646 751 -1665 1913 2195 432 2659 2241 -737 -298 -494 -662 42 -637 523 998 1419 2371 2051 2906 2686 5644 4871 -261 -1105 -545 -3406 -3131 -2751 -4367 2378 4224 -2074 1328 1853 -340 -177 -2181 -4844 -5389 -4919 -694 1885 -834 2734 5993 2087 -1743 -2463 289 -1270 -1659 -297 2114 3799 2801 416 -562 -511 -1175 -2669 -2980 -2624 -757 -1250 -478 4526 3076 -162 262 373 -726 -484 -627 -1211 -48 -657 58 -60 -315 1785 1392 -175 1246 2465 -60 -2194 -1525 -3472 -45 -825 -2552 1192 993 -1667 -2073 -1119 -497 1275 -1127 -1788 -862 -1634 -312 -747 1102 -393 -1811 -93 -1063 1552 -1237 1115 -130 -2705 -2305 1302 1459 -1187 -357 -3177 -2544 183 -822 -556 2788 3099 4537 -980 -3372 -2770 538 -1856 -1728 2035 1133 2542 -1397 2417 310 -863 -1701 -3559 744 200 -921 -1536 -470 592 -1565 -510 2478 -3490 -2850 -341 -1335 -1317 -1800 599 693 656 869 854 1157 -1508 113 -1421 -742 -864 -2206 -295 -54 -729 5022 2536 -734 860 62 -1710 -3250 -303 -385 -531 3086 1310 1105 3268 2758 -140 -680 435 2396 2239 3797 -2782 -1765 140 -2234 -1013 757 1750 6280 4100 1803 3770 2908 -1653 -3263 -2120 -966 -7538 -6330 -2119 -3660 -3779 2340 3199 724 -1445 2326 2240 -3681 -2095 -1229 -182 -2064 -912 1410 310 1344 -1000 -1460 657 -480 -118 1253 1724 2018 230 691 -1097 -652 -146 28 275 2052 2117 1610 -68 -936 -4102 419 26 -4256 2585 5078 4445 545 308 826 -1737 -2818 -90 346 1812 2645 -230 597 -1229 194 -1217 -1524 -558 940 3093 -3284 -992 582 665 -1521 -1317 662 2502 4290 1312 6296 5896 -322 3862 3780 -7870 -9759 -8397 -3752 -6589 -5490 -1695 -4855 -4952 -3583 -2837 -399 -1274 1362 1150 -269 938 423 -589 -1600 1992 25 -524 -914 1080 2708 3513 -1377 -2889 -1437 824 -957 644 1076 -576 148 650 278 -1189 334 -1398 -429 -83 553 1527 -151 -529 -26 1210 72 -2201 579 -461 -3251 1169 -1546 -914 342 -1335 -414 467 -258 607 -674 818 2211 770 560 993 -432 -2261 -2556 381 -26 -927 1151 626 18 -796 49 747 89 -113 615 -872 -2537 -914 468 -281 -730 -640 -2639 -1782 1349 22 -509 1256 4446 4926 -1262 -597 -881 -3963 -1261 -303 -3890 -720 -73 324 3939 2788 1139 1308 1470 -2223 -4598 -4805 -1452 -2040 1145 1242 871 1699 979 870 1131 -53 455 1734 78 -371 575 -155 -462 781 246 -3340 -1605 938 -3594 -1637 111 -1448 197 -1588 -831 -2662 -994 1226 -347 903 1952 -2118 -449 2967 3236 2401 2296 2995 -2494 -5765 -4180 -930 -550 1142 977 -638 19 777 919 311 4036 3027 981 10142 5925 1895 5262 4351 1933 -2665 -424 -1435 120 1773 8 -3749 -1730 -2120 -2597 -3373 -3505 -1438 -1171 -1980 -1512 -917 -243 -23 898 1112 -442 804 2124 -1677 4 536 -4503 -3046 -2363 -5086 -3280 -2341 -4385 -2038 -1019 1488 136 865 771 -257 2030 1628 -872 379 88 -1834 -519 -108 -1239 123 36 751 2246 -381 600 -950 1029 735 -277 -515 385 -544 -2531 -2184 1111 -2721 -2710 -1226 -1431 -2990 -3735 2429 1922 1628 2033 1684 583 -40 -2787 -1501 -598 -106 -118 985 1417 -607 1521 1568 -885 214 -1293 -1095 1435 748 561 827 1230 -782 -3722 1124 -3842 -175 5560 -786 -5582 -859 -3228 4878 5061 2833 6829 5965 1723 5687 7410 1844 1739 1071 1589 1001 858 2625 657 1068 3376 1142 -300 451 822 -125 315 2337 -1352 -2302 883 627 -201 1002 -126 -110 -1151 -1464 -878 -8 -188 1676 -1155 203 -239 -352 667 1176 -660 -1245 -1072 874 357 421 143 -170 1587 662 271 1189 -117 411 1770 1851 174 -124 -1624 4408 3548 -4190 324 2153 -9369 -10001 -7449 2594 2500 561 1795 3174 2397 322 936 99 -964 -1555 -433 -690 -1004 584 313 -1705 -463 1524 -227 -1504 1000 -1262 -3979 909 -646 -1566 70 -407 563 -704 -441 234 -1865 -876 -451 -5 -897 -882 -1183 -57 -936 -320 251 35 1900 959 -437 1742 -187 -2170 1833 -274 -2349 -665 -791 -1812 451 2898 2712 -1321 1207 4148 178 350 1216 398 231 51 1331 1739 405 2782 486 -1847 1835 -686 -2780 427 -356 -2927 -2674 839 1425 -1173 4711 5856 -2235 3181 4353 -5438 -3267 -850 -8044 -6211 -834 -6060 -6155 -2349 623 -617 -3483 1674 -1802 -1552 1764 -1276 565 -5155 -4153 -2409 -8552 -6743 98 -7564 -7035 -2869 -2009 -2710 -3594 -57 -2056 -3936 3031 3517 438 -603 477 739 -770 -1755 71 892 752 3284 2354 -591 494 1810 87 1314 1427 2351 3166 -390 -1451 -560 -1394 -3617 -1286 -2338 -2747 -1288 1846 -212 -958 1728 -1349 -16 397 -359 -885 -817 2014 2106 -12 2685 4614 407 -1703 -1126 -141 -48 -568 731 960 -763 -1070 606 61 -1231 -1108 -2722 384 75 -1448 -1722 -1116 -2320 -151 346 -726 -1034 9 -49 -325 -234 1868 -291 -861 -154 1171 213 1165 1634 2244 1501 -776 -718 -996 -535 -47 741 -994 -1860 -2612 4313 3094 3852 1440 2298 2920 -281 48 935 -1159 -843 1593 -204 -1988 -1752 -514 767 -1823 -1366 -1268 1735 811 -182 2693 303 -505 1817 1082 1559 0 -774 -4539 -381 2750 -1198 755 2647 -2081 1786 1100 -4237 1543 1007 -325 -621 1579 -2214 -1051 3419 -1834 -624 4259 -3330 -4110 -1700 104 413 -1174 -1846 1796 -4057 -4280 -3413 -130 -167 392 -203 -2121 141 1146 1853 211 -136 -850 1060 -970 1499 -1645 1787 -761 -1847 502 402 -233 -2592 -2029 1396 -1660 720 1784 -1210 -2971 -2277 -948 2702 -666 -3459 3687 1962 -1017 4853 1363 13896 5461 -13391 2005 565 -5898 -6554 -13872 -2487 99 4356 -1973 1641 17382 -1595 -1464 -1282 -121 -1512 -17 -1324 -1139 -750 888 -243 -409 -495 -717 -320 -364 -1727 -2931 -890 1096 1384 2356 -236 -323 350 -1544 -3699 -1174 -323 678 1692 -470 -1805 3127 -2581 -2406 2872 -5979 528 2563 -9043 -1450 7822 735 -4248 -12596 1564 1556 98 2015 -1362 1419 1491 257 1542 -1352 -1914 -1668 -1560 1347 2498 1396 1469 -2641 2446 2368 3133 830 648 2649 480 2704 5677 -190 1943 -2231 1857 2133 -2560 372 -356 -1714 -1263 -1308 -1728 393 -777 -699 803 -1123 -660 219 -2831 -1882 -2686 -5357 -3991 -3572 -5042 -5037 -1314 -2919 -1897 1978 3941 -668 -1994 1909 -2514 -1329 233 2882 -1170 703 411 3204 1132 -1052 317 1741 804 1984 -2862 800 3176 -2120 -1542 -334 4766 3569 -2768 3456 6569 276 747 3573 -1485 -433 853 -4014 -2386 -1717 -5570 -2433 -1632 -2450 2923 3456 -11802 -2157 7131 -1767 1265 2755 -347 2116 -2033 222 -384 -2518 1698 -1070 -1186 -1051 73 2223 2392 2841 4371 4242 5620 2278 -6038 -4416 -4300 -16866 2503 19134 -10282 -3847 6445 -2315 198 154 -332 -1729 2075 740 1571 3497 638 -742 -288 543 -91 -226 -845 -4855 -2878 2838 1066 1073 2423 -1968 6 -286 44 2291 4053 1046 -1531 371 -8648 -6625 2430 -1629 -467 -1959 -3 1054 -1677 774 2261 -1572 389 2038 -1192 1751 -249 161 5152 3694 3274 4014 2618 -598 -6201 -3323 1032 -1847 -389 5347 16358 6407 -6734 -682 -5573 -8062 -7318 -9750 -9707 -15347 -13898 677 2090 1795 -209 -1366 -1017 1009 429 -396 -1466 -2683 890 239 -3250 554 969 -4447 450 307 -1537 1883 257 -1309 -249 -275 -1368 -619 920 -810 618 2475 341 805 2414 1282 1675 1136 -2348 -2627 -2577 -8642 -6086 856 -6807 -4808 -179 -9274 -1611 4499 535 2891 1726 3187 2422 2358 -839 -1207 -744 -1019 -225 1822 728 715 2464 -33 3272 2128 -900 -2295 1866 -1668 -2744 2587 -3604 -3587 -1568 -7329 -5269 -331 -3954 -1594 -1878 -2731 367 809 2047 4477 -921 -1767 -574 1307 63 -399 245 -791 -75 -191 -1474 1550 -3144 -6696 -1939 9578 -3526 -14541 -36 -1235 -7203 759 10466 -5586 -1834 1560 -2340 -7543 -19280 -7225 -891 -1293 -2104 -1570 -222 -1817 -3442 266 -1727 1059 2072 931 4570 -2128 -8395 6669 -1688 -5896 -1466 -1475 -24 2054 4006 2909 -507 -1116 -1859 -1769 272 -943 -399 33 -737 -809 -844 -1837 -4169 5758 413 -4725 -287 -178 -6209 -12730 -9472 2490 993 -423 1478 1315 1532 -152 -192 4004 1467 -3829 -4570 1849 -3592 -6789 574 -2625 -721 -235 1024 197 -773 -2221 937 -1859 -536 3593 -495 -507 -333 1757 2151 1747 -888 -323 -1849 -495 -1689 -1722 -958 -969 -2228 461 2600 274 2465 4532 1629 -1504 -396 999 -4700 -5463 -702 618 -742 1021 197 -3632 -309 -1357 998 671 -1751 -1039 -1806 -290 -1728 103 -298 1693 2108 -1693 -2112 -3104 -1653 -10697 -3900 402 -2931 -3152 -3649 -1981 3468 -4270 -2021 233 -3579 -1320 2658 1661 5476 4612 1139 5956 2415 -1876 995 2536 -960 -490 -2163 668 1576 168 1227 2835 1105 1797 1573 978 -86 -1741 -179 1907 117 3785 -547 2100 -2976 4055 -1876 -1291 3028 -4199 -942 -2001 1002 2531 1564 4563 2610 -7312 -9628 -3267 1742 -146 129 1024 1112 -1041 -1930 -1974 -2717 -153 294 145 1434 3209 3241 -958 -1572 331 2043 4441 3142 -191 -604 -1440 1749 1416 772 -712 783 1550 -455 1790 130 -224 -1197 551 -466 1311 165 -2338 234 1648 -6056 -2421 228 3222 -2956 -1434 630 -2251 -1840 1258 4203 1111 3278 -1518 -3378 2924 -972 1342 2788 4471 4456 -1428 -1244 -2977 -558 -3620 -719 1920 1578 -363 -3792 -4300 -420 -1037 -778 -154 2090 3466 1234 2999 -205 -770 978 -1325 -89 -1809 -1078 1003 -2119 -5933 -4139 -2047 -2992 -1188 1220 3407 4354 -40 -1028 -144 2354 484 -745 -1269 -1954 -2806 -627 -4269 -2269 -1644 -2520 661 -2372 -2684 377 -1009 -2558 -548 -573 -1232 1858 -478 -282 1269 -1090 -3183 -3653 425 -2329 -4313 2610 9464 3204 3046 4353 2820 3151 2505 2728 -3245 -7000 -1788 296 -1937 967 2053 -1475 2691 -1687 -5837 -2718 -1723 3076 4009 -3834 -2354 -195 -286 1866 508 2667 647 2068 126 -1595 -1306 -3628 -2378 -1245 8259 6699 -351 10785 6509 -1717 -1125 -2604 -2885 -2176 1575 -256 -1780 -1338 2007 2194 -1433 -2009 -2909 -3465 -369 296 628 1271 2201 3647 2542 -1267 -1623 -1439 -996 -497 933 20 186 1829 1560 -1638 -247 1708 -2260 -1105 1084 -346 1950 -402 -3696 -4157 -542 -343 -2527 -236 1545 1324 -3557 -133 2791 973 2315 1684 -254 -2082 -611 1837 3200 3770 279 1172 -185 -643 -893 -1029 -2305 -1641 -1580 -2278 -93 1511 2206 5324 5931 -1039 2760 2428 1519 9702 5785 -980 -1681 -1505 596 -1134 142 -1286 -2731 -1275 -1602 -342 -516 -1647 1490 2153 -433 4546 2899 -1122 1264 -1589 430 -912 -1821 -3854 -1844 -1030 873 1126 -159 1081 2919 514 966 3855 3306 -1009 -4535 -4659 -4782 -1792 -2308 -276 -1546 181 -188 -1767 -107 -1744 -1103 271 1983 1920 -741 -1266 -1664 3326 -1404 -358 -542 26 2300 3260 -924 1096 1981 6030 5286 2301 -654 -10708 -4871 -4321 -13237 -8833 -1082 1154 3037 -1807 3650 3455 -4541 -5400 -1523 324 1023 747 495 1965 -866 1781 1773 -2392 139 -2964 -3863 1188 -1562 -1576 2654 2124 2935 -197 803 1275 878 1427 1240 -167 -2029 -1489 -1706 3300 1555 -2382 948 -726 -929 -1645 -718 -2015 -1002 378 -3314 -1523 -1741 -21 2419 1272 -1981 2193 98 211 3236 907 -807 -2627 -1045 -1385 -4600 -2090 -1341 -9065 -5379 3975 2332 2110 1070 -1810 -1482 1850 -157 -634 3202 -1392 -2282 -1312 4072 50 -4386 2721 -2238 -1268 199 -2089 9315 -134 -5171 3234 -4113 -2047 -981 1464 1257 2615 3244 1584 791 -3317 -3961 -153 -2370 -821 65 1240 1159 3264 2335 2965 -548 -616 -2374 -3109 -3769 -764 -2079 -2357 2051 -2557 -34 1333 88 3138 5004 -2599 -2907 3450 -8229 -7639 -533 -624 169 4175 -3225 -2869 916 -647 9 3411 -2313 1331 1521 -714 7622 8462 -2213 4836 4265 2091 1835 2187 4093 6426 5624 3355 8348 4858 3148 2523 -4037 309 -1609 -207 1308 -1307 -2092 -7613 -1953 3678 -1680 -553 685 -500 4885 3687 2781 1917 -559 1648 5388 -136 -1231 -1680 -247 -8922 -5026 -2711 -3899 -1050 582 -3067 950 2793 92 1296 460 -1511 -2947 1520 -2109 2743 1745 -2402 -3102 -668 -10687 -4838 2072 -4274 1767 6509 -2754 -1273 109 -1616 -3674 285 2539 -2483 -1865 -4011 -3053 -1760 -686 319 -1578 -2089 1942 3396 543 -3267 3172 985 -609 2736 406 3613 2317 215 -3921 -417 -1194 -2017 -3813 -1978 3453 -248 1099 3146 1279 449 -3433 522 -2685 -4429 1062 334 -68 -169 -3617 -5937 -1518 2349 1221 1072 1069 -1010 1068 4605 -3704 346 216 -705 -309 3828 -4406 -4647 222 -7410 -4493 -3295 -5868 -3446 4777 2653 1559 980 -1762 -1532 837 -1004 -2873 -1767 -5966 -2455 -1683 -3488 8415 -3982 -1100 3281 -295 -849 642 3264 1112 -1201 2611 4952 6422 -542 -68 -1839 451 -1759 -2450 125 3767 -479 -760 -1224 -187 -1807 -453 6518 1182 -3083 -3502 -1741 -1153 1545 -2668 -82 2059 38 2114 1991 2247 998 4373 3276 3652 1991 6063 2893 -590 -3027 377 5394 -3729 5561 5304 -2488 2598 5403 -157 -539 -924 232 2308 1340 -100 1267 -968 1667 -2677 1060 -5995 -2649 -1844 -1211 6037 2432 -2045 -2448 1593 -844 1992 6223 698 5332 5360 -3925 2267 565 -4719 3329 5524 1631 -6036 -2505 1394 3746 2767 -1086 -2332 479 -85 -1495 -232 253 -3430 -2108 -3229 -4670 -3494 -5060 -759 -6704 -594 279 -37 2691 -714 -2608 -2068 -3288 -2138 145 739 -1829 4550 5184 1907 5418 -369 671 -3340 -775 357 193 2963 845 890 1855 -1463 -326 -39 896 -1307 195 4904 490 529 -207 582 2074 -14 1278 4111 4478 -3722 -663 2306 -5705 -6281 -1955 -5998 -275 1073 -194 5042 3612 69 -2466 -1262 -2832 -1984 3822 -5750 -168 6094 2013 3275 -2356 -2600 102 -4324 -5315 -2657 -306 -1497 5360 2799 -5830 -1078 -395 -3767 -164 3023 -738 28 -1411 1578 6414 -3856 82 3382 -341 1601 -3642 -2061 819 -2654 894 1101 1668 995 1112 1817 822 -460 -696 -1669 -212 -397 -1931 -174 -3996 1497 -3608 -205 834 -269 3959 597 -3184 919 4039 -997 2698 7184 3459 7244 2756 1236 1394 -2181 2284 4743 -2442 1734 1654 1880 -5604 -5273 -3332 191 -634 -1873 -1136 -1039 3551 3062 1105 -1332 93 581 -1921 -2148 700 -492 463 1627 -3787 -336 1029 557 -1828 -4732 665 2430 -1925 467 2084 967 3683 -2025 3115 -556 -875 -913 1598 5846 -190 -4678 3687 2882 -5816 -674 -806 1001 -1505 -594 1013 -1181 -102 1474 707 2373 -760 -1591 -1321 382 -1303 -2857 -1696 -1907 35 -2105 -905 -1092 494 2793 -287 -311 -908 -1246 372 -829 -1266 4517 5458 7229 1924 -1953 2740 -1174 -3511 -2846 -2650 458 927 4251 -3998 -5382 -282 -3451 -11625 5063 3478 1606 3055 592 747 -399 1393 4661 3166 1922 1823 263 -1342 -772 6212 -6180 -1810 3344 -3265 1969 919 3380 985 -787 -1159 -652 1305 -1483 2870 -578 -624 -1720 -693 432 -1874 -3872 -529 -18 41 -2054 -514 162 -2415 -4545 -4617 -2386 -4290 -4568 443 -1073 544 -535 -1069 2213 61 953 -186 -463 2232 -731 -1081 2351 -4582 -3208 -1252 -442 1130 -261 2031 -2616 -4550 1340 219 1674 5777 -1665 4653 -1197 -502 2570 36 3071 -795 1383 -1514 -864 268 4161 5714 4014 3224 2801 692 4959 1426 527 -297 -286 -791 -468 -726 -5033 -104 -743 -590 -1875 2066 1625 4353 3117 1970 137 910 1762 2285 265 -281 2751 3738 2028 -355 113 -382 -523 -1319 -887 -1221 -1813 -1027 4145 1244 -547 3060 293 -2262 2131 -623 1074 -551 2038 510 -1944 1389 1375 -3679 -1188 -635 -102 -1641 -87 1598 1621 685 1331 1068 571 80 544 1561 236 280 2037 1503 -880 -362 206 500 433 606 3134 2517 774 2369 2581 704 2316 1258 -3309 -2983 -3914 2460 5720 1109 -1160 636 2383 -2029 -3718 -1299 1187 6 -3524 -5343 -8404 -3541 -6406 -12039 -7807 -8628 -11624 -10571 -945 -2711 -3269 770 1313 -371 -686 1991 2587 -3483 113 2520 -3283 119 1585 -2636 124 271 1231 2148 4036 155 -925 592 1213 1315 2051 -218 904 426 -1956 -577 385 379 1023 1400 -3355 75 -3175 -5138 -1362 2657 -641 -615 5661 -882 43 -697 -168 -434 1328 1008 1586 655 -1827 515 -225 -1235 -1366 880 1367 107 2048 1089 3477 5111 -369 2609 4752 -2657 -343 1548 -598 -283 -2558 -321 -173 -2227 1257 990 -802 -572 2502 2701 -2106 32 225 -570 614 728 -3030 -4461 -3484 -3374 -2194 -920 -2821 -975 -108 -941 -781 -558 533 -1184 -2759 98 2482 -1583 -683 1093 136 -2023 606 940 -3608 -1762 -988 557 646 2084 1186 1372 1483 546 1619 161 -433 -4157 -2917 2813 1201 -2865 3009 2055 357 -662 -2102 -1969 -2898 -1730 -1496 -130 -811 -436 2913 2164 2574 -466 -971 -1839 -3908 -2655 -1430 2041 -601 -3070 1907 302 -4933 3190 2178 -968 2687 2919 -164 3697 3535 369 -732 -1348 -2408 -1018 -249 -401 -1680 -467 1246 -1603 580 4863 -346 327 1324 1605 1233 1791 1235 679 599 1187 1283 939 -516 -126 -1279 135 1158 455 -623 1760 2741 -1852 1273 1907 256 -337 1057 21 -4766 -4371 304 -1853 -1292 709 -366 993 -2762 -404 1100 -1100 1030 1779 331 2676 2123 -692 -481 2857 -1642 -2531 -789 884 380 2715 -1967 -5812 -3498 -4700 -10290 -6197 -6140 -10680 -7937 13 6046 3071 -5233 3103 267 -7940 -1556 -1513 -375 1657 2288 -1621 147 618 730 914 571 -2483 -1091 -1444 -3693 -480 -1562 117 595 -667 -963 1217 548 157 340 508 110 -586 -1247 1399 -695 -628 236 -804 -1457 648 74 274 -2149 -5806 -7345 1568 -1727 -2508 2778 -87 2845 -1519 -3015 -335 -1569 -5379 -1949 1973 -508 22 -311 -1537 -2216 641 -774 -1836 1715 1564 -30 128 -1248 -641 601 -97 499 404 -1094 -971 1223 1934 1886 990 2295 2438 -2131 -1789 -1263 2667 2083 2357 -559 -2553 -728 329 1344 -1346 300 249 424 1167 -286 -1245 550 -1144 -1261 -4863 -4099 -1215 -341 -4934 -4128 1523 -491 -4169 -2462 3962 -984 3509 13337 4497 7644 15590 10315 -277 1146 859 2556 2705 3162 -931 857 1544 4762 3746 1511 4575 1412 -579 2370 186 482 1060 1281 742 -1903 -268 351 -1594 -824 -1144 992 2803 2261 -264 255 2444 -97 2262 2088 -119 -484 -2858 -104 -675 -1664 -867 -116 -1363 688 -214 432 -2060 -1816 -14 128 987 2289 -174 -395 146 -3036 -3699 -2395 -582 -1901 -1874 -467 1721 1606 -3468 -1122 448 -3377 -1494 1801 -2357 -347 -228 -2293 -1547 -1177 -57 1213 1328 3440 3594 3628 4359 3160 2428 969 -1119 -545 1242 1549 1150 -1215 -1584 402 -2943 -4692 -2724 -691 -1183 -1860 -246 -1383 -820 524 -1180 -2275 2337 2722 3058 822 1566 -514 2336 2106 2062 695 2210 976 -2066 -1201 -1018 1235 -496 92 -251 -82 1026 194 852 -507 393 153 -659 1121 106 1246 3709 -3747 -5568 1924 -5609 -4232 -2532 -1097 1558 -2015 -1523 -957 -2314 -2209 -1511 1031 1674 -1170 412 858 1136 452 -435 -498 798 -844 -2044 63 865 -1547 222 1178 783 119 1015 445 25 -1824 -943 1786 1221 184 -1532 -4358 1339 -2194 -2425 2553 -2312 2708 3807 -305 -2642 -554 -4380 1409 11411 -1750 766 6536 5213 3797 313 -995 -4116 2719 -2430 -8432 -1894 -172 444 890 -315 -1587 1414 -1174 -496 2433 -3118 -267 -676 -3906 288 -782 -3239 1204 -2462 -465 -63 -2012 799 2363 -259 697 1046 -1507 -3310 415 -212 -2809 -339 1732 -2976 -2347 2881 3900 4899 -2192 1851 -1910 -6091 -5328 -4250 -3063 3915 2220 1504 4810 788 431 1781 -308 2713 2817 -1557 -8619 3941 -4669 -16584 -1439 -546 -8902 3287 -3052 -1688 450 -5049 -4571 -234 -4286 -1908 -1006 -1400 -1815 1784 1391 -1476 1361 3589 1163 -763 1830 1368 -2531 183 1751 -2209 1242 2296 3677 -2813 -5883 994 -5569 -8769 1377 -3070 -4970 -1212 -798 -92 -632 -341 1457 -388 -843 -755 -1131 -1618 2318 -134 1599 2501 -1708 1226 -314 -1771 -151 983 122 745 1579 2596 -1447 -2531 3542 6697 9006 -3498 477 5166 -3362 -2100 701 224 34 2901 -1593 767 1411 -1946 -1372 -3021 -894 -588 2782 -2857 -1118 4818 -1800 -2190 746 606 -3080 -2003 2152 -3465 467 3905 587 2254 570 -1121 -3800 2030 -1835 -4092 58 -3432 -4486 -373 -1281 -3974 1576 -5653 -14312 513 -265 -6524 -609 436 -1352 1036 1914 -2459 -407 1929 -1083 -1948 951 -340 -434 949 -804 -156 -658 1142 -1369 -4394 355 -1925 271 3236 -582 1744 3643 3206 -2454 -3825 686 -5902 -4730 1208 -1144 -49 -1294 317 -2321 -998 2743 580 -1157 322 458 1207 1068 -467 2675 5834 4455 889 7008 1930 -425 2041 -3254 -3255 -2469 -4044 -10181 -12861 -9691 2808 -849 786 4541 1138 3242 3839 5697 2339 -1576 -2198 -1366 3171 -617 -4577 1717 -826 -3017 -1525 -2488 87 -893 -3751 1904 698 -1312 3202 40 -1904 -1448 1446 196 -2677 1583 -1022 530 -1424 -531 1912 2712 123 -230 -201 167 -1302 -840 -1020 2157 -1351 -4161 -2239 -1233 -4023 -483 -3062 -5876 -2101 2970 1064 481 4140 2497 1815 -1310 -2883 712 -323 262 355 644 -77 -529 33 -2043 1568 529 -3583 30 -3764 -3404 1326 2632 694 211 -764 -4586 -5806 -2845 -7137 -8736 1313 2147 -1804 -1531 1911 4820 1316 1422 2548 2392 1036 2906 -269 138 -1124 1381 953 413 -1093 3271 2436 -7021 3740 15661 -2219 3430 10788 -6489 -10177 2482 -266 -2173 4060 6788 14639 8156 -919 -1592 -5188 437 -692 -1099 977 2423 489 2397 2410 -764 2958 -871 -5117 707 -2102 -6071 279 226 -301 -757 482 4 -2614 -2028 787 -1430 -223 -770 744 2594 -337 143 -1597 -2732 -226 1652 199 -549 -248 1166 -4919 -7506 -1848 1830 458 624 596 -2156 2028 -662 1216 5131 -155 -4575 -3277 348 -4064 -2984 562 -2666 -2947 204 1579 64 596 845 2031 -4390 2109 4074 -1244 1023 -80 -1785 1341 -1209 -1574 493 -869 -2351 -2679 -1849 1134 489 247 1003 -589 -840 1509 3635 2757 -1479 238 2893 -6544 -6864 -1523 -645 587 -730 -127 1868 795 -664 1793 49 -2472 -1144 -1271 -1041 432 1022 -831 856 792 -121 -878 -74 1680 1788 1225 -21 1973 2015 952 977 -289 257 -108 1546 275 1485 566 -1033 -353 530 -39 141 -179 2840 -1424 -704 -816 232 894 -577 2188 4011 -707 1037 1507 -2 2239 671 1575 -117 87 896 771 230 -156 223 -91 -2775 -1152 -447 701 1678 1996 -838 -406 16 72 1841 329 -2091 -467 -1579 -4530 6604 6133 -1467 5029 5502 -4546 -13975 -8657 -121 -238 2543 -4542 -530 8140 -3986 857 9507 2447 6497 4279 3056 5134 5771 -658 965 2427 -2069 -2062 -307 -1605 -585 1509 -1709 -233 378 1942 2751 303 1632 1072 -3268 2878 -111 -2075 220 -1298 -347 161 1043 -33 114 1634 1521 -1271 -3263 -2540 938 -1198 -2544 2557 658 -1917 1662 5042 4808 -2816 1488 5133 -2118 -3218 -2772 1244 1834 2140 1135 2490 1656 1398 2231 2318 -114 -817 -928 -6364 -3131 4049 -4789 -807 3903 -9206 -2124 1208 -6417 4640 8832 -9094 -787 1957 -1585 -1432 -1144 -814 655 156 -1074 -51 394 -1145 -996 -550 -2088 -799 844 -945 901 1287 -1472 -284 -2393 -447 451 88 421 1007 -1085 -350 -2266 745 -849 -359 -1485 -699 1433 -490 234 -928 -244 -963 -1785 -1092 773 -407 -1010 -91 1913 2090 -768 593 2159 1516 -996 -2379 -3212 -6610 -3521 882 -6538 -11368 4861 1110 -5877 -916 -1817 -3769 -954 -918 -2272 490 1466 2038 2737 869 -870 -1942 -1823 503 -51 -1939 -418 715 -584 -282 1617 1059 59 1506 -44 -94 -4949 -3270 -2879 -6946 -5036 -5241 -4806 -4321 -3420 404 -2588 -4590 7178 1743 -8937 7263 4184 -7300 -392 -333 -68 99 783 1399 -636 260 959 -2202 -793 -517 -979 111 539 1560 296 21 660 -12 81 1067 -921 -1587 1300 -1208 -1055 1722 2449 1559 1905 -375 -1794 1290 -999 -466 -1624 505 -1610 -235 1925 1645 -2189 149 -415 1422 2790 888 1530 1472 2118 178 5120 5398 517 -1942 -1080 -1573 -5140 -4176 -162 960 -210 -2355 -3896 -3321 -806 -1027 -1113 1515 2190 1265 -959 -1295 287 -493 1681 1475 -871 1707 533 -1049 -865 -1177 -2436 -1029 -303 -382 -1346 -1939 2821 -324 -480 -707 692 811 -980 283 -747 712 -1628 -436 1192 705 -1243 799 781 1071 -4307 -3387 -3324 -3653 -2733 -3284 -4711 -4915 -5468 -74 -5201 -3019 872 -1323 -1466 1011 1874 452 -1722 -701 139 -8 754 866 -992 -2840 671 349 -1864 811 1918 -2139 -1016 775 -969 332 -10915 -6239 -5503 -5356 -3619 -3680 -4453 -2899 -3035 -287 1098 51 7896 1074 -9622 2839 1960 -4491 2252 973 -266 841 300 1402 -7 408 1437 -782 302 2098 164 -853 -2269 -919 -37 28 264 -1173 -1378 -925 270 923 5534 8170 6671 342 194 -1470 1300 139 -721 -742 -3965 -2334 -1611 1399 -249 -693 1688 -542 -1003 1333 -322 -374 -1402 -1192 -676 426 1222 1848 910 1007 -2088 -591 -225 -2655 -768 1052 -836 655 -1562 -3294 -14608 -10449 -6769 -9831 -4980 -7666 8216 9446 -502 288 -254 817 -1922 -824 538 -868 1034 1987 -1050 -2572 -240 -1590 -2790 1234 162 -1128 -273 -287 -872 -2232 202 -320 -1534 -15 325 -2398 -2006 -2854 28 585 -250 1019 2823 2084 1563 3484 1057 261 1954 -1149 1199 1551 -1191 736 489 635 -716 -1326 -804 119 -698 -634 2867 1775 586 2542 773 675 -58 573 -581 2 381 -782 942 1844 867 -269 374 1341 -1315 -3509 -152 -1738 236 5124 -508 -9 725 1165 -256 -2378 -187 