256 256 3 3 
3169 3148 2521 3269 3618 3715 1585 880 1615 -239 -203 322 -79 222 1300 -1422 -1386 -187 -821 -1342 -1517 -885 -1558 -1672 693 478 -342 -1181 -1290 -1956 -268 -302 -1099 -252 -103 18 -970 -54 440 -165 -68 71 144 490 -394 5 -599 -1023 446 662 -590 484 873 202 553 -714 99 182 -258 1147 -368 1016 836 -1862 -2308 -1933 -2669 -930 -2750 -1867 37 -1260 2558 2709 2757 1926 1271 1787 1550 1399 1915 -2226 -1510 -1020 -2557 -2232 -1410 -1834 -1927 -1408 -541 -857 -973 400 734 301 1547 1474 1324 861 318 1287 315 279 615 162 449 68 -497 680 1887 -549 497 1297 -227 -266 693 286 465 1781 441 967 2418 1693 661 201 -511 -1744 413 710 1194 2507 703 872 1301 -1022 -849 -573 -25 -65 256 -436 -566 -472 -1766 -2316 -1171 -810 -1210 -369 1515 2002 2201 136 -1061 -880 63 -476 -434 -1141 -1859 -1626 981 1731 1661 -299 394 514 -897 323 -77 -5885 -4962 -4226 -1380 -478 -152 -1285 -255 -363 134 542 968 384 192 -318 937 2291 1006 -43 -1412 -14 245 -989 1 -664 -1558 -234 -3507 -1064 -1150 -1676 186 590 -795 182 811 -408 926 -734 472 630 -260 -930 -635 -1275 -21 1002 1117 796 1277 849 555 54 -63 -47 -971 -549 -382 -1412 -450 543 -362 -238 -429 -1834 -759 -411 -716 -501 890 -85 59 -1399 -1318 -1920 -805 -759 -1072 -950 -386 -954 151 -134 -614 28 201 558 -1371 -1515 -908 -2196 -1079 -1826 -1817 -984 -1092 -252 812 82 -136 -533 510 612 170 1128 1066 775 1186 -1431 -1522 -1124 -285 -1104 -446 741 -437 -274 134 1516 764 853 1195 852 972 1131 884 -864 313 -828 -648 556 -948 -2439 -1804 -2635 524 -159 -1294 457 -458 -1321 -414 -1786 -1380 778 2966 1064 839 2929 1716 290 1640 1155 -449 -779 -2395 -383 644 -1069 -866 34 -1057 -842 -806 -404 233 842 221 -1116 -161 -670 -994 -1037 -1410 -1326 -1535 -2441 -1307 -1621 -2123 1522 510 1539 426 52 1564 -492 -245 1108 -361 -1912 -1719 -704 -2721 -2574 -1143 -1541 -1708 172 -689 -1104 469 -1419 -1845 1091 -759 -722 115 622 -425 128 1011 -905 344 532 -636 40 -527 -1208 114 332 -443 -1638 -1260 -1507 -1516 -407 -1477 299 1569 -545 -61 623 -746 -2510 -1511 -1791 566 1764 391 1651 2473 1455 955 775 -173 113 -486 -499 -550 -794 -694 -601 -682 -1228 132 878 -599 625 297 -1350 -220 388 930 -788 -279 1381 232 1261 914 81 1494 1171 102 598 1141 -444 -560 129 -52 -1059 -558 -254 -268 -86 -1341 150 -171 -2164 -953 -428 -1145 917 -592 -392 2266 89 87 909 1118 22 1218 2439 -780 -219 1408 36 1555 -315 1529 3186 1838 -1367 -932 -1602 -1493 780 -2205 519 2084 -161 -454 -293 -1362 -430 87 -586 2 234 -1180 -147 33 -1080 204 22 432 1252 868 1043 809 1056 585 -2723 -3915 -2082 -1363 -1556 408 -137 776 1660 -678 -1492 544 -1377 -2478 -1326 1639 1723 1824 -1186 -854 -1575 1215 2105 374 627 1671 -571 1530 558 1177 2317 1522 1901 864 15 673 -816 -860 -1296 -151 105 -996 -1008 -957 -1441 -576 -751 -384 -388 -590 -75 -198 1241 -117 1868 3597 1373 32 2991 -146 1175 2859 1938 -498 -184 -592 606 -880 -1523 -338 -492 508 1911 1685 1647 594 -449 579 148 -1323 -341 -1980 -1445 -1800 -1238 -1143 -313 19 -287 91 198 -1319 -3107 229 154 -1585 -1284 -596 -1629 249 644 -679 748 885 -641 -556 87 -784 -50 -1010 -246 -1584 -2095 -1527 -1383 -1801 -1505 -3509 -5394 -3651 -3732 -5154 -4207 -1725 -2256 -2234 259 -472 -320 1567 1506 389 1389 987 853 376 179 -571 172 239 -27 -33 732 567 1007 199 2339 -419 -1912 475 -324 -940 17 943 294 888 414 -457 209 829 1013 482 -1191 -1438 -1653 -635 -892 -1205 -475 -302 -786 -1192 -1266 -1399 -1277 -576 -768 -2012 -1224 -836 -720 -790 -1438 -489 133 -817 -109 -176 -1466 24 -321 396 300 336 961 -283 -659 -317 961 3125 1026 3156 4960 3105 441 1256 410 1249 3020 693 1683 2504 1196 53 -444 -272 -226 -908 -378 259 -24 -236 230 -488 -173 -49 915 -163 -765 723 -110 -779 469 101 -9 -265 228 -351 -1023 114 -419 -602 -12 -95 453 736 -585 905 203 -358 1030 879 -259 -58 -184 -185 -142 -648 168 208 -586 -461 -453 -399 -622 -706 -716 -1175 -1686 -1660 -1108 86 25 -1926 -1115 -407 -1225 -891 -2074 -400 -551 491 166 1433 1375 -205 -243 -1988 -1435 -1169 -1291 -911 356 -1160 -2779 -1810 -3350 798 1503 897 1192 1634 488 1402 1620 755 525 -472 38 -972 -3176 -1557 590 -16 562 -73 -345 419 -388 -322 -7 664 1226 547 603 1410 958 -865 -537 -1223 -697 -357 -1154 -248 -233 306 993 1334 1544 809 1083 1210 1443 1579 83 2862 3044 2209 550 280 877 1278 354 590 1857 1272 481 1677 3168 2259 2459 2029 1749 3615 4367 4066 131 -430 281 -406 596 1032 -935 772 1954 -2395 -679 430 -1450 -1306 -1589 -1389 -1220 -1297 -1853 -1781 -418 2243 -580 -1258 331 -2377 -1041 130 313 -623 -1426 -119 -2453 -135 2531 -156 -368 556 -363 1471 1509 1399 1885 3453 1696 1184 2826 888 -1637 -2574 -2873 1030 1041 567 -388 -27 -576 -1465 -647 -1440 -444 263 -224 -59 705 -31 1006 -202 -164 136 -1528 -1335 246 968 1401 158 1919 0 1034 3063 701 -156 584 -526 2703 811 868 1223 911 1281 175 393 -68 -1392 -1333 545 -1508 -1402 1736 -876 -1636 1034 -2323 -1770 -2078 -603 670 -372 -279 588 -227 -604 -929 -553 -135 -201 564 457 325 651 -1389 -1367 -958 -1174 -630 -758 72 221 -669 -1768 -412 462 -863 -752 335 -1433 -1645 -992 -2048 -1589 -9 -2977 -1595 -365 -2541 -1309 -872 294 -265 360 -87 -453 63 -780 -687 -844 1952 2305 2110 1717 1732 2039 -9 835 1073 2061 3716 2629 3148 3771 3217 156 331 -353 2303 2727 2097 4309 5476 5190 -786 -470 -403 -189 1311 -1679 -1818 -155 -2695 -1534 270 -749 -24 462 388 -192 442 228 -156 643 269 -1762 -1156 -238 -626 -896 -327 209 -257 -483 -779 -127 -243 762 795 1418 -1521 -1592 -87 318 59 11 162 230 134 320 758 648 -1734 2216 -3483 1831 7454 1022 -52 1999 -109 -1214 -840 -363 1592 1526 734 469 -408 -664 2776 4260 1263 1134 2732 557 -1797 -1187 -1721 1192 1507 1889 561 1215 1570 -1005 -867 -54 204 172 723 -637 -652 376 -1570 -1227 -827 -740 1831 -84 920 4335 2200 -187 1079 362 -2915 -1805 -3476 -1805 -552 -1999 -4334 -3530 -4490 2120 2347 1723 405 501 40 1220 1140 327 -1325 -788 -1108 347 234 127 -6 -664 70 964 1279 1055 -1429 -1768 -1401 -4172 -4872 -3589 -88 -513 -609 -1460 -2136 -1941 -18 -407 323 2562 3175 1647 1638 1759 540 -81 -220 -930 698 1622 1585 -256 -203 451 -296 85 -204 -240 -700 -902 128 322 -120 -85 788 52 -438 -620 -1124 1699 3366 1679 496 1008 355 -518 -229 259 668 -1185 -100 443 -750 -111 1059 1432 1993 1340 1269 1393 526 269 652 -2585 -1239 -1899 -2728 -1398 -1733 -3415 -2575 -2073 -1392 333 -505 -2273 -724 -1113 -1787 -1813 -2075 2403 -389 -495 1518 -1429 -2442 2657 353 -1476 -873 -450 33 -1639 -1698 -2570 -1327 -130 -913 -1465 -2235 -890 -164 419 1604 561 1348 1889 988 -45 -410 1271 136 579 514 -166 831 -621 -1063 34 -1046 -649 73 2 -8 220 1125 1181 1371 -132 106 338 -389 -1578 -179 -1722 17 859 -1158 -641 -388 705 1040 -446 -1433 -772 -1773 -111 630 -804 -311 246 937 1231 -483 1410 447 -830 2069 -765 -742 1039 1024 1722 1165 531 427 414 704 738 637 -480 -1102 -136 832 539 731 1681 1609 1988 -1778 -1572 -1905 -1774 -2655 -1890 -2053 -3518 -2664 837 1759 1375 724 1385 1654 -1093 -776 -113 -1063 -1451 -1350 -2747 -2517 -2303 491 1459 949 1690 964 733 189 -615 -666 488 18 230 -678 216 -395 143 1478 813 -1452 -1072 -1343 -262 10 1009 -475 -266 978 -2590 -2203 -1562 -423 577 -439 -357 363 -257 -1124 -829 -1184 -306 -350 50 251 -780 -1390 -73 -329 -1514 75 613 1030 713 709 621 114 830 518 1342 797 249 494 -90 -430 749 1800 453 678 594 621 254 -307 -462 420 237 -8 -26 -141 703 455 -289 -339 -1456 -1439 -966 -45 2005 212 373 1806 -63 393 -159 -77 1789 2559 1946 681 1508 1318 -1587 -1109 -1733 223 23 4 -1243 -193 -1954 -394 753 -1539 253 692 1089 -1572 -1208 -1509 -178 -774 -869 1020 1216 3047 392 55 1633 647 1196 1993 -154 -238 49 -275 127 262 415 -94 -779 -820 -185 -430 -294 629 381 417 1305 1031 -1078 -871 -1610 609 -204 -1309 285 -461 -1464 -403 -296 435 -1023 -347 115 -86 -362 -210 -1158 -1268 -791 -2233 -2200 -1190 -1264 -1159 -675 -1606 114 -552 243 -256 -787 1372 393 -776 1146 2857 1181 -94 883 1079 -1045 -656 1084 -1556 644 -1270 -1269 2092 367 -2464 -858 -1340 -345 -1985 -886 -989 -1170 150 -1165 -1679 -1445 -140 1027 -448 15 1062 696 -1121 167 1796 1009 607 65 1001 786 -491 774 663 -778 409 813 1381 498 973 2391 -2 280 1210 -1338 -1241 82 -174 -800 911 606 -706 1498 2656 1349 -1231 1326 -134 -2015 1058 164 -751 1257 -139 -171 1049 76 11 -68 -167 -111 -235 281 -140 1398 1811 403 583 153 -627 576 -286 -193 -272 -691 -287 987 213 745 -514 -967 -1422 1465 1652 851 -542 -460 -1940 -741 -918 -1198 -723 -406 -730 128 904 285 -1516 -1590 -257 48 457 120 -92 1583 885 -523 -293 -324 -466 614 -253 727 2279 813 -148 701 -352 -415 244 -609 -1007 -580 -752 -876 -1517 -2160 1718 1172 465 665 411 -136 -267 380 -1035 -892 1150 -1436 446 1093 274 950 514 642 1394 1742 557 -637 -845 -1960 -507 -345 -1182 186 -54 -712 726 291 164 -712 -258 -1130 -251 1309 -708 -831 -6 -1395 1355 2855 1679 235 1114 537 -853 -872 -1049 -290 178 779 371 1257 1233 -848 -798 -1056 -288 -597 -501 1149 435 634 -948 -1111 -90 815 -642 -226 -317 -1225 -775 -253 -959 -350 813 1007 -683 632 786 459 -5 745 1009 -315 297 237 397 1988 1022 509 1144 79 -689 33 948 -192 -274 764 -235 419 781 3824 480 723 190 -1290 -391 -990 -1424 -746 98 -525 -1184 718 223 637 310 2502 1054 506 406 1547 201 389 1186 -850 -662 -41 1684 2476 59 302 632 -499 -953 -723 -1487 -357 -1282 48 -151 -1129 -217 -130 -483 -35 -1575 -1519 -894 -2865 -2855 -1861 -1535 -574 -822 -1522 440 -1442 1179 4291 1447 237 2610 719 -1536 -425 -779 78 1167 354 135 713 -1061 677 65 92 475 116 -103 939 37 105 532 58 -1052 618 2414 369 -1083 1334 1293 -1327 -1195 1945 -1466 -2013 -862 -755 412 1037 -4370 -405 1247 -3304 -398 617 -1580 85 777 -67 -591 -924 1870 2945 3005 1786 1540 1811 -448 1138 -1307 616 3849 1510 210 2047 550 -275 -959 137 -1 -19 -941 -852 525 -945 71 -263 737 -424 -1109 21 1339 1487 1107 494 726 -366 1318 1900 705 277 555 -262 -2591 -2860 -1527 -2132 -871 -1688 336 2893 639 -204 902 -909 0 1773 -112 -99 149 -39 -2238 -2647 -2536 -875 -1534 -153 -2052 -1459 292 -391 1731 1065 1006 1400 297 1854 1149 -672 -579 -656 -1372 -154 -347 -909 -1857 -2349 -1612 1764 2222 1555 929 1344 1182 -366 -363 -610 247 -873 -353 822 854 -167 -1327 -1154 -1035 -567 -800 830 -400 -886 133 -585 244 -58 -140 80 1031 -470 1481 2168 -1256 -157 492 -1909 -1601 -2293 -175 380 247 -2263 -1776 -1898 373 165 -278 499 729 95 888 1269 1014 991 -358 -2085 1068 -644 -1875 410 -766 -980 1594 -421 93 100 -1395 -624 1761 898 635 1619 2304 651 -88 1484 -247 -449 1800 99 -313 258 -213 -70 1541 444 -480 613 -188 -9 -597 133 -433 -202 196 -842 30 -614 1047 537 312 165 -670 -834 -1357 -2665 -1698 1317 160 1194 748 505 1048 2102 1883 1578 463 235 -653 842 1943 1691 -391 -15 583 397 1741 14 1129 2752 1700 -545 292 1261 -241 991 -12 -184 -106 -624 592 965 -124 867 426 32 762 1234 -806 139 939 832 -1032 -991 -1969 -707 -649 -722 -1487 -2019 -1854 382 755 543 -272 142 -631 -340 -386 -750 883 -847 -717 571 -633 -1457 1359 350 -1617 -835 -171 -570 -2999 -1787 -245 -667 -311 492 -731 -1052 -1337 -523 507 -211 -1504 -1138 -2451 -850 -754 -1289 -1026 -1430 -2145 -928 -957 -1809 -537 338 795 -196 745 1019 453 706 295 1227 1700 1786 942 377 114 1098 706 -994 712 1573 1949 -699 989 105 -1747 -393 -1091 697 850 1156 3370 4892 3592 606 1200 -49 -2857 -1201 -3314 1087 3323 1436 -1258 -578 -1332 -504 -1038 103 -409 -860 452 -221 117 244 -434 383 -38 -1612 -588 -474 -1151 -562 -492 -1551 -618 -766 -1623 -1135 -2063 -220 639 -337 -2019 -2666 -1489 -334 -1078 -1232 3301 3411 2568 -2476 -2767 -1946 -424 176 -535 2473 3631 1691 1275 2681 2869 -503 240 368 -4033 -3800 -2476 -3393 -3697 -2060 -524 -306 166 3744 4883 2639 488 -63 543 676 570 108 1034 1108 573 2089 2528 1437 512 826 630 -367 -1199 -489 -101 930 -508 166 5 -245 156 -1020 206 320 516 -182 -413 2 288 1028 1090 1327 -2911 -3198 -3645 421 541 -301 865 1710 591 2860 3418 2191 -94 -56 -566 -3955 -4432 -3390 -4044 -4659 -3149 -711 -466 -674 3400 4244 3631 212 -818 -410 -836 -304 -1370 -1392 -356 -1631 155 32 -152 619 607 -1167 380 344 -226 1081 -277 1694 109 -2941 -228 135 898 -515 2636 3094 2600 534 1698 1099 -1406 -361 -321 -305 -1018 -1417 -1039 -318 -637 -742 -291 255 -754 -961 -665 -418 8 -913 -2131 -1380 -2773 2605 1890 1708 1533 332 2322 -876 -2361 849 4988 6503 3596 2771 4141 2919 1816 3156 2557 648 1059 608 -1822 -1039 -426 -1757 -2803 -2589 353 436 -316 985 1808 1158 636 1062 1357 2129 1623 -2102 -128 -5 -1742 -746 77 348 -117 273 -455 -399 975 -503 1314 1260 209 -673 -1943 -1886 -2099 -1647 -2289 -747 -631 -1440 227 2814 1109 -1306 1948 770 -609 288 -712 -2448 -2708 -3188 -1295 -1728 -1380 1466 3327 1884 -355 -64 891 -2008 -1225 952 -1846 -762 768 -573 506 -45 616 1591 545 458 275 116 -706 1184 -33 -449 224 -181 -1435 -2571 -2707 2564 3500 1057 785 926 453 -1924 -2275 -2548 0 -1518 -1322 919 76 264 1196 1738 732 745 915 641 853 1341 1387 -1157 -1663 -869 3620 5350 4361 -1068 152 443 -4893 -5154 -4414 -179 -1380 -153 -277 -642 -63 -229 89 525 2369 1492 180 780 75 878 -439 -1486 283 -1000 -1977 96 -249 313 1670 483 1361 122 -197 100 -319 -124 535 -72 347 541 -494 236 401 -718 -556 836 -31 -2431 -956 -682 -1063 -452 -339 -427 -234 -62 1053 1323 1033 -353 -643 392 -696 1209 733 259 2480 -331 -2346 -2602 -2934 -597 -911 -1373 2235 1917 120 559 961 966 461 161 -197 -690 -1220 -2103 984 1565 2192 -664 111 120 999 1839 1440 -1361 -1880 -1826 -300 -1036 -595 -1133 -1639 -900 427 486 298 -1388 -1446 -1167 726 -234 -38 1060 565 1326 -905 -834 -473 503 847 480 -56 1388 904 -25 -44 -394 -170 -740 134 -494 943 1499 1709 1759 1538 -409 1118 -55 -1403 -235 584 -291 149 1696 660 648 -539 -865 -1971 -1166 1583 626 85 367 864 -568 129 1407 696 -287 508 638 -2263 -525 1093 1495 2245 765 38 647 -45 -1568 -1244 -908 418 1072 1141 -478 -1029 183 -311 -705 -209 -1212 -1898 248 31 -805 732 3587 1861 3294 74 994 -290 -624 807 -168 1406 2188 1838 1800 770 627 928 1466 558 335 551 -1114 1169 1781 46 78 1624 300 -3271 -2660 -2029 -169 -206 -1662 503 824 4 621 1081 1567 2040 2906 1518 843 1829 172 -562 -1444 -1511 -1632 -3128 -2653 -907 -1499 -786 1583 3665 3318 2753 3199 2704 519 702 805 -3486 -2835 -2396 33 858 261 -1136 366 -117 1443 5247 3971 1835 6265 1782 1850 4183 383 1104 2067 177 -943 888 -567 -1737 -878 -660 -781 -1959 -1629 -2323 -3057 -3440 -954 -137 -1189 1186 3240 858 839 2293 681 -807 530 1176 842 -871 -1521 -1115 -276 -1512 -913 521 -222 594 629 -390 -1474 -1931 -1644 433 749 215 1341 1979 1469 -298 -1900 -930 -391 223 226 -560 373 -397 1433 1864 -96 -583 508 -185 -1949 -1925 -976 -239 -200 253 -50 273 210 -162 -277 151 -78 456 -983 -2177 -1070 -1646 600 3653 1410 -174 934 -93 108 550 -8 1829 1083 1396 -4 753 1091 -950 545 575 -2711 -2151 -2103 -2013 -3066 -2226 136 -579 -926 2964 3449 1887 -1451 -1144 -2285 -803 -1247 -2093 1241 589 188 1505 664 458 1183 -740 -242 -871 -2038 -1177 -2118 -2872 -1064 -1290 -1229 -1614 -321 -213 -790 -351 93 477 -304 -1169 -496 -843 -1768 -416 -503 421 259 -119 306 -678 709 884 503 2372 2142 812 284 781 -287 -2758 -3124 -2068 390 -1104 1104 -693 128 -134 -577 580 166 -486 -1380 -1232 306 -136 149 926 1754 1972 -44 238 661 -501 571 -167 1367 2519 1996 -558 -738 -883 -754 -847 20 338 -206 940 -781 -1891 -484 1850 1764 84 442 733 -132 -1270 -362 1652 -679 -685 1509 464 -1042 -822 1235 -287 1031 1038 -459 -1685 -466 -356 -964 -174 111 -781 2146 2565 1145 371 -1080 -55 1849 1979 1915 66 -213 523 95 -144 -50 479 -1392 -449 1230 2338 94 689 2460 2631 859 -1726 -221 11 -1412 -200 -1977 -2915 -2412 -1384 -1273 -970 -853 330 -172 2400 3118 2691 404 4 -596 -626 -1504 -710 -499 -2632 -1682 2207 2220 2133 59 -1158 -569 -2161 -3391 -2100 -805 -2456 -783 -11 -2081 -363 -91 -1890 -346 1327 363 659 -144 -1217 -693 -3882 -6094 -3917 -2395 -2184 -1352 -1183 -629 -292 -420 -192 258 3105 3339 2572 -24 759 -1600 -204 -519 -1276 1767 -1940 -840 259 -2125 657 -451 218 4142 -543 3 -839 363 866 469 1096 1050 1060 1696 2226 2951 14 -877 678 -948 -2612 -1258 -2684 -2936 -1943 -1295 -584 683 -2250 -1955 -886 80 -982 -1494 -19 -215 -38 1101 1222 2068 481 -831 -1194 -1118 -1007 -1361 -295 474 -66 847 1208 512 -53 993 469 -2207 -1017 -992 1218 -43 437 -378 -112 -834 -1395 -1791 -1832 -741 1966 1646 12 -33 766 -1555 -544 232 -12 276 -722 -1368 -827 -1605 337 464 168 -2398 -2630 -1883 -1191 -824 -206 1118 1217 906 -1052 -1819 -924 -263 -1268 -1195 175 -25 909 -2662 -2529 -3597 -541 240 -1289 2181 3639 2204 -430 -478 -1241 546 -535 -3016 1959 702 -1653 -162 -1010 -709 -455 1064 205 -234 3979 1234 1450 2632 -396 2164 3492 268 3416 5975 3767 -543 -1324 -269 928 294 1032 2084 606 1502 238 2211 1144 -714 518 -397 -1541 -1372 -1685 -2055 -1931 -1088 -1468 639 -1137 950 2494 1538 -224 1284 739 -1514 310 -518 -2286 -862 -781 -280 -947 -1 99 -227 -17 -855 -267 -628 818 856 195 482 787 274 641 2010 2232 -1633 -1681 -1104 -936 1064 -173 -1056 1459 1636 2170 1540 2375 -84 -1121 1112 -3927 -4491 -1311 -184 -562 601 -440 -495 -875 -1087 -198 -734 -438 -346 -523 1013 1941 865 809 406 583 -816 -1545 -1122 -1400 -2075 -1143 -1170 -1775 -581 -173 -1342 -410 197 -1070 -1274 593 817 61 -1964 -1604 -2086 745 1878 1316 1272 2100 2659 -762 -942 -912 -37 63 -96 276 -55 -314 -1649 -1126 -1268 334 150 -1667 1359 789 -349 -290 -1790 -278 789 237 120 1645 1284 642 1468 1144 411 -160 -751 -1311 -481 -464 -1605 -1049 -1186 230 -1132 -149 647 -880 -1398 -394 -1570 -1679 -421 732 324 -619 2421 2599 1103 -520 -1904 -130 -663 -1938 -931 -251 -722 -1097 -2625 -3866 -3318 -813 -1221 -1388 2230 3756 2592 -375 174 -290 -761 1515 -562 -634 1624 -5 -881 -2091 -967 -525 -505 40 39 967 596 -2062 -2283 -1793 -439 -431 -625 1705 2152 909 -1136 -585 -697 -494 278 -353 663 1234 1841 -601 -1905 -2081 451 -238 354 -1058 -137 -96 2500 218 -805 1078 -744 -785 1437 2483 2522 2772 5243 4642 -126 2341 632 2052 5277 1974 -834 482 717 -1203 -269 266 -257 150 119 506 680 946 -22 476 162 -501 388 278 918 -850 297 -988 -925 -708 -2273 -742 -2355 -814 -855 -320 -171 -503 198 1008 758 261 729 424 545 -507 -627 549 402 -493 747 -1297 -2834 -1546 -299 -1653 -614 1110 -579 521 761 -91 -999 1336 -852 -2512 1474 349 93 -3233 -3587 -2791 -953 340 -155 2883 4148 3148 -1064 -418 -101 -1724 -543 -601 331 1102 -317 -572 -959 389 198 -1218 205 -673 -798 -673 818 1388 104 565 667 -568 1583 1295 725 -434 772 826 108 525 822 1419 1263 139 1059 1835 403 -135 -86 -1112 -1948 -1896 -2314 365 1035 1064 22 360 -95 -608 -747 -388 642 16 -211 -2405 -2621 -2001 -2787 -3110 -2086 772 1449 653 467 778 -12 -1147 -1140 -798 643 71 1719 -1404 -1942 -1100 68 -11 -694 940 -177 337 1109 -854 -938 1411 662 -396 -64 -950 -35 993 604 1120 -362 28 -577 -2166 -2625 -3013 -1238 -1074 -1394 -1030 -414 -787 -903 1287 397 -1304 -1195 -1595 -604 935 -852 1431 865 854 928 321 840 2101 1220 2411 -689 -1323 -1670 -2369 -2841 -2499 -1690 -1937 -1569 416 -383 657 1384 -950 -351 1328 -636 -1786 -5 -1112 -1124 -1052 -2700 -1480 -731 -2004 -729 2080 2357 2072 -655 -1171 -1024 -860 -785 -853 1488 312 402 1227 1292 835 -219 1306 781 215 559 569 -262 200 1112 1135 1274 2139 -836 -1670 -2811 1417 -422 -1226 2537 1928 511 1506 49 206 530 149 -657 -1666 -902 -679 -3149 -4374 -3588 -754 -2095 -2135 536 1271 -1381 1251 452 -570 371 -1246 -622 -145 -154 -390 -1397 209 -1216 -429 915 -622 -398 300 -265 -45 -74 92 76 -216 -635 1261 605 -130 -864 -893 18 -846 -223 716 -441 1107 2401 -4 428 1775 -680 -52 1033 -1597 -1969 40 -62 712 -336 26 1258 -905 635 1415 99 -1372 -2366 -2165 1380 1063 603 1227 1462 657 308 -2019 427 -339 -2163 -569 -1442 70 -1015 2251 2185 131 -799 71 -686 -1212 773 2446 983 153 840 -1193 406 -489 -1708 861 -1065 -1870 -2729 -2649 -300 -710 -10 2363 1538 1646 -217 2656 161 513 2272 -228 -1439 -978 -922 1336 455 -327 -628 -860 -878 -1666 -1101 -229 -63 375 713 -255 315 1061 553 433 613 -1370 -2789 -1603 384 -1391 -502 1722 2940 178 -956 -1045 -1329 -98 1316 787 -1213 -312 207 897 181 -518 -483 -757 -541 707 1245 1560 441 347 502 607 1234 792 -1218 928 715 493 1639 103 174 516 147 -2824 -3263 -2329 708 899 542 -71 -824 -58 -1945 -1586 -505 1038 745 335 -1324 682 -772 -1927 1227 -876 2181 2696 1483 400 510 -509 -1656 -1715 -1554 -471 752 919 -17 431 486 3876 3591 2557 -1199 -391 -301 -655 -970 -849 576 931 381 708 30 -79 1576 1602 717 -6 1344 1744 -2153 -1349 -1286 -1296 204 -896 2409 3431 1534 994 -1099 -604 827 682 -844 -340 573 -1284 34 1818 283 -753 1124 -359 -2242 -1484 -2055 -2012 -3126 -1772 -829 -625 -812 2295 1764 1987 1380 -1494 -1321 544 -73 523 -2392 -1203 -475 87 -430 496 1583 3526 347 830 1656 -568 -1357 -1392 -1950 -1247 -1046 -1471 -312 -475 260 196 600 -47 -700 -1118 532 -1412 -3166 -72 -1592 -2157 -2029 10 476 -291 1353 1903 1127 -1273 -2832 -1509 -357 -1881 212 752 302 481 2508 4246 2444 325 818 435 -1903 -2270 -1742 -246 -736 -380 -1270 -1432 -522 -363 -1247 -192 1917 3120 1656 -134 184 -970 175 -641 -1337 2608 1932 798 265 -390 -779 1090 279 280 223 857 1261 -500 -428 -526 1639 2998 -420 -55 1156 -285 -319 934 -1241 788 -131 -1651 -9585 -13545 -10057 -7793 -9714 -7767 -7617 -9930 -7745 2898 2910 2321 382 407 704 -4024 -4679 -2068 1255 2840 2340 2251 2330 1407 2629 4629 2621 -676 -760 960 139 -832 702 1637 36 -1152 -523 -293 -1164 556 882 -514 1941 2281 1512 3989 4989 3465 894 1403 1596 -4223 -5908 -3730 304 1000 978 51 -482 728 82 -1323 642 -429 1367 -488 -825 1276 285 -818 110 -1130 1027 1812 1605 -1074 261 -524 -386 181 327 -1802 -2086 -1460 700 948 805 521 1204 -395 -1156 -1815 -1095 -104 -926 -508 828 -154 843 252 127 482 -212 970 890 1699 3375 1436 869 -72 608 -1189 -2357 -753 302 -446 -407 589 573 1147 754 488 1199 1916 1240 1771 1064 1896 601 -782 179 -1569 1116 2745 1446 -611 45 -439 -254 153 -373 187 130 69 -1693 -2672 -2579 -1537 -458 -795 -3257 -2944 -1877 -294 -2217 -794 54 -926 76 2228 2065 3369 796 -213 -900 -69 -707 308 1696 501 1334 2377 3206 1135 -371 640 -793 -2850 -2775 -2313 758 -348 -410 871 40 715 -321 -413 -1299 -1091 -1509 -1614 -404 -129 -732 -4154 -4331 -3759 204 -13 -311 -1221 -940 -64 -2 -114 -8 -232 -301 342 -189 -938 -862 -510 -952 -938 2215 2494 746 -39 -214 -1323 -1627 -3136 -2860 -677 42 -117 -434 704 829 -1443 -741 -243 -307 -38 330 -653 -57 1437 -1298 400 1036 -639 13 -153 -634 240 842 -330 -321 937 1260 1334 121 -455 -371 -887 -1258 -805 -156 -976 886 -1492 -449 1587 296 2769 3651 2779 -1721 -112 63 77 -111 -1771 232 -89 -507 -375 1012 -824 -137 831 670 -999 -2409 -2347 732 -705 -916 -905 -1493 -702 -514 -2771 -1090 472 -602 95 -291 -725 291 866 -210 610 396 451 853 -615 -897 -15 1717 1836 1983 939 1480 2034 -750 385 582 -1719 -976 -1938 1087 984 486 -68 144 -316 -1431 -1935 -1869 -1787 -2972 -2593 588 1058 765 -637 -2388 -1103 1168 983 670 354 764 423 1428 2739 1260 -17 99 -329 1688 1776 -61 -783 -492 -258 -1143 -1203 -1705 -922 -740 -970 -206 -1223 -611 -335 -314 1188 -689 -993 156 570 614 158 -500 -534 -1004 -528 -877 -913 -1107 -1969 -1222 -147 -80 -1371 1332 1881 159 462 1543 31 -188 -40 -1133 -893 -535 -595 1998 355 -388 89 -1012 -390 489 1 623 9 420 1254 382 -1559 -1736 2789 1759 2246 1294 195 527 -531 184 43 -859 -233 -597 -914 891 -612 919 1176 -833 -873 -16 -955 668 1180 378 418 845 -399 340 149 460 497 -296 262 -852 -797 -749 -108 -105 -145 717 962 1022 -1293 -1326 -640 -1224 -1754 -2161 -858 -1616 -2334 -840 159 236 -306 -48 -382 50 52 -795 -95 -683 -225 -175 -950 -860 -877 -219 -1083 -1577 -1136 -1289 -1790 -1068 -2163 1259 991 1097 -221 689 -256 767 2005 444 1120 1352 332 -312 1481 255 -892 1212 1332 -757 -116 766 1247 -483 486 -520 -120 -801 371 1191 -256 141 -1063 130 3035 519 -556 2565 2121 1253 -1061 -738 -849 1015 1484 216 -807 -527 -1173 -432 -1117 -463 728 836 1018 235 -69 -75 731 -677 221 225 -910 -317 1716 1509 1101 -355 -1512 -1032 741 -164 1314 611 430 1596 1093 1334 -868 1239 1790 -1321 1154 3022 648 -1384 233 -1372 1871 2652 2025 20 -480 -316 1356 -758 561 359 -958 -444 -1185 -1295 -1961 -874 -649 -1432 1283 2236 1038 928 161 563 1170 241 -165 1269 355 809 939 -731 625 -1012 -1896 -5 410 -1096 -138 576 53 137 -626 -1807 -1608 -405 -76 -467 -785 -90 -500 -339 -659 -915 -1444 -899 -1690 -1473 -870 -1417 -1522 -955 -1293 -2713 -1360 -1185 -1470 -242 -385 486 -577 -431 -1403 -3163 -2188 -1622 -2417 -1537 -718 168 -1013 -1164 832 -268 -2397 -937 -2059 319 -99 107 123 485 974 -506 -107 1097 1362 471 53 2232 602 -145 1141 -119 -67 427 -741 1165 1449 -532 494 -651 -2097 -265 470 656 526 -1084 -209 49 -500 922 350 59 562 -37 -423 538 -274 -638 643 -309 -1096 -409 558 1064 2044 1388 162 863 -289 -1384 -2037 -3657 -1166 -2036 -1855 -1032 -994 -1225 300 -1012 -506 -1000 -1270 -1044 -2606 -1720 -2817 -124 -935 -348 711 23 79 1905 714 427 -1045 -243 -993 1628 1603 -60 1986 2471 1037 827 335 48 -53 606 -512 417 38 -790 1254 966 930 763 615 622 -165 334 346 -311 -628 -355 -1154 -360 126 -238 184 -216 784 135 536 -29 296 265 -1290 -268 -937 -1023 -80 926 1668 208 283 1269 1342 1405 780 -1121 -539 353 -549 -936 -404 213 -527 257 -493 -912 482 69 -383 1347 1976 392 -1609 -1533 845 -1072 -361 640 -888 234 -80 1156 1227 505 2608 3244 1546 2266 2626 1242 100 822 129 1534 2367 1123 413 1517 -288 -770 -574 482 -848 -1498 -547 -124 -215 -269 432 -103 -490 -642 232 -615 -2028 201 -1302 901 841 538 -38 1033 709 1486 811 238 -965 -805 -846 -492 -2123 -1496 -661 -1429 -43 -842 -1151 -290 -860 -376 302 -1091 -381 391 341 -61 514 175 -24 1212 -30 -110 630 1888 -365 2125 425 -1124 -7 195 1353 893 735 -320 1177 -190 -1403 62 13 -717 -96 1767 2933 3136 220 1420 1334 -197 906 -588 33 1171 184 113 840 -327 -480 1570 -137 -2144 -924 1207 -1530 -1809 879 -1352 -3055 -1525 48 -1183 -765 -622 -1107 369 -516 -1056 -970 -1226 -740 -795 -1438 -2294 -399 -1995 -1640 44 912 240 202 141 -61 -896 723 182 -552 137 -447 212 -308 -1293 -15 -574 -1195 376 1008 2244 -100 2791 3556 899 1161 468 525 -310 -626 1001 -1082 -1520 -469 -1487 -2555 -1739 -2235 -2160 -1391 -2091 -1458 -1427 -1916 -1823 -1783 1245 651 -28 1748 1131 -47 1391 2231 563 -1122 -475 -802 -890 259 -868 -1433 -305 -1388 864 74 639 -4 -190 -905 1234 1512 1218 -597 -812 -1331 169 -88 -1404 49 580 -1031 -75 -1155 -345 146 983 1090 215 794 246 959 -731 -1101 96 -10 -1215 -1526 430 -775 -634 549 -281 449 350 1663 1625 817 1575 869 178 -886 -96 -1253 -1571 783 209 681 456 1666 -256 -830 -381 -1470 -592 -190 -714 335 -218 -1228 315 -325 -1184 -881 -472 -765 843 941 826 -90 67 1061 -1127 -1769 -793 -349 -423 -981 -238 2891 1100 1138 3579 2652 764 353 -433 1034 1088 1654 -573 -32 -156 -882 -301 732 637 1263 1561 295 223 799 430 2835 42 3921 4710 3347 3225 2798 1081 -989 -2453 244 284 124 -234 305 -1154 -54 561 424 -684 -441 1506 207 -1747 -604 -204 -888 -1115 -285 -2131 -1313 -140 -1887 -1356 -574 -304 -845 19 1698 2126 1029 2148 3026 2426 -934 -1542 314 -1414 -813 1114 -546 471 272 981 2135 -800 4744 6976 2891 2213 2979 2504 301 334 20 -238 -682 -444 -44 -410 -875 -620 -257 -124 1352 1756 1173 74 1305 824 -988 -798 -1695 -320 1184 -132 -764 364 -551 1431 1099 1757 -320 -1069 1046 -383 -331 15 324 469 -356 1428 1975 1295 1010 1559 637 -1179 -1849 -525 -494 -1205 -556 -174 -1306 -442 632 -1398 -954 1724 2667 2090 223 1019 628 -822 -1618 -1182 -556 -297 128 -992 140 2258 1080 279 233 2147 1157 797 2074 1729 1220 -17 -1002 1344 -1605 -2223 -376 -2573 -3340 -1269 907 1304 1308 333 688 36 89 236 -1625 1564 1251 2329 564 -717 503 1226 136 552 3021 498 1535 2040 -1619 943 -747 -1782 1325 -289 -224 -665 -626 -1080 -550 904 946 1580 -1352 -1451 -893 -950 928 1244 -1409 -192 1485 1106 -486 -641 -847 -164 -812 -1622 559 -628 -2003 -2236 -2919 218 367 -1240 1057 1743 66 576 264 298 239 174 451 -1313 -1173 -433 1485 386 1207 1452 317 845 1670 177 912 1597 1057 1116 2018 1124 1100 2891 3092 2326 -334 -842 -832 -1170 -926 -658 -2111 -1362 -992 -1972 -2397 -1841 -272 558 -1089 308 981 -282 -348 -151 -372 -721 718 1160 -1517 606 569 -610 127 514 -1251 -915 660 -1457 -1362 -23 -131 -566 -508 113 775 698 -80 358 12 -2144 -2190 -827 -1507 -272 -29 -302 -218 694 1037 933 251 516 583 114 -990 379 681 2963 2233 886 1077 1611 137 2059 5090 3482 -765 -2011 -1693 886 -431 -559 353 -1209 -1205 -1467 -1468 -2337 -1054 -756 -1198 -1227 -597 -648 72 -1230 -1389 -415 -1232 -73 -1409 248 -501 85 533 461 -495 204 223 -970 -198 -562 1217 186 975 209 -1049 -425 825 633 2673 1804 1928 1323 1843 2261 677 -284 -196 -517 361 -226 -1108 -624 -1489 -2165 206 -1087 -79 -1639 -1068 -986 -1816 -450 198 -2257 -447 -20 -1110 -986 -983 -723 473 602 96 1100 697 -993 -1324 -1148 -208 -956 -76 -1659 -1164 580 1170 -51 781 -460 -1794 535 -810 -1760 349 311 625 776 1937 1898 1329 831 812 768 -349 -363 -935 1073 709 35 1241 63 280 5388 1968 4687 3431 -1104 1270 5613 2655 4538 -2891 -2154 -128 136 -743 888 -641 -273 -587 -747 -602 -4 -20 -153 686 88 305 -602 -1616 -464 -1034 -2556 -1482 -2503 -1256 -569 -1401 505 929 887 1058 828 1191 -140 -201 655 -121 -493 267 -542 -343 45 -312 174 68 1344 1906 553 1567 1686 400 -200 -41 -856 1077 1321 5161 -445 -472 3793 1078 1600 2762 -1030 -1966 -555 -444 -661 1055 -1121 -1577 379 -664 507 -585 1664 1629 -351 51 -517 -770 373 -476 -1322 -108 201 -1367 -167 -430 108 823 -156 -228 -7 -614 -831 -360 -10 -462 2570 3257 1080 1205 1503 316 -663 -1012 -619 -1145 -652 -1983 -1451 -1461 -1826 -60 -1430 -945 -671 -188 2000 -147 -527 958 1608 -1845 -791 3546 -853 183 3928 862 -1691 2996 -1226 -2127 728 -969 -929 -658 -941 -1096 406 -354 229 -30 481 1066 -762 -80 647 -1688 -1274 -709 -153 53 530 -352 -352 -128 195 70 -178 2038 511 769 1468 555 1748 752 2117 2314 1497 285 594 1357 428 -34 1742 407 338 996 569 690 1069 31 911 -968 -1970 -1774 -867 -1862 -988 -150 -600 277 -532 -1236 -963 1367 248 423 -12 -775 330 63 -424 907 625 987 -758 2304 2646 789 492 1144 108 200 401 1965 -496 -344 1035 -898 -870 126 604 68 957 1930 651 1478 2828 1698 799 -594 -1471 -381 865 -797 739 587 -1052 -149 1881 419 1825 1919 1056 544 863 985 -27 309 -467 648 -366 -484 231 252 310 259 -1387 -797 1809 55 -1185 -775 522 -815 64 517 1543 727 -27 106 -934 300 237 -866 -190 -515 -275 -326 696 797 -1060 -2311 -731 -838 -1217 -792 1099 1692 -458 173 176 -982 614 -466 -875 -184 -113 -209 -1582 -3044 -1446 -21 -668 -1176 -772 -582 -1669 -322 -46 -1442 -1975 -1029 -2529 -465 2225 254 2078 2967 3751 -2019 -1607 -1042 -714 311 -521 -477 382 -705 -401 186 441 -446 -162 188 -743 434 1275 -107 1180 -589 1186 3724 3255 890 1258 2067 -409 -1582 -108 -297 -1062 -399 1487 2850 1741 61 659 287 608 1138 108 -1338 -281 -791 -578 841 -311 -1354 60 -1659 -1686 1230 -1526 -64 88 557 819 544 134 6 -135 -1008 -498 -517 -1043 -772 -50 -1143 -2408 -1671 -2327 -397 -627 -349 -1402 -962 -916 -1631 -1279 -238 271 785 -554 -1056 -1129 -631 -905 -242 556 198 -8 520 -437 -452 -986 -912 -1222 -1302 -181 -492 2096 -2733 -1349 1075 -2380 198 1302 -292 -366 -1011 -256 544 760 -362 -1079 -522 -188 405 -296 -1291 -737 -2 -540 -751 -318 -40 26 -697 -9 -256 -64 -396 -623 -395 2112 1579 1822 978 -1106 225 0 -1131 1387 1052 204 -1316 1052 447 -1398 -154 -191 -1587 -329 -821 866 789 913 1297 2155 2015 1115 24 477 -41 580 139 -272 -914 78 703 -392 -343 1110 -1024 -1426 782 -693 -604 1118 -2750 -1868 -3184 -604 583 -1224 -378 -363 -1101 -818 -2258 -1498 -21 -1154 -447 512 -89 341 -1452 -751 -1233 242 1017 -357 339 797 335 225 -870 524 -71 -1210 -335 -89 -972 156 1777 1988 1098 -23 -7 -179 1516 1707 1012 -103 208 -268 -243 321 -279 -363 367 -42 -681 -834 -1465 1843 1380 1024 2987 2594 2359 841 476 199 2158 928 565 2629 1801 2818 685 812 41 197 437 -640 1116 437 -474 -934 -741 -287 352 -269 286 1389 -361 -137 -332 -1433 -473 -71 83 -85 421 1086 598 1299 1085 1842 1224 618 1270 -140 -319 748 -642 -176 -1433 448 1821 867 -3 -708 -189 173 -1529 -1493 -34 1569 1505 -1889 3013 3653 511 752 -379 374 -455 809 48 -662 -460 -406 -1380 1555 -1452 -2401 -590 7 -342 329 236 -136 543 -829 -805 788 -1792 -2304 32 -1226 -1911 173 -1326 -1859 15 -448 -938 558 -1967 -403 -1487 907 2366 838 1056 1938 1582 187 -413 -811 -347 -1033 694 303 179 2344 743 226 -898 33 -732 -476 -705 -1098 120 -749 327 -195 -329 734 516 709 1141 1570 -401 -611 577 -1312 -1434 -459 -424 127 28 -1458 -1621 -1347 1141 -317 -1114 1855 19 -1531 -1122 -136 59 -1190 -2280 -2009 -1688 -3202 -4140 -1004 -1576 -1575 -300 -209 -85 -1024 -2387 -1255 990 1479 801 1038 1288 1586 -270 -158 32 400 2423 1062 165 1071 1274 410 1619 1197 561 755 527 741 295 54 1378 -507 -293 1319 864 9 -30 -461 -628 33 -19 -401 604 1678 -505 261 887 -736 -1005 807 783 1994 2356 555 -690 -400 -664 -1255 -1600 -1141 -902 -40 1564 -148 91 495 -472 -1104 359 1609 77 -2061 -192 -604 -1469 -1155 -631 -560 460 1247 -895 2316 4431 -1334 2689 2350 -1383 -191 289 -817 -138 783 -311 331 618 468 725 1977 1952 443 678 958 1303 1546 1811 -172 -432 -608 -265 62 -446 26 -453 894 -63 -830 356 -1011 -2249 -1704 209 -1842 -1280 -839 -1449 -498 -1256 -1545 -1121 172 -419 -976 977 292 244 -136 -471 -368 -1132 -1233 -861 -331 -1225 -1832 -1443 -983 -1696 -2528 -1151 -657 -375 -330 -1900 -156 543 -608 168 1304 684 1617 954 1057 598 1068 -453 -1682 -613 -1718 181 -61 -155 -299 -200 -681 -138 -1270 -1300 -868 442 136 -715 763 -342 -589 -81 -341 -705 -730 -397 736 516 -58 442 -150 -1359 -217 -1236 -274 771 256 267 2307 1789 1057 1063 899 231 -403 -403 -591 -1692 -1626 -1618 1234 928 840 1730 1591 1221 873 417 1145 1728 1927 1653 1612 1404 547 183 -565 406 -118 -398 251 -93 -622 -66 460 450 331 -828 -1685 -924 900 592 416 831 1042 1116 -1374 -1779 -1947 -69 0 -230 1507 1133 1113 1697 934 2881 721 -1073 918 642 -511 788 544 -1635 -893 -748 -1315 -395 -116 1453 626 -98 -322 -361 645 1612 374 315 1772 43 172 -573 -1117 751 1385 1620 569 2733 2572 -373 -779 729 697 -1320 -622 1887 68 179 326 3207 512 -336 670 74 -675 -1578 -259 1163 1808 1458 -132 -95 1527 342 -1007 244 558 857 1295 -687 464 1244 -3788 -2364 -347 1205 -170 614 -42 -861 658 -146 -923 1139 19 194 657 -377 -111 458 643 930 391 188 -116 712 998 300 1104 128 1278 797 377 652 -140 -29 1135 647 -410 694 -204 -3164 -741 3224 -4224 -800 3662 -1598 330 2956 -1151 -336 -620 -2787 -491 274 -575 389 302 195 1125 303 316 1426 102 378 730 354 -345 -541 359 -942 -677 -743 3867 1555 -95 -5669 -2555 2218 -8396 -2694 4199 -1912 685 4324 -931 916 117 799 532 690 -1844 1405 1820 -1959 -1170 62 715 1565 -494 2299 445 -925 -1048 267 1377 -2871 226 1516 1864 2006 1297 60 231 1538 -2164 -20 2043 -1554 144 1422 -629 -233 -559 2050 922 -1939 -373 -1292 -2149 227 -625 -602 565 767 930 -365 965 925 -334 118 607 272 224 -320 0 -1587 -5 -230 -1070 -536 -398 587 -175 -52 821 -245 -501 -225 -1046 124 1731 -81 327 887 211 -1062 -965 65 -1529 -786 625 546 346 938 -640 -499 -698 272 493 -339 40 1409 116 -431 -121 389 -743 -595 731 -261 464 681 805 -424 61 1251 622 1704 -385 544 1501 -252 -478 2853 972 84 2171 -1476 -511 1618 870 424 1441 483 -617 -1419 -615 -33 1282 529 327 -283 1349 209 805 -198 -382 885 72 703 2557 1529 493 2723 902 147 1101 1177 -540 52 274 -884 1201 1 30 -355 4207 1563 -48 -3251 -2006 355 -722 146 1700 -2190 -400 696 -641 -1434 -471 456 478 -214 1519 235 -1105 632 594 -1206 -801 -333 304 -354 -1889 -123 -2104 -59 853 -1988 648 1256 1164 497 -100 -1381 22 685 -177 53 -197 -694 -535 -51 -283 -294 -785 20 -894 -262 -140 1618 1860 -1823 152 535 -419 802 894 1671 2341 969 -1111 1762 847 -854 1875 823 1990 -7 -332 1318 -216 -189 1736 71 -548 -745 -623 1538 -1252 -1503 1124 -24 -173 2745 -4526 -2351 -883 -2770 -871 262 -3704 -1504 1093 319 535 -1328 20 482 -1206 -251 -333 -616 -5554 -2259 -6019 3786 1330 -7957 -7171 -2845 -6139 -3205 -387 1810 -2796 -599 1885 -3232 -1402 989 -1618 47 1368 -1994 -888 1178 -1216 -381 632 562 -3463 -4976 2312 -2635 -5254 -206 -3604 -3028 2359 565 412 -1109 -1543 1470 1124 808 1123 1321 1477 1116 723 -650 -70 -917 -376 -87 1242 600 1434 24 -218 1150 584 740 1592 487 294 -878 -174 703 1055 -1667 -945 307 -263 -4654 -5005 8445 403 -8670 -651 -2992 -4632 702 -885 -560 -799 -2488 -1777 -381 -1580 -493 2900 1517 -1642 2576 4172 691 2106 -918 -3834 -2263 -967 -364 -2149 -941 -101 419 -278 -1193 -141 -648 -401 -335 -995 -896 -1140 -322 720 412 741 57 -321 -843 -433 859 -888 908 -200 1420 -559 935 2598 655 1372 -23 -2093 319 158 -9 909 243 596 -1774 -496 -432 -405 144 -823 -160 1305 1008 -157 528 -305 -2363 -241 1583 -1583 -305 1562 -1314 218 1528 312 167 -470 178 199 -874 1089 706 -279 -1157 -199 325 -697 -210 550 -561 -541 1749 -1194 -1823 -846 -910 -639 -1286 -349 -437 -365 906 -403 -1254 2335 638 -1186 34 -1254 -2647 727 1492 2280 -963 -190 1587 -1634 -580 858 1117 -281 -715 1320 -762 -275 -608 -1152 -1366 -899 172 2175 -1621 -1369 167 117 -543 72 -1414 -1835 1261 -1859 -3484 653 -155 -1088 1710 834 -351 -889 2748 1137 -1145 895 -1602 904 -1277 -2312 -413 -317 -1905 773 854 -1600 -368 858 -617 1144 -89 552 948 -1601 -1373 -903 310 -332 -113 -674 -361 1433 -2378 -132 1586 2084 866 -668 1409 -1033 1209 512 -228 1282 413 471 893 2163 2326 1145 1008 889 -161 -1039 -612 1911 -2331 -1532 2691 -1231 742 2299 -658 -1551 -927 143 -25 -1145 799 -257 -863 1735 420 286 -514 150 995 549 838 1175 -426 222 1291 54 417 456 -183 -900 -1514 -1095 -1154 -1126 -188 -1377 -678 -720 -1235 -2095 587 -125 291 -1265 -2464 -199 -996 -724 -179 -812 2274 -658 -292 818 -1965 -970 -709 -1909 -773 -144 -287 -1045 474 1317 -2330 -367 -188 -2089 -582 635 -2019 -1630 -646 -972 962 388 834 -77 -256 1313 1261 1031 -814 73 83 599 30 -983 2132 -694 -1106 585 -1444 -1597 -202 -436 -210 -907 -1691 -972 282 -636 282 1664 -1253 -863 1673 -45 -366 995 -974 -976 -3058 -1090 1928 -2395 -398 1870 537 674 1522 2891 3490 -1330 -24 1789 -931 1194 1527 -2016 1309 -593 -1073 612 -669 -1209 -527 -1308 88 -3955 -2696 1092 4093 622 -2679 2280 274 -1312 1153 -646 -822 1222 -649 -1078 -559 -1111 -1249 174 -142 -1182 2964 2027 530 -21 -687 904 3269 1380 1226 5003 4462 2510 4950 1219 2133 -92 362 847 1230 114 -107 1945 -772 691 -1292 -526 1043 1423 171 712 1107 1180 358 2349 -1250 -2315 2334 -1425 -3252 -429 -2421 -4045 -1889 948 -541 1457 428 -1614 -1181 270 409 -1753 -938 106 1695 1406 1192 1390 899 128 -1028 -1119 -711 19 -997 -764 1509 -147 119 -3363 -1043 1325 -2249 -1305 1068 -820 -1135 -226 1009 1044 917 636 134 319 561 64 191 -799 -284 624 -17 -538 -351 -422 416 -546 -281 462 -19 50 619 -501 675 521 -324 348 193 191 188 1424 623 608 84 -2368 1071 -998 1238 1236 819 851 1703 1219 851 1051 612 801 -222 -939 -1150 -666 -4422 -82 -1067 -8 -129 -2707 -1470 -130 -1036 -464 136 686 567 735 1467 278 -1269 1466 -403 320 2739 754 -1266 1052 285 -1530 -1494 -852 -1373 -241 -1726 -202 -1236 -1297 -174 -1185 -839 -962 1023 -1574 1215 681 243 2089 -80 -997 2173 956 -150 -1230 15 -1092 -753 298 -212 -247 -490 563 942 471 1382 826 825 -838 -649 426 1230 -550 453 -1952 -1673 -48 -1216 -1907 299 767 -762 1794 1823 -116 -347 -254 -1789 -9575 -4256 3964 -13510 -4746 7359 -3721 30 6122 1602 1225 1395 -621 395 2342 -466 1226 2050 -635 -30 359 -1631 -318 786 -1076 -767 -444 986 -829 879 769 -1696 -330 247 -353 -51 2339 -738 355 1854 -422 97 -1847 -1367 85 -2026 -1714 -1389 -1288 172 -210 314 349 -1301 -274 -875 -629 -656 221 -14 -1035 989 656 594 260 319 559 492 1031 30 -289 122 159 -431 217 319 -786 -1404 1608 77 -1130 38 -380 -285 1089 -837 -564 -255 -1028 135 281 -1078 -240 340 -1408 70 576 -477 -575 -153 -1233 -1581 -950 -1628 -572 -1029 -1349 -68 1877 1425 1579 2770 448 -1149 -529 -1701 452 -682 -650 525 207 -986 53 1473 444 1234 -14 181 59 -1002 -318 380 -377 -438 -675 591 -187 181 -566 -300 833 87 -1091 -630 -3 -1113 -1373 1314 443 60 1260 132 642 785 2617 3813 -5112 -755 1748 487 1273 2318 1524 871 344 2964 2909 524 804 -1724 -196 399 -1233 278 -357 -1867 -273 997 -1298 816 1991 279 -625 95 -1309 -1888 -169 -259 -1199 58 107 301 -540 165 78 -1184 -2074 -355 -2314 245 473 -1427 247 255 -3515 -1864 -1105 312 -221 -74 -678 733 280 -425 912 1269 1755 -413 -1022 2775 959 -83 -156 -1262 -510 -759 -392 265 1104 394 8 -821 -1894 -710 -510 -1138 -1220 -3106 -724 948 -869 -1053 -1504 -56 -168 1822 -1405 -1236 741 -2531 34 3540 995 267 696 94 -795 -927 -450 -743 -1610 1831 76 975 577 753 992 -386 995 1410 -1885 -629 298 -387 755 1088 -69 431 178 1299 -904 -1620 2550 1415 -1444 -877 -1278 -1224 3118 845 85 2708 -129 151 478 -339 32 556 -175 -1192 830 652 -749 564 371 -410 -1443 -491 306 581 782 848 193 -360 -807 7 604 -390 529 -1380 -959 1366 55 944 -1943 -777 127 1747 779 370 -31 -415 535 137 -614 -1103 -25 0 -725 -1167 -1025 475 -2578 1339 -1348 -2786 1751 -2580 -3121 511 -1530 -101 1525 1096 -2137 1882 1489 -1044 508 1451 809 875 351 886 571 -1210 -448 186 243 408 433 -1342 1143 1744 -376 -363 203 -1245 -9386 -2891 8582 -12727 -4015 10094 -3862 1842 9768 473 516 -725 -58 91 -294 -644 -1142 -420 -1253 303 -458 -982 -639 -701 -595 366 333 -574 1113 995 1231 1859 633 638 207 559 -90 63 -204 -874 -683 608 871 1341 1337 -910 125 -898 -1151 703 -700 355 48 -1057 -912 -1543 -188 1836 1516 865 294 249 824 1720 -596 -2954 4012 471 -3162 -94 -1051 -3381 1661 2747 2362 -226 -450 1842 -225 -1034 1553 1197 619 -1318 274 -797 -1325 335 -859 -1347 -1343 836 559 -1570 528 1207 -1212 -53 65 961 -1087 130 944 -570 -196 1182 364 869 53 -477 -200 -937 1781 44 191 678 242 64 -2180 -618 -304 -609 -1179 -654 -402 -678 653 535 577 -550 304 1982 -66 -572 92 -543 -518 1263 1200 -1637 -614 -442 -709 636 -507 -510 -982 1434 890 -1577 -705 -721 -825 571 -107 1458 -130 578 1228 -181 -979 1284 -1726 -607 -53 1462 1962 -103 -27 613 434 -114 -1682 -4671 1492 -1087 -4697 -2833 -2760 -4839 3340 1517 963 6924 4616 2058 3041 583 430 840 -880 -846 2621 815 -299 251 -861 -318 497 256 249 1643 1553 -480 1969 1881 -1500 342 1177 438 -502 -258 -90 360 -618 1032 -901 -355 1468 -2154 -355 2253 335 630 100 -724 -168 -273 1123 1071 752 -1321 -209 191 164 -888 -716 -367 -721 -48 844 500 429 -1538 -1236 49 -426 -999 31 638 -1207 826 2035 1084 481 2178 821 -110 595 -323 -704 605 356 1208 -1263 -1383 -631 -1154 -1274 -1104 36 1157 226 1305 590 72 986 844 -447 668 -205 -2305 1177 -598 -1318 -293 228 1049 -1021 -654 -1843 -1778 -1196 -1286 66 365 1586 -3387 123 3793 -5941 -74 3594 -1774 1750 3636 -428 142 -1413 358 1509 -48 2145 650 -845 682 125 778 74 716 235 99 246 -237 -348 -662 -140 -139 22 -414 532 553 -170 -1855 -181 -156 2755 805 677 842 437 1241 -623 -955 489 1051 715 658 1428 141 340 -791 -2032 -3259 -299 -3498 -5119 -3975 -3210 -3138 -1383 -1512 -1207 1386 -385 -1488 85 -782 -197 -595 146 -294 -843 -1590 -918 1044 623 -346 -134 -74 -80 76 -124 -597 140 -1036 -73 935 -411 -1212 -102 -1029 -426 -1235 -1697 -513 -503 934 1177 -537 587 206 -443 326 453 -204 -406 1136 -2444 -592 2726 -1720 -805 999 -1654 -1683 -793 124 181 616 462 405 180 644 83 899 634 1072 832 -30 505 -444 -631 -835 -1008 445 -1586 -558 391 -1057 405 348 -154 1436 -140 1146 1096 -1479 -846 928 446 1281 1116 -100 766 280 401 410 -935 -1304 -29 1466 -878 616 837 1360 1667 224 -1245 -3098 -1161 2030 -715 -931 -1722 -53 770 -583 -555 -275 -366 1654 534 -774 438 582 -1149 -238 178 -402 -684 160 -168 437 424 964 364 660 1157 -32 1940 1802 403 1413 281 -1323 -4472 2217 492 -3139 1281 -757 -3689 547 -159 -962 2337 85 -1069 -436 -2134 -2194 157 29 -66 1292 168 -213 2012 -650 -766 -93 -174 2622 -691 -221 -410 2102 271 -689 -2701 -2721 6436 -6795 -6129 6629 -3121 -1300 8816 -452 -718 -1328 -7 -1211 -129 1763 -744 653 -2579 -2004 471 1639 -1912 -153 969 401 -31 -1197 -541 1143 -940 360 1570 -1262 -210 279 1287 -166 -1794 106 25 185 973 1651 945 -623 -137 2267 -1942 -783 4305 -621 282 4263 1 319 452 1744 923 482 462 -214 -468 -640 525 718 840 2579 1286 3145 2054 2611 1233 -288 -682 879 -1204 -972 1047 -395 -898 919 -389 457 1618 1090 -554 1049 474 -175 472 -113 382 277 788 1518 397 -612 511 -74 646 66 824 -536 454 1306 1198 838 432 50 -982 -1332 -488 673 -1392 -474 637 -666 -1243 -520 4644 2810 -979 -249 -981 -226 1309 -29 39 2452 1360 -861 -319 -1064 -279 -3355 -1352 -880 -201 -28 201 3045 1634 1473 1585 1686 1433 -380 340 896 -483 -1053 1053 -194 757 427 1803 1865 166 1359 1417 -714 -264 -360 1062 69 485 1363 1652 529 0 -3599 -699 1109 -4453 -1677 538 -2872 -109 1418 -887 -2860 -5028 -1296 -4600 -4866 -5714 -3833 -3480 14 -286 -555 -614 -841 -901 -2382 -1624 -391 167 -237 -1493 -1127 -580 -530 -738 -1489 -897 -2070 -560 -700 -2947 782 510 -3167 345 390 352 32 804 1296 -558 129 91 -1224 -701 -644 1009 913 1464 933 392 -491 167 823 -2423 -706 1392 -1997 -1034 1077 1643 991 2556 -715 -938 -1366 848 52 -538 1694 -193 -1202 459 -462 -488 119 186 -551 777 612 -1172 -1372 -1299 -918 -1892 -3297 -1586 -1038 -1611 51 -622 -554 139 -1180 -1060 206 -551 -1796 405 -130 383 314 -1406 422 -363 -745 319 598 -568 1062 -944 974 3208 567 381 1466 399 -572 165 -512 439 1275 487 -722 74 -81 -1112 -1375 -876 160 -2173 -754 -1579 -324 188 333 87 -131 681 -368 647 -574 -1133 -1203 -874 -629 510 -343 -825 675 698 950 443 -3883 -2487 -2131 959 1122 -2043 -1877 -1065 -2473 326 -1037 -867 453 -323 -1744 1348 1001 388 11035 7512 -2529 3354 839 -2585 -3494 -4676 -4893 -1032 -715 361 -1041 -1140 584 770 -525 814 -1535 510 -847 -1508 -1222 -356 2299 1497 -358 -2744 -3484 -5521 1885 -3384 -7172 7066 1163 -7866 -228 -915 -1045 336 288 157 -1423 -144 1869 1981 -565 -515 2385 150 -760 1425 -15 -828 -3339 -2315 -1443 -1666 -923 -845 1330 1127 -1144 -970 198 -244 -558 -170 -350 -276 -587 -1073 -2979 -1713 -478 -1028 -790 42 -472 -126 -455 -1447 442 1325 -664 0 183 941 -363 -264 1147 613 -582 -984 -691 131 320 -132 -184 180 -664 -504 1085 -713 -1766 1610 1155 -359 1170 440 575 1259 -191 -1557 671 147 -1902 -370 -1743 -217 -367 -2670 -1384 1023 -2432 -2024 -1509 -40 -70 -1790 -564 -393 -1646 206 -678 -156 -94 -125 1538 949 -181 1182 -849 -2083 -13 -166 -526 -236 -2012 -1609 -482 -122 -104 -2208 -1590 475 -1400 -682 73 90 175 571 171 1502 1187 1725 585 -2143 1447 858 -836 -3200 -2965 -1321 1380 839 -513 1502 1379 -77 -1032 -3205 -912 -371 -943 310 268 -948 1078 1189 1342 -751 -786 -1022 -1860 -280 -868 -421 1589 870 -1985 -584 -257 -2548 -1029 -1854 -3814 -782 -133 865 -147 2028 2375 526 2045 3718 743 349 -1013 -174 584 1766 -403 1689 4968 -3783 -1604 -1711 -3334 -3114 -3142 -1726 -2359 -1561 -1058 106 547 -1568 -740 1729 -1948 -1518 1531 2735 -1667 -2728 1952 -122 -339 157 -764 1054 -2885 -2409 -409 -3604 -2501 -591 -1706 -2655 -150 1677 2689 817 -617 -1766 647 390 -613 -728 1867 1313 886 1724 982 -521 -1232 -999 -1977 507 544 -923 -299 -1348 -2022 -907 -500 -293 -1773 -1727 -599 -3198 -2149 406 -4587 -1015 2611 833 -463 -1852 -1101 -1410 -1483 -481 420 770 -150 614 -753 -1261 -439 -1068 -1125 -1482 -1052 738 -38 -248 -45 612 1723 -182 293 -1159 492 929 3812 522 -420 2736 827 1292 1842 -561 127 70 -219 -126 -623 -29 -178 -323 -233 -113 -868 1206 1400 -841 -388 -1800 -3647 -765 -419 -999 471 -1953 -1571 1473 97 -518 -810 -2306 -2046 67 -2574 -764 -599 -2655 34 720 -638 881 -1589 -1270 636 621 1075 241 -2533 -2224 -1254 -552 -199 -492 802 422 -349 -1295 -2288 -3434 1290 -196 -1592 1605 151 -1099 -92 -559 -1229 -1226 -93 -514 -1546 -1294 -2536 -1491 -2094 1328 -2574 -2565 1024 -875 -313 1899 -1821 -1796 -487 -2037 -2666 -691 -146 -657 102 -108 -224 59 -698 -684 550 -1001 -1292 905 227 -496 534 60 55 -145 4 98 -797 -168 449 -746 1150 903 -1151 96 745 135 -960 -1422 29 658 -465 -930 11 -899 -619 605 966 2885 287 2186 2578 -1750 -2001 -215 2301 3477 -106 6214 3695 -2311 1769 -511 -4960 -505 59 -2747 -18 -216 -1395 -138 -240 -1487 145 2822 1326 -1804 5046 1404 -912 -445 405 1819 -287 63 644 576 369 1512 -299 -639 2657 1863 1186 2471 3642 1415 249 254 872 -1715 -668 299 718 1129 1103 468 541 1173 -1494 -900 -505 -559 600 158 -403 -115 -149 -1288 -2074 219 -1070 -832 588 -947 -880 -1001 -1479 -725 -2202 -801 -626 -1851 971 756 -1772 -1924 -2559 -2753 730 -1276 -558 743 -859 -702 -1682 -707 -308 -2770 -1018 784 -3342 -2252 -521 -2000 -1279 1000 -644 372 1769 992 1938 4180 780 709 -1362 147 -508 -2487 -419 -926 -1596 -2456 -153 595 -132 909 677 -614 904 776 -2506 -564 -1716 746 2304 -62 -557 629 -650 1013 973 -326 27 -1722 -1665 -154 -1280 -1672 -3149 -1066 -69 -942 -1350 -2094 -884 -1056 -1817 -2927 -1982 1288 -3054 -2867 -606 1273 -326 785 -2595 -1940 134 -2249 -1831 1478 1299 1155 1967 414 431 -3563 376 -175 -2821 -2944 909 2184 -1103 628 3170 -1017 -342 1027 660 230 1185 -821 -882 2134 -2142 -1864 806 524 1347 2404 -2243 -1501 -1391 -2221 -693 -938 160 315 -1507 -1063 776 -72 -576 834 839 497 1144 867 1370 137 2940 759 -981 540 1550 -40 438 -333 1254 64 -688 -964 -917 -3186 -1196 -725 -126 1089 -1011 -1379 -1263 -109 -1041 -2066 808 -285 -1986 -881 838 326 1047 1101 1885 1031 -584 -2129 -2063 299 -117 -596 1786 1125 -110 -1708 -339 429 -446 -393 -1105 -1851 -176 270 23 2071 1572 191 726 1664 -1817 1295 1455 -1393 -383 1478 738 -499 -39 635 1329 437 -1893 -3076 626 -460 -1336 2501 227 -904 2273 -2125 -3155 1178 -1035 -1377 2520 870 178 479 -2737 -1373 -210 -363 -535 -568 88 385 -336 -812 223 -96 -60 -1002 292 792 756 -562 -2327 379 -1525 -1044 167 -2169 -159 995 -1768 33 662 -393 1361 2152 300 567 2437 -1625 -1113 -378 54 2005 922 555 611 -439 -714 -3874 -1291 -1248 -2276 -1025 -1032 -2444 -1685 -2400 1549 536 2321 327 -935 2110 -788 -2116 -411 -820 244 1379 -1546 -579 -1882 172 2242 -2017 -518 -1527 -1367 -1619 -2556 -3064 -284 -923 -1682 1601 -314 1604 -647 -1487 1198 -909 -766 650 451 -1079 -2493 -573 -2497 -2898 -1074 -1444 -1687 -840 587 997 54 737 561 1183 2231 2258 2103 2213 1680 1392 1428 -381 -220 -725 -2503 2538 2017 -73 590 -144 -2380 -902 -1342 -2500 432 -923 2142 262 -1296 576 45 160 2458 552 -407 -1985 -87 -1938 -1574 1136 375 650 1300 -299 -449 -437 -2163 -1767 511 -1772 -926 3697 1713 -1596 727 -1044 -2433 -2411 -2497 -2240 -2535 -3686 -1631 -936 405 596 -120 485 1033 64 3706 5020 -1472 3519 -315 -210 -779 -4578 -884 -1282 -933 -1123 -2171 -1685 -2640 -3196 -1984 2497 2735 207 705 2700 -959 -3596 -2669 -1609 266 -125 193 521 876 220 2649 2648 1117 -2832 -1773 2301 -2152 -843 2332 -543 -230 1544 1487 -533 -1353 607 69 731 -441 1165 1266 -498 -861 -463 -674 -1134 -744 1308 886 -563 281 -3161 -3948 -1950 -4050 -3924 -1781 -1988 -233 -814 -3276 -4655 -1993 -2637 -2774 -2709 -4560 -1643 -2313 -990 808 -1174 -1274 406 1234 -58 -953 -170 -341 -292 -817 -1521 451 133 155 1945 -326 -1523 277 1336 947 1074 1543 37 1065 -1961 -1692 -1916 -420 482 795 509 670 1282 -703 63 1091 -239 -712 279 -964 -2178 1518 2563 922 -2610 4510 2625 -2945 -45 -415 -1664 434 -14 1273 1857 667 444 1290 1016 258 -1879 -2474 -1415 201 159 226 321 199 1352 722 1863 830 135 3984 917 -300 809 -646 -9 -852 2271 364 1766 3438 -691 174 142 -1841 -926 1580 -579 221 934 350 19 -252 -811 -378 1228 -4 419 1084 -161 -240 -93 5167 2443 -830 302 235 -708 21 -1159 526 -3390 -2913 -1813 -1294 -1135 -1527 -502 1141 -1712 59 473 -775 2677 1120 -2341 1330 683 -2948 -1872 -578 -2121 -1360 -232 -115 -2455 -1195 37 26 1287 1440 -976 -358 1268 -1036 -42 623 1985 3676 1290 2165 2593 -1502 504 -405 -1557 3877 2809 385 -2692 -2015 -3372 -2395 -3011 -2624 4018 3077 2509 2803 1339 411 634 2041 482 -104 -183 -1423 55 -499 -1963 986 1105 -537 -1367 55 1244 -1226 -597 269 -109 -335 -204 -93 -789 -563 -992 -2036 371 -2045 -1285 305 460 -571 -1498 601 -245 -1696 1073 280 -365 -755 417 506 -21 1921 952 -1108 656 351 -1943 349 631 -688 176 601 -860 -560 -405 -701 1634 1033 -395 345 222 2934 893 704 -2077 -1692 -2706 -1495 -690 -1141 145 962 1218 3868 3671 -87 2753 2082 -2822 -638 -1548 -1088 288 450 2067 1284 1145 1097 38 -271 -175 -1100 -2217 -1622 -59 -1608 -1651 125 -1227 -1502 -2873 -2798 -989 -1683 -1598 -428 -1478 -1359 -1593 -1837 -936 -1449 -568 -373 -1265 -807 -1296 -1350 1464 -407 -1275 1082 -767 -1708 -1495 -1919 -1270 2312 1501 193 2584 1395 -1230 1836 1212 -2112 1311 -652 -694 1341 137 -410 -85 618 -696 1504 -1706 -415 1817 -2030 -697 -385 768 1600 -2435 305 1141 605 1757 815 255 1062 -440 519 -1286 -1580 -1721 -3078 -1405 1034 211 906 1211 347 1581 -20 709 772 273 -307 -1086 -860 -285 -1282 407 -2110 -3440 -77 -1797 -2639 -3903 -3511 -3758 -1110 2134 1961 563 1873 1992 260 748 -28 -1173 -311 -199 -1414 -366 -959 -207 -409 874 -1046 -785 1388 551 1185 1895 269 819 389 806 -228 412 -644 -555 1651 -1844 -140 -139 -1433 -242 -1229 -2132 -2168 -3347 -527 2070 581 985 810 -1195 -1553 -2357 -448 2295 551 168 435 -1616 -943 -884 -1885 -1220 -1249 -1314 -820 -2510 -1547 -789 -570 433 -21 228 -43 761 -882 -1357 -823 992 1885 1273 -1332 -973 463 -377 -250 1076 -777 126 1659 -411 -96 -991 407 -124 421 -465 -1604 -567 758 1157 3165 -1542 -1759 347 -2116 -1683 -765 -1370 -122 -659 -1382 40 -517 5 175 -833 -1224 -1551 -2120 -103 -790 -1406 772 413 -815 -157 -1664 -459 1456 -1360 175 2140 72 631 220 -559 -342 432 -1791 174 1127 -1119 -1339 1767 -212 -1091 -445 -1140 -600 -262 642 800 -3829 -2171 129 -339 -1987 2779 1347 -713 -357 -1107 -993 -2410 -967 -1368 -1530 187 523 -380 -521 -860 516 -2039 343 2731 -2232 287 4181 2629 4203 -593 1972 2784 -723 -2114 -2424 -2549 -2380 -828 1940 -2130 -1229 913 -301 1 872 -79 902 944 -31 1903 418 -2143 427 -42 1046 -209 1137 443 -50 897 -597 746 1629 -62 -57 -838 -106 -1224 -688 626 1853 -976 3341 3084 1059 1502 3096 -170 -1044 1833 -805 547 -737 231 -198 -1385 -108 -1209 -2796 -562 -2720 -2321 -3555 -1504 -1398 -1378 85 483 184 1501 -1204 950 -476 -2929 87 639 322 1105 422 -768 555 961 376 898 -128 999 1627 -1465 -265 -2008 1350 161 -1182 3118 532 -24 -1012 -1386 -2027 -1754 -972 -1386 -429 82 -621 1328 264 -1244 -720 1533 -455 -1420 -896 -424 -714 -2054 -2095 559 -678 57 2200 478 333 -1205 -769 -237 -1005 -963 -1690 -185 -90 -823 -2767 -3241 -200 -1324 -1552 789 1711 1495 2295 -659 626 537 -415 -223 -585 -1509 -1591 -184 679 -1362 -1300 836 270 -286 1779 -175 -2264 -489 -1144 -2121 -146 -31 -800 363 279 -339 -901 2131 4137 -1647 -1796 -860 -1712 -1370 -1465 1192 -258 -1418 1341 389 -906 116 5 -1578 -1566 -1154 -220 -1249 -1702 -2218 -1592 -1072 -815 -2643 685 -440 -2105 -801 -1581 -813 -932 27 1669 1060 -641 1720 119 -1632 569 -38 -1249 1076 353 -1314 2418 1057 -1162 1095 -580 -158 -3029 -2270 -15 -1576 -813 81 -162 1124 -1107 2910 1094 -1190 975 -284 -1641 923 638 897 -5099 -4656 1998 -2953 -1489 4276 797 1642 4488 -495 -843 -1160 119 793 187 -839 1 -162 -655 -1537 -1116 -1013 -1205 -1162 -1010 -1202 -2145 1585 2753 4371 1625 2273 514 -698 -702 -2331 1148 -576 605 1271 -1799 666 3134 2197 1272 -2459 -1663 1088 -2596 -539 2645 -1230 755 3299 -450 -68 480 -1061 -871 1580 432 -337 1402 -2416 -1128 1704 -982 1446 -689 -1265 3411 -1014 2068 758 -676 -486 -1541 -1756 -764 -1073 -187 1246 817 -676 1231 1387 448 -505 -847 -182 -102 -630 1833 610 -1930 214 -290 -2318 539 -1741 -774 633 -477 -36 537 434 771 286 -2700 -1584 322 -3 263 -1025 914 1453 -1552 -2548 -1695 320 360 949 611 1461 793 -991 2797 1418 -572 1300 -1950 -145 -84 -818 1051 1732 645 -1367 420 -633 -2163 -620 -1590 -1895 482 -338 -141 -1058 -2042 -1391 -1214 -30 -234 2573 -1194 -590 3076 -719 -959 -247 -1474 -3144 -939 -54 1861 -1346 -114 4232 1855 202 2441 1001 2334 -492 -1453 -461 -1202 52 748 1372 -1409 3 -565 852 1298 63 363 1609 2088 430 541 453 2238 2863 1804 132 2281 2102 489 636 -8 -477 3834 2402 -1207 683 542 104 -126 -595 -975 -734 -1257 -842 -730 -1334 -3618 -1322 -903 -1236 -112 -5 -1319 513 -195 559 740 -874 1211 -747 -868 -765 -628 -1104 -153 763 1313 -906 1609 3931 537 320 1866 -1218 241 3859 -777 -1139 2169 -630 149 2246 2869 2913 881 -168 1614 363 -1749 -1226 900 209 -1496 -666 -853 -1704 -224 1321 1220 1961 -2188 -1606 639 -157 504 1011 -737 -554 -1881 -1572 -174 226 595 1764 1380 1762 407 549 1744 466 -1044 868 -608 -2068 767 -836 -1057 42 -435 -714 -1807 -1733 -1583 1441 464 -1763 -873 -1405 0 -1053 -660 458 -332 591 -132 414 1937 48 1433 1233 -852 -1880 -764 -2026 -1627 -1491 -593 -555 -749 632 396 -778 -563 332 1293 1351 542 2121 741 -248 2818 2341 -1012 -957 -1118 -361 -247 218 281 218 902 -3136 -1585 2471 -2064 -82 2604 -1353 -1379 236 -1194 4492 3046 -1924 1620 2085 137 879 2350 -1675 -1184 533 -1247 -972 -96 1084 1425 -189 585 -1064 -41 1085 -1005 596 -206 -1433 -645 -990 429 -861 -499 379 -245 86 -118 410 931 754 1547 -99 -191 -130 -677 92 -857 -806 2030 1535 -456 562 -1740 1732 231 -1659 -1582 -2012 -1463 -1447 -588 -22 1075 787 -689 -655 -39 1614 347 -401 1423 -783 -1619 -976 -244 -2181 -1714 746 -1175 -1332 80 -820 -1026 -2954 -1270 -2281 -2272 -67 -836 -168 -838 -509 645 -525 -1399 -1636 -2721 -1719 -214 -1646 -1071 -1832 -1194 -54 -1189 -469 -228 -2053 -1467 -2377 -2 -1958 -1378 -505 -1716 51 -1071 -910 -540 168 -273 1390 -1 -1358 -100 519 -2416 -1271 -842 -994 306 1083 547 -567 748 -300 -2336 326 1778 486 -1864 -1154 -1419 -1600 -2077 -2738 2665 3287 989 -375 804 376 736 -602 -334 2572 1904 -578 1533 1062 -1786 3736 1574 -2063 -289 -1163 -91 -687 -1907 627 -1029 -252 2367 -1084 -1398 627 -1584 -2520 -454 -320 -184 -1657 -229 1045 1793 -571 -288 974 449 -630 258 1060 396 30 353 -200 -757 -2291 -1444 -1664 669 520 -1074 -143 -818 734 -272 -908 300 1707 -111 -2253 2081 1862 451 -634 432 -793 -674 -69 835 -1475 77 563 -2532 -753 788 64 1182 822 -172 752 -1261 -1621 341 1774 1477 422 -624 -1366 -2423 498 -527 -1380 -1766 1266 -18 -308 961 65 -788 1171 878 -472 247 -420 885 -111 -1005 -27 29 347 -1045 147 832 -863 -1850 656 272 -2104 -875 302 -1482 35 404 109 -734 -340 1129 -295 -1400 1728 3864 2450 -839 -1254 1999 3130 -1174 387 -301 -2195 -138 -1121 -4449 -2192 592 -4879 -4965 848 3672 1189 190 1158 1483 -53 -573 1167 458 -1006 -729 1933 -896 -1478 2901 2448 559 -191 1394 390 -1151 -193 -1279 -999 438 356 62 1487 1284 -1834 98 1182 1340 636 1174 -807 -80 467 846 -1748 -1512 1721 386 -1364 206 362 -113 -540 -538 969 -580 -1389 -2611 -125 -434 -411 2946 1609 -2059 -984 -151 -2793 68 908 3607 -263 -796 2446 -10 -2333 -576 62 970 -363 -197 1376 1194 -1020 -201 -1581 548 -2311 888 -2073 -975 2637 -1842 -406 374 -385 -784 -1438 727 762 -2020 1320 164 -2223 -752 2218 1195 963 1063 -755 -2758 -1159 -3154 -957 181 -763 24 257 208 -185 -249 -157 1242 336 1651 -2665 -1599 -542 -2450 -1549 605 600 -338 1377 -1853 -2127 1085 -336 -2960 -692 -720 1262 1027 -382 1148 -27 2108 1899 289 932 -1544 554 -162 -1760 -1209 1464 -647 -2719 1118 -1658 -1636 -429 -3470 -2448 987 -913 -691 -1284 -10 199 -697 -497 -1132 -610 710 -377 619 255 -100 -239 1015 -145 143 1240 -540 -217 -1773 84 308 -2514 605 -1278 -3003 -572 648 -95 -385 -363 -2492 -1993 -203 -1338 -4680 -564 -793 1286 -89 -367 1060 527 413 1298 -805 623 846 -726 -711 -412 -1534 -1257 -560 19 -38 -1873 -169 1183 1516 -1820 285 1860 532 -900 -732 199 -36 -1080 -1044 -808 298 -1466 -727 657 -78 -362 1384 -417 1655 2761 -2116 -205 1891 -2424 -2723 998 968 -1530 -1281 -196 289 698 -977 -1562 1232 -359 -1148 -322 510 -2293 -2515 1513 -1158 -2924 147 676 -2567 863 469 718 449 -1293 -1451 667 1048 -1220 -356 -1106 -363 1223 -1265 -1014 3279 730 -979 -263 -1289 -1260 -859 -539 -1473 -249 -1076 -1117 -421 1054 -1084 -933 345 1930 -1996 -2026 2449 -118 432 1267 -3190 -1818 1526 494 -639 151 2435 -654 -4528 -307 1882 -3218 -1356 2518 -2116 -7 -1654 -1040 558 -706 -2146 -953 -746 -1292 780 1177 3486 795 2238 4274 1084 -128 4293 -548 240 1350 -273 -2154 -1150 2080 335 -1257 -1211 -1439 -1415 -658 -1446 -1695 732 -1432 -2808 516 1218 1099 16 -1965 96 -457 -1366 -1461 -995 1034 3065 -3152 -1537 1646 -1741 -2000 -2064 -2483 -1060 1224 -2280 -2972 -152 -296 -1898 -904 411 296 0 1226 91 -328 147 -386 -734 -328 250 -201 -68 231 -739 502 893 297 -1417 -2752 -487 1188 -2716 -3214 2734 3193 145 -1369 -726 187 -19 -3305 -2072 676 -2751 -4428 -1054 -918 1012 -938 -2084 -460 559 -1323 -574 -1251 -1013 894 950 698 60 1304 -621 508 -375 51 486 -109 -880 -144 1174 -1183 -2874 -585 -233 -2025 988 3738 5 -1332 1304 -1355 -3 1015 1714 -584 349 3173 -362 -1548 -1204 -647 -481 3 -864 2402 -1774 -2616 117 -333 3745 2620 643 2965 5480 2912 -81 -544 137 -207 250 77 -815 -375 287 -2533 -968 1067 -452 630 2768 -1542 -498 2083 -1160 -1693 523 -595 34 404 111 957 1450 -2450 -1267 -618 -30 -89 -2094 746 1019 -1265 594 1463 898 911 -298 960 -256 -1380 833 -2318 -2690 259 -588 164 1474 -817 -2189 -229 171 -2391 -3415 -1346 -1500 -1351 -69 809 -755 -545 1543 -510 -1575 -1118 -1148 -463 -1834 -2248 1389 -69 -2308 -530 5 77 -956 -2020 -718 684 728 -556 -759 -246 -457 -1404 -861 -2322 -1836 -1237 -1035 -301 -2339 -2046 1365 -2259 -2230 1115 -620 -853 1384 1426 254 407 -382 -1075 1534 1087 -1136 -763 -1686 -770 -1166 -1496 755 -1231 -2130 -1122 393 -193 -429 -119 -1334 1133 790 -430 860 -301 -1617 123 -762 326 2175 2021 -426 -616 -232 -2531 1314 -175 -1931 58 -398 483 173 677 -42 -1854 -138 1543 -1389 -283 23 818 1269 136 360 611 -550 -1334 581 -1174 -1630 937 -561 -205 790 -114 -237 -1104 116 -974 250 -2352 -1262 3932 1540 -758 1433 4487 3291 356 -968 -1016 -1277 -2240 1153 -464 -3306 343 -553 1731 1958 -1772 -734 3158 -1946 -1907 1565 903 -148 -410 -249 -887 282 -955 -513 802 -591 721 -390 -1669 -180 3214 871 -190 -844 -146 -255 393 712 -879 -543 -327 -4 -533 -675 229 3308 -2403 -3015 308 -1918 -3143 -2581 258 1162 849 -246 2045 1634 -1548 301 2527 -18 -329 -645 -625 -567 -353 611 182 -1135 269 16 -1093 -1248 -1 827 -326 180 -1354 -775 722 612 -552 -190 286 1740 1325 146 778 188 -135 1446 2788 -801 -79 3556 1415 -257 -13 1515 -42 -604 -89 -1124 -2008 -1213 1630 2530 -1743 941 -1547 -1305 -906 -1779 -2032 -735 1278 1323 -1675 -677 3163 -1109 -2530 199 -10 -1650 -1429 188 1384 -1315 -1274 132 44 -98 -548 431 97 -1078 -3175 1814 1236 -1908 -1024 -874 1322 435 -1918 -365 2356 -497 -1921 -320 -760 -99 756 596 -1164 -397 -65 -241 -752 -735 -548 65 -1266 -740 -441 -1524 -1661 -942 -1535 890 0 -159 -367 2430 1600 2580 -1015 -197 3764 -2437 -1403 1263 -1411 -1904 3098 -237 -1431 -845 -1539 -3531 -1669 202 -1874 -1214 -541 -1449 -2071 538 -104 -1493 65 653 -1028 -472 693 1023 302 -259 -1383 1784 70 -963 -1060 -1052 242 -891 -1313 231 1199 282 -191 -89 645 1180 -16 -109 99 -965 2490 3545 -248 -2097 -3887 905 483 -2140 -2085 -502 285 3587 1543 -736 789 1258 628 -768 -416 1276 -7 -1574 -269 944 -1113 -1394 1901 541 231 -612 2396 -245 43 2181 -741 2019 3819 -696 446 -156 2584 -931 283 2582 -845 -1553 -1038 433 -401 -938 575 -681 -788 665 563 -453 1667 396 1244 77 -1004 1056 336 -398 646 -800 -1465 1460 1049 -2440 769 514 -3999 -4407 38 126 -929 610 -251 -38 2037 369 106 822 894 -1816 1175 1249 -710 1748 2374 55 -2278 1105 3281 -2945 -2201 1823 -980 -3675 -3782 62 -1309 -787 -656 -1699 1105 -48 -2648 -752 565 -41 -2316 431 492 -1035 -89 -37 -327 43 276 -17 981 -158 -645 -319 -490 417 -168 -484 693 -605 -1300 451 -1189 61 -1051 768 -174 1115 269 -824 648 -1022 -1374 -487 -1221 -568 640 -396 -1447 -2599 -920 95 -791 -1307 -317 -227 541 -1315 2837 2402 1000 -616 481 -862 -1189 892 -443 -1053 1861 1091 -326 -2658 -688 1476 -1762 -1599 -1070 -2575 -1637 -1156 -817 -80 1499 -759 202 -134 -956 413 0 551 389 -289 -461 1393 -1728 -160 27 6705 51 -378 -456 415 19 -283 519 -53 -1240 1196 779 758 -1166 -1550 -18 -2160 -1600 64 1040 572 -651 289 166 -1353 -1805 505 1932 -661 -321 90 1011 -779 390 1376 -908 -1181 -9 528 -128 396 -532 -638 1194 -159 -272 502 -291 -1282 506 -513 -1713 1434 1000 -1043 1889 464 1696 -1072 3437 2368 -2611 -2631 2552 -1119 -917 -1966 -1815 -150 153 -1419 -899 2079 18 2176 2711 -1973 70 1465 -2874 -3761 -195 825 -2810 -2109 507 -1594 -95 1953 -3794 -4190 -137 -53 -622 -486 -766 -863 -684 -288 3690 -903 1225 2672 -2174 -709 4948 -1826 -4269 1392 -645 -830 -572 -849 1262 2476 -754 -387 1667 -1724 -977 -337 -1535 -1888 289 -1640 -2147 975 2009 2488 3840 303 -1054 4341 4036 637 1342 1366 -526 -1985 2109 878 205 413 -49 938 1604 201 -522 1441 388 -952 1484 1660 -283 113 -729 -1283 -340 271 1062 -184 228 276 -1247 1613 2029 -1144 -1250 2412 1015 -2686 -1479 1167 -190 -2575 -1412 233 3659 -1959 -2968 436 -764 39 1096 -1225 -447 1399 24 -752 262 602 -681 -2015 476 -560 -1213 497 -96 -781 590 1737 140 512 2010 356 738 2455 2918 -847 -94 122 943 -425 -1407 589 945 142 399 -831 -1326 -587 264 -1310 -2751 -1795 1485 -2057 -3659 -3676 2263 605 -1482 2675 1795 1743 827 771 -2473 283 1074 782 -893 -1481 1182 -573 456 559 -163 2 -578 562 362 -266 -1754 -3168 627 -767 -4939 -3200 571 -2594 -4491 139 691 1312 -380 -1234 357 -464 -895 -306 -100 285 -2081 3465 290 -5113 -194 3515 1562 1612 -1310 72 420 967 974 398 171 498 -228 -1076 -1465 -1639 1107 -882 -2246 55 179 -717 391 -1161 1068 1347 438 3154 1190 -1028 895 -541 -1064 91 -703 -848 -731 -374 -114 287 162 1076 -450 -114 165 101 59 -288 -556 -604 1759 -1511 -41 -474 -1437 -56 -156 -303 -362 -320 -1390 -1911 -36 326 193 333 1102 810 1431 33 -1342 620 251 -1183 -162 -260 662 75 -1448 2950 501 -3598 -2300 2012 1208 -957 271 531 -816 344 573 8 -11 -1897 -2398 1113 596 -1628 -1118 486 -776 -2179 873 -1266 -1658 267 -1524 -2409 1469 -1120 -2344 4413 3425 772 810 2805 -637 -671 3157 493 565 -1767 -2483 354 -1873 -886 307 -1394 131 1550 462 -860 -1928 -2828 -3342 -401 -2448 -3525 1139 5206 1589 -3357 2289 3762 -1422 -3099 -1436 1221 -1262 -2485 2136 59 -2618 1194 -1166 -3977 -132 -2141 -2773 261 -958 -3662 1124 -1028 -2298 51 349 1538 -195 -655 261 -469 -1188 -1795 440 685 -123 1012 816 447 -374 -203 -542 -2273 -1048 84 341 -729 -988 3150 -98 -2281 -330 -1456 -555 377 -663 -873 2297 -546 -1226 177 -1837 -1176 439 442 141 216 -1879 -503 1049 759 -86 2650 1581 -717 -389 1352 406 -1282 -1544 -2546 -93 -1012 -1859 1612 631 -38 -333 -1591 -513 2167 -1770 -2024 3899 2698 1586 629 -323 216 1020 -355 2117 -492 -1088 432 -1748 -1955 -2542 -127 -706 -2461 -23 -794 176 471 594 1648 -658 -861 1930 -937 -1384 776 412 -364 -1289 1148 142 -1087 745 -34 -701 360 615 331 -160 -115 1219 -588 -1978 -944 -1955 -1840 -1272 1251 847 1838 2046 1314 3859 -2045 -2036 452 93 -271 1012 -1201 -501 513 2436 94 -1282 1227 644 2127 -969 -2252 963 1415 -769 -3129 -470 -1490 -3004 1793 -171 -469 209 -1406 -2951 1052 -289 -2062 1282 1994 1267 -509 -616 330 1684 1206 -1728 60 2220 -82 -965 -970 -433 -224 -1699 -3993 89 -2934 -1807 1512 -882 1199 336 -905 88 3653 1174 -2463 612 698 -482 899 1430 -631 916 1800 -65 2002 -2013 1814 2352 -1537 -3666 3904 3086 -4761 74 209 -744 1417 1054 48 -763 -59 89 361 614 1443 838 474 -2160 -720 17 215 -825 163 919 -223 -449 1150 1130 -641 368 946 -348 -87 1002 -1597 -1116 322 -346 -1371 -127 -169 -1619 1001 280 -1373 861 1202 -279 -1086 -1328 295 -3864 -1639 1729 -3669 -2065 2254 1059 280 1377 -247 -370 -1886 630 -2695 -1537 646 2325 1950 -2725 -2644 -713 -1625 -4557 -5025 -1059 398 943 -1599 274 -907 -477 -116 -1094 -2493 -1386 -547 78 -468 618 2073 2312 1339 2781 -148 -1742 1702 1291 -331 -560 -405 781 -452 149 12 -2455 459 669 -1409 -116 88 1203 1185 1692 -820 -1657 386 369 -1135 -378 298 38 589 168 263 128 -1769 -610 205 1328 -645 353 1917 -799 -589 2227 2476 -190 65 442 800 27 -2065 -2881 1584 690 -1761 -217 -282 -841 1259 -270 -14 650 3092 3535 -366 -1880 -1846 -301 -1393 536 -371 -1427 -927 -294 -1214 -1063 -494 -2023 -1324 829 1226 -1324 -503 -170 -559 -336 972 -639 -556 427 1238 -284 -2095 -3118 2116 2931 -1374 346 1031 501 -1327 26 -320 -161 -227 -181 354 -1142 -1324 318 -628 -485 1226 -775 -536 1812 672 1521 114 -768 514 665 -563 -721 1064 898 -533 570 -54 -1344 366 477 -3308 -117 484 -914 355 1139 1232 -156 1977 1925 -537 812 755 924 -55 -2630 -399 3233 -2425 -771 2248 4308 -1482 -1167 -70 -1586 -589 302 -433 -236 -869 568 574 -562 21 1312 416 -195 -756 -969 7 -138 -413 -1214 -711 234 -1428 -735 -795 -998 -1771 -1176 969 -1265 -1037 2472 46 426 -774 -280 -1282 -534 -1119 -1162 -504 -480 -1098 -254 1599 1487 -638 -726 1287 791 -1895 -1981 -320 141 -649 -858 172 -154 -1944 -840 559 -407 497 -3323 -2670 3365 1876 -407 2927 6191 1192 201 -2041 2079 310 -3418 1431 1485 -1082 602 425 279 -1097 -1663 1066 -679 -2060 -1011 393 -390 -1910 -483 156 -1197 -2737 583 -646 2307 185 3431 1251 2541 506 660 4411 2834 612 1273 3113 -1909 -3163 1976 -623 -3839 -2148 -316 -1085 1256 1416 161 -1032 -898 2070 2981 -17 874 1431 562 -387 -135 355 -711 -398 -682 -2084 -660 -1383 -120 -574 -776 3155 412 229 -231 -810 791 1767 542 -421 504 1497 -1808 -2307 -1397 -7 -720 1012 1055 840 1159 622 18 672 981 -1153 -2036 459 -269 -1163 -462 494 512 16 1203 645 -806 -71 1300 63 -1515 -429 854 -504 74 553 985 827 -890 -1275 1984 356 128 2413 -880 -855 760 -2490 -2504 -832 -329 -271 864 1383 1172 1345 -407 -504 -1383 -408 -202 -764 -339 294 -152 -42 235 -78 -1396 -1518 -1475 -456 149 -320 1348 -779 -1668 2162 920 -42 576 -73 -1241 -220 318 -293 457 236 -753 -495 -157 -450 1464 -43 3433 -657 -830 4210 -799 522 2902 -1728 -2221 103 1432 1341 348 801 943 169 -83 989 -424 819 1746 -417 -296 1323 437 -2242 -865 2558 -1383 -1067 1506 -1431 -1239 1205 413 -218 -729 1155 327 -277 865 -21 -433 -778 -970 -1205 822 647 -616 2384 1731 179 -389 -1257 -1646 1307 -866 -2344 1439 -942 -3085 -3691 1042 9970 -5503 1758 15077 -7138 -1771 7038 -893 -1858 45 -1229 -472 1612 -345 -2699 1336 284 708 -1366 -336 -181 -1602 -629 -889 -1941 -277 392 77 -186 -569 -868 440 319 -713 998 1380 1984 665 1209 1835 -21 846 635 1019 2304 639 264 1884 46 216 988 -87 -68 -193 -758 1066 1324 -733 -348 958 -1631 2060 664 -2879 6003 1045 -6190 1195 -123 -3871 128 -118 795 -143 -342 953 130 568 1808 750 -1997 -2244 1553 -989 -482 50 -1231 152 -319 -700 -1541 -1386 -849 -1690 1696 593 -731 -2190 -1024 -783 -981 -666 224 -51 -264 -1223 3108 -162 3769 7556 4457 5582 5116 283 -2007 1238 394 91 831 217 -696 -2330 -2052 -1047 -781 -1006 117 -1977 -1891 -1183 -3291 -2317 -713 3886 -116 -3419 2261 -919 -4770 262 -1458 -4100 -335 -580 -5947 -4866 -3740 -9472 -1932 -472 -5325 720 96 -1060 -1751 -1658 589 -1823 -1628 -1641 -1865 -1091 668 -1775 -755 -309 -220 129 -41 -393 -859 -936 518 186 -1119 362 376 -1333 348 647 -4 111 511 -119 -1283 -504 272 -961 47 -99 -269 149 953 441 1106 1202 1401 102 286 -662 -405 949 -449 742 940 -650 557 826 -737 -692 -188 -382 -391 222 145 -106 -619 382 666 -230 364 338 -4 -1131 -576 -1340 -579 -537 -786 -1295 -1443 -596 966 -604 -2306 63 -538 -580 568 824 1202 -1336 14 567 -465 -858 51 1012 243 1693 -1853 -3 673 -200 675 -1021 216 277 -820 743 773 -1016 -60 541 -723 -48 302 -207 -363 -843 1640 1130 208 2016 994 292 1504 431 201 67 396 109 -593 182 422 -494 22 720 -789 -398 31 -1093 949 999 -96 416 1031 -677 1276 470 -1885 557 -175 -2082 -4606 -4629 986 -1392 -236 1000 1176 785 -895 -392 266 1591 -1682 -548 814 -1315 697 771 -581 -279 100 -1406 -684 1656 -2748 -1192 2587 -582 -1033 -262 -23 -1025 378 -472 -1355 -745 -4984 -1371 -2178 -1895 -923 -3379 1867 -784 -2916 1257 -139 520 496 -159 287 1182 15 -1062 -552 646 1565 -915 566 2398 441 513 864 40 -271 -888 427 -34 -177 338 540 -701 -58 965 38 -844 195 202 -1904 -769 675 -863 -742 -284 738 400 -527 28 -28 -411 656 -718 -2328 1032 144 -387 880 319 -182 -7 451 -1484 798 1040 -1712 -219 867 -1059 -215 -870 1982 2176 -264 257 3183 899 -287 1244 1258 150 634 355 -333 1546 229 1070 -703 -1248 -1712 207 -118 -899 187 429 -83 -749 -378 -321 1097 -187 -1344 887 907 -803 776 -261 -1001 1374 1452 351 1289 1006 741 3621 2 -5243 3523 -4047 -10345 2684 -2657 -8766 9 -725 -46 -64 -613 1264 507 849 1408 -1479 -4282 -1395 -2206 -2480 -656 -2847 -2284 -135 1475 -1579 4298 3926 1029 6197 891 1368 3387 -396 435 920 -348 -276 1033 663 254 216 -751 -1381 -1697 339 -1278 -212 101 -837 222 -626 -221 -497 569 284 -94 884 706 -206 -1192 -174 -1163 -611 805 -330 244 1387 9 796 427 -102 696 748 -348 822 1570 -183 -515 -501 -1647 -81 -173 -1091 946 521 -452 -119 -459 -247 38 -535 802 -1191 -761 -569 -1588 205 518 -595 622 1159 -1247 622 820 -512 -931 -1355 401 195 -232 -598 -978 -62 -350 549 1132 54 628 -780 -50 -448 -1456 -1384 -1543 -268 -1160 -935 -63 988 1254 1396 542 610 -65 484 1328 599 -457 51 -1188 297 -239 78 -90 205 863 -276 418 118 345 313 1200 836 78 311 1442 1144 529 -32 -385 -886 -734 -914 -716 108 -190 -1570 261 819 -1135 -215 1340 -41 -419 528 -190 -305 26 175 2235 453 -634 332 -1374 -1450 440 141 -736 529 198 -1713 1489 715 -492 -3198 -2206 -1460 -2403 -1985 -975 125 -45 550 -618 -95 -546 -1567 524 1246 -457 -509 -193 -1154 -2581 677 -750 -1504 929 -1118 -1043 1944 -2469 -1505 857 -617 -161 -8 -1161 -1039 -1530 -230 -1342 -1778 1225 773 567 1071 844 823 151 -368 -1181 -556 -25 178 -1806 -807 -38 1678 1535 -1419 1404 -383 -513 1357 396 360 -2817 -878 2351 -1719 23 3098 -3869 -2042 634 104 -803 1060 176 -865 59 716 72 -218 -74 627 1272 -214 738 262 459 850 -84 -1749 -1116 -24 -1412 -381 -757 -994 845 -275 1175 828 1810 -601 -802 1592 -1438 -1179 501 2133 320 -1243 2912 1824 -525 626 393 565 -1270 -254 -1009 138 650 646 2857 1256 -754 -60 -224 -1738 -458 -1337 3215 -1308 -332 3290 1328 167 -215 49 296 749 -149 138 669 3 348 -224 483 1779 1437 19 -762 -1153 452 182 -833 377 124 -441 603 810 -209 129 363 495 -615 -243 74 -253 -293 -257 -1445 11 -477 -665 334 1283 -1454 -675 67 488 263 -1447 1072 675 11 -42 652 1370 1336 -917 2034 -1067 -2698 3859 -1299 -2695 -2187 63 -326 1389 90 -840 1068 -1944 -3119 -2401 -356 251 207 937 664 24 -420 -19 -508 -1368 -1518 -33 -367 106 632 -90 -44 -206 -2073 -2007 -1392 -102 -289 -501 998 794 350 -135 635 -2446 -306 1073 -2853 -742 707 -2362 -633 -449 -848 -1493 -410 -337 -2069 -1089 -878 -163 30 -2561 235 -923 -1252 -609 -1806 -2093 -535 -1197 1492 1073 222 2086 -1515 -1894 -97 256 999 444 489 1666 552 870 1547 744 -250 -629 -2204 -1092 -1091 -2536 -1995 -1475 -1839 -2704 -586 -705 -2087 -873 -95 -1866 -999 -362 433 622 -182 -605 -453 -615 -1124 88 965 -422 -215 -141 273 -1225 -1079 1744 370 1331 -702 676 -562 346 706 1551 651 1220 1955 758 698 -237 1201 597 205 -533 -283 -383 -1381 -777 -59 -118 -99 -419 -74 1259 -401 2779 1756 -2407 2289 43 -3365 -693 -2405 -4829 -1113 -735 -1146 -1716 -674 173 -1040 595 2026 -891 848 1859 -1306 319 1015 -648 239 95 -1079 -705 -560 -412 -635 -1211 586 137 -339 477 60 -1092 2023 1750 -212 1104 1287 790 -1276 -1181 628 -742 -1353 793 -358 -848 362 490 576 329 39 -302 -25 1085 -2 8 -169 -11 566 -161 228 -230 10 -38 -2411 -1101 -743 -622 -995 -316 767 -684 126 1719 -959 -304 -1216 -942 385 405 -17 1407 -210 260 -415 -1553 -109 -230 505 28 365 -100 450 60 2219 790 -1121 -2350 45 -1004 -1143 -1427 -1380 -872 -753 -563 -312 744 273 -454 -494 -194 -1151 -96 453 -1985 752 556 -2001 334 1591 1179 903 1005 -699 -279 -1245 -2596 -2108 -794 -279 -685 163 988 -81 295 1725 -446 -757 -294 126 -110 463 307 519 1096 314 -1027 -1110 995 -328 48 709 415 -707 116 -463 179 788 617 1098 369 1215 566 -1093 39 973 -1145 -348 -711 -1730 -778 -300 1292 -451 1660 1076 -165 2235 -1146 -2141 -768 387 -171 -84 -619 -62 -805 892 673 536 -449 -744 -223 -816 -284 277 -920 224 158 -639 -212 384 -1631 -1774 -328 -2680 -2679 590 229 -1226 -32 753 -381 1169 878 -287 652 -1132 -380 -645 -791 44 -320 90 470 661 1712 734 -382 997 -40 614 3496 1852 2269 138 -380 -1520 154 450 -76 1059 737 -33 431 63 -576 689 646 337 127 219 184 463 192 -68 2108 2238 -633 1300 2237 168 137 63 211 1375 2189 1197 1043 1866 1274 -439 -2143 -1363 347 836 324 1392 716 -506 49 209 -1139 -75 216 -1280 810 404 -105 -592 -17 -663 -96 312 286 295 1079 446 2443 1498 1634 4077 2624 2979 528 -229 91 800 261 30 812 148 197 1475 880 859 1331 1962 571 533 1176 -307 -894 -515 -445 1585 508 -4403 2398 1245 -3009 1618 2091 -303 -118 -1012 487 1853 1150 1010 -456 458 -209 43 898 132 656 1399 1 -125 82 -594 472 72 -2383 1389 -897 -3398 2194 -1823 -2062 -975 179 -1070 755 -259 -272 2117 551 -424 -55 123 2 1037 1216 726 404 -287 -1349 2110 1617 -881 3023 1583 136 379 -694 -2598 -26 914 1639 1578 1882 -567 -1504 -1206 -1695 -2453 262 -3045 -1657 493 -1842 -995 733 -1245 574 -290 -377 500 -298 -21 660 542 645 -333 -221 -535 -76 419 580 237 590 295 101 574 -1024 6 466 -651 -1235 -1320 -1538 -1380 -1992 -1906 -423 -389 194 -844 -246 -972 -636 -178 560 170 78 -100 -329 -410 202 -668 -494 -899 -205 727 1213 -1469 1067 1356 698 29 -683 901 48 -829 1217 601 -1248 -2215 -1600 -1820 -2420 -2015 -890 -1106 -390 1315 -1160 215 5757 -3333 -1190 6380 -7678 -7285 -909 -1403 -1903 -1854 -1179 -1610 5216 -1483 77 4070 385 199 183 99 154 223 -184 291 -16 4956 1561 -2110 8863 3271 -3939 6592 339 -4893 98 -578 -2426 -999 -478 -2521 -1656 -1447 -730 -649 -1052 1923 -1747 -2088 2357 -2101 -183 2003 524 1810 37 -326 950 354 -782 394 -1516 1589 1499 1315 -364 -606 -317 55 -355 -651 427 204 -935 -500 212 490 -296 481 560 116 2668 8348 -2365 1932 7482 -6106 -3085 357 -355 548 -485 -768 -277 -336 -201 -33 -252 -975 -939 -548 -373 -822 -1558 1843 693 -952 -820 -102 334 90 731 1127 -1021 691 363 -1807 -1718 -1610 -991 123 839 -2114 -72 1066 1128 1678 -372 1496 69 -4095 1026 -1160 -4417 554 826 4 -544 -98 134 -1135 450 1652 39 -140 -338 570 307 328 1519 1079 1172 259 230 -1544 114 770 205 -251 781 1061 -254 982 558 -907 121 -675 -373 231 18 717 -28 -211 868 -433 27 544 32 132 -249 -1525 -1333 360 -1295 -1240 944 -266 924 -1276 562 742 -904 645 1331 -247 155 150 -1101 -1721 32 843 -71 1044 -1241 -1516 459 -112 132 -526 292 150 -971 -579 -1118 -1198 192 95 -1489 -69 80 -412 1428 1207 219 -471 546 -1164 898 477 -320 1835 1494 15 71 -1639 737 -462 -1556 1416 -17 -630 1679 170 663 254 -1541 -2216 -878 -2492 -2005 -1630 -336 -931 -740 814 677 -451 -655 -1471 -1749 -181 1060 445 1461 2324 -288 887 563 -2751 876 -452 -962 368 -527 -544 -199 -937 -673 -1011 -805 -1110 -69 927 470 755 1937 1353 84 -335 -505 734 -96 385 1294 661 -361 150 1171 -408 80 -848 -891 -470 -1461 -1980 -773 -478 -297 -47 316 191 -398 947 572 2051 -2442 -6281 7457 -1916 -7750 6465 -2275 -7935 -1543 -205 1499 -2375 -1793 -1110 2099 133 -536 -2439 -3016 -2024 -2038 -2120 -1909 -1466 -381 738 -1523 -633 183 329 510 971 50 -320 -1027 75 -199 248 543 836 546 408 902 134 -586 -965 85 2760 1713 -5 -1110 -864 -805 -1248 -429 -923 -1600 169 450 -1500 83 -306 983 715 -845 2084 1787 -521 1071 953 -365 -1176 -200 24 -1264 -60 924 53 1323 1003 -382 -58 655 -715 567 916 -146 1008 734 1988 1341 52 2506 1045 462 2164 1364 2093 -2298 1396 10000 -2554 382 4035 -1787 -1713 -167 -994 -1092 -1725 -2012 -1805 -1242 -1582 -812 762 -664 760 -203 -2192 -1105 -599 225 206 639 -759 -1106 -378 940 -11 -1341 349 485 -1171 887 267 -892 -485 -1517 -1277 763 549 -881 -376 -131 -627 -121 438 -195 -38 1065 1025 -1986 -1668 891 -459 18 1874 -344 -860 -116 -332 744 1034 -1322 -340 235 -854 -102 -110 -1229 29 415 -201 568 871 -292 -318 -771 -1455 -1579 -1283 -1471 -274 -994 -746 -337 -322 -3185 -3664 -3990 -4383 -3433 -3565 -3564 -1723 -2949 -420 -274 -83 -1026 -1134 -536 -481 -245 882 -1202 -834 -1610 1832 1151 5 81 319 -628 -370 513 241 -706 -311 145 623 1259 800 -284 119 967 578 -31 124 -134 -439 -193 -438 -190 -821 484 277 -743 -431 -352 -411 1086 -24 -1667 351 -936 -2200 1176 611 -226 -1078 -524 -719 -542 -1470 -839 -112 -938 -745 2675 1267 -704 3909 1203 -1750 1341 533 -1699 -832 -445 90 118 477 207 733 623 -660 -598 1016 1309 -355 711 1775 -1956 -1145 657 1219 364 2226 3740 1377 1438 44 -2149 -1134 -1185 -1799 -4011 -1804 -1144 -1334 -970 -579 622 -778 -1800 3630 1832 196 2956 1796 138 -189 -1285 1329 1009 -2806 -2281 -1895 80 861 -402 -1045 -92 247 -810 197 -161 -889 -578 -1041 -631 -395 -1802 124 697 -1673 0 1208 -1126 -247 39 1876 773 368 -505 -993 -905 -959 -940 -536 3114 -1244 -77 2685 -2230 -688 254 -381 823 508 -879 1249 946 700 328 -1163 -1032 -126 -166 1088 766 540 -267 -745 -748 -189 -903 -1178 -1250 -769 -468 198 585 657 1717 572 2636 128 -3530 959 -1611 -2398 1445 -1711 -1207 -1296 -778 204 1087 -1727 -1630 -138 556 -44 -1618 494 -690 -1748 1307 767 -427 188 375 1116 639 -2222 687 842 658 555 -245 -541 -560 -2522 -1080 -219 -1491 1379 50 -440 -95 527 49 -148 674 -1494 -501 216 -1853 -1631 -344 -564 -452 581 -1296 1942 1070 3856 2848 -1200 1139 -2402 -1424 -1516 -744 927 -269 -1862 439 -46 -533 -722 1329 1039 -671 -1425 -239 1750 -741 -321 175 1680 284 -655 -201 -470 -1585 -611 -132 -1493 386 245 -1715 -723 -975 -1082 -901 -2221 -1937 -1419 -2017 -1145 -1820 -749 -203 -1611 -1032 1746 -672 -89 3674 1682 212 921 -1984 -1971 1627 38 3356 2878 151 -1478 -3310 48 2253 -4590 3273 4071 -2517 394 1068 -447 1010 118 677 1767 -303 -830 -3006 -837 1629 -1945 -563 1724 -1159 -1989 -1045 -2406 -1278 275 -2667 -1972 -2213 -1377 -2001 -1140 -2214 -1108 -2101 2583 2071 -5330 454 -665 -3438 165 -142 -1289 767 -1051 -1147 892 -8 -1583 -1933 -1034 -1506 1177 -133 947 -270 2532 2309 -2926 -622 3213 -1408 -1739 2089 -2458 -1973 1720 -817 133 122 -4103 -640 -237 -2361 846 597 -436 2444 2781 -1846 -1229 1328 -487 -2782 -638 -685 -1942 -754 328 3065 -698 969 857 -396 1914 1482 -1157 206 -463 -2118 -3188 -34 829 -4605 -4775 -1866 1053 2277 -2941 2128 3393 -3211 -3449 -9754 -3349 -3838 -1344 1187 4402 2631 -2271 -2880 -2070 286 -3220 -2081 -703 784 -515 1049 3510 140 -1724 -359 -3047 -1002 487 819 1201 2335 -23 132 905 2045 -1343 -589 -664 -807 -441 -51 -3757 -29 -786 -2253 -1958 -2478 -1080 1085 -267 -67 1310 -27 -385 1181 1804 -520 -1206 -1749 -45 -1517 -541 982 -1889 -50 -377 -549 82 1049 1023 -731 1760 1508 -327 -93 -790 -3323 -1197 518 -2605 -980 32 -43 -212 235 295 549 -439 -243 -1024 785 976 -542 -577 1158 2844 -1357 -1436 475 642 127 -347 -746 -1189 -655 -252 -2271 -682 -438 -1562 -1312 1436 -430 -558 278 -1312 -840 -125 -307 -847 795 1046 -1397 98 928 480 -304 1166 491 3403 -480 -2741 2398 -3597 -3833 -127 -1885 -541 -1513 -1327 -2252 249 -846 -804 -1142 -1757 -36 751 296 -1190 -932 -1694 -514 2421 1170 -959 444 432 -48 677 -494 709 1440 815 425 -879 -250 -511 -904 -638 121 -696 -654 -1486 -621 -3217 -2252 746 -2284 -1916 -1470 -2546 -2074 -763 683 2811 -264 -1881 830 21 397 1815 -1729 -1606 738 -1215 -1321 1927 2459 421 -435 -1330 2679 1472 -849 859 3559 43 1121 2136 -1024 -1865 -1537 -1665 -1320 -350 -1518 -784 -2338 2419 3344 1101 -406 759 1104 896 -1617 -511 -733 -931 1187 -5310 -5708 1713 -2962 -3457 1825 -589 -1086 196 -1046 -1651 752 2110 438 1275 -2152 -1965 397 -1105 -1330 365 -1333 -2313 -1802 -1642 557 265 -322 1832 -1143 -2592 -2503 -96 -1293 -1735 -369 -1258 207 3675 -659 1309 161 -1715 -1117 1874 -543 547 2103 1447 965 1901 664 -321 -1460 1057 1510 313 727 837 -671 1170 -1143 -2175 -510 -287 -757 -202 2106 289 1067 916 -348 -1855 -3293 -234 -878 -942 2705 -45 628 106 -727 32 123 -281 -304 -1295 132 779 -3110 -1601 -2423 -1637 -2009 -3086 1339 642 1837 -74 -2232 -4712 877 -3079 -3058 1977 349 1386 1767 1698 1586 -759 115 -631 -3988 141 973 1755 -1062 -502 1401 -291 106 1124 -3549 -5096 3550 -2612 -2043 3899 -2224 -4060 -3793 2271 -3157 -1479 -1593 -3143 -538 199 1958 2513 567 300 -925 -90 -1857 -1303 -1005 -1186 -372 -1505 -976 -1346 -727 1530 -784 -1248 584 392 50 1171 697 -1048 -840 1206 -1325 -854 1064 -31 -46 -219 -141 1238 490 173 1161 985 1949 102 -2487 398 -2089 -3492 224 -160 409 -383 -1099 2738 -1538 -2151 1512 113 -2365 -784 496 1801 -117 108 4465 -518 1275 -1058 -2974 -2932 -1616 445 -944 -667 -1112 -452 -873 -1986 2428 4220 -1380 597 72 -869 622 -1090 709 -783 -65 -486 -120 3295 2011 -1126 698 1217 -515 169 1046 -500 -2256 1147 1023 1611 1504 910 570 -3965 -1455 1252 -168 -732 1708 1270 1599 -586 -320 -1143 -3098 -11 1175 1098 1113 -382 1374 2569 -2482 -2186 2713 -1686 -968 1123 1625 43 -858 -852 -3254 -30 40 967 1876 -713 -2930 -2036 -349 -5591 1199 -678 -3099 1705 2850 1919 -3904 979 50 -4367 -116 -1763 1838 -391 1675 -719 -1350 -163 358 710 1397 545 960 -191 -3512 -479 -1078 -2708 -907 -272 697 -1863 -2587 -2006 -1129 3608 -2364 1065 2144 -4132 941 -983 -2348 1251 2926 386 252 1197 -244 -668 -1330 -966 -1857 -2058 -1972 -1702 -867 -577 -266 -413 -576 -370 -2011 -25 261 -172 -287 -374 -2573 -155 123 -3513 -1214 97 -1112 -1635 1047 2484 -904 553 446 -4012 68 -104 -827 1538 479 483 -87 -878 -437 -1945 -1442 -1133 2586 1873 710 1148 -862 -2131 -766 -2617 -2046 1494 163 1185 300 -797 1402 -194 -130 578 1491 5315 -1042 1234 -360 -949 -1467 -120 950 332 1063 -446 -1177 152 -352 -1207 -712 -986 -147 480 -453 286 2829 -307 160 80 -1538 2150 1010 -1461 1407 2377 -293 -1418 -1504 -696 625 -2904 -2253 2296 -3292 -4604 -1930 -5915 3294 -1482 -1538 -427 1187 194 -1576 -641 -161 1562 1128 318 -2213 -74 2439 -708 826 434 -614 540 -637 -482 -211 -280 -453 1027 361 -928 -527 -2425 -342 1766 -671 -1195 1967 -314 -784 744 -1170 -471 1347 2889 -1257 -980 -517 -1470 -387 982 1109 -693 -1795 654 322 -1392 -1107 -2378 -836 1914 -2688 2031 4226 -2758 -3614 -1383 -167 -4709 794 -2304 1524 140 2871 2837 -4353 -1113 -2440 -105 413 -1768 1182 152 -1310 243 -220 337 2081 -1225 -1530 2280 -982 -11 1028 -781 1729 -107 -1033 1579 171 -2207 -1278 -1302 -2271 -1722 -329 884 573 -1074 2516 -362 -1437 870 4416 5152 -2774 -975 1429 -4183 -3093 -3153 -1390 -2058 -1652 -1219 -1071 -1784 -495 598 -2155 1417 662 -127 203 2102 1006 2892 3127 1860 1215 -292 694 273 -2290 953 902 -393 708 1819 2467 1752 3035 4328 -1207 1780 671 -671 -2629 -459 667 -1184 -226 3449 259 1023 5530 817 2128 -850 -898 145 -2028 -1306 -1723 -2088 -619 -330 -437 -20 1203 322 149 -1381 -866 -587 -2141 1290 -169 649 3539 1197 1678 -536 -178 -1284 -2227 -306 -3603 820 -1362 1166 636 -513 704 -170 -1420 -1176 3372 -458 576 1406 -1411 -13 243 -2111 202 1073 -1742 1149 1339 2163 385 -1866 980 -72 -1212 850 446 -902 1275 2159 -1878 283 -17 -2941 -3052 -4630 388 41 333 -1409 -1522 -1987 1049 267 358 1329 2172 681 64 318 -3712 2236 -131 -2752 1953 913 244 1481 -803 -908 -414 -1134 -1623 -1879 -704 791 1968 -755 388 -727 1448 893 48 -28 -2916 -654 570 -1753 -1021 1247 -1929 -1411 -694 488 -701 -1560 -330 917 -796 -449 -709 -3283 -1530 899 -809 708 -92 -452 -1629 328 -112 344 -465 -1624 -1085 -69 -442 -711 -245 1829 2896 910 -1169 -2927 -527 363 114 2169 -1743 -1126 431 -1670 -1200 2210 313 912 1565 -2436 -1913 307 1967 -981 1524 112 -1185 -777 1335 -13 -3490 1996 137 -3793 -1121 -2763 -228 1684 818 -2150 -1264 -1408 -1602 -1015 -21 -91 -954 -1185 687 -1237 -946 3473 -1226 587 1700 -822 -1349 -2787 -301 -2294 -514 -1180 -1936 1027 -1670 -1024 -1782 -2231 2584 180 -758 401 -3142 -1837 -3250 -2266 -74 -419 -3839 1125 511 -1596 -630 -736 2303 1472 4552 3480 -477 312 795 1611 -2503 -822 38 -13 5842 -564 -252 4074 -1518 -2 -422 -1273 1318 2820 400 1129 -2171 -1284 -2491 -197 145 482 2748 -215 988 1952 -88 -1375 -372 -1363 2572 -1357 1147 394 -1957 567 913 1029 -1270 -322 -423 -11 -138 -1017 9 -1100 3522 -970 1047 4479 -792 3491 1017 963 690 1205 -535 -22 790 -2633 -97 1634 -1343 -897 -709 -694 -1693 -518 -300 -1593 -580 1862 3369 -1698 3307 2959 -3036 -468 -2390 -1108 -718 -1917 -142 -617 -982 2083 -1045 -2428 524 611 10 1367 -882 -1453 -219 -1350 -174 1329 2309 1241 1279 1125 95 1073 1411 -369 787 -45 -92 -655 -1093 1118 706 -660 1221 1343 1437 1734 19 2005 1934 119 1609 1608 128 -1279 -899 -200 -439 -358 -329 153 609 230 1193 -950 -3088 2101 1017 -1577 -21 -45 1390 1281 408 -879 387 -3230 -4086 -247 -707 -2009 187 -149 -64 -3308 -198 1284 -628 519 741 -28 309 -478 -241 -111 -731 691 96 -142 749 1767 1651 -1802 539 4685 -1961 61 2477 -1353 -1991 2953 342 -1958 5678 -2795 -1673 1154 1942 151 -3291 2092 2762 -2370 -328 -2986 -1491 -2270 -7543 -4404 -2759 3159 -2440 -1083 416 -2300 -2099 -2483 -2525 1055 4282 -3044 272 455 -655 -1693 -779 -1128 202 1577 -1525 -793 942 -1927 826 -229 -1503 -801 -883 -949 569 -1081 -760 1171 782 396 -1087 -461 74 -348 585 832 -759 -1416 1128 1463 1402 -255 1164 -1558 -2714 -377 490 -3189 -932 -640 -5812 82 -545 -123 1077 753 767 -1154 -3640 1704 -179 167 1601 3208 5710 34 -377 3843 527 -455 -841 449 2600 1018 2187 -283 -970 1970 140 2374 1428 -1224 1314 3651 -3493 -4642 1757 -5378 -6525 -909 2888 -3547 -6408 1550 -2172 4234 -852 3493 7963 771 1167 -2054 1947 4805 -5600 2559 -3115 -7074 -1825 -2712 -28 166 -2094 2688 37 -380 2306 425 -631 305 -864 -1088 -1766 1151 563 356 425 2469 97 -3034 -41 -2293 -1170 482 -980 -575 -271 -740 951 66 1679 -515 -2329 679 -307 1089 -164 722 3025 -3065 -480 -2609 -1024 -1663 917 273 -1813 668 734 -1553 508 -482 334 905 607 -29 -1334 1325 -44 -444 -12 -1073 -1267 -185 -2134 -1216 34 -98 1205 1649 -115 1157 830 -1377 684 1147 -2032 78 1400 4199 2248 -3530 3101 -1314 -2688 348 -631 2165 -2257 -1091 -2588 -1619 -16 -2597 -436 -57 -1943 -1050 -1671 -181 -1265 -1570 -94 741 1321 -1197 645 -1767 -220 5566 743 -2096 5915 2533 -2389 -1433 -979 736 727 -859 680 1727 1017 -1 -445 1226 439 -1211 774 205 -338 -131 371 615 -833 2500 -1414 -2320 2441 81 1210 1310 -402 -1051 -408 562 -91 -627 1130 -5 -1926 -1313 -570 -786 -980 -195 -426 1201 1239 -1012 718 -207 -306 -1175 -2505 1435 -513 1621 4736 -14 1743 1425 -2468 -168 2870 -1004 3973 1637 2993 2209 1687 -1159 -3707 -1754 -4597 -2300 956 857 -667 -1291 2564 -948 1868 -755 -1568 196 -672 328 -676 1088 -913 -1502 52 -846 -1446 436 -1387 26 -501 -887 1136 1685 155 -1786 -940 -3400 -4019 -302 -2166 -778 -467 -1631 3130 618 2756 -1487 1052 -838 -289 4 -914 315 -2184 -2109 -1270 520 -429 -2352 2374 785 -1208 3187 -110 -2920 4758 633 -3095 1775 -1934 -2649 169 856 -915 675 240 682 -1997 -1451 944 -211 -804 -336 -1621 -2121 1100 2567 3747 -149 942 1041 -569 -40 1645 892 1453 2916 -278 1561 1012 172 1171 -723 -116 -231 -207 1439 -624 545 -580 1042 812 -1188 178 -1176 -1883 1368 1957 -1096 -1508 -4052 -3654 2094 -822 -1062 1603 1371 552 43 968 2211 -1724 -3424 566 1449 -1551 -3737 -72 -2899 -2326 1325 579 1748 539 -2662 -2205 2130 -1035 -1783 667 -1788 -1371 -2119 -2598 -128 -730 -1862 723 2097 916 790 1633 -84 -3480 3291 424 -6063 995 -597 -3575 -410 -2826 -867 -133 1222 -581 293 923 1232 331 993 1226 -1369 -428 -712 -1684 -182 54 -2857 -342 687 338 265 -58 395 372 -589 458 848 3233 -1079 -3376 2362 2215 2746 2428 5 152 531 991 498 1520 106 -544 -2594 517 -436 -1242 3396 3884 -4297 -999 -1045 -2926 446 -538 485 1238 -307 2954 1518 1752 342 3711 2227 2146 -3014 -4618 3139 103 2640 4468 2262 -983 -3597 893 -961 -3689 -458 -1386 -2296 -1707 -457 1586 -1508 7009 1374 -772 410 -2560 1581 2631 3590 -2307 -1085 1992 -3870 -3596 98 676 -2479 -1989 665 -1953 -1045 1530 3495 1092 -2123 354 1703 -1004 600 2472 -2116 116 1574 -713 -4652 -4087 -1606 -175 -1840 -1925 -759 639 -1241 -2235 -363 -1546 2945 -1497 -2046 -159 -1043 -2020 -467 60 256 -583 824 1159 -397 818 -941 -1085 -1234 120 -461 1753 -517 164 1010 -1525 -1968 -1132 400 1654 -1308 455 1871 -2094 2169 1992 -875 1499 939 -3742 -1157 -559 44 -1227 -355 604 -1863 752 1291 370 1762 430 -813 1274 -334 471 1382 -166 -1581 -920 -41 1037 -1046 -1363 -220 -1339 -1450 -383 -795 -1804 246 190 1167 -1406 -456 1898 -832 -582 252 -1571 285 -309 -281 -1979 1867 307 -618 3539 -1531 -2396 278 -2622 -2845 1833 -3249 -1634 510 79 -1873 -583 -242 -528 1260 -413 532 1030 -1140 -2445 710 1697 -3038 -1730 297 -2629 -2934 2607 -3659 -1843 -1718 -2240 2486 1737 3410 522 218 -140 21 704 -180 -640 1050 399 -51 -623 1579 -1561 336 1312 -3318 -2015 -2087 -56 42 406 481 -893 -628 420 -85 124 -891 572 2978 -1355 -1880 891 -6753 1136 1115 -322 2153 1683 -546 1353 2326 -1835 -914 -352 -939 -62 -1468 -864 -1794 -2932 -1214 817 -1160 1754 316 -1575 237 3061 79 -3656 -297 -2967 -288 -43 -1825 -2709 2102 406 -2962 -1110 -912 177 -440 2118 573 47 1253 1282 43 -1545 -1663 -1466 -1148 -2940 -1245 18 -1631 947 1495 628 -147 -588 -355 -418 -487 342 -84 -369 793 1632 1824 1720 -211 -445 -93 -1615 -929 -935 130 287 -619 -1608 -1657 -1129 -1065 -1780 -555 230 460 -792 -489 304 -23 78 122 -803 546 848 1300 -889 -345 40 -1431 -1054 -820 -1711 -1118 -910 -1269 3 1260 -315 -753 -1211 -750 -2464 -3268 -1111 24 -409 -2586 -2525 -1188 -666 -245 -77 -18 -638 -536 241 -170 -372 1624 1896 177 1898 2341 -101 -1995 -2321 -2611 1581 1024 1699 -431 -351 275 -1964 -1492 -603 398 437 -107 -282 -48 -306 -1531 -2323 -2649 3082 1729 1796 474 796 768 -1483 -2109 -2420 1377 1034 5206 670 1091 3315 -2048 -1832 -1864 -1486 -1692 1658 318 319 732 466 -306 -814 853 961 1940 -1521 -1830 -1485 -3298 -3118 -2785 943 1083 808 638 411 1097 -2840 -3196 -3174 49 -227 -496 -1120 -303 -452 586 26 113 314 172 -289 -2385 -946 -1806 -2101 138 -534 -1460 -1145 -1277 -378 538 510 -798 -1315 -494 -990 -134 -557 -1091 -965 276 45 601 1257 2035 2547 1775 -932 -218 -345 -1707 -1147 -1014 1102 -84 -2309 2159 1839 -729 476 836 694 -549 -201 -1612 2021 1725 -428 1077 1322 -1002 -266 -796 -522 782 -969 -1264 2064 1376 1142 1154 970 683 -597 53 59 105 440 -1292 -906 -766 -987 -400 -111 -661 -2387 -2240 -1256 -1647 -3148 -264 -2174 -1876 -1501 859 -742 -1426 210 440 -149 -162 742 115 -1125 -535 -573 -157 -102 -2075 -1191 86 -1367 1213 1509 1904 1275 1412 2737 -178 100 1559 -2077 -959 -1426 703 1591 493 489 1388 -370 -2643 -2734 -2697 -954 -521 -1572 169 -67 -729 1521 890 372 -436 -499 24 -744 -811 -647 -469 -1679 -1273 1154 1562 -211 331 1104 212 -2717 -2455 -2695 565 814 -17 -740 -1334 -1432 -674 -2526 -572 994 21 996 426 -69 586 666 1132 1559 594 1194 551 -1446 -637 -582 -1720 -2330 -2029 -1186 -490 1053 -1150 -1182 -1159 1362 407 -93 1360 875 1596 -200 38 -76 -331 -600 -923 -973 -725 -1071 -411 1166 -304 711 444 11 -202 -131 -1445 -147 -232 -620 684 521 904 157 107 1181 -374 154 1049 -2427 -2203 -1423 -821 -229 -495 -989 36 -446 -3092 -2115 -1518 1025 246 276 -520 -1671 -850 373 -599 -417 -1669 -1186 -1421 -1609 -1368 -489 46 -764 153 857 -4 -1011 986 -433 -830 1054 620 524 80 -445 -435 -940 -1435 -1369 -402 -1369 -961 -1016 -1572 1657 -1230 -1356 1518 -1160 333 584 519 399 686 645 -1929 -262 -431 -772 -14 221 -381 -597 -701 376 -196 -867 531 -86 -3052 -931 2106 1176 -363 557 156 985 672 -1564 -1550 -2356 -1425 -1080 -1572 2192 2860 2058 -1105 -344 -993 -473 -199 -633 453 205 139 999 1949 1320 -961 -631 -517 -337 -947 -232 865 2399 1293 1450 2736 1783 -841 -1626 -1593 -340 812 -1308 -461 113 -1013 -264 -963 -441 566 233 131 -1477 -1273 -1273 454 1241 511 641 111 1270 1782 1273 2673 326 -428 747 -325 -1220 -1991 -634 -67 -1181 -504 1021 932 100 -329 -254 209 1135 2190 2761 3062 1948 1255 1160 1136 -143 -119 646 106 -382 -328 787 -73 -196 1617 1676 822 348 772 748 -2045 -2265 -1923 -1008 -1099 -1637 672 -74 -1187 1322 1206 975 2585 730 -964 2147 3024 1152 -525 682 -304 410 2992 985 -50 -396 625 -1187 -797 -1052 -1634 -2532 -2725 46 -573 -1344 -3064 440 -333 -1574 -658 -1356 33 -677 -1349 20 448 -413 -954 -794 -1302 -1559 -1758 -1833 154 307 -165 273 522 -900 -79 657 610 1765 1337 1589 518 -816 -929 -1223 -1520 -1878 178 -286 1023 118 -83 914 782 373 612 1203 528 -116 1907 2687 1104 -9 185 -229 -296 1680 754 860 2620 2657 -1956 -2029 -1508 -369 991 675 -854 -1997 -1435 -72 -1207 -315 -577 174 1030 -1445 -1674 -1348 -67 -386 128 -257 -749 -693 -170 132 169 -576 -909 -849 -370 -86 -732 438 102 -656 629 -124 -883 -399 -597 -1076 1152 399 -766 629 815 659 -1027 -582 -1309 -195 -630 -720 2222 1127 1239 -893 879 -1161 949 1784 -95 986 -9 505 -999 -1360 -1292 -385 -1024 -916 1739 1652 1084 -902 -227 -70 87 -456 -1576 2648 1416 614 434 997 607 877 1149 1423 -404 -706 -287 320 -941 -1748 3871 3683 1043 334 1737 171 286 597 1374 324 -136 148 -1708 -1899 -2110 -653 -849 -261 -806 -109 272 471 729 287 -895 -926 78 -864 -1411 62 2165 439 -137 627 -1945 -1471 3406 2197 465 4082 1089 -508 2501 2551 2190 673 869 772 -1553 -1188 -575 346 1005 830 -1333 -1427 -813 -864 -1271 -711 2016 65 1835 1456 1007 978 -1934 -2499 -2700 -129 -507 -735 23 -269 452 -1755 -1324 14 1132 924 760 786 -308 220 -530 -1652 -746 369 -143 259 644 -291 1126 -371 -336 781 -286 19 -49 -736 -558 -400 972 1126 854 -1410 -864 -1599 -327 -913 -1596 -1091 483 -40 -9 -191 28 -908 -1471 -912 1113 307 105 -2213 -1742 -1765 -1224 -504 -249 1452 1553 1861 -1849 -1395 -3005 -744 -528 -1598 -547 439 859 -991 -1739 -1245 -1989 -3033 658 331 2466 1286 1590 1022 2188 326 -207 1145 74 -1182 989 -184 -1177 384 -186 -1423 -359 2099 2300 1185 136 391 834 -149 771 -118 1438 925 779 1255 1266 2561 779 564 1636 -1913 -2637 -1063 -688 -955 -2362 1005 1320 -213 1391 -19 -1675 -125 -337 21 -908 -504 534 -449 -762 -420 -617 -22 -230 246 720 368 -626 -1197 -1918 -568 -2488 -688 -1545 -3158 1048 528 1079 606 783 744 985 -1084 -53 223 -3011 -2234 -1623 -78 369 665 448 701 758 975 1165 616 1788 1538 829 -947 -770 -738 -1179 -1007 -968 39 21 -1619 440 1716 240 -1802 -1847 -1429 -756 -362 -1343 -433 -859 108 2089 1108 1188 -2272 -2974 -1090 -3318 -3440 -1850 -792 431 -1104 -763 -57 -783 -1125 -489 -1771 -845 -1200 -1483 -586 233 -1003 -292 324 768 3176 3021 3834 -2051 -1417 -1471 -1010 -1221 -800 1734 216 520 -189 240 -1208 -1232 -516 -1735 -2427 -3133 -2345 1417 2409 1316 -865 -481 -160 -1244 -1498 -1745 128 -1213 -698 1058 753 91 522 798 317 26 -402 -1683 -82 -537 -1304 -1782 -1907 -2239 479 554 333 -348 -230 -401 779 89 -948 1138 1352 369 -931 -1336 -1172 322 -289 -1173 355 979 97 -1136 -1028 -407 -433 -1151 -1332 -1572 -1385 -1392 -702 -1401 -1385 891 154 -538 -666 -1438 -653 249 1192 582 1631 1576 -202 112 -262 -421 591 529 -529 -1125 -789 -1232 -2802 -3260 -4099 -2023 -3007 -3759 -319 -1140 -2208 774 1944 741 804 1328 273 -1321 -1501 -1944 314 1113 -321 -1073 -1781 -901 -115 -1036 -352 985 -925 -708 -593 -1358 -1306 -2447 -3105 -3210 -564 -984 -1413 1174 1700 1803 733 265 1159 1099 1010 954 454 671 823 1216 1142 -852 788 297 -400 -1899 -2223 -1230 635 1118 1585 1729 316 -801 4269 1985 1016 -1264 1735 3438 -1313 -1252 -753 -855 -717 -130 1780 1980 1689 -1523 -2157 -1362 -2386 -2954 -1783 -1409 -1482 -1079 65 -2228 -1774 3223 3564 2972 1154 2529 2665 -356 -750 -947 -1324 -1331 -1007 -1153 -982 -684 -1097 -540 -1163 -204 183 270 589 492 359 -340 451 -2 -1217 -1370 -844 -951 -635 -252 -516 -246 1717 8 295 1170 -2051 -2199 -1948 -584 -1636 -733 125 -70 298 -133 -717 -750 909 1979 2461 1426 114 1029 -122 -2397 -3642 -462 280 1903 1350 1449 954 1883 110 17 -458 -638 -820 -958 -1209 -1154 305 1425 1514 -1106 -1535 -869 800 132 160 -1681 -1973 -1030 -1335 -1342 -387 -235 629 192 -1519 -469 545 -411 -664 -326 -1481 -800 219 -1207 -454 99 -1035 -2226 -691 783 -624 871 -1678 -1443 186 38 635 -99 -160 599 49 -1813 -1166 -1435 -74 810 550 -27 493 416 -426 -560 -193 -1480 -2090 -2559 530 -691 -1469 1772 1108 837 275 -31 90 -662 -1190 -776 -361 -1386 -1071 145 -1780 -1151 2417 1757 1698 660 -885 760 -1069 -281 -1709 322 779 -394 -809 -973 -603 -1716 -1782 -1266 -639 -862 -597 718 1364 754 2448 1801 1704 3837 2948 1932 2338 1625 683 612 389 488 585 140 1030 573 -34 138 -462 -1275 -659 1412 1468 1007 2627 4454 2380 -117 765 555 1271 1710 1872 1819 1976 2498 1140 680 878 1746 2740 4155 -837 -1187 -227 242 21 -397 189 -638 -937 309 -555 -769 -586 -430 523 763 325 771 -760 555 1792 -842 -1511 -2343 375 -568 -1518 1518 -478 -736 -371 -497 -1014 206 -1370 -983 1574 2188 479 -1309 49 3324 -2556 -2057 2047 -243 -1631 -825 -1129 -816 6 -768 236 -1231 -435 -130 -1502 -1822 -3071 -3229 90 -704 -1669 153 1024 452 1563 471 -83 -835 -532 -763 -795 -609 -626 2663 3334 2171 -514 -54 818 -1843 -2242 -935 -307 -508 950 -427 -305 -258 122 97 -127 -1032 -2090 -2293 -352 -14 -90 -610 -1163 250 572 191 -1378 830 3098 223 -1143 -384 21 -649 2673 3356 -1938 -778 -230 -1611 -1311 -2021 -1261 -571 -2027 878 1542 -667 -337 -80 34 -3004 -426 -2194 -2227 236 -837 -2606 -2655 -1544 1430 846 -524 -64 -364 -1199 271 -198 -1871 1069 163 122 -404 -995 -464 -2148 -2428 -275 -1272 -683 -1243 -1353 -713 -765 -239 -475 57 305 60 371 452 -222 577 1000 -28 -41 1652 -475 2648 -227 -1100 1288 -2307 -3730 -2488 1085 2344 93 -92 -1359 -3916 -811 -1650 -3993 134 427 982 1314 -195 977 357 1103 -566 2283 2289 2351 107 -302 -114 -1389 -1912 -994 1039 757 635 328 139 793 -532 -783 -255 -280 965 377 244 -248 -1713 -1942 -1576 -185 253 899 -219 -1571 -569 -1112 -891 -173 -101 -1170 -2183 -861 1123 -647 -747 -656 -1430 -931 1038 1147 842 -308 246 564 -2608 -1615 -165 -302 -1020 -460 150 -201 362 791 389 619 -2325 -770 -1206 1297 46 -552 4561 2090 -270 -478 46 -213 -1886 -1176 -1393 -816 -1280 -470 -23 -716 480 727 -693 721 1941 1509 678 -446 977 -625 -1189 -1317 -1992 -390 -583 -1092 -1611 -806 110 -2093 -1928 -1132 -1 -321 -259 397 -139 -1785 1373 1705 170 211 -272 208 222 135 1194 89 1028 1637 -305 -935 -1207 -1678 -1011 -784 -1102 -701 -787 674 805 558 -544 -1036 -57 1132 1136 775 625 61 956 33 799 474 -807 706 -1199 643 -103 -941 -800 29 -436 -599 -672 -827 1449 1761 1348 1388 2225 465 -857 133 -458 -1392 -809 -958 -105 858 1070 -768 -1703 104 1654 -309 -2822 2399 35 627 1201 184 -485 -1415 -347 -1833 1049 1201 2305 239 439 1451 -728 -944 -179 -160 -231 37 -853 -385 1016 -280 -339 447 -388 -43 -204 -872 -434 281 109 1498 1432 1392 2132 2051 972 1889 3012 -1200 -753 109 -590 -112 237 -556 -696 -318 405 -821 -84 237 1422 286 500 1101 942 260 617 -131 -145 386 660 463 656 522 -1156 -1510 -1598 3633 -786 -2402 1675 -287 -696 -3037 -2356 913 -467 -2878 -542 1170 -2087 -2351 302 906 1625 168 -109 908 -2178 -1407 -340 -4067 -1768 -206 -401 -1041 322 1232 1511 805 255 525 -417 -55 193 -638 -81 389 -799 -1672 -2097 -1919 -651 -1471 -1558 2064 3590 1934 923 2459 2680 -1414 -2258 3 -492 -871 -1232 137 1239 730 -355 1 237 -1697 -1001 -671 -1368 -1355 -1208 969 961 1092 79 359 690 -1016 186 -1355 683 1206 774 -10 -33 583 40 574 1762 156 361 62 789 927 1200 -357 163 643 -1553 -1695 1567 -525 15 