128 128 3 3 
-1058 328 -59 -579 -1270 -1584 413 671 -905 -719 171 1550 -1159 1301 4204 394 5003 6694 -531 448 1666 -528 609 543 506 796 469 177 -655 756 1120 -266 -157 1538 1043 377 -325 893 -188 -1229 -1819 -611 -677 -944 -464 765 1008 845 1326 -1290 1708 894 -894 1964 -551 -325 -67 -786 -1671 -1388 32 -477 -560 -1545 -2496 -2497 -1722 -2127 -2961 -2414 -792 -3452 -1094 -1175 -530 -39 118 90 -516 -210 -1049 -140 435 2375 1062 -367 1190 2360 -254 -1002 -635 -474 -1276 -1154 -2218 -570 143 -24 53 -910 -600 1032 1202 982 27 -1128 -495 -88 -640 -94 1037 -3703 -966 711 -1533 -292 519 83 -342 140 -414 -573 1769 -50 641 2646 650 1928 1475 -1135 67 2450 711 -1361 606 4183 2545 -1565 4013 3275 -3860 4759 2116 -3720 877 718 -506 983 341 1236 -1407 81 273 2171 3053 3222 -702 -2443 402 554 641 38 127 -1266 -1468 1251 1716 -599 410 1485 73 817 3202 3739 -784 1777 2850 878 1077 1648 -1479 -734 -705 723 -927 -1338 77 -296 -155 -1224 -1398 -990 912 -409 817 382 1451 2110 1157 715 -540 425 124 -98 748 1681 1355 586 382 1382 -1864 -3140 -1922 -2851 -3051 -1710 -486 234 1070 12 -1641 -916 3142 -1 -754 278 2406 898 -997 807 -1079 691 870 -828 -2275 114 -377 -259 4051 1526 -981 2217 -730 438 1583 1402 772 480 1975 723 386 1246 3177 3291 2697 853 3788 1328 774 2082 -1508 -835 -640 -774 -747 -2904 1209 -1380 -140 -706 2938 2482 2840 2529 1391 -1779 1343 2265 1462 1088 2824 1254 1500 2192 1531 -183 -1540 -824 1170 895 -393 1209 -401 -367 441 -10 -276 2089 1137 1063 1163 -2006 -1201 851 296 787 57 -471 -687 707 -860 -693 798 305 -312 1381 1588 1387 -754 -1231 -1309 122 1219 270 -1022 -918 -419 -236 -1013 -2020 -981 668 693 -740 583 -1019 172 2369 782 609 2287 1359 4012 7405 2218 815 2562 -101 -933 -2144 -1449 -1536 -1369 460 -2674 -1785 -1578 -738 -85 -1559 705 -477 -1778 -788 381 1630 -1501 -986 551 1861 347 2036 1049 -732 288 -1153 -968 -157 -2865 -1132 -203 -2214 193 1768 -2484 741 401 -1005 1310 -811 -767 -1374 -535 -84 -1882 -2131 1018 835 -441 -2138 -2872 -970 -2917 -2891 -3051 -385 -943 342 1874 301 864 -458 -1698 -1773 1323 -362 165 8909 3300 -433 1203 -858 -1310 -1360 -3758 -2965 -1798 3 -3753 -3268 -315 -3041 557 174 -1024 2215 -1993 -552 -664 -1151 1622 -1041 -1951 670 -709 -1128 255 -270 -1644 1262 -2159 -1272 -1085 -550 -1510 -591 -500 -2348 -1679 17 628 -660 184 -1134 -163 846 -1905 -1654 -200 1492 251 88 -977 -1956 191 354 -1402 471 2012 862 -1065 -170 433 -1486 172 -343 738 -2409 1328 -353 -4409 1649 -470 -2191 811 -1422 -1144 437 -371 -2038 3041 1565 -1435 944 -312 533 213 -250 543 254 393 576 -163 179 705 -633 174 751 -161 -1868 -2034 -1038 -233 1104 49 657 268 -1391 387 -1162 -2750 -1292 -693 -946 370 1130 -613 863 -993 -1146 -11 -462 -446 846 -256 -1119 259 -839 -177 1790 1005 -722 -539 1144 -293 -337 1375 1652 -758 -1338 19 -944 -948 -902 -544 -1170 -1783 2220 2403 1719 -189 -1425 -532 1294 -249 346 645 -168 934 -559 -1282 -580 134 1300 1402 422 151 1281 214 -3451 -58 -225 -2397 453 614 2743 1469 -967 1006 1675 -892 -753 -595 -530 -620 2534 -1880 -1367 6390 -1360 -2031 3564 -119 -956 308 1421 -299 853 1185 -1489 -1311 -274 -662 -1359 -2113 -4286 -2055 -1828 -3405 -2031 -166 956 -890 28 168 111 170 -207 1627 984 -1005 -1640 187 -1152 -706 1996 -651 -2285 1027 -138 -663 366 1279 -711 -2620 -565 393 26 -863 -1411 1900 -875 -563 411 -489 -61 861 140 96 1024 -530 -325 -120 -238 -687 -204 1036 166 -516 366 832 386 -1118 348 1254 587 1553 712 482 798 1023 1236 2759 -483 -1238 309 662 -1158 1577 -501 468 994 425 -676 -518 -1016 -1217 1342 103 1409 939 -2060 -191 -421 -262 69 55 2270 954 1331 630 -876 -686 1472 559 -351 53 453 -145 -1365 -1663 -1723 -75 848 -852 2340 3821 2841 452 -2463 -649 1010 -4256 1320 -478 -1577 1354 789 1215 -866 79 659 236 -548 -45 480 -165 -579 -1876 266 449 -745 -199 -34 -415 740 1017 1578 -296 -425 1421 -683 -746 1930 1163 174 -786 1183 -834 -1175 -9 -39 -244 -725 1356 -669 2789 7389 2539 790 4274 554 485 -20 -1469 -4365 -641 312 -2615 -941 -182 476 376 255 -1271 -1144 -1953 -813 -523 -351 1391 -1047 -458 1373 -903 -930 -194 513 -401 -2932 -670 -1104 1470 -1297 -1255 411 -2490 -2627 -760 -934 -1288 -647 -113 -672 -1100 -222 282 138 1618 -857 -795 -5 -333 468 -229 -66 172 -394 1260 767 874 1280 967 1539 825 -1151 -609 -897 -995 -616 -593 -113 -2346 -1215 1115 117 276 -772 -3553 -457 -1445 47 2353 -838 -827 -2371 -1841 -66 -1736 -2059 -186 -791 661 41 -252 389 598 -782 -693 -732 -574 -355 -1539 -340 -1012 -2121 -1010 -906 936 150 -1393 -1526 -280 -3688 772 668 -2185 -886 -1577 1757 -712 -1679 372 6 -2278 -373 -1038 -804 -324 -63 41 234 -285 731 -323 -171 -949 902 -4334 -59 959 584 896 -1585 243 350 410 -2374 -978 1081 354 679 1280 1039 88 2718 3138 1760 1993 3589 1412 1579 1891 1902 1073 -1283 -612 655 -774 465 -776 -993 -213 -1138 -386 852 -1506 26 -1127 1285 1271 -1149 265 -367 -427 1284 644 549 1877 2888 1066 -560 -4089 1765 1245 1211 1975 1843 2684 1242 523 -186 598 1755 926 1991 -290 180 -141 -4873 -4071 -7310 -1447 856 -3968 -1857 -2389 -3991 -1240 1261 3637 39 1663 2876 -4925 -4342 560 -470 54 -569 -1873 -859 -1468 782 1440 1864 -1020 -527 -494 24 575 -789 -691 376 -581 -1718 815 644 498 361 1113 1452 793 493 2333 1368 167 -121 -360 -14 -235 -593 -1468 -16 -2899 -2351 966 -2202 -3275 5068 3386 -904 -1306 -902 -1328 -2147 -1847 -1353 -1593 -1897 -2347 142 -384 1165 -379 -27 1657 1345 1768 1523 453 671 -954 -290 290 2635 -47 -865 2093 -1004 2781 113 -696 -1656 -2063 -179 1010 -387 2031 315 1033 -409 2866 1887 918 2779 485 -1226 -713 -115 -1063 -75 -1683 -437 70 -749 -728 -437 -772 -568 79 143 1793 1804 579 994 407 1428 -996 -5599 -1619 -1209 -3261 -110 2013 2618 2048 -1228 -4424 -1812 1863 2087 690 -1200 -1038 -700 -1798 -2006 -687 -991 -694 -1659 241 2031 2802 3049 3185 155 1091 845 -1194 -684 -104 -1056 -838 324 -955 -1543 -242 -943 677 -1150 -2165 -2103 -388 132 -2715 321 1107 -81 -2085 -190 -962 -1855 -246 -364 272 876 811 -1103 -1408 -1170 -1890 126 -1372 -1427 1417 -340 -131 266 -468 2660 4803 -193 4192 6193 1984 851 234 -101 -520 -625 1255 1343 1292 -983 -2104 -2076 -2220 -3074 -2963 -1529 -2115 -1188 451 117 -828 -79 -2015 -853 -533 -454 -300 -2227 -711 475 555 -603 615 1787 607 -1159 -1684 -349 -1806 -685 -964 -649 -1946 -1620 -1670 3300 3260 2637 1602 1610 1091 -2193 -547 296 1272 690 1811 -872 833 3303 -454 1628 1953 805 -161 -702 784 -337 273 -1546 -1035 -550 -1119 -1042 -894 -2613 -1167 -1564 -1723 -2935 -2056 658 -13 419 2660 1078 -1052 919 697 -150 -550 1499 1477 -1672 -13 2504 1569 533 1642 -522 -764 -608 -279 1956 626 1055 2947 2034 -1009 -125 1206 -4123 -4190 -756 -2094 -3090 -471 997 -245 116 3048 1052 -930 2395 69 1217 411 312 -1135 -399 318 -345 -816 -224 -1981 -137 -948 -630 -1389 -949 1106 -629 2024 2207 -242 -152 -785 987 657 295 1242 909 -637 -1344 -1655 -983 -1444 -1020 -1218 -916 -1264 -539 -1432 1163 829 -1700 904 860 -1021 -983 -886 567 1535 54 1111 1666 750 -1558 956 1567 -1174 -930 -1742 -644 698 597 389 952 1338 -881 -642 -854 -1116 -1704 -1138 -302 -732 -983 -968 -210 -658 -2588 -1350 61 -462 387 1257 2272 423 459 -592 1687 2036 -110 862 1539 1134 575 463 228 -235 1042 1689 658 -244 -277 -1133 -773 -1401 -1605 -325 235 1554 859 1108 149 838 762 907 724 494 620 291 -1129 -3954 -3923 -2575 -5211 -5296 -1629 -2928 -2911 -440 -1352 -3009 519 530 -596 -753 -781 -589 -1212 121 -1383 -1864 -279 280 314 431 1155 -2245 -1176 691 -1895 -1213 -1202 -1491 -1438 -2433 -494 1194 3607 1885 639 1781 2203 1556 845 -1053 -1023 -1010 -1807 -203 -1215 -728 -640 -1187 430 -870 -786 361 -788 -258 16 813 1802 1628 1840 2522 66 2081 4086 -477 377 2177 -470 599 -417 -209 -413 -219 1204 1444 -262 -850 4 562 -606 -1510 -66 -246 -1836 599 830 1589 277 454 2069 525 2017 2561 2241 -248 364 -1429 472 1981 580 696 995 -711 1761 -328 188 4678 1381 -885 3240 660 -2582 -553 381 760 1358 321 242 2235 547 -142 -1142 15 479 -582 755 1013 921 1014 728 -166 384 360 -1011 1056 1397 -499 1815 471 178 -1611 283 683 -1106 735 1209 -495 1237 1652 -249 648 3131 -259 -2677 1471 -1284 -1878 827 -1262 -1584 879 -1071 -2009 1681 499 -742 -1311 2287 1747 -1657 1016 637 -1350 -1007 -1111 756 1641 1940 2007 194 -1236 -738 -4022 -2859 760 -1013 141 1144 -814 618 934 -816 143 790 1358 1205 861 2469 224 -238 1474 648 -85 -445 -503 131 -640 -895 4329 4685 3741 -531 -734 -1555 205 270 -1609 1309 1151 -808 -1141 -589 2306 -407 -1298 2729 -1023 -1333 4186 -1784 -2219 -3126 -911 67 -431 -835 588 575 1883 -316 -307 201 -9 -371 -515 1977 786 -469 -839 335 -294 692 2753 746 2632 5454 -369 -61 -637 1420 -512 -1391 2521 -1488 -2086 750 -336 782 -2286 -2548 -1546 396 364 -515 -944 -793 545 350 -324 -1729 793 1583 -1171 -41 -331 94 -976 -1899 -1239 -1190 -2955 -1936 1386 199 -745 1777 533 -1716 2893 2243 961 161 46 -570 -60 -1131 -166 179 -686 -596 1634 -101 222 2268 2349 1723 394 1765 1308 -911 -1305 -1049 -1990 -3569 -1798 -1788 -3325 -925 2054 1217 502 465 1122 -420 -1922 -970 -232 543 -400 -272 706 33 492 -1716 -164 1475 -1412 -724 32 -335 -282 -572 1138 1681 -292 -1041 12 2527 141 2763 1753 105 1418 1063 -472 -568 -1260 1563 836 -1356 912 3976 1365 267 1348 583 2215 208 2654 -23 796 1821 -1760 -1293 -1123 -3386 -2269 -2701 -1495 -356 -1568 450 2716 -647 -784 2626 -798 -86 1166 -672 138 1785 -533 2281 1949 -1917 1454 560 -247 -909 1778 -1153 1943 2787 1206 474 1555 709 1056 3114 178 2860 5942 2153 632 2181 801 -2023 513 -2004 1059 -102 827 3575 1144 1909 -1383 293 2158 -1930 438 2183 -1166 146 931 388 1538 1650 360 260 806 1395 1879 -57 521 1323 680 -616 -99 -1227 -339 587 -327 1187 -1178 -1849 116 -2449 -1332 1530 -552 -1391 -1200 -926 -812 -2866 -2009 -2506 -1313 -1768 -2091 1123 213 -59 1346 2340 1520 676 2397 1593 -417 52 1259 -1945 -685 2049 -1455 180 2382 302 -563 -173 428 -1404 -481 705 -1647 -556 -501 1768 1419 -2886 906 3216 -1526 -2217 502 34 -1652 -1180 -1083 -1159 266 435 2088 3389 -476 -1179 -1493 570 -887 -1216 524 -128 1406 -374 3034 -356 839 3713 -440 -209 -63 -513 -305 215 433 1191 848 -738 1143 2241 -1682 357 20 -164 406 370 -441 -500 50 -538 1460 -818 -2405 -924 -2114 -2551 -1834 -1400 -236 -219 357 -56 -1343 -200 685 -81 145 186 -1912 -2414 -1320 -679 -445 241 -320 3156 4334 -1586 -1987 43 -578 227 256 768 2302 2328 1516 432 -997 357 842 -210 451 729 1520 494 1088 1650 -1056 784 3057 -792 -2505 -1062 2281 1367 569 1964 3539 392 1107 -327 -167 -1614 -2387 -1329 116 -1037 -577 2306 1916 3192 -821 -3102 -2954 -334 -3723 -2823 617 634 -207 282 112 561 35 297 277 -767 -469 -920 -2457 -895 1225 -2473 -1490 938 -1821 806 950 1411 1371 788 51 -1446 -194 693 286 1633 -170 283 -1042 158 1305 63 -1642 -432 304 -873 1331 298 11 741 -410 -54 -436 -288 674 2560 514 294 1729 -1160 909 1562 -86 -678 913 -813 -392 789 -279 -2418 -1780 -2042 509 157 429 -603 -1338 -1854 920 -366 -1579 721 85 384 284 -138 -247 -290 -775 -597 273 -1638 -77 -1447 -4616 -1076 -640 -3947 -1650 -303 -194 2993 1212 -769 -1069 1295 1118 -989 489 1775 1036 1910 4588 924 1715 2672 1715 -1001 -459 295 -1966 -118 -1169 -3762 -1809 -2638 -1099 595 49 -1518 -1303 20 -1731 -1511 -277 -744 425 -1193 -1495 1313 -1892 -2015 2690 -744 -1413 -3676 -2188 -383 -1078 -1503 -71 -116 -1381 1687 2031 264 -932 -1059 -1271 -161 423 2624 -1542 -1576 -1340 -500 -2733 -1347 2122 620 1063 69 653 440 134 -195 155 -531 -295 135 -666 111 135 -87 -453 -1355 1212 1856 -1847 -3245 -3047 -3926 -1747 -1250 -1927 -260 1271 480 936 1025 38 337 487 -242 -886 -560 -139 -2025 -1300 -1269 -679 -1592 15 -1263 -1946 -1023 -3225 -1939 5768 310 2855 6102 4855 2809 -3344 439 1420 -35 1263 715 -297 2036 -112 -1808 3938 -1924 -3860 -1253 -5349 -1478 759 1644 794 -2980 -3017 -193 -1723 -1379 -752 3321 455 -1382 -36 436 -1153 1707 -1265 -953 1513 -156 1913 3345 4139 -581 1563 -94 191 2491 -1670 543 707 48 24 878 -964 -809 890 -731 -136 -1348 -611 -693 -1824 -1112 -181 -570 948 1319 -92 5295 -3751 88 1648 -2556 -1837 -1149 -2311 -380 948 -968 -737 800 -105 653 618 -627 651 -941 930 92 -1043 151 -497 -1802 -919 -2987 3364 614 -1485 6209 797 545 4302 -917 78 -2220 -1771 1065 -1322 -1805 1540 928 -2504 319 -1591 -2692 -92 -1502 -643 -2009 -1315 -5 -392 -399 1416 -1743 -1725 1667 -1268 459 209 -1090 -1220 1691 -3044 -652 2553 100 1018 2248 779 1052 336 3148 1744 6534 2953 -1544 5842 666 1469 1197 -1964 421 -981 1405 2135 396 -924 -623 684 -1789 -2798 1001 -83 -1904 1291 -2271 -4665 -1426 -504 -1192 687 2925 5155 2491 -181 -172 -1357 963 -1637 -177 745 -2809 -1600 -686 -1629 816 2956 -1911 -10 4828 -2726 -1219 779 43 -482 3501 -1093 -2321 -1421 -3905 -565 864 -1300 1311 613 1585 4258 1418 939 1540 -2077 215 1077 -1667 -1395 -151 -1051 -2556 -87 -4249 1128 2027 -3356 -2280 -692 -1336 -5376 -47 -1551 55 -16 -3322 -1414 -2694 -801 -660 -1732 1037 1842 2257 279 619 754 890 -330 1338 -1680 -81 -391 696 1747 24 277 48 -1352 7078 -3668 -4266 7092 -2744 4432 -702 546 4105 -1079 -2597 -1729 521 -1158 983 853 1455 210 1064 2072 3645 -668 -860 -380 3269 -3213 1452 148 -685 -194 -453 -247 71 -204 -1128 558 -1279 -1810 -699 -986 -3045 -2005 562 -274 -106 -972 -3467 -2794 -2043 -1625 394 -2432 -1801 4263 643 -63 -965 297 -1293 1130 1819 679 2083 -3827 226 5572 -1026 -690 3104 -1755 -1588 -655 -1631 -2690 -1238 911 -655 471 954 6038 6242 -232 2458 -338 91 3507 -1270 1100 2022 1062 -1040 -3070 -736 -2752 -3713 -263 1396 -397 683 -2814 1260 514 -1567 5763 -6274 -795 943 -2180 504 404 487 639 -939 -440 -662 -2247 -410 -1930 662 -879 980 1648 -2770 168 -3918 -3339 6 -698 149 -2576 -4360 991 -1001 -1886 -305 693 -120 -2025 457 -568 -1832 -1162 -3613 -947 907 5374 4327 246 6285 3408 2568 2382 562 -136 325 544 1631 721 22 2017 1555 -2323 -387 -1913 -277 187 -1070 796 -1667 2093 350 882 -776 -325 -770 1217 -3061 374 2450 1887 839 -882 1624 1291 735 5164 -2272 1790 2448 -1004 -2904 -395 -616 -2893 853 1240 1018 -1708 1796 1878 3464 307 -545 5954 175 -2865 1999 -3329 3115 3449 -2496 -1771 1092 -288 -7427 -2794 5458 5618 -1751 6518 7423 -2478 123 623 -1539 1084 846 1723 1058 1489 1335 983 1581 2242 277 -2712 -2605 -462 -683 1117 -1179 127 2590 -1599 -2448 4 -1310 -2881 1218 1038 -37 3127 -131 1685 3665 1399 3019 1271 -1002 831 2624 428 -273 2618 1707 1961 -1909 3098 1681 -3788 276 2821 979 -863 802 2952 -1357 -709 -3392 1997 -2991 -1633 -2306 -3090 79 -741 -1050 378 1707 -3218 -1982 2516 -3518 -5028 489 34 -4714 -893 -2113 -1949 -446 -576 812 -1900 -1429 -725 634 -346 424 1630 795 1027 -1349 -2073 704 -549 -435 803 1744 1879 1617 -1727 1215 1140 1367 529 -1240 24 143 -648 795 -788 -1716 -1243 472 -849 -1402 554 -3687 -3414 -74 -671 -416 -2062 1694 -612 832 1160 -333 893 770 -3952 -2598 576 -3278 3657 78 728 8407 2981 722 -144 -43 1042 -14 -1441 -1943 -1607 -1171 412 1958 1143 818 3393 -1241 -153 -1880 -3431 -573 -1467 -1787 1457 -2191 -1197 402 -1821 -3940 -2698 -563 -260 -2232 -442 865 -1073 -515 968 -518 -5006 -1031 2611 -36 1444 3930 -556 -1699 744 -657 405 1331 -2586 786 1513 -1176 559 1059 1834 1325 2810 4994 1039 1350 -566 -2237 -1063 -1423 -3621 473 -4116 896 -248 -3780 4265 629 596 -192 319 1531 1141 -1446 3316 2547 1294 -3315 -2153 219 -222 236 3143 2826 2649 -287 -146 -1864 -2927 -5069 -2228 -3798 -2774 -533 675 545 185 -1743 -1715 -2847 -3254 -3537 -1233 292 -1240 -1257 1175 -445 974 2427 902 1526 -361 745 -1978 582 1302 -2104 2100 543 -872 -338 -1326 196 -4920 -3117 1109 -2908 -1940 2953 914 74 46 380 -608 -1917 -9 -1442 -1167 1108 1023 -1119 991 1323 198 -1548 2221 3807 -1743 -550 376 -69 635 135 2124 1876 -980 1175 -2230 -237 1268 404 1240 129 1807 2322 -380 -1305 -3 -461 -1452 -450 889 145 -812 962 -3706 -192 72 -3363 3399 873 3542 4196 -2992 2110 2955 1499 1639 -1847 3648 -1874 2227 -1139 -173 -2360 994 -1452 -452 1471 -472 -2038 -1021 -988 -415 -980 857 576 -3103 480 1272 276 10108 3485 -352 9319 -3360 -3002 1694 -225 -3636 -4270 81 -3506 -3003 -35 941 2008 -750 672 -875 -1337 -1900 1013 -345 583 3620 2806 -1589 -196 298 999 -205 284 1324 -11 -2463 1666 -409 45 1719 -1207 -1458 -386 -2332 -2424 -113 143 -1640 444 162 -1500 1106 636 1361 -810 -675 -475 130 368 -30 792 1124 1998 1542 -858 -1750 1214 1311 -1605 1438 1602 -1479 -1822 -1478 224 -1311 2034 101 411 2829 -88 -1911 294 -2298 1504 5040 1032 889 2870 2475 -1953 1389 213 -1570 948 -806 426 1426 251 661 335 423 2328 569 -26 2798 -1309 152 543 890 563 -65 2402 727 239 -30 -1242 1501 2096 2207 1315 2696 1450 647 2746 -1365 -1536 4183 -1640 -539 -188 -2792 -552 -3512 -1497 -1171 30 -1981 711 2733 -990 -1574 -3317 213 -341 700 -2456 402 1279 -98 320 648 623 -1423 4015 2726 866 10083 947 3452 4045 -3206 1667 2245 -69 959 2467 282 -820 -1013 -2032 -261 445 2833 1842 -394 3706 -44 -2946 1803 2305 -4396 -3759 3463 -3222 -2753 1170 -2990 -3459 -2061 -666 -2471 100 886 324 1709 3372 2236 -3436 -1527 1014 -3060 -2244 284 -2345 610 3362 2008 990 -2345 4795 -600 -3826 3307 -622 -3745 1783 -43 524 932 1914 2259 201 1548 3437 335 -237 -8 -1117 -1886 -91 -896 -1713 116 1891 -1119 285 1367 -3915 669 -666 -2588 1113 480 -321 -2944 3295 3982 445 -10 2645 -668 -1350 771 -150 -1487 -2054 1176 -157 -2928 1107 456 -693 227 1442 149 759 1353 945 -1381 1190 -2044 -1171 1206 -1658 -421 774 -594 -786 -1228 -554 -592 -2155 -640 2164 -2306 -2684 427 355 -1515 630 -2869 -1752 1441 -2353 -2687 -1432 2208 4124 2850 72 1261 -129 -753 -3502 -633 -174 -1766 -1157 -546 589 53 -1758 -2358 -2784 -184 -1202 -2251 -1889 -2977 -1462 373 -339 -895 2810 313 35 358 -2010 -2130 120 -1761 -1568 -320 -909 -930 -686 -1131 -640 -1301 -848 -189 3663 -49 1136 5117 -2294 163 4436 -1410 -381 -163 136 1928 629 3542 4962 566 1762 2319 764 -122 -1007 1689 1031 1269 1394 1924 848 -212 386 -571 -770 -266 -524 -1756 -1254 -1414 -450 -3397 -1286 -3078 -2924 -2260 99 -2646 834 -307 2223 -1345 752 2092 851 897 1768 354 815 -584 -2056 662 -470 -1654 -358 253 2128 -19 -885 -647 -650 -1213 -2114 1125 889 119 1141 606 1884 1103 1724 -45 -1656 -1720 567 -165 -2901 -718 -409 -3874 -679 -1745 -1657 97 2290 -1620 -404 11 -1083 1051 -1413 -288 -935 -911 -2301 -2508 392 -247 211 -831 -345 -752 -1892 -1153 -715 3497 -2462 33 640 -228 522 -1448 -2599 -1740 818 2225 613 1993 2008 1632 -47 407 -85 171 14 1391 -554 1758 495 -1263 -494 -58 -1605 -1196 -706 -380 -738 -1577 1817 -2174 -2902 5093 -1298 -2321 -1915 -1870 -2109 -588 -248 608 -3519 -1338 84 -1103 -911 -1420 -221 -2718 -1215 -2463 -2072 578 -1639 680 1220 2191 -500 -2478 647 -242 -1218 52 -798 -892 -1687 72 3722 -2532 -2640 976 1189 -30 1043 -1700 -1170 1768 79 -829 1060 732 2131 1473 -1445 -881 2059 -1768 1548 1763 -533 1833 655 -1737 -1489 -1977 364 331 -1205 1848 129 1645 726 1368 852 837 4002 2280 1080 3697 3276 5047 2533 -2082 -170 -1024 -1941 -1057 -1541 -772 216 -1317 -206 -328 -3715 -1742 -730 -934 -1323 -2513 -2093 1581 -2519 -1849 4505 -1566 -925 8 -1838 -439 -356 217 1572 886 972 2963 586 -95 522 -494 167 1496 -358 -517 788 494 67 -1023 -563 414 242 -695 745 767 -60 -308 -1375 3012 1597 -944 811 -512 -467 1282 268 1088 -861 1621 471 -370 3346 3113 2266 -2141 461 -227 -1338 -2310 624 554 -1493 -2532 2339 227 176 812 912 564 53 116 -835 -3118 -4478 -682 -687 -2355 -1102 -2 94 656 -902 -6090 -327 -2199 -5903 -108 242 -2183 -117 1754 -685 400 -1148 652 1422 -1223 -2276 -1353 1255 2100 852 -1884 -2670 999 -356 -2506 764 2214 -1856 691 418 -982 -985 1235 -400 -391 102 -2105 -1219 924 -1856 -469 -412 -2329 -1011 750 -670 1517 373 -509 -1428 612 -572 -1241 -1757 -913 -198 273 462 1505 193 364 2837 -470 746 -372 -6062 125 -90 274 3002 1372 -475 -1281 -535 8040 1598 -5128 6851 1793 -5055 101 -2535 -1869 -2132 -2716 1078 -104 2098 660 -191 1259 -394 -678 39 1015 1413 -142 461 627 857 1299 -578 -2386 -136 -1379 -848 -53 673 529 1395 609 466 2215 -96 870 2059 593 1132 362 132 -1196 329 181 60 1118 2378 -48 795 1916 1908 -93 302 1592 1019 -352 901 -348 131 2012 -365 194 389 181 -2483 -1957 -1545 -764 -4392 -49 106 -4507 -501 -4713 -5066 -3275 -3985 -4320 -3653 -2207 -1732 -2385 -1720 -1586 347 -433 -1577 -88 -1533 -1091 -114 297 -408 1110 -1440 1306 3011 -869 222 15 -518 -1357 665 -114 1088 -37 1122 1241 594 -305 1444 -402 1294 620 256 -156 379 742 -804 1889 1339 -2082 982 461 -854 -974 1622 -134 264 -109 -358 -2233 -1259 -496 -1361 -53 31 -529 -437 1802 1282 367 -858 -1011 -12 -2352 1469 1896 -2467 -2341 77 -650 -2232 -2799 -119 -944 -364 -556 -2492 390 1467 1370 2137 -1271 449 795 -1218 -1691 -1143 -2470 -1983 -1646 313 -547 -4937 1865 -833 -4711 2780 698 145 -3066 -1161 641 691 -2457 -942 1693 999 2101 1393 -228 -2516 1179 1444 -2234 -2223 -1398 -2568 183 638 97 336 -484 378 469 -1155 -493 -1345 -1096 3245 1880 -2541 406 717 -682 1040 -1039 -215 288 5370 2268 -1026 7065 5077 -3407 -1463 -256 413 1182 -2570 -90 -810 -1654 -212 -1811 -1245 -1869 -839 -877 369 546 529 1614 851 1309 -945 960 -541 -2560 1047 -324 -902 -571 -444 -13 -899 -537 -1683 -710 -2697 -1373 -1130 -1463 1579 -395 -3331 -2966 -979 1222 -785 1324 -480 1328 1095 -1454 -202 -1047 -1124 204 526 537 -801 497 578 -751 -641 -155 -188 -68 -957 -450 -2271 -1969 -781 -1179 -224 -79 -1317 1309 460 284 -233 -1046 335 -457 -1594 -489 -1859 -334 -1126 -2170 -52 -778 -2187 -506 807 1172 -543 -1446 -844 -11 416 -251 115 -866 -653 -1141 -468 -88 -646 -754 -369 -1731 2082 -458 -606 1879 80 -933 1241 533 -549 -726 -570 965 -1096 -633 1621 191 -206 185 2070 1524 2614 1678 1780 1512 9 373 605 564 -1339 -253 2267 -225 -839 1025 -912 297 -305 500 2146 -632 -553 -228 -35 -2583 -332 -254 -283 912 -715 304 2396 -16 -215 -230 -422 -1587 -151 -1099 -3911 -1449 -388 -2455 -1806 813 -569 120 -348 -1334 2276 -371 685 -466 178 594 -1501 2328 825 -823 1077 1094 -817 -212 1038 1069 -883 -532 182 97 -1077 -1582 689 101 -635 -481 1272 -338 -2125 3659 403 -570 -803 -225 773 189 508 1561 -805 -1921 -585 -687 -777 60 -640 -840 156 -938 -987 -640 -1555 -1046 -185 -2041 304 -610 -1338 -811 738 443 -121 1242 1947 525 -1219 -365 -471 -862 -1157 -1796 -4233 2535 9210 -2908 4291 8487 787 1241 2746 931 58 374 6 220 -187 -1057 -420 1467 -615 -1358 -176 -2620 841 635 -447 1820 -934 -891 1517 -641 -1135 -786 -1552 1920 -62 1380 998 -798 108 -1308 473 771 3780 3111 1493 1891 2349 1559 -18 1478 843 118 -1251 -460 766 -1477 -597 -337 -1575 -1220 754 1038 -700 277 -122 38 -309 654 -1119 -346 -865 666 -1702 -964 2213 463 1760 2737 4483 11673 -1109 2540 8407 1425 -79 634 1527 -218 -1413 1135 459 -1706 669 1794 1479 521 -1822 -825 -2010 1048 1633 -158 -1473 314 -1937 1155 -1148 -1283 3283 3104 -95 4617 5633 663 -919 -171 -326 -261 -275 -526 104 -1586 -716 1576 -453 -592 991 -2696 -1562 1103 -2182 -1212 -1257 2733 2035 -1123 -2864 263 277 1065 -402 -1601 -1714 -305 -1839 745 397 -1168 -613 -2318 -1519 -71 2261 -1343 -214 401 -1252 124 -191 -628 30 786 -384 1227 1404 -110 740 1824 551 862 -819 90 664 -628 449 208 869 613 81 776 1498 -416 20 1753 1863 -253 1017 -1733 -1048 -1041 -2689 -1672 -2818 -2035 -515 -4088 -754 -1476 -368 1725 -1300 -1097 486 -1916 -646 -501 2112 509 -1107 3948 -734 -2621 1237 -891 148 806 -911 -1692 101 622 -1270 -832 -1273 -2914 -1610 -157 -1619 -293 1712 469 297 661 2330 -242 939 3387 782 -2658 -1606 -1780 419 -279 -307 916 2628 -312 -562 481 927 1067 1904 785 1653 5468 4466 1619 883 -176 502 369 -935 -1254 -2803 -4534 -992 -2366 -3961 -15 -344 -1347 -770 -1424 -2178 -1718 -1604 -826 -1003 -1156 -685 -496 -4525 -2312 -243 -2239 -2346 1320 1649 -376 369 -1232 1259 -1678 -467 2890 1348 2303 -409 1133 -567 122 -781 -1917 -177 1146 220 371 750 -1964 -1222 986 270 -626 -367 668 -867 -621 3141 1824 -91 1494 2805 2143 2789 361 692 2142 127 -904 -1542 -1886 1535 917 3464 5473 6621 2416 3168 9418 3730 277 -932 -1151 277 124 -362 1956 1087 527 -676 -1753 64 -467 -738 202 -1608 -2483 -4766 1096 -3494 -2141 -586 -4500 -3389 -86 -3175 -2677 0 1109 885 1613 -801 -1056 119 -2183 -2580 -788 908 1177 349 -1136 682 2382 1148 150 -1061 -1413 625 -1686 404 504 222 -1618 698 -539 685 664 1935 -62 -127 969 -1832 -126 -33 -1034 385 -711 -1423 -1248 -1012 -2616 -851 -1229 -74 -3225 -1303 919 -323 -440 -624 -1531 130 -3223 -3176 -1660 -2930 -1110 -2355 -2385 2578 -779 -1323 -1090 -2089 -3420 -3241 -1033 -2284 -3116 -1327 -241 -701 -1481 -2520 -1855 -1413 -2523 -725 594 1257 -151 -2452 519 577 -154 1097 757 -1961 -4430 -750 -2369 -6421 -2974 -2411 -2714 -1434 -1786 523 4513 -1344 -272 2307 -3755 -678 -1081 -1536 1163 867 283 -478 -150 -65 -1910 -239 791 1757 807 -1456 67 2889 3032 396 1437 -42 196 2851 -100 -418 1374 -265 708 2640 175 -819 -1235 -1184 -1559 -2170 -1234 -2030 -1298 -738 828 3052 2084 3213 2881 389 49 -1127 -555 -2668 -539 -1048 -3651 -1853 -1756 -3248 122 299 -572 64 -1251 -2166 -608 -1057 -2260 -14 -804 -230 -39 -583 1034 1553 367 1148 1847 1656 577 -233 85 248 -215 1434 2180 2567 196 -161 -1114 755 261 949 -189 -384 -1566 -950 -2774 -1293 1201 -2008 -1321 1165 2329 866 -1720 -1328 425 -1284 -1570 102 967 576 182 1451 1326 439 595 1152 -12 1090 103 -747 -1752 -1637 -2265 -3023 -2294 -2470 -212 -1880 -630 2615 -104 1854 -1763 -4416 -2212 166 -942 -475 -2243 575 -1195 -1079 -55 742 -2620 -1211 -1400 -1722 292 1130 -41 -2503 439 1698 345 -152 -844 -815 -2090 -1093 -643 -2237 -2863 -1929 -1103 101 -423 -1871 2214 -75 -423 -646 -885 1824 479 2766 -118 -688 2950 1357 646 2816 -152 4307 1028 -694 3996 450 -1306 -2791 -1967 -265 476 830 431 883 -739 86 520 -1404 1230 -2738 -527 116 -3757 -3229 -237 -2905 -3426 -1847 2070 -404 -574 1360 -1773 1134 -1287 -427 668 1840 4913 1071 2280 4198 3376 -1599 2780 770 -1371 -301 -80 5904 7199 611 2988 4722 1335 455 332 923 933 -297 1325 57 -629 1388 1707 1542 3982 0 -2617 341 3371 42 -1620 -1689 -1153 -743 -1448 -255 828 -2331 576 2003 -241 -488 -681 828 -4916 -1618 -1041 -1265 -125 64 -23 -2279 1156 1021 -3280 999 -639 -3510 1193 1357 1386 80 -1479 497 648 658 1328 -2897 -3365 -2236 -747 -1220 -1839 -1494 -775 -2536 -1853 -1815 -905 -2639 -939 1102 -1683 -2296 -3065 -1344 -370 1804 -643 2241 2868 1073 10 -478 -3167 -795 968 -205 -3 -370 -445 -368 -844 -375 168 410 -229 1600 1085 -938 270 648 -2330 -267 3118 -560 -1667 -1003 -954 -2240 -993 -2093 -2265 -748 419 -2000 -1559 199 2402 955 -3377 -3194 -2805 -2093 -4977 -3521 77 -2507 -2911 37 1115 837 -1028 -680 -162 -1744 -2438 -2329 2728 19 -407 3 -297 -1077 -1064 917 108 -1067 -1203 314 825 -1800 124 2635 795 -404 1579 306 1303 542 1605 -667 4 2975 -366 2041 -615 -194 1476 4317 1370 2332 4121 3219 -94 -2367 -2208 1152 -1154 -538 -191 -1187 -1561 -1876 -1384 -1025 -2171 -1303 -870 -1630 -1449 536 1378 87 -509 -390 -678 -1005 -1254 -782 -1656 1150 455 -1948 -564 2843 1543 -1125 -1409 2823 365 849 440 121 -2213 -1831 525 -4217 -1496 -1407 1467 4206 -521 4141 3312 1890 2931 250 -388 346 -100 742 1846 1008 544 915 1097 966 150 -2595 472 2961 -546 -2199 1723 1120 2230 -1665 735 -3045 -2200 440 -1550 -19 855 1599 241 -459 -458 -104 -1138 -1588 -947 -966 136 -494 -967 -3296 -4662 -3271 -2011 -2342 -1715 -1510 -3978 -784 405 -2264 -2804 1967 1999 1885 -3333 -716 1257 -2748 546 2115 -2716 18 1097 1987 603 -850 -2389 -2779 -1414 -29 -2548 -224 2127 2183 1809 813 -494 1720 2194 172 2127 -43 -2151 -864 736 -2089 -1502 -541 -1356 -353 3128 1177 -2003 1849 5839 735 -3046 2755 4303 1821 1916 2118 1266 1395 1525 2703 3111 3686 -1214 -2198 431 -1113 -4889 -3161 1663 823 -162 -806 -525 -567 383 968 -449 -445 964 -2254 346 -815 39 1461 -1001 -1765 1712 -7 -1482 -633 -850 -1241 -2148 -2012 -2793 -1482 -1927 -2425 1452 3791 811 1829 1169 -1786 -688 -2850 -1181 -1307 -1410 -1295 -574 -1081 -1516 811 19 2429 -340 -2471 860 506 -2397 -1615 132 -1748 -4648 1158 1195 617 -993 -1394 -2164 -998 -217 -1765 4386 3685 -675 3204 -564 1446 -1166 1727 3277 1542 930 592 1497 -48 753 1702 1905 2895 -459 -1465 -1873 2128 3573 2772 -1318 3276 6401 -417 -299 -516 -2221 -2040 -2142 -1871 -2201 -2721 908 239 -2072 467 -3063 -6670 -34 -5400 -5313 57 1686 7343 -6 3148 4337 126 -610 398 -593 630 2451 238 2841 2833 217 1943 -550 -906 1329 1041 -3393 -839 -707 920 230 -543 -1384 -433 351 -1394 -2382 -1335 -1876 -1196 -890 -2842 -2288 -2594 -2010 -1162 -2377 -1711 -1425 -1701 -1587 2936 4178 2831 7509 3796 946 1209 -3423 -963 1126 776 -2093 -2481 -621 -1471 -2262 1169 501 -789 -772 -544 -1208 432 -2248 645 799 -1529 -2302 -3209 -2408 -3036 -2999 129 -901 -1142 517 147 445 1355 931 609 -1262 -294 601 37 744 62 -645 -434 -1305 -426 403 -164 -1092 -102 -1161 -1761 -248 -1633 -2137 -3783 -2324 -864 -1655 -1399 -1879 -603 -1503 -2268 -323 -2121 -3619 -542 -3662 -1040 2304 383 -844 1285 693 -2416 -3403 2038 -1321 -3288 1732 2050 -16 1100 1471 986 4599 -991 3167 3630 2545 436 -2602 649 907 -636 -2510 -4308 -2724 2530 -1249 -1575 -120 723 484 -1317 49 1211 -803 -1626 -90 -639 -713 -393 2375 4959 3241 1737 2018 736 3210 2042 479 1118 1617 1092 548 14 547 136 -2389 -2148 -2945 -871 -941 -385 331 1466 262 718 -578 1591 -761 -1147 -244 -1745 122 -395 360 -3020 -2885 -3220 -3006 -2889 -3763 -2170 -976 1407 -244 -2846 -2175 -453 -1573 -4634 -4241 -3095 -2398 -2052 -1568 -148 505 -2145 1098 1232 -212 -866 -849 -553 783 717 779 840 -510 -251 -643 178 1072 809 -836 -94 -563 -1592 -940 -4457 -1987 -1728 -1129 4167 2553 2767 854 -721 -295 -1061 601 3527 -1047 1955 1220 -3038 3661 -3472 356 -668 -1511 1025 -2526 -3546 -3074 400 7301 1402 2242 3180 -4823 3003 -768 -2560 -1042 1235 531 -2109 160 867 -176 3176 858 -484 -1699 -1036 -568 -930 -2317 1869 -1009 -644 2937 -1613 -1038 2104 -2708 -683 336 -3721 -1123 451 887 -507 -779 -567 -1721 -1024 -780 -631 445 -1582 107 -104 1267 721 1440 -82 1155 -440 2201 -2027 -211 2694 45 -900 1545 -1181 -1582 -211 607 -927 -1537 1728 -2902 -1151 4325 -1597 2838 -200 -2110 -379 -1040 -3026 -2387 67 82 1698 524 -1204 4468 528 -574 1759 -3583 -1352 -3543 -2879 -876 64 1647 -2386 5088 -925 -469 836 755 -1352 428 -811 -1524 2443 2306 436 790 -600 185 3299 -2595 -917 1260 -1712 1700 -1409 940 3720 357 240 1148 891 -2701 -1145 -1078 -3151 -1514 237 -4906 10 -1231 -3455 1049 1144 1171 937 -1421 -467 -188 732 2219 -100 1755 502 -1229 6974 -1164 -722 4601 -2547 -3060 1158 2564 -955 3428 5515 1084 3692 2627 -4308 2051 4290 586 882 -2012 4859 -2334 -4001 197 2463 -2814 1114 1800 -3365 -2051 1499 -2691 -2442 3824 -676 -2679 1538 2434 -1657 881 3143 1252 -3112 -7179 1872 -2294 -7161 -665 786 -2231 -1048 138 5335 -1428 1627 -4493 -2285 4644 -3393 -1368 2769 -1830 485 1322 -3706 -163 1320 -204 3974 1064 -3207 2279 -1363 -6495 -369 -2069 -5566 -2188 -1012 476 -823 907 373 1265 92 -638 1553 -8374 -1698 -3128 -1145 1039 -4253 -1201 3996 1303 3275 1087 593 5995 -133 1471 4187 623 -1201 237 1957 -346 9 2884 2156 -369 -1224 1751 -1978 -2461 949 -2716 -3433 1542 -1748 -3146 989 1152 -1206 65 -548 -4803 -1478 -2447 -3244 -833 -3176 4615 -2969 852 4596 -3089 2154 -971 977 -3516 -520 -1270 -1604 571 2378 -1520 -1597 -2174 1023 3140 -2121 -1918 3866 -1178 -2166 1292 -3478 -3707 2758 -205 -2610 -456 -1726 2143 -1713 -233 -389 1104 79 -341 -37 -511 -113 401 305 -5576 -4548 -409 -2072 -2864 -2397 -2813 231 3426 1939 2479 287 2637 -310 -1190 2010 -563 450 -1048 -1304 -1353 -1034 -135 -2439 -1029 1270 -3080 503 493 -989 5023 -1030 -477 1153 -2155 462 -1789 1533 1598 -2556 -280 -798 -2569 2454 -1412 -3954 -392 -1339 -1558 4499 -768 -57 4128 431 6186 1482 -1364 3541 2167 -659 3341 -3131 -767 627 -810 427 3738 100 106 1649 -283 -210 408 -75 -1205 3787 -1177 -535 1351 -2261 -1306 -2852 -1354 -4639 823 7418 704 8334 7152 -3047 2296 -765 -1967 1518 -2009 153 -779 -1721 723 1766 1078 -510 2926 394 -85 2652 -2389 1300 -1381 -83 -3659 -421 1100 -491 -2854 529 3243 -985 -4530 -540 -3085 -3020 -4264 -2572 -677 0 -2415 -1217 -81 1550 -158 341 2943 -1049 -102 859 532 149 508 258 1327 1033 -1646 -4318 5429 -1251 -4417 3948 3006 -297 6335 4418 433 -4535 -2129 1315 -3792 -311 -5 -3090 1995 611 -378 742 -656 -2513 74 663 -4533 -768 426 1458 3053 -4459 4342 2404 -976 3158 1552 -118 4328 3596 -537 4473 4148 -966 5492 -1884 348 23 117 -3063 -2747 2193 -2946 2096 3095 -186 6734 1771 219 3396 -201 2845 1417 3346 -2012 3282 2518 -2940 4757 2065 -5724 4626 402 -2097 -2149 477 -1741 -1200 2656 817 -693 430 -3169 1243 -1737 -3118 2076 945 -2330 99 -218 1301 -2791 -4820 -2382 -4570 -4622 -2862 -3042 -5236 1356 3057 -85 1392 1184 -183 -211 -2627 -1077 1647 1549 -1921 389 2371 -623 -726 3363 2258 -898 -149 -774 -2120 -1520 1184 -1889 1945 1845 -53 995 1165 -4471 -1361 -678 -1277 463 -1783 1894 -1037 712 74 1235 355 1683 1800 -2686 -1581 1100 3718 -3149 2709 1581 -1930 2035 2546 95 664 241 -423 1235 -247 -479 -1600 1023 -3247 -2150 1756 -1164 -3932 6284 288 -43 5058 338 935 -222 735 1448 1091 654 -1420 334 -389 -8492 3858 -540 5776 1476 547 4559 -2197 3042 -3933 -2922 -2242 -4307 -2038 -327 -4751 -1658 -2207 1206 5980 -4624 -2971 3986 -666 -4712 712 -506 1750 833 -739 7709 2986 -1393 3135 -2966 1833 -2585 -4602 978 -6349 -5198 -1712 -3523 -448 -228 -2477 -186 -584 1288 2338 -2160 -2065 -400 -2262 1447 1046 1322 -1465 -3165 2373 -1436 -3714 -3258 -1558 -688 -6536 1113 -2127 -6995 1198 460 -1801 -924 -317 -93 -277 1382 -2056 -930 -1354 2714 1004 -3736 4111 399 -4175 4971 -1998 -3549 -2518 4887 -375 -3151 5919 140 -2374 177 -3901 -2490 -431 409 -2590 -832 611 -2388 -410 979 -308 1032 -166 1094 2236 1480 -302 -866 -1355 1551 1301 -350 -1426 4466 -310 1128 4380 -507 134 488 3031 -1589 -2074 729 415 -1447 -587 -377 4323 2859 -2029 2087 1839 -316 -836 -1302 2651 320 -644 977 -1520 -2013 97 -4700 170 -179 -5479 3732 -1809 2015 5846 486 4466 2683 -1094 -5342 -1903 2393 -1799 1198 3832 -962 -3384 -4195 -3138 -3312 -3005 -2280 -1688 2208 516 1121 145 369 -1804 -1376 -1457 1025 -1535 1884 1717 -2473 -1568 -2023 62 -2309 -3780 -49 -1024 -5980 1291 -619 -3645 1311 -1727 -3456 336 772 54 -569 2336 494 160 381 -1143 4139 484 -1206 631 -747 724 -1128 1162 -509 12 1304 -2453 -1123 -873 520 -2547 3584 4376 -2165 2989 -922 -1409 -984 365 140 874 2293 1537 -1041 -1132 -2590 -869 655 -2676 -75 5434 3075 3807 2652 734 -1709 2403 338 648 1410 -323 -412 -272 2515 -964 -4805 1814 -693 -2281 1870 -2876 -2142 -189 1898 2236 -2922 2583 1695 -450 2336 -435 2009 -440 2386 -1108 4188 2434 -1095 7174 -413 -1404 -1939 700 2732 1430 -2931 4884 -3583 -3283 219 -3143 -871 -461 2146 -972 1874 1432 -2701 -3069 -2066 2865 -1785 1790 1630 806 422 -549 -829 -425 5352 -3096 -1069 659 -4316 251 -4079 2937 -937 -2348 1827 -1918 -2959 -54 -2998 -2053 -147 2053 -19 -971 1321 1606 -1470 2708 4784 2109 -1596 2935 1558 -5256 -1708 1431 -6143 -2010 -1871 2365 -24 631 3397 -3362 3548 3828 -3432 1172 987 -747 -697 -3110 -304 -4907 -4089 -727 -346 663 2036 -633 7107 7228 4018 2964 -4054 -1851 1060 2331 -166 137 1011 -736 -955 459 171 -849 -1413 -1392 -2712 -2384 732 -1091 -298 -237 -6897 -1627 -3397 -4382 1003 385 -863 1158 -1706 -196 1076 -2591 179 1021 -2332 1302 2252 3424 -2351 -3202 -4682 -1614 -303 -2632 -3099 2053 -3632 -3337 -631 3317 3265 -3851 7039 3620 -6920 -1563 -594 800 -1512 -1813 1081 -176 1616 2657 764 120 105 -751 -2924 615 -1012 -968 -782 -4212 -1958 1499 -6303 -4614 5577 -5255 806 8328 2211 1438 -2750 630 -1240 -1659 1091 -2258 -56 1240 -1194 691 14 -4189 -3319 764 -2138 -624 -541 -1373 -733 872 -287 -2957 -1207 1406 1752 -1096 249 -613 -2201 -1031 -1261 -943 -2636 -3181 289 115 262 -663 988 995 -59 -21 -1621 364 2802 3407 1625 1366 1808 985 -4868 -3998 -562 -3181 -993 -219 770 4312 378 4486 2099 1196 -1860 -862 -2714 -4280 -633 -690 -234 878 -1179 -347 913 -751 -1904 -987 -2027 -3286 -3115 -30 479 -425 -1171 647 -1380 455 -729 -1068 239 -1416 42 802 118 1467 -1787 -997 45 2401 974 -1456 194 -1730 -1625 -64 1356 1359 161 792 1017 -291 -1328 -9 661 -1199 526 662 -679 -376 -2515 -2752 -3511 -1489 -2865 -3616 673 1415 859 3373 1071 -2961 636 -466 -2132 -771 660 -1339 -561 -1002 -1764 -2193 -2209 3084 -1254 -3445 -3415 351 -1852 -3413 1832 1723 -136 -1296 -675 -24 -1964 668 2682 3058 3950 510 -1101 817 1287 365 -884 -1109 4740 3141 1130 301 -4266 227 367 -3463 2655 1611 3487 3802 3584 -211 -3415 3251 -499 -3712 -1691 -3762 -3854 -1073 1435 412 -676 2418 -1304 2148 -488 -5643 618 -1756 -1217 363 723 -360 1649 -78 315 -1514 -2349 198 -2083 -55 2164 -562 407 -440 225 -403 2688 -1073 225 771 -286 -788 1657 -5181 -5558 -4128 1448 433 -2881 932 3164 147 -2742 -662 -1295 -4022 -2237 -469 169 -2533 -2877 881 -952 -298 1703 -894 -713 1016 343 1007 4489 8600 4614 2384 -3151 -55 2857 -2314 513 759 3210 825 -637 -214 -961 -4526 -3899 -4137 -3343 -3073 -399 5060 4653 1600 696 1261 52 -2129 -1615 -189 -4056 1875 4081 961 3519 706 -137 192 -1313 21 1114 2195 -813 -1105 1231 24 1243 -1984 -772 -2703 -2137 -411 -1804 -840 -190 1205 733 -1228 -845 787 -2898 -1049 -856 -810 1626 411 -2745 -1095 -2215 -1578 -1999 -2326 3449 3636 -995 1969 -987 -2832 -777 -155 887 -516 -573 1428 1165 719 394 -844 -47 307 -1015 -3559 -3236 3510 -31 -3970 5049 2623 922 2067 -834 -151 2810 -2816 -1507 -863 -1428 227 5824 7798 3021 719 -54 -1345 -2439 -2041 445 -745 -207 1245 -3420 -421 -480 -1303 629 -933 -936 1395 407 -2595 -3959 -2344 -2363 -4198 -3017 363 1553 1026 1278 5871 1264 -3353 -738 -521 -50 43 3927 -1447 -948 -522 729 -1317 -1931 -2177 825 1000 359 -121 1013 2224 416 -1460 -739 -611 -467 -1183 -1480 -993 1418 1341 2718 -366 -2477 -687 109 -3711 -1836 561 -226 795 1543 -1560 -1176 789 1035 -59 -660 226 -196 -1647 -530 -20 -192 -1215 -432 -3338 -268 -289 1083 159 -1851 -11 -4602 521 -973 -462 2720 120 -853 2035 -667 -1957 1044 -516 -2337 1195 -1776 -1774 -1211 -977 -558 -126 4695 1280 -2047 -1287 -1891 -2388 483 -1828 3748 1612 1093 -491 -561 2217 1798 -2221 1225 1116 833 196 -1742 -1811 328 117 178 1006 974 1308 2542 1467 -763 127 -1508 895 -25 -1291 -990 -561 -1791 -859 -5205 2425 -358 -6512 -1874 -245 -2339 -1426 3614 3408 2788 -121 -694 490 -2652 -4528 -2266 -541 -1056 1638 -2007 -3007 24 1401 -269 -1353 -1235 -2487 -3742 -367 -1242 2667 -2890 -590 156 1335 -34 -1631 1869 1723 431 3269 1653 371 2363 -76 55 1188 -2104 -854 -1442 -3323 -1254 75 -1420 2951 150 -1187 764 -2354 -1662 -1000 -3151 -1338 738 -873 1120 2444 219 216 -749 1714 2259 -386 1637 1266 -88 -1829 -2215 -2490 -421 1003 1999 535 549 369 -633 150 -2213 243 -1219 541 -700 -1882 -2102 -408 -1240 -202 -2644 -746 -1018 -4536 -3910 -2981 1094 136 -761 231 2759 1591 -264 1719 528 -575 -465 484 -737 382 1142 56 -2379 236 5084 -305 265 -2713 -1026 -582 -2913 -1771 -1729 -654 12 1041 -1922 -3454 -2396 4432 4644 1565 3787 5095 1948 -2839 -1468 801 -4770 -3963 2838 -2146 -2481 3661 -228 -559 1319 1237 1729 -131 589 3196 1739 -1055 -1364 341 997 -295 -2593 389 -129 -1545 -305 82 1203 62 2876 -1248 -381 2280 -1066 3111 -1253 1729 -1604 -2409 2077 -207 382 1480 1278 2364 1866 -910 760 -186 -808 -3931 -2631 -2352 -2197 -1454 -216 -2920 -1240 3679 -1174 -1802 -2162 -937 1309 -524 1170 1854 1333 1674 1590 -868 -307 986 -1977 -2921 -1858 -815 -443 -2024 -1963 -1062 457 -3146 -2996 1697 4330 6090 4588 -1653 -2790 -2548 -1626 -4035 -3096 -1140 1259 -2946 1996 703 -800 -1731 -2147 -1391 -855 -276 -272 877 -1165 -210 3628 2301 -547 -2659 126 333 17 2028 1423 -957 4142 369 -2432 501 -714 911 89 -859 2002 -204 -1533 -1774 -4134 -5112 -1036 -1241 3174 -1971 -634 4167 -1095 -1233 559 1960 3161 815 4104 6702 3998 -1347 699 -1429 3923 5362 2800 4757 4250 2449 -2057 1214 3084 -2117 -3312 -3008 -3153 -5426 -3838 -1209 -3987 -2470 -108 -696 -1182 1482 1706 129 1008 1435 2083 -1921 585 772 -3138 -1169 -522 -1439 -3048 -3371 1206 -1075 154 -3883 -3446 -1633 -644 -426 1897 346 -410 -908 721 82 -1017 1510 1237 -320 -49 914 2026 -208 -146 846 -1562 -1200 405 1945 1798 1493 -2506 -3092 -1092 -3369 -3042 -3558 -1241 -3283 -1222 -984 -1943 -343 162 185 -2666 61 -677 -404 875 278 -1025 2287 -1317 -2212 -130 -880 -695 -2027 -2105 -1665 -5 1679 -1861 -1371 -1170 -3621 -2924 487 -1785 -3351 110 -1471 354 -1528 10 529 1255 102 2301 2150 -5590 -2114 -3104 -642 417 1343 -109 -1251 2213 3569 1511 -1486 10 -543 -3649 1055 220 -1194 3451 2222 5755 2171 1405 790 753 3808 4721 2485 -1041 2599 -290 641 1316 -2056 740 237 -518 -639 -1673 -1117 -423 -2533 -1314 1069 2409 572 1041 -1828 -2784 -535 -568 742 -26 -369 778 -2142 -632 -2496 -914 4545 1170 630 1960 457 236 2707 -3178 -2192 -1930 -2127 -1503 -1988 -625 -2081 -3736 -685 1999 304 934 1543 2927 1673 -2356 -729 -1323 -32 -1999 -754 -1610 -3211 185 1423 1918 863 -888 15 -293 -726 -2536 -3438 -1740 -1490 -1498 -1088 -4394 -1986 1488 1443 -772 -546 1305 949 -2096 204 -367 -603 722 -1204 -2164 1627 1906 -781 3272 1227 -1268 -912 -160 2406 -316 412 427 1389 -1012 -4253 -2249 -1066 -320 -2204 -1128 -2392 -551 1289 -16 3841 5839 2321 5635 2576 909 6820 1510 -5581 -3828 -2320 -4581 -4052 -2165 -1915 -2435 -641 -1078 365 -769 -629 605 -997 -2506 -1597 -866 -2719 -2485 -1975 284 -1811 1094 792 -330 1317 819 -736 262 3050 -1964 -3432 -2836 -3431 -825 -294 264 837 -4858 -3876 -4279 -1661 6579 5998 -426 6977 3153 2122 1412 976 680 2364 3681 46 834 -88 373 449 3094 2404 2526 789 1108 1839 1800 -3341 -6355 -961 -2757 -6734 -6205 -1193 -2671 -1034 5083 5983 4375 -252 770 -899 -380 707 1126 506 732 1258 -579 -1948 -471 504 12 2304 100 2504 5381 893 120 -31 234 805 2347 1066 783 559 1126 623 123 -292 -1867 -1863 -182 743 -1792 1497 -108 -835 -342 -111 1039 -1971 -2264 100 -1241 332 3347 583 1112 2261 -687 -723 -672 182 -429 -726 1238 8 -232 753 324 -1057 -1187 -1412 -2116 396 2395 3556 361 946 589 -535 152 775 -230 -116 1246 -2213 -1951 -1292 -961 1814 24 693 211 -454 1189 1661 416 -653 -862 -1642 -1624 -1458 -1558 1494 519 -1290 570 3294 -95 5604 4483 -1086 -2219 -846 -323 269 1414 483 420 2820 1017 1035 717 1034 81 -1605 -1390 -1320 -1632 -500 -245 1415 2298 -678 6 1505 -636 -1830 -2122 478 -797 -348 690 -1256 -854 579 -750 -331 991 -502 30 -1144 -5221 -4114 1516 -1170 -2623 -1288 214 567 -379 -601 -462 1777 1112 110 781 671 35 675 -185 843 2673 -479 -73 -1127 -529 -113 78 731 2296 1786 1045 1029 1412 380 760 1458 1351 1383 -713 -858 217 115 -580 -2604 -480 -3058 -1391 -3259 -2313 1804 -529 -46 -83 1259 954 -291 -1093 -1953 -1270 2128 -2048 -788 -2553 173 -223 -1062 1090 -618 920 -468 -607 1191 864 -49 931 317 -149 4525 8402 6542 -1518 -1034 1449 -2052 -2786 -2493 165 1631 1845 639 1798 3215 -758 -2762 -596 -1138 83 2789 -2012 -1997 2335 -177 -1240 1645 1250 -384 3084 1947 2135 3722 2286 1858 1450 -1116 -497 508 1266 975 1727 3382 4378 3084 791 1064 1015 2686 2440 887 1368 52 268 4421 7 -141 -742 525 2101 -152 -378 -343 -307 -2151 -3196 367 -1161 -607 -132 -561 729 -1107 -1146 -1675 -1799 -1947 -1105 -1150 -1779 -1481 792 1269 919 1243 1285 612 1806 2011 1027 982 572 1817 872 463 1459 1804 1266 2061 1606 -356 -124 1856 728 -1445 1167 -826 53 -743 -221 -668 -896 -1089 -370 50 -836 -394 -1445 846 4087 -230 -168 1376 -409 -742 -2226 -1335 -2641 -2305 1102 -222 -1222 1980 986 -1273 113 1019 -263 -71 -1909 -1493 -652 -890 -888 1089 -778 -733 -78 -4532 -850 358 -593 547 -1259 -850 -1093 -71 -1879 -1998 2027 744 -1708 1354 1853 2800 -1008 -1684 -226 -140 -2151 -1116 -31 1235 1035 1661 7 -643 1510 2184 698 584 -147 -1076 871 -1149 377 1454 872 886 -566 -2526 -241 4058 5011 3448 3325 6352 4967 -71 -155 322 -612 -895 -136 -844 -323 1673 -321 -754 -1326 1150 -505 497 38 -998 -604 -500 1995 2503 -3098 -1547 1811 977 -1698 -988 471 338 156 424 -467 -2021 -519 -3151 -1596 761 686 -1099 954 1885 -946 -1527 554 172 -597 -1759 -521 295 239 -68 -931 859 1522 -1391 1063 594 -1240 -1071 -1634 -2309 -893 1873 -262 798 461 -2222 -1380 -1155 -1119 -2482 -1372 2378 329 -32 250 -1015 -1688 -1070 -545 -2094 -2071 1271 1443 -2945 222 -1103 -234 286 -1415 -1842 -2637 322 -542 -2840 -1458 107 -69 -2213 2522 1148 974 2823 2417 2157 1551 2061 1776 -2520 -2316 -993 -1808 -3176 -2228 63 -1534 -1877 -1572 -1393 -1190 -31 -44 1019 3693 1426 1492 -1123 -554 692 -805 1033 2674 575 1266 1154 -1014 -1026 -1164 -614 -1602 -1508 1576 -643 -72 -1299 684 3272 -2136 -1282 306 -163 -557 -1014 -1262 135 1722 -338 -309 1378 1590 493 1161 -2974 -2347 -2264 -458 -1440 -1986 -2454 -3966 -2644 284 2826 3232 -2454 -2088 -1320 -2932 -2064 -1926 664 -300 -281 -1440 -1491 -45 -500 -745 534 1017 1127 311 -1368 -2124 -1309 -2294 -4168 -2948 -2188 -1031 -935 -1881 -1640 232 -1078 -1141 -531 -518 -972 103 -1456 -112 -381 2713 -963 -1808 284 714 2354 700 1540 2240 -386 784 1291 831 1254 110 648 527 -1950 -2169 -1860 -2961 741 -1139 -1983 1603 508 330 964 449 -28 702 2103 2275 279 1296 908 -1122 519 -211 1989 -509 -186 3246 1775 -2889 -720 1267 -1064 -768 260 -565 -3378 -3754 -3542 -1758 -1807 -1328 471 1127 1163 2822 1921 3032 380 1776 1492 -232 1159 972 -481 -270 813 -527 -738 -517 406 1098 -184 181 1235 -652 1817 754 926 160 -922 -652 1226 -432 -353 -452 -1198 940 -284 295 -688 -1237 -1340 -984 166 -1345 -1489 2726 2645 2659 2294 2636 3677 -3338 -4026 -1696 632 1602 3435 -3276 -4396 -4279 -88 -763 22 2004 -2035 -1189 273 -1339 1101 782 800 2927 -3274 -2581 -2246 -2333 -2508 -1714 -642 -1616 -1094 -718 -1049 -412 154 351 703 -1586 -727 -795 -2000 -807 151 40 -168 507 1982 500 974 497 1994 767 407 -778 -1073 -643 -885 -872 1241 908 -431 2817 1996 895 1972 2876 876 -3269 -1329 -2291 -1966 244 -927 481 -530 -1053 -1235 950 780 -58 643 -255 -61 -1475 -2235 -1724 -557 -339 -757 202 530 515 -1359 -1621 -2260 -894 197 -1196 1329 2279 1192 3503 3437 982 1012 -765 294 -1370 -2737 -1916 -2675 -2636 -148 2058 1139 -1691 -2996 -1815 796 -333 -460 -405 1095 716 -414 -333 35 1937 -488 -1105 1912 2798 -446 45 1623 215 -1959 -1804 -1464 -2331 -758 634 -4175 -4391 -1489 -3747 -4894 -348 -1837 50 296 -2787 -138 592 -215 999 1064 -622 1343 -391 438 -380 91 -722 -791 -164 -601 -270 -778 -169 -419 -510 34 -836 98 1899 1848 -600 2889 -989 -2923 -547 -2517 -264 1875 47 1266 1367 -2388 -2404 -859 -2971 -5305 1815 663 1489 1530 424 3008 376 102 3839 332 3418 2756 -1412 1107 510 1887 4255 2266 2110 2706 2402 475 46 -704 1313 1832 1418 -419 -803 912 -2421 -3899 -2039 359 409 1097 -1452 -1266 -642 -1454 57 -2726 2138 1067 -3680 409 127 -574 -1467 -596 -1391 -2021 -550 -1663 872 -1086 -3281 347 -802 -1632 903 -1377 -392 141 1806 987 1800 528 -44 -4 486 -502 1233 -694 1381 -290 -1365 -782 1568 -1465 -1625 -1512 -2070 -1330 -1987 -1878 -695 329 1007 1992 -83 -190 -454 -953 62 623 -397 -852 284 -849 -120 -231 -1569 -869 -886 -2288 -1118 -1592 -2372 -2264 -2298 178 890 531 489 107 454 -2989 -2719 1062 780 -251 -1618 2614 3541 2929 -158 -1356 593 1790 1577 966 -621 936 2375 581 2771 2629 -550 -1321 534 -1572 -1106 -57 1020 -909 -178 438 -232 -231 915 1387 285 -1679 -2770 -2634 -285 -761 -2119 3966 3803 1505 1838 267 -267 2616 42 -627 1161 921 1273 5983 5076 1701 -1685 -4037 -3140 -2776 57 -467 1203 152 189 1292 635 -463 450 1315 956 -54 -1834 -3052 260 -595 -2462 1427 504 -1880 84 38 2310 -1238 -2088 -2692 -1184 -568 -1881 -947 -3890 -1904 658 -590 -1298 1935 1244 928 -269 386 -534 852 2221 2022 1413 1065 -230 189 489 401 248 1861 1040 -364 1169 1564 -2954 -3716 1230 -859 2076 -1191 -30 2150 -963 -895 322 1998 -395 1093 139 -498 -3667 -3057 846 -821 -3559 -886 -2345 -1913 -717 -443 -380 2776 1961 -1038 1062 -5670 -4008 -294 -3479 -1572 1138 -2015 1728 -417 -1843 1768 1670 2895 4101 3364 928 -541 -1651 2809 4373 -2619 -184 1780 -35 -173 -777 -2931 -4407 -3195 -3064 -4239 -4031 -192 156 -1482 1473 76 728 -1873 74 -412 688 -1657 1970 907 827 475 2217 986 1622 2064 1712 1438 3459 1803 -3125 574 -1128 -836 -3591 -5852 -4373 -723 988 1693 851 108 1525 3598 2150 1024 3049 -1209 -1248 -1627 -2202 -362 -2583 533 5041 61 3496 2904 6554 2140 -5559 534 -1178 894 -1117 -2070 2291 1274 1765 169 -280 640 2372 6 -3522 -1488 -2054 -4006 -1482 4868 1639 -231 39 563 -599 -2408 -374 1453 1449 743 -709 -963 1980 1986 -4639 -2811 2498 2234 774 2114 1128 -643 2128 1390 2128 3701 -644 -60 -29 899 682 1531 -482 6 1291 1943 -244 -993 -4423 -3205 -2000 -3773 -1749 1324 -1937 -1975 2164 665 2307 3093 2336 3202 3776 -2276 1237 1161 2836 172 -1338 35 -1252 -428 481 1326 -1543 40 1232 -1387 1332 348 602 1805 1822 -322 881 -1121 -1950 3541 2795 400 1805 542 -1732 2025 -1684 -1362 2819 885 1365 -2816 1691 700 -230 1718 627 326 -2059 -2220 1482 6361 5079 5693 6561 5143 2533 -5449 -8 118 118 -384 -1207 -82 4 -906 -2497 -2049 -2718 -3280 -232 -3466 -2267 -1177 -85 -1059 306 -1891 -7106 -4065 -4390 -598 -514 -1289 1682 2035 -773 -1151 669 -126 -464 -1318 -132 -118 2972 -324 -1091 -794 820 1070 151 198 4365 1689 -173 1562 -47 -263 938 -1524 -2094 -2118 -2099 606 -1242 -3323 353 377 -351 82 -2 -583 -1866 -2002 -337 -432 -1708 -1569 2444 -87 -1603 1338 1355 -580 1550 3654 1031 1367 1957 747 -463 -4446 -2944 574 -917 -2930 453 1191 114 564 477 363 -2218 1083 113 -1230 482 -957 -2367 -215 -1404 -1492 1024 -1307 -1197 -3220 -1123 -741 -854 -3275 -2045 -845 -1291 -1953 197 -1176 2020 2092 3125 -1457 -1213 1391 -463 192 -2320 -575 -1379 319 669 1213 -1479 3002 2691 1155 970 -1889 1132 976 -101 535 294 826 202 974 -192 -151 2157 -294 -2809 -114 1506 -1298 1345 2049 1505 834 -133 -88 241 -1953 -873 2028 -1334 738 1542 925 -1726 851 438 -295 1574 38 1271 436 -551 -1025 -1454 91 228 -770 -1798 371 752 -2044 -2347 -1071 -149 437 -1413 -102 1756 -2447 450 3871 -354 1427 -824 -240 -1737 1359 248 -2121 1053 -170 -1434 -872 476 -5300 -2721 265 -3588 -2820 -1044 -735 -2084 66 -865 -1069 2068 138 -2630 2493 447 -1584 152 -157 442 -266 -452 -714 -871 -251 -304 -1133 657 1950 -482 1496 1858 -1911 -3045 -1642 -369 -148 1309 22 -640 294 -1833 -2530 -1942 -1503 -3684 1411 -783 -1639 -3991 1970 795 -773 2292 392 913 -2719 -4756 -3374 -1992 -4140 -3382 -1793 -1127 781 -1645 -3740 -2341 2638 2833 586 2562 -578 -686 -947 364 2435 -1202 34 1881 -810 -120 321 -437 -173 622 -247 112 1482 3627 -1294 -820 1853 -2933 -3113 -1282 -1205 -223 -989 -475 -25 -725 -2851 1321 112 409 1918 -1344 -849 1097 -1097 -958 -24 -522 362 -1203 -203 -2018 154 843 1176 1851 2931 2170 2646 -301 -1962 -2909 492 1283 -2063 -1314 2278 2500 -139 177 -457 -389 -302 716 1351 2111 2706 -1865 2548 2603 -74 234 -3140 -793 3917 2141 46 -103 784 -1192 -829 -1526 254 827 -1187 -1345 -1528 -306 499 -1070 -1173 -1472 -850 -1594 694 1445 1203 -141 134 816 -2464 -3182 -1300 -2165 -691 -2089 -204 926 518 227 -1241 -965 931 -4956 -84 -428 -3005 -1014 -26 1582 891 400 -65 -778 579 226 -1020 68 2313 870 -1387 -4323 -1792 -1710 -1495 -3972 1052 27 -1501 -790 -821 -1067 -18 1075 -1900 696 3155 2303 3142 -793 698 -1865 -572 959 765 318 1507 -520 -314 831 -1356 -2405 -3836 1626 1402 -360 801 -3890 -1772 655 1698 -3272 -1620 4721 1706 -535 -2766 -1220 -2054 593 -1462 -512 547 -2215 1978 468 -2206 1615 -2530 -1352 -564 191 767 -314 -466 -2456 -1081 -2075 -743 -196 -667 1093 3370 4483 2821 110 -3966 -217 -740 -3578 1509 689 -3548 -496 -4320 -3244 -17 -1760 -111 1539 2024 1396 -417 -1280 554 -423 -2420 -1072 389 335 260 -361 1043 -751 831 1245 1022 359 -1582 -1775 808 1485 1134 -2374 1106 2433 -1096 2500 897 -2021 2411 3985 4258 -517 4228 6652 -389 -380 -522 2866 1249 2874 2437 1969 2139 -564 486 1120 -3788 -3492 -1859 -1454 -4571 -1483 -756 -3018 -2266 -960 -2543 -2686 1908 2600 74 -181 -2692 -1678 -472 -1329 -2740 -1726 -1722 -2586 -253 -403 -708 1556 2431 -250 -1399 -3861 -3107 488 -1072 2000 -1857 -839 2376 -824 -370 570 -1725 -1320 -1911 191 1977 -332 -1115 -2276 -1339 -199 -1469 960 -9 -1462 514 529 -727 -1724 -968 -434 -316 -992 -2907 -1505 -620 -1107 -1831 -2266 -1861 -539 -2817 -1800 -548 -2999 -1451 -900 -2231 -945 -415 -192 -951 1380 2855 424 782 -3621 -5218 -4644 -711 -1405 -3017 -118 1323 2262 -1707 -1349 -1879 -537 320 672 -62 1372 567 -143 -983 -691 -2329 -828 919 1716 820 -1285 -1265 -5165 -2617 -1829 -3821 -5180 31 -1521 -2356 207 -1445 -1246 -1264 -179 -2231 1503 1019 -2106 -1 1868 2 1548 4600 834 -1311 -1777 -2787 1513 -777 1417 1813 1151 2600 1075 4426 1884 62 580 8 2039 1429 934 2893 1964 1713 1137 6 -713 1923 -1070 -1481 2400 1699 1124 -1814 -1820 188 820 4553 739 -631 -1693 -274 -2332 -2593 -514 -953 -1348 -647 583 965 -2017 -578 -1725 -608 -1046 1764 182 1766 1387 676 -1855 -4018 -1081 -1073 211 -723 -1098 2624 -1645 2064 266 1035 1085 479 555 58 -180 302 611 2003 2114 935 -786 -1804 -1880 293 -1583 -246 277 -6 -509 100 26 1159 1586 1517 -665 -464 -1547 3328 2048 814 973 -1381 -1243 251 654 161 -3728 -1737 493 -1076 -472 -977 -1428 -2373 -359 1595 3034 1934 794 35 -3846 -1135 -1641 -2586 0 7522 2090 -3304 -2658 -1403 -448 972 -1211 1875 1559 2802 2976 1682 3490 -580 -664 -790 -418 5556 1439 1009 347 1995 -815 -661 889 480 -124 1249 4010 1922 774 2447 -2773 -595 -3089 -1497 -1270 126 -559 -748 -1656 1351 -1251 -4734 -1233 -1713 -1239 -3507 -784 -122 -1891 -2211 -3392 -2845 -3153 -1683 -2139 -1393 -1495 -1520 -4430 2485 5295 1964 -2053 -2284 -1155 -598 -2450 -2527 235 -618 2075 1367 2341 1723 2043 -377 1268 1812 1182 522 237 -547 -292 1464 2640 2286 -782 -2173 566 -1039 -2951 -557 1027 2062 627 -927 1864 2393 -27 2497 3929 683 1959 2225 449 904 -1086 308 -1333 -2051 -2873 -2038 21 -3768 -1180 586 -1222 -184 -314 2422 -100 1957 2170 -2678 -569 1404 -244 1400 1494 1117 1728 1310 3168 4329 1316 2947 1874 -1930 -476 -1831 -2647 752 -1013 -2796 -818 -2395 4595 3478 3995 1338 -83 2015 3360 2522 4210 316 1187 -302 2320 2091 718 1418 1605 623 851 5190 1139 2098 3305 -185 -4537 -4317 -5187 -906 -1337 -1485 -2797 -2792 -2077 -102 -877 173 -2017 -1447 -329 -326 -511 -447 -281 -336 -935 435 1156 318 1594 2089 -193 3085 1775 -43 -3242 -1515 -893 -819 -219 438 189 422 346 -7099 -2892 1302 -4522 2000 7213 -1152 4555 6443 -289 -619 -483 -1663 1367 180 -1493 1269 541 -650 1553 923 1195 1272 800 1760 1715 -116 -192 858 -443 1779 3052 1332 74 1444 1262 710 1527 2108 -1413 350 179 -34 2332 1357 1405 460 3823 -4988 -6483 45 -1710 -3226 1247 -2875 -765 537 -2187 -535 -790 -1298 -580 -1672 2476 1916 1294 3145 4216 1541 7055 4266 3541 -2864 833 1862 -2708 -1631 9 -2695 -2445 -1218 1313 2014 807 2526 3079 -57 1325 1784 439 -2842 -3666 -5684 278 1160 -1109 -407 51 -894 -505 -764 2911 -871 -2560 428 -293 -221 1408 936 1838 -155 1968 2323 -1391 443 2691 -1152 2803 3821 3148 1507 -198 1847 473 302 853 70 -1549 -554 -2770 -3860 -2701 -1205 -937 282 1033 1232 233 2487 2375 753 827 457 187 -1418 2314 2489 1002 2182 571 1923 1880 378 2305 1066 -827 2817 1494 -341 1971 877 -952 1118 1350 517 -1158 2660 1008 -28 1381 -461 -1489 -1124 285 -1676 -944 -1069 -3352 -2323 -2529 430 651 633 419 -18 1063 1890 2193 3062 1523 -2143 -2569 3166 -1793 -2388 2534 -1795 -2822 530 2700 2111 2336 2487 2541 -1487 -3116 -1395 -831 5337 5525 -4915 1238 9248 -10400 -8175 -2731 -253 -312 -1490 -257 592 -617 -918 -568 12 1744 1731 635 -638 -156 -574 541 886 1370 -870 808 -298 -2941 -13 -1970 -961 -1166 -1910 -408 194 163 713 2113 1967 -24 1499 746 68 802 -159 643 1544 1413 1150 1244 698 -124 -952 389 857 1318 -845 -1953 317 1550 -560 -1414 -612 279 514 338 1133 1181 362 -1390 -2951 -1008 -3223 -4925 -3456 -663 -1806 -1522 -2493 -413 -1206 -1436 583 -614 -1074 -2354 -1592 -591 -81 -484 256 74 822 1102 -717 -360 -653 1054 -418 -878 1637 1937 -245 1308 -8 -349 1619 160 671 1100 -1265 -2000 -26 -2751 -480 -792 -1503 -94 -884 -77 421 -2033 154 2084 1528 1300 2350 2947 1285 1600 2162 918 -455 912 -734 201 1427 -605 243 764 -1304 -3387 -3351 -5103 1380 2132 -2942 1094 5001 2750 -281 1000 765 2180 2856 1186 32 482 371 -549 -324 -572 -461 -762 -2430 -1141 -2651 -2374 -2205 -1780 -4342 -1435 -727 -456 -1470 -1667 -77 7685 5683 7948 4404 933 4020 7068 4821 6731 1150 682 560 525 1388 -15 -610 -536 -572 3489 2384 -1072 2931 2409 -3246 -761 -368 -3795 666 1729 -1417 -479 1729 -597 -1517 733 510 1144 1651 1249 997 2005 1273 2008 1473 889 -109 1375 -909 1112 2832 671 679 1735 326 -1184 650 2118 -1346 1031 3121 -1476 -816 1271 137 -1066 -151 677 907 2036 -974 -2885 -698 940 620 -1458 -347 573 -506 306 122 463 -1197 -548 96 -2011 -1189 -1054 -549 -811 -947 479 709 43 355 1668 442 -3889 -1900 -1785 845 870 -717 977 1063 514 166 205 542 -154 -999 -1614 -1580 -302 866 -2092 -1368 -691 3117 5330 5744 4800 6838 7093 5893 6648 8282 326 -342 -828 1736 1915 1512 1249 2595 3712 2287 2712 -9248 6545 6010 -9269 1754 1616 -9950 1211 961 963 563 1976 446 -1224 1731 1099 -795 2606 1731 -1237 1285 3706 -811 1182 2819 1323 1196 1061 670 2003 1577 -1061 -16 -109 -1758 1613 645 192 781 949 602 1817 1249 -2817 -1703 -2405 -583 203 -1424 -1713 -2143 -1930 440 1446 2019 207 2040 1627 1345 1822 1759 -2817 2257 1653 -240 2306 -1060 -690 -640 -2020 525 928 -950 1226 2359 -612 1798 2176 -477 -467 2442 1301 1098 2026 652 -217 -284 -532 1423 -421 -609 949 -2756 -841 -126 -3299 -447 -2172 -1388 -861 142 -942 1199 847 -555 56 631 775 -517 -1984 -476 388 -818 535 1145 642 1381 2153 -1076 -1492 684 -630 248 1067 -579 -122 2573 -2734 -188 1808 -1209 -653 1619 -1883 -1715 684 -2584 -1928 485 -1665 -294 776 -52 2510 444 754 2605 1064 -2492 107 -2039 -166 329 1354 168 110 1981 9 484 1567 -1080 -388 -277 -868 -1347 -690 -662 -81 -1274 2512 1102 -1381 339 1858 1922 -441 -923 721 -1027 -2883 -1599 -1672 -2384 -43 -1487 -135 3677 -4698 -4496 -1992 947 2309 3880 1874 3188 3530 -726 1070 -367 -3 2284 488 -97 -717 -610 -728 -936 -3231 -536 -138 -1162 -1209 -1325 -616 -7227 -8824 -8950 -464 2350 1176 3463 5983 5390 -612 -231 -1679 933 -934 -2523 1489 -571 -2143 -573 -1631 -2405 291 -1914 -3228 613 918 -792 1403 -917 -1025 -478 -1634 -1719 -1738 -2688 -3478 -2744 -1920 -764 -995 -412 125 2079 1719 3387 1139 -162 -1500 2037 1584 -608 1021 1385 -180 693 144 43 241 -828 -155 1221 1479 2298 -562 -1675 -793 1427 694 -592 1716 -801 -548 743 1361 68 625 -130 -435 720 1021 1740 3482 -83 -797 2901 1950 409 4053 2890 2521 3355 4364 3801 4758 4876 4997 4401 6490 5729 -972 -1111 529 -1846 -3975 -230 -994 -1089 2284 583 744 508 314 149 1360 -311 841 3465 1991 3336 940 -376 88 -1341 -1727 -2423 -2702 -1099 1085 -229 579 1695 -466 -133 485 221 -962 -122 255 -2001 438 687 -3323 -482 -1310 -433 -804 -253 218 -335 -195 12 -252 -483 97 -715 -728 -1059 -1606 -1475 1195 226 -1223 706 2701 2319 -902 2070 1238 -805 1950 1256 -643 -2608 -460 -1036 -5246 -1045 -1148 -4826 -1381 -1111 1222 520 -739 -1899 -1170 1144 667 -119 -1295 1322 1090 728 2943 -84 74 1717 -375 -340 -563 -1026 -985 226 766 -192 -973 -768 -1159 57 -324 403 1682 2231 172 2016 1841 -675 1020 1012 916 1209 911 1246 2222 1527 -318 1086 1926 1614 1598 -806 -231 -780 -1969 -3062 -1013 -3176 -572 1251 -787 -3825 -3967 -5370 -311 -467 -1735 1975 1 -812 2308 1402 1836 -2007 705 3024 -2033 2009 5298 -1945 -782 323 -1498 -1920 -2326 -1102 -2406 -2596 1076 2261 -793 -1333 -1671 -1265 88 -1202 -416 163 -836 -790 733 -530 35 -962 -531 -1657 -72 1499 -1415 132 -3 951 668 -339 1367 1868 2085 2244 1634 1355 1446 -1373 -6047 354 1102 537 803 2042 1586 2374 -288 4329 3209 -560 875 -1202 1013 -231 -88 -154 -1927 -1392 2686 -578 -2660 -274 640 -1484 2539 466 -468 1788 -1921 -2285 -4797 -2308 -868 -2763 -4270 1211 -2978 -8 6191 -398 -739 -930 863 1156 -119 -2417 -609 -1439 -905 -460 -516 -887 -354 -422 -204 -659 -134 -282 -1627 -958 -46 2475 2188 -218 2130 2044 -1315 -167 -836 -260 -3052 -754 -1950 -1485 -2616 726 -612 1633 -842 -184 386 471 -191 1521 609 -3042 -338 -2994 -7467 -4600 807 -827 -337 -65 -3024 1236 1028 1075 94 -505 531 -1607 1776 -2387 -1253 -1023 -3053 5524 752 -1105 2214 -1323 -598 -1003 -2455 -3937 1395 -1464 -3417 3054 -737 294 95 448 544 2155 125 -825 -361 -604 -706 905 -1767 1504 116 -1027 -880 672 -210 -2396 -636 1602 1646 822 22 -75 1762 54 538 -506 2236 2017 3899 1926 5199 4299 824 835 1516 2353 2057 -1144 2140 2220 -1566 -456 -454 -1123 5170 922 -3018 1430 -2070 -3527 1173 6 -1109 -1837 -2274 -2354 1968 16 -2866 1565 -2867 -3086 -1234 -2330 3337 587 1859 1633 2682 349 -951 721 308 -1831 930 571 1377 -3228 75 1958 -1851 -4132 -2235 569 -1025 -2569 -725 383 1764 -1248 1330 2426 -1804 -939 1389 -2108 -742 1710 -1809 3368 532 -2122 4209 -311 -2373 -3297 -1194 -1662 3094 1175 -792 5355 1517 3086 -343 591 1733 -3444 14 988 -422 812 -2041 -3306 1519 3465 2993 750 2582 4298 778 2445 3687 -870 1071 -6460 -2182 2425 22 -1120 33 107 -199 581 33 3634 -2418 -2877 1418 1201 2979 922 -696 -2174 -1995 -1989 699 675 1332 322 -308 1211 97 -72 -1077 -633 157 2202 27 911 1205 -2024 -1803 -697 -89 800 1203 -933 -865 1336 -2834 -2513 1429 -485 -1390 -437 1276 295 887 -517 -867 317 2636 -813 369 449 1537 167 -1247 -703 280 291 71 2190 -358 -225 877 543 1371 -1139 -436 433 -530 -2822 1832 2243 4383 1603 2272 4559 4364 -1012 -2858 1859 -1706 -504 -1598 97 636 1014 254 -1534 -2874 494 470 94 -1391 -649 -128 -72 3627 3219 1208 2877 2892 -2243 -4811 -2527 153 953 579 3533 620 2652 -516 463 2310 262 1044 -1748 382 -1105 -941 3122 -3753 -3334 -156 671 788 -2881 -1663 -2976 -233 -1345 398 -1251 -718 477 2191 1772 1450 -1311 -650 -801 959 2084 1973 -7214 824 -21 -2037 1862 1418 1440 1474 872 -2250 4187 3295 -4371 -2295 803 2443 934 -1525 1967 -2014 -1204 -2269 -2303 2325 -478 -291 1056 -700 2701 2377 -1115 -2432 -1654 -1117 -1807 -3816 3862 -2095 -4956 1063 -2807 -4693 -820 1270 1145 -414 680 1948 2550 -419 770 150 401 -988 132 -3599 -3793 1096 50 16 1156 257 1366 -514 1207 963 -1872 2187 2434 -496 -588 -840 -1004 -2758 -2313 -2115 -2044 -1543 -1204 -1868 1948 490 -8583 3968 1387 -2760 382 635 1324 1395 235 2382 2100 1087 2448 2967 123 43 727 -935 -2571 299 1067 1198 2936 503 -183 -270 1017 838 5485 155 127 1702 -1539 -1820 -120 -2200 97 2326 -854 -40 853 -2109 -768 -655 643 -950 -987 259 -4337 -919 1560 1746 1426 -2179 -1565 -1494 -1032 -3050 -389 619 110 -110 1679 -1446 -1131 467 -2307 -1160 -1870 -4811 -2640 223 -3266 -1058 208 770 -162 -4362 -2772 -2786 228 -2849 -2582 2806 1007 -1445 1347 1692 2475 356 -4149 -886 -716 -5675 -1060 626 1985 656 -1215 125 743 1609 2152 -872 2632 2461 -4371 2442 4324 -5129 2539 3754 -1068 -2217 1105 376 -1119 -4287 -25 5014 454 -2327 750 -21 -177 -396 -1086 -11 -1801 -3708 -1576 -1075 1294 -702 -1321 -1184 -558 51 237 -37 -443 -755 -1128 1458 -3737 157 1333 -1173 -543 -1904 -2648 -4759 -1035 -4327 -3696 3992 3379 -377 -1524 636 3081 629 -6756 -908 1365 -274 -2383 739 3448 755 -1446 2183 -125 -860 -159 -1285 -1254 1566 -745 891 -272 -3170 1606 -1092 340 918 -195 1091 712 -1055 258 1032 29 1703 1160 -2107 1988 2783 -5182 -1569 1166 1928 -161 1367 -1093 -324 383 -2757 822 -2205 -2141 2221 -709 1722 1567 1604 2741 -2744 1166 -1231 -1120 -2257 694 -2356 -2007 3 -2038 -274 1333 991 2046 3547 1318 1082 -1095 -1284 -789 -45 -33 2950 -586 1436 4159 -7148 -87 114 -3171 114 -934 627 -30 -953 351 173 231 461 1626 576 2584 677 -2413 -313 -1656 -1578 1131 1487 1367 1175 1196 2513 -163 695 1658 -1097 -1742 899 646 1979 2836 1064 269 -1103 2191 1557 -2538 2476 -1685 1192 10261 1796 -2349 2152 -1905 929 1104 3808 -73 -1347 2661 -285 -2217 -2683 83 -1257 444 -195 -3720 -101 -94 -419 1093 201 -974 1467 -616 -1906 822 2204 -742 -1055 2818 453 436 -797 -3557 -164 -1307 -2304 -142 1066 1984 -488 815 -160 -1214 -246 -637 -321 -1548 2124 -1808 -1356 1963 -268 -1694 1021 -1236 1575 -1882 -512 1331 -3224 -2114 -166 -814 2742 -1093 -1810 -1739 549 188 793 1244 1478 2544 -1453 -840 -973 -992 -1919 971 -1297 -1656 -142 -1703 -1862 -1858 1402 921 -497 1618 522 504 -985 -1587 -1854 -2090 -1549 -3546 -2488 -1395 -3761 -367 4459 -661 -492 1961 -291 -965 -67 1865 1368 231 1353 3230 6060 2652 500 1505 -4167 -1778 -2368 -1802 -2958 -3940 -3934 -2315 -1339 -2247 -337 -881 974 -1114 -3429 1530 -2361 871 1649 1222 -1249 -1419 2133 2943 2879 177 3007 1110 641 -769 -1161 1091 -1491 262 657 -1318 821 1972 1737 842 1747 1384 346 -168 -824 -1504 666 -1973 -1708 817 -1040 -630 -462 -129 508 635 2270 -1364 -2165 -2681 -2224 -475 733 -792 339 -812 -790 -329 290 -725 -497 -354 1686 746 -3402 1274 1596 2353 1757 1281 916 905 1079 -3105 368 3923 -3513 1231 3641 -1352 1057 -39 2856 1566 2909 3201 873 246 -2191 -2960 288 -18 -70 1629 902 696 1127 -1677 2406 -62 -1118 418 -796 -998 173 85 -4 1191 -531 -901 536 -640 -119 1252 293 1699 2141 -1232 -345 1850 45 -1070 -831 -1492 364 -1268 1395 -1133 -1712 -172 -555 2739 195 2258 1210 -915 -647 -1518 -2052 -1886 -326 -1411 -242 554 -1163 -2240 -1217 -1969 -2580 -2761 -1131 -58 -1321 1946 1009 909 -326 -1099 1924 -413 2174 1515 993 -361 -305 2784 90 324 991 612 1316 -556 3580 207 1378 -4509 -2185 -1871 -3363 -3251 -2469 -2206 -1371 -4353 4177 2002 -2829 4442 5169 2059 1276 1106 1397 1664 975 -1792 -1575 655 -2004 451 4684 -1420 -3855 2171 -971 -796 -108 -1747 -1943 2256 -1108 -8637 -1969 -48 -4934 -828 2056 2969 645 249 649 -82 -202 3310 1527 -907 -729 -988 -1103 -513 -1123 -2545 -335 -1617 482 648 -556 1927 3059 -1246 -963 -621 -1641 143 -829 -1136 -693 -762 -1354 -487 193 255 -1222 339 1549 -1850 -879 2933 -946 736 3816 -3139 466 2145 -2742 1413 4014 -1934 2782 3432 -624 -259 122 -412 44 -1816 -1828 -1762 -3524 -3735 -690 585 -3867 -305 1863 -2490 -877 1658 -4 353 -1 1757 2074 834 940 -364 -1043 -1207 -438 -197 -373 -718 -540 456 -694 -1983 -786 -480 1559 388 676 879 -1301 -40 -924 2798 -2056 -2422 1647 3829 361 1022 783 -1374 222 -237 -689 -811 -1566 -1318 -1159 -2081 -498 -1385 -463 -867 -627 421 200 2357 1861 985 1435 -692 -1618 266 -1722 -2812 358 -456 -2919 1676 -1930 -2778 1034 -3539 -936 -16 -2299 1203 -823 212 734 -2418 91 957 -2763 -1989 668 -319 -693 -681 -1219 -585 -1373 -1030 344 -564 1604 2508 836 973 2732 355 -1688 1312 -2225 -718 553 1997 -1775 620 -556 -442 670 1679 1649 -622 -1599 2779 1547 -2514 1672 981 -2044 575 1772 657 106 2114 2592 682 1936 1378 -1195 -878 724 -924 -687 -411 -1236 -903 -1094 2431 -495 1091 -322 278 1891 -1495 76 1880 -1202 -1936 32 -1617 -1903 1103 -815 -1328 592 -788 -1777 968 2426 -1735 -2269 4038 -19 -2453 2185 1106 -771 659 625 -1206 2229 1180 -701 -25 889 -550 1314 2195 -682 1387 322 679 813 -683 935 -2550 -2058 587 -2230 -1122 1713 -1044 1694 -609 -453 1585 -1917 -1904 -626 -2204 -135 1588 418 118 1132 132 1128 186 -76 218 -2287 -1528 -1045 -1097 833 554 546 770 -33 -375 -48 -29 1454 422 -432 1648 1333 55 1094 -644 -249 293 -690 1396 -1821 -188 -101 -126 471 -1469 -677 272 -154 -384 102 -534 -1430 -1335 -158 -1409 -1461 145 -1284 -402 2171 1513 -1013 3341 2854 -3022 1708 1357 -4121 167 -13 -324 -455 551 -317 180 2074 288 672 -1417 -939 951 -12 -2302 -498 469 -3140 1708 747 -1570 718 -906 -1504 1792 1835 -965 593 392 -434 -64 235 -129 -316 -1202 405 -31 952 916 612 -185 2484 1996 1450 2057 -1413 -2285 -1891 455 -1939 -779 332 -1424 -2042 -184 22 159 373 1146 452 -650 -30 139 -1039 -380 -1660 -1604 1351 -847 -1149 728 -477 -295 26 482 -1550 -1833 -791 -2229 -2519 -504 -2076 -547 -818 -2155 -676 -1344 -2777 -1646 -402 939 -264 708 1540 1906 -851 1787 876 -1398 -1252 -1437 -254 -1795 -1426 -423 92 -1918 -1161 1852 -359 -67 1178 1775 -501 1212 2578 -95 1516 -141 -301 -1533 -2706 -1193 -491 -2893 2853 2228 -1017 3072 2426 -1362 2554 3571 2161 1380 1136 1218 -1288 -247 1997 2204 1326 886 442 -4110 -1676 -2007 -1636 574 -1205 319 1122 -1186 -3366 836 158 -4076 -919 -230 -1070 -214 2336 404 2760 1196 -733 1591 306 730 986 1168 -1405 5253 -3517 -268 6113 -6241 554 5217 -2014 -1516 -1834 3820 -1027 -2249 4285 -181 -2389 1927 3 2022 888 -13 984 253 -40 62 -394 -3217 -270 -398 -1361 988 -136 103 846 -464 1001 930 -1757 492 -1097 -420 687 -2237 -978 128 -1289 57 -485 -1060 873 -31 -36 1304 1177 -806 -102 1027 -846 -376 2055 -184 -1036 1354 -4 2666 1769 -122 2463 -357 329 1476 -627 195 -1513 844 1797 -1412 451 766 -854 -282 468 193 2200 1244 -350 82 -452 -1252 1033 588 -685 334 723 -358 -42 367 -1189 198 1001 1075 -1340 -1188 1589 -1917 -2201 1774 -507 -990 1179 131 1134 462 238 1187 -1604 -827 1145 618 -1478 298 920 -637 -167 1384 583 239 252 -2799 -572 -256 716 -1902 -317 719 303 1800 -1076 -2549 1559 500 -1274 1629 -912 270 -1350 -188 -370 -646 198 -247 -27 -1603 -462 1488 -784 -108 2041 -471 -830 524 108 1045 422 -935 1577 -458 -2773 420 -322 -1325 -3112 1721 1639 -294 -1638 466 127 -266 -1017 2532 1125 1090 3683 746 -662 1140 904 2830 -452 1087 229 -87 2485 -1232 208 981 -2452 -2078 -360 -3088 -2197 -978 -1720 1085 1843 861 -1515 803 814 -2641 -843 617 -2034 -326 1197 994 -1774 860 1067 530 -71 625 581 -709 -404 -179 -598 -358 535 -243 1190 1323 -551 -1308 -37 -139 343 1050 1540 2005 1851 1437 323 -502 -12 -1947 -3365 892 487 -1946 1875 -2659 -2210 1001 -3822 -2767 -539 -4826 -3215 -2365 -1376 832 92 802 272 -892 1055 49 -4182 -233 -3258 -892 4495 949 -86 6960 2964 -71 -1141 1063 -105 -2657 2032 -496 -1718 184 786 1265 -1101 -612 -577 -1109 -1384 -673 -1069 1339 1740 -565 2188 3299 1492 1832 2499 -6 2101 275 1324 1642 -2381 2334 925 515 1000 -1196 -841 995 -3337 -1974 681 -2196 372 1179 -350 -1209 212 289 -919 -625 -1199 -1533 -1217 1057 -1077 -785 453 -1955 -2676 -381 -2891 -2745 1191 1129 -1964 1289 2091 -675 281 2785 255 -1320 -829 -415 -402 -537 702 1112 1390 1358 -1869 -1077 638 -2132 -2295 298 -964 672 212 -1985 48 -1871 -1307 -116 -1497 897 1307 651 -91 1400 946 1231 170 -2345 1040 -2571 -2274 -2789 -1294 -822 -2992 -563 443 -4287 -1448 94 -427 -186 -1970 424 -567 -1206 96 -677 218 1078 -1579 -374 964 -107 -237 583 1421 3119 1408 -402 -907 213 -825 449 381 -213 -489 164 439 773 735 740 2394 -478 -860 -1110 3812 1232 -1982 2424 367 -608 85 -2533 -115 762 1446 -737 543 1392 711 -7 630 735 -330 2429 2361 -460 3219 3646 -2035 -249 442 1063 -1197 720 -1339 -5049 -1320 805 -1276 777 -2145 1956 -134 -1476 3803 1039 2175 2754 508 -167 455 995 -405 1658 1555 -1348 424 -828 2740 3171 -805 1919 1799 7 808 204 -474 553 644 1704 1502 -655 481 817 1243 850 -847 -3093 -1702 -1256 -1493 -1404 1219 -2259 -549 216 310 -1031 188 1585 315 646 777 390 -5 -1512 247 -610 -957 -473 1754 599 121 619 254 954 675 463 1360 -200 -242 622 -824 -1075 -524 -1383 -420 -992 -951 -313 -1189 19 -1763 -866 2958 2224 -1326 4518 3185 -323 3106 2913 194 2188 2424 954 1433 1641 -818 301 158 1286 1562 180 -1050 -758 1236 -1538 -375 -1151 -978 -723 -664 -724 -609 -681 -1412 140 1713 553 -1181 1936 1061 -2420 942 2136 2009 -251 -368 1410 -2701 -732 1117 -381 -1435 -172 -1942 -2751 -2209 -3536 -1213 -2599 -1729 546 1229 -7 -1891 1952 850 -969 1867 715 -1916 321 -1235 608 157 207 -895 1113 562 -226 -832 1238 720 -719 1025 -1388 -1077 633 -1398 -2673 -4556 -31 -2876 -5647 -666 -2644 -5537 -1187 263 -1230 -2104 -418 525 -1258 -3 1018 -386 821 -2050 159 -602 -3785 -2458 1054 -3002 -682 -462 106 -204 216 -594 -831 -899 -202 604 -907 125 -1575 -1672 401 1685 -1540 58 1027 54 220 -950 514 -157 144 1226 -33 33 1794 2744 2052 846 2075 1170 -918 -187 -1065 4414 2123 2393 1334 -1390 -1331 753 -51 72 754 691 1032 1499 107 769 1884 1815 1573 603 608 -148 1039 451 -335 1013 -74 -504 -2949 1252 -74 -195 465 1044 -3350 -322 -1867 -273 234 791 2113 2055 621 -1039 -2053 -1107 1322 197 1005 875 200 -372 2365 1911 -1165 102 -733 -199 -2002 -1461 -1183 -919 -950 -701 684 335 -1882 466 216 -814 -387 407 -318 -2250 233 -496 -1904 -122 -1946 -536 -1600 -3044 -905 134 1020 672 1182 1777 -564 479 -629 -2532 -37 452 -2415 -1666 -1152 2126 -383 -1280 1381 2559 -4070 4364 6649 -2799 1749 -624 -1977 -603 -1586 -1665 1748 -373 -1752 712 830 1864 -1288 -185 -1499 -703 -1608 1114 -321 184 605 187 -1214 -1455 442 62 -150 -769 -1056 293 -1129 -1418 713 -2502 -3819 650 230 -1049 1469 1033 -871 -1667 -1213 -257 -2720 -65 -981 -334 876 -3034 -689 -1889 -3005 -979 -564 -520 493 2793 -481 -325 930 609 43 316 287 -608 -745 1264 128 -1467 -1043 -735 -1782 -825 -490 -480 -465 -1695 -935 591 758 -993 81 -837 -3237 283 975 -1000 424 301 178 562 18 -329 -630 -491 -1661 549 106 -1711 -1096 -2080 474 585 -1355 1907 2602 -1171 -1470 -2420 -5304 -2486 -235 13 -1837 -2362 -2008 -2189 -3658 -2556 302 -827 114 -14 646 217 765 362 -1053 -1826 -848 -837 -3822 -2392 -2139 -3402 -1712 703 -596 408 245 -137 -1748 -1112 610 -26 352 -641 -1070 -982 -573 -1899 -1284 -1189 -468 -1440 1172 974 1729 187 -278 -172 -76 -179 -405 912 -392 648 54 -133 -769 -438 -486 -1200 -34 356 1079 -1233 -1180 -23 461 -366 769 -1393 -1241 43 -1364 298 805 -337 165 704 1372 -979 -443 568 295 -140 832 -493 -770 -1686 -1106 29 -2493 -3696 -1998 -1480 -2046 -1493 1552 -1155 -705 2882 -1710 -183 1454 -307 -48 601 1091 1539 -145 186 1000 -1546 -685 -1405 -1917 -540 -1965 137 3462 1437 2653 7031 3446 -1708 1529 1855 -515 409 1908 -59 -1219 -448 -243 -625 -1521 516 -1598 -690 438 607 -276 1587 973 -303 -448 161 666 1017 1382 523 -20 -183 1181 2034 -56 -730 -768 332 -267 2123 3290 -705 3277 9436 1700 -4907 -1706 -2792 53 -2053 -3466 1665 790 -2772 -85 213 -453 86 -287 414 -885 -2109 1232 -351 -632 941 1015 -594 2605 1330 469 1071 1049 -244 -126 -1005 1014 -1873 -370 1183 -1222 795 -210 -817 -1301 723 1230 526 360 765 1772 -722 -1187 -1444 1905 1253 -122 1782 1401 -1086 177 245 -1863 -774 562 -199 938 908 421 -513 -363 -1511 -3302 1416 -1275 -1905 1570 -565 -1551 552 -1230 -1867 3598 500 -3585 1737 979 -249 -525 -1642 -171 -737 -1180 234 511 -880 80 1356 421 -134 -1524 -2337 -1238 -2310 367 -558 -1068 363 76 -119 721 1166 1117 -1226 1048 1291 -207 -448 -682 -1744 1178 875 -549 347 1089 1861 1309 434 1419 167 -182 -748 -781 -758 -490 599 64 -365 -115 65 -558 -955 -455 -1729 -379 713 -1279 1042 178 2171 1810 91 -2224 -3091 -842 -1317 -3292 -675 3587 3119 1947 -1543 -485 1489 -1632 -1842 481 -590 -1443 438 -574 -754 217 -1330 -2653 -675 -581 34 833 -627 -237 -173 -798 -899 -1618 1234 1060 88 598 -912 4957 -161 -554 3613 -1425 -1443 -1309 1973 2246 835 1215 -1161 681 143 -421 -526 -1937 -1854 -667 -3764 -5363 -2557 -1616 -876 -3311 -608 -793 -111 767 1102 577 255 406 69 -83 -1238 -2523 -796 -1735 -1076 11 -1371 -165 114 1321 2173 -608 -1345 464 -2955 -1685 -42 499 -440 1322 609 742 400 -1398 177 811 2470 2469 1504 1052 -698 -1074 -67 -1796 -993 -149 -1 583 -18 -759 1200 -338 759 -88 -175 1033 -133 -290 616 508 274 904 519 -195 -997 2086 742 -1694 -1289 -889 -540 -1459 1446 -1049 -1466 -793 -1001 -248 841 2324 914 403 342 390 703 -95 -257 -1289 -364 250 -1541 -1014 -1262 731 1834 1183 -290 -436 -267 -3264 -2255 -2737 -2708 -1882 -3372 -2213 285 -1060 1400 -1070 -401 7 -1009 509 -465 -753 -507 -814 -853 -368 -196 -92 -211 -1526 -1106 333 974 1530 -384 -739 18 -465 303 820 -474 2079 -136 -141 1135 1126 -776 1339 725 -1000 1683 325 1472 2942 1065 460 340 -116 -670 2104 4700 2471 2945 4508 3554 -2536 -3582 -2900 -532 -215 -546 -1909 137 0 1603 1611 -316 1048 -1118 1945 -604 -1911 -780 202 588 -301 452 -1145 477 876 122 -134 264 400 1176 -1562 -1259 -3177 343 -1255 -3533 -1821 -1042 -2821 1339 1359 142 1883 413 -1079 -185 -915 -1396 -1270 -190 -618 206 1043 -1259 -96 1294 -1903 -691 158 1312 278 -343 -515 829 469 -768 -244 1452 1315 306 2592 1223 -988 -2486 -2740 421 -962 -1163 -4306 -2502 684 -1135 1004 1674 741 1188 -32 1048 2477 1815 22 -696 -732 -2449 -1965 -1802 -2059 -1460 -2138 -731 -1600 -438 230 616 301 -2120 447 -182 -2048 852 286 -2522 -1875 -995 -871 1518 3679 381 1071 3255 1175 -970 -1266 681 1028 -46 830 69 -50 303 -949 -85 187 -194 875 -1076 1240 786 344 189 -2 806 1883 1433 -595 -379 -896 534 639 135 135 384 1267 -119 -911 1281 1967 1764 331 1568 1222 -50 1056 1207 258 823 41 790 -27 1128 1190 -1154 954 900 248 1613 29 467 1311 -1583 659 473 -183 968 646 -2986 747 1175 -2617 -1114 -1500 -1364 -142 -1129 -196 -2201 -2153 -1742 -211 -1720 -1219 -363 -408 671 1059 -1532 489 735 -2102 -1353 1767 1029 -625 250 -1728 -625 -185 -125 564 1609 3945 3137 -1399 1470 2830 -3486 -3679 1001 -1371 -2425 -1849 1542 654 456 423 -674 -838 165 646 10 167 656 -912 -1355 -693 -1487 2530 -10 453 544 -1012 41 -957 -1067 -458 -147 -843 -1062 -1351 -305 2240 -985 952 2220 -2615 -783 -2012 -862 1860 -147 1475 3176 1809 568 1181 1048 558 253 452 69 674 150 -659 847 71 1910 3290 1836 -704 446 -313 -1610 -354 1263 251 1205 536 1770 320 -598 2804 5136 -512 -2815 -6656 -4821 -2950 -1514 -2129 2037 1369 559 -1447 -1404 -1422 -1336 262 2485 -341 -425 -1071 -19 1108 -2193 153 1381 709 -1253 575 379 -148 776 1033 -1477 46 -207 -1239 -2069 4321 -2284 -4022 -2569 25 -583 -4 731 1220 1318 3100 -440 2496 2861 5145 3286 -1281 -1712 -1887 -655 -736 -1438 -1002 732 -923 893 -2041 -3526 -1379 -4482 -5218 -130 -1806 -4236 -1341 -1858 -491 -169 -2437 -484 -1268 -602 2032 -642 -100 393 -77 1331 659 167 319 582 1287 999 1353 815 -923 -994 1451 495 17 233 -46 -1417 529 509 1998 3 1263 2093 113 -2821 571 1132 -358 2094 321 -633 3628 370 -619 -1043 -302 -1557 -993 -105 286 1635 -396 -925 -234 -154 -2833 -1479 -1725 -2491 -2097 -978 -702 722 595 -875 -66 -1586 -1070 -1642 -4277 -4430 -936 -698 -4008 -4594 -1330 -3878 -2262 328 -300 342 648 -88 1454 2018 1180 2085 -385 -457 -373 1055 2344 304 2536 2929 -1587 -1021 -3202 -1224 -164 29 842 -15 -512 -848 -261 2376 1612 171 1054 1188 -2083 317 -349 443 778 624 1861 3469 39 2563 3961 658 -1122 -1247 -1624 4 -1507 -444 2077 -408 513 1857 1420 -3002 -171 1129 -1164 498 4312 1234 -31 1353 -2168 3724 1682 1224 2473 5158 4034 -652 -843 -2409 2401 2638 -1683 1143 1335 -3301 372 -657 1332 2100 -84 -480 2765 -281 -1915 1726 670 1309 1107 -961 -864 788 373 -132 1724 -1761 -718 -874 -2205 468 -1087 -629 1922 -751 -1546 -296 1102 876 2269 1275 -12 1081 1505 340 954 -2139 -2155 -1520 1641 1759 -499 -348 -176 1036 -1937 -1169 1069 250 -832 96 -1183 -1561 -1165 -2161 21 140 -1258 -2185 -1305 -775 1140 1222 835 312 1110 1895 650 1268 2072 158 -155 -149 -520 -919 2511 2315 1572 -638 -1938 -785 -121 -1373 -1013 -755 -781 515 -2037 -2740 -2196 -3480 -4737 -1782 -2581 -2533 -499 -392 875 1994 -738 1035 1832 -1413 -372 -577 1437 118 1053 -2489 -2751 -3326 -1818 -422 -2445 -3535 -766 -931 -1363 1231 55 -3038 -1134 -1608 715 -1107 -964 131 -2816 -1679 -360 -1760 -1098 653 2 1330 897 -1134 45 650 -286 -2051 -1230 -394 -31 -3720 -2957 -4627 -409 -252 -1593 2012 -1202 -112 1180 -2135 -2883 2237 -720 -2839 2648 -363 1400 -611 -2329 823 -902 -2864 -358 1180 980 744 -1569 -3925 -3181 335 435 914 -1695 -1677 -2800 -1797 38 -1822 -573 928 -2146 -670 -1105 1116 -695 882 4848 -570 783 5711 335 824 1229 3 -744 -1047 -11 215 -1613 1147 3166 2665 16 3820 3456 -723 2911 4061 -1028 -90 172 -2638 -1118 -550 -1307 -833 -1482 1872 5418 1553 611 4127 -1137 1255 2884 760 1729 -169 391 4284 2623 -608 2894 532 -3420 306 -721 -635 917 1109 -786 1121 213 402 -1973 -170 2249 -3967 -3249 190 -1972 -2243 -234 2861 1655 -885 8 -1783 -2827 -96 -2205 -2737 545 -309 2675 1925 -131 3107 1422 -1925 3239 -599 -3117 630 1466 -910 1340 767 -2290 -192 -1809 -867 -112 -262 -95 -1319 320 110 -351 -402 3037 -998 -1719 -1286 -4429 -655 -236 -1848 1479 -213 1353 -1619 -1683 -875 -2383 -943 2740 -1311 -2873 -5556 -2046 -4214 -4017 -1276 -2747 -1550 -2223 -1783 3387 -2772 -1961 2113 -1866 -2119 -293 -465 -960 -726 1168 1137 1480 1800 1371 2351 -1696 -2483 -4846 -501 1110 -1518 251 1087 496 -1633 -274 3325 -701 3602 3913 -1047 3568 5257 -1605 -2572 -935 -1105 -2064 260 1974 -868 -475 1998 1396 1709 1437 -393 1170 858 -2168 -179 430 -923 773 378 -420 1051 -1453 149 3941 -21 -656 -954 143 791 -310 -543 -1133 -2462 3270 2964 1946 1037 3104 2904 7569 9651 6817 -1803 -2439 -425 -369 -3274 -1331 804 -2957 -292 2573 2039 2695 765 -1789 -977 -2930 -4112 -2392 -1185 -203 -928 752 118 232 -1782 -2823 -1876 -1260 -365 -439 -76 -1535 201 351 -996 -1079 -1395 -1343 2517 556 -2116 1454 705 -3387 -183 -439 -1623 2221 41 -2139 2156 620 -508 3141 -782 -442 1837 -2984 -2726 -382 -61 -376 1222 -1557 -965 -632 -767 1690 541 -1001 2052 3455 183 33 1150 742 -1716 -543 3553 2104 -438 -422 -2228 -1253 -147 -1709 -1683 2891 -599 -2727 1566 911 1024 -3538 -4804 -4082 -811 -536 -1645 1879 -1083 3557 1605 -1422 2167 1064 246 2527 -953 -2639 -479 -2844 -5706 -3928 179 -3209 -655 -2021 -184 -218 -899 -877 -622 -951 -968 -730 1464 -1165 -129 -40 -2094 -2076 -657 -1744 -1881 -41 -261 314 1362 871 -632 1491 -820 -1817 2832 3821 1946 -3203 -1795 -2573 3881 5981 3371 -2238 -1726 -1362 -1037 -1075 -1731 1054 680 -468 1473 -29 1034 172 275 455 -3501 -1135 -1603 -220 -793 -2170 -23 -492 -4100 297 747 -4022 1683 2527 2212 -1332 629 1095 -332 -137 -989 4740 387 967 2174 -365 510 3039 597 -203 -1241 -1768 -845 51 -716 286 -2903 -3364 -2007 2123 3333 1835 2195 4408 2529 4149 4557 4385 2516 612 73 1325 1050 779 699 991 -581 -1963 -2747 -1056 -2190 -3586 211 189 -850 2027 -2328 -2240 1776 -2470 -2683 -440 -705 -1628 -2650 1505 -8 503 2355 2807 1813 738 1053 344 656 1305 -313 246 -575 -500 -1222 -813 -1868 -220 959 -2181 -1378 -974 -3579 -1852 -1174 -1056 944 2260 -524 1527 4299 2153 -1878 259 1524 -1339 -360 -31 -4016 -4896 -4654 -2584 -1762 -3790 122 -2171 -1045 3551 5543 3238 -2660 50 -799 -287 1812 2552 -618 345 -1406 142 1365 -1497 -3011 -2583 -1951 -3761 707 -489 -2491 4349 57 -1115 -1269 -1162 -2172 -2462 -2334 -1487 -173 -1465 3054 64 105 -76 -2262 -1598 -55 -1277 -335 -859 1866 1451 -1614 632 19 1109 3841 4074 2004 -1263 2169 2256 482 1311 1043 -689 2615 1086 1571 2178 -473 -1134 -87 -507 880 1251 -2028 -216 -988 464 2116 1328 -621 523 -165 -480 -1320 699 -306 -2851 -763 1805 -152 601 -3390 -790 -1516 -1570 -1678 -2383 -914 -2010 -3116 -3521 -3006 -2445 -2935 -1938 -946 -548 611 -1293 -919 137 -1639 -3049 -2140 -916 -1131 -573 -838 -230 -406 -18 -574 -1677 -1439 -2066 -1546 -2203 -1401 -365 1177 -1641 339 1569 828 1642 1844 -652 -13 -313 397 -46 -199 301 143 255 -691 -1070 602 -2761 -3476 -3061 -446 -1087 -630 -2421 36 -1450 -2355 634 -1169 -871 1618 333 -494 903 2110 -468 -338 388 -776 147 134 -1397 -1343 332 -2963 -3003 1207 1137 -1394 1462 -2061 -2681 -2733 -862 -1365 -3159 -231 -878 -655 -1147 -1247 -306 -258 -1125 -2416 175 446 -2131 1023 721 1761 56 -1250 -349 -58 -1881 -265 4109 4765 2875 893 2702 -1555 -1141 1102 -3268 1967 -2542 -3349 1039 -2500 -3465 -181 -2266 -1438 -2852 -3978 -2762 -2702 -3556 -2869 -2519 -2857 -1627 -1283 595 1310 -2465 -2502 -2253 -3526 -281 -428 1368 801 905 1823 4026 2512 2409 2545 1779 -1263 -794 -229 -98 1017 -646 -26 1142 -371 -2388 -5045 -3276 -958 -871 -3446 110 1434 -189 547 4731 534 1479 5067 2058 2997 5757 3888 -1704 373 -1190 -1661 -111 -860 -2762 -1975 -769 -1189 -280 1213 867 168 -2896 -53 611 -1652 -3315 -2816 -1742 -2258 -507 1337 -1578 3751 4230 -673 420 202 921 -934 -706 660 -833 617 -3519 944 1835 -5427 1220 4081 -2847 2033 4578 -889 -334 9 681 5375 5140 2872 8265 277 -180 1277 2590 989 1670 350 988 -431 -79 -99 100 114 1410 2512 1522 1258 1625 628 -3682 -3470 -3282 -2545 -2670 -3204 -2310 -4291 -2507 -1004 -1061 397 260 1834 -8 215 41 -220 -647 -399 1168 1656 1255 1849 -629 609 509 -732 1466 801 -1107 -1253 -1336 -583 -1352 -756 -445 -509 -847 580 -550 44 -1184 -3 1650 1145 -446 -2743 5213 -859 -4084 2496 -1597 -2905 -1028 -52 -917 -620 -301 -3040 954 -583 -1766 3 -427 -14 686 -520 100 2178 1148 1076 -326 1099 2069 -476 1212 2790 -1210 536 2147 18 113 1274 281 -66 -89 1070 189 -1188 -110 -79 1586 94 -32 -92 913 -1339 193 139 -958 -2678 5012 3782 -1532 5448 4937 87 -4551 -1823 -310 -4417 418 5797 -1105 1951 5028 -651 -543 -49 -1436 1384 -163 1322 1334 -401 3752 -901 547 -349 -216 780 -453 -292 -1427 545 -14 1601 1448 -605 843 1072 -1623 756 -251 -278 173 939 -839 -850 1986 2549 646 -685 502 -654 -782 653 383 527 -205 -564 953 159 -1590 1368 718 639 126 124 791 571 -1052 2015 1469 -1527 448 2524 854 1060 -1103 196 -1339 801 485 -223 -148 84 -750 2024 2857 -211 3854 2311 968 1903 1755 65 290 -1168 428 1796 3309 3091 390 1163 547 856 -1206 -546 3693 -1034 -1665 3134 15 -1063 928 2136 2497 -127 61 1288 -343 -1129 791 -909 646 790 -1853 -2173 243 -1422 -2304 288 428 1275 2669 -692 1825 1627 -573 -178 355 678 -146 -967 369 -1661 -4678 2438 919 -1823 264 -86 606 -1084 191 -1142 29 2168 -398 63 -1822 -1570 1535 -166 -2442 203 -720 -115 -1383 706 222 -697 -1988 -454 1353 -413 -419 3317 4809 1014 -2526 -4047 -3783 -3425 -4110 -3781 474 1006 -1268 1106 -1251 -2698 1126 -725 -2257 205 -312 -324 984 -610 42 1868 1484 127 -543 -985 -798 37 -979 100 2259 2225 3116 190 -271 -639 -1414 -5 -200 567 2085 1553 -312 90 -1071 219 1026 -684 -1014 -761 -2133 218 836 1702 -113 172 -226 1116 1366 2054 569 2565 1570 1156 1898 -1370 -603 475 98 1180 -2414 -3156 2090 -3506 -3673 287 -5119 -4225 -173 1424 1321 -916 2446 1653 -3531 -598 -1555 -1111 682 -493 24 -1760 -1381 73 -575 1130 1114 1508 -829 685 1064 -732 647 1266 565 -1509 -1511 171 -1185 3765 1521 -1046 3166 2314 -305 172 83 -85 79 1623 141 -1427 1468 857 1844 849 412 3419 2120 894 1032 -96 -2847 -1210 2304 -355 -305 1745 3986 2028 1170 536 192 -259 186 752 572 -1276 1832 1524 -1035 -2823 3371 291 -4071 3255 489 -1962 364 -968 -110 -1136 -263 772 72 -2271 -1941 -2017 1162 2593 2470 333 752 2228 -34 -53 429 705 -2849 -1264 437 -1596 1719 -522 -3321 -356 260 -742 -451 1600 1259 -431 2238 -955 -2107 1171 -899 -786 -410 -1763 -1319 -697 225 -964 -314 206 1487 235 -1221 -641 199 1357 -901 59 1810 718 63 3986 1559 -673 2564 32 -227 1033 85 -984 -1554 -505 -29 -1294 192 -2659 -1607 647 -3356 -2006 1679 -2974 -3748 -110 -369 -584 -768 187 1835 1132 -436 -192 34 -2561 427 -92 -2788 -1063 82 -545 -259 -62 -2402 -2683 -356 -1930 -3870 560 -2947 -3898 -1871 157 786 -384 -154 -2701 -252 1329 -911 639 -535 -1245 -573 -1332 -2500 -1172 -308 -2817 -290 -114 1259 1160 1383 2754 1558 -813 287 -650 -610 -521 -50 -1647 -267 869 373 -1136 -133 1153 2007 344 4594 5668 1794 1648 6752 5603 401 -249 1016 1443 3754 447 226 2612 -414 -1324 772 -1050 3024 3837 1891 1270 -871 1048 -490 -1050 82 80 -674 2244 -442 874 385 -439 -1329 -186 360 -1136 195 4 -1016 -212 -272 649 -668 -5 -145 1103 40 -2081 645 -2353 -1305 183 -3564 301 3275 -2604 747 1857 -942 362 798 -2007 -1671 756 786 365 297 -1323 -1531 1649 -382 -1935 3259 -285 1434 2746 -1107 -392 -1085 554 -351 -501 867 1240 -167 1497 -2344 -363 1286 -2768 1199 -1229 -2256 330 -1477 -1554 19 636 -728 1537 927 -1062 -1192 -970 -616 -2249 -374 2479 120 548 3094 -797 -2533 230 658 206 632 -52 -1511 -605 534 -1112 -637 -1203 157 -980 513 -238 125 2488 -767 2727 -494 2380 7869 2979 -1499 2618 -1140 -2204 -1949 -856 -1312 -3702 1158 -2022 -2784 366 -2899 136 -2779 -3625 -2871 -3887 -2873 -1849 -2380 1773 1608 -1526 2048 2770 -734 1187 1958 928 549 -4470 -2597 -1224 -6652 -2278 728 -4556 -1750 595 2299 62 961 2986 49 -695 -1820 -1790 -264 -506 -2363 409 -240 -1419 3772 2417 -17 -857 122 1271 -761 -1277 774 -450 176 -2041 1531 1263 -88 2234 1456 184 -268 -2400 -3461 -463 -391 2 211 945 1660 1496 2410 4006 -2770 -1504 -1914 -2435 -2092 -4228 -2541 -979 -2188 3062 1946 3175 2262 3361 3265 2341 4237 1718 -543 -953 -701 -83 704 2245 654 2680 1917 -602 677 622 617 2576 1074 -1915 -1130 -2392 2580 -171 -1819 2679 2130 -1644 1313 -146 -925 261 1107 -34 555 -737 -52 1044 -1035 -617 -1939 -822 -1037 -1583 -2298 -2232 -827 -115 815 -828 1465 -312 1160 4326 2762 -1738 -1827 -1612 376 -1038 -91 -884 -2710 -2123 1243 -2693 108 -142 189 -452 652 62 -602 150 -1277 217 -1131 -446 -2404 272 1598 543 1679 1884 -536 159 2100 -47 3231 1626 -517 -1587 -3674 -5512 1415 -807 -1218 1681 2647 1002 737 2794 881 -508 1425 1261 1663 1148 967 2370 -1049 440 843 877 -1211 1168 1216 -1770 774 84 -1211 -448 -1016 -2074 2284 -670 -2137 3959 1368 -1892 -720 445 -213 887 1867 1119 137 322 -150 -4230 -4376 -1951 -2671 -534 1231 89 3076 4465 -812 -3493 131 1423 865 -947 653 1844 247 -57 982 1544 705 -113 -254 -521 -1448 -1488 -1020 833 1908 -130 -3002 -1592 2467 1991 -882 568 1884 698 -201 -551 146 -938 -1319 342 1954 1680 1566 549 -2483 280 -126 -2207 -852 1305 363 -1735 -479 761 3644 -2737 -1604 2199 1522 1115 -1417 -3366 -5559 -4964 -700 1 -11 -1632 -2276 -1917 -2506 -918 -1931 -1133 2723 311 -260 -1834 -3152 1647 -815 -3783 1479 -265 -4466 660 1960 3844 -909 -2410 -354 371 -1024 -346 119 -470 2160 -1761 -4453 -3359 -1028 -2861 -3827 2547 3933 2172 2347 23 1038 3184 1586 3009 917 1291 -459 -620 -228 -3059 412 72 -2470 493 -1701 -552 -734 -77 -191 -48 -1087 271 -1488 -985 231 -1683 -504 764 -719 1680 2402 1730 80 -1163 -953 -708 -411 -1000 -1087 -449 -267 -257 -2616 1995 -4639 -5207 1252 -476 -2764 -2135 6 1350 -2652 1955 1926 -400 1996 1728 -622 582 164 878 2145 1108 701 1329 -376 4585 3539 3839 1062 -563 1609 1903 660 1577 -1523 -1969 -1988 -1441 -3690 -2791 -1833 -1944 -2003 -2468 -4245 -2171 -2635 -5257 -3821 -2782 -3421 -2357 -1016 -221 344 523 837 20 -323 -2018 -703 -1559 -1784 -228 654 636 2630 570 -181 2135 -1171 -423 1046 -2251 -2232 775 558 -71 -804 -1509 606 -463 -153 3953 1107 192 2761 -571 270 35 -2992 826 440 -4035 -128 -1724 -4546 1323 1149 -181 1183 1783 1959 67 1588 2277 -2589 -2568 1547 -2521 -1248 -98 -2947 -2256 892 657 -1634 -828 3749 394 -345 1397 1056 655 -125 -1439 181 -1822 -3771 -413 -1625 -1194 1014 -1119 -803 -508 850 1121 1642 1381 2144 1733 -732 855 1682 87 2704 2488 705 940 954 -325 219 -20 -3298 -85 2710 -1253 1479 2588 919 2532 1678 1842 746 557 -1073 -89 204 140 1366 -289 -2288 -657 289 -563 1674 340 373 1142 87 64 1340 2012 2264 2272 2727 347 -1481 -5500 3013 632 -4342 1946 2262 -1798 -2921 -792 353 230 759 -2107 -214 -589 -1090 2228 3390 1535 1346 -1516 1103 425 -904 1846 -1151 -2242 -2633 -1807 -3103 -3086 1299 214 1110 -3300 -1669 -194 -585 -94 1284 208 1118 2495 -263 1264 902 628 -490 -1963 644 -93 590 2086 2316 362 583 1297 2358 -114 351 2507 -737 -1378 -1188 -1053 -1601 -1537 -2193 -2062 -1826 -3421 -944 -1305 -1578 1406 661 -1146 476 -715 168 -1523 -2470 -773 -1994 -2699 -344 -783 -856 -1804 268 4793 -601 283 7337 438 2061 7186 -1196 -789 -442 -2747 -1806 -1915 -2503 -1882 -1830 1064 -879 -3073 966 291 -5458 2057 3958 517 1407 -1002 -241 1250 728 -79 956 1619 -59 2578 6405 1530 2104 4113 684 -2103 -2286 -1473 -291 -2678 -577 -1863 -1763 -1153 -2225 -1047 -306 -779 -282 -203 -1260 -408 -137 -2388 -2297 374 -1102 -1595 -1757 834 2757 -726 1106 3186 2242 140 539 -1208 -291 -286 -1812 -249 -611 -563 -1590 -2030 -1021 -1971 -2717 -2058 -83 -809 -862 -122 2162 -347 1438 4147 1706 1222 2111 1639 737 -416 -296 1162 975 168 -1524 -854 496 1597 391 -1702 5920 2753 -1573 4425 1745 -1415 176 779 2614 -1336 59 1065 -2327 -536 1150 2030 -314 2920 -355 2512 4728 2424 3807 5572 1156 -1139 765 -631 -1894 -469 -136 -1869 -1423 1028 2084 -1511 1328 5285 -1850 3115 4042 -419 37 -1174 32 -892 171 1094 -394 -1427 -436 -1530 120 1262 -2043 -1193 639 -2795 -3482 -3892 1405 2136 -852 2148 3052 -438 -1259 85 -1051 1551 1640 1642 1288 1492 2094 1820 1829 1752 -1519 -1416 -10 -1283 -712 -257 31 411 -75 -455 -297 -438 545 72 94 -979 -1476 -2810 -640 -1729 -1519 -401 -1188 252 1524 1251 1218 -1327 -1207 -784 -2678 865 1457 -1426 6 1719 -1095 -356 807 -923 904 -680 -576 701 -1156 497 -411 -2182 439 -188 -2298 -568 -1185 -662 1418 185 -973 -763 8 -338 -860 -741 269 -1269 1964 366 -773 3535 -358 983 2919 334 1572 1869 -404 926 466 810 341 1349 397 -1231 1211 -917 -2030 753 1361 -648 1289 2402 1647 835 1338 1968 1265 1445 2063 1179 1392 401 1081 1858 -909 370 359 1021 1327 -917 -431 801 1602 -1632 3605 6316 -1234 10 2618 1134 -288 1361 2059 -72 -2189 2556 3725 1458 -2239 -3785 -2560 -2094 -5082 -1768 1027 1986 73 438 2028 1327 1327 185 1857 -1697 -99 355 -1785 -2660 3 -6762 -4892 347 -3843 -3609 1748 914 -849 -841 1946 1544 393 -1384 855 2575 -1576 -99 1722 -532 -374 -68 1342 460 1143 -622 50 -429 304 1430 -160 202 2909 2431 -649 -908 -1196 -1178 -445 -2269 -510 -1622 -1380 265 -696 377 -1166 -2824 -4059 320 -882 -1846 -594 -1219 1341 -424 -110 -104 241 -757 -903 1077 1594 -717 3362 1224 -1149 76 -953 -2022 -689 -875 1408 -1293 -1364 -139 1365 487 -1085 -1961 -1161 -678 -1103 1292 1222 -1080 2198 2130 112 3932 628 1673 1108 1346 192 -540 -1816 -80 1616 406 -36 -301 763 857 -389 1611 1323 53 -1038 -61 109 -544 -1427 -678 -1433 1366 112 -845 123 -3266 -1713 1553 913 922 -2639 -1560 -1505 -759 1086 108 -387 944 -114 -1105 260 1007 -191 768 2229 -81 -312 534 1649 1656 2564 -402 732 2083 -685 1135 1705 -610 212 -1772 -286 1696 -386 46 2030 -1119 1382 1545 1879 814 220 908 524 412 1381 -644 2200 3404 -2203 1703 3555 -1987 -1538 -1480 2216 3380 2910 4495 4176 3803 955 -1070 -470 593 607 -27 1860 3214 1864 1894 2078 11 2512 904 -1129 825 -147 -2390 -1664 -1103 -1905 -659 -1390 140 -1345 -1773 -1478 -859 -1626 -1113 -1362 -1992 -1507 -1446 -2211 -2307 -1289 -8329 -7363 1663 3295 3441 2588 2625 1808 -660 -190 -57 -544 307 956 -606 2743 3788 -633 679 1216 2693 2802 1675 2573 5308 4528 1552 3278 3262 -3890 -1478 -2430 -967 2134 162 -2669 -4083 -5157 1354 1401 809 -184 308 -631 624 -594 -504 146 2333 2954 -718 3708 4662 -84 1348 4749 -2330 94 952 -872 -70 197 -1003 145 -324 -1664 -693 -321 602 2304 842 -1241 -441 -1242 490 692 -691 -1044 1278 2498 -1961 -203 795 -1063 -246 637 -2123 -416 2624 -1440 3011 1932 421 1474 720 1410 3461 3234 1465 1996 965 -1003 460 -1074 -83 2026 -2020 -2160 -2916 -3029 -1709 -3679 -713 -617 -2788 -246 1422 372 1011 -1018 -145 531 2264 2736 1169 561 16 202 -1118 -1003 -1610 1413 1387 1504 495 1540 1595 1872 2687 878 1901 2091 794 1045 -1058 -375 -822 -2548 -2381 2125 2057 -1078 1111 3419 1871 1645 940 844 1533 539 774 252 -931 -449 -1360 835 881 -599 1199 1473 -1524 235 1061 3922 3951 3325 -1951 -887 3152 -1047 -1274 407 270 826 512 -466 468 -901 -139 -274 901 1302 910 -507 1306 3878 1755 -1356 -1457 -419 -805 -1399 -1854 -627 1426 -129 219 2183 771 1462 -233 517 1662 1558 473 -2075 -38 120 -847 -2837 -1611 -2370 -1522 600 222 -728 14 4617 1758 365 1445 -108 -295 -896 -1912 -690 -438 197 -1110 -147 874 -1244 263 2592 1272 -2110 -909 319 -2879 -2191 -1499 -1713 -2777 -1236 -59 1170 -1429 1297 3232 3266 -3137 -3594 -1857 -429 950 1599 401 -1427 668 33 17 -590 1348 743 1662 -384 -1700 1304 -105 2490 3777 1410 1513 533 1267 49 58 1167 320 1348 1410 979 1211 1252 2055 1967 598 -1502 321 -1551 -1986 -371 -2473 -357 1293 -1663 306 363 699 2731 2285 -1192 -605 901 -1447 -1018 1674 1107 -603 -1395 1997 -2453 -2128 2035 -3131 -2005 -1013 -2219 -692 -1713 -1692 -2035 -1730 -1501 -3290 -1911 -1696 557 -4197 -1730 887 -2881 -1844 517 43 120 -524 750 932 770 796 886 152 1598 1426 369 -490 2775 3007 -951 452 1472 -544 1128 1048 -1003 -102 1733 -1485 -779 -937 9 128 -2012 249 2369 -1647 -1026 -1154 15 -476 -637 -527 -756 1896 1817 -2917 940 2583 -59 934 1188 168 701 1051 -1709 122 516 1535 -1391 404 -839 -2233 -725 -813 -1654 -2593 410 340 114 -275 939 270 -795 -366 280 -3104 -2378 -1075 -3411 -4214 -2417 -3702 -3088 -2347 -368 1621 977 2091 1910 -108 1052 1236 -1358 -2686 -531 745 -2685 -1052 440 -237 -551 865 519 930 738 161 -272 1190 926 335 2134 1007 1638 -346 -960 -332 -137 284 188 239 -1323 -829 57 1860 3005 1313 436 -1029 -285 -298 729 2948 394 432 3833 941 1962 2234 -466 1838 1046 -2466 160 1765 -2766 -1244 1108 63 465 -572 -172 346 -624 -518 -941 -1860 -687 -272 1522 -1328 -835 -360 -1726 -1041 -1886 -2440 -2279 -3278 -314 152 -2912 -804 2021 -1043 2306 1922 652 1832 -104 -786 1362 610 -1317 249 862 -581 808 1820 1020 -508 1598 1649 3474 -464 -2997 5826 -668 -3424 6830 2159 -240 -1616 1336 3252 -1411 2034 2852 479 1083 1397 -998 -2974 979 -3868 -883 1156 -136 522 -1340 231 477 -218 2069 1570 -506 1853 1993 -152 1481 -1477 -1456 1212 -5 -170 -189 -1024 -1 2037 1722 2152 1600 860 80 1099 1340 1933 -629 111 2716 -949 -1453 1704 541 163 655 2077 2897 -998 23 5552 886 -1253 1667 -507 -1161 -348 352 999 1073 1942 113 -991 -975 -943 3885 4091 -2689 1941 4138 -2947 -884 75 242 -829 -1353 1698 430 -3190 3024 928 -2220 -1134 -656 -447 -1697 -49 -144 -1176 -105 320 -2694 -2231 -594 -1450 -1178 -762 -123 154 -394 -567 -1383 47 1329 1367 -684 684 1920 1421 -393 245 2381 -1129 -1964 -1846 -3197 -2182 -1767 -4450 -655 -1812 -3581 303 -1961 -4321 -1398 -474 -977 -519 -1033 -899 -732 -69 -4078 -2264 1915 1385 -121 170 2810 1030 -359 1053 2444 1864 -270 48 494 1577 317 -597 767 -90 -582 -2752 -1086 -1621 -1125 386 -1777 -1967 -1269 -2770 -2157 101 1657 -2103 -3328 923 1253 -3734 -2525 -1071 920 1134 -900 1477 793 659 -290 -940 1186 1365 -351 -1019 861 -316 -1337 -418 1474 422 704 1606 1844 1155 2415 5295 2447 1832 2337 2051 2079 611 1820 323 -888 -21 -1074 -751 0 3183 386 631 2846 2395 -750 -413 1058 -318 -1233 802 854 -2603 1467 1436 -600 1170 958 -496 -2706 515 -862 1136 443 -1767 180 -2089 -2695 1822 228 -2643 500 3181 -762 -737 209 -1315 -536 1870 572 -2084 2042 1431 62 285 -985 -759 71 -119 -1316 -116 -778 -253 688 -63 1305 397 -332 1177 1332 1813 550 -1414 200 1548 206 -2003 3114 627 -941 -255 524 -293 -694 1064 1571 1484 1817 525 920 -357 678 2218 636 -857 1617 2765 1113 -1717 392 882 -1165 913 -901 -1627 1467 -642 564 -1637 -2021 759 -397 -169 -2111 -463 2422 -545 884 -1460 -1568 1032 240 -1706 245 -95 -427 890 1419 -713 -1384 -1297 -1015 -1004 -1665 -739 441 419 -1298 -392 244 -175 114 1238 178 -347 -3083 4071 1936 -1567 3972 2274 -504 -1159 -2651 -4389 -2123 -1507 -4094 -3386 -576 -667 -1769 -3036 -2106 -1150 -1770 -1329 -243 414 -421 -2431 -2499 -695 -524 -606 -995 -970 -1615 -1794 -1840 353 2340 -2324 -26 3930 -1302 -594 1804 133 954 1615 1632 1145 688 3646 3210 323 107 1054 -34 -1655 1165 2161 -1850 -285 1968 1026 785 1026 39 -543 982 -147 -1138 -2308 2556 -1148 -1529 2059 -937 187 -475 -1328 909 -1102 -140 1364 -150 -187 152 -854 1025 657 -1987 1409 1502 -497 -1166 1044 1006 -381 -1675 -4181 -2319 -45 -3304 -1083 -384 -1901 -534 -239 -1884 -1355 -529 -2351 -2064 752 -1229 -1386 184 -1362 1186 1617 -1058 -369 2036 1703 146 277 -1951 1405 2601 -2843 -270 1036 -2299 -905 -592 -776 -463 -1509 -347 -2139 -3142 41 -2427 -1858 -1803 -1373 1371 1910 -1228 -1122 3192 620 -972 -25 -478 -468 1194 -789 479 2071 -712 -691 544 277 248 -367 297 -282 49 939 -405 -507 586 1874 -706 -1376 2371 999 -2038 5 592 -1649 3190 1985 -1210 2802 1939 59 3393 -1418 -1817 -4493 -2669 -1014 -4284 -3429 -5 -1926 -1405 749 996 -1858 222 1174 -4046 -1321 1291 523 1153 2607 -572 -1223 2166 -334 -2222 -1575 -1032 -1814 -2965 181 -225 -2474 -2301 -1432 -1757 217 1609 2460 -1123 566 454 471 1890 215 212 607 1137 1340 -257 329 1269 309 993 -901 279 1814 -683 573 583 -328 -369 -120 -835 716 2117 -1426 972 2932 -1565 -506 1582 930 415 1945 920 -75 1030 379 -286 -1702 -1791 -771 418 -1636 -1106 -824 123 -1941 -2740 -132 -42 2227 18 745 473 1376 -847 -423 47 -1871 -2320 -684 -340 -464 1868 399 1926 -960 1881 2075 104 2342 784 2610 1909 -3209 -3562 -2369 -417 -1387 -1408 -2235 -236 1872 265 -360 -19 1342 -579 1451 1146 1491 530 824 606 2339 2736 -3638 -462 3825 -1632 -1538 -243 3378 1301 -991 1822 363 410 2112 417 61 -268 -1268 -1556 1503 121 -1291 1968 2237 1360 3053 1537 557 3811 157 114 1953 134 1681 46 637 -242 -739 -1012 1031 -1736 -1696 1352 -904 761 2827 -991 -195 211 -1262 -2041 -2112 227 -3117 -2207 -458 -1412 1057 -1253 -543 1879 405 -202 -568 1555 -2010 -2295 1527 -2226 -1060 -528 1587 1139 1461 1369 478 1219 -627 -1591 -2342 -1500 -927 -2309 -883 -288 -3358 -2111 -1700 -1091 310 1404 -483 564 900 -1371 -25 -69 647 981 -339 349 -690 -1498 857 -2002 -1918 125 86 -467 -2563 -419 -297 -2280 -1885 -713 43 2938 1942 1415 1101 -1317 -1311 -416 -370 1581 -249 -1200 2491 3046 1576 -340 3974 4762 381 -1775 -1292 108 -2394 -2662 -3 -1442 -1965 42 -1505 105 -1911 2415 2246 -184 3845 3241 311 2381 -771 711 381 -740 -843 557 -110 1372 -156 598 -227 -1502 -1948 -2621 -1893 -828 1704 -1431 -778 1515 -1077 -2275 4504 1955 -801 -2410 -528 189 -1826 2803 4530 -1073 2696 2575 2466 -1559 -2055 1438 1374 -1651 -1283 -583 -134 713 309 781 -477 3471 1578 -2523 13 1327 -552 1794 2535 -812 -799 2128 1240 -804 728 -492 -361 511 -468 -1179 205 -812 194 2336 -469 -403 -609 3170 1448 -215 1412 759 -48 1112 -199 1509 -13 -1399 2192 -1770 -692 3180 -310 38 -620 427 -715 -947 -791 -639 1076 -1983 -1850 -796 -3341 -1749 -541 -2753 -1690 1765 355 197 64 2176 697 698 1182 -1433 1057 711 3028 2990 -1505 480 1420 -2300 847 872 -465 2004 3389 761 2610 4026 1379 2695 3831 990 -477 -145 -1521 -988 -1140 -862 -1895 573 592 122 -884 765 862 -597 577 1484 961 -2132 -3642 1709 55 -439 2144 -2542 -4577 -380 -1132 -1242 2 101 -988 -1378 224 440 207 -2330 -1760 -2680 -2005 -670 -955 -811 130 -78 -5184 -3201 769 -4657 -1281 2240 -4753 -2524 91 -48 -1497 -962 770 309 -400 1078 -504 316 -308 2515 685 43 1917 -1450 1142 2069 -787 -1585 -652 635 -321 -2957 -162 -784 -2284 790 747 1237 -1336 1185 1804 561 840 -880 1010 1064 1406 696 -1990 -2046 -1911 2701 1636 -1163 -452 498 1276 -1101 665 2186 -1269 196 818 912 312 1803 -706 -356 3369 -2307 -1782 1977 -357 612 1276 -888 -1062 179 -476 91 -358 1886 -397 116 -1526 -1263 -723 -1449 225 310 396 324 726 850 1518 735 835 -1135 -249 -2222 -1212 1114 -2655 -1108 -319 736 920 1178 -675 -314 1614 -2050 -1037 482 -373 -530 869 2426 688 -1135 473 -2815 -3587 -747 -2301 -2931 1199 1907 -1245 99 1659 -3902 2122 1165 -2730 655 78 -1445 500 411 329 441 269 -738 36 -584 -588 -926 32 364 511 1072 564 2094 233 -233 1127 -1593 539 -155 698 2094 -238 1397 2153 2224 3657 4118 776 1270 1364 2530 1383 900 1814 1711 1406 627 379 593 1704 1345 -985 1496 867 -950 363 560 -610 582 -365 -659 771 132 1271 284 1016 829 -2821 -4108 -2725 -1751 -2751 173 -2394 -3552 -1726 -260 1106 45 -514 1532 -1556 -1402 952 -62 581 1277 470 467 988 -1122 185 905 -246 738 235 249 53 -1024 -2200 388 -3125 -3304 -1371 -310 1353 -476 1166 1657 2671 2409 1070 631 -288 289 635 -1258 778 574 1088 1030 602 1063 2094 950 1080 1479 -620 1491 2001 485 1135 286 -679 -1050 -2842 427 