128 128 3 3 
-64 -507 -522 1628 122 382 623 -1079 256 -1408 -80 -935 -1116 628 461 707 -474 -744 -72 1991 1457 -4009 -1559 155 2665 -6786 -3932 315 646 830 613 673 1264 -265 -178 680 -316 -2325 -732 639 349 -1633 57 500 20 -2531 -247 948 -3267 -1045 -1630 944 752 2475 -34 2346 1946 -1127 -1102 -977 973 2231 -455 618 386 -1549 -158 1054 -2827 -1579 136 -901 1837 -306 333 -2300 704 2010 -2531 -693 -2006 -1262 256 -2345 1146 -2308 -4423 -1564 -97 -706 425 187 195 -731 -878 -180 -85 -129 494 759 -562 77 -2174 346 582 -513 -2011 -269 302 -1426 -665 -34 2015 316 -108 94 560 -130 -2204 -2307 -3619 -856 682 597 1446 761 1168 1705 1985 8 388 1008 -225 -1057 -637 -503 -2675 201 1172 -321 -2469 1173 2611 1838 -1714 -1710 183 -559 2802 1932 -165 -1758 -2075 1380 620 -592 1269 2015 609 -4423 -4012 9 321 1103 -1120 -3373 1146 2571 -2758 -1242 11 -1589 -1781 -1134 -708 -1220 844 -854 1458 1389 362 18 -2350 635 2173 -478 -461 -61 -1076 1530 -710 1409 649 -1498 -2773 -1001 -2125 -993 -2018 -1319 -609 -1322 36 430 2544 -1150 -1008 -733 2606 -514 2710 -2367 -2520 1566 319 -2093 -2012 -2541 -3012 -3323 1361 3234 33 -738 -128 -966 -5423 -2008 -2446 593 1825 918 88 682 -484 -237 731 -3072 -585 1587 2523 9 -638 874 -1900 -925 157 1619 -1506 -102 -1459 -496 733 1780 456 268 504 -265 1159 -2250 -2887 -719 -1610 -1982 -2765 2155 2794 736 1555 1604 -5630 -3937 -2821 1379 -3736 -6641 -432 6501 3174 -3157 -3527 -5524 959 4240 1639 975 4100 748 837 98 -814 -900 56 -845 1402 396 133 1126 -2151 225 -510 4777 261 -1691 1684 -427 130 -1788 -4843 -3265 -1160 1818 1890 2659 5672 809 1234 -246 1549 146 1772 471 606 3125 -956 -3182 -948 2920 1598 1178 2332 701 -1630 -924 585 1316 -1179 -1167 648 -14 -1 -880 1044 -1191 6 -1295 2157 5805 -2207 -996 3098 -8187 -7192 -5319 -5890 331 3838 4201 8809 5799 4394 7265 4588 -3759 1851 4317 -9023 -12877 -2535 1624 1914 1521 -1833 -256 2081 1277 -547 -1710 -15 -521 769 1083 -903 81 404 938 -1136 885 -442 -1129 -719 1486 -202 2826 -598 -1724 -384 -718 -201 1940 -3608 -1880 1548 3294 3252 -555 -458 1468 -221 -2524 -39 -1496 -2584 -1984 -1035 -624 -319 -37 64 -3131 1618 -206 -463 -1226 -125 515 -1293 1273 -128 -1104 -2675 -1089 2266 5477 5524 -440 -743 -1002 -3050 -3424 -2376 2923 3790 -3475 -781 219 5717 -211 -2772 3255 1187 165 -604 34 2155 -553 -1491 -1745 -1197 1281 1627 1524 3874 -3232 858 1462 -3921 -1601 1198 -515 2748 -755 792 1741 -361 2222 2519 -801 -352 928 -45 373 42 614 1000 -1845 1292 7560 4386 2328 66 -5805 -761 -1085 -6063 -510 -790 -39 -274 229 1060 1411 196 -584 -807 -691 -28 87 -626 -1376 -2165 127 3891 573 206 -518 -253 1298 475 -1495 -1353 -173 693 4851 -70 3659 -975 -4052 982 1980 -4197 -4943 -2827 -5004 1174 -3971 -6355 -1227 15568 -314 1830 1022 631 -934 -797 761 -717 -1649 -169 1841 -36 -517 -1809 -2068 4409 -453 -2823 4202 3553 1926 -420 -1880 -1467 3390 -4177 -9440 -3810 -2309 -704 -259 -4111 -1817 -1808 495 -3623 -3986 -3953 254 -2365 -974 -200 -2485 474 4266 -1887 686 -347 -1562 388 846 1739 -445 -1018 -112 858 7357 2406 2674 5476 981 -7945 -12784 -7963 -677 -263 -220 2332 -1041 481 -301 -1107 697 857 2094 703 -1854 683 2747 -879 -380 1837 -2999 -1347 -2639 8326 16684 178 -2821 305 8353 -2440 -224 6 -1587 1246 -1017 862 323 164 18 711 1096 -1028 -2020 754 -1108 -2477 -224 -1604 -1379 -564 1766 -4584 -6314 -3275 3324 1133 2137 1385 -279 -4159 1055 -413 544 -3311 -3199 -769 -203 -570 -6672 -4617 -262 -1279 2990 368 -1208 -674 526 -612 868 -2781 2781 1779 -1011 2296 -1948 -637 -485 -2126 1189 -1485 685 2284 4497 2972 3659 908 -1329 -1370 -5118 -1410 -1568 38 539 -249 282 1906 -1750 -271 744 -1335 4484 4994 2460 -822 -2085 9467 2724 -1804 -6310 -1941 722 -2129 -827 -481 645 -245 1742 233 3175 5341 4173 -926 -655 3920 -1666 -5396 -3541 -162 -506 -822 -2850 -897 45 -839 -602 -2542 1591 741 292 944 3255 -429 -2213 -1095 2815 265 39 275 -2417 723 519 -1158 -1053 311 -226 -175 58 163 1247 363 -530 -60 -2570 177 -236 -1360 207 -202 -1595 1751 719 -540 33 4559 6416 3858 879 1031 -3837 -5681 1507 -727 -2593 1341 -167 -886 -1151 -1240 161 -1281 842 739 1119 -28 -714 -314 -422 -476 -914 -2658 -805 -1070 894 -260 839 4097 -1035 658 2484 2814 287 -2163 -1153 958 -1170 -1033 -177 25 1154 591 1483 1794 1719 -1660 -1119 -503 1080 -1440 218 445 2966 2277 -529 -337 -357 1677 -95 -824 283 -1026 -1054 -313 -1321 853 -3942 -389 -5293 1003 961 53 1903 2158 3366 113 -944 587 1488 854 1312 479 -1736 1156 -739 -973 -558 592 -155 -1447 988 -741 -2385 -1049 -1486 893 -3071 -2468 1202 2061 -5184 -5124 -1952 -3807 -4170 2808 5045 -1942 2233 4299 -5841 89 1524 1090 223 -1047 -1336 2113 500 -696 1966 1496 -532 -1611 991 3870 -1191 -11337 -2856 1608 -1893 -262 -169 -256 559 -1302 -330 -84 -69 126 -3114 -1244 -146 -1617 -1238 -21 -1764 -529 491 -269 556 365 -99 -617 -1400 -937 634 2293 1363 -153 -76 3902 1410 -1884 25 1616 4792 -2835 311 -1964 -3702 -3277 -242 1806 98 -43 672 -1137 2286 930 2837 -1587 -1253 -2307 -3628 -1595 2261 503 -1869 -1549 1164 1640 364 -319 -1076 -819 -865 816 253 3221 356 2962 305 -674 1140 -2634 -2027 -1137 -2480 -1080 871 -450 -2242 324 2181 1409 841 3423 744 -3298 5205 -510 3945 9570 -4301 -2723 -8908 -4302 186 925 1206 3629 7051 4607 -2361 -3474 245 -1175 857 -1023 -51 1468 238 -5 -2156 -1535 528 518 1036 -2614 44 -918 -174 1085 -586 1544 197 227 -3468 -3525 -122 474 6457 7248 466 -936 1108 197 -1512 -2587 1139 3946 -2233 1185 2791 1001 2274 -3917 -1882 -2333 1396 6548 1487 2335 3074 1749 -551 -489 346 -3044 636 3013 258 1170 -2888 -3887 988 -67 1886 4449 -2192 -1467 1097 1543 -332 -2911 1588 520 375 1880 2997 1034 -1951 511 -976 1423 -3990 -1813 2073 1954 1097 103 -1264 1236 382 -1558 259 -2408 -159 66 804 -901 1612 -205 2276 -2300 -562 749 1363 -1085 -2594 825 -93 -355 2411 -896 -1934 -966 1854 1448 228 -285 -175 8 500 1354 2452 455 2882 1149 -640 -1624 -74 5533 5559 -3373 2310 -74 -6770 -4199 -8297 -8488 69 -922 308 -1380 -1885 653 922 1224 3813 1450 583 969 -1146 -353 1824 -908 -874 1157 -3209 -2486 -307 -2184 -2861 291 1647 1027 4109 206 -1134 -652 410 -1121 -737 291 -264 -2297 621 249 82 -654 1921 -1115 -1560 46 -474 341 -494 644 -1741 -3019 2058 1086 1133 4239 -4610 -3547 -1711 -3390 -2239 649 962 3729 4330 26 -799 -842 2102 -298 381 1023 1096 160 -2616 -2843 443 -1600 101 897 -205 333 190 -1397 1291 816 660 1823 -24 -1463 440 -164 1659 -1184 -1628 205 -1192 -1557 -704 554 -376 812 1675 -1585 872 4239 -3313 -2923 -1949 -4135 398 569 -1639 2937 1355 -2263 700 16 321 -623 -1238 -2283 -1924 -4924 -1293 -437 -1808 -399 929 1489 -1157 1694 2536 -1551 -1639 -252 -725 1649 4537 1738 301 2754 -1021 -905 217 -2610 923 515 -2059 154 -1969 -1775 -1022 -287 -341 -120 2370 793 364 580 210 675 -1166 -643 -2376 -1247 1279 -509 1156 3200 59 744 663 -2198 -1538 1538 -1103 -3237 1876 581 415 2248 -723 -1598 -834 -1594 -1209 -418 -489 784 -1021 313 143 -1386 -2550 -2339 -1150 -2095 -760 1855 279 300 -1201 -2842 466 -2140 -1034 -730 -1690 3236 4235 -1926 2394 577 -3775 -1412 -4491 -2747 1266 -451 -321 330 -1096 -2157 1036 45 -149 853 -959 611 -1220 -3394 949 -102 802 -163 545 3138 -517 847 889 -3308 -3079 -5323 -4265 1236 -531 951 1208 -877 2844 2468 1772 3617 57 396 861 -2025 -3283 600 -1320 -2340 979 1527 -639 -610 621 -1477 -754 191 -374 348 961 130 488 179 -1270 145 -331 635 1093 5069 5642 -2201 4272 869 -7623 -2506 -4714 -5734 872 260 -877 576 312 -325 784 277 -500 515 324 1796 1072 -1135 -506 980 -1676 -621 -588 -980 -572 -992 -586 -41 -147 715 1604 44 -2481 -2199 -456 -2038 104 -261 863 1648 -827 -62 -1604 -976 -846 -956 -176 -762 -899 -934 1308 -1232 -1816 -776 -1477 -776 -2424 1740 -876 294 526 -317 -875 -760 -252 -439 -500 -550 -787 -956 99 277 313 -716 743 1310 -2144 -1445 852 -1353 -903 -505 -1135 -179 1719 -1376 514 -696 -906 5624 -279 -468 74 -126 -6244 -4860 -171 -5743 -5091 3212 -3830 -2083 5085 2534 -698 519 2586 -1210 978 -8 439 1843 3705 5567 127 3093 3337 -2483 -2974 -3811 -5379 -808 695 -2310 4855 5966 -450 -653 -196 -2997 -2194 491 -1314 -1632 3095 2907 -1164 -693 932 -2374 -414 -512 -2689 829 576 -1406 1774 96 -668 396 -365 -1733 -706 -1237 -291 -1488 -252 -1934 -1034 -565 188 671 33 -1533 -3436 -3226 175 -833 -1709 -125 -721 -491 32 -512 856 736 -103 1274 703 -280 1059 -2799 -1255 -2151 -2841 -3798 -437 -3251 -3088 6001 1512 4687 7109 1037 -149 -3243 395 -641 378 356 -277 -176 2236 1716 -1713 -80 -3002 -6187 -79 -3141 -2372 2841 1159 862 356 -889 1176 1178 2071 359 -5153 -4853 909 -5731 -3351 2172 -1435 -1959 239 8 937 622 799 817 -135 -615 14 -934 574 1959 -1215 419 -2004 -1767 1188 41 -487 752 1708 1216 1126 1435 941 159 -654 -1402 1342 678 -419 1480 -737 333 -367 134 -667 396 -405 -75 129 -110 138 717 389 1040 -776 -246 310 105 -1264 607 1042 1157 2597 403 -1036 -283 -600 -1511 -55 -1095 -524 -246 707 -651 564 -2800 -36 927 -910 430 1335 -1328 -351 -1741 -934 539 -668 -1594 8 -979 -2182 1356 -1971 -2669 -2190 -138 -559 -932 1612 -953 -1790 -465 249 -441 1892 -778 -391 136 49 -15 -520 -258 -31 -460 -574 107 1496 1478 -1594 -4111 -1376 -1513 -4820 -2994 -2944 -4995 599 -1330 -1921 -889 -1690 -1606 -1120 220 1574 2007 2761 1777 97 -617 739 -443 -699 49 149 372 303 -63 -68 821 843 1150 537 -2094 -964 -956 1129 932 729 279 -156 -776 -1493 -457 -1452 -891 1119 111 -1780 -164 -2529 1219 206 -1693 63 992 -498 -317 -912 -661 -1203 -39 1541 -1258 -440 1193 -860 648 1552 -5491 -5275 -2607 -3977 -1214 2877 -1482 641 2609 -198 -1207 -522 -1050 -2105 -362 -659 -462 -638 182 1314 -634 -516 -787 -253 -69 -1299 241 2893 1675 -126 -391 -1009 392 88 -47 1384 1386 -889 -1695 -1225 -748 -1930 -22 -1003 -1652 942 1575 -347 241 934 -251 250 -567 -148 -1882 -153 1304 1206 1909 325 771 357 1515 -2370 -1738 233 -1033 2270 792 -1112 -261 -2752 -4024 -4098 -1276 -534 -1123 2206 3239 3016 4431 281 745 -671 -1325 1269 -1383 -919 -545 -46 4380 3934 728 432 -632 -24 692 37 1300 -5193 -4428 -2929 -3207 -3210 -870 -83 163 3228 -1412 682 1776 -904 1213 1247 -1583 1663 -1106 207 1276 -269 -880 696 250 1137 -254 1070 2222 1490 2046 2663 690 1251 974 942 -576 3856 874 -1149 -295 -1732 -3068 -2532 -1881 -2655 3195 6222 674 3748 5338 -4357 -1697 -4519 -4515 136 -72 577 -1700 693 -1140 -340 -343 -560 1794 420 1220 -688 617 356 432 -188 -1547 509 1708 2584 3834 3985 5629 4299 5070 7363 1342 -108 2208 1016 -1141 1028 401 791 -63 -2052 1 -1745 -2328 -1817 -477 -2117 -1229 -447 -1106 624 -3086 -2277 -1632 -2413 -1237 -993 -818 -186 841 -327 -657 -710 -332 611 464 -113 591 1664 1743 -953 55 803 -1673 -1602 1181 1569 1455 -600 -398 672 -529 -1289 -1297 -1350 -526 -1381 -1889 -1011 -1500 -1350 -356 -35 1909 -745 -960 1219 -588 86 1328 -484 1384 -1250 -308 240 -1468 301 -319 -710 443 -140 -2559 -189 -1035 -406 -321 -502 406 209 -167 1244 -1891 -220 161 -618 -333 -1368 -395 -1606 -179 -372 -618 -178 -593 -1024 518 1163 327 695 -1331 -379 -363 53 -645 345 1576 776 -3007 -997 652 -59 745 2351 1318 -920 -224 -331 2680 352 -1849 300 -563 561 182 125 -125 1844 -742 -1025 202 1829 -2113 -2089 -248 518 539 1539 3476 273 2134 1297 2074 -300 2315 2479 1803 1233 517 969 -877 13 -1762 1204 932 601 -593 943 -46 -338 290 -184 -528 673 1156 -421 1740 1194 -269 -1337 263 -886 -370 -900 517 779 733 388 817 1369 591 833 -329 95 693 2125 -466 -241 -1270 -692 -394 912 828 1517 1379 547 -907 -1383 232 -1494 -2119 1317 1911 3034 1235 681 718 -1787 1228 -991 -156 1264 -795 696 1372 -812 -531 10010 7381 -2063 3806 -2058 -6242 -1514 -4683 -3038 1585 -3 -579 241 -557 -420 -78 518 760 -2492 -1513 -470 -2299 711 893 41 638 482 -2895 -1061 802 -2644 -1172 1894 -427 -687 600 285 859 120 757 -853 -626 -1527 76 175 -1388 -407 115 -310 727 740 -952 1955 159 453 609 1971 -279 324 -310 2055 124 -309 -2406 375 9122 -2817 61 5055 -3280 -324 1618 770 136 366 281 235 420 -298 242 648 2348 822 112 1760 -828 1460 1862 146 2348 -525 1488 2259 -2387 7900 2084 1025 296 187 906 -298 172 -267 -2757 -211 1356 137 1085 -773 1745 1925 303 -152 440 2058 508 348 -476 -1871 1850 -1762 1448 329 180 -1959 -1163 -498 -3 936 -1138 80 1116 316 435 456 1472 797 -18 1126 -1558 674 522 1260 -637 267 583 212 -28 -1010 -1072 -357 380 769 756 998 -970 1685 424 -1262 1047 120 -1277 -2027 -2303 -485 1450 874 419 661 -1386 -465 -1290 -1515 89 -606 -1276 1945 -898 -482 1620 -1937 -1267 -1196 -2106 2207 219 -1221 -545 -2150 -1722 -1033 409 -3811 -1519 -789 -1186 -1871 -563 1307 -292 -436 -978 1913 629 -903 784 -840 -1470 726 212 314 -2525 -1052 1061 -273 -485 2100 2587 -733 3007 102 -2188 3424 1256 -210 507 -667 -1024 -510 -141 863 -1924 -369 809 2356 2730 2859 1243 -3229 -1387 -126 -2233 -2018 -872 -837 -2936 -545 -1309 -2035 311 1538 428 512 2154 1182 2028 8197 2988 2464 6616 -121 421 2335 865 1354 -258 -522 758 -118 -351 1640 369 -362 2621 528 175 1496 673 -2350 592 1095 -4 1955 428 -380 949 379 -569 -184 497 425 558 579 115 -322 -2320 -531 576 -875 1489 -145 -2813 1858 629 -31 385 1855 1502 1988 799 -1431 -232 2346 -508 2798 637 -719 2042 1313 -832 1247 280 -3140 615 1248 1945 -2490 4615 4635 -885 -1037 2515 -117 1429 296 205 -1184 -4019 75 1161 907 404 -502 1088 2908 483 521 2933 -1017 -2080 -248 80 -1299 -1037 -1122 1114 -558 -1013 702 -1109 -1164 -803 758 -869 -1105 2381 1800 601 -170 -3193 -1572 1124 -1512 -3108 1568 241 675 5074 1139 1051 71 1528 811 -176 997 -466 -355 452 441 -175 -167 219 -1745 172 377 -651 -3071 -1587 -875 -1806 1523 640 -2626 171 2184 -2454 777 2966 -519 -976 -1412 298 -474 710 -779 -371 557 -2353 -1831 -1571 -2233 -2678 -3475 794 -28 -372 -976 -565 -801 -689 -1747 -290 -302 -528 1303 255 -1432 -625 -340 -2367 -1174 3486 974 -2818 1208 -2178 -1030 -1324 227 3117 560 -1145 -294 474 1512 81 -837 -1201 -96 -237 -523 946 -799 852 -1568 1007 -428 -720 -1580 -1802 -534 -1880 -496 -2588 883 -1189 -3302 4935 3884 1643 4589 2985 5876 1921 4602 2484 -1589 -536 2111 -899 3953 892 1417 2257 -1482 799 -1150 395 -1724 -3276 566 -147 -1148 634 -5757 -4494 -2819 -5804 -4507 -2901 -3601 -3717 -2398 -1303 1465 7431 -2559 -3067 5396 -2337 -3720 3117 -2423 -1028 1841 -1280 -2379 -218 1023 -481 -1349 1127 -328 1873 -190 -4878 -1523 2335 -230 3942 -1786 -247 -2469 -24 -1152 266 1518 -196 -333 -152 -81 -1238 -1655 -7 -1343 43 -26 -144 -102 88 125 -1077 3104 341 -696 589 -784 1187 1424 5127 1808 -1179 2525 4591 552 2239 4536 907 1726 2932 -4 1828 606 1602 4383 -1164 -411 -238 236 -211 -43 -562 -2230 -1837 -1137 1459 2736 -1029 375 334 680 655 -146 -3452 358 -4053 -3817 347 -1236 -3462 -2093 -83 -836 -728 2279 -447 2422 1342 3188 1871 1506 -2698 357 1605 557 1547 -1053 1186 -614 -1425 1562 -434 399 47 -1319 -738 933 499 -283 -1806 4439 -659 3595 4211 3108 -1067 1517 -975 -2049 -235 1203 -1129 -282 2666 -1007 1808 6059 213 1567 295 783 -940 -2741 -319 1417 -2417 -1275 -366 -490 -2937 -3144 -2301 704 -276 -354 -1963 -1111 -1234 -1512 1128 -2867 -265 526 -1211 1818 -497 -2143 -1085 -5991 -2229 -3650 -2078 1690 -2399 -1410 1045 -5273 -4581 -2723 -3683 -5460 -3129 -1767 -684 1804 -1137 616 2845 675 686 1852 -876 244 2609 586 290 4027 2379 3157 4046 -1294 -834 -2362 639 148 -1150 2209 513 3209 -24 -2853 213 2480 4012 -959 4173 2565 -2374 2577 378 -1135 753 -3977 -4953 1463 -172 -1780 1395 188 -352 28 -1321 -1602 -556 -2195 -1307 -2095 190 2075 -1663 1001 -1391 1453 1850 1298 -1173 753 -318 -116 -1939 -565 -289 -156 -549 -2349 -190 1025 -1237 -16 -1368 927 847 -693 1736 297 2429 461 1529 1892 3203 1842 2022 3674 1755 -1522 843 -1691 -2186 105 -107 -544 -419 148 857 -2169 -1979 -1222 467 -2057 -220 -970 -2802 -715 -1030 -2528 -827 674 168 1408 149 4 815 359 1262 734 1338 -59 -55 -952 5889 4200 6533 8742 745 2202 1227 -3976 2439 -450 933 151 -2250 -984 3457 2520 3386 268 24 581 -1215 -795 -487 -898 290 747 740 720 325 895 1797 1109 1752 -96 1192 -3499 -2259 257 -1456 -1626 -1158 -247 -1049 1136 -1874 -626 449 1723 2628 505 4482 1798 -1982 -1280 645 2783 207 5636 433 2398 1086 -2688 -49 -946 -1927 -1567 -1281 -2673 -1688 -593 -676 -2008 4585 3588 4185 7965 3248 2458 1900 -2170 2060 1090 820 -2307 1077 846 168 1753 -864 782 548 1233 693 125 256 1957 138 2348 274 199 1178 520 -816 -521 556 14 -899 1675 352 153 -1328 -715 -619 -960 -1936 969 2247 2508 1708 807 74 1828 -1195 -768 640 -1920 -1211 -1379 -862 161 -4074 1779 2181 -1778 -1312 -2458 928 -1771 -473 -253 2842 333 1672 -687 246 -216 -663 -601 -2149 440 -1090 -1179 -218 -131 -2211 72 -905 -1605 135 -90 1104 2012 1305 3191 25 -1497 -1099 1323 -2597 -2106 4744 -1171 1505 1851 -2911 -1256 1162 -1368 -2979 739 153 654 945 1075 -1619 1870 -1383 -927 -702 434 -677 799 -1460 -1984 2725 -219 -3614 -3210 -2910 1760 -1439 -2348 -1836 -1018 -1525 -4470 -1844 461 227 -3279 -948 4249 781 6653 2409 -128 847 375 -793 465 -1718 -471 -1169 -1285 -555 1337 -1248 1962 1044 682 1644 -339 -398 590 4429 -401 4819 8388 -1026 581 -1279 -1703 479 -435 -711 942 2406 1236 -829 -1567 -2040 -1991 -6515 -3283 -6091 -10878 -7114 -1038 -5366 -2556 -1420 -1259 1847 759 1834 -305 1568 942 -1598 1742 830 -530 -677 420 593 -1046 1746 350 1488 2537 1135 -116 269 -80 256 -380 -2900 1110 -208 79 -692 -1383 1091 -2015 -1879 1332 1366 548 -135 4 1164 -1577 -3065 -1782 -2295 -101 -781 -1859 169 155 -1758 333 986 -140 -211 -1610 734 -1676 -3392 -2856 2077 -503 -558 903 -466 961 -277 -2360 804 -804 -486 1321 1126 -1444 1220 2232 494 2512 2560 1013 -134 2438 489 -2795 -535 -6064 -360 -1699 55 4891 1184 296 -901 -1241 -2145 -1944 -1350 -302 85 -791 -132 -1113 -2280 -3224 -2095 -1377 -335 -317 495 2429 -635 -1222 -1912 -1621 861 -656 865 285 1531 -2740 814 2284 -2049 -668 1271 -1685 1415 -610 -1383 841 -2306 -2472 -61 -2829 -2041 -377 -266 -941 830 2526 863 -1000 -617 340 -530 -3680 -2140 1989 -1851 -3016 1031 108 -4054 -2885 -3682 4809 -2130 -4106 9245 -2640 173 5346 -820 574 -1855 -934 1383 923 -2181 -2130 -1442 -635 -637 276 1495 2059 240 -2027 -2585 -105 1563 1988 -289 -942 -6567 -709 728 -4671 -624 -532 -371 -1304 -483 -1190 566 -1757 -829 -787 425 -1330 -1596 900 -888 -1152 207 -1543 -627 -707 1210 1101 -1568 1758 -402 -590 296 -699 -1949 -2103 970 -1800 990 1107 -1536 678 -87 2641 1660 1462 -721 -593 451 -588 -1488 -249 -2224 1884 -116 -2101 1509 876 -4215 -1945 -1222 1073 -677 555 -860 -5720 84 2724 -29 2855 479 1994 -275 1565 3191 -571 -249 1568 -1927 -1738 914 335 -1010 1568 -2204 -1774 -127 -867 -316 -1920 -1166 -768 -3484 -4332 -507 -2926 -2310 3938 984 -2400 2033 -2094 -2792 2377 -900 -1453 -2069 -2922 -1109 -2972 -182 -2378 -669 -1875 202 -1904 -1499 6245 -4319 -270 8356 512 2048 6832 -3177 -1504 -1556 -4313 1886 480 -2234 -2141 -2473 -223 1184 -1830 -120 -1278 -1759 -1587 2068 2569 429 1048 -934 40 759 -3813 1403 -1998 -692 -534 1443 957 -2321 1735 686 672 2052 949 2018 2882 819 970 4652 -58 610 -2208 420 -257 -263 945 3478 3159 2125 -332 874 252 -875 1450 1716 -3000 -1668 -1537 -3021 -919 944 -4322 590 -895 -2961 10919 -1091 -3199 -491 -4064 649 1048 -804 -1570 -856 -5225 201 1221 -2654 -698 -852 -2798 148 2568 -1892 -2855 415 -1012 -1189 1307 -1405 -3472 4040 -1694 -1665 122 -2749 -966 443 864 236 830 -1970 -12 1229 1487 -307 -877 -1838 -1518 -2844 -3276 -1410 -3467 -3037 -2296 -1130 -3914 -1518 -323 -4023 -984 456 -2388 3089 746 -5135 4485 2212 -5193 4262 2650 -4031 1199 -561 -1471 -113 443 -929 -872 -2280 -1519 751 1322 977 1608 2496 1151 1731 2957 2629 -601 1893 -501 87 2134 -435 -2062 -470 1847 -507 1813 -1472 -516 5606 785 -3624 -831 -3566 2367 1651 -4905 5221 4289 -4437 2981 843 -4967 -1095 -1968 -2109 -1201 -2761 -1123 -380 -825 -1779 -142 -1728 1655 -2 -384 -360 1701 1717 1390 -1468 -1675 -2060 -363 1097 832 -1767 -1641 -1465 -1568 -497 -1968 2839 2859 1873 97 557 185 -16 -1540 -289 530 -161 -653 -373 303 -781 538 -296 693 499 429 2018 -465 1117 -262 -985 1184 -1353 1022 3806 -1565 945 -116 -655 -1104 -2467 -369 1013 -2337 3867 -3377 -3236 2072 -1375 -2004 -540 -1367 -85 -938 -2227 -1501 447 -476 -2130 -1837 57 -3944 -2264 -1701 -1738 -357 -696 1651 -4549 1104 1938 -2711 309 4126 -2203 3166 484 -366 355 -1644 -3447 -716 -4757 -3172 -1160 2905 -1567 780 3940 -158 -994 1580 739 403 301 -3119 -1459 -109 -3938 57 -579 -3300 4898 -1914 -50 1240 -7300 -49 -649 -2726 737 -74 1112 -1295 2072 3771 -2085 -1080 -1134 -3345 -2281 -4382 -1079 -3671 -5851 -1258 -2535 -1641 -2558 27 426 -839 -560 3996 -2522 -573 1983 -2104 -394 261 -706 -521 -258 1012 -2332 -2307 -560 -1094 1758 -903 -1867 3642 -2376 -68 2340 -2752 -87 -1841 998 523 -2139 353 1721 -224 -1265 -1169 -228 -2065 -964 -2167 -3003 -1836 -2265 -1404 932 -651 830 -667 325 1064 -1262 124 -938 226 2204 -621 -703 3021 -89 -828 2275 -177 -3247 -320 -857 745 3150 2768 -1655 -1416 -336 -1634 -32 3845 -326 1635 4757 -1305 1630 2599 2008 3988 2106 296 2354 2677 1093 3004 2106 444 -100 2574 499 -5079 -4722 -1570 -631 -1250 1148 1132 -1941 -411 1530 2114 -182 423 1266 -1033 2080 -1593 249 577 -2216 828 1322 -1262 -1230 2678 4767 -747 -7346 1852 27 -1628 -2587 -1918 595 -4701 -2502 2058 -4740 -3699 -3109 -2367 -1583 -3065 -3698 906 1785 -545 -1567 -1369 203 -2497 1095 -671 -1690 1871 2 -3466 -786 495 2268 -718 3832 1854 -475 5838 -303 2382 3374 -1300 -868 1527 87 3120 1247 -1461 -367 -1016 91 -164 1368 -1459 -939 437 -252 -1283 3596 -2702 -4719 802 -695 -7207 598 347 -4321 -78 2132 1264 -283 2301 -340 -2973 2249 887 -503 -3401 2002 87 -3862 -1060 3724 -3603 -2387 2068 1694 773 -2338 1131 1471 -462 -1130 315 -3472 696 1306 1837 -673 1703 1338 -2194 230 831 -1609 -1758 -911 -400 -1588 -906 -1197 -1059 -1733 -974 -2759 -1453 -682 -3862 -365 -661 -2246 1343 -124 127 -3073 1700 3191 -3266 839 537 -4543 1657 1332 -4734 -4796 -6938 -3304 -517 -198 160 761 -500 -2938 1721 -1655 -3321 1429 -1741 -2184 122 -853 -2063 2556 948 -4025 2401 413 -3797 648 2540 -3074 1723 11024 597 33 2247 -5437 553 -115 -1382 -2368 -4261 99 -3249 -2491 412 1639 1254 -2452 449 -1479 -4480 468 -889 -2596 1023 -2247 -78 1198 -1998 3463 -316 -2871 1925 -1600 -55 -38 -1625 -4091 -22 -1545 464 2694 40 -1611 3814 -2132 -3138 2943 -3376 1479 -1429 33 3719 -1778 1184 3016 -3862 1872 2773 -4773 434 372 -473 -168 2071 -98 -1317 77 671 -370 -2281 3220 1411 -2244 2874 275 -403 -791 3154 2769 -4988 2111 6854 -7603 2219 4034 -3686 1595 2818 -216 -204 2791 -166 228 625 166 988 -101 1536 -172 701 1155 -126 544 -2002 1607 2050 658 3728 -1720 1444 -248 -1210 -1566 -257 1159 635 -1923 2833 2202 -2672 -335 1391 -663 -1382 334 -1369 122 -208 -1110 -1119 144 -1581 394 -2222 -2003 6311 -767 -841 2879 -1760 -4470 758 6917 -4764 912 10291 -295 2440 10313 -493 -2260 -1826 -301 -6024 -1051 665 -1699 -1300 388 -2845 -1796 461 -1761 -1777 3128 1157 1226 441 -1580 -2671 -961 -2327 -2870 -240 -1429 258 -1324 -718 -2516 -567 -427 -4310 -294 -2270 -1144 -3050 12 -136 -936 5844 995 -1825 962 -117 -818 -271 -1442 -875 -192 -3938 1835 835 -138 4154 -2763 625 -748 -7733 3600 -331 2496 5127 -860 -706 408 -62 -2798 -331 1181 -754 1516 1602 785 258 -8 1292 526 1120 1723 1052 3996 3479 -1417 -2628 -3787 -6376 3571 1137 -2565 -1782 160 1472 -128 1730 659 -917 0 -1025 1194 2595 925 -1908 -3996 -1221 1004 2061 3668 -480 -263 -561 -697 2174 -910 374 2572 -1212 -1324 -675 -1682 -3272 -2616 -2552 -1557 -2435 -2718 3172 -1445 1525 148 -6516 360 4202 -96 3050 -911 -4732 -808 -654 -6378 429 481 -3411 -39 1605 1350 -4300 2592 720 -3918 -950 -2797 -3772 -900 -1776 -1307 2158 -961 -1461 370 2556 1720 -263 2366 -1680 401 3294 -1651 1268 1775 -1845 -1020 681 272 -2959 -2601 -1464 -462 -2432 60 -3519 -1114 -1010 -2507 -2588 -3718 162 -1034 -3337 -3901 -4558 75 -4459 -3375 4033 264 979 2928 2468 1345 -1430 -90 -709 -1549 864 -794 -2170 -1504 265 14 886 1037 -1972 51 -420 -598 28 994 112 1281 -282 -3435 -827 -2408 -789 -373 670 466 -816 651 84 -1048 2310 690 -807 -2522 -1167 -1901 1478 57 -1443 -380 127 4309 3226 -3814 2340 -683 -7522 -866 -3654 -4168 1088 1094 -1 -270 2034 1265 -303 1129 994 -3125 190 -997 1904 2612 1241 -191 145 3807 3524 711 -2620 1533 -2087 -4617 391 -948 -1946 6551 -599 -4008 4696 -9756 -5361 -2687 -6667 -2836 -405 -1445 837 -2747 -2940 2499 -934 812 -1140 -2024 -1944 1315 -3100 -2806 1816 -864 -306 920 1083 997 30 -1105 -2786 1779 790 919 -244 2463 4526 -3796 5639 5111 -4397 -616 -3989 -8494 2028 685 -1520 3513 -428 -5236 -1792 -4412 -3482 -3836 -3913 -2416 -4009 -3706 -2603 -1347 -1002 2227 1033 2293 -719 2384 218 57 3165 1611 -428 -1732 -155 1130 -1007 -643 -603 -463 -517 -41 -2681 -1325 1882 559 1709 240 321 298 3892 -316 -391 1950 1039 -695 762 307 -2064 1305 -1292 304 -1521 -2005 -1183 -554 -963 -73 -707 495 -197 371 1042 419 -4 356 -861 208 -1047 -36 -1696 1004 2220 -1406 -766 -3199 -571 191 -203 135 -1185 -834 1805 274 846 1623 772 -192 -436 442 1415 564 592 -326 252 46 -524 -1117 -2208 -1433 3423 -79 1293 3261 -4985 -276 264 1497 3986 1752 330 1023 2095 -4648 -2325 429 -4714 3738 4390 -316 2301 1299 -6506 -242 2084 -4122 4941 5747 -515 1323 -4635 -159 -616 2546 -3649 -1761 1441 -1410 1647 1423 -838 -811 -1980 -746 180 -322 2416 -70 413 2988 874 1333 1696 2185 1504 109 547 -955 -1142 835 801 342 -108 -194 -942 -792 -203 686 -564 643 1847 -1240 -1002 2491 -887 -380 1102 822 -361 1994 993 1111 220 1403 964 2527 496 -98 3107 1529 1720 206 -95 623 519 -1475 -450 463 -2161 21 -250 -353 99 -194 -2291 342 -413 -608 1326 1233 506 249 -35 -1085 -730 -816 -1750 -1194 237 445 -1897 2609 -163 -1519 824 -936 -2193 -608 -110 -2019 970 783 -1464 603 -563 -1270 214 -1205 -617 -73 -32 950 -2603 -3383 -849 -372 -543 1016 411 -77 -19 3764 781 -1739 3116 42 -944 1616 640 -1296 1440 -1163 -2478 -133 -429 1593 -1239 766 1621 -3824 -550 255 -1215 -239 2485 -58 -1084 -1779 -3744 -1151 -297 -947 1424 -1420 2039 500 -520 -318 1492 -413 -749 321 -2037 -1111 -1280 -348 -2050 1510 297 -1917 -204 -2088 444 1462 -1385 -1993 -1407 -1660 -1576 -3003 -121 -613 1081 -936 2291 567 -1545 1298 1571 944 1605 -2552 -242 768 -179 1178 -1150 1232 741 1015 1257 -2548 -1326 -1100 -434 -1963 -877 443 5530 4083 -3011 7432 -735 -8680 -25 -4002 -4171 242 -634 -122 103 -693 -289 732 -603 1453 -2060 -3144 -75 -4367 197 3060 -42 2876 653 2135 455 -864 -457 -4513 -937 -1530 -338 2076 704 995 -1560 1849 -1054 -363 2167 -1172 199 948 373 1885 355 -1354 1552 77 -510 1023 -540 -631 967 447 -762 225 -2 41 211 -37 1117 -254 -629 57 -149 -542 129 1283 26 -170 1522 322 -1268 820 137 192 1865 -134 -1435 -1463 -1741 -867 413 384 1375 1203 -887 -562 545 -3413 124 3169 679 2843 3670 -823 -872 1777 175 -13 2167 648 303 577 -1636 -2065 -2031 -942 345 -497 -240 797 -125 -1989 1687 -185 -1485 490 -519 -3352 -1110 -1679 1243 669 -623 625 -97 -2602 -1178 -1483 -3653 -1635 2373 -1035 1083 2750 -3948 1484 975 28 1061 -1945 996 -174 -867 -86 1097 -322 1032 -1757 -1608 479 803 2851 3705 108 85 1383 -324 4111 433 5178 2302 -4828 30 -3393 -4954 1508 -941 806 -439 -1869 1789 -124 -1306 165 -166 -548 -1233 -2348 -565 173 -1558 -1637 -1805 -722 -465 512 -2322 -1129 278 -2079 -922 -1655 -2761 -1856 -851 -3975 -2062 -2366 -2995 19 -1243 -1155 968 -358 139 1415 -860 -245 747 1028 608 -366 -1837 -1635 1477 710 -657 921 -68 -1597 -2306 849 -3646 -1094 650 -443 -187 -123 764 -2017 -1179 -1528 -2032 -334 362 -1642 -1135 1583 -25 -228 -134 -1271 1334 1469 247 2334 957 -3261 257 712 -1031 785 563 259 2792 4170 107 -3164 1002 -928 -2497 -2520 -972 -1948 1203 -2495 -3208 -2156 -5953 -2803 -1841 -1368 -30 909 2297 -1803 -880 1145 -1404 657 -858 -3216 5623 6275 634 13227 385 -10287 2129 -7309 -8068 1797 -1536 54 -2784 -3250 -161 -1181 -1531 -820 1345 1014 -1604 -1162 -2182 154 -2571 -219 732 3704 2389 1589 -1265 278 2811 2321 466 716 -7077 -5088 1873 -7220 -1779 8574 108 6572 7182 -1588 -249 38 -2364 -1419 1469 -2689 -1254 465 3248 -741 -2442 209 -3320 -1259 1064 -1065 -399 -4604 -5147 2269 -7574 -2555 8136 306 2799 7214 -1925 -893 -579 -420 -866 -621 1676 1096 3015 -2026 -956 274 -2577 1498 -661 -1557 799 246 409 -1316 11 -217 -270 -501 -1647 -801 -1032 532 3289 -133 3721 7074 -659 614 -569 -9 64 -2222 -480 421 1632 1967 355 -837 -2056 -739 1936 1136 506 4275 -1739 1299 1062 -17 4015 502 -1530 1249 -2660 16 -1168 -1123 -1640 -1554 1166 1321 -222 856 2323 -224 -1438 -969 1457 -2034 1173 146 -1726 904 -495 -1176 1780 600 -1787 162 -1919 -446 1456 1217 224 11 -2697 -786 270 -2726 94 2207 180 1470 1856 2961 936 -126 1234 -3923 -935 1998 -1642 -1203 -1001 -506 -1895 -4123 -1404 -481 365 737 -237 2187 -2327 -2433 -1081 -7138 -1820 -1372 -3373 687 -1309 -1068 -572 4 -467 -381 -1983 152 632 1669 -467 1614 863 -1225 455 176 -1117 22 -277 -52 -1353 117 -1116 -2128 229 -1021 -2914 -658 -73 -1902 -672 494 -1827 1148 -287 -1100 -1344 -44 235 -865 624 644 1662 2374 -586 1468 1049 -708 1088 -476 -1743 -1327 -1079 198 -1263 -2477 -635 -2795 3379 2049 345 1735 118 -3329 -1077 -572 -3326 2819 3927 -256 503 859 48 1385 1582 -226 3433 1860 -97 837 1903 -1334 -905 -289 2820 -403 -850 141 635 92 -908 630 685 -870 2056 950 -665 2491 -108 -2780 -2475 989 713 -824 376 -1120 -722 1016 354 -1869 1531 -1387 -2478 2587 2274 1194 4228 2179 222 1175 682 -1435 -1079 304 -2072 -1591 644 758 -131 845 -1212 -1261 -60 -927 1291 3290 55 -185 3404 -495 -202 -22 913 2017 4464 2469 -1652 2640 -1031 -5225 321 -4536 -7217 1436 -1277 91 1808 -1141 589 -11 -1358 -1243 -2990 -2298 2414 -4621 -192 4586 620 1708 511 -779 2652 1605 -2382 1559 781 -383 -737 -368 118 962 -964 72 204 237 487 838 -1938 634 -728 521 -932 -1408 977 837 -67 186 -220 1088 -1158 682 1266 -956 -695 -585 -1617 1188 1517 2005 781 -4189 2766 308 -2761 -525 -798 -690 -36 -443 1112 326 325 1188 1782 1555 -164 -57 2326 100 -1939 3163 -1352 -1821 -493 -3147 -2230 421 -4067 -2078 37 -1030 557 -1390 89 1349 -3068 -2119 -1129 -339 -2583 208 -1491 -310 -517 -1446 -983 -760 -2411 -128 209 -1231 1682 1515 480 -1453 -538 -522 -487 -1232 2563 95 -1832 2119 -9 -1103 1880 -459 -1515 -555 -1046 70 -1341 -1884 -42 -646 -77 203 -209 770 1475 1146 330 2437 1358 -411 -2724 -970 -1432 -344 -360 830 1127 -1160 -1211 1102 -596 2268 -1342 882 -798 -6440 497 540 -4829 -2524 -1047 2027 -2514 -2845 1730 1317 1947 1373 -880 1116 3210 118 1499 3915 -1436 559 -1984 -544 -2218 20 168 -195 896 27 2785 -368 -168 -820 -88 -2974 440 2961 -1554 2246 -1341 -4620 -3720 719 -4879 -2949 283 -419 1649 580 -534 -417 -1979 1371 1838 -929 -833 -1265 -159 -325 -1975 -263 1197 -1250 624 -685 98 -337 -917 -5545 -636 -3968 -2998 2011 -2799 -4757 -359 1717 1966 1214 -944 1363 1569 -1951 -2613 1322 -466 -3773 -4623 -2706 1161 6249 -2314 -2129 5598 4 428 2691 -545 1193 2961 833 1833 694 -1530 399 3884 -730 4029 8103 2218 296 2703 1170 267 -2189 1159 62 -2037 1368 1187 -860 -1055 -3561 -1215 793 -830 -1171 331 528 -1817 1975 -254 -95 1130 -647 571 -485 496 -2980 -1092 35 -1223 -459 2224 -1465 -817 -385 -49 4926 -945 -5658 9470 -2538 -13214 2833 982 -7797 -1013 -1596 1967 -2310 -2272 3358 -122 -70 2551 -383 -356 474 -1645 659 548 360 1691 1978 2268 1139 -2237 884 841 -3287 3463 3100 -1457 -999 -402 496 -2319 -110 -443 -1861 -2100 -233 66 -1440 -287 -174 -870 -2254 -846 -1484 -564 1209 2224 -1291 2911 1017 -3097 1104 -1441 -2234 -2159 -660 722 -2960 -1552 -165 -625 -1358 -831 248 2285 1434 270 1186 2327 -2113 -1298 929 2444 746 101 3805 -1704 -1000 1874 -3051 -4698 -3684 -2613 5069 -4425 -5234 6612 -472 2325 8196 -570 764 761 -101 1376 1182 3226 4389 4438 -220 -2093 -1915 191 2951 604 -894 240 -2238 1362 -375 -2984 1910 1555 -2853 -1326 -989 -2224 -2868 -869 -1356 -1744 1169 -1943 -463 -1424 951 538 -1214 1589 -3952 -3498 1320 -407 133 -480 -213 -1112 -198 19 -434 -1682 409 921 -813 -2384 296 3054 -2733 834 3769 1016 698 -126 -999 778 1939 -4090 602 9491 -1135 4056 5852 1438 -3162 7590 -1569 -5574 6807 -2931 -7584 1631 -758 -977 -67 197 824 174 -211 747 878 -942 167 1971 -432 -1445 -2605 1110 -3554 -701 1098 1110 1475 -3560 -1930 -1007 -5714 -2832 -909 -140 -826 -190 -270 371 -1347 368 471 -490 1071 -862 228 1677 -563 4988 -1304 -255 2234 -2615 -1690 704 -1265 284 218 3044 927 1656 -116 1642 -1070 376 -939 -3728 -525 -3574 -1682 -4 -2197 859 358 -2159 916 1487 -175 -2077 -2708 -515 3345 -4340 881 3137 -1466 1902 -1832 -254 2075 -216 2754 1416 -5108 283 -2708 -6984 -1522 -110 3196 -2869 -1647 1439 -2239 -1691 1190 233 768 -1416 3439 1473 -4577 -1473 436 2291 2224 -191 -96 4804 -4857 -4216 1582 -3282 -711 -1017 -1130 -864 1071 -135 813 360 1440 -1521 2015 -927 2885 1744 -3250 268 3130 -2080 -3664 504 238 -3769 2137 3733 -1287 1422 -530 -1951 -2003 -3538 3688 -8704 -4863 10507 -1145 3293 5998 1105 693 2054 -666 -2986 536 -1793 -3410 3232 2597 250 1489 -1763 -1001 2962 753 108 1594 2865 -646 -1010 4009 -417 -6541 -2645 -740 451 -859 159 2256 -1457 -574 707 867 271 -2364 -858 1137 1497 -1511 1879 1298 1903 1583 -1175 1171 -2175 4275 1261 -5290 -5132 -1068 1245 -6565 -3242 457 -400 -566 -1703 -927 1471 845 -3740 -77 -3032 1314 -456 -3532 2011 389 159 483 789 -4263 -5210 2031 -2895 -7754 -1435 -3032 -5022 -468 -780 1631 -661 -279 1416 -894 -2648 1499 -1644 -2072 -935 676 -2011 -1616 2087 -1649 -1820 766 2258 1124 869 -215 -1235 921 -1851 -2030 594 -172 2313 345 -3930 3763 366 -7448 -4836 690 1819 251 -854 1085 -3421 -1787 -2421 -1870 750 -53 2889 -1893 -2898 4183 -998 -5933 2905 582 2034 1021 -130 -964 -1161 555 -138 2055 -1298 1637 -845 116 123 -3313 -2686 -5774 -4514 883 1462 -276 -51 39 701 -2977 -3802 -4243 -140 -126 2786 -2336 -1837 2404 -151 904 3867 -1995 -355 199 -1004 1287 -68 -1162 -188 -1366 1347 212 -1400 -1267 2701 8231 -528 2094 2451 406 855 468 2620 1676 -1914 1024 -1877 -1413 2256 -227 21 1055 -615 184 277 -1205 -542 7 -1078 -2997 1628 1864 -3562 323 -1924 -235 -4398 3481 1673 -2812 903 1001 3693 2152 -422 -2082 -498 41 -1190 -321 -909 -2652 -517 538 1725 531 2403 -2890 1932 2828 -123 -1516 443 -1137 -336 -2592 -508 1079 -2460 152 -304 -856 -1403 -2919 5635 -3415 -151 4945 -1956 3076 -2330 -2590 -1127 -1473 -1000 903 -670 254 219 -1324 -1151 -712 -2190 -714 1018 -2323 -584 -595 -2357 248 -1797 -2586 -1069 -1125 1613 440 -3168 -1508 -1417 709 -3326 3762 1581 -4291 1919 445 -1687 10 -588 1172 -1302 -456 479 772 1173 -2691 -3096 543 2109 -2961 203 5602 -2775 -3656 -53 190 -1506 225 -698 -2150 77 539 459 -2654 -1729 24 -260 -1941 608 1725 -506 2765 2031 278 -538 71 -505 1245 -641 711 -1273 -2677 372 -3065 594 -1098 -3232 955 1565 -261 672 3068 -923 805 3368 -2169 -1703 3078 -3918 -1804 1415 946 -1126 1621 3 -1196 145 -508 932 -798 -1599 -5164 -843 4177 -1261 -3313 -1687 1140 -1476 -1989 41 -1081 -2410 -1222 3424 2000 1377 -754 707 -269 -1853 -1660 -2017 859 2533 2135 1638 -2050 -164 3502 -980 -1516 4471 2290 389 -1322 -2486 1412 -4273 -3770 4659 -3096 1758 4476 -1299 -3366 946 -780 -5543 417 1016 -2592 -202 436 1688 1961 -472 -366 -15 -177 -515 297 2033 -2297 954 1946 1049 3512 2960 536 2880 955 1431 -2902 6955 2679 -7222 8172 6657 -2460 -2744 348 533 -3271 -42 3373 -3581 1197 2492 355 -1129 -551 129 -554 -1934 -1933 667 -971 -655 -2669 -143 523 419 2676 -285 80 2240 -2153 249 1177 1989 3529 1072 1200 -1563 -2543 3656 2640 -1162 1719 -850 -6214 1897 -1467 -3283 -649 -2408 -2706 345 -383 -2630 1718 693 53 792 -577 -1051 1005 139 -1248 -75 -415 -2520 -1142 -98 -889 -1622 2875 -2366 -1232 2131 -873 -2775 -580 1709 -633 2972 1228 1117 -61 1557 -1023 -2050 2269 1963 1882 1302 2167 942 -49 -2967 2309 -227 766 3761 103 1425 -640 -3171 -89 -532 -754 -178 175 -419 345 -542 673 -378 1538 -660 613 2331 -861 -3087 -2343 -2872 1743 1382 787 603 1057 -775 -1950 -1808 -2455 -514 -646 -327 -203 886 -734 1989 2607 -104 -5817 -6330 -4186 -5779 -5684 -6459 -4336 -5034 -3562 639 -2008 -1941 183 -1403 -1776 -2021 -3055 -1188 -1492 -1451 -2419 -228 -1239 -665 -1199 -691 176 -1551 -259 -849 2164 3647 2776 2288 2107 1762 -182 -1341 672 -2102 -2671 -2060 -1221 -2343 -2242 1295 1686 1547 768 995 1496 -837 -493 -138 459 588 -463 593 1886 618 76 403 -1139 328 709 -425 1739 1171 -101 1406 354 336 -85 -1572 -487 80 1037 148 -570 -119 -1392 -2082 -3233 -2427 -2816 -3400 -2884 -1978 -2131 -856 -631 -811 23 -2701 -2362 -229 -613 -638 708 -450 -544 197 -1884 -1488 -2152 398 -1383 641 1258 552 1190 3105 1227 159 2695 1396 1397 -1522 -1595 -1051 -46 345 -60 -644 -691 -918 -1487 -1253 -1849 -1152 524 -786 -1938 -1050 -474 2218 2049 1325 567 1711 999 -162 1101 -379 -1510 -694 -1330 37 -333 -823 -226 -1166 -1901 -1381 -3174 -173 -2404 -1773 85 -2291 -2012 -325 -889 546 -1281 1908 2222 953 -8 801 -1355 -2878 -3144 -3537 -1219 -2110 -2660 -3219 -2800 -4015 35 164 132 283 570 -1239 2408 1744 -169 -190 123 1907 -434 -1647 2468 -529 13 2629 -1208 -1406 -1830 -752 -1647 -2958 221 -674 -1009 878 1491 1692 505 920 308 1105 2926 1861 -1235 -1703 -1203 -2551 -1953 -1636 -257 -965 -1079 -683 772 -46 2527 2646 3834 3277 3103 1174 -224 1865 4037 -179 -399 -363 3067 565 -508 -606 -815 115 -706 -2602 -1251 287 -1364 1275 -1472 -1369 -717 -6 -623 58 -11 688 -635 -979 -338 -1791 2839 1337 337 -328 -1827 -2018 188 333 794 -6 -199 -276 1001 59 -509 -741 -1114 -1189 -1314 -310 -646 -1386 -1258 -534 -705 -1161 -1217 325 -800 -581 -1184 -592 -132 -139 -844 270 -1426 -2877 -1408 -937 -1598 533 -6323 -7432 -6142 -5797 -7678 -6126 -5153 -7488 -5238 -99 -625 67 -1206 -1249 -1817 -1487 -3390 -1795 -40 417 672 1551 1621 2634 -1581 -1846 -405 -2189 -1831 -2635 -300 1507 -194 1534 1292 -297 793 224 1657 -747 771 -531 -141 -58 -1204 235 904 1636 -531 -463 -42 -1420 -1139 -792 -585 -1998 -853 -2089 -5738 -3940 -288 -2237 332 626 308 278 -91 504 -116 -981 446 -468 330 873 1685 1422 1274 580 2372 2574 1944 1220 886 458 554 1060 1420 949 1046 1593 4279 3253 702 3723 3566 2717 -1625 1572 1019 -1322 -2516 -2269 -834 -1205 -1488 -2026 -2916 -2328 -884 -814 -1335 -896 -698 -1258 911 1146 -693 -1422 -2073 -2569 -2704 -1825 -1730 -3592 -2066 -1134 1459 -1517 -2695 2228 -68 -1851 474 83 -1396 -264 -246 -2146 787 1549 467 528 -1247 -356 -1298 -151 511 442 1060 934 -640 1183 -470 119 1068 994 1516 754 730 686 78 513 -1559 -1256 -2209 -1364 -980 -1516 -1459 -982 -1282 282 -124 -148 -619 340 122 241 -38 426 -596 -1090 -722 -271 16 151 -1319 155 -115 766 426 569 706 235 113 -258 -1303 -785 -1638 -398 -1825 -673 490 -823 -312 -251 -656 365 -1799 -867 -3266 -4455 -2041 123 34 1784 -3392 -2320 -2394 -3568 -4570 -4467 -2960 -2808 -1236 -897 -1519 -294 1059 703 50 2244 656 -1 -4514 -1104 965 689 1127 -168 2255 -783 -3561 -1588 -145 1425 -4664 -2493 -1422 -4696 -3200 -1872 1053 -1416 -2236 2233 908 1857 -1134 -891 1103 80 1149 -2341 532 77 -2064 80 -731 -635 -3146 -2856 -3829 -3842 -1892 -1876 -3280 -1552 -1997 -1476 -614 737 -679 -1626 -1587 958 1480 860 17 118 2512 2167 993 1892 1971 1701 2443 3436 4571 5212 3331 5702 2324 1897 2497 648 -1042 -984 2032 -1835 -2137 -2994 1239 -57 -1008 -1899 91 624 -1733 -3397 -392 -2972 -3191 -1313 6 -287 -1466 660 559 -228 -1656 -2050 -961 353 645 -1108 180 -1086 -2413 102 -1002 -1588 -959 -2079 -662 -1397 -1556 -778 -1173 -1137 -853 378 846 1986 -190 276 1707 849 1384 815 -498 614 1874 -349 -1152 524 -1104 588 -1022 -2632 -3656 -1976 -2495 -2381 -2456 -1241 -2170 -1868 -31 3827 -436 2803 6828 4310 -1150 2461 91 -1111 -218 1978 970 743 1502 1369 -264 -803 1096 3103 1676 1975 2284 1035 -2014 -2421 -3364 -5160 -1938 969 808 3987 4154 -1882 1574 -288 91 1531 1152 63 2814 1450 1417 675 215 1793 1475 344 811 1577 -243 -376 1095 697 -324 124 -727 376 1444 280 -1110 -637 -2342 861 192 -2204 -587 1881 928 -1900 2212 4083 311 720 -78 -54 306 -1766 -1613 -1082 -3371 -1495 225 -241 1470 3416 873 -499 -183 -864 -4439 -2794 -1971 -2708 -2721 -239 -3660 -2647 -3000 -2202 -2740 -2713 -2264 -3742 -2428 -2064 -2797 -2159 795 1495 -155 2854 3485 934 1582 1350 -1360 -60 27 554 1174 699 973 741 1953 2961 885 932 2275 -144 567 180 1095 2040 830 1242 -2961 -3200 857 -450 -224 -1655 71 1100 -831 -1802 -1876 -311 -78 -137 1090 1927 981 -1576 -27 -1031 -72 605 543 -570 463 -1633 -732 -1784 -1564 -1404 -2331 -3191 -453 -2720 -2308 2450 924 -452 2976 743 1052 3054 1468 1029 2193 1624 970 2527 2659 1826 2286 2623 2251 1656 2001 2906 1106 1881 2781 1690 3158 884 1435 1416 954 603 1157 109 -779 -464 146 -255 844 1717 1259 1769 3791 2064 2244 2307 15 179 643 -276 2577 1241 370 836 1240 2585 1400 1226 3121 2885 3496 3061 3656 3050 -2039 13 782 -2913 -736 1672 -922 1538 613 2102 3715 -569 4055 6876 2117 -651 873 -4304 -3621 -3349 -2421 -2726 -2326 -951 372 585 702 -2409 -3271 -1147 -2692 -3567 -1692 -3277 -3740 -1787 908 1819 1112 731 -640 -386 -132 1201 793 -2343 -3636 -2222 692 2581 3359 -867 -998 722 -3338 -2806 -3070 -212 -532 -606 -956 -947 -1099 -1721 -2675 -2273 -2130 -2019 -954 -3881 -682 513 -373 -371 -222 196 -723 -1088 -411 309 -1456 2291 1808 793 2442 2117 2133 1556 2197 1534 -557 -617 -911 -3091 -2796 -2681 -855 -459 1732 987 715 196 2200 1059 1145 2847 1740 1813 325 -413 87 -1347 -1962 -1011 -146 172 136 152 222 -892 961 1135 -111 -1367 164 -31 3450 1920 2826 1622 2061 4002 2858 1542 4493 2296 1783 2325 -1987 -2714 -1944 -1124 -2306 -1344 -1182 10 2350 -2130 -607 -2294 -332 -1547 -2739 79 -652 -921 -1547 -784 -1994 -1559 -266 -636 -717 -1635 -515 461 1428 -439 1315 1303 -483 -156 341 763 2073 3387 1614 -863 -886 -2397 -508 -561 -547 270 393 -182 -36 -150 -78 -1156 -2066 -2253 -965 369 -333 284 903 1168 -145 1579 -594 -2336 9878 -1052 -2653 -3378 -2434 2201 -1685 2398 -1077 -3536 -1153 1262 841 1513 53 671 -439 -1145 522 1758 -2100 -2596 -2314 1065 -806 547 -2930 -6331 -4642 -2275 -3601 -1688 -285 -405 -487 233 -330 -1701 1230 884 -763 -900 -875 -1002 1202 -754 -1607 353 -1857 -823 -765 -2066 -1506 -1405 2128 -2894 -1163 1979 -1611 224 541 1809 436 -3320 422 766 274 150 1026 894 261 1103 -509 -657 2284 2062 1299 -1925 -1864 -2142 -1966 -2052 -1583 -2338 -1693 -2806 915 292 646 1009 -8017 2686 2562 1068 2855 1443 1366 -1745 -329 -3559 -960 -572 -758 -197 -1232 -4747 740 -1736 6396 -1437 -806 836 1913 1603 -1168 1751 -352 1154 -801 -756 -94 529 1442 1575 1411 -2364 -2199 -3482 -1266 -3377 -380 489 1619 -271 1708 2396 3137 -1480 -509 183 814 915 1242 -4085 -5710 3484 2479 -258 -23 -2648 -490 -787 -137 -2682 -1872 2370 -1524 -108 -1027 -2716 -558 -950 -4857 347 1818 953 1274 -767 -983 -2206 -1862 2651 -742 -2218 -1428 -300 874 989 -2303 1103 -376 6 1253 811 218 -253 -881 516 -4171 -1711 998 478 1375 -947 -176 -1348 372 2399 -1179 2101 1296 1331 1742 -1025 -1602 1993 -806 1371 -15 -828 -3581 -381 -757 1543 -1623 -196 -2715 -322 -849 -4044 -204 -850 -1224 -3276 -4450 3548 2972 -3973 513 2240 1220 -1313 -1423 -1719 -2817 -574 95 2417 -510 -520 4819 -2564 -734 -1685 1564 1459 -5199 1144 1885 2828 375 5502 -251 3555 -1011 4302 -973 -1261 2753 -331 1604 -1561 2333 53 2781 414 -90 -2047 1085 -917 -4053 1585 1293 770 1272 -355 -1030 348 1876 -3301 -1256 1205 -1461 -828 303 1494 1051 -678 -6024 -624 3232 1602 4299 847 -1215 270 173 -1643 -24 -488 -622 -111 -457 355 20 -256 -3204 -2573 -898 1229 -174 -1128 -1605 -1362 -2872 -577 -2644 -768 -1520 344 -22 0 -281 -1775 864 20 -2081 383 531 156 1274 34 2327 4995 888 -457 1810 -800 -848 773 841 -1064 -168 -151 443 1359 -246 2738 2792 825 -51 -5572 433 -135 -1622 298 1400 3186 2205 482 -7731 1395 1882 2371 832 -211 -1826 159 -1487 2856 -2040 98 -678 1142 -4911 -5718 -2706 -3994 17411 165 -4451 6812 1386 921 4145 -1105 1280 -618 2169 -1269 -3283 -127 173 -3386 -224 -2762 3425 -2561 239 171 537 792 -1894 2273 -1377 -1991 111 33 4034 580 663 -2505 1655 -330 -2690 -1709 -72 3882 697 276 -60 1798 -1872 -3185 1793 1556 -479 1275 98 -562 -449 -840 -2512 -1979 -1639 -1024 1545 1007 477 1071 198 -4433 -762 1057 -582 -156 -1009 -704 -2330 1292 -2761 1095 -2074 1300 -98 802 -518 851 838 369 329 -67 734 1501 -778 5628 1647 -6270 332 2447 -1370 -4245 -988 1721 2293 1789 1966 -8616 607 76 342 537 3946 2960 2405 812 -5050 -20 -661 -3261 1488 -1142 -1002 -677 -3022 11496 -3130 -355 -2675 231 715 4001 -3449 553 12189 -6996 -1657 -2956 -1475 63 -80 1467 550 104 2021 -115 -718 970 1395 -1344 1016 -583 -2461 1422 1201 2131 1922 2156 -1531 275 853 284 -764 -488 153 219 -608 -1588 437 -2575 -3966 -1020 1316 -1789 592 588 -979 3161 -3474 -2280 -922 -134 -1283 1491 -231 -317 55 -1480 -745 -519 612 1313 984 -67 -1147 504 -93 -1001 -2750 1796 1277 -329 61 60 1031 -410 -7910 368 2343 -693 1547 1114 -226 -90 -1167 -2237 866 26 -242 -516 1468 -157 1211 -200 -6937 -756 2033 -999 1060 -2830 -114 1160 1446 -1093 2505 786 -1374 -33 1879 520 1665 -1077 -2876 482 -994 1070 2027 -1318 -1245 2014 808 -1706 415 529 1614 1065 227 -1976 -802 7932 -1981 -4890 -629 -570 -90 2062 -2506 2128 -3941 6567 -2991 -909 -2294 523 67 726 2462 -2304 -2817 -2021 1054 -3064 -1161 2924 2533 2068 -1091 -1352 731 -547 -3296 1008 805 -766 -1778 -114 -3988 149 781 3289 2154 -2376 -3315 -1712 2828 -815 -2949 1694 -1250 -2242 -499 -2109 -1038 -3885 -2589 -1311 -2370 -1604 160 1475 -3747 733 1039 -450 -2569 1001 3919 -736 -211 -563 -1900 -803 368 1907 1867 275 -24 109 484 125 -1107 -3973 633 2150 609 1175 850 -1015 2905 -2140 851 -2519 1453 -1252 1655 -82 236 -665 -1025 -3974 1626 -1256 -2113 -532 349 1269 31 -1456 -2172 -188 1442 -3948 2 -4210 638 -2385 -2044 7637 -2193 -3026 -6733 -2971 -2447 -677 -2733 2603 991 2421 764 -503 -1174 -397 -1353 1273 -3091 4864 -1922 -2290 2237 1144 521 -1476 -463 -1555 -3619 -1639 -693 1147 496 366 -168 676 -1741 -3492 -552 1581 -804 2632 -372 673 -833 -610 1362 -969 -1397 -2730 519 -4709 -4352 -6584 -2370 3497 -2076 -2497 -763 -3210 -552 -1631 712 -708 7881 544 -751 -1056 717 120 -1512 -823 278 6019 -710 693 -2112 3 373 -251 -469 -2511 -6392 -2923 117 -1532 -232 2531 1278 249 2404 -804 709 703 992 2865 -272 -2635 -1392 -2904 11501 -2237 -1767 -1480 -2349 -1129 -359 362 -1834 -3814 1022 1025 -1559 2190 -1369 -2097 -3104 -1794 1596 738 1513 2570 -334 -2753 -455 -1123 517 3395 322 -581 1262 1315 -91 -691 -1115 -461 -3024 285 -202 -3638 -333 1508 -1520 2342 842 -3245 2483 -406 220 2094 -1040 311 1455 -290 156 1879 614 -318 -442 499 1215 -754 -347 -118 917 424 -2315 -660 2597 -394 1385 -718 -4937 -1324 -54 -49 -1092 1303 1556 2508 -438 -3060 2730 1631 565 264 -1862 -892 -1316 -2274 -1740 -644 -1586 -504 -1095 1006 773 210 2861 -5484 -1829 3421 351 -1244 134 782 -206 3769 3324 -2364 683 293 -1483 -359 -1468 -56 345 -4038 -866 -1880 1415 -1873 -910 381 314 -1130 1666 -1738 780 2097 822 -926 -1691 943 538 -2340 1973 -1945 -1346 -1770 -1430 851 1389 -37 -4226 -2284 -306 -314 -1324 1294 -1858 1224 997 -4270 -344 989 -1195 559 320 143 867 -749 -832 -758 1506 -624 1425 205 -1149 257 -1471 -3276 -1254 803 968 1765 -914 -3255 506 -2526 11447 -3264 -134 -2420 -965 568 1365 173 1234 4198 3012 2946 3486 2764 1878 609 1691 999 -1746 1142 335 -347 2512 -490 -1624 740 -1695 -3286 213 -231 -2321 298 -777 -820 -1450 -885 365 321 -790 56 -714 -2045 -116 -2477 702 4549 1221 -1801 -310 503 -1039 -2046 79 -337 -1017 78 -1166 -684 -1741 -3443 -4949 -2960 -738 4499 -2368 -2701 -2797 -2940 -2390 -824 -36 -906 3100 -1959 354 -1379 -2378 508 -1083 -347 -2612 -1821 -1726 -3151 -3624 -1603 -658 -3482 -1254 -1485 6324 -3871 -2106 -79 -731 -2209 -584 -712 -3209 9069 -918 -758 -1879 -89 -1428 -1247 -1303 -788 7054 287 562 651 1297 -908 -361 -1891 -267 1268 647 -626 440 483 982 156 1124 1009 2796 2045 -1498 466 -171 987 123 185 163 -428 464 -1047 14 -129 1239 1277 2256 -1819 -2720 -1474 -1793 -1675 -1225 -127 172 263 648 -483 364 1267 3360 1461 1533 4390 2502 222 2013 365 -231 541 -1785 305 -1291 -2501 198 -1253 1193 -846 2395 -1425 -1559 -2961 -2870 -4061 -9035 -3203 -175 3326 2053 1258 305 1487 -1477 -3616 -1734 162 -1922 -218 951 -1913 303 -610 -2562 -890 -239 3259 -546 -3263 -9729 -5177 -4315 -7838 -2772 3889 12647 10987 1956 1386 3290 934 907 -1126 -550 3960 -1890 513 404 207 1509 2552 -956 545 -2367 -3375 272 -349 -478 34 -2018 -683 14 -1476 830 156 2076 753 1258 3084 673 739 -1146 -1425 -1483 -2056 -1655 -1564 -679 -1260 771 1148 955 -1203 -1948 -2281 -2397 -2251 -2863 -990 -296 -1094 2261 3722 2363 1623 2484 -873 1030 -613 -2805 -502 2230 706 -731 1296 1335 -2808 -3244 -1049 -1896 -1056 1100 -252 389 461 -1201 -78 -1195 -650 -993 -791 -2321 -5327 -4122 1881 3987 1721 -1730 0 -24 -801 3051 312 -1021 -1611 -537 690 328 -823 1327 668 1231 3236 1507 -1451 1566 3076 1271 -527 -313 -1399 -3543 -11405 -6775 -337 -1657 -2110 -1267 738 1249 -353 3397 460 -1533 7274 4258 2978 10236 4978 -3028 -11997 -9767 -307 2074 2254 -2503 -1644 -820 500 -3087 -999 101 1926 -451 1016 2108 -400 184 -2377 452 -198 846 -23 113 579 -1219 1705 425 773 -83 48 -2207 -2564 427 -2141 -1392 -2897 2019 -2013 1009 -963 -285 4866 1574 73 -8280 -1504 -968 -308 1176 -603 784 -636 -1727 -807 137 261 1442 -1000 101 -168 1017 -2275 206 1211 -2027 -2231 -2356 -2107 2060 -1240 106 -2450 95 -474 -2145 -1254 -2408 10 -173 1087 2613 3458 -2017 -2121 -2120 869 1334 1159 -526 1445 687 708 186 132 -520 -934 -736 -2210 -218 -1723 -1009 -2321 -3605 274 -3649 -3201 -525 -1369 596 1313 2485 1224 1847 1169 611 -2507 -5836 -5208 -470 3031 1208 499 2406 1118 -1690 -4057 -3157 -1969 -1051 -580 64 -997 -2556 2615 5655 2318 -1912 -591 -1246 -1693 454 598 1869 -2616 595 3758 3607 4250 518 -4116 -2335 -2772 -5255 -5099 -1728 -3107 -261 -1304 -2478 -540 833 1092 2610 556 1700 647 -783 186 -2119 -1702 -3834 -2894 3161 2938 1848 1491 227 -61 1159 -1414 1249 1084 3100 1118 669 -1085 -1788 3327 1228 652 386 2514 1406 994 805 552 943 -1312 -333 3424 4680 1558 2869 1551 -608 -1663 -4011 -4377 -299 -5 9 -2199 -674 -3540 -1557 -807 298 1223 640 -1699 -1144 -3235 -1097 -2189 246 2890 -473 -2053 -764 49 -1301 -870 1172 1844 -397 639 -1234 -288 2897 353 -1823 -9 853 -217 -814 1295 3816 1202 4921 4522 1328 2593 3451 1217 -65 -141 1202 340 -926 -652 1508 -1128 2379 913 -198 1097 -196 547 351 -667 -1477 650 -554 310 974 708 347 1396 3999 1569 -1475 -3238 -2323 -434 2560 1457 -148 7691 2294 761 48 636 184 -814 780 -491 889 1071 -1177 -1368 1692 -496 1209 1488 970 2766 904 -1947 -732 -1344 2028 78 -1800 1361 1643 -586 1016 1205 369 -124 -1158 1007 2306 1575 3418 1316 2640 1125 -573 -3177 -2600 -740 -1763 -1992 544 260 -1088 -813 -2024 44 -644 799 -1175 3 -378 568 35 -310 118 123 790 2448 72 -1425 -547 -1137 97 -479 1129 548 -560 2301 2585 425 2345 2035 1789 -2835 -3127 -1789 -421 -683 -732 -1413 1298 154 -639 2550 2820 -371 -961 -74 -1092 -1743 -2820 -507 871 -271 715 926 1142 115 568 641 1967 -1183 0 -1625 -1297 -1337 401 -1373 -3788 -681 756 1213 2513 2839 -684 2222 636 145 2125 -3791 -1556 -2704 -4186 -2462 -4995 -3861 -2529 2086 5307 5099 -1956 -1405 1162 -669 -4409 -3565 2066 4547 822 -210 1382 -1490 -483 -265 25 -1111 -2782 2050 -820 -240 -3288 -1468 -757 725 1025 -542 3386 -45 -161 934 361 -2877 -1897 1437 -293 -2180 976 -2408 -1796 953 -2402 -795 -772 1837 1209 2407 1679 2097 -318 -187 556 -622 -1853 1759 989 3640 157 -42 2886 948 -1662 -2461 1097 -1433 -3173 33 -99 -598 645 -1710 3899 2240 -1605 -2969 -1872 -62 595 382 767 2401 -49 -1721 1762 694 -1996 203 1212 671 -1556 -561 -2375 -3149 -2007 -1251 3499 2023 1441 5403 2238 -2642 2220 -1483 1540 6429 2068 1607 3479 2099 -4040 -4095 -3245 -3550 -2865 -3795 1945 3681 3958 -4589 -7797 -2695 -2411 -5378 -2673 6970 14441 9742 -4276 -4188 -1580 -1970 767 -71 3202 3919 3092 -537 -376 -553 -2189 -837 2005 1436 3114 -3335 1307 1825 1736 341 360 -6 -289 -810 1695 509 -1482 -2066 445 703 484 1632 1618 3440 1719 2833 2838 1855 741 -1733 -1269 -2886 -1947 590 -110 -567 -695 -2479 -303 384 -1326 24 2144 1036 2481 823 3756 1479 -1608 -4212 -4107 2470 2185 -714 -1748 -1341 2250 -1251 1150 1328 1964 632 2364 1515 -1346 454 1300 -2018 193 113 -17 -1600 -157 -765 -2015 1248 1884 -2104 2158 -843 -1095 -2987 -7480 -3454 -1877 -2870 -627 95 3718 2240 -362 2180 -77 -1648 -4472 -4352 -272 -1772 -2456 1347 833 311 -526 644 2302 -446 -3696 -1763 -2291 -2678 -3198 3023 4694 2422 -2680 -358 -2316 -1524 -457 -2769 3489 592 3125 395 -1355 155 -739 1214 1658 -1127 421 -1225 -283 -3438 696 -626 -1746 1168 1206 8840 4183 -390 -171 -197 40 312 1400 108 -229 50 1937 1384 1616 1042 1962 810 -919 -1043 -3716 2930 1403 -700 -524 771 -309 -718 -5114 -2029 -1071 -189 -411 -456 -2077 -1065 -2199 -1408 -1041 -2698 -6397 -1312 -1627 -1868 -765 370 7343 3919 -495 -1660 -2306 -3476 -2479 -4092 1498 3299 1639 154 31 1274 378 -1460 1288 380 1551 4693 -954 -893 -2085 -985 -1806 -543 -1727 -89 4398 -1350 -1124 -1604 506 611 525 3788 1546 1151 279 -2777 -1380 -2628 -2430 4057 -1404 6595 2742 1269 -899 -2627 -2389 -5548 -46 -1688 2811 2172 414 495 695 312 -959 -1573 1011 -1728 -1562 1142 15 133 -1757 -3012 -2895 -824 185 -231 -528 -239 326 -147 795 631 103 2923 1963 609 933 -624 451 -511 -1149 124 241 -175 1260 714 -168 338 -1140 402 1963 1287 281 427 742 852 -390 -705 -585 17 -408 -728 -1613 -583 -490 -1067 -1850 -2857 928 1591 2331 -2364 -5883 -2390 -2190 -4725 -2209 2508 6903 3882 128 -370 -1028 -92 554 -1461 -407 -1903 -1166 2844 2457 2672 2125 -1210 616 1554 -1513 1213 -98 -1410 -519 -701 -2232 -136 -2202 6594 1885 -98 -890 1650 -199 -1183 530 -584 -1223 -2976 640 -1398 536 -900 -4159 301 1174 2011 2532 425 410 133 -192 -935 -74 -345 2015 1103 193 1324 972 1036 647 -40 -976 -135 -13 -1861 -139 3155 -751 -721 -448 799 1168 -215 708 2304 1717 2065 1059 -392 942 -419 -159 -1740 -169 175 -1249 96 719 -463 726 -74 -2039 -4023 -403 236 -5330 -5195 2583 3062 -922 1394 -2911 524 -126 772 -1599 -1143 98 -1961 -387 207 -1526 1951 -2148 -4470 1724 233 -1251 -7527 -482 3743 -18975 -1512 18942 -12584 -521 10148 2127 -1347 -4491 -840 -1874 -3364 -122 -2241 -4913 541 -82 871 -1264 -3714 -1278 1029 -834 1342 -2415 -2798 2808 1977 -429 -1548 3057 -390 -3798 -4144 -9975 -5118 1492 -3600 -2799 5794 9945 685 -1302 307 -335 -979 -632 -837 -1113 -498 -1117 -3167 553 3216 7800 2739 -5606 2096 -562 -2401 1239 -42 -1162 -1825 -231 2707 -2646 1434 4717 -560 437 -2801 -3195 -30 2083 -2538 -921 -140 2484 7237 9544 -2040 -834 3678 -5969 -7631 -6997 2541 9570 4838 1934 839 -4240 -6188 -8368 -5542 -3084 -167 388 -233 242 -572 2238 1676 -1836 -848 -1677 -598 -4585 -2138 937 1111 403 -2087 -465 624 1402 91 1183 1789 1087 1521 -1037 180 -470 1349 686 -1078 572 608 -801 567 265 67 241 -1799 67 -73 -973 -2384 -909 310 -703 2675 -1012 276 -146 2982 1283 -251 -1699 -736 -2172 -1263 2297 574 -470 2267 903 654 2328 1798 2614 1087 -1353 -61 532 -250 -4061 -1765 566 -11497 -2512 13403 -2347 1897 356 2494 434 -2291 -1671 -1299 -3684 -567 1920 2253 -1931 -234 -292 -1723 -1358 -169 -1044 -1100 259 1558 -293 -1798 -2605 -1280 2148 -3851 -103 4660 465 -855 -1283 -263 -773 -1254 -162 -1122 309 589 88 1940 536 -3077 -2218 -1664 -4291 -2347 996 1356 -1608 1535 -442 -3547 -2205 -1186 -215 1494 624 -1442 -529 241 265 -816 2392 1258 2594 276 1888 710 58 -735 3411 857 2117 -568 -651 -1488 -861 726 -636 86 -629 519 -1633 -740 -1004 1366 214 -1213 2485 1600 12 -5233 -1609 -688 -1820 683 -770 -104 -203 -3419 -1508 5148 1231 564 178 -146 631 -6959 -4290 808 -263 1093 -330 -755 -38 -1471 -2733 644 -1170 -140 136 1458 -273 -2079 3122 1678 -1125 -751 1587 395 2416 2681 42 1614 2697 1686 -2002 -1192 -1159 -117 -96 -851 -257 877 1024 -2872 -340 538 185 -196 -333 -134 368 1318 -184 -1583 -446 -1456 181 1465 -1567 53 -1264 3148 -897 -4870 13004 -1547 -16339 9476 -906 -9831 -1628 691 1516 -1953 -55 -1201 430 97 -864 -6255 -4200 -4965 -548 1657 -194 4761 4420 3264 -38 -2362 76 -3552 -3549 1683 27 -463 332 -313 -38 2576 -14 -166 -1920 2164 -102 -47 722 649 -478 -900 -756 2906 154 2074 23 -129 410 2573 -211 1549 -588 650 -680 290 -858 -2301 -747 -635 -901 -1249 2373 1115 -23 34 727 -2981 -1067 1664 -493 -2402 -91 1976 -1354 -956 -2883 -682 1276 -1811 -4156 -451 -1810 -2932 765 2139 397 507 -1983 -1388 -1006 -1208 -2199 -175 -317 -2106 865 1386 -1205 1873 -2245 -1049 -2081 -978 -2213 -835 990 -2238 384 -573 -2689 -408 -1185 773 476 -1988 1176 735 -675 -1420 -562 908 920 137 -348 -755 474 26 1393 700 -615 -126 -316 -1193 -247 -759 -1900 1142 1064 -3043 -1495 -884 -2582 -1499 52 -225 485 1666 -802 -1107 -770 -824 227 -789 1464 -911 1562 3752 3304 -588 -2206 1603 1056 -1342 -3380 -1318 -379 -489 1124 1388 -1458 -1459 -2888 -9977 -4891 6792 1627 -692 173 9844 -1104 -9333 472 -956 -1427 -1918 -2144 -853 -964 919 895 1357 790 -3562 -1468 -1466 81 -3094 -3096 2296 -690 -9047 -5480 -2220 -758 1740 -2728 6447 4719 -503 -802 -1208 -219 2060 3558 2129 3174 459 -1657 -193 -1654 805 1186 -387 1186 2045 1773 1901 624 -3159 -327 -1033 -41 -2640 1235 4187 -2002 -1157 -641 -3764 -201 -1297 1262 -669 -1375 2566 113 -2971 1812 1041 751 -1458 1770 899 1357 521 1308 2165 893 1056 -74 1581 1228 1832 518 2630 1315 2395 3697 -2397 -2636 -372 180 -599 1041 74 -1311 -1128 -1643 -1581 -359 -2415 1174 1592 -584 2514 6150 -1332 -1413 538 1349 212 -2294 -94 -45 -1435 -989 -39 1576 55 -216 -547 -611 1855 -2323 1377 1578 -826 1802 1350 1237 1318 797 -510 2340 -980 -314 -927 235 -952 -2444 195 -244 -2536 416 -566 -926 -1431 -341 -4159 809 5035 -1445 834 786 -939 992 3201 949 -467 -754 1837 184 -647 1800 2093 869 2213 1369 -1558 -582 63 23 -4726 -1374 2676 -1982 -1603 395 3214 -276 -4874 -2458 -513 3951 1364 2626 1038 4290 1854 -2373 -1932 -2768 -961 1097 -1067 -2699 -1013 -2248 -560 7112 1066 -5014 8517 1601 -5190 -1956 4050 5909 3373 678 -1065 1859 360 -1941 -3956 -982 3535 -128 -100 3750 404 1492 118 1077 245 -1819 -152 1110 333 372 1334 -34 -2398 319 981 1236 -1315 -851 2600 663 -1433 -2005 -1185 1575 373 1616 728 2690 -332 -3461 -2363 -597 -2287 -1425 -2580 1382 -342 -479 902 613 1286 132 357 -698 -307 -496 -3085 -2134 910 -1851 2283 -4117 -5279 178 -3141 -1006 990 784 1895 -61 508 170 -782 -1208 -94 1112 -972 855 911 -309 -172 -1450 1219 693 -2241 1129 -845 -467 -2397 263 310 -1728 -343 1503 -1337 17 -61 280 -28 -2644 10461 -1240 -11165 -784 -850 -1993 -1584 80 1304 468 323 -2105 1084 -496 -2317 -4047 -373 2011 -4994 -1113 2711 -5229 -72 3161 207 6936 4454 -2181 -1314 3597 -4068 -7257 -4025 263 -595 185 873 -460 -381 1325 1054 -306 -966 -2411 -2110 462 -498 -3771 -962 -1130 -1987 -2111 1421 404 -1512 92 743 -1382 -1887 -1248 3004 -229 -674 1696 242 -743 2335 839 -760 -338 2476 2105 616 -543 -2198 -3079 -255 70 321 612 357 -1578 -619 1780 -2417 -2622 -239 1279 -60 -2809 68 -1493 -956 -2616 -2140 -830 1246 123 -17 1493 2017 -1054 -1241 1023 903 -540 1112 -1260 -916 -1861 -375 -272 1491 1949 1702 1301 2264 2600 2193 -2390 1039 -2737 -984 -1875 4 -640 1082 38 -1060 -2345 573 1483 316 -483 994 330 505 2209 856 2150 4486 752 385 835 -1869 -448 -58 345 -1029 136 85 -420 268 31 1605 -866 -1456 1172 -523 2050 -196 -868 -127 2306 476 23 -1202 821 16 1797 2681 3189 -262 -3638 3792 58 -2332 1138 -414 943 1287 363 32 2846 2517 4436 1041 -90 96 -2005 768 3052 -1547 1643 1785 -159 1642 -270 521 -1301 345 32 -526 -2097 -851 639 5293 3238 -1773 -1945 4796 -226 -2135 2269 -434 238 86 1602 2116 1227 2656 4153 -3174 265 524 -74 -438 -741 -491 614 211 2197 -794 -5723 -598 -698 -2397 -4706 1220 5204 -214 -852 -802 -447 -1222 -1699 -260 178 826 739 1824 1959 -491 -226 887 694 -1295 1529 1350 126 2901 380 -1152 1602 1030 -116 888 2163 2463 1291 -1119 -849 -1177 58 252 -1198 -244 -91 -790 -409 -865 -758 -782 -2173 -1309 -23 -299 -287 -2582 -1121 -707 -2101 -2334 -1853 1136 1297 -649 -102 -1703 -2898 -395 -497 -1355 -465 513 1362 -2437 1745 810 -165 993 -635 -1073 37 -89 -233 -303 619 5066 2693 4310 -395 693 1349 544 225 1225 2364 5311 2246 -481 1331 287 -22 2957 1206 707 1110 -21 2364 -3 4 455 46 -1944 -282 -5266 -2723 -631 -2738 -415 678 -1656 -424 -4049 -3350 -839 -1109 -54 820 369 806 788 1648 1867 2494 -30 -1277 -431 -54 -1573 109 -2461 -2649 -1737 -705 519 1143 1006 2722 1891 2216 3206 3282 1559 -166 711 -431 -3658 342 1038 911 1750 2254 399 -334 2183 -697 623 1944 2551 2878 1923 -1144 -2232 -35 -1245 -144 -2423 -2919 -1898 -1739 449 -921 615 5235 2516 1086 3879 617 2887 4020 1528 2608 3314 1555 3957 4885 3538 2324 2368 1549 2416 8510 5013 -392 3140 2699 266 250 -352 -173 -509 -497 -1182 -714 306 1948 1404 1756 1428 835 1775 300 264 266 -600 -1740 -2491 -4301 -3173 -4380 -5737 -5737 -7333 1692 -1988 -1352 759 -2261 -1957 -1408 -2713 -688 -821 -1126 -1171 26 -270 -375 -1004 -1729 -2425 -1499 -864 -1642 -3123 -3854 -3471 -1017 -2355 -1705 -2145 -4385 -1902 1184 -997 -256 3724 3992 3147 -366 -1093 322 -1833 -1309 -1972 -198 -796 -1288 -546 599 -643 -1909 -80 -1764 -1635 -1982 -2706 -1501 -1387 -830 -2677 -3072 -1988 -1071 -1501 -2508 -2598 -4404 -1424 -1297 -437 -105 436 245 -1867 2398 115 -1277 3072 629 46 -53 -2451 -1730 897 -654 -174 1542 -421 2166 1221 -729 -54 -1515 -855 -449 -10 -633 -558 -1469 -1269 329 134 340 1349 -1170 2490 705 -1183 110 -27 -1962 -1711 -80 -1928 -1239 320 1142 -584 120 2292 3139 3057 1100 376 1834 3018 1906 1859 -1662 581 -865 -596 1939 -875 -1527 -64 -2843 42 -1109 -1893 15 265 -1274 596 1403 266 970 839 44 -295 38 -917 -839 -474 -1332 -789 -2928 -2069 -1100 -1392 -137 284 630 -648 -1056 -127 -5 -657 1062 205 239 1450 183 2299 905 844 2019 -819 -400 656 2220 604 -1920 -1344 -2435 -1961 -1587 -1924 -446 -937 -1975 1237 -1373 -440 1364 -2070 -353 3557 4515 3464 -1026 -1416 42 1276 632 623 2572 3025 3313 1236 250 950 2312 30 0 531 1017 206 -513 -87 -144 -1869 -2433 -2631 -2071 -96 830 -1705 -2486 362 345 -816 1696 324 60 823 -225 -1237 -335 -214 -1214 -863 -1331 -1656 -1278 -1575 -536 -911 -3482 -4046 -4064 -1188 -3319 -3282 2136 1576 1281 -1505 -2844 -1376 -1050 -3435 -2764 27 -866 329 -197 602 222 -111 1238 462 -232 361 3115 -2076 -132 1047 -649 -777 83 -1063 -1975 -2827 554 -1437 -1726 188 -2160 -1718 -779 270 -1204 1222 1722 256 -397 262 -1743 -382 -991 -1106 -510 82 -314 -1890 -243 2495 -479 -1246 -535 -2532 -1699 440 -1512 -890 445 1930 643 2348 1265 2353 1625 2516 1054 -881 -193 -500 -71 -614 -789 340 -151 -419 -64 645 1282 2257 465 -238 -644 2153 1027 1776 -2645 -2553 -1823 2508 522 1053 1701 -911 662 1124 -524 2100 408 1835 1008 193 2795 515 -601 -658 -680 -1245 -842 -324 2241 1878 335 -641 202 998 -579 749 565 -280 439 1062 -472 -1332 -1381 -909 -2049 -2012 -2707 -308 450 954 383 -278 -928 31 -1114 -1580 -2647 -2727 826 1346 697 -122 -400 1212 -170 1072 1567 -679 355 -975 2611 131 -2147 -1819 433 2202 -15 -533 1000 115 -1472 -793 14 2300 2066 -1857 -770 -1630 -3788 -3398 -2544 -2408 -2420 -1796 -729 -1610 -3287 460 -4042 -4263 -668 6267 2145 -933 -1116 -1304 -661 -430 721 524 -532 1403 -431 596 -55 857 788 -901 1336 1168 518 1348 464 -627 -653 -2333 -1068 -2887 -2853 -631 -2253 -269 255 -1281 -2649 551 -434 -928 1013 -65 1297 726 331 -1081 82 1695 298 -178 -361 1097 4078 -1415 -133 4444 -1663 -120 822 -276 1841 -888 -2694 3063 1669 -418 1085 1618 -101 -1840 -1068 -1297 -526 -785 -1648 -2946 -1330 -892 -886 -166 -2028 -2864 -962 -302 -2787 -2332 -813 -2011 -1404 -1958 -1642 -1069 -2436 -3071 -2136 2167 192 717 2392 -72 1320 -1033 -2152 -647 -640 -1776 -920 1462 143 1051 -1348 -1114 -1721 350 2697 1497 1944 3082 2413 706 2324 634 -116 -786 -923 -350 1031 301 -2601 -1300 -1929 -288 -760 -1271 -1113 -1217 -840 -414 1228 -604 -601 -151 -1648 -1288 -1918 -2498 -749 -819 -453 333 -56 -1131 445 1839 -705 -2950 -2547 -3228 -651 -54 788 452 1026 2788 2404 3305 2018 -759 -1776 -1333 -1266 -2024 -1861 -835 -28 -1300 -353 -534 -1116 -536 2336 -2285 -1683 808 -2194 510 -1037 452 -264 -175 3947 115 1820 3047 -1075 -1293 -1417 -1652 -3143 -2349 -638 -1444 -1193 -521 -999 -2901 -1130 -1329 -3354 -1535 -1802 -1558 -2340 -4106 -3209 -2262 -734 737 -1585 -179 -813 32 2003 792 1959 3802 789 1196 470 -1034 -522 -1483 165 -980 -3015 -832 -1625 -1116 215 -2400 -3016 -1453 -3609 -3533 -2533 -491 -672 -2217 254 1069 838 -1755 -1869 -1610 1539 1744 800 -470 -227 -217 14 782 -461 580 2469 1175 238 -1305 -1343 2073 -2474 1009 2767 5369 4980 -1009 -1092 -1248 410 -1570 -1434 2985 365 -2918 1670 -381 1972 -859 -1904 327 -1750 -2248 -609 1070 -1019 -214 1335 2656 1260 1969 2111 726 -812 -266 -882 211 194 -505 600 488 -120 11 699 -1058 239 2719 623 949 617 -2906 -822 -3379 -715 4902 5556 1942 100 -794 -2008 171 -58 -1006 1139 1822 714 1094 681 -740 -2684 -1254 -1524 -231 -157 -723 2180 1642 4196 1198 -514 -551 217 -1686 -2196 384 -410 -1253 2676 -154 2541 629 336 1798 3911 4636 3623 -2580 -3061 -1489 -2476 -2592 1889 3807 4706 1498 2833 2134 -880 1030 1014 -580 772 1890 -340 685 2523 1033 1030 2504 1588 314 1142 -302 -100 -1487 -529 -52 -446 728 317 923 269 2250 1297 1820 2232 624 346 3113 3571 2077 404 2655 424 -1226 386 -418 3015 2930 3291 758 2006 -264 1174 2914 -236 -2345 -1892 -2892 -633 7 198 937 -995 -1029 1081 1148 47 -1509 -1767 -1410 -1319 -3622 -1820 -444 -1348 8 -19 599 2416 443 -2677 -549 -866 -413 -1643 833 198 -1358 -1210 -453 -1099 -691 225 -1155 -2303 -3190 -2658 -2391 -69 -2203 -2952 -4638 -4949 -548 176 452 -1284 1469 188 -2673 -2650 -3331 -2037 -779 -978 1376 3269 2196 1265 3596 2351 -160 -852 -1289 -501 -999 -1181 478 605 -535 -488 845 133 -1322 814 873 -1193 -927 1652 1638 -1090 1159 -550 247 -243 206 754 -241 485 -2481 2802 -884 2142 2735 1843 1623 611 544 2213 -969 -195 782 -1127 -154 436 -74 550 2196 -514 -29 -155 -753 1392 -44 -135 -2254 -6731 -3045 -5885 -9024 -1838 -643 588 410 1317 -264 -431 -687 -1550 -1335 940 354 19 -1589 -229 490 507 -1268 -857 26 -18 -2085 -2206 -817 117 1380 1236 -1785 -813 -794 61 -833 -3565 -2521 680 -984 -487 921 -926 -1286 180 -227 -870 248 660 49 -1133 -1055 -241 248 -127 624 890 -976 -310 -1574 42 -429 -195 657 -82 -669 1126 316 -743 -157 37 -2346 1098 2906 -4086 3478 5383 -5448 416 1434 1555 892 -6 740 -601 -1802 703 -175 -885 -1298 1021 1313 285 1891 1816 408 -625 -253 -580 -2049 -22 2012 -587 -2053 2765 2547 -486 -908 679 358 725 771 -2028 1251 1302 -366 -1193 748 -888 31 36 -1090 908 247 -1311 -1244 2198 2042 -2652 -2836 -812 -1151 325 -1303 -282 -1392 -149 378 -975 -880 1052 794 287 -3594 -88 2191 -2171 500 3105 -548 -1025 -2371 294 -1148 226 -155 -1111 -1219 -334 1238 554 2773 3324 161 -1372 -3334 -3600 -1848 -1750 1955 -837 2148 851 -2536 -1174 -3450 -1297 1338 -412 3282 789 2688 -1973 -2787 -768 -1415 152 -1188 523 -270 -1750 669 1565 883 -1491 2161 -216 -1444 -261 -902 -1280 -1597 -1208 418 970 -198 479 -596 1044 -493 -624 -1140 2034 401 557 686 858 1466 -970 -850 -684 -2788 1287 -55 -7403 -5003 1047 -15581 -2465 9994 -1541 35 2069 -301 -955 2125 -2484 -6231 -6429 -2770 -6287 -2713 562 -354 -12 -89 1172 -139 409 254 -2086 -633 93 242 -1095 9087 5168 -7152 -2420 1960 -441 3802 786 -3631 -966 1464 -2266 675 2742 -1425 138 -542 -4563 -643 278 -670 -1095 187 -668 -978 819 -687 1780 -1477 4627 3618 -482 -35 -173 -1017 -724 127 -1753 -1205 -426 -828 -56 752 140 -564 -1389 -1669 -1012 578 415 -2694 2655 8539 -12112 -3386 7977 -6935 -704 4089 4803 1102 -103 3911 -4437 -6526 4154 -454 -1478 1000 -31 1485 531 -1190 -2221 316 403 -291 140 -92 867 -310 541 -739 1709 167 -578 -1896 556 903 -601 32 1955 -1075 -990 -25 488 1002 2029 -2064 -2302 1296 -612 -218 2119 11 -660 1513 -1215 -2037 -1410 -1300 199 1818 -352 -832 -2607 -753 -427 -2102 880 325 1001 2036 -998 -1925 1956 -1110 -1217 1038 855 -59 446 -1956 -4958 8145 4346 -3754 7414 -502 -1910 219 2520 2517 -603 -1305 909 1073 27 -768 787 905 58 1024 893 -893 -354 2234 407 1322 722 -721 3623 -1597 -3400 2564 243 2275 -1746 1824 690 974 1287 -2390 2474 -1024 -1267 -742 -318 563 -185 1097 2029 9 -573 -72 2029 -4062 -6678 6237 -1423 -8113 12803 5447 -4561 -1691 -701 -1116 -181 1445 1110 -206 -348 495 1026 1528 476 398 -1110 -886 -40 -359 916 -1159 -606 -1522 66 -258 -1906 -915 751 193 235 -5764 -3128 6097 -301 -420 13318 2872 2363 -1557 -588 3422 -2073 -6931 840 -467 -5964 -2849 -336 -154 1732 -1842 -1161 805 -1410 -2091 -804 -2623 1559 2634 -6353 207 3450 -3988 222 3008 -2388 -1762 -1576 -1458 6130 -1064 -5479 -304 -2143 1092 -2598 -3041 -477 84 -3014 746 3257 -262 -186 -3496 1943 -1597 -5132 -2291 -2237 -1096 -1260 3264 2288 1843 1856 -71 -207 358 209 947 -36 -6319 -7129 7447 1628 -4919 12280 2050 -2571 2463 662 995 -555 -2778 -1724 -1026 -56 172 -150 641 -1259 2197 1840 -2669 -1471 429 -1317 -2938 -3396 -853 -2569 -4849 -3128 4305 2317 -237 1400 -1636 -687 3474 -1306 -1175 395 1272 -847 34 1088 551 199 -1337 -812 -7 99 -770 -876 -1185 -1508 -2018 -4954 -1487 2307 -2950 -4607 -821 -3350 -2245 951 1594 -203 1366 4366 -844 -891 -1831 1213 -162 -1019 1757 701 -259 130 694 -681 -3351 3922 1032 -2859 5441 3635 1317 550 238 1730 -1262 -2091 2407 -1605 -250 442 1024 -968 -6010 1808 -2218 -4593 2091 1135 587 183 -773 -419 538 -1730 -738 -254 1111 -163 619 -50 777 1857 2222 -4487 -4079 2863 -371 288 -553 1742 144 1177 -672 -379 -660 -1271 876 -2376 -5154 1745 1569 -2559 1083 3575 1667 352 -1013 24 553 -1330 -779 76 527 -286 1218 -716 -1374 3847 761 -2354 1506 -641 -1253 1132 1712 1553 833 -2366 -1583 1189 384 860 -2191 -1302 -1794 399 825 -25 672 1656 24 -846 -919 39 1816 1723 37 -52 -611 -2378 -183 4425 -1751 6743 11883 -3019 4986 -2209 -3061 1656 -256 -1915 1029 582 -1844 192 1972 1516 -222 543 478 1109 1836 -64 -1699 -959 -392 982 -3 91 251 663 2476 -1655 -1071 157 641 1053 -1803 463 -59 402 2123 2184 -1364 540 313 -891 720 1506 634 -461 -1388 531 -39 934 473 1628 -940 -1304 -2094 -120 -146 1062 -404 -913 1747 1625 -868 12 -258 -308 -6430 -11975 976 -7030 -9628 2862 6484 -3807 3947 -757 373 -850 -1005 -299 -3438 -593 -676 -1051 -855 -117 -1387 -559 -845 -2309 1875 -587 -1713 517 1415 -621 -25 985 770 1834 -1864 -1810 1169 1489 1828 -1549 5960 4413 -2461 420 -1388 -3024 -944 -622 -905 1042 1077 -161 -581 -669 814 -1056 959 779 -6436 -2590 4123 -148 -675 -1030 -1440 -91 -865 -1017 -2171 -2113 2053 -86 -161 1647 545 -765 -685 -77 163 563 -540 -2213 -821 969 260 907 546 385 30 455 2753 581 168 3454 -1298 -326 709 -817 1315 669 -228 -1288 -2952 -2440 734 -4984 -2195 1876 70 -945 359 861 -918 -901 321 311 -276 -5627 5218 4127 -4974 183 575 -940 -612 -1148 424 -494 879 -2053 -179 2789 -2506 -1158 603 -702 -106 -1607 1507 4467 1356 -646 3253 -302 -43 -796 1477 -2658 2973 8529 -3929 763 2604 1347 -6447 -7435 7170 -344 -10264 10331 2852 -2703 -1771 -4999 -7771 7058 523 -6457 6203 -208 933 703 -120 338 1286 1683 -157 277 -1181 2909 198 831 1923 730 -696 2020 -677 -2279 1100 -4 612 2515 -13454 2146 13908 -11622 276 7995 1233 -1296 276 1994 -1961 -36 220 -2932 -463 -850 2508 761 -4083 -190 1253 -780 -1766 -720 -202 197 -18 809 1274 700 2063 215 -1206 -2962 -203 1460 -6763 3335 8498 -5102 -147 4233 519 713 589 -550 -417 1008 -1441 -2539 94 -502 31 -2265 1710 769 -1229 613 783 -23 1069 85 220 1227 -795 -390 335 -1408 -656 -679 577 -2253 1734 4015 1083 131 -1389 -2160 -166 -829 123 -5 1592 521 1651 -720 -633 643 1013 -48 -259 -510 -1780 945 -792 -1393 120 -358 -994 3772 130 -1354 1786 -534 -1781 -603 -774 -1433 6 1096 -859 16 212 -3188 1635 491 632 374 -882 -238 -1088 1194 1746 1515 388 560 -237 -1096 745 -3615 60 -2179 313 637 -18 -1968 -1240 1075 -164 -278 3 -2055 -1777 -1313 -220 2463 2367 1486 5007 3605 -880 -2123 -91 -2469 475 2093 -2008 -361 -977 -2735 -2112 1949 -3811 -1908 4014 -1332 53 2423 -2975 1629 1402 -852 2589 -767 354 487 -3826 -4080 -1356 317 -7430 903 9035 82 339 -597 4473 823 -4394 5716 191 -6297 3588 -292 -5862 3188 1712 -2321 6480 722 -7650 -390 -1041 -5826 -4048 -3060 -2137 -14 1954 4389 -4192 -2312 1096 -48 -393 -449 286 685 -1295 811 1038 -1783 2259 1549 -411 704 -2459 -3799 1356 798 1114 -3118 -1706 1394 -4235 -2545 7645 -1573 613 3115 -1189 -272 811 -2851 2736 3306 1785 1432 -249 -1338 -650 -1371 -4168 -3020 -6593 -2024 -775 -1418 1328 2115 3339 985 -438 -1473 2411 -42 436 -2472 -1188 1328 -7764 -4177 6562 -2567 546 5407 4250 115 -3413 5957 -27 -5669 3700 -1055 -5379 941 857 -903 -891 312 1533 -1315 -11 127 -3070 1425 990 -1933 30 256 -1141 1314 -396 1297 1571 -2146 5783 3333 -5852 1320 -1316 -6669 1290 -156 -2028 -520 -2052 489 385 -880 1175 -1728 -924 -537 -3988 -1460 4385 -789 1952 2896 4235 383 273 116 -2850 -378 23 24 1676 624 380 -382 -391 1278 1034 -2184 851 70 -2250 -356 162 -1293 408 -158 -1493 190 2316 383 1018 2712 -3254 -760 4955 15 3232 4420 -1880 -1711 2949 -3353 -1934 2539 327 -2292 1231 2946 611 449 -790 -2179 2705 951 -66 1552 1499 481 180 -121 -933 -1499 -155 790 1505 2529 2810 -2434 6467 -407 -7227 1037 -1788 -5402 -851 -441 -24 -3009 211 -236 296 2095 1766 -53 -1201 -751 608 -1253 -176 975 -1851 695 491 -53 -1607 142 -2109 -837 753 -827 -83 238 1297 3222 3382 3598 4756 3986 1889 2546 -2765 -600 1428 -2958 -552 3531 -2602 -1112 2581 53 1944 -692 -831 -84 -212 1035 392 -642 681 -1640 -1595 -92 -2124 -1218 -1371 -1099 34 -1487 -1488 -255 -563 441 1123 -1560 -809 873 403 1329 -866 4414 745 -5580 3745 -195 -5011 764 312 -1214 488 264 -899 1126 -593 -543 274 1622 386 2677 738 -919 -380 -70 -84 -1837 -1377 695 714 996 -3146 -1683 119 438 74 -449 -398 -977 -3117 -2828 -1052 -1274 2759 -2301 -31 939 -531 1022 -353 453 -16 -1109 -4368 2132 -2354 2952 13332 3814 -908 1413 -785 1311 1743 556 4822 2138 -245 818 -1734 -2137 -564 -336 235 -966 693 2449 255 227 2869 253 -842 -527 -2448 -2792 2092 25 1425 224 -325 -1905 -700 -308 -1004 -374 -1050 723 805 -2174 -2433 -990 -1277 -3342 -1237 617 -1947 -3587 -178 463 1161 -1161 -1436 846 -2367 -763 1138 19 -110 679 2050 -635 7 -336 108 -896 -1594 581 1941 -1624 -210 2090 -972 -691 2491 1250 -338 -2173 1173 4315 -282 447 -543 -5073 -1024 -848 603 -6674 1598 5059 586 2685 825 -455 -331 -552 725 -1597 -1477 613 -605 -1458 -353 -850 -277 -1866 338 2480 -2028 1348 699 -3589 -2374 2182 -3636 -1984 2016 -3155 -2512 1445 -2512 -1148 1576 -2496 -1744 1412 -1438 -1074 777 740 625 409 869 -460 1974 283 -174 -585 2813 839 -314 3611 -2021 -4714 4985 884 -3961 -574 -856 555 -569 -27 307 -248 1111 267 5008 2414 -2426 4054 3136 -2228 2216 740 -3248 -2348 -2234 -142 -64 106 3312 -715 110 750 152 1746 203 492 1526 129 676 -374 91 1715 -231 1138 3437 3201 -208 -321 973 -1105 -1272 -575 -97 -902 -1712 2213 1003 -541 1040 -2582 2317 -500 75 8026 1150 -3416 3261 1181 -1400 -1578 1206 -2973 -2217 718 -2022 -224 1997 -1113 22 2216 -3792 -902 1955 -1450 -293 2395 914 -533 -4086 -655 -1343 -3780 -981 -2285 -870 -1017 -582 1596 -27 -1415 2599 -1180 -663 2894 -3116 -1980 -2673 -2997 -2823 -5700 -3864 -3101 -3687 -302 1105 -474 -876 1438 -109 -2639 753 -22 84 588 447 488 768 200 372 -34 192 814 544 -512 107 -157 -1785 127 1396 -495 -2153 -1114 -444 -916 -396 101 1505 -1139 733 -914 -638 325 -1724 -1056 1883 -340 -604 486 1673 -1034 1456 1051 113 1167 1285 1745 521 -3459 -1839 1836 -5501 111 7611 -3273 1333 4862 -200 603 -1430 3809 3005 -3845 -79 778 -1359 296 695 81 -1721 -855 -432 -1564 -960 -47 -514 -725 -445 3047 524 -1816 -1117 1575 704 4810 719 65 2146 -1829 -451 274 -2148 -30 1100 -83 1050 -860 -490 -355 190 -1316 -421 -399 584 1651 -4436 1616 5503 -923 823 2779 550 -506 1817 -1546 -1444 2721 61 941 3191 -157 1442 2463 11137 4196 -4851 1806 -1891 -2102 -1184 -310 1004 -2233 785 1219 -1593 1264 1240 4420 2644 -1679 6295 -344 -4995 3673 -964 -3393 -2312 -2691 -475 -4830 -1973 -2238 -2437 -766 1260 -13 58 339 -123 317 469 2104 2143 2086 431 -1414 -845 816 1019 868 562 754 113 -874 1253 0 -985 4859 5293 -964 2060 5282 -599 1361 1265 451 1129 1235 -41 -227 993 216 -605 452 553 -2803 583 288 -2858 1429 1197 293 -608 -485 -2297 1502 436 -1220 -856 -2854 -1957 1217 -3683 -4820 1444 -668 -1401 1322 -716 2146 -1838 -577 2373 -1392 -582 1646 -1881 812 472 -1488 -770 -709 -1981 -104 -10 1729 -1852 271 -3354 -3089 -203 -3428 -2549 392 -1361 -354 -1564 -1530 -1535 -1156 -529 -213 -1568 -1664 1945 -834 1218 5319 137 -2019 2425 -403 -1399 -1298 -914 651 -426 -2749 -2608 355 -1127 -3354 -2961 -589 2230 -2103 1108 2107 -966 1224 1968 -1449 -613 3232 -1782 -2072 2030 -835 336 2238 -1730 -1406 358 -3372 -3239 3051 6 876 3412 991 450 641 -737 -880 324 -1250 -1121 197 -1008 -1851 495 -1153 -2644 885 -183 -1276 452 -147 1522 1609 -2156 96 2744 -367 1696 1665 -170 -1156 -1016 -3050 1909 100 -1942 -2274 332 -504 -635 -1203 -2317 650 449 349 -915 -617 110 -173 549 320 2111 2883 79 -427 366 3046 1263 -951 -3350 -3859 1577 73 -571 115 886 -892 -1329 1001 -1361 -1486 -2147 -669 -611 2076 583 -12 -151 1134 2004 922 -42 -275 40 69 -6 750 662 -1487 -1739 1184 -839 244 -783 393 448 -3 -402 1957 -679 -1468 999 1692 779 3206 1004 -5538 1464 409 -3062 -557 -680 -347 -3591 -493 80 -1561 1743 2618 1939 332 -270 894 -123 -224 715 284 -303 -1500 -624 1437 -1902 877 3613 -810 1550 2391 1341 1360 -2401 5126 624 -5674 1427 -2042 -2410 -608 -2025 -3689 -2424 -1040 2083 1537 -664 -2808 -494 1521 856 249 -882 244 -476 71 361 -1552 -86 495 -106 161 -841 1729 -826 -562 -1876 -781 656 -2065 6 1691 -3095 1129 2230 -2118 -2129 1696 -1028 -1406 1164 1603 -1414 344 -7 212 84 555 -357 1651 67 430 901 -267 251 -880 626 -113 -1568 -1690 835 65 1416 5147 798 4934 652 -966 6836 -586 -123 -1911 -1758 -796 -1866 -1866 870 -1648 -185 2563 963 2347 544 -3 1589 1589 -612 -1173 -803 -2070 -2584 -2339 -3306 -105 233 -1245 1254 2123 4044 1009 -5860 3670 -4647 -5261 -2618 -5900 -4004 139 -240 549 362 -1096 1893 -401 1689 530 905 123 -1729 -190 -1766 -1486 222 47 -1602 -688 230 -226 164 666 -653 -381 808 -306 -518 -1479 978 -1234 3284 -604 1389 283 -2311 1042 -1550 -1283 -368 -4605 -1877 -901 -2874 -160 -962 -2286 -612 -4299 1880 3951 3 4255 2619 -1789 1433 830 -1554 1825 1163 1548 992 89 1309 -796 -1389 905 -562 -850 -1221 -1093 -902 830 -627 1863 -1613 -1534 1338 425 1603 846 -4682 -1190 1228 -1567 -2056 -216 -276 -1368 995 -1435 -1049 821 -2480 3370 236 -258 981 -525 1631 1120 -763 4310 197 -712 775 -798 -2204 -4747 -2703 463 -4707 2436 2776 -2019 3009 1289 2213 488 -1740 345 -3484 -2907 3171 -429 -2391 -7793 -4332 -1238 -13349 4494 6322 -6803 5339 1527 -1927 -1063 -217 -876 -723 -2758 131 -779 37 1039 2712 43 -616 618 -1254 -152 -1703 -3300 582 544 751 -190 -1118 598 -752 -487 364 2232 898 2011 2715 139 -1230 68 -2433 -676 -2458 1702 -1227 -3696 5427 737 346 1230 -719 -3468 1231 564 -825 822 559 -131 -23 2572 2073 427 1839 -1390 -2335 846 -436 -1922 1480 894 -512 688 -2037 -739 -471 -971 -228 -1114 4729 556 -159 -289 -4263 -4554 -1681 -3719 -1789 -144 -71 1020 3376 2037 -925 3866 2666 -715 1911 285 22 3130 -2376 1255 -718 964 -31 1129 1211 2666 1970 3998 -812 3149 941 -2504 -2146 -1595 387 -2529 -1145 3431 -1560 1124 3559 -258 -698 630 -1616 1558 -797 635 -179 -283 1238 -903 954 -956 -3335 793 771 -445 -162 -26 -747 1147 -1418 -3329 -1159 -2052 -2715 -709 -3931 -1091 4211 -4261 1072 4456 -1963 3013 5820 -617 1305 -945 1976 -144 570 1112 2115 329 261 -1694 -233 -1281 2199 -476 2129 3093 693 3171 924 -265 3130 -642 831 -758 -1047 1844 -1393 279 -899 1859 3176 1075 -1314 1605 -135 -1796 -1017 -288 -172 -1455 950 586 1373 2079 -1735 869 332 1020 1844 535 1624 1738 -140 847 -241 -1170 -1419 -1987 -13 -788 -748 858 1060 -523 -2546 4424 766 -3197 6434 848 -3736 -1881 -478 -2016 -47 -374 -833 -537 39 -744 -1443 -1970 1124 -4137 -4593 191 -3145 -2436 -579 553 736 665 361 1329 1245 1977 933 265 -1221 -1102 538 -3098 371 2434 -868 837 883 -1495 592 0 74 -977 932 -421 -1519 -1266 271 -1369 1135 -2355 -1008 246 -1282 1634 -1190 -774 -2206 -150 336 -1467 -1778 -2243 -897 601 -152 1910 -536 -2189 279 68 438 -659 1979 7758 2397 -1718 4595 -1571 -1500 -1076 -1944 -1215 1712 -1377 -1275 2970 -4707 -2844 -489 -4673 -1762 572 -1726 -1259 1567 -2971 -1790 1753 -2889 -1177 31 -2943 309 -2673 -2851 1868 995 208 746 3825 -2449 841 -631 -81 -925 -1913 1906 1803 885 -289 -127 1527 276 -1590 -1931 578 1534 -4219 -1918 -2633 -2711 -216 653 -3031 -3207 -963 1335 -984 -289 409 -1477 2221 1645 1562 2363 -951 -2415 -1098 -1030 -4389 -2884 57 675 -945 1652 -1725 -1361 772 774 626 2359 116 805 -2596 -246 2138 -2435 529 1775 -1586 1446 977 -20 -1712 2091 -508 -2728 -1480 1820 814 1053 425 583 -927 1267 666 -1604 1203 -568 -2267 3339 2979 1503 194 2864 882 -311 1750 -1102 365 -1425 1313 321 -4221 -730 1914 -2603 -616 -1298 3953 2654 3577 6406 -1987 1458 1226 174 5149 2536 -287 3420 -1167 -3167 1059 -4286 -4355 114 884 1543 -1807 -40 -127 -991 -143 2956 968 -732 1381 1135 -1800 724 571 -953 602 1751 -2000 225 -733 685 1829 -543 -658 -1254 -565 -458 450 -233 -76 934 -359 -1349 -1054 6346 -4491 -1369 4217 -5619 -3418 3158 -2968 -873 717 -1818 457 -29 -232 3447 751 1020 -266 -2912 -1437 451 -1684 -1337 1051 2529 222 -879 5281 -2835 -2560 -148 -2519 -1240 295 -554 -882 -4744 -1683 -438 -1186 2591 -852 -1620 1566 773 2563 1217 -1887 1109 802 -3291 671 -2868 -3620 2386 772 -1007 1934 -1839 -2587 1178 -1429 -3427 4007 114 -2770 27 -563 -1371 -813 617 -2812 2228 1318 -10 1152 -5784 6 -2329 1410 157 -681 -3219 1753 466 2113 -1762 401 722 304 -931 -1813 1619 -2721 1165 2908 -1258 633 125 1536 -1251 -1089 2892 -1805 -42 5274 -1031 -280 280 -40 289 197 -941 126 3010 -957 -430 -2558 -2475 1647 -4382 -1144 2735 -1395 1613 2774 -1854 1377 1148 -47 2015 1845 -1346 746 984 -302 -613 290 1774 -297 1213 1504 -455 581 2115 1026 -1387 3928 -3485 -902 1209 -2993 -412 3525 2200 -807 3476 -1673 -1945 407 -1209 -632 -4168 -1638 -711 -1224 3518 3289 124 1262 1145 1962 1302 1094 -1161 -176 544 -2328 182 295 -2182 -31 1340 -1863 1023 -602 1735 695 850 1613 -698 1865 382 1267 -2200 1011 642 -350 2662 -3563 -2538 5524 -1614 -2702 5831 -1611 -2694 -485 -1503 -2534 -622 -931 1474 -2856 -1649 1030 -1997 -1933 -527 -1993 -902 1895 91 -53 1381 192 676 -1317 830 113 -12 1015 -257 -1590 -2169 -539 312 -2703 2035 -755 2636 114 -1987 1469 -2349 -3717 -2441 -5321 -506 -2655 -2097 1701 1082 257 1839 72 -3374 -564 -809 -651 1037 1339 -487 2736 -2808 -3724 1977 -2100 850 488 1264 2314 687 2397 2207 -2245 3027 -257 -2724 -504 -1141 762 -261 2056 158 -690 -2821 1184 69 -1357 -370 -1753 -1395 -2220 556 119 -2140 3462 5839 -4195 6904 -5777 -4303 2507 -3791 -1467 1143 4181 967 2301 -270 807 -2379 928 784 382 102 553 -1089 1214 -2068 -1480 -913 -636 5016 2 -174 3043 -1968 -2423 559 -2999 -2101 -3157 1104 4333 -3741 -2414 -776 -3117 -2835 -3651 -134 -2083 1234 -2747 -1079 -33 -862 464 916 -1594 1566 856 -375 -1881 -1625 -1623 -409 1350 1638 367 -884 848 1479 673 445 2725 742 -1739 -2456 2477 138 -2439 695 2276 1465 572 44 308 -1612 3100 -4193 -3190 3543 -3049 -253 -1085 233 -23 -2532 470 719 -3098 -1655 1983 -4531 -1292 1809 -4490 2180 4310 -2715 3515 3094 2185 1812 -1742 3324 -3340 -1351 1136 -2995 -1051 -1642 -1244 1800 -199 1994 743 -382 1071 -416 1080 -2421 -1224 -122 -427 -1916 336 1407 -661 4651 -605 -2265 3274 -1222 -3612 480 -941 -2147 -144 1474 1423 -38 -540 260 1087 -973 1553 1929 1489 3905 -286 421 2015 953 -555 140 -1526 -57 1190 1599 930 -298 756 -2151 -2744 -1114 -621 585 722 194 315 209 910 1124 -1447 -1173 -1646 896 1082 -2522 2448 3234 519 -850 1654 939 2398 2289 257 969 2788 2263 346 1210 90 964 -68 -1180 928 -248 -323 -2404 2813 7704 -6305 -6641 2102 -2603 -9038 -4758 -1095 1512 123 -3418 -6530 -6115 2264 703 -1221 864 835 828 1277 -959 969 1380 1304 322 480 -1568 -2565 2914 1898 -2220 -3103 2736 -103 -1401 -6601 -5875 4630 -1612 -3206 1888 4504 -701 -1132 -1777 -1084 -1984 -171 1191 -1192 1830 2670 -2167 -3544 -3409 3911 5584 -50 -2163 2482 3235 333 1465 2341 -689 -2194 492 -620 -2084 -1432 -1286 -924 -3639 541 1662 -1597 -3691 1280 427 587 697 1366 -3537 -3824 -5357 -2230 -1675 -4780 156 1358 1437 -1335 -1486 -146 -3625 -3719 -3058 1052 864 1326 243 -1630 -662 1093 2401 -36 -1814 -1755 1331 -636 -4000 -3786 753 197 138 1140 340 94 -1535 -769 -1351 -673 -2565 -40 467 -397 -607 -924 1778 145 -2485 -484 -1522 -563 -1696 -2006 -2031 -3498 -2480 2292 262 -1608 504 -557 530 -1341 -3547 -406 -2091 175 349 1142 -1661 -3889 1449 3653 977 936 2923 485 -471 721 1222 -414 -242 1007 -68 -875 834 -2766 3588 3607 -3157 148 4038 1548 -1828 -134 -1230 -242 -3135 -1393 2037 -746 -1148 2586 3066 -788 -244 390 -1705 -453 3020 159 -3320 362 1614 7103 7799 -6441 -1580 7686 -4321 -8072 -1945 -1666 447 422 4179 3039 690 -2174 704 -705 1357 864 1255 728 -2301 617 -1539 -840 -1320 1137 2251 -225 -769 1181 2249 -2863 -82 2506 122 -2680 -955 -1668 -1771 -105 1856 3083 1490 921 593 -1665 1110 63 -1501 2158 2464 871 -149 1553 1566 -1275 169 443 -1480 1968 -300 411 80 -1831 2878 2413 -242 -424 57 -131 -1083 -2887 -2703 1634 -508 -3526 2204 2013 -1133 1840 -887 -1683 2281 -1793 1666 300 -3000 945 -3286 267 -991 -570 1625 -677 738 927 -4349 -538 -263 -1720 2882 9 -434 1722 2148 160 -426 248 316 1129 -1283 -1875 2220 1084 -157 403 1563 -179 417 476 -308 -51 527 1199 -1851 -1930 -330 -898 551 -1260 1250 1458 -927 -1565 1023 400 -2718 2947 1963 -3249 -2395 790 -3999 -3047 -4821 2406 1967 -5189 1258 6989 1488 -1003 -19 3453 -2033 -151 -1055 -2850 -1872 -1351 -2091 -2124 -4812 2759 4686 132 -575 -1059 -963 1581 996 2737 -809 -3237 -493 1916 153 1452 -2343 -238 -923 393 -511 -813 -148 -1863 -1899 -44 284 -258 -378 1548 2668 -1939 -1609 -1926 -1690 -1912 -168 990 -2177 -2024 -654 -2469 -3177 1413 4615 2762 -4396 -860 4178 -1544 -3762 -112 -287 590 -1016 145 4519 4126 -329 -708 -1415 -1854 1179 2576 -155 -1505 -1286 -1584 1576 -1236 -1604 -59 1136 -2423 -862 -1197 402 -76 -86 1385 -500 -3067 645 3022 1266 -2530 16 -1137 583 437 -525 1204 -629 -2795 2336 -1197 -1434 -756 -2460 389 1191 -531 -296 1570 1100 -740 -1969 -2633 1912 1232 289 -419 355 4343 319 2395 395 1670 1978 -766 1524 3706 1330 1461 516 -922 -933 -768 -354 1251 -1236 -2276 -2051 907 -4386 -2874 87 1021 100 -1846 -1318 -1210 -970 -106 2370 -14 -60 -655 -48 -501 -1679 -3306 -269 -1518 773 484 -2175 -1391 1198 -2199 -1717 -1898 334 143 -1362 -2732 1615 898 -1358 -830 -350 1798 -202 -2386 885 4099 514 538 1633 1120 564 -2004 -1543 -152 -474 -3554 -3037 -536 2560 -1074 -1447 4930 -1378 -2366 1585 3335 931 -1465 -888 904 3739 1131 215 -1312 -853 898 1247 -1923 2152 2815 -2855 -1419 -116 -2639 962 2155 -573 -1712 2036 1265 -2892 -3471 394 -3306 890 2739 -1255 2664 -717 -692 -2297 -5998 6 1009 82 -843 1007 1445 -1473 -1824 -1073 1102 -2633 -1477 438 -1860 -4611 -28 392 -731 -453 -1673 -3604 403 -2843 -5488 4240 2878 373 880 -1103 1034 2760 148 1671 2578 -679 2015 2422 1873 1031 -405 646 532 -340 -1795 1282 802 -627 -28 1864 1919 160 1414 598 627 1035 -389 3911 1458 839 -1265 976 -1198 -2463 2516 114 965 1547 -1685 404 684 927 -667 -125 -1425 1506 -307 -875 -547 1115 567 -2470 -904 2422 953 -4201 -1405 2198 -3811 -3242 53 1772 1478 358 -1414 2034 1329 -1839 -3120 -2394 930 335 -259 -932 -607 -737 642 728 -452 576 -4760 -4034 4707 -3049 -6785 3261 9213 5001 -816 1332 977 -1862 -1477 -1102 1926 -64 -723 -389 -1527 490 1755 1601 6028 1002 -555 -861 3038 768 -2560 3480 7170 3218 -3837 -245 3147 -312 735 100 -1302 1729 2103 -2477 -327 -566 -1082 -1424 663 895 -1910 -1118 1207 -217 -1445 3065 1464 1196 2300 -3187 -343 2548 358 20 1147 2890 3227 432 3472 6268 -1305 -2216 -2608 253 -969 -317 944 -1619 216 -667 -1312 -2594 368 199 -1449 -223 -1166 -1440 1535 307 -331 -1410 1340 91 -333 -211 -534 2335 1574 -407 -3015 -290 -3694 -2760 879 -885 -2491 1427 4484 1120 183 -533 -667 -731 -925 57 -771 541 -865 416 -818 761 -162 2355 3117 -2843 226 -3808 -698 1973 157 1681 843 -1822 1283 -1321 -1749 -4695 -4727 3488 300 -3067 906 3162 2080 2106 -415 -298 3053 1913 3443 -845 -2094 -2987 1181 2992 1807 -2800 2503 -447 -7055 -4510 -3199 459 1512 -356 -3688 -543 -439 -6082 -3315 -3296 1669 -877 -345 84 -170 404 2261 -937 433 2199 3277 824 -3175 -4604 -772 2595 -2121 -2761 -1203 -3443 -3042 -689 -455 1000 -1072 -242 35 -698 -156 -7 -1453 -1429 397 -1487 -1744 274 3073 1712 -2249 -2433 1747 -1807 -3104 1032 555 191 -273 4263 830 -625 2700 2101 -382 -417 84 321 1070 2940 -1913 -3239 -1127 368 780 -1007 199 -330 1886 -727 -3368 3075 1909 -1176 636 2251 2538 -2206 963 2853 -1755 769 1388 3056 203 -2093 2227 -4105 -993 -171 -2423 -1116 951 -79 -737 2108 1320 -1201 351 1634 -233 767 431 379 1375 1618 948 -348 -370 -1214 -1503 -169 1734 933 -2596 -4216 303 177 -896 634 -866 2244 1780 -800 -1841 1482 2840 2566 -1103 -1645 -1581 1230 -1425 348 1133 -729 -974 1950 -1112 -1288 2214 -814 -2832 4304 5307 2578 1237 -1084 774 2455 305 -1076 2453 2229 -50 908 -2031 -2657 1800 -780 -2966 -423 -14 141 -1361 148 -2639 -626 2574 -630 3019 1205 -736 1545 243 1831 1992 -1891 -1627 1636 -185 -587 876 659 1966 -444 -440 1337 130 727 1221 -675 -2872 -1061 891 -360 217 1753 978 977 -1771 430 -2751 -1693 4878 3386 -5434 -3720 -1396 -23 -1337 -1803 708 1223 -2222 -1460 -682 -2516 -5626 -8736 4116 -12748 -9165 19592 -9075 -15971 -8513 -1355 269 -368 -1439 1062 -64 -2062 -550 -1851 -1397 -1066 -416 -809 -715 -1066 -1453 2057 2800 325 358 -808 3235 647 -4966 464 -1983 -956 1575 2154 -1134 554 164 2643 200 -199 516 -1397 550 355 -937 392 -1551 656 -1181 2183 421 576 2061 -122 629 -578 -881 206 668 259 454 -69 1568 1866 544 286 -8 -3150 347 -507 644 2944 18 -4 590 516 -404 -766 -254 -151 -2331 -226 561 -1037 -907 -2133 1707 1672 -521 107 -43 -1846 2805 2622 -672 994 954 -128 -94 -3059 -1670 200 -688 -1297 -1051 -4789 -2736 -3897 -2854 10931 -1750 -3846 4550 -1214 1277 3905 1186 26 2357 650 741 1009 -572 427 -2631 1514 -1159 -5641 733 1423 1507 22 1209 -230 2097 183 152 165 1167 1688 -872 -2910 19 -86 -3367 -4719 -1898 -744 -777 487 -1130 646 712 -2711 3060 1705 750 2264 -1134 298 2609 272 -1900 -1958 -298 50 69 84 -163 2291 -1367 1173 117 -1485 -993 -1621 -4151 -1161 184 -751 2593 -132 -4699 -624 2123 409 203 1 -1728 -752 -1700 417 -3 -1338 460 -637 -1151 493 2035 5432 585 -605 594 -899 606 -780 144 -875 -499 619 1786 -10 -319 1806 174 1678 851 327 -503 1474 1665 624 -123 -1685 -601 -1537 -872 -337 -313 -48 -169 92 -475 1755 -342 -2092 96 651 234 4241 1422 -52 2419 647 -1891 2762 2102 280 998 325 877 -407 -1147 -1219 -1347 -1812 -1323 -873 -1425 -1166 -1302 1371 856 -1037 -1207 -735 -483 -2038 156 216 -2671 -1467 -266 -1391 -154 21 344 -1186 185 168 -1189 94 305 128 2099 1843 2859 2194 -1516 788 5624 2446 -2356 1048 594 -1452 626 -313 -2338 2829 1119 53 351 -608 -365 -1048 416 -38 216 -174 836 -1203 -2327 -1366 -738 -3650 -1446 -499 -2337 -664 -1071 -1304 900 -1324 -162 2256 -979 -1721 1500 914 1176 -747 2227 867 395 -516 -449 9 47 123 -304 2044 1521 -469 -840 350 -346 -157 -2761 -594 1898 -533 -470 -662 -836 -414 1680 678 -160 159 211 -528 -1365 -951 -202 1474 -2536 53 -1239 -2117 223 -420 -1864 -985 125 -2084 -3070 -389 -2912 6453 -1698 -3898 -1423 -5929 -3520 -853 -726 -4355 -6383 -3242 -3893 -8221 744 -726 -3532 1371 -1531 -2831 290 -300 -2459 -973 -160 -255 -235 212 -227 1878 89 -3996 82 -562 -2391 1263 -222 -2936 564 -825 -3958 -701 -2213 -1136 -1195 -2278 4 155 -1374 -443 -978 -747 -908 -1218 -2550 1382 -949 -463 761 272 -474 99 -327 104 -1766 11 132 1582 261 -1454 -3141 579 -1853 -7432 1406 505 -393 -845 236 228 -1035 20 -773 -787 733 -1025 -764 -3127 863 -1864 -1474 1168 -1562 -352 -252 227 67 1961 1427 -3088 -6533 907 813 -300 2120 -597 -390 1779 -423 -2413 1167 -1185 -1982 1571 1984 3622 -1397 130 -278 2889 812 237 926 -1827 -2277 990 -2778 -442 -98 335 1076 -2849 157 -524 -2315 4066 1605 -5987 -2899 -958 -212 -647 -1350 893 -1536 -272 1698 -1402 375 -128 645 1200 446 -1113 -253 442 -802 -736 113 82 -716 -613 206 67 -182 -730 -338 1519 -1013 1053 1012 -2681 585 1476 -294 -272 598 1372 1836 1255 179 535 178 405 1605 -893 -194 2302 -486 431 750 -614 2640 1785 565 -565 -600 1616 -730 1346 -1012 -220 -498 35 1692 3163 -1918 607 -860 1479 83 3112 50 -691 195 1002 -2226 -440 164 -517 -571 -2214 1152 9 -1230 -364 -1545 -312 877 -980 1111 -651 -1434 -1139 -919 -1339 -148 1777 -1583 802 318 1671 189 -644 -2199 -484 -87 478 -2965 -1521 -1348 1691 5008 2324 -178 1571 -391 1844 723 1269 1571 -51 2765 766 647 -1359 700 957 1390 811 -2964 831 -405 -1170 -1279 276 3674 2549 -880 212 1546 391 1100 543 -55 931 -803 321 901 422 -232 937 974 -1261 1354 1213 -1471 3372 3080 -1403 450 2210 136 -490 1508 -1158 -2052 2353 -795 -2380 1902 511 292 -943 204 1356 360 295 -135 720 -369 842 -5065 6922 7496 -6416 271 6234 5017 601 -635 3488 -623 607 -173 466 -15 1614 62 -124 41 -887 1 -236 439 315 -137 132 -798 -1268 -1372 -2552 -1145 -1211 -2360 -160 292 -938 -423 480 -368 -1111 375 -113 -1115 -1311 -2450 2348 -2133 -2511 4032 -1643 -3337 -2162 13 1919 731 124 3575 115 -1885 511 62 -1386 1070 949 389 1455 -1007 -2230 -1302 -675 2074 492 2601 1976 -881 -564 2570 1131 3898 1279 -82 -179 -28 -637 -847 -819 1259 -415 55 659 386 507 1017 -2615 574 -578 1892 -1287 -2837 869 616 -1171 2737 282 -2359 673 913 -566 1774 -582 1523 3718 820 -76 1051 93 -950 87 -965 -1725 -581 -1565 -1429 975 1970 -138 1806 726 -1584 -2666 569 193 -326 -31 126 -1773 1044 540 -499 1403 1289 71 -208 -2135 -1034 2163 -865 -4188 4367 648 -2134 -502 -564 -236 -77 -1160 -560 -367 -2210 1465 1619 -852 -531 1087 514 -681 901 -540 1575 -1442 -1207 -6064 -5555 -5822 -5177 -8562 -2460 6194 -4 -1480 1402 -1248 -449 99 -679 -882 -1218 784 222 -545 -33 -1541 -557 -870 -265 604 266 -1862 -1062 318 -299 -409 340 -521 -550 -669 -221 1384 -756 -838 521 1667 -578 -955 -668 -253 602 883 218 -644 -325 385 1577 -559 -1127 809 1754 -4346 -1454 915 -644 -1687 -5939 -9117 -4624 -9375 -7591 20777 -7571 -11860 -2154 -893 1266 1033 -4 2620 174 -1553 79 1448 334 92 940 -282 1305 1785 -1643 -1160 -1330 1446 -736 -1071 1992 967 87 983 2027 4027 1339 -350 -209 1669 343 -1349 256 -1922 -1170 -1320 -1818 -2450 -1463 -3879 -3832 -197 -935 -906 -490 -142 181 -70 -947 -2949 -627 -302 -1151 -600 -551 743 -465 75 758 -304 220 -255 784 -1780 -459 1164 -1408 799 493 382 -911 648 -257 -651 82 -372 -1323 2164 2692 766 -128 2526 -4791 6973 2372 -17574 46 3683 -2719 2037 -1145 2524 2871 1976 4089 2000 981 3777 1156 898 478 1341 -373 -236 855 -785 -1724 -79 -9 -131 186 -1765 -1084 2826 75 377 1285 -573 1275 -671 -1061 -158 429 -1088 472 -1731 -1786 -767 -2606 865 138 -903 -776 1816 -75 -1214 -2167 587 -587 133 -1358 -1763 -884 -2204 463 3836 -3114 1991 7098 -1759 224 1384 -1381 336 954 325 -2121 548 86 376 -1635 2424 -350 -438 1853 -1126 -2018 1633 2354 1455 -1129 187 953 243 1066 1896 -744 -2059 -318 301 1421 -25 474 188 -1392 600 462 1054 15 -2701 -1525 429 -2127 -3774 1586 -865 -856 -838 -971 -480 922 -712 -1750 983 -31 -528 132 -888 -1025 1423 -86 -282 -165 -1206 -503 772 439 1144 1691 1822 -607 32 852 371 4673 -1992 -1644 4986 -2340 -1903 227 -256 -628 468 -51 -3305 -539 1295 401 -1748 957 20 1035 214 367 2978 1635 -2996 288 -1431 -2305 2644 1822 391 1860 638 1733 -26 2304 1252 3 -764 322 -1128 -1513 -435 1751 1149 349 -1793 1510 -438 30 1541 -2430 2296 2146 -1032 -697 -339 909 527 -831 -1915 -1808 1202 983 415 -637 -436 6 -750 12 -1596 -3022 -1354 620 1431 1197 -652 -1854 -124 -1479 -714 280 -1330 894 -87 1290 2847 -1820 -193 474 -596 -1414 768 676 496 -707 -868 375 -69 1251 -5202 -589 -709 -5727 -76 1488 -887 -741 446 -2182 560 -5 -698 -1332 -536 1182 1912 289 941 -186 102 -1828 2095 1203 -1121 1196 2927 -3081 535 -1221 -1840 948 149 -67 1825 65 949 521 -1522 2547 1050 -815 860 5137 2853 -985 1057 879 -2222 3085 1561 770 2514 23 -654 388 -1227 -1203 354 -456 -744 -957 -103 219 -1224 -1089 1440 -1233 -831 1106 404 1103 -1967 -2975 -400 -312 2718 2997 -1080 -1825 -706 849 362 1346 829 -1823 -618 -1376 -250 2402 -2352 -2788 1086 -2563 1444 8157 -3313 -3343 -219 -3229 -1648 -440 -799 1855 1623 -2222 1333 727 751 4327 1603 6130 787 -2439 2266 2877 451 -2338 -1309 -988 -4194 150 672 -758 -1065 -112 474 654 1616 -924 -1301 -943 -511 -2056 698 -293 -691 -399 395 -1350 -1457 1643 2173 1785 -2358 843 -67 -535 148 -252 -1067 1359 589 7633 5367 -1645 3264 12800 2708 -1156 602 -2965 -3231 1347 3511 -3293 5041 3455 -5835 846 -3353 -1011 104 623 112 769 184 867 1063 1655 -2092 583 2647 -5178 -52 2684 1059 94 2351 -4771 597 730 -5543 694 3276 -3011 2114 1027 145 -3465 -823 -2969 -430 1423 -2891 -4 1859 1781 1927 -1227 196 967 -857 -2544 -2622 351 -56 1360 -223 -1056 -259 -1036 -1361 262 431 -844 -1015 379 -1434 -48 415 -805 3711 3965 -2556 1412 2277 453 -524 -3093 1333 1559 1713 -584 -2488 -482 2444 -10932 -8525 5337 1931 973 -2391 342 2010 -1148 -957 -1097 618 1590 1761 -927 524 938 -1010 1481 733 -1162 579 1068 -987 -240 367 -337 -1399 -501 318 -1561 -356 178 -1100 -712 58 1040 795 -1026 -2349 1031 1420 -56 -87 -795 -1005 -2143 -1369 743 403 230 1641 2294 -44 70 -2718 -1504 -723 -390 -1422 1468 -212 2098 1078 -130 2224 249 140 866 -310 513 -812 -2951 1467 1255 -110 3158 1847 1154 -286 -563 -2558 2988 3222 5623 7395 -524 634 -581 1570 -3053 -1312 164 -329 -674 3986 -4373 185 3748 -5283 -2562 -674 1146 3669 2798 -1619 1069 -1543 1149 2782 894 -1908 -2365 -536 -2399 658 795 2677 921 966 1556 -1110 11878 5355 -2764 2063 -2376 -9787 790 -7618 -8486 -887 -722 -252 1134 -324 559 -779 -208 978 -1456 -1449 1966 111 -365 895 558 -2104 -672 -870 565 -1332 1568 407 1217 -619 913 572 11384 5493 -710 2781 867 -5604 386 -5235 -8160 7674 4142 -4741 8237 14205 -4468 -2525 -4909 -9232 -2597 -2530 -561 -758 -1632 40 2601 1043 998 -5007 -3079 -2273 -6165 2638 2922 -758 1696 449 -2110 -3967 1761 -4285 -7272 -5893 3326 -1434 -2070 2887 -922 121 3351 3022 -147 -1095 1463 351 12681 2520 -6385 3361 28 -6096 -736 -3283 -8260 -590 61 492 -466 848 1833 1038 1538 -164 -8082 -3195 6011 -5472 -7717 220 3663 1801 6159 1448 -1529 -1870 906 -932 -187 -192 1072 -678 -1979 -303 146 -1691 -568 -169 831 3050 1973 3523 7269 767 2197 6868 -931 -3401 -358 -2436 -700 837 660 291 -1129 -719 265 -56 -93 -161 -6 1307 -2011 -739 2004 707 238 -55 4321 2047 904 9486 8371 -6918 -199 -854 -5581 274 -832 -1893 3738 -4987 -2238 1221 287 -439 463 2263 -917 292 1569 -944 -2224 -302 -275 1479 663 2251 1245 768 -2326 -761 -1289 -768 1838 -767 -831 350 2381 133 -1555 3447 557 2014 2296 -944 -1349 -5444 -5397 199 -3156 -2584 822 467 -1092 1222 -831 -733 -501 -1376 -532 5503 -4904 2331 -6821 -17715 -4654 -729 -9877 -4557 -1106 -1667 -1354 -616 -128 -509 1524 309 -2215 2198 -1478 121 -5727 -7963 360 856 -2678 3565 -2226 -154 1291 -1182 -258 -821 1451 596 -350 -1400 -511 2849 -1677 -1687 481 -486 -1587 498 -781 2883 1882 1045 -250 1196 -72 1920 -398 -1955 1537 981 -744 127 -2207 -1246 2537 2209 -2359 -1320 -435 581 1348 -1413 -520 1895 -392 678 -686 780 -9007 -10430 331 1351 -4650 -1638 822 788 -388 1613 1150 456 3024 269 925 238 -502 657 2140 223 -84 1692 910 -673 1175 -1410 1392 -732 -120 1172 420 854 1818 -609 758 -843 -114 155 -462 -361 -871 -1103 -771 -933 -196 -1275 1173 243 1051 89 -486 -173 -203 -96 2217 -2327 -704 82 1420 2373 -604 -67 -573 1706 -745 -445 1221 -1084 -1530 -2333 2079 -2251 2672 1086 -4433 2481 -1641 -4424 873 866 -1168 -1591 -435 8 303 806 1910 967 571 -866 1771 946 -1043 -1995 -310 -628 1885 -2004 -881 -304 -3336 151 2607 -56 45 -1028 4809 -796 431 6508 -1366 -222 895 -719 -1393 -873 -2369 -407 -401 2109 -922 -1629 -597 1224 180 -1346 1681 -433 -676 -1209 1246 73 22 527 315 1874 701 -4009 493 1438 37 -1125 1043 -1576 -3402 -874 69 897 -482 -895 -925 -403 -191 279 -754 -736 54 -270 -487 120 290 1282 -201 -4532 -1124 2096 434 196 -6803 -4454 600 -3265 -1266 3066 70 -1392 -940 -3129 633 2068 1747 -4325 694 376 -308 851 -5238 3345 -2705 -1981 286 1351 -1066 -368 -213 -2622 -2623 1424 -1870 -1611 2186 905 -4818 -2359 375 -2281 -2204 -2867 -5874 -2952 -2168 841 4357 -705 3162 846 -1091 6262 8785 -392 -3204 -1295 -2768 2393 245 -4029 605 901 1571 3040 -694 6062 -58 1638 196 -5597 -1871 -943 -3467 385 -1396 160 -1213 829 -111 -1127 -717 1181 -153 253 -399 3156 44 -1126 1378 438 -298 2917 -6738 -4086 -848 -14509 6057 9548 -2495 -657 3096 -34 -1228 -1414 -1215 -1805 -2150 16 -603 244 -460 -800 -2019 -1987 -1340 -1423 1738 571 107 503 -2183 -558 -1216 -16 579 -2303 -3174 -1817 -5599 2108 6152 -10374 -418 8582 484 -1975 399 988 449 249 -2363 -1015 -718 193 -655 435 2646 -4390 -674 3830 -1069 -3274 294 -3191 -4033 603 1272 619 485 1599 -265 614 -468 -1818 -500 -2460 -923 2821 5382 -2761 -800 638 -2212 -1342 415 1694 800 2410 2613 -175 1454 565 1788 208 -1906 -1568 1582 1046 -2246 -653 -3 -4482 -1121 543 -3663 -5254 2577 3134 -689 331 995 -626 975 -932 490 497 -148 -939 1645 -2463 -3513 -2631 701 1546 -1426 337 486 1171 -2809 -1676 -2424 1410 -1856 3234 5140 -3034 407 -46 -397 -837 -1033 2433 -1915 -1045 -1859 -739 1237 2283 549 -734 -2381 -153 757 -3170 -2217 -2094 -2077 -808 373 3245 4949 -2053 631 2095 -1307 -1134 -1755 -733 678 -2584 1176 -1141 342 215 -2018 -422 -602 -1462 -271 -146 5404 120 -1426 -1409 -3841 -914 514 -1929 -671 824 -2602 -1128 343 1588 -1704 -3979 -1214 1063 -1668 224 -1680 -129 -2435 -1022 6766 509 -922 200 45 963 2034 1615 563 -1794 -1468 603 449 2779 -292 -1990 -1897 -506 2197 -340 -1322 3655 -1397 -1631 7 -999 -1890 5138 -1687 -3784 -3983 -3590 -2169 -891 -1376 -662 5555 -1646 -1233 400 -902 -1094 -335 -1751 -435 3536 -324 -2769 -2216 -2362 -2537 -937 616 1523 388 18 950 -109 700 -394 1780 71 1167 1432 -2658 4470 2649 -1116 -604 -2443 -2368 -2019 3220 -2258 1126 -64 -156 224 -2061 186 -2847 2496 -141 -2111 1746 -1872 -1149 -1918 464 553 1652 -173 -1516 -582 423 -434 726 -2619 -1298 2751 2639 -3418 -3754 -2388 -746 -4075 -1383 743 800 524 602 2613 571 -1882 -7895 -3511 -4735 2604 1547 -3535 9400 6454 -116 324 949 -520 3927 1823 -601 -1963 86 -3587 1174 1696 -8088 7082 5805 -2716 -1311 3759 2121 2843 1706 -2006 -1368 -2480 -1539 984 -642 423 771 -118 -967 1946 -1700 599 3179 531 1233 1436 -244 -991 -2174 -1948 1962 -1980 2587 39 1004 86 -1885 -1101 -401 547 -497 1628 -1862 2371 981 -3694 -4279 -935 -886 3119 2621 8245 2375 162 6517 -729 -4760 -3594 -5345 -4209 -851 -3180 