128 64 1 1 
1043 -20375 826 568 -1828 2200 9791 97 -1024 7797 -345 777 1259 2359 3605 587 8713 1294 -9822 -3254 457 4768 263 10529 -297 1050 988 -19905 4597 1893 1285 16884 -6823 -24689 3627 3071 -2904 14925 1752 1156 -1726 448 -25 -2451 70 -33089 841 -1283 2124 -402 92 1777 -7365 -4239 1455 -1676 -721 4240 -748 3684 2405 -10959 831 861 232 -71 -543 -749 -741 -2678 1946 -528 957 2996 1002 -264 2238 -460 -5974 -1146 195 -1907 -4905 1160 1581 130 -1217 962 -848 1370 -7156 -1024 2578 1433 1227 119 -471 575 976 1537 -2571 3436 3144 66 3421 123 -828 2917 928 -1825 2676 2604 2479 661 -590 -81 3499 -191 3022 379 2312 -4757 2332 -581 1242 -1536 -4953 -827 -2745 520 -10893 -79 530 -967 -1154 -4280 1194 -2266 -1223 -739 4033 -2178 -2126 -1220 4327 2076 833 886 1229 -6121 -3528 1188 928 1748 1448 -387 -1269 271 259 522 -1839 864 -670 2587 1945 -87 766 -2101 -2741 -1510 -781 -992 70 -1233 4222 3507 2872 1081 -994 -643 -2144 -1086 629 -725 -3348 -1251 -6900 2534 4436 2089 -1229 4227 349 -2580 1814 1863 8560 -1703 5681 -500 2564 -55 -567 1682 132 -960 -3203 7631 -8221 -4091 1373 4077 1857 -2353 -2711 7693 262 -7298 -2814 20766 -7782 -412 -1017 -2037 7320 15617 -2722 -6487 484 -8981 -521 1207 -477 -1633 829 -3316 1272 16014 -1435 -3258 -1734 318 1663 414 4497 -1019 -1840 -1493 3374 -2421 -2305 -2469 1443 -1663 1904 2205 -1535 184 -2541 1593 -1723 -784 34 -823 1642 696 -269 -1629 139 1839 -137 2858 -1727 6607 2808 4330 3521 -1991 -7534 640 -606 2632 -4656 -1499 1633 -6165 -2510 -2554 -493 1281 -1142 3216 -4052 1102 -1579 1282 67 1200 -1104 -3035 1880 3312 732 -2207 -11182 1074 2588 -2259 115 2097 -3962 -1691 -6468 3211 10986 2241 -5079 641 -2387 4210 -1215 -986 -5808 6062 -84 4152 -2809 291 3159 4259 -3951 -2263 -883 -4580 7948 -1418 1286 860 2219 1250 1175 -8668 -4533 -625 428 -7 187 -4156 -1587 1706 -457 -406 2212 538 -2077 -2070 1958 3527 -2921 2673 -2789 -1263 -2836 1115 3902 2942 -171 -2199 -1015 -72 -4071 -6610 1391 -612 -3242 5984 5840 -2393 -3985 -5336 -1082 612 9689 479 3561 -3625 -110 -6066 -3757 1318 -1413 -946 -635 2874 -1975 402 -1556 -1320 2627 -1965 5820 4401 -8123 2007 5438 2673 1339 -3609 -427 2420 -6326 -3172 -4883 5953 2306 3081 1744 -2755 -4314 3727 1600 2793 -5900 -5144 -105 1417 1213 -1578 2263 -2838 883 1545 -240 -630 1011 2378 4862 2028 -1514 1502 8206 4069 -1469 2732 145 11283 -1719 -464 -746 1802 -540 -1364 2980 -4724 2768 -1648 -526 -1207 -2881 607 -1310 -3143 -3752 -275 -1305 -2593 -2856 -21570 183 1910 -875 410 -2138 -3825 15112 1931 -710 10542 2399 -3831 -53 -1034 3897 345 816 -4877 2431 2231 -316 1555 -397 1138 395 -2082 -1660 -542 5287 3221 1348 -2452 1414 324 3910 -817 -1425 -26231 -580 -1132 1182 -1713 -4049 -1327 -2893 3971 -1219 -3562 -7530 -3237 1316 -596 -738 1115 -2356 -968 -2216 -1981 -1330 1462 303 8331 -2505 -8531 4121 7319 -2497 -483 -3719 6694 10689 -1983 -512 10590 -616 1082 395 3496 -5760 1698 -7478 621 -1377 856 231 4372 -2587 327 2998 2042 -2158 -103 827 -910 -1642 -5141 -1098 2517 -2108 -1761 4630 -4540 535 1385 -2588 7629 -3688 1134 12722 -4030 15492 -6196 -2758 -637 4658 1061 -2475 -5406 -3798 -2197 1939 333 -3950 1696 -3085 -2178 264 -1197 -6981 -7859 3727 5371 9006 -25252 -5165 996 -2183 -2852 -1112 -2115 -1743 -1641 3754 -99 -36 6551 -3590 991 -4261 4301 147 2781 3602 1933 -5528 8624 -2052 1279 -628 2792 2100 16313 -3635 7982 4451 -4845 3305 5217 -1409 -3755 2394 -2772 2066 -1821 -5576 8 -6834 3908 4642 1381 -1060 -477 2486 -1168 -289 -3023 -1105 1260 676 -2296 -2034 8614 -4816 1624 2062 -329 1436 5551 -1055 6123 -1853 -5574 1102 -5439 8565 -11532 -8460 -14877 -1014 10948 -302 3823 5 2142 245 1369 4044 14905 -2914 1531 -628 814 -792 3113 -2637 554 33 -1042 -606 3803 1875 4358 2760 -35461 -1547 -414 835 -1162 -2892 -3392 -1131 2539 2335 -183 -1029 1895 -1224 -6105 -45 418 11609 130 414 -4633 -744 -560 1560 552 -18834 2379 -1618 -959 -163 -281 1259 2573 -2188 737 -875 -2214 -2084 1456 1123 2663 2777 -1115 -1716 -3225 -3057 -858 -1664 -700 1738 -4038 -6056 2312 -2443 1137 2599 -179 5324 -1574 -1529 -2126 11889 2941 -3222 -8993 2540 -3853 -1815 13898 187 -1927 408 3730 518 -1773 -560 544 -14 -766 -358 4000 584 7410 2345 767 -3439 -5204 -2660 461 1107 1872 -499 -638 3328 -14485 15869 -1834 2695 -20787 -3005 -10033 -6053 22119 -1157 3704 1261 452 -845 -2145 -2609 977 -2532 -22393 -890 1930 1382 -1281 -1420 -4273 -5528 -951 3343 -2544 -2093 -2728 189 3433 -4873 -1460 -1558 831 -9505 -37 -7110 650 -2785 -861 1593 -2283 1362 -2076 3027 -315 4017 4793 129 1572 1099 5914 322 9331 -2795 2793 369 2364 -6746 -4564 408 -1039 -860 -5658 5059 -2394 21 -828 -2870 -415 -2879 3999 -1873 -2007 -1756 -2577 1696 417 -2322 -1362 3250 -3259 -7825 -3637 -160 -5569 2254 -284 -1400 3160 -4067 7044 2492 -3183 3119 1147 517 -795 -3084 4468 7367 -3476 10252 -4669 -10336 -2089 1735 1006 -8051 -1454 2835 -266 -3746 -3910 -1505 5269 -9370 -6757 6023 9591 -1444 3469 -3854 -8142 -4639 -3538 534 10383 2363 7198 -3135 -2032 726 -12013 -1100 2397 -451 -1285 -2688 -2861 1074 -566 -2337 -18927 -970 -5725 6434 -1852 1352 -2207 1875 -1971 4139 -284 144 -4306 -719 2086 -2942 24515 4792 735 -6060 280 -11784 4682 -16722 7239 3323 2024 -1159 5149 5271 2138 -678 478 3091 6530 -388 2311 1255 9831 7882 4449 -4434 -161 -10156 8085 6467 -9263 -3084 13465 1114 3494 50 -3978 -8017 -549 -7216 -559 -366 -8235 -6994 -4807 -1745 -653 3034 -4222 -4908 -3499 3544 -1568 -3748 3160 -1168 -4632 1830 -6496 2701 6915 -885 -1059 3025 5993 5809 69 3655 67 2006 9408 -3162 7082 -1378 284 -1350 4427 -3005 -1362 -173 2926 -15890 -4685 -1386 1738 -2574 521 -7280 -1308 568 -2926 1921 5982 1860 3305 -417 1598 3527 1319 -4725 -303 -5896 -4353 -1694 5452 956 422 -2320 -2674 -1057 -1972 12 53 -544 -472 2946 -1200 -674 -819 -908 3347 -162 593 2597 -4013 2624 1141 2388 -3882 8208 1661 -162 -540 4620 9138 -5650 -3008 2583 -3434 -3046 3423 2000 1366 -1234 -1578 -6707 680 -411 1156 3271 1501 -3552 3977 9700 -1067 -1052 7847 -3743 -1306 1454 -5170 4534 2942 2180 756 -1112 -3359 -147 -215 -2512 -1715 -2161 2558 -1642 1589 3921 1868 790 1919 -715 2701 331 -3640 2304 764 -6649 2607 -4673 11660 -8799 -819 721 3772 6414 1322 -10861 -3486 12609 -128 26480 379 -279 1535 569 -2788 -2075 585 1962 -296 4605 -2200 -533 -1048 -2950 -748 -285 11877 993 -4188 -3438 9272 1761 -5227 501 -849 -707 -309 378 1241 -8365 -4735 1185 -765 -326 -50 -1404 455 1293 1267 438 -1460 -369 -5161 -695 -525 342 -1175 714 -18707 -636 -7991 59 1059 -1296 3358 175 5229 -4934 1787 2926 976 -4030 2309 -4676 3210 -425 2563 -1845 629 2539 683 1476 433 1456 1350 -5186 1828 5343 2749 426 -5369 -4004 1962 1974 2349 2416 -1945 -690 348 -3529 -1489 2144 -259 -1543 -1906 -1608 865 1844 1871 -2767 1679 -1544 1201 5723 2584 1532 3392 -2611 532 405 1205 -184 1822 -5029 -2435 1674 -3311 -1947 951 1184 -4802 -2711 1869 1007 10081 97 4315 -3308 -345 -10997 2129 1781 3854 1605 1254 1303 4469 -6656 -5364 -13951 -809 -6238 9364 4179 -190 -661 -2727 3576 2291 250 -17935 -12468 -1124 -352 -6182 -1737 17208 -15453 -11891 -4251 -1316 516 2308 657 248 -3801 -80 793 27693 -2634 -226 1495 992 -533 -1302 9933 -595 1462 2025 1306 -3423 908 -1645 1129 -7746 4023 1564 469 1483 67 -19 -838 -1608 674 -1543 -3283 2128 860 1695 1416 -1073 -4198 1166 125 -53 761 -2273 -1500 -2854 -467 -3069 -2045 -2875 1623 -2646 509 -1336 1952 -553 -584 -353 -4839 -1165 -1038 -678 1131 587 1127 2372 -484 -1206 -3567 980 5571 -2946 535 1239 3830 -3342 1889 2385 -2053 -1680 -2968 -2406 878 346 -5300 -1085 174 -23 4481 -1214 -11621 119 -29428 88 -1804 -6225 -6340 -632 -8143 -939 884 63 -452 -3685 -1392 -1393 4264 -11432 481 -2187 1864 -5620 2379 18720 -7498 -1012 3201 7251 -1571 -2084 5164 -6066 6999 -1113 -1699 4526 715 3668 1504 -6622 -6054 2202 7773 -290 2146 -486 -1420 671 -1672 1387 4531 -3324 -2422 -8889 -2133 -1508 176 -4826 -1395 -14026 -301 -48 -1069 -246 -3457 -2992 -116 -188 695 -1730 -5678 -1389 2174 852 -448 2109 1032 -2757 -928 -4385 2470 2437 -266 4703 2902 -1887 -794 -3767 250 410 -77 1891 -2599 -2827 808 4 -3121 517 944 -224 310 1337 -3009 -364 -350 5198 -3491 -621 -3696 -7127 -1670 1604 7068 -6283 1719 -2821 5 -29 1209 841 315 1519 -3730 1415 261 951 -15569 5068 -16901 4255 4922 855 174 -2708 1528 888 -1489 4795 -1199 -1138 5250 443 7060 3185 2543 -662 5246 10518 -377 -1597 -13343 22214 3396 1105 -62 3032 536 2015 2779 -5164 -1018 3065 -3704 4494 3788 -4010 2911 -9477 -5023 1391 3105 -250 2094 -11176 2673 597 894 -5156 -345 -17328 5805 -12890 -425 6643 2164 -4816 -3416 5574 -2559 2852 -115 -1664 567 -1097 871 10 -462 -3283 -1210 -425 -2377 33 247 800 779 -729 -313 2766 -321 -1446 2612 948 1419 -109 -514 -1001 -1545 660 -904 685 3326 -1333 -302 519 447 307 2782 1144 -1456 -1887 730 -1260 254 -2072 1735 762 2673 -2662 775 97 2157 3410 2226 -1550 -465 -882 2744 441 1316 4127 -2685 996 -471 2831 -498 4845 -1330 -342 -6355 509 362 -1505 403 -1543 -2912 2551 3844 1638 1503 -525 3091 -11540 -1174 -8333 -1577 -148 -1546 2645 183 244 5878 -4943 1636 6153 -381 -2210 289 2261 -803 -893 2288 -1266 4245 -4744 -3050 -3830 2863 -2800 -3851 1536 1215 -2006 13379 890 -754 1921 984 -1494 11162 -823 -3469 -13894 -4885 -1919 2599 -8594 -1158 -2884 -192 9129 -1970 -2236 5682 355 2838 -145 -951 1760 -2761 191 1029 1529 -3693 -4577 -32679 -1897 1858 1370 -566 1947 747 1639 457 -3466 -5722 -416 -1980 -1878 1598 25267 5030 -1395 2996 -1247 903 5988 -849 283 -151 -2569 -1262 1409 709 -6065 -1028 1579 -4785 -661 -333 -836 -7237 -2016 -68 -1935 -2105 3681 -1381 1290 -2241 -2090 -5633 502 -2768 1780 1545 -3254 20178 4103 3539 2285 3059 -1002 -2388 1473 3320 1641 -2498 1904 3865 1684 -16197 -18469 -660 7874 328 -3294 -156 -1697 -5943 -8768 -3706 586 2790 -168 8243 -10745 -18929 -13256 -2394 7875 -707 844 -1987 -782 1931 2233 -919 978 -409 1077 6331 -2747 3775 -898 2310 -1206 1960 381 -6211 -312 1235 2343 -1087 13572 3330 1815 -3876 -1149 -13201 2754 -1156 -1606 -405 -4329 -2403 -937 -3037 -992 -2561 5076 -6886 692 3128 -889 -3219 -22243 -4249 -7198 -1326 -3806 -5176 -15766 -5019 416 -1417 -2990 -1740 -2968 4211 617 6204 -2449 1148 2528 1110 1362 2088 -8443 -7433 -527 -958 -5607 -1145 -4876 1395 705 -1150 -5139 -1692 -4407 -3926 -4284 -12198 1570 55 -3792 -8882 30092 -1864 374 1812 2285 -7518 -3276 -4733 -2348 -231 3431 4039 50 4170 381 -2320 10543 -1529 2961 -1032 -6262 1313 -1350 -6651 4979 440 -147 -8434 -3822 -1702 1246 -1296 -818 5202 -2602 -2774 1358 -598 -452 151 1092 -1362 2792 886 -533 4000 -6359 -264 -2274 4309 -3782 -385 -1028 -3023 14197 -1465 -3055 -1143 2105 -2454 1131 3976 -3402 -9953 -244 -6100 -3003 5743 -1976 -3527 2460 1758 1167 137 -2209 -2161 -2659 -3544 -481 3897 -594 -96 -3180 1351 1518 2417 -3340 2377 -5395 -1890 1480 -2763 298 -4314 2181 -725 -2118 322 -99 897 -284 3700 797 838 -1389 1720 -724 287 -2536 3280 3703 3628 705 -2379 776 1654 -2606 -1009 -4619 -1121 -3742 -245 3018 292 447 -1839 -4005 3220 2417 -50 634 235 2596 -2691 3163 -8902 4391 -6510 -2698 -1996 -13953 -210 -43 -452 -46 -8916 721 869 4058 -9030 980 2831 -3846 -848 3654 -3734 -8617 -5149 -5292 3291 -406 729 -616 4528 -12944 -2727 -12730 -471 10504 499 -1718 -1061 -5439 -3747 1260 -1537 -725 -676 -2877 2003 720 1201 -2786 5014 -143 81 -108 -387 2 3576 -1407 -4298 -30884 -6424 532 20503 -3665 -5707 3661 -7 885 -1022 3639 993 -239 2709 1763 515 15052 924 -3814 -3412 -3671 -730 -8754 1268 17319 2845 444 8670 -3134 -5721 -2722 -151 -2754 322 -5882 661 -1608 3811 -3220 -1106 4110 -130 -139 -3353 -18071 10676 875 -10577 898 -3934 5333 -2272 112 -224 -12045 790 -12940 -184 -21812 -401 -5114 4454 -2347 6815 358 1620 827 13845 -735 -12034 381 -10185 3185 -1023 6679 7631 532 6383 -82 7511 13384 -273 1376 -333 1531 2861 607 2690 -24155 3597 1454 6026 -204 1146 -577 1589 1232 3474 -1273 2020 -1986 2668 -3029 28 2980 978 -1891 -75 9253 7153 -94 15309 1458 3570 -17696 -463 -1407 991 -11645 475 -17765 2792 -9268 -1449 2310 849 8893 -8722 -5440 1620 -1929 -1394 2432 -3553 -5872 -4510 -9297 996 -1575 1107 -22439 -3501 833 -1731 624 -18598 244 -2559 -736 1073 -5908 2055 936 -2838 417 1089 6440 -3192 -8233 3799 -2038 -928 -4736 7651 -2073 -1000 -402 589 1223 -943 2781 2623 2167 -1059 2611 3528 -670 742 -173 707 -2170 -1484 1601 2907 656 -176 -1265 -10759 -2305 -140 -1032 1351 1808 -20240 -2577 3604 -25 -6991 543 -5969 -5744 1196 844 3484 -2518 -910 1128 -1437 5195 -8322 781 1667 -2056 -1414 -1753 9569 1847 249 -314 6298 8311 316 1410 1396 5527 2212 417 937 593 -1938 4691 1920 -363 -1422 1443 75 -3640 -1488 1562 4272 -1132 2074 594 1255 2529 -1118 3539 159 868 2712 -5642 -15090 3019 2282 -1563 5312 -13 -2076 -198 -2483 4969 1516 4534 21072 27 714 -1937 4195 1195 -3914 -609 -370 -4984 122 -482 2054 3984 1723 -2469 4906 10471 -1487 -2594 -1340 -1502 -3178 -1331 -783 282 -167 1526 255 3016 -1238 -4604 -757 -4108 956 1989 2944 1177 2621 -3013 -3385 -472 -1535 988 1314 -1463 1301 -4254 1991 -7195 2642 -1919 -38 443 -315 1877 -5825 -906 -2347 1212 2434 1112 -1467 7205 -3040 -1696 1548 1048 -6190 -1908 -2060 4780 -365 -332 -6166 3348 734 5324 -325 1194 -3268 1782 9270 801 1422 5177 992 1452 -1372 -461 -63 443 1358 -2180 -398 2127 1249 1418 696 -1240 -3223 3401 -984 -1035 4878 -406 -2938 302 8856 -3997 -1075 3722 2308 -2971 -12113 -2334 1569 -1581 -20833 -2678 -2531 3915 -2678 3764 4866 921 -731 2236 5323 260 822 1267 5011 1064 2306 -2943 420 2617 488 731 -3099 1224 2091 -395 2565 37 -122 -5740 -1232 -1049 27 95 -87 234 4290 -632 -635 455 3329 -176 3240 -647 4549 -2143 -2889 529 4227 -3013 965 2387 1122 -10957 1404 -2632 -705 23213 1472 11202 -2745 -8983 739 349 4445 4413 -17889 -3450 -1040 4220 6183 -3410 2171 1413 11804 -1051 1693 -11984 -3854 -100 -13896 -1808 -2621 -10147 -459 -5537 536 128 4324 -1677 2267 -3387 5262 -252 676 -2443 -7575 2283 -1115 -4055 914 -1054 -404 1648 5520 4027 -351 2235 -237 -493 341 5455 -2050 -317 11540 1063 -5076 1721 -1534 1503 -2610 -8683 1139 -1701 -3387 2332 -1020 2303 2390 420 -10178 -2849 216 -3864 7215 -258 -12863 2736 -26570 2066 2937 -1987 -5728 1061 3042 910 634 5611 4432 2477 -1037 449 768 2607 880 -9866 2433 5457 2341 -228 2980 3513 1879 1053 -452 3788 -1201 4189 6462 2988 -1512 -52 2558 -947 1683 -4823 -3949 -1822 6776 3022 41 1632 2436 746 1100 4745 -2044 9178 2098 2278 1168 4169 370 -1832 5084 -754 312 1511 -3133 -5035 337 3751 1311 4389 -1320 -1978 -1453 -3529 -1677 3262 1727 996 -4264 14629 -8360 -5929 927 -2373 -580 -1948 -4997 17241 -844 -2063 -3093 -3079 18961 1305 1112 -4041 -5905 1171 -2904 -10943 -3725 743 -929 -170 -298 -2700 -635 -1611 1592 3691 -2561 -3184 -309 -2316 2695 -1322 -4118 1478 -329 3483 835 1105 -3665 -2101 540 4813 -4410 2281 -3009 -18943 -5321 440 -14356 -3297 -14000 789 1432 -3130 4288 -2063 1838 4101 4381 -6801 1213 -1554 1270 -389 519 764 -843 813 -2162 -602 1414 -7908 -5012 1307 636 5512 148 9688 -11992 -13715 -913 7056 746 414 -1008 2260 -1414 -288 293 10897 -1468 -2107 2942 159 103 2890 5568 2258 1277 -1296 2067 2995 -994 -55 6086 -8316 3913 -528 18592 1517 -5917 3400 -15106 1713 814 1380 1858 17 -19139 963 2034 2517 2800 6027 34 2465 -1192 4877 6001 2413 -1350 5768 18710 5925 2536 -6475 830 4153 -3573 420 809 3019 -4399 -3617 -1122 2958 1500 5373 6931 -4634 1865 -1766 -9103 3029 2927 -9515 2729 -5141 3705 -27813 -980 5303 2796 9714 2130 2306 178 -4794 -27086 2880 611 1260 -110 -2852 1745 171 4008 -974 -2915 -765 632 -1993 -2558 160 1217 -615 -4647 -1271 3653 -4286 -1452 13307 -358 913 -2211 1422 1160 -4306 -26672 4953 -260 -8236 660 -5528 -382 -2733 2298 -189 4111 3234 -2073 -61 -497 -2249 3204 -2474 2058 -1618 1050 79 -3646 4332 -652 1327 2250 -431 -1303 321 -469 25512 -2313 -1071 -1016 1227 2700 1312 -2068 -10345 -877 -1145 -5110 -2579 -768 2907 140 -2249 1712 303 -169 -2147 -1392 8541 19825 499 647 1376 -1444 4049 -22 -4618 -590 -658 4068 -3342 -2079 1924 -1145 -27406 -6564 223 -6864 -5847 -2090 -3979 -1000 -600 -660 366 1995 889 1678 2481 1103 179 389 -1137 -1355 2404 6739 -1372 -1204 -1262 -1679 -4037 -1422 286 2204 3414 -592 472 171 -153 -1991 -7543 -2112 6749 -2824 674 1419 6923 -1076 1375 -66 2430 13550 -5039 -5410 -1330 -1629 -323 6325 -1514 -6061 -121 -1326 -4278 -2775 6155 2681 459 203 2203 -8974 -790 -10493 4898 -2037 5100 1456 -2925 627 2336 -1396 3948 1718 -4844 480 -1513 -1819 -2429 1265 -203 1051 2448 988 1492 -6087 906 238 -1043 243 -4940 2690 -350 -1297 -3808 -1549 -483 -1380 -2803 -829 -3914 1159 702 0 -2791 453 -1140 -990 147 1653 -828 -2055 3078 -2045 1158 -1753 575 2438 1768 87 -2051 2189 1110 1158 -783 2140 -263 186 -225 159 837 3074 1259 -1715 1028 -3342 1124 -361 -256 -1042 -889 -3533 2761 511 -334 1372 -2632 1015 2632 -3596 3349 -287 48 3544 -1102 3684 2814 1598 187 -1910 2829 -2132 3038 2614 834 6228 1739 689 22 -2124 -10272 2252 -630 -2445 158 4488 -4017 5903 -15682 -3792 5718 3854 2932 3025 117 893 348 -764 276 -709 -2827 -972 944 2584 2134 -1197 -48 -2257 7610 2425 205 13728 1996 -9381 -9194 5788 -2581 -4760 -11158 1144 -5143 2062 -1026 -298 -2928 -5845 4953 -4390 1049 1379 -1427 -1794 -743 3241 -468 908 5663 302 2600 -2001 -1266 1003 487 1000 -210 1221 9121 3734 1823 -7312 -2655 294 995 815 5358 -1724 -4881 1339 22261 -9604 2625 -3245 -805 13195 3697 -8257 -12952 -360 -2261 155 -2881 1631 746 -3094 1522 1066 29760 -194 -469 471 50 -102 -153 -6136 413 1872 -458 1664 -2591 35 30 -1026 -712 3769 -1079 -7266 1797 376 -378 -398 2015 2782 982 6876 -1238 -6473 -3408 -4080 -8336 666 846 2784 -1289 1203 -2617 442 -6680 -2486 1523 2724 2743 -843 -1068 -666 -3159 -2694 -1152 864 -530 -1705 19 920 1959 -3432 -8437 1211 4044 -7794 -3558 6287 974 -5240 -2979 221 -3620 -1294 -2011 103 429 -2699 -2758 1772 1672 -2213 2598 -5534 1683 246 402 390 1248 -4874 -1088 -1620 -3621 -203 531 866 -5095 3284 349 2198 -648 -4364 801 2345 -871 -3782 6070 1198 -565 -886 91 -2614 -3613 4295 1906 56 -9407 1831 703 208 -3650 2544 -286 831 1457 3772 771 1523 1902 426 1382 -3666 -1228 1889 10 -249 2854 172 -1180 -382 1153 -969 -650 -9114 -2957 217 569 779 -1080 -3978 909 1784 2005 2178 1831 -11534 -10627 977 831 361 -5740 1890 1665 219 3941 6437 -25168 3868 1097 -3945 813 1583 -2260 -821 -32655 3605 6389 5678 1270 1811 1839 2469 -1847 4822 -4108 -5917 -9518 -5159 5932 -895 -125 1389 313 -1504 11 -1051 11978 -729 3180 1840 -242 -1166 52 -4095 -415 4486 2891 1735 6573 566 1038 3451 12580 1504 1363 -9207 1492 -1187 2922 12203 -979 972 -6921 -101 -2998 -5178 374 -887 -7426 -1760 724 2216 575 5460 -2899 -595 9618 -3405 2124 -2247 -1088 -2466 4141 -571 2507 -1074 -1042 646 1225 3050 -1783 -848 2500 2771 -931 299 -9839 -10819 642 -3782 238 3390 910 527 2090 -2013 2578 1037 9596 -1110 710 -3626 637 -1484 -5948 -1043 3914 -3875 3744 1398 1450 -802 3335 -16520 -7173 -26437 534 339 -4108 1454 -763 -1360 1631 2196 -15300 -3685 -819 -4977 1364 3310 -3904 -1479 -12030 3857 11553 4966 -14150 15333 748 883 1214 -9794 -11966 -3853 -18118 -4049 15058 -1011 1871 -667 1652 -134 2413 -1574 -22805 171 1407 761 847 -2232 489 8134 1035 2166 836 -2822 6137 -642 652 2482 7903 -862 1002 2753 714 2990 -2919 -8970 -2373 1369 5263 764 -5014 1047 2031 322 -4305 8599 -486 -4990 -417 -1598 11124 2429 -4563 -1902 5473 2825 3654 11794 -496 255 -7743 -4617 2300 -1432 7474 17467 523 -1364 3105 2049 -4741 -2082 275 -282 861 -1802 -1529 557 225 3202 -984 -3757 2035 -2402 -815 2825 -380 5896 -8824 -266 145 -76 -2346 -7036 -965 -4371 -3648 4847 427 -2532 -1326 25371 2008 1267 12707 431 2016 1041 -2130 -2190 -942 1986 1424 -15906 -2892 -132 1491 -1059 -3652 -1695 -53 -1945 14107 764 -353 -389 8268 -5975 34360 18391 24755 -627 -24745 1181 590 -1510 -41 315 730 -4427 6563 2616 938 935 -815 1276 1504 -6255 -5177 -242 -1141 -516 -643 870 743 1640 880 -105 235 -7781 1112 4098 -234 8158 976 -1395 1044 -2306 -1261 -816 2663 -2688 -6114 -4 672 530 -2651 2389 -1463 -2642 7283 -997 -276 -621 4171 -2635 3169 -129 1018 -1753 -2112 -2038 3406 1561 -1502 -1620 30 -1551 2455 2128 -1605 -5303 -553 -4043 440 -2120 2036 33 1802 750 4528 -952 2862 -302 2543 3070 -1124 -1522 -2833 3133 -880 -1429 1274 5513 -4840 -2196 1754 536 -141 -1113 1963 1927 441 797 -1435 1113 7797 227 1672 -2041 -3209 -78 -4592 -35 11558 1379 -1200 -7209 2309 -1824 1581 -1238 1265 4236 -3667 278 -3626 1399 -2101 -2562 938 2191 7397 -1348 -5691 235 -9027 -4405 -766 1582 -8908 -3206 1817 700 16316 1711 8545 5096 -11301 -1104 -4006 -294 -2425 -17702 1855 51 6731 -5612 71 -1273 -681 -84 -662 -2901 -4409 2441 420 2858 454 -4498 3979 1508 -1426 -661 -1865 -722 -2799 1028 -1151 1263 -204 -2507 -1341 -4179 768 2101 -2427 2105 1015 133 -1055 4046 1854 -195 97 709 -838 -1933 3809 536 815 -3463 -183 2082 940 -3425 4702 2020 1348 2188 4842 -2553 3901 3259 -5494 151 -2971 564 1318 607 -1116 -11150 1400 -7421 531 -4281 -4027 -1962 5736 6415 -2855 4889 -2264 -596 406 -5563 2900 1063 5188 -2987 6474 -3892 -18436 -2406 -3406 -6246 -16218 11400 -1477 -995 7247 5896 4358 469 884 -4532 895 -464 69 -1675 -2489 -2608 4177 -4594 -4954 -1586 -6223 3755 -6997 1110 579 1123 -4647 179 855 3136 10278 -3416 12161 219 6728 -5381 -5438 -2734 -2544 2272 2328 -923 -1741 -3141 -3660 1934 9696 1890 -2452 1593 -1157 -311 5122 -3648 392 -598 -573 -623 1427 -2916 3860 -3038 1509 4885 -3101 -652 103 916 -94 259 -2599 -1706 932 -2295 -3881 -2700 988 1376 -5061 -1224 -3913 3554 3539 -8347 -73 2984 4677 -647 -554 -745 -10569 -2455 -97 2536 -4064 -1657 1618 -484 -3746 7637 190 -3795 1855 2235 -1484 985 2260 -868 -406 1337 -4457 -2770 -70 -489 -204 4575 1113 2611 420 -266 725 -780 -1529 -311 -815 3021 -25 -725 1346 -7238 1267 -1539 -1432 4295 -1922 -1602 -413 3575 645 -4391 2059 -613 -1904 -1991 -308 -173 3891 2789 -959 -1720 2022 -1810 -278 573 47 778 3014 -5193 -1908 1848 579 2396 -393 -987 -1271 2040 6014 -3098 1326 -4654 -399 1048 300 -113 -2023 283 1420 -4148 3860 1131 -3433 -910 118 -736 -68 -962 -233 -1022 504 -720 -545 1550 922 893 -391 -1735 -1710 1583 149 685 577 247 -548 -143 1472 2431 -2476 3947 -1961 -5005 -760 -1793 2057 2512 3449 -1400 -808 -775 534 52 197 -4224 1946 -9 475 -1044 -1411 -1092 -212 -787 -180 585 -1416 -12 4740 1398 -2004 1139 -567 -786 -3466 753 7 -2240 -77 3151 1372 -1613 -2147 2844 -689 -196 -1490 1045 1232 1478 -1103 -1180 -506 -649 1444 1416 -55 117 -1725 -1358 865 -950 624 3964 977 613 1436 1463 -258 -226 855 -2378 1432 -1178 1528 1977 557 19 2591 825 232 -6628 2414 849 1890 246 1985 -544 521 -3893 493 -2783 -88 3847 2655 -1017 -4965 -853 -1081 -6853 -3878 -515 -6927 -2459 -2410 2173 1448 30 2890 -4117 4027 205 2150 -828 -6059 476 1389 2712 2805 -1289 -2935 3865 747 3641 -428 571 2147 -2079 1754 -1305 -2314 -9963 1249 -4391 1907 763 3133 -3235 2404 -2683 -9403 1749 4508 5236 -1707 -3118 1632 -2255 -2822 9110 -907 -1851 -1442 -2021 -6432 43 496 408 -954 -454 -4295 3883 -3563 1074 -2571 2246 -850 -280 -3253 -71 1253 -4626 -5572 13 -779 -1130 -1500 -219 3125 -3730 1012 1730 -2825 4922 -963 29 -1609 2865 -2159 2061 -682 -2037 -1035 -1086 3401 -29 79 42 97 2550 -3580 -873 3714 896 -2283 8 1719 1917 1029 3350 -9593 -839 -985 1830 -2566 -2093 -2393 1434 -1308 -3794 -9123 263 3381 -1974 -5686 -4243 602 -2554 -95 1012 -2047 5153 961 -2485 -883 -704 -1988 10688 -1515 -6772 3937 2187 4411 -1383 885 1139 -3231 -602 -19 375 -4798 -1941 891 952 -1762 1682 2568 638 1287 -679 -462 2659 -191 -1633 1501 925 6808 -2634 -1765 1450 1053 1822 -743 -1914 -3721 3869 2190 -1269 -2668 -10 -2859 888 -1918 -1506 2992 -1232 146 2753 3446 -324 682 463 -1366 -4547 1533 -1677 -504 -2940 -1455 918 -1429 1392 -761 1906 -792 1660 890 26 135 1747 -2537 346 -440 3369 2098 -1448 -2212 3630 -1140 4971 -2481 3400 -2865 -2962 1047 297 297 235 3510 -3877 -611 5232 2157 1830 -345 -202 -422 1874 -1871 211 1605 -1844 6007 473 2764 -2582 424 142 -2912 2121 -16727 -1131 1833 -267 20656 -1128 -542 -633 3113 2630 -479 654 -1194 -2684 953 1692 -852 -4553 1991 -1124 -1927 -3587 -11165 -2411 -1778 -2163 -6353 8135 -3113 11716 -5572 -506 -6360 -1206 -2010 -554 2900 -1529 692 -1557 -1211 -532 229 1082 -2165 -367 745 34 -2504 -197 -214 -858 -151 -942 -1549 -232 -789 7669 -1246 -350 -242 311 3366 -2393 -724 -3253 -783 1131 -3084 3479 3915 5667 -849 -3829 5854 -953 -1235 31 928 7375 1182 -5632 2362 147 -1258 2751 -281 -836 3686 2377 -379 522 -1423 -1382 -4609 -2964 3555 -928 -481 5616 -82 -629 3324 75 5 -2596 -859 437 8776 4485 2701 785 -2171 -2174 -1923 5204 714 -7339 5484 -1072 195 1638 5284 -528 3909 -2970 50 -4153 2999 1022 3061 604 5293 1547 2659 2612 4735 1689 710 -174 -1206 119 70 1559 140 444 -1166 -2057 1326 8405 -1296 -247 2434 -1250 1542 163 549 -6364 -3293 1233 110 136 4739 1924 -2079 -429 -7616 -4538 2580 4628 2060 -1060 -1298 226 1571 -2340 2709 -2042 2924 2107 2416 -1434 -2462 -5596 3227 5667 -178 -2017 -1892 -7397 830 -4817 -696 -2867 -2793 -1360 3644 -1976 -214 -1883 2413 -1401 -1334 2343 -1870 -2983 -2510 -1294 -4341 853 4939 6104 936 -477 1363 -156 -970 -2085 1209 -3054 2598 4217 1162 2339 959 2183 -982 5341 -3468 -4594 2394 -3347 712 3726 3497 3914 -337 -3946 784 -1935 -1863 3605 -2288 -4316 7806 4736 -1686 5493 -3363 1036 -1709 2540 1160 849 1818 15101 -2407 -2662 -161 -609 -345 -2128 -3261 -2030 -1489 791 1479 2026 1735 -1565 -1147 -145 4950 353 -580 -2702 -3898 -825 -1933 -837 -4017 2026 3539 -1753 1652 -1441 -2000 -1416 3732 -3805 -437 -1620 580 -2814 -5496 -2451 -1568 -946 -10424 -2226 -1080 -1304 -3194 407 2444 2809 -1807 -393 3524 -1718 818 -13884 -6239 -2987 -4468 -4046 -571 -5855 -49 -5893 1229 611 5836 8397 3496 2134 -630 786 -2657 2628 -2171 2055 1171 869 -341 -4136 -2972 2819 1085 -1492 2068 -2724 153 858 125 -7177 -2466 -969 -1392 2295 -1086 -2572 1048 1942 1599 433 3511 -3928 -1064 -5087 -591 -2323 219 -2971 -2571 -3205 1269 2229 105 1478 -1357 8586 2158 244 -4843 2976 -2037 -2266 -337 938 -1455 -3613 -4893 -2523 -1278 2426 -2159 -2100 2093 862 -1021 -305 -3387 1744 -968 -2537 1962 3860 2738 4447 -4408 1746 -2826 -164 -1196 -2105 -5028 1281 -1595 -1932 -3531 4114 861 -2296 -2317 -1599 -54 1771 576 3085 2932 -634 -4684 224 1472 2267 -4546 -2782 1858 108 -3935 -304 -3352 35 1132 4430 -1692 -1043 -2006 -1424 -793 843 2534 -62 2126 -422 53 827 1310 1122 -2401 2690 285 -1764 4744 766 -2890 276 -1108 841 668 903 -2739 254 -1590 1359 -132 2422 3140 -918 2973 1659 4482 2819 -747 1284 1075 3299 1153 3179 -433 -706 -4112 -401 1301 591 -128 -165 2091 -4111 -378 2185 4256 1330 1195 1375 -939 1450 707 1162 399 -1903 1816 104 -136 -479 -231 924 7932 -3194 1460 -491 3726 -30707 316 -729 9130 3265 977 -672 1618 -3003 4336 -12374 562 -12474 -2607 1820 -705 -692 -4051 3518 3849 1297 -1169 2544 -4760 -824 2604 1967 13407 -9652 -12253 -746 414 1421 1928 -327 3669 1021 1259 1370 13229 1504 8168 490 -58 276 1789 4036 1622 2773 -2670 -1096 -835 68 559 1669 8079 -7972 38 -3577 504 -2569 269 6650 -1189 -198 -9431 -3883 2596 -2446 61 5104 -10106 3033 4869 1675 4028 2591 86 -1806 -3570 -4383 -1591 4686 4339 1465 -486 -1743 2567 961 2736 682 -219 -2030 -1183 -4715 2978 2382 -2735 -427 3308 -7553 -14808 1965 4490 2953 -3539 92 -3541 3123 11250 -1126 12824 -421 -4385 1682 -306 -1999 1455 -8197 358 -1116 622 -5096 1548 -6144 -6072 -12652 -1303 1127 -85 -1252 -5681 7352 4439 690 5870 -3715 6696 -6619 -5202 -2638 -530 -8534 -1084 -2913 12750 -1887 17212 -9197 2374 3061 -4154 250 -248 -1823 -164 2274 -2633 -2787 6330 1712 1091 -2129 -826 -3090 4411 12709 864 7140 -1687 -2002 6384 3530 13059 649 -3391 -4186 -6954 3925 -9795 -5785 -4362 10422 2151 -6684 4163 -641 3208 -8706 -244 -285 3193 -745 -4208 -351 3333 1168 2285 -504 -3365 3867 2190 -2057 69 -1309 -8272 3726 -3212 359 -1684 -3887 1417 -3631 -502 3066 -7666 1668 -4660 -1641 908 -1349 521 -2430 1012 -1206 -2535 763 -2121 -3448 -4960 -389 1644 2418 -4851 2509 415 3207 2544 -322 5201 -3744 -6347 3140 -10531 1618 1386 -514 698 186 -793 2740 1221 -1945 -4388 -196 -924 -3100 1471 -408 -2330 -609 -1918 2096 1138 -4821 574 -29 -2783 -7014 1092 2187 1787 -2440 -85 -544 -329 2136 -153 43 342 -1436 1903 -1244 -1030 1543 -2007 -323 2428 -3932 -1084 123 -1158 825 -872 -4140 -1842 2552 -2274 1902 851 1622 550 1685 -3483 3099 -1621 3879 -8557 -2665 4862 -1295 -129 -2061 -4855 -5333 -3160 -18619 1442 -19514 3744 1599 4726 -5793 1142 -1987 1445 -888 4002 3557 1121 -1753 1131 1025 10102 1059 -17225 1367 1576 -357 5456 4964 -1670 -221 -7487 -10282 -667 200 105 6706 5928 1763 2191 2566 509 3386 -3032 -5501 -742 3949 882 1862 6618 -2057 2772 854 2766 97 2532 953 -6885 2474 -2261 -3577 -4576 3212 2986 2448 2556 -12450 2586 1355 -1357 10801 -1677 2218 -897 -852 -188 2178 4023 583 -6697 -4525 -1256 -825 1753 -7155 -650 5 5128 3260 -1036 -10446 -6259 2120 1533 1903 -2632 -4258 745 3622 5185 2243 -2025 -282 3054 2001 -8307 -2133 2343 -1968 2214 1668 -2156 211 -6650 1285 1417 259 -130 1776 -10941 228 -6492 -2102 2040 2749 1259 -3539 -4529 -582 2163 4167 1192 2179 5435 146 -547 111 -1261 -515 -2677 -278 2888 -2508 4874 -5947 1677 599 2074 15798 27711 5918 1373 -3833 133 3304 6915 -1539 -1410 868 19605 -3960 737 -4244 -1516 -134 10735 -507 -3078 -3938 -2955 1148 173 3716 -587 4530 4995 1763 -860 -1622 -664 769 2948 -415 1928 3846 953 11165 -4895 1594 -1804 6884 -50985 -3897 1387 1980 570 -1925 5208 -1635 -9477 -3437 1411 2707 -15368 3071 2796 3416 -1920 -1396 -2391 -1604 902 -4072 159 3335 -2068 -3237 -66 -886 4253 -1093 -709 2629 -223 1898 -6666 -4718 5805 -1695 3630 145 2571 232 98 -2502 -1209 1449 249 796 1839 3121 354 -1797 3970 1476 -4866 2114 2254 -2963 -1579 288 -2645 1643 -3848 1358 -866 -4796 1833 -5873 -1656 -5799 1150 1237 12 10 341 3017 -207 1501 189 1842 6108 28 -4384 826 -1886 2348 1388 -2680 2652 964 4294 9191 -3457 -2772 -1121 -744 -254 -3728 -3911 -1229 -2726 375 -989 -1642 926 1996 -3898 -153 1672 -2163 9006 -5246 -2164 -1645 3581 -5330 1667 1160 -12451 2338 -887 1026 -9067 -3099 2765 1662 2853 15029 -2735 -1510 4049 -462 -352 -2823 -4024 -3737 2093 -233 400 3895 -2356 339 1359 696 -4 4234 1024 3129 -1276 -4503 4463 1812 917 -2120 242 1933 6571 1783 143 1786 -9316 1025 5327 -873 1113 608 -3410 2010 -1495 -2666 -2200 897 -63 1333 1984 993 -531 5454 -863 -2330 -261 930 4712 1082 627 3196 2004 -3209 3836 -847 -4790 -1152 11322 -6405 -310 -952 -389 -9041 -1973 165 3301 5405 140 1614 3037 -1522 1145 905 -309 -308 2306 421 -1820 -7628 -5279 -1459 2585 -2445 9699 -765 6413 1060 -8592 3219 -4133 248 -20 3574 2201 -4255 -1917 748 1392 1922 2119 -1468 -1032 -2880 -5536 -135 -8976 -204 -1077 472 -213 -1713 741 1650 1752 3217 1204 756 3163 -1171 -2051 2510 8974 -2943 3227 5367 -946 -16351 1224 -20457 2001 -3698 -1312 6650 1200 4025 -187 -1934 5335 -9262 -5212 1513 -2102 -2752 -3997 -3488 -20818 -432 -5321 -3053 -25013 -9260 144 -304 -3308 5604 174 5616 -4742 14377 550 -1477 -542 3156 2835 3569 6371 -759 -3521 877 -2456 3515 4001 -1486 2007 -1135 -1136 3822 6398 218 6722 -2494 -2319 681 1055 1241 -8194 -455 -255 2915 -543 -3395 -6669 -2786 61 1602 1197 7616 392 -1626 -2257 -4820 3528 4045 205 417 -3202 -3385 -2841 -6106 -4596 -2953 188 -270 -3456 1407 2520 1207 -4645 3782 860 -1493 -1868 2867 -2378 1463 321 -359 899 16192 5246 -218 -1812 3036 -1534 4591 4682 -3575 -1655 40 4608 252 -2513 -747 -755 -2040 1192 -4673 5139 222 164 -3245 -1603 967 193 -6792 3110 -2019 -253 -1824 -223 3545 -6922 4911 1036 -982 -1591 9588 1524 -635 -1819 -7691 -8332 -6266 379 1234 1634 -399 4887 3600 -1426 1027 -16915 2757 278 -1677 853 132 169 -306 4292 2291 482 -2539 2886 366 2009 884 -1179 3927 2488 -66 680 1577 514 2806 1601 -1281 192 -8127 6501 448 -3905 -1482 1394 -1340 1825 -34 -53 -3563 6250 523 -9209 1350 586 962 2455 1353 -947 2751 -363 -5517 1730 -7426 667 3999 3114 -8352 640 747 5441 2776 2779 -3426 -1596 -2681 -10587 -1227 -247 3826 -3069 6326 -393 -1202 892 1889 1228 432 -174 -110 734 1498 -3673 868 -2309 -585 1937 2462 -571 -623 901 6252 184 8213 4609 -508 -1394 -689 -902 1924 1097 -2414 -2452 -1957 876 5790 14225 157 -1137 -174 645 -1094 -215 -465 1296 -4043 25333 -2222 3151 -972 -3444 -1152 5720 -878 24782 -2628 -7874 -5159 -1478 -3188 -144 -1457 4769 8004 -5815 178 10737 -25 -6271 2275 425 3818 -6044 -4376 -37 1625 -5800 -678 -5121 977 -24 1744 -3040 4592 -6192 -718 -5251 -718 -4571 -1912 -1089 -5007 -7072 -3315 223 2919 -2364 -8810 -3894 2928 1157 -543 -2132 -852 277 -845 -1180 -3122 -5101 5076 -4236 -2237 555 2527 -1250 3172 -2250 -814 2523 -3535 918 1152 1410 1537 -4936 -1943 -847 -55 160 -1346 -2298 2367 -2003 2068 904 580 -618 1589 6181 5761 3645 -1359 -881 -252 1301 -1665 -8730 77 -6569 3445 11153 -1189 -998 -6383 -5453 -306 2085 2503 1429 -1335 -1444 -3661 -1322 -3625 1053 1414 -2193 1401 -2014 -2244 -1367 -1969 1543 1757 -2197 267 5192 792 -9414 6151 79 -58 2239 -1480 2097 -2150 1251 17 3398 5025 -3844 -1900 -2760 1987 6651 1621 -3299 -3384 -408 -5020 1551 -3246 -1566 463 -73 0 -1107 -5083 1445 3252 301 1460 -525 -220 -276 -5886 -1155 532 -1956 3529 -6622 -1583 -447 -7295 14798 -12948 1160 -8514 -2584 -8056 -2300 -338 -11758 964 -1577 -743 913 -738 1605 -13617 -858 3975 -6769 -532 3535 -647 3185 -4835 -382 -1894 -8535 5191 2687 214 -6439 -3732 8287 -3936 -18419 160 5852 1481 980 -944 -1107 -5027 -222 1738 6577 1912 -571 -970 -1658 1369 1497 -7167 -1001 -1676 -3069 -2845 1153 -489 -282 3364 -6550 1833 1418 -1142 -924 100 4925 -3632 8321 -3015 -2740 -1180 5994 -3612 5518 251 -4534 8402 -952 -1841 -2865 -1033 -2183 3217 -8095 5134 992 3394 5403 -1796 -1352 319 -2736 791 -1030 -1808 -832 -2135 -1810 1559 1208 1302 -6810 -3913 304 135 -4132 -351 2714 -1732 -1511 -792 1522 4661 -1005 458 953 -3841 -1445 1168 -6339 1708 891 -5068 1863 6941 -172 5404 107 -514 3873 3772 -2355 1159 130 5819 1663 5999 -2070 -6690 9576 -5350 -170 97 1315 1571 529 -5334 13206 1805 -5222 504 -20821 731 2152 570 1905 2782 46 -35 -2741 3234 342 2305 -2392 179 -1324 -1072 -10102 3888 -3525 -13438 -3466 3686 3700 1443 -934 2788 -3856 439 1052 1873 3275 -965 8291 3581 2888 7004 -2065 849 -654 -2431 -1692 -446 2276 -899 -763 826 -8907 -130 -1029 3952 -1712 -5763 461 -5440 -3536 1131 9318 -693 1115 -4620 4674 3261 263 -1021 -4099 -8166 3437 1143 -6961 -1488 1916 -142 4640 4297 -642 -1839 -353 -4397 775 -300 -2072 1449 1659 1098 -2378 789 -1480 -18704 962 -1654 -2059 1282 -378 -13365 -2006 -240 8778 -183 1708 -1347 8081 -680 3628 -22139 2856 -5205 -1663 -8288 -145 -1278 -3648 156 102 -4391 -1208 4787 -19524 668 -393 3884 1122 495 5885 535 -27155 -1985 3186 -6088 3062 5730 -2316 -759 5968 190 2579 -252 -3911 -2419 1683 -3613 4669 -410 383 2106 18733 -8063 -828 17120 -2068 5078 -14948 1835 2628 868 815 2 10195 1307 13277 -1888 2503 -1137 4398 -8914 663 1495 2648 -1483 5124 2894 -622 -8331 -563 1547 7355 -1121 619 -48 888 6312 2772 4516 -2076 960 -7163 3707 8261 -1232 -2166 508 -120 2036 3549 -6755 -327 -1369 2854 5724 -2317 -3445 -466 -1799 413 5736 4232 -682 793 -2898 -2112 -1215 672 1311 2809 -3484 1068 9281 -4207 2299 5340 1572 -466 8012 2284 -876 16637 -2470 1015 3286 -8082 426 -79 1092 3744 -1336 -125 -5497 2204 2176 -672 -2671 2608 -355 2526 3086 172 -6420 -1132 -1665 -2530 1918 -2013 -201 370 9233 1859 -1768 1233 -2372 -581 1652 1097 -4351 -742 111 -1788 1562 978 745 1974 -1192 -1159 -2622 2210 -1238 -1034 767 -890 -1418 -2430 7020 -4299 965 -2162 2315 2342 -2770 -875 496 -4680 -16772 -4781 674 1707 -1940 1175 -1268 5626 -1938 1685 1739 -5801 31285 1272 -1147 12209 -610 482 819 683 -6411 -4593 -679 1894 -2661 -2832 -870 -797 -881 -7315 -1784 -3147 -2943 -1020 11727 1740 -1635 -3450 -3445 -6662 -2863 -19342 -2582 9582 -28 -424 -966 -3781 75 38 80 -13401 -376 -536 -839 1916 595 -661 -17935 -399 2263 2559 557 -1287 -328 1143 929 -2220 880 483 -1151 590 -6006 -4168 4230 -3330 -3335 -6152 2971 -2079 -5448 -1479 -1267 -2570 -3948 -5665 767 788 -3038 -4789 -22 -180 1 -4379 2534 -2979 -12358 3466 1598 -5157 -576 -2574 18 321 8029 1721 3713 3582 494 1129 495 -426 -1970 -2477 2199 974 1566 -4858 -4408 2995 -252 -1201 189 -4637 -3997 -1079 -6061 -10347 -1184 -2937 -3495 -4094 -591 1880 -258 1723 -4109 -2418 -2019 -5375 2992 2476 -427 -5436 2687 -313 -905 1111 177 1023 1608 -2882 -39 425 -6558 813 3596 422 671 2901 -1491 278 1314 -316 -5085 -2592 726 -2145 2601 4647 -310 979 1732 2236 586 1880 -601 913 381 -71 2994 -1512 469 419 2092 3522 2644 -2044 1607 2460 8604 1427 -969 -483 -585 555 -11001 329 1929 -782 3646 440 -101 -6781 767 -1460 -149 -2380 -950 -3472 3461 339 -1939 3897 2968 3404 -2783 -2413 -7883 2828 1443 6387 3201 283 -2297 -300 -1532 2843 3563 -52 -1065 2163 318 -1141 683 4752 2175 -861 3485 -1576 -3080 4751 -3311 -759 4888 988 2454 261 -3952 -8290 235 4128 1992 5308 -156 830 3042 -1034 -1585 -2148 -3853 2320 -2504 -567 -3160 3130 -732 -1414 1588 -973 -3255 -168 -2357 64 -936 -4725 1893 -4388 -1694 -1524 492 1303 3253 -1672 1953 -355 -251 -194 -3523 2191 2123 -4240 1426 -1579 965 -1766 1461 694 2982 569 1091 620 1722 -998 -1627 2454 4239 -528 -2501 -1850 -78 -5917 1325 -659 343 -1956 -2753 2777 1879 -4525 1258 3209 -939 406 -761 -2518 2844 1222 1569 -4935 10223 -12332 -2233 -784 -257 -5507 1036 -4784 1629 7397 -7318 -2276 2112 966 -2495 -5029 -6949 9772 -1105 -1355 1893 -9042 -63 241 521 277 -893 -188 220 -2070 -5250 -710 1530 3772 1631 2132 2624 468 1003 -2845 -4730 1130 1437 926 2897 -302 -2519 -2615 -1223 -3130 -898 443 -2222 2000 1777 1737 1135 -1706 -3858 593 -704 -956 -469 1560 -463 -2870 -1857 -8059 -670 -4229 -6170 270 -1847 -538 -1290 -2524 2550 5733 -823 -2655 1706 -2101 497 -595 3699 1056 -2517 434 -1481 -6673 1972 1033 -696 1689 3099 -1805 2534 6625 -1517 -1344 2327 -2253 -1147 1793 735 627 2589 -2037 1765 1213 2710 1995 1117 1071 -1221 -1775 -6282 -1413 -535 -186 -1250 2117 -1010 -3809 1430 -2572 -619 -3788 3071 -387 586 776 175 3014 -1008 -3592 1975 5279 -2736 -1463 -639 -2985 334 3861 -12080 4154 861 1226 185 -10002 1077 2312 -3167 -4644 3891 -462 240 2460 1795 3003 3558 1043 -2687 -4042 1788 613 -405 301 5959 1137 -2047 -2499 675 196 -6985 -4927 -504 -1234 -1322 4970 -1921 -2230 -3842 5948 -2001 -957 -4070 -3298 -10400 414 -2650 3556 5276 -1470 -109 5 -586 -790 -5796 3969 2043 -6632 188 -342 -3298 -1143 651 -1153 2483 3796 -3374 2319 4554 -7515 688 1252 -1164 845 -3919 -1366 -2518 -529 -1185 -2048 -431 913 -3784 -2504 3774 -807 -8497 8566 1656 -829 -1104 10798 4919 -866 -200 -27346 320 -21938 -2112 13342 316 1741 -1369 -4531 13216 6 -3670 -2480 -827 -1852 -2384 -201 -829 -1955 -366 3891 -1648 3012 790 1221 3705 -1282 4723 247 -1582 5497 -376 -140 -77 554 -674 3452 5143 -213 5066 -143 -1537 763 -1476 -2408 2461 1754 -1843 -5153 -4410 -1701 583 2527 -1228 -4490 -2298 83 -5399 665 -2464 4606 -1805 -636 242 -5905 -2213 2203 -2577 -1729 647 2524 -1753 -5592 1188 2909 2457 2917 -746 7031 402 -378 -2124 3387 -28590 2168 -1373 -6669 1679 -623 1684 4415 3540 6235 -18931 807 -8118 688 -1261 4055 -519 8425 -703 3671 1952 -20166 1388 -1526 -1206 -1877 -8865 18262 830 7174 -1774 -9317 146 608 712 3234 -1983 439 2778 -18621 -1464 225 81 -555 -66 3137 20751 -2881 837 -954 1623 1998 -553 540 1428 -1657 610 -255 -585 7527 5154 1926 3159 1476 65 3168 2691 2368 5 517 2363 5718 -2839 -1198 5396 2004 3858 -1933 -2030 5011 4023 -2101 -1588 -3796 -580 2809 1037 184 3996 1260 3668 6369 6440 3618 -1042 5038 1876 2558 -1143 1324 492 1156 4905 1771 -3470 171 4094 -1553 -270 -145 2867 246 2499 -457 -1977 1867 4954 2996 2879 1592 5432 1757 6077 -36 -5272 1213 -4975 -3216 3144 9558 1750 -1578 11633 233 1981 17778 -1923 5197 -5918 -2402 4798 5506 -5639 1856 2609 4676 379 -11374 1094 -3047 233 157 1936 -3766 -156 660 -6098 1567 -9415 3067 247 -5009 -1135 -1997 12915 -3886 -6326 -1083 3271 -8592 -4627 -16 -1676 -2331 373 -4401 -1141 -3460 639 6178 3681 481 -917 -3637 -645 -4768 10378 -3471 -6029 -8 -1044 2324 -2435 -929 1590 -3425 -2298 -1504 994 3464 708 -5858 -1399 5880 -731 -2453 644 6184 1779 1638 435 5532 -2103 555 1168 -213 -3149 -847 1886 -288 2923 1458 -951 1604 1142 3602 -1566 -3286 2926 -4544 -583 1763 -66 -3831 -2240 2028 -1992 4321 1874 6201 1966 -12183 -835 -1854 984 -2435 -7379 -1331 915 2309 -929 -991 -2711 -229 -5159 1225 1790 2473 29 -2237 1969 -1527 -3846 821 442 2770 2032 599 1663 269 1654 -2661 -940 430 -3602 -2213 7464 2807 -1809 -1813 -3267 2554 -1032 647 1342 888 -1027 -519 1851 3310 -2391 1038 -390 -1244 2435 -1626 -1297 -1946 -1087 -1947 5053 773 -1453 -823 -3812 23 1310 1664 62 3752 -2746 2160 4013 1989 -2578 890 1310 2055 10719 -1377 -4080 158 4205 6851 -4125 1382 2176 -3690 -3266 -4726 1040 1603 2780 -3137 -4421 5063 3358 -8173 -1133 1784 -2888 -711 2442 -4589 2177 3084 -2637 3260 7213 9103 27 2391 345 4379 -777 -2787 -2898 2702 -2159 -4383 2400 -1703 -1246 -1268 1886 -1611 3778 -3113 -1727 459 -7743 6198 2285 -776 -1113 -19919 6652 2460 -2532 656 529 -937 805 -442 -1148 796 789 894 415 -1578 199 2447 540 -1064 -732 -1566 320 2894 -1358 -2566 -454 -1700 1778 1788 1079 -281 -1822 -429 1711 -619 -2666 -9 -1357 -927 797 -913 1076 -4471 1298 1294 -1108 2979 1113 -58 -1329 1802 687 -432 642 -2073 -1223 -5064 934 2070 506 -566 329 850 4154 1958 -824 3204 2856 2762 -4936 167 -30031 2609 5182 4371 2707 5524 12010 -4620 -4223 5594 8096 9773 -6792 -1990 -4471 9962 1417 -6704 -791 13471 7447 11215 9628 -895 1676 1239 1667 -1574 -1045 -5125 -8853 -6217 -2136 4992 530 5804 -309 7335 5866 -3726 2937 -4354 2667 7373 1701 -574 2496 8181 -672 11230 -1477 8801 6256 6365 -708 2174 13874 8079 -1811 -3743 -1481 2204 -12000 7096 -3148 1643 -5 1957 236 3716 916 5505 332 2286 3945 500 3277 130 1691 -4435 3391 -8719 1265 -9994 1285 1222 -1278 -1130 -2391 -988 905 4525 1288 -1869 5731 2951 -2166 376 -572 -3390 2133 -4553 -676 -6038 66 -1969 2054 467 2285 37 1850 3941 1461 -3955 -3333 1059 7286 746 251 3883 2184 -623 -2684 -482 -768 294 728 -79 -222 -105 936 1001 2403 610 124 1981 1353 216 -43 -910 237 -1554 834 295 387 -350 -1813 -1196 -142 573 -95 63 745 39 542 0 -311 -625 443 886 -1956 7 1570 946 539 42 -135 -1620 -344 -648 -2725 -72 -1742 895 1113 471 -749 478 -354 606 -291 551 -151 165 250 540 511 747 2536 -7816 -4029 -5975 -7174 -2630 -1596 3973 -474 -4168 1673 -1121 774 -2470 -2575 1695 -9512 -4536 -419 -1824 -3657 1003 -4177 -88 3051 -5873 -8404 -1569 254 2114 3481 -7579 -3448 -216 -685 -4306 -1312 1676 -2993 5162 -4818 -1400 -2597 -2468 -5373 -5905 -2982 3222 -3042 2775 1624 -469 -139 -1702 1104 -193 3924 -14100 -5176 -1603 3037 -5982 163 481 -1882 3081 -3424 132 -548 646 1314 -1924 -325 -197 2793 5101 467 -3946 -2769 3335 -1 -7153 2786 -1822 -3082 -4600 -6890 4757 -3975 4683 -2188 -1169 -3357 1180 -2234 -2264 1857 -5423 -2217 4758 -1490 3177 -2667 4257 804 1808 75 -3530 -1004 -1853 -1537 5102 -2881 -395 2489 -1135 3506 -899 695 -2175 -3778 -3866 -991 -2090 -2135 -3104 3842 3854 -510 -1329 3695 -1356 -3241 4732 3609 -635 -947 -2909 4410 1299 -390 466 9214 2051 1459 33 26051 -2302 -3250 1745 1408 2178 1924 2041 8292 1365 2036 -7306 873 4942 37 3261 11737 1917 -1497 -1185 150 -1151 267 1157 407 1818 7203 2166 -2139 1688 1856 1186 93 17 -116 2007 3079 196 -3613 6366 1852 1354 2777 51132 -150 -1700 -1855 -864 -3365 1117 5631 -1136 -421 -9182 -8833 -2161 -2561 1380 6321 -2936 -1823 1815 -396 -661 -119 -2668 -1024 -1302 -3451 146 511 598 990 1418 262 689 -1050 924 1916 -997 487 -296 -1716 -222 1923 3378 -622 -5890 -4255 -3619 -8771 -454 5159 -1082 -1963 -458 1519 5251 -748 6634 615 -3694 1046 1294 -3305 -279 -7110 1543 -4434 1753 