128 64 3 3 
-4689 -7229 -8985 4626 -968 -6588 7823 5723 -538 -1572 -417 159 405 1230 1659 155 -262 -783 395 418 -802 516 -882 -2798 1138 -908 -3089 -2489 -2427 676 -1099 -3190 -613 2022 476 40 3483 3549 1851 1874 824 -143 2192 -81 -754 -1415 -1522 -754 -944 410 -280 -453 2547 339 -750 -470 729 280 -803 -610 -265 -1186 -336 -730 -2072 1297 1111 -2350 -2872 3288 2317 -214 1699 4445 2062 -4166 -281 5251 -5676 -7337 -2202 -1825 -1611 -457 -183 710 844 -33 1579 580 -2533 -2893 -1792 2107 375 -1369 5153 3737 -341 364 -651 -2477 560 1974 -1016 2450 1617 1336 1596 -42 1567 -2733 -5844 -5808 1842 -1340 -3520 -5170 -5542 -4177 -847 -1845 -2130 2635 2067 976 55 -662 -423 -747 -428 -1145 1667 2083 775 -1103 -1359 -304 -361 -518 1371 -465 889 890 755 1321 297 403 1016 926 -1947 -2437 -1048 -1571 2371 333 -2240 -1049 -166 -4628 -4460 -1367 34 447 -1478 -366 1393 783 -1419 -26 132 642 1394 1575 -318 1855 2298 -1774 1263 1619 -782 960 -337 -1489 1785 984 -1391 -2016 167 2374 -1806 -4426 7704 3008 -2744 11718 8964 1815 -1633 -3244 -2566 1779 718 -2450 1974 3803 475 -853 -1393 8 -1148 -1602 -381 1241 -281 -1196 98 -450 -1094 -8 -1567 -2438 3960 3043 -911 61 409 -1756 -1515 237 -2043 -1000 -999 -3386 -405 165 1333 -1078 -951 -131 282 1654 1384 -688 -530 -523 -256 672 388 -1529 236 519 417 413 1279 46 492 856 907 -333 1336 -929 -709 1519 -732 -1141 -2214 -2733 -1997 -801 -80 624 -694 1761 1833 -1859 620 2598 -169 275 1586 1847 -189 796 986 -2599 -1658 -2657 -1029 231 325 967 1206 -577 973 746 309 662 393 -154 -1156 -144 -416 -872 -719 -670 -49 375 -2025 -372 588 -1746 357 665 -1210 -439 938 -65 -865 951 325 -1307 508 442 869 1452 -1063 386 1325 1077 -1583 10 -593 -1334 -570 -635 -2773 -1249 -1047 -2002 -1190 344 1067 -322 -710 -208 -70 1944 2170 340 2707 2191 -1483 -1179 4683 2824 1768 1395 4824 6130 -2753 -3377 -1023 -1193 -849 117 -1221 -2844 -3303 743 5159 4013 -620 3863 5628 -6081 -4856 374 -4837 -4849 -3282 3488 -1436 -5414 8385 5128 -3049 -1684 -3909 1316 -5331 -7772 -3240 854 -7086 -4078 -569 3476 2464 -4259 2539 3920 -8388 -6206 -1666 -388 1238 169 211 2350 336 -888 627 -259 603 -1566 -1626 1584 181 -126 4353 4546 3552 2520 -1210 1192 -975 -6579 -1885 2979 -1503 -387 -1444 -16 1992 -3408 -505 1491 -1749 -1313 -441 802 -1551 -352 234 464 -1736 597 3418 2112 1889 3915 141 -424 4779 2390 -2616 -66 1405 2898 3678 580 2484 3420 2883 -1645 863 2149 75 1185 -396 -1241 1301 998 -1144 -193 1067 3495 3844 2519 -689 1773 3260 -6320 -2536 -574 -1407 2060 263 506 1084 -923 2594 2010 -2023 3468 4142 6539 -3033 1198 5476 -8981 -4659 1891 2017 1245 -656 -89 3526 -638 936 4187 786 -1869 -112 1077 1382 1292 -264 -1875 -2996 -3001 95 -1728 -1199 260 -2256 -3320 -83 -2472 -2429 447 2018 -1465 -829 2846 552 -2759 1173 118 -2615 -4581 -1698 -2698 -6534 -4457 3769 99 -1192 2249 2113 1692 554 -29 -709 -440 -986 -1765 -792 -1545 -1486 664 1198 -1028 1399 3838 2809 945 -1854 -463 1983 -434 -1107 2561 932 1461 -5105 -4845 -2403 -2287 -4086 -2476 -1859 -3558 -3238 -849 -1430 -18 500 1156 1091 2512 1507 -108 -5740 -5553 -3658 -5094 -5263 -2133 -3690 -2755 999 1059 -295 -220 226 1481 2201 -610 2090 2103 -1273 -1496 -1013 -1053 -1630 -425 1198 1407 2504 -599 -1151 1327 441 1750 1610 -3 403 -779 -887 -342 -526 174 208 -1324 642 1423 1249 -3366 -3519 -3839 -4795 -1556 -665 1347 2041 1780 -3782 -3472 -1291 -6766 -6153 -631 -5189 -2451 -77 -259 -2615 -1011 873 -661 1725 -327 319 1702 -2202 -6407 -6889 -2698 -7991 -5673 -843 -3924 -1573 2120 490 -1256 1051 1223 -731 619 -780 103 516 388 1851 1321 739 3757 2113 2891 2198 41 982 89 -2281 -169 -1488 52 2098 1752 1496 -331 284 254 1753 746 1227 915 -1626 867 833 137 1565 1154 1517 -2237 94 315 71 620 -927 711 1308 1053 527 2313 2512 -394 199 -1247 -1239 1971 -726 1066 1464 1997 -1240 1208 -648 234 738 54 57 365 -71 336 -600 -2332 280 -362 -1011 1701 362 -203 -247 -3631 -2671 -538 -808 1857 624 -642 101 4264 5465 3390 2031 5002 5545 -636 3207 2264 548 -1179 -1266 -1567 -2349 -3133 -3506 -3923 -2501 1004 -586 141 1448 557 1524 1178 1028 642 -670 869 -796 1918 194 592 -1785 -3817 -2408 -1315 -968 -2058 -794 2421 -1461 -1154 -790 604 264 -40 307 -560 1185 262 37 136 381 -1323 -2032 -2324 -625 -578 -883 -367 -562 -1255 -964 -1904 -474 -863 220 -171 -1353 -1564 -722 65 -2087 -929 780 2323 2080 902 2349 -928 -4045 -2380 280 -3145 374 1094 388 3549 5544 -558 1649 862 -953 518 788 1583 3172 2540 -1114 382 -363 -551 526 -474 707 279 -850 -3787 -2125 -1328 -1812 -98 858 1133 2271 314 -2819 125 -1640 -871 2489 458 -1362 128 -1134 -3014 -1874 -1580 -1987 -802 -1066 -1927 -454 -1207 -2200 -912 -122 -4183 -7140 -2601 -1394 -3953 -2104 -2467 -1877 -2734 -1198 227 -1986 -720 -1041 -1841 -2080 -1932 -579 1715 2325 49 921 710 -214 2597 3210 1841 4807 7770 5478 2756 8420 1617 1285 1901 1463 1490 5156 1367 614 -350 128 -2811 -7297 -6517 -3690 -9346 -7476 -1794 -4966 -4031 -1736 -2839 -994 -5710 -9446 -6458 -8185 -9148 -6107 1707 6929 7671 6197 7847 1400 5368 1384 -3110 -2302 -5342 -2298 -1353 -4029 -3839 154 -1534 -885 -1413 -963 54 -951 257 1590 881 3401 3058 -962 -5001 -3416 -4010 -2505 -430 -237 -643 3656 1637 6076 6386 4067 6597 7794 3577 5084 3657 167 -834 2474 20 1233 3799 160 1931 2716 -1615 -928 -3262 -995 -745 -2049 43 -898 1003 -532 2681 3081 -754 4035 3383 -994 2570 1309 8015 6711 3612 2805 6515 7409 -748 5310 10512 -570 -1447 -764 56 1194 -873 1356 656 -3070 2796 5335 3418 3871 7721 6265 2087 6277 3904 975 -245 -1624 -1645 848 -2373 -1056 -692 -520 1894 3971 1015 4800 4758 1565 1041 2720 -763 -1138 -49 1577 -526 -245 2218 860 3281 3879 553 895 -148 -2344 483 -88 -1724 89 1515 2198 499 -2094 -739 -197 -68 3 -300 -1208 -896 -3069 -1479 -2924 -6568 -3583 -519 -2060 -938 78 1673 1643 4038 3017 3439 4450 5461 1860 -2121 -2622 -1934 -1002 -928 177 763 1565 1599 136 -1997 -2216 444 25 -952 -205 443 553 2004 3033 25 3478 4422 2001 1531 2883 -253 909 2144 3052 -528 106 993 -4609 -3493 -3009 3016 2319 2289 3824 3580 1780 1756 2952 438 -2212 -2530 -1584 -119 713 748 1460 919 238 -186 -1133 -1713 1388 -834 1210 2431 7396 6890 -2536 -2578 -556 -1379 -1735 -105 -1737 -2010 -294 1853 776 -372 1422 1328 1318 -2536 -1074 1899 1504 2202 870 729 2868 2123 -1652 -1573 -261 -2019 -714 -1943 -2613 -1868 -60 -525 -2250 -2064 -444 1704 3170 -1025 -229 529 -1151 -697 -291 593 1525 558 -263 1260 1423 -2619 -1563 -131 -1630 -2552 -2357 890 827 1023 559 3307 2291 -2277 -3592 -3449 432 -1354 -1352 2297 3706 -1371 -1050 -3825 -3198 -262 -3006 -1705 -162 -1542 -151 -1500 -695 -890 -545 -815 -1627 196 1160 -635 -3149 -6611 -3746 -3247 -6948 -3086 1468 -1057 -1384 1830 2567 1898 -2728 -686 1354 -5205 -3682 -1122 -2790 -5380 -2825 -4277 -6906 -5418 -5468 -8140 -5463 239 -2278 -575 -3324 -5573 -4693 -1903 -3930 -3865 -3570 -4421 -3948 1681 192 -756 3025 4108 2974 -3019 -3675 -2437 -1542 -1093 305 -3592 -3306 422 1576 -1970 978 1282 -1004 475 2379 1971 1563 -3930 -3506 -2034 282 -884 839 3021 1870 3095 -1010 1686 3409 2452 2061 1889 2857 1697 -447 1394 1423 668 -1162 1082 -1063 -2155 -224 -3329 1879 2955 3901 -1358 18 22 -1738 -464 -421 -2345 -3893 -4460 -312 811 -925 2496 6893 5860 3210 4604 1179 5284 8591 5807 5630 13620 8235 1071 2710 2698 807 3113 3710 -324 2042 3139 -272 -803 -395 547 -1004 -56 2328 -282 1945 -23 1775 526 832 2046 2628 1390 3564 1387 -722 -1541 -2521 638 153 -2337 1334 2859 2500 3310 4380 824 1849 2641 552 3101 5374 2548 3347 6660 5202 -2877 1252 2288 -4480 -4178 -583 -310 -1579 -725 1621 1617 -277 3142 2937 806 -3805 -3863 -5755 -156 1211 -4398 1468 6392 998 179 -494 -1499 1495 1699 340 1775 2814 2739 -108 1181 -1397 997 3402 1981 -889 277 -594 1503 3213 3331 1529 3279 4079 -218 -185 1135 143 150 -2584 -1351 113 -683 -109 -583 -1281 3185 3360 2992 547 859 2724 -3044 -1073 1652 1363 1010 -1001 1213 -774 1012 -116 -62 1174 -491 -953 -815 -24 -1279 -1543 767 -1899 -1251 0 -1741 -1650 -114 -603 10 -1367 -215 -732 1041 1022 1247 -3426 -2947 -1607 -1158 -2611 -834 -460 -3839 -2870 -313 -2369 -3417 794 595 189 -1098 -29 831 -2300 -1085 -21 -4341 -2178 -715 169 2533 518 187 3694 1663 -909 -632 1407 -929 -529 -1265 -2013 -1226 -1199 -1868 225 -2301 1372 749 -2645 4516 5376 -526 5483 6945 134 1458 4063 3718 2377 4818 3857 2065 3036 218 -1057 699 945 859 -1007 437 79 57 554 -2559 -3487 -1033 -145 -1611 -126 724 1618 986 -3955 -4027 -1269 -1604 -2519 393 2759 1496 612 610 785 1430 162 -345 -479 -1506 1045 -1225 -1269 -1321 -4188 1245 2277 -141 2269 6139 1112 1894 1228 753 605 1387 1102 -1813 -2596 -1688 -1632 -1298 850 -640 -1524 559 3119 -1105 152 -2652 -5893 -5444 -5702 -10389 -8417 -779 -3634 -2181 1944 -174 -1624 -3164 -4314 -1851 -6573 -5354 -1887 -1899 -963 2080 -791 -1835 -432 -2206 -124 -2569 -1913 -1264 -2421 153 847 -150 1572 2225 -446 -1070 -4558 -5881 2606 1015 -1487 6743 8057 4185 -277 3244 -499 -1816 461 -616 -4391 -3967 -1701 -383 -1151 -2491 187 -272 662 1719 2306 2040 -1663 -1557 -528 -1127 -1177 -2144 -1444 -4429 -6953 -471 -1528 -1509 353 964 1425 -800 240 531 2199 -1384 -2087 17 -5404 -4208 -3468 -7385 -3407 303 -147 313 -930 -189 1938 -624 2206 615 -1793 -4451 -5818 -2780 -5276 -4705 -4335 -5600 -3748 -1043 1139 1315 687 2539 1755 1435 -1214 3459 1296 1025 -1606 902 1076 -2335 -781 -316 -1656 768 2959 260 -707 1780 -737 -2147 374 -732 -2884 -541 -2852 -5762 -3113 -1750 -4790 135 3425 1427 1561 1055 2913 2927 2405 1931 1604 1104 502 326 541 253 53 -2458 -2876 -3861 -3595 110 739 2586 1668 4202 2416 -1082 -566 -1739 18 -1982 -2578 1531 -377 1199 1253 1875 3539 1147 354 -1682 1004 2121 -694 -202 1367 -1008 1972 -249 2619 -831 -315 2746 967 -1478 1483 -1025 203 -836 -839 1994 -1335 -1565 544 1262 -1421 -1138 -934 -1334 117 1036 -1497 1334 2387 1200 -2722 -616 5 -1455 -1441 -919 -1603 -347 1672 640 -269 2093 83 1426 -178 238 2578 -985 291 275 1900 1779 329 2228 3899 2426 896 1395 1717 -257 1584 3391 194 1523 2485 2195 -468 -1415 -1154 -2582 -882 -350 917 2187 1337 203 -775 -824 1338 -779 -2683 -73 -875 -1514 -1819 -409 -1130 2547 5651 -395 3888 6427 -2273 -1002 1519 -251 1556 5018 2583 4545 3329 -438 245 265 -170 1529 -67 -417 496 1829 449 -77 1069 -277 1587 336 769 1809 2712 -954 -1601 -878 -2112 -1315 -1452 -1564 -257 -215 -159 -464 112 -112 -852 -659 63 -323 211 440 2054 1457 -1609 1530 1686 -323 2423 2863 -2234 -3352 -98 -4586 -2328 -2055 -4838 -5511 -630 -516 -1617 -2143 -106 32 374 -2837 -760 217 -866 -1996 -1022 -1608 -819 1163 1117 3146 3253 -1034 -1352 -855 -1589 -1723 259 -1619 -828 1341 -2409 -2154 -1396 -2986 -1953 -33 -2508 -478 1298 -1871 -2330 -3280 -2630 -2633 -2215 -4217 -3580 -1992 857 3393 3228 927 3571 1287 -2798 -2564 -1717 -1651 -1559 -126 -162 4043 5609 -127 4255 3814 -3855 -942 -2257 -77 473 -1854 53 -796 1565 1439 2155 5308 2203 3369 1267 1018 -1338 -6509 -1916 -1143 417 -1661 3935 3880 -447 4240 6306 709 1971 -38 -1816 -1169 -3751 -2904 -3983 -5075 1799 -1261 -2046 1014 606 -6187 -2821 -7683 -11636 1988 1226 1912 5309 2743 8049 6036 7968 9427 278 -2036 -2153 -885 -1971 -135 373 926 2670 -1022 -1352 -1228 -266 -693 -1084 -1046 -1149 -1013 -383 -1703 1274 -1600 3261 2555 -11 987 2437 -1827 969 2202 937 -114 9065 5859 8920 9644 1266 -509 -3122 2550 2313 1150 -1173 180 1956 518 441 3349 1428 2118 1756 -1717 -3298 -3224 1358 115 -919 2376 4046 -3755 2726 -201 -4926 919 -2893 -6495 -3748 -4709 -12033 -7094 -11204 -11457 54 1359 853 -1575 535 1110 -107 476 1054 1722 -2061 -671 -583 -2188 -4321 -202 -5318 -6041 -1784 -2894 938 -5287 -1462 -1203 -2320 -3203 -1875 -2850 -1668 -1992 730 -339 5344 5319 10028 9322 1428 2365 1311 2651 1958 1549 24 492 347 -798 1778 1691 -1079 1907 -132 1181 2101 1051 -46 -1850 -1295 211 879 326 855 1572 332 2034 1692 -1581 1020 973 -625 -2031 -4824 -3021 -311 5129 5813 5156 6378 13722 7049 14065 13181 -220 -1966 -1387 -333 -1982 -1882 -331 -1153 -663 1140 1641 -110 4412 4178 3096 2915 2476 2705 1645 -28 49 550 1707 2906 908 -266 4182 1804 2559 55 2887 923 -3029 -1163 -5051 -5629 -2833 -1169 -1324 -465 2167 1049 -1584 989 -682 3769 1401 -1409 2910 -307 -3574 413 -1944 -2835 2940 -36 1353 257 -1380 -293 -2084 -552 -250 1271 471 -166 804 -459 -1423 -933 -2283 -2376 -2180 -532 -1807 -757 -848 -292 337 -865 370 -951 -1181 -2020 -1330 -590 123 267 469 709 -1572 -1567 -2054 -3436 -2078 -2575 663 1267 -750 -2870 -1297 -2124 -2787 215 -485 -668 2388 2721 -2635 668 -514 -779 2452 -198 -707 1013 249 -699 -1499 -2082 1644 22 -1749 -2618 -1012 1462 -1441 2326 399 -125 137 -2265 -525 -2202 734 3534 4234 -2051 826 591 -2700 -1580 -697 -2011 209 73 -1176 -686 -228 -1602 -1641 -429 246 -6921 -4714 -4840 -2892 1270 4283 5257 5451 3671 681 -344 -130 210 312 -540 -1197 -1160 -648 -1583 -2221 -1823 -1283 -1435 557 -1158 519 1857 853 -266 -7461 1210 -7773 -11043 -2521 -9003 -3988 627 2769 80 1639 1250 -1748 136 957 -1242 2382 1601 -1227 1010 -859 -2714 -564 -659 -295 -3608 -4787 -3481 241 -1294 2441 1893 1432 2252 2299 626 -781 -844 -1363 -383 -159 806 2087 4913 2471 -363 -4154 -5769 -8097 -8917 -12455 -7338 -26 266 228 -281 2208 1963 -1268 2671 1016 675 2680 2166 2558 2077 -1373 125 -2235 -4056 -2340 -833 789 2373 -115 2156 2771 3351 3864 -4722 -5586 -2002 -3859 936 4549 1551 8075 5333 -299 68 -786 -1046 -213 579 -233 1117 1897 -171 -1448 -1848 -340 -2096 2203 -87 1566 1737 -3111 -309 1488 -232 786 736 748 4897 -483 -266 -514 -1365 1750 -194 -2146 -400 -1530 106 606 -1630 -3129 964 35 -78 -1043 -2 -394 -39 -1415 -1550 -1234 -1762 -451 126 -549 745 -1562 -780 103 -2427 228 2653 -1359 1521 2321 -2616 -1516 -1665 -3518 -15 1356 -1623 2907 1620 -1476 -414 171 450 1719 829 244 1167 -166 -1462 -602 4529 -1076 1623 3274 -555 1457 -602 -1829 -1691 -359 -1710 -602 1010 -498 327 1604 1043 4648 2307 5618 6839 4439 3172 3983 -5660 -1412 -1282 -88 -338 750 282 1338 -616 38 -560 1033 3190 2050 2437 1711 774 544 -1695 2154 1708 -2339 2294 -347 -4275 498 -3641 -4143 1483 736 -235 3296 2229 -4741 -898 -2755 -6473 -2552 -1479 831 -2480 -1228 670 1531 3454 3819 -360 213 -1005 1045 -100 -63 -217 -341 1567 -1762 -68 226 -614 959 446 -318 704 -268 31 -3408 -2098 -2785 -2281 -100 -204 1023 2533 3438 5076 658 3657 1082 -2926 -789 -1379 -1666 -3931 0 1004 -6419 638 3335 -1949 5736 3493 -3004 -1333 3187 -2723 6181 4798 510 3747 794 42 -2268 -278 -1098 506 451 -844 1075 3851 -360 1281 2257 -134 2498 388 -538 -2151 -3596 -1347 380 62 -607 689 -986 782 1587 -292 1510 1312 18 1419 783 -867 1837 1109 -219 -8857 -7806 862 -5340 2005 7236 2775 6653 4090 2332 3104 -552 2969 896 -1457 726 -1534 -591 -533 199 1220 -2712 -1612 509 -3606 -2782 -1739 4707 5986 54 4763 805 -2180 34 -4899 -1863 -5076 -2862 -4737 2397 7144 953 6884 7287 2075 1390 2634 -108 2260 2428 -1313 1720 -920 -4284 -296 -621 -1812 -573 513 -1001 -2430 -1233 -1963 -1332 -1950 -2056 -1883 -720 1483 -711 2089 3396 -1953 -474 46 2367 -696 -937 -212 -568 -1714 -2657 -2598 -2374 -299 -3176 1193 -2723 -1824 3965 2006 1077 357 -115 1261 387 -1013 -2300 -2848 708 2564 2219 -1948 -77 13 -765 301 920 -729 -1142 -173 -1763 -2088 -1177 -464 -1267 -297 -792 -475 281 -1637 2240 -1321 -1643 657 407 1670 616 1884 264 -1433 -718 564 -962 84 -3281 -7903 -6733 4182 -3468 3164 449 -1985 4858 1779 2509 982 2535 3982 3567 -3886 -6556 -4760 246 31 -478 64 -1075 511 476 -163 -722 -1591 -941 -507 -864 570 2413 -801 -221 -311 -1289 -2861 -2071 1047 -1326 180 1411 688 957 -1229 233 811 -624 120 1283 450 89 -541 1668 2684 451 114 1303 -198 -444 -715 1212 -768 -1205 291 -17 -733 1571 1674 2149 1557 -3270 -2908 -2673 -1717 -1235 -1284 -153 -42 -1097 707 65 -1206 80 -1207 -317 -966 -2447 1493 1567 1608 691 -437 -3984 -355 1777 7786 4136 -1610 -3835 -2921 -2242 -6116 -6792 2734 -2590 -3971 -1055 -3335 -2191 628 84 -6 767 -334 -420 5969 6741 5315 -753 -1199 -605 -4739 -8671 -4306 1031 623 922 -42 -794 134 -1371 -2183 -1357 -486 -652 471 -1834 -636 -1393 -657 -1047 -922 -2009 -761 -431 -2240 -1577 -23 -811 -418 577 1417 354 -1153 -1346 1799 -601 -901 865 -297 -2787 -8949 -9850 -1477 -3501 -3188 1715 4456 3590 348 789 -200 -75 120 -835 -1371 -1300 -2342 -252 -363 -212 917 -347 -2368 3368 946 -2306 359 -28 26 -1967 -5537 -3204 172 -1555 -3042 2659 4179 5932 1212 2573 4301 -3690 -6822 -3913 -6884 -11839 -9963 -1322 -2793 -4242 7556 13343 15172 652 419 649 -562 -1215 253 -3491 -1596 -2832 -90 -241 -1539 -508 2209 1098 -2207 -2217 -2514 2590 5146 3024 824 6460 6273 -4305 1107 2498 3133 4945 4532 1655 5583 7511 -8353 -11563 -7069 -3743 -3370 -2178 2201 4427 2387 1972 3934 2165 1683 424 -2587 460 562 -3198 72 1841 1321 -5276 -4697 -3321 -3704 -1395 -1374 -382 3674 3635 679 1232 -228 -1170 921 -266 -1853 -3280 -298 2051 5980 3962 1478 5049 4123 -3767 -3373 -4952 -170 807 -1805 1184 -835 -803 197 1060 -321 -845 817 -899 -1444 1349 2654 -1256 -2362 -1788 -1015 340 1290 1638 914 1617 1349 929 -1585 -153 1268 -692 -910 1018 493 412 237 649 360 -1086 -129 764 -23 1019 1058 43 1112 615 -977 -1701 1026 1041 -870 -120 -790 1351 -274 -317 -253 -1335 627 -526 807 -6 -629 5689 7810 6524 -156 1972 1255 -6774 -9768 -9145 -1881 -1569 -646 518 -976 -76 2099 2380 2810 1109 9 304 2042 227 -81 -535 -1699 -1301 -1150 -1447 366 -674 -2061 -929 -409 -6 -465 96 543 400 238 2535 569 502 -2010 -927 1795 -31 -1224 387 1112 -773 -43 -908 -106 -106 717 -718 -1881 -670 98 -657 59 1241 -7589 -11116 -9389 -2537 -2628 -3274 4092 10065 7665 1596 927 -145 558 1152 -741 353 -826 -2644 927 231 67 -426 -1373 1497 -1165 1095 1434 863 178 -119 -34 682 1176 -1108 -1578 -1449 -2506 -1586 -265 -1902 855 571 -1358 -594 -1168 850 1733 1586 -736 -1449 1739 549 331 882 -2088 -973 -296 -983 -2 -995 1094 -1390 -1717 -1057 -1012 -1169 -923 -558 -1143 -40 368 -1034 -1246 932 1190 -945 -588 -655 -1475 221 -475 1445 2553 2190 -975 -1608 -974 -2926 -4134 -3662 -88 -149 -1180 1506 995 -4018 268 -196 -2612 57 580 675 -1542 43 667 -154 1074 1791 216 2893 3836 -2305 -1578 223 -4293 -2012 1164 82 2401 -197 1018 858 -1539 -216 -640 -1041 -2160 -619 543 445 541 -152 1288 -16 -1077 3631 1767 -350 -933 -5985 949 -3657 -2807 4469 -742 163 1884 800 1233 1240 1795 1160 796 778 -1648 -1210 -1206 -3200 1372 257 76 2481 214 -435 -901 -318 53 131 676 1234 749 -3824 -3493 -1305 -220 1091 976 1356 1675 -84 918 -12 -1882 -1113 -1418 1590 -2420 2430 1030 1016 -492 -1958 -1041 -2377 -1995 -1768 -976 -1200 1359 -763 -3976 -642 -2116 -1326 1781 2861 2430 1836 2367 -895 1481 -2328 -2524 -2783 -2410 1316 2339 -1562 -4296 -682 -5487 -767 -54 -564 2790 -1255 -524 -244 -182 35 -1495 -1874 -1843 -1606 -3494 -2172 128 -1648 702 828 -1326 879 1703 834 -934 -2506 -3425 -2683 -15 159 1033 1585 -1157 1027 27 151 -405 -1562 493 446 -139 -5949 -5431 1843 -4919 578 3387 192 1827 4054 3051 -1047 -2606 -1879 -5527 -3149 -2351 -1733 -100 1084 -5432 -5950 -6727 -8212 -1470 -3741 1324 6531 1904 -484 632 539 -2322 -1962 -4863 -3695 -320 -215 640 401 -1240 -1232 -717 107 20 1129 -985 1980 571 690 103 -6161 1232 -4100 -2124 -1326 1365 219 4025 2220 -1612 492 -926 1560 1311 1671 2020 0 -2435 -2549 -2828 -1574 -1504 5345 -43 -3603 2202 -4588 -2675 -3753 -3632 -763 -6029 -4613 -2339 -3065 1203 453 2137 3829 1756 -4 136 -77 1236 1084 671 4078 3311 2622 -5853 376 2674 1894 7460 3380 2834 881 -2549 6431 3386 -3239 5898 1333 -5113 1718 -4178 -4505 6263 7005 460 7291 -1221 -7659 -1610 -6346 -3805 -679 -371 -1930 2257 1214 -555 366 -1363 -788 1913 -1116 -2057 -3374 -1950 1783 -2664 2413 2080 -1379 -142 -506 1752 2909 2455 929 1118 946 -1285 -605 -674 -37 2027 2462 402 2007 904 -62 903 102 351 78 -1395 471 -573 -1721 546 1311 3686 2855 1570 -358 3349 2596 -419 -1034 920 910 1181 2100 604 -224 -723 -692 1360 1896 -3271 -1289 -3164 -3769 -3210 -2456 -1037 1869 855 -1197 1863 700 -230 1735 1045 2921 -1255 -539 -2550 99 -775 -215 -2003 -48 -1582 975 880 1398 838 415 108 905 88 -344 197 169 214 706 -2846 -1165 170 -2243 820 -3270 1623 888 1829 267 -2400 824 -2752 -719 2199 -206 -1636 -606 -1268 -1217 -2988 -1966 587 -1200 -414 -835 1200 1249 2041 324 1238 2646 -5327 -4689 3160 -3025 7389 5213 3074 4957 1097 3299 338 175 -547 -2777 2071 -1833 1119 -454 586 3672 -293 538 2554 -1253 5384 3300 -104 2923 4103 -1088 -72 -181 -2829 -2978 -3752 859 2339 1683 1629 1830 -429 1438 -1243 472 2574 -2207 -222 -835 1259 -302 -738 3512 1192 -1536 -3482 -1866 -560 1030 5333 2699 2682 1525 447 -1133 1036 1264 1070 427 1260 -88 -462 1298 1109 2788 -33 3132 642 699 2512 5478 3310 184 223 -1309 3782 -2708 -1670 1513 -2095 349 -995 -3533 -2545 -4706 -1896 2257 -520 2980 3352 7217 5049 1201 4098 -2011 -3606 -2830 -4763 -352 3123 3993 2013 6540 2791 1253 4174 1326 515 2839 1080 -1437 1227 -4248 -3189 -1541 -1289 -1189 4917 4444 -1157 1036 -3862 -6377 -3501 -3824 1068 -2574 -2304 -2062 -1079 68 1512 -697 1885 3347 6780 5675 1452 7111 -918 -4477 972 -4785 -1014 586 -1721 -3464 -5201 -4921 1143 -6133 1138 4350 -1026 454 824 -33 42 -784 -599 -636 1019 -1886 430 -394 1259 1150 -412 -396 -854 -1108 -2117 -2474 -2181 -1755 -489 1229 -19 2559 3496 -1347 -2017 -1471 -3606 9 938 1446 3646 1348 1986 907 1519 811 -219 832 1434 1521 3180 670 1403 2231 986 1327 -68 -564 -935 -1603 -1462 -1991 -2002 -1084 1205 2518 2116 2477 1669 1844 486 -467 -3316 -4492 -3391 -382 -422 -1372 -830 913 225 749 -130 1865 1222 -120 -1107 -255 199 929 -152 -115 -723 -302 -825 -719 -738 47 602 744 1061 554 -1259 -2875 -1275 1476 -2609 -5384 204 -2600 -342 2072 799 1444 -357 5681 6126 3207 983 -2176 -456 -5645 -2825 1354 2476 968 2894 3208 1891 -2179 -2230 -1966 -533 -1845 -502 2786 1960 2571 -1141 728 651 -896 362 477 -45 1250 488 -431 112 -703 -2054 -891 -2071 -993 -62 -1146 436 691 -488 3321 -3789 -5327 -4420 -2577 5788 2359 4787 1669 873 1703 -208 -181 -605 -2802 -3011 -2968 -2407 6431 6911 1793 -102 -5042 -4625 -2666 -3549 -2054 538 -4211 -2139 1483 1006 2046 -304 171 -2900 1945 2095 1523 -529 -2023 -1335 -1955 -1185 896 2080 742 871 -4040 -5958 -4517 265 -3 -594 336 138 97 657 2113 64 -1335 -2397 -3091 -1719 1438 1484 1752 2443 -95 -1562 -1015 -263 -1688 -1941 85 -1759 -1414 1548 269 630 813 -3309 -1334 1599 -439 2218 1369 -145 -1040 -859 63 -229 -970 -486 399 201 -393 945 472 2066 94 -1128 -1148 -3817 1333 720 1441 72 -1631 1285 5911 3977 7241 3585 2203 -1537 -6672 -1783 109 -1318 133 -542 -671 658 2300 1151 -1231 -2147 -2408 -2247 -1121 -745 -753 255 546 910 2331 475 410 112 37 -693 1287 20 -2729 -2743 -133 523 3063 3984 1176 279 -1061 -656 -135 -2444 398 1564 -1697 1327 1867 -425 -27 962 1214 250 214 -204 -468 -840 -1617 -3239 -3822 -2777 -3030 -1252 -3384 -769 -1455 -102 -1252 -1518 -2759 -61 1187 2132 481 346 487 2668 9013 15868 6308 -2165 -10806 -5911 -4564 161 2498 -610 -2669 -2186 -4109 -185 1597 1950 3089 777 -2245 -5010 -4193 -74 3602 3747 3534 908 884 -803 61 -2622 -688 54 1092 1254 115 -490 698 2624 4185 4930 1544 -1700 -5599 -4840 6257 7469 4363 3128 -2646 -5967 -4415 -3192 -1006 346 -3926 -3682 -2273 -215 758 2630 4726 2042 -987 -1082 -1322 136 342 1583 2274 1508 458 -582 -4310 -6230 -1634 2979 6436 1721 625 -922 -1048 1062 1406 1130 534 232 -239 -3059 -2041 -6284 225 4499 2495 5856 1376 1929 425 -438 7171 12563 8396 4330 269 -6999 -3996 -5252 -429 392 -2945 -7468 -3264 -971 6187 2539 4844 -777 -5220 -8187 -4398 -4542 -1994 6274 4504 4201 3571 161 -978 -999 -2892 250 1503 -303 2305 -659 -1961 -1796 725 557 2435 4218 2206 1892 2773 -2973 -3327 -3068 327 617 -2645 -3650 -4032 -2535 -725 -247 340 2880 -1930 -5394 -608 -6031 -1609 -1605 422 2906 -1318 -960 -2635 -957 -1592 -3354 1423 -2369 -3608 -2843 -2828 186 1274 1620 -88 -293 -1529 -1210 4118 5152 4972 -2763 -1780 1285 -1483 -2740 -3857 -3432 1458 3358 2240 3197 -1790 1159 8730 9877 3822 509 -3964 -3624 -4871 -3769 -1313 -504 -1226 -1304 -289 -12 139 1078 -198 -1796 880 3195 549 553 -171 -1058 -1141 -1568 -693 3064 5981 2064 2792 -2032 -3446 -4394 1217 1236 1509 -1348 1685 2863 172 -3552 -633 -1530 452 380 1634 259 -562 199 2198 605 423 825 -2690 -1217 -700 -3375 -1146 -1495 -2980 -1216 3889 3396 3945 3223 1119 3452 37 2050 2105 -1092 -2162 -999 -2870 -4003 -2161 -2179 -3695 -2719 2625 2072 3081 847 776 650 971 1161 1425 -1223 -1070 784 -367 -1249 -711 749 103 23 974 -613 -691 1120 1433 548 3393 2783 1249 410 -1436 -1906 1197 2833 1035 1222 3045 2458 4611 1891 3115 1587 123 1325 3286 1235 297 -7154 -8365 -5828 -5315 -7663 -6022 -896 -2434 -1063 -1504 -405 1815 -2299 -3289 -3165 240 -3857 -4179 -44 -1400 -1290 -600 -623 -705 723 -805 -388 -1501 -18 -1943 359 1157 -2111 -546 -1151 -2820 613 2503 1175 469 2260 1983 127 2818 2127 -693 -2559 629 -1840 -2988 -1313 2497 -445 -1023 1882 3080 1110 947 2612 582 -779 -322 -821 4330 4502 2046 4644 5822 4221 2215 3302 2686 3509 3390 2119 2198 2293 494 2622 519 -1501 624 872 -116 468 934 203 1077 1787 611 3425 3482 2834 2547 2734 3267 1202 2673 2303 239 -431 2055 -92 -1225 1399 2043 652 1488 4482 1978 -223 1635 1441 -53 153 -1131 701 -1418 -3599 -1286 -1438 -3746 -1739 -406 -1237 -1302 -219 25 1192 936 672 -132 869 -1344 -2941 -1035 -1912 1341 -695 -440 729 2427 2277 3955 1787 171 -579 2203 772 -161 1686 1365 760 -762 -1620 -2046 -16 -235 -1691 -499 -449 -1085 210 1703 1835 -402 719 -135 -472 1009 229 2871 2375 1075 457 -276 14 612 631 -700 -477 -1161 -1469 361 1878 775 -539 1464 2918 638 972 2029 1466 578 321 1866 3067 1483 2845 3084 1693 2650 2535 1500 -397 -350 49 403 -784 -252 1184 -677 -740 -193 -991 -936 -3618 -908 -2627 -1653 1327 -693 -1893 247 -1909 -2807 -1661 127 -2141 -672 1093 -1079 757 544 811 1402 543 -1080 -1694 -1534 -633 -2115 -1803 1616 1190 -176 637 163 -1655 -1756 -1183 -1025 -1071 -288 -502 -1299 1335 -950 -123 2291 1837 686 1006 -472 3062 4527 376 1168 2756 2717 5242 8670 2088 5128 4816 -251 -597 -1406 -3626 -3814 -5878 -2671 -2217 -3913 -4125 -1266 -2942 -3376 -1516 125 -498 -4124 -3316 -4150 -513 -1467 -1873 465 -1435 -2473 -2908 -780 -1047 -843 2380 2917 -6468 -8168 -4489 -8346 -9172 -6003 -5485 -5493 -2451 671 765 -681 835 1050 -579 405 198 74 2465 1550 -612 -638 2136 915 -2064 -482 1263 1340 -13 -1136 566 135 -312 -2468 -3031 -1538 3959 4522 2011 3211 4160 1716 2930 381 338 -1005 -1829 -1690 -144 98 22 -55 -210 -2021 -600 -1670 251 -565 626 2019 -581 2692 2419 -5775 -5811 -1446 -5424 -6416 -2979 -2198 -5753 -3674 507 850 706 1673 2527 1518 -1047 990 94 2436 3188 -265 3205 3792 4111 -1914 -167 2680 1951 3058 835 4359 4867 3828 868 2891 2826 4189 4293 2771 7261 5431 710 5388 2648 -2936 -2274 592 5253 -2399 -134 1889 -812 -1184 374 4337 5766 3992 4724 4139 2951 -185 -891 -52 3808 4608 1395 3885 1603 -112 629 132 -1616 -291 1009 1831 -235 -219 2318 -675 809 3138 -4424 -7600 -6008 -7306 -5926 -5142 -3288 -3004 32 -2999 -1850 -1251 -1932 -1672 -1499 -1306 -1222 -667 1267 -2092 1278 1563 -884 12 1139 2235 1134 -2562 -3092 -1296 -1666 -3091 960 -1688 -73 967 -2649 -3571 5816 -1519 -7847 -142 3835 -1586 -663 38 164 1862 -1805 -900 808 18 -90 -1780 47 -954 667 1729 -569 1520 -890 -966 243 -1172 -155 468 -1910 759 3835 -2444 -458 493 -937 149 1966 -229 -1030 2365 1740 -462 1128 -211 -1169 -1569 -341 608 -136 -1586 -359 -97 50 651 -810 898 1101 43 556 199 -60 -990 -197 5098 -1980 -6515 -2328 -880 -1924 -1300 -10 9068 740 -5077 6448 7671 -5931 -7533 457 1735 -433 -1774 532 718 441 -290 -478 294 2880 -3502 233 2522 -5952 -6590 3564 700 -3001 1239 3227 2141 954 736 6001 -3878 -6364 -1510 1298 591 978 -5206 -5719 -2542 118 -1457 -957 -679 -1524 1261 43 -3731 -3324 1316 -2861 -3813 1256 104 -1740 -1019 -45 -105 1174 -15 1115 1849 899 1071 2714 564 -1862 470 -1508 -3844 -2877 899 2398 -2810 -165 2254 -535 -266 -839 -1542 659 1691 -3009 -1615 357 -2486 -995 -3030 715 1685 353 242 136 -128 27 443 -1079 467 478 -3268 1228 1258 -2417 -2358 -772 -286 838 1403 21 -624 2840 2276 -3730 -1581 828 -1428 -9486 -1861 6146 -4485 -5073 11614 5681 952 -1684 -2689 -431 -152 -1966 774 1513 778 447 890 1657 -325 928 1549 193 -552 1536 1352 -481 -4040 -1135 1787 -6313 -9900 5266 673 -5240 -9 922 -864 -989 2422 2520 -3627 -776 510 -1544 2134 757 -2095 -59 -1013 -3580 10 -243 -2114 -1914 181 -822 -964 1631 393 -1029 227 983 -1499 -588 2648 -682 -1233 -242 980 907 526 2413 2993 1324 -1854 -2006 453 882 -683 249 -3423 -1938 1945 165 -4721 1675 4528 96 722 1279 405 -482 792 942 -1274 -368 -1598 474 -1946 -1507 1237 909 -1979 -566 1206 -540 -409 1264 85 250 626 -961 -203 1995 564 -1832 224 1438 -1932 -1313 185 547 -1422 -1030 44 1453 334 -1147 219 462 -918 -1095 -551 1351 3648 -1171 2172 3816 3038 1876 1773 2743 -826 716 1963 -350 656 3064 -2175 -1689 570 1264 -631 -639 -887 225 -1098 146 1030 -337 1587 -329 1610 2029 -1400 -1063 1530 1839 1485 -2383 -480 -3885 -775 -800 -2227 -2336 -1339 -241 2250 1851 -784 -1241 2950 4873 -7368 -4072 1616 1988 -1951 8530 -665 -11176 1576 2216 -5668 -2796 1213 -3514 -6143 4466 3496 -3290 478 2874 3487 2602 3532 -2852 796 8356 9581 -8443 -1180 3779 -275 -1357 -845 684 1308 1024 -686 1458 1981 1428 1165 -864 -163 1945 861 -5178 -493 1010 -1630 308 -7655 4610 8606 -3742 3532 7018 3972 -3482 251 1529 -1337 307 54 -1190 -1915 -1361 -835 -798 304 489 150 975 -1120 637 171 1111 -4523 -5622 4547 -2798 -2016 635 1388 2233 630 1685 6515 -4639 -6820 2446 -1112 -2464 -40 940 -1768 744 1550 -1873 -912 -1636 -1171 -970 -2227 929 4794 -3919 -4358 1901 -1053 -2897 -1454 -1473 -1325 -142 -46 -1240 651 -257 -900 2205 12 -1121 -7866 3826 7557 -122 860 6751 2475 1716 946 -2537 1924 4062 -939 -91 1438 -460 2169 124 -680 1342 1582 -3861 -1021 2349 -1179 -3508 -1553 5736 -1663 -6443 -140 2675 -2737 -716 3364 3920 -926 684 5241 2797 -6918 -2838 851 -3711 -3689 -8236 1424 264 -8711 6246 4891 -1001 103 127 -1290 382 342 -925 -1280 -379 -945 914 1702 -666 -464 1044 1767 -2457 -858 1368 2200 -1921 -4829 6089 6946 -2354 1450 6845 2889 1746 -1148 688 1584 -2969 3370 4135 -2305 1553 -1386 -2055 2688 402 -1631 2615 -633 -477 951 1824 -1168 -807 1766 -2315 -2695 -1464 -1428 -1580 -762 1612 296 -59 2933 350 253 -1363 -1625 2270 1542 -470 1568 1693 -2544 1112 3777 1666 1204 169 -40 202 617 -2181 -699 175 -2422 1584 35 -457 201 -1986 -1131 1081 -71 150 -1697 -661 2108 -292 -20 3594 -284 2366 1049 -3660 3390 -3675 -4685 3777 1916 -1000 1238 1240 155 -898 -705 870 -971 -1976 262 -225 -221 -1037 -1175 2975 251 -2544 2343 401 -1501 5045 -2011 -4137 4033 2527 -8949 11512 2993 -4179 1888 112 -3337 3103 2344 -3899 4996 1846 -1899 3972 -1339 -1261 529 -232 -12 95 126 -1358 234 1256 1011 -2299 999 1461 -5098 -367 -288 -2813 -284 -1034 5235 -1346 -2983 4943 18 -665 2467 -647 -474 230 -338 412 -65 -1807 1672 1590 182 1201 -1127 -961 2173 -1856 -152 -2154 1879 -3122 1580 5843 -3208 -65 6181 -1345 -3138 350 -68 -185 502 442 -1992 -379 998 -1984 -304 1662 -2235 -295 1900 -2167 2939 1436 -1043 -3541 -50 892 -3375 1466 2935 -3987 -2444 1677 746 1821 543 -3717 1252 4567 -7538 -194 1229 -3304 -1084 1289 1409 -155 -1320 3134 116 -3626 1163 1267 -859 -1524 1008 -3374 -1255 2213 -2020 -1979 -415 427 -1145 697 1634 -1656 -120 1006 -2692 -1988 -1570 1142 479 -2352 -455 -938 -634 -137 -2149 -717 -77 -1836 -100 2108 -615 -235 638 -1004 1201 -1064 -1863 877 594 -119 15 973 -1427 -2195 2268 -2422 -1040 4529 -813 -1953 2990 2961 -5726 4588 4911 -11417 9827 2558 -5685 890 -496 -793 192 557 -1116 -484 1904 437 579 355 2440 -1461 -1201 242 -637 -151 73 -585 2013 33 -3331 1907 296 -2365 680 406 -1143 -2634 -978 -824 -682 685 2267 774 -1181 1308 -573 871 -340 148 889 -309 673 1350 -235 -280 -155 2799 -2017 -827 -2614 1380 1190 -517 -862 -184 2799 -1000 230 1631 -1104 -108 -1849 -1150 -2701 980 378 -712 -2064 562 2791 -2183 -923 3017 -5262 -1728 5360 -4476 -3084 1568 -1400 -194 -5511 10522 1010 -7934 19097 3379 -10691 5886 798 -16 -2932 -1058 50 -1131 -1952 -765 208 -675 -1011 2831 1637 -4726 3437 3451 -294 3396 -2034 3835 -4283 -262 426 -4103 -683 -1568 -1123 -148 4343 -3049 -2152 5278 -5632 -1986 3404 -3032 -169 554 -221 -51 1220 857 343 688 -890 -1922 -194 3187 -2391 5429 -4147 2065 2817 -1403 -2047 -1240 -344 185 -4450 1862 3750 -568 1458 1986 -836 -3545 2066 1873 -5335 1138 2127 -2359 181 -1833 3011 -604 -4799 3475 1204 -3511 774 628 -5355 4872 2428 -7688 9189 892 -1891 894 -1141 -2172 89 744 1773 -1324 -2706 1508 299 -8 510 97 -1770 -1407 691 -1106 278 292 1093 -749 -1347 1138 -1288 175 1111 559 607 -1258 2918 -2375 -1427 598 -776 -591 -3130 1340 257 -896 -3223 100 -807 1091 2418 -1111 2277 -1991 1389 -1418 -2699 2043 -1588 -2694 817 -658 187 -1421 -244 199 1355 -2272 -1649 636 -1639 623 -762 -1347 1785 3605 -5975 -554 3604 -1827 2866 -1328 2132 2906 -2949 5937 2601 -1077 65 -1242 795 3958 -1449 -3105 3053 -1257 -2459 3160 -833 24 -279 691 1229 85 -849 324 -346 -435 -2737 1731 513 -1649 3467 -409 -282 -1153 750 -5139 5329 1249 -5325 10975 1409 -2683 1586 -703 -1094 -31 -216 511 1044 -103 190 403 1260 1052 2567 737 2372 3761 2400 3743 4851 1052 945 -464 1418 905 -951 437 -876 -1789 1894 2617 733 2248 2187 1494 949 1543 -188 -2753 -1685 -1117 -2518 -1453 -1274 -1330 -896 -662 2949 2677 2012 4481 4144 6099 2370 4929 4274 -3171 -2694 -2406 1093 1928 480 2315 948 -228 -1811 -1737 -2474 -2388 -2324 -555 -1114 1046 -200 491 836 -261 605 1502 -475 580 1830 390 -3918 -4734 -4673 -2373 -4013 -4224 -1471 -3907 -4778 210 202 -57 -458 485 -282 -877 -984 -1625 1513 -177 516 -1439 -242 413 -1418 -387 -196 78 1132 -898 -299 301 -196 444 865 1389 -808 -204 521 -490 63 744 231 1076 1204 188 -487 -1251 -1483 -2554 -2063 -1022 -1891 -1457 3452 3507 2234 1364 884 2616 10 1686 1858 880 2672 -380 1210 3194 1004 2695 5256 2468 2250 1403 257 1104 -429 1195 0 530 399 -3549 -497 1843 77 2192 3383 1495 2724 2228 -483 2304 1575 2378 4074 3512 2688 4475 4557 13 -2440 -1250 1320 -1289 -1119 86 -3384 -2521 -2373 -1573 -865 -378 246 1107 -1873 -264 18 218 1836 543 1204 261 1993 -731 738 2303 -3823 -2582 -1353 -4589 -1521 -1752 -4148 -3932 -3950 137 763 -535 1618 1675 -363 1224 446 -1761 -108 -206 -328 -181 1013 -265 375 1209 688 2052 -1244 -1355 758 -2769 -3517 -49 -2616 -3558 -504 -530 -1368 1423 2296 3433 2875 4909 6921 4407 2948 4500 1818 4742 5216 484 3764 674 163 -804 67 -690 -2603 -1174 -996 -387 -50 1330 890 -623 2059 1148 -825 -1342 -1135 -2651 -9381 -12036 -8894 -6605 -7972 -7311 -6833 -10578 -10574 -7240 -5938 -2164 -6639 -5153 -4278 -4522 -4472 -4075 -1935 -1790 309 531 1959 1953 -1076 -329 1471 -4753 -3865 -2247 -5546 -4916 -5686 -4544 -7258 -9545 842 1575 170 -762 -195 -2631 -2458 -3029 -5986 671 -334 1167 -1463 -792 504 419 1242 -222 -579 -3021 -4182 -997 -1464 -2097 -2510 -4560 -3077 384 1101 1014 -418 -389 964 -472 -523 1383 -230 -357 -2 -1195 -765 -838 -1651 -1229 -1883 2147 -903 806 -1011 -790 -1771 -640 -550 -310 -165 -64 -976 -203 -160 -1456 546 -694 -1151 -1468 -1807 -702 -1296 -1526 -1375 265 -710 -1746 575 665 -28 -317 -579 66 -983 -293 2000 66 597 907 721 1055 3096 -6 -306 1276 -5987 -4816 -2631 -3656 -1193 1718 -1218 2025 6331 896 98 -54 -878 415 64 -555 2763 1205 1366 694 1069 241 -162 58 -858 -110 -473 1039 -1274 -1691 385 -2880 -1256 -1002 -1362 -1018 161 -750 -164 -146 956 -373 533 -309 -859 931 -439 894 -1950 166 -674 -1171 162 -788 796 190 138 1520 1389 13 1009 -154 533 -950 -2774 296 344 1397 2519 -928 445 1627 -587 234 387 -658 1375 678 -1137 -401 98 -106 -1689 -297 650 -802 906 219 -66 1410 86 -83 -16 -474 668 383 1354 464 -1137 -648 -290 -1166 -532 769 996 -1272 -67 610 531 2478 1422 219 608 847 2392 4743 2300 452 615 -1104 -1269 -1207 -2324 445 628 -1605 -1995 -689 507 -1196 209 -1708 -45 420 -258 -1619 -195 -757 -780 1132 1024 -327 1020 -585 2406 1832 729 3022 1951 527 1943 552 -862 125 300 787 656 -868 3283 334 1553 1635 1740 -755 -511 -616 -1134 2162 -907 -243 1406 199 -718 64 536 -1065 -468 837 -1698 -1992 -89 -1243 624 79 104 124 -198 -1649 -2029 -1574 -1537 -1202 -1524 -1535 -1903 -663 -2312 -3207 49 3540 -380 -3256 3391 4207 -5927 -2558 5439 1597 1299 118 1099 453 -1224 1043 406 -1536 -2140 2090 -5600 -3678 5911 4817 -7723 -3577 8272 -106 -660 2724 -1549 -1776 1882 -607 -2121 681 -2441 -259 832 -1473 316 1701 -192 -1445 319 378 -20 738 -60 1542 3464 -251 -394 2540 -660 -2412 -1564 373 -4864 -2761 1508 -2670 -2871 -389 410 1664 -2009 -967 -1231 -1206 -945 406 -510 1108 932 646 1909 -3244 -246 6253 2413 -602 -2595 -1097 -280 -3193 -2517 855 128 -4307 -1730 -1390 401 -821 -397 -135 -375 -54 631 -1317 -2385 1698 -137 -3128 -1913 2098 698 -3234 393 -404 7604 2571 -8448 3607 8134 2109 -5902 2410 -3988 674 4991 -3679 -1696 4157 -1652 -3109 1230 -1877 -1261 2671 -1739 -6380 3021 2674 -2341 -669 1080 900 -3232 -1242 1488 -750 -1510 728 307 2005 3089 -1921 -3376 3458 1534 -3640 -1955 -1688 -2370 1102 3885 -6354 -2342 3944 1711 -4737 1464 -280 -1922 2606 2703 -157 712 2067 -42 -1401 -158 -888 -2832 1720 326 -6009 -1649 4376 185 -1659 -2217 1769 1568 -6266 -180 3432 -2811 -430 1220 328 1 1034 717 -15 2081 2267 618 157 -1689 56 741 1959 -374 -1608 2629 -2046 -818 -2592 -2765 1245 -1072 -2944 371 5033 -166 353 2620 -3059 -2248 8264 -708 -6438 3429 1390 -3480 -1475 4739 6117 -17378 -3264 18071 1010 -570 895 275 734 2057 639 -1005 3027 6908 -1742 -230 -426 -844 -1508 -1306 -422 -1033 -3488 -3201 2994 -5882 -5652 10431 2534 -8511 6687 14487 -2459 3861 2975 -5922 -6092 7970 2648 -12043 -590 91 -348 765 605 -256 455 1737 -785 -579 21 -1490 -305 1466 -875 -8803 2091 5082 -3296 594 -427 -24 -912 -2301 -3034 -1952 -465 -835 206 281 -1291 -719 -311 -1809 952 -967 866 -1873 -1313 2187 -253 -162 4503 21 -700 -158 -1868 -1698 -953 354 -2071 -1907 1358 3204 -98 -464 352 -3420 -493 1390 260 1459 -881 300 -184 448 1175 415 -863 2399 70 -2199 -295 -946 -343 477 -251 -384 22 51 -740 -781 776 -138 -1121 1137 385 -1353 2052 -158 1122 -689 -1276 538 -308 -59 1222 -497 -5361 -3348 226 22 -432 417 1114 786 1276 256 -912 -1709 817 1483 -2793 -2576 6593 573 -6655 -73 -2202 -1784 608 1812 -36 1301 497 -142 -1534 -777 122 969 48 -788 1419 1830 -1242 -683 -437 957 -1078 -744 2820 -209 -2661 -637 853 892 2709 1874 -2195 1903 6295 -1519 -6509 1306 665 -921 -1215 1674 -193 3977 518 -2590 -1783 -625 1088 103 -2197 -1844 2858 -2822 -900 524 1734 -2068 1994 1243 671 -5071 -1354 6080 -411 -1129 -958 -1623 -705 -970 -438 408 75 835 -815 362 2927 -964 -840 -2470 491 -1300 -4189 -628 -972 -347 -1518 -444 853 -45 60 1583 1209 782 -5988 980 5585 511 -2528 5375 6118 -26 -288 1724 -56 -2850 -503 2305 114 -3271 294 -786 482 2736 -4482 438 6505 1025 -3358 -759 813 -236 757 1954 -584 1400 423 740 -552 -514 -653 726 419 1125 74 -1509 442 2129 489 941 2741 413 -1135 1292 -222 -1630 -213 347 -492 -1015 -96 -478 -191 -2224 -1580 204 -1442 -762 251 783 -831 -1550 66 -995 1996 6113 10668 -3687 -2746 2264 -9862 -6556 -4270 1392 970 -669 125 568 -1257 -1590 374 516 -483 -2604 -4706 612 -225 -2590 1315 742 -1484 2231 1912 793 382 293 -155 2801 1964 -1046 -5574 -3712 -3510 606 3220 2554 5708 8423 6972 4774 2544 1833 2274 1627 -178 1500 1504 -175 3423 1453 790 588 -2000 -1000 -635 -2115 -2262 -2954 -3171 -2210 -6046 -5005 -4575 -3560 -4628 -3781 -2914 2913 3012 -3935 -822 2190 -2980 -1001 2039 5573 2608 -596 4146 1323 -3171 3194 1129 -3546 2295 2020 2465 1351 2798 2086 -1650 -771 -60 3367 -461 -2630 4813 1113 -3710 1165 275 -2314 -632 -3534 -2157 3554 -1413 -1308 5027 3651 2953 3029 5618 5205 -1432 -920 -1279 -6292 -5909 -5453 1592 1945 504 1331 1022 -816 2774 2280 268 3866 3587 1828 1943 -1019 -1702 -2071 -4880 -4254 -250 337 561 -211 -512 -213 143 -745 -459 678 3110 2791 -1398 1466 884 -49 1752 393 2063 2703 1172 1078 1816 -361 -890 -1775 -2792 -28 -1417 -3103 -624 -2590 -4296 -4921 -6077 -6255 1873 2472 438 208 99 -2490 597 3068 -409 2718 3724 4302 -2052 -1051 -770 -7815 -6966 -7110 1609 2551 1661 1388 1410 156 -1179 -2147 -3433 2958 5466 1720 1335 1148 -1648 -931 -1928 -4421 6587 5928 3084 3430 233 -409 -1049 -3847 -4671 483 2743 2244 -1512 2365 1869 -1065 2376 545 -1614 -2942 -4536 -283 -3057 -5126 -3866 -7106 -6819 1142 2498 2768 -56 636 363 -696 -833 -785 1152 2257 1624 372 196 408 -1394 -560 -372 3701 4853 3132 -151 358 417 -3088 -3072 -1547 -284 1263 -429 -571 17 690 -1876 2813 4785 1961 1297 363 677 337 -504 -1577 -487 -925 1478 808 138 338 -1976 -2088 459 -472 -1022 1357 2384 1106 -303 10 -1914 -2914 -2626 -3335 -7 1773 4032 -2156 298 2536 -2487 1193 2651 481 -344 -1783 394 -597 -1592 -223 -711 -2487 -3849 -3947 -1053 -291 -62 -1051 -1431 -5037 -4648 198 2827 1914 -643 813 252 -581 1255 205 1066 1986 610 -1050 982 1222 -5242 -313 1547 -1859 276 -1056 74 -1932 -3432 1239 -1250 -1614 2037 1099 2120 1225 1455 2744 132 2851 1006 -1666 -2831 -1780 779 784 1212 4895 4863 3903 1634 2392 4222 -837 -469 1828 -2038 -1742 -669 25 -3511 -2471 -1109 -1508 -738 2568 -2911 -7411 -4492 -3440 -4607 -2251 1145 -1158 2403 5349 1042 402 1047 1678 -80 -455 -585 913 461 11 2481 3333 6287 164 967 2016 -3073 77 3744 2590 2989 2569 403 858 269 -756 -1864 -4617 -865 -37 -1013 -174 -1808 -2817 -162 -2330 -4162 -79 -1502 -2012 2840 1652 1963 4073 1487 3041 337 2842 -157 410 -735 -1889 -5278 -5432 73 -4691 1831 7165 -6320 102 3688 -11172 -5839 454 1238 1427 255 75 360 -738 -2694 -809 -1096 -6987 -1107 5811 -6764 -2016 6195 -7636 -2530 7152 2696 1556 1620 -650 -2139 -2153 -1175 -1304 -2117 19 -4129 -8509 3246 -1384 -4984 9528 3483 -2300 4596 3810 2672 87 1303 1635 -1948 1414 -24 3288 623 -2941 -294 -2516 -4852 -2901 -4149 -5099 1324 1907 2478 471 1551 742 -1185 -1679 -2923 2814 1236 345 -465 325 -2274 -1895 -2269 -2901 8462 5793 202 4711 561 -3345 844 -3663 -7649 393 453 185 -593 -36 -522 -1272 123 56 6455 4988 1011 4601 3716 -3721 6892 3793 -1810 -1016 3625 2984 -2639 -1153 4621 -2369 897 1518 -90 907 1790 -1467 1590 1649 -2415 -208 -750 -486 -1122 -507 986 222 1120 -489 -645 1533 1720 1753 525 -320 -342 -1354 -1788 -1512 -479 28 -1445 2643 2225 -8 6241 3177 3123 3025 -1936 -2433 -2431 -2536 -3007 -2291 -1861 -2203 -1466 -1529 1998 2927 4405 3870 0 6809 4022 -3099 -3056 1237 5006 -4935 1180 3365 -4337 772 1673 -711 -129 -64 -3522 -521 1375 -430 11 2075 -298 116 863 -1818 939 2214 -683 140 3140 1002 -592 -1874 1508 677 -1165 2238 1061 -1319 508 -520 -389 1739 1732 -865 1319 -14 18 1936 778 -464 2405 643 -2647 2704 -1890 -1823 -1187 59 -1205 -882 353 -2682 -280 -707 -2325 -543 -629 1581 581 411 1430 348 -375 1820 203 -2259 -2639 -2444 -4457 -3564 -2985 -2172 -1727 -3039 70 -4 -4746 -703 1633 -3926 -1871 271 -1819 -1725 -2221 -1891 -1577 -1855 -2554 -1398 -274 2627 975 -4822 4765 -154 -1801 2485 605 942 -804 -754 660 -648 -746 1578 -2681 -1517 1027 -949 1541 -82 -3844 -1048 -1098 -538 180 -520 2846 2486 -103 -1652 -678 -1389 -2085 2911 -725 221 -1648 -3110 2018 -509 -2417 2803 826 -291 1675 1099 -1314 5291 5017 -1170 5519 5004 -3183 -1570 -2227 -211 -476 -1995 2862 -4488 -1905 2380 -190 -65 1933 -731 -662 -507 -3349 -1908 -1842 2771 -590 -1562 4454 -814 549 5020 1231 434 -1207 -2547 -2645 -458 -1078 -311 -2392 -254 2064 -1816 438 2101 -587 2539 3380 0 1548 2032 3355 994 -4104 2917 -1155 -1073 5235 -670 2629 -3024 587 3512 -5268 -2394 3779 -4765 1706 4393 -340 -377 -898 -69 1243 2595 0 1578 3459 -429 -544 1756 2007 1184 2157 1007 1208 703 -5773 -2134 3751 -8769 845 3068 -7404 -376 766 -558 868 1503 503 422 536 -806 416 2138 -3656 -3536 -920 -3758 -1935 1054 -4947 -1615 803 778 -1682 -2983 559 -992 -766 830 -144 1484 -718 1772 2024 -1961 2034 1420 -1331 1450 1501 1240 3226 3048 1540 3718 4457 2361 4096 2301 -2844 -2445 -613 -5144 -480 4697 -418 -209 3191 -1072 1685 1922 -1315 2947 526 -1563 720 -768 -1021 469 1240 180 2379 1255 1261 2244 -882 -1039 1046 -196 640 2376 2887 -677 1558 3338 147 -1 493 -1082 901 896 -975 -2027 -1859 1588 -1590 536 -70 -6 910 -1956 -1186 130 -1414 -892 -744 -58 -1922 1604 -1416 -740 258 -3253 116 2724 -3621 1707 3503 -4870 -954 947 420 -1470 -2623 5 -1188 -630 1456 -687 -1131 455 657 222 -2299 329 -1874 -1967 -558 -313 -576 1886 2824 1748 928 1397 1555 1584 -572 1697 -243 933 622 -1865 798 2028 -2428 -1455 -2151 -1635 -983 -1792 514 1922 -1096 -615 1543 -3096 -308 755 -3546 -15 833 -2853 -1216 952 215 278 -5044 2415 -717 -2753 2056 -136 -889 -1488 -22 -709 -3023 1504 1397 -1120 404 -376 -2707 -2923 263 -6397 -4419 376 -5639 -3791 2118 169 1528 182 -2669 1146 477 -2802 -64 -505 3146 4039 2641 5432 3516 1315 5250 2704 -2064 2856 -137 -3165 -878 -3339 -4169 1659 -1805 -2410 -2256 -1549 508 -5963 -3530 143 -8154 -6555 1432 24 -21 -1050 -1443 227 2039 -2615 -404 -36 110 -623 2462 -2983 -124 1312 -3053 -510 2228 2352 -800 -4203 5074 639 -4245 3633 591 -3262 -842 1325 -238 -1430 -1940 -491 -2868 -1946 -2452 1325 -1537 -564 216 -1177 664 1045 357 593 -2482 -2620 -3526 2621 4551 5211 -3405 -2820 -3602 -1867 -3301 -3069 2030 2779 2849 -1402 183 -1224 351 -1338 -1217 -1554 -2145 -2527 962 2368 1350 -172 -1619 -1645 -1608 -2911 -3602 522 -1715 -1023 3015 1789 2620 -10 -1139 403 3627 4369 5701 -505 1097 525 1254 -536 177 403 -1713 453 -484 -1829 -676 1422 363 706 532 -40 -285 2696 10049 11238 648 -2440 -5066 -3131 -1323 -3207 2525 4601 4874 -4854 -6776 -3941 798 1014 2977 239 417 1114 322 469 -924 -2584 -2827 -2427 -2116 -3079 -2405 4299 6552 6841 -4541 -3409 -3249 -542 1991 2721 -1339 -2308 -3667 665 1136 -245 -5503 -9639 -9612 5120 7185 7529 516 831 -670 -1606 -1269 -1438 1174 1722 317 -481 -854 -2120 -68 645 589 -4143 -2750 -1422 1104 -1238 -914 -2465 -2248 -2314 1308 1826 2134 -521 -782 -618 -870 -1225 -1668 249 963 866 -1307 -419 111 -1994 -3209 -2026 1806 -2634 -1112 2535 3493 1073 1216 1781 1049 272 692 1055 1219 -115 -491 -2782 -1184 1382 -1399 -1634 -1513 -881 -2451 -3003 644 339 2122 -2451 -2535 -2867 1348 1124 585 -1572 -43 470 2241 4821 2981 -2600 -1425 -1089 3326 3237 -268 128 -1384 -3850 1167 2584 1604 -857 -2360 -2354 3447 1440 2241 -1786 -1223 -2134 -4155 -5527 -3956 1659 6150 7943 -608 -915 -3938 -854 107 1551 130 -1287 -853 2307 1270 1297 -1725 503 3043 2853 3922 3092 -3687 -4368 -5555 -659 -455 -934 123 636 -439 1406 1186 796 1739 3038 2236 -2146 -2845 -2060 -20 1992 2188 -2090 -3617 -2559 2369 2945 1524 -1743 -3120 -1759 -2697 -5719 -6365 3484 2995 3163 -502 2385 2015 -1543 -1542 -907 633 1440 1159 167 -684 -1746 622 852 1965 -56 -1959 -689 739 1149 1841 946 245 -512 -1361 -991 1015 220 1467 1976 -1165 -743 371 -516 601 235 751 1695 1862 -572 -33 130 -1414 -1780 -406 -269 -460 293 6256 10182 8943 -6160 -8523 -8322 -2816 1029 3502 -1569 -415 -1083 -307 -432 -429 682 1792 784 2563 3866 657 -1566 -708 22 -1851 473 -149 714 -979 385 1158 3031 944 -989 -3349 -1132 -799 -1096 -420 -433 -268 -350 -407 1178 -1593 -875 -623 -541 -310 -840 125 577 -2288 -1327 -3948 -6438 -5602 7643 9095 10237 -2706 -4799 -5776 4605 2699 -1383 -3235 -5130 -579 313 2321 1551 1826 3078 2610 -4938 -5033 -4411 1981 2987 2176 -33 834 -180 548 1263 984 -1095 -1651 -1809 1699 2114 -391 -1829 -2697 -750 1794 4442 3253 -2701 -3252 -1078 3820 5921 2893 9 -3995 -5342 -830 -319 -1238 -1834 -3034 -3450 1882 2878 2785 4419 8198 6414 -2263 -4173 -4961 -157 2265 -52 3941 6099 1192 -439 -4962 -4229 -1816 -126 405 737 -274 1646 -1400 -3856 -2519 1917 1159 -377 1800 2956 1889 -2164 -3363 -1771 -50 1600 1563 369 278 -1330 8 1277 -45 -52 -852 -317 -896 -1494 -2153 -457 348 780 723 464 2712 320 -1096 997 -406 -2132 560 2259 -1389 -1102 906 2803 3331 -4701 -3783 -1464 -671 -2158 -850 -5349 -3599 -4075 3133 3850 3786 594 -850 -1387 3397 2302 382 -5277 -4939 187 -1797 739 216 2665 3251 1682 -2385 -6973 -3678 875 -308 711 -1379 -2546 -1131 -68 1064 769 -724 -849 977 266 1512 1007 914 1641 854 -1816 -1783 -2511 -997 -1858 -360 1708 1068 -1029 -1785 -1906 -1578 -1225 -677 1850 4097 4886 1630 -6107 -6292 -129 1302 984 1785 1163 663 326 272 -1870 -1866 -407 680 -2977 1924 -558 -157 -1140 1457 1976 -2860 -1117 -655 -1686 -133 -53 -704 -124 306 -1665 -1996 252 -2658 1020 3367 2399 -385 -1942 5075 3632 4360 2013 1456 1480 3002 2315 3085 -897 4295 -1030 2499 -1329 -4253 -528 -4100 1795 -512 -241 -1195 175 212 -973 110 -885 -2042 88 1500 -1636 -335 430 -2550 -446 -1720 -1161 3053 239 -1398 -4312 -2549 4815 1622 1912 1256 -719 756 817 1824 1642 -120 1155 -1339 -2101 -767 -1296 635 377 -682 -2741 2114 145 2966 2251 -760 891 -1209 -3122 476 -153 1321 1022 2315 -3400 -1524 -4250 -1373 178 -1667 2070 1046 -204 830 149 -1194 916 2810 -198 107 -321 1156 1171 -349 1034 -147 -2329 -942 1311 978 -539 247 -2164 816 -2827 -2704 -1305 -2224 747 1232 1058 -546 566 1375 820 -1446 -493 -674 -2926 -4559 7022 -2204 9815 685 5492 -3303 -5856 771 -2457 -114 -1329 522 1581 1150 1850 983 334 -694 2622 -4284 -894 -27 885 -1499 -4774 -1958 789 -675 1098 -4770 -916 983 3525 206 -3034 -756 574 -184 1716 243 -972 414 2116 -960 -3044 -258 -131 6390 4680 3952 513 -6923 -3922 -5240 -486 -1783 4141 2609 2547 1631 -7638 -39 -1015 -469 347 -416 -2904 -1142 -1385 -392 -909 -2658 -1896 -1820 318 2425 1314 2255 2250 -396 494 698 684 -277 -253 983 -1605 -2974 -997 2065 -248 1309 1126 -2287 1714 35 -1427 3084 -4066 -4258 -4158 -4532 4439 -575 6067 608 -587 1553 -3816 -311 -6574 1578 -2879 3013 3982 2262 -1948 -1541 -4726 1235 3855 -958 2773 1787 -2623 1787 2086 941 2374 -2304 1010 326 -4049 267 1867 -1626 1304 -216 -2382 -324 -1028 709 -194 1675 -348 1896 276 -2377 -2572 -2499 -1175 -109 1057 1715 -103 1331 -694 1357 -1359 -4216 492 -99 -1593 -2132 -430 -526 67 823 -1918 603 5069 -14 3748 -5121 -3101 -1969 -96 5118 -5552 -1390 -1270 -1299 862 938 -1212 3435 1736 7700 -6288 -6187 -11568 -3994 16992 6649 11573 -9119 -2700 -179 1146 241 446 345 -382 723 -577 470 -3873 -4503 -3303 942 5842 2195 4596 -2285 578 1308 -345 2178 -134 -634 1115 -1282 2971 197 1579 4549 2073 -3503 -2163 -3135 -226 2975 -51 -247 1148 696 937 -320 -656 -1804 -883 -1826 -618 -1196 -91 1329 -2249 1538 156 2456 -292 2033 379 1635 1879 367 -221 -963 937 -8073 1101 10304 5166 10755 -10243 3491 -9567 2011 925 -3869 -153 -2653 -1478 363 -1870 13 4110 2847 -985 -7399 -1165 -7445 3287 -2272 2413 2258 5453 -1369 -7482 -4443 -14294 12457 -3996 13941 -2020 -805 4152 -654 4438 -3197 -3576 -2557 -2900 3069 -659 -775 -2327 -347 -1878 300 544 -567 2109 1303 1078 -2288 -161 -1163 -760 -1091 2277 -151 233 232 787 -661 338 950 265 609 559 1812 4552 73 3189 -4383 -2798 -3709 57 3264 1971 860 -181 1614 -1955 -1622 -240 -782 -866 -353 -2073 -1362 -3312 -1554 2328 204 -676 -458 -2432 -149 1700 185 1465 -1571 -11 -971 79 3791 1042 -2961 -2639 -7703 -4672 -4284 3289 4770 2927 -2992 -1588 -2527 1886 3897 -541 1584 -3088 -3904 698 -446 739 -1320 263 -121 228 -2689 -1402 -27 -17 -1223 1854 1597 -1172 1204 85 -1208 2796 508 36 -529 -1439 -1189 -1484 365 -5187 8410 1638 10943 -4886 -7944 -5352 -2949 9773 -881 -5790 -13938 4132 -919 -6154 11147 8294 2748 -998 2085 3915 -1275 606 1686 -4415 -4211 -4980 1594 -98 -2701 764 -162 -4341 -2128 -3477 -6279 -318 -1511 -2322 1549 869 -3206 2928 140 -3264 -3700 -4824 -5032 -1457 -1373 -2713 488 787 -793 4100 2861 -384 6416 1901 -6753 5363 -1778 -6891 3103 88 -1730 1709 -298 -768 9 -2442 -3932 2807 2474 -410 -4149 -5276 -5033 -7345 -5922 -3143 -4176 -5132 -2073 -4224 1403 3245 -4997 1701 4476 6712 2935 -3688 8585 1230 -8390 5108 -3231 -9185 -1454 1274 2469 -829 -457 -1434 -4280 -4332 -3488 -5097 -4807 -2433 -3791 -1985 847 -3278 4220 3661 -504 188 108 -3602 -1297 -22 -2774 -417 2044 -1165 2164 2106 -3670 -41 124 -4175 1110 414 4645 1943 -2521 7608 2416 -5682 4891 -4162 -8239 3443 2451 2360 2251 1224 -1043 -3767 -8530 -8108 416 2034 1786 362 2941 3508 -5066 -5242 -3377 1749 1284 -1665 -84 -1633 -1552 -2541 -3216 -1008 1203 -1410 -2663 49 -1273 -3838 -1018 -1528 -2935 3387 5192 5445 -572 -226 -808 -6106 -4957 -3260 675 -955 1124 1315 -802 1368 131 -1008 860 -3816 -4909 -9433 3114 3190 -2237 6380 5265 2286 -10 1466 -1872 480 2985 -675 1001 1478 -1289 3296 3655 995 2374 1500 -2074 -2604 -4222 -8612 423 -2768 -3518 -718 -1019 787 3472 3787 3485 4558 893 -2528 3922 607 -2817 708 -2617 -7258 476 4073 4686 -1561 1213 -4366 -6480 -8971 -10623 -1027 1028 -1284 903 4233 -252 1723 3763 -867 -2500 -1078 -770 427 989 3970 -1401 2324 3775 3375 4358 2852 1415 -303 -1436 -3565 -5942 -2305 -1104 30 1391 -2228 221 59 -5287 -1217 1580 674 4002 4717 -1138 989 -381 -1984 -2861 -4081 1355 312 -246 -552 -2422 -177 -2585 -1453 244 -1102 974 -1395 719 2271 -1659 -1021 342 -3513 -819 -555 -5565 -85 5355 2215 -198 7187 3409 2470 460 -36 224 -683 -611 -1340 -1103 -1658 -458 -335 2352 -377 1696 558 -1929 2906 -291 -2329 -2034 -1502 -2049 1896 2655 -1680 1984 2165 -847 1902 44 151 581 -635 -828 -1284 -969 -2558 -687 -1948 99 -388 997 -1398 667 2059 -1725 -2163 1372 -2589 -429 3469 -1920 1489 3078 2331 3539 5644 -774 762 1890 -5057 -3970 -2388 -859 -1961 -4031 1330 -258 -3297 2975 1809 -435 -480 -2371 -1737 525 142 3299 -109 1524 1836 2940 3315 4988 -2191 1158 2938 -5796 -2499 -1920 -1130 -779 -3105 66 189 -2588 -1790 -1276 -2728 -2029 1118 1357 -878 1709 1925 -2904 -2493 963 -990 -3963 -4676 -1082 -678 595 1810 4494 2182 -130 3337 3553 -1210 1231 -822 -2780 -1412 -2005 -1470 -214 1315 -2940 -1250 4205 -3524 807 2315 -2108 -1008 -2511 -2504 407 166 627 2949 2402 3760 6148 2701 986 2735 -2777 -2097 -3279 -7738 166 516 -2208 -1991 -564 0 -922 2895 2945 6936 4825 -3142 6104 2540 -3800 2539 1427 -3826 4645 4371 1365 5437 3682 -1564 -2083 -3939 -2565 -5232 1117 7688 -7019 -780 8858 -6177 554 4463 3078 1090 -852 2225 1436 -3311 3232 225 242 2933 6723 6127 1703 1045 -517 -3230 -7059 -6348 -1882 -54 -1019 1076 1458 796 580 3576 2092 1087 531 -77 837 859 -860 -2569 -2030 -2304 -3470 -1262 424 -3689 144 2794 -5070 -512 2336 -1591 -450 -2050 905 1664 -921 -1755 -1464 -3611 4731 2157 -2462 9502 1654 -9882 8111 -2449 -9857 -99 -2136 -3921 3740 -131 -6455 2565 -449 -1308 -922 -1197 -800 538 -1015 460 447 1377 1629 -103 -567 -283 427 -1247 -1512 -228 -1693 -1371 762 -599 -479 1822 -1725 -1773 -422 -3147 -2999 1735 1609 -6831 1809 -2156 -5925 291 -8900 2949 2243 2252 -1328 3743 1936 -2405 4701 541 -2211 1396 -1200 -1592 -769 -3899 2688 -3967 684 3439 256 1225 849 -846 -1034 -529 -2833 -2034 664 -784 -1281 895 -521 -1471 -578 -2508 151 282 948 308 -2122 3821 -7645 3147 300 -6834 7639 467 -2630 656 -2042 -1891 3100 -1785 2302 1003 -1420 98 1362 -1066 -143 -967 1002 -202 -748 1605 4896 -2759 5198 -677 -575 2478 -3821 4520 -1414 1486 -763 962 3189 -2181 5431 -3070 2 1985 2385 263 3705 2360 -1667 2483 17 -2657 -1854 -3386 3380 -3745 -1306 6681 -1691 5486 2523 1896 -490 -877 -303 -1356 1257 -1269 -1093 1297 973 873 -1101 -102 -971 768 -1058 -1768 2800 381 2046 -323 -539 4633 -2289 -308 2945 -4137 -2093 -932 -1641 -2043 -1219 -109 -1228 -514 1021 2093 661 1491 -130 527 69 -1958 1648 1500 538 -3575 -978 -1591 -9562 5606 -6012 1097 3857 2277 2938 -2688 4115 2785 -4969 4355 -1764 -3690 -712 4205 -440 2024 3619 -3394 5305 2583 -519 -687 -1728 -120 -941 -2331 2731 -3251 -267 3234 1638 1353 -1677 1025 -1695 -3287 587 -2225 1846 -508 337 -2997 -882 -358 -3276 -690 330 47 -3916 -301 6006 -4336 -501 2162 -6597 3626 2934 -765 -1125 -2179 -741 -742 -1489 -542 134 490 -346 -930 578 -175 335 513 1177 -602 2092 355 -531 1190 1621 -1039 1716 -1723 166 479 1116 5124 -2626 2985 1551 -8270 3962 -8326 -1716 318 764 -873 7 -792 -593 191 -791 90 -2128 138 1662 -1989 3710 -881 363 1979 -2978 -118 48 -1421 604 1080 -1100 321 -1476 34 846 -1908 1252 -1 -2563 2019 -917 882 2531 395 180 -1162 229 311 -1248 46 -342 -1690 -957 -1512 4913 -3047 1293 2765 -4451 2036 -412 170 2253 925 574 1510 -30 -2664 -1124 -174 -2473 2018 37 -3478 6159 -5249 -1639 -16 -3042 1543 -1906 5483 -1116 214 5632 -1693 2749 732 -459 1936 -1359 527 1310 -4443 -535 -4429 3792 1373 -3316 2044 2549 -6187 5102 1653 -3400 5992 -1492 141 321 -1244 182 1929 -149 1228 1551 -3575 3188 -2064 -2649 1827 -2685 2206 -2652 1456 -427 -1362 -1339 530 -2424 2859 135 -2393 4436 296 1252 338 630 2120 -305 619 167 -197 -2496 -515 689 -1217 5155 -2627 1584 6518 -4640 1521 2672 -3586 2867 -6013 -312 1092 -5091 8215 878 2535 -646 1721 2730 -3187 540 -2888 -230 -1928 250 828 -3278 4076 2626 -3221 3011 -1290 -2152 1366 -216 1093 3286 -1190 1316 1271 529 1611 2118 -2150 2239 1439 -3993 4037 381 -3554 -290 997 35 -131 3415 -2197 822 -266 -1935 1457 -612 -823 2252 -1142 -1329 2405 -1538 80 781 -1505 893 -3445 -765 125 -2639 2579 -1793 -2326 -4892 1078 -1240 -3482 4877 185 1554 5983 -1488 -3698 3940 -1474 -707 5509 2527 4261 290 825 -4146 -3702 976 -2271 1693 1434 -3572 -1388 -1455 3010 1152 -1149 5095 -548 2662 2109 -4345 1179 81 -1585 2469 -1453 -2699 2534 -2880 -3364 1795 -1093 -222 88 -69 -757 -784 -1677 -2098 424 186 391 -151 -882 223 -114 -695 1043 -2863 -1758 -1530 -1529 -1225 -609 -1239 -779 3805 3417 -5798 3670 5979 -15706 13744 -5345 623 10634 1980 2676 2879 -1027 -1092 722 -4392 -893 -189 -318 -515 821 -2094 -1645 948 -1443 -1635 213 -1443 -2057 -3534 -1052 -2481 -4131 -258 -1118 -2161 -3400 -3434 -1342 -6525 -4750 -1371 -1634 -2558 799 314 -2072 -4066 699 -3431 -5145 1226 -3021 -3869 -5471 -3419 429 -14591 -6852 676 -6494 -4442 2770 -111 80 718 2861 786 1427 2137 423 1550 -1418 -2994 299 -35 -2969 -644 5428 2122 1093 1171 965 608 2475 133 147 4869 4061 94 -9080 -4068 2396 -16834 -6679 1864 -7412 -1355 2506 2550 1840 1916 2177 -1004 3259 2248 1127 2433 980 2974 2720 2700 3191 -1877 1420 -806 -175 820 1301 1104 1240 1421 1330 3502 2185 2669 3322 5052 5789 1320 1932 3993 -3650 -1152 50 -5303 -7271 -10 -12161 -8572 -819 -4964 -6771 2181 -403 -1462 -924 1293 -335 35 2794 92 -386 141 -530 -1449 -609 379 57 304 1232 590 -3148 -3302 -1393 -883 -288 1005 727 549 3456 -2958 -3228 -2406 -3410 -4580 -4501 -4076 -5444 -2348 -1044 -2995 -66 -1000 -1693 1568 5235 2780 3761 -3249 -3536 -175 -8044 -2691 -818 -2032 -2690 1097 263 -239 2721 -463 -211 4424 -2292 -1237 3667 2172 -1223 1894 -2219 -4681 -664 -576 -1239 -152 2570 -1020 -1765 603 -2703 -1361 429 -1583 -435 883 1274 3594 368 69 1123 216 13 445 -1872 -1947 -235 -864 -1406 -2567 1654 -2142 -1350 -1697 -1669 -1131 -3029 -2326 240 3132 1412 2919 765 -1190 455 2571 -1262 1046 2463 931 3448 1753 -817 2356 4816 661 4379 3793 1260 4742 -2086 -3496 -1941 -1973 2167 1146 5431 3883 4176 -1166 -59 346 -1982 495 -110 -2910 -938 493 -731 -795 158 -473 -122 792 1741 -337 1852 -5362 -1639 -406 -627 2325 2309 -827 1042 2024 3459 -1602 49 5144 -877 920 7070 2065 3857 -3586 -3095 -3030 -2036 -2049 -2151 -687 -55 -274 -1730 -2617 -1820 1838 -247 -268 4671 1527 1004 1205 57 -588 -1177 -1752 -4397 -437 -4136 -3805 903 -800 953 5029 1398 3029 254 -919 448 -811 -623 -2561 3744 1433 -504 2396 1287 -358 985 -3748 -2918 1820 -871 -976 450 1346 3550 -1635 -705 -1163 26 -275 1152 -1585 -2382 -1479 1680 -1344 -2425 2978 1710 -2337 3621 -572 -3196 999 1290 2529 1131 -2887 -761 404 -2346 -1194 58 -1870 -1135 2453 1418 3304 1054 3113 4417 1498 -507 -1325 3775 1492 -1539 1573 -2230 -2974 -1082 -2212 -1060 -645 -1234 413 -1988 -2439 -712 -540 334 -636 1602 -2701 357 1373 -467 -852 -832 2255 3802 -917 -1225 1291 -6 -2167 420 2040 2619 731 2108 2825 1458 92 -388 -668 1364 264 1053 1912 -1105 3579 -1814 -2829 139 3307 -37 -1116 2675 1914 846 872 -585 -1553 -1561 -2642 1886 1439 -77 2412 5106 3548 4116 -367 -708 1377 4794 -165 2175 1444 406 2856 -4786 -5061 -3150 -1191 -621 -313 3222 2927 4466 -1652 -148 1845 -446 554 1282 748 2972 3017 812 -275 -2569 2274 -555 -3940 2198 -1173 -3326 -3383 -4011 2826 -9196 -3986 1310 -2745 -2923 1675 263 743 2798 -2591 931 3768 533 825 2926 -1347 2443 2004 693 1009 858 -1204 -277 1322 1701 -67 387 1060 -1696 -3443 -1366 -1963 -1412 1962 2339 4112 2230 870 2997 2301 1332 4233 1747 180 -682 1331 -288 -695 1906 -418 -947 -10064 -8290 -1720 -21165 -11334 -4455 -13319 -7621 -1576 -1351 -4241 -4573 3567 302 306 4322 4324 3274 1126 -1539 1437 1307 -843 -608 -800 967 -163 264 2387 -2510 -2669 279 1916 -1253 -2850 40 1042 -760 1442 2020 -183 -909 230 358 745 -1300 96 -585 -2696 3794 3073 -1287 -3038 1734 2250 1305 2134 827 -1150 -260 3642 566 584 -3335 1187 -1282 -1184 -1846 1160 -137 -3153 -348 1783 -2050 -1466 1967 1593 -2649 -2489 1961 -912 -1985 -1920 395 -651 -5443 -785 613 -792 -2269 -2709 -670 -619 -827 -1437 -212 2993 -1078 -562 -1013 2903 3368 -3035 -2786 2245 7 -4019 258 -71 -1432 5 2866 2261 -2536 -261 2407 -11 4511 -13184 4623 9716 3143 -10932 -11018 12766 323 881 -2409 123 1644 -2467 -9 252 4022 -1739 -893 -14 -369 1161 458 -876 -502 -14 272 -1946 -2173 3537 2942 -5377 165 2776 2030 -1196 -1039 -996 -1758 -256 2616 824 -735 -799 187 -1215 268 -116 -1166 57 1478 -392 -2162 1101 2076 -6771 4774 6335 -3399 -4804 -1372 5277 -3778 552 -2930 -651 3437 398 -2526 312 4533 -1640 3454 1141 -864 660 1194 837 -3536 -2590 -196 1384 3877 -487 -2878 605 1772 -4994 -2826 2234 9 -1390 -1617 2011 811 1025 808 192 209 2440 -523 -4235 -1111 9471 709 -3886 -2759 2608 -143 -146 -1369 1382 1269 -1876 -1874 2311 539 1707 1336 723 885 503 -1150 -2524 1140 -328 -892 -1575 -2193 -549 184 -172 644 -695 3494 2255 1559 95 416 2866 -1271 -2956 1201 -132 -548 -1971 -1001 2135 779 -1533 1147 2774 -1438 -1998 -1724 497 64 -1037 834 -695 2604 -153 -2998 897 -1126 -338 -802 1723 568 -1590 -1799 1537 -2225 65 3053 2891 -4527 -4367 7657 3576 -92 1418 1345 -2262 -3066 -910 1714 -2264 -2150 1355 -1766 501 2224 2198 -348 -1455 3335 271 109 -2365 1218 3398 1120 -1007 -849 1212 -770 -2078 -2264 284 934 428 -352 -1497 1067 -62 -101 -1488 -1658 1414 -359 -1741 1636 1868 514 6840 1408 -4043 -2320 12191 159 -9086 604 4866 -21 946 -974 -740 1556 2091 -518 386 2939 -936 -2199 -1158 5010 856 -4571 -2963 5219 23 -731 -2573 1520 3606 -7346 1811 1967 2607 -4645 3622 -7350 1324 6084 4940 -6097 -5922 6945 -795 -514 -1412 1570 1852 -1014 1313 -2390 2920 55 168 -1742 1646 -1103 -272 -628 -290 -2113 -1417 -1760 346 376 -1691 591 -2574 295 911 -880 -2908 -3675 -88 2327 -2419 -1905 504 3493 859 163 -927 -744 141 1301 -672 -2069 395 -1096 1697 3194 -2673 -6464 6212 6932 -3544 -9667 1521 455 -3230 -1214 -291 2719 -4026 -5665 1835 311 5043 3575 -5921 -5611 11347 -652 -8269 -952 2789 -719 5156 -3670 -7545 4441 2362 1518 -7896 2250 -2831 5899 388 -2853 -6422 7378 5979 -5256 -402 -1867 -1693 -1496 -215 -4048 941 153 334 1104 -1621 -3313 999 2966 -1423 -2401 249 3560 515 -1403 -2216 5425 -2229 -3969 -695 -2774 -3254 -1865 812 -3272 -2270 1859 1498 -5009 2628 4439 -1058 -78 -1950 1608 296 -1424 -297 -845 -1261 -601 346 2090 1061 -1261 97 2895 1362 -3437 -1485 -353 -1392 579 2648 -3249 24 2568 119 -1268 -7530 -2599 4691 1830 -13683 728 10727 115 -3042 1911 -1854 692 1741 1136 -3672 2717 417 -755 1281 18 -377 -1144 -1074 -1802 794 738 740 1475 256 831 437 -1067 325 2507 -241 1077 -1189 170 428 -1326 -3356 1137 1602 -3695 -1685 2079 -8027 932 4538 3958 -6492 -4981 3677 29 -615 -395 535 -1732 -842 664 -167 -20 1051 -1240 -2680 -2283 1109 -351 1872 1648 -713 1595 -1223 -1188 994 -1998 -2646 1015 -511 -1044 1059 -2602 5111 -7137 -3563 7113 -6017 -3236 5602 -1432 4620 1666 1544 3197 -186 -452 4580 733 247 -939 4018 -2079 -624 3425 -3435 -1887 3777 -606 -495 -952 932 -611 -1313 914 -1064 -1130 635 -4703 3765 -1660 -5608 5912 874 -856 2453 1543 -5566 10944 -6424 -5846 12401 -7420 -6329 10315 -132 1428 125 -295 1511 548 626 650 62 723 809 770 2142 -13 933 3754 -54 -407 2131 -4058 8155 -3936 -4626 9844 -6737 -2447 3878 -1348 818 -886 968 -538 -2466 4942 -175 -2662 3725 -3483 -2863 3359 -1915 -1477 5620 -2557 -3527 2662 32 4430 -5664 -329 6597 -6559 -742 4738 -3976 266 663 -1990 -2132 -510 -965 -905 -12 -906 -605 -1399 -1651 -388 -655 -492 -17 -718 252 -120 -3412 3975 264 -2965 2913 -356 172 1143 1729 -19 -163 2794 1021 -773 1787 384 -1709 -2079 -2580 -538 -177 -1775 -431 -179 -309 -1113 1767 -110 -7700 2785 6777 -9957 -739 8806 -5747 -2705 -4640 4630 -2062 -4998 6856 1157 -5828 4994 1082 -1427 2175 567 -4183 2219 419 -1870 730 22 -146 -2006 361 -192 -1318 -1557 548 -1172 -1203 -601 428 -224 -1676 933 739 -1075 467 2962 -1491 -2231 3355 -1354 -1680 2791 680 -2360 -1742 -2901 57 -1128 -2467 -493 -937 -750 -1082 572 1033 698 460 434 -369 628 322 268 -702 1211 -447 -506 -1112 1657 -266 -118 1144 -599 -928 -2072 -458 -1469 -654 1699 -1302 -310 3816 -2162 2603 971 -6502 3658 -299 -2888 2828 -1003 -1283 -184 -852 -250 1003 215 -695 332 1162 -3446 457 4199 -2590 503 2120 -1675 1431 -2302 443 512 -1741 -101 1648 -873 -445 1365 -306 290 -1680 204 2356 -1291 -595 1438 -1670 236 -449 -2185 1089 275 -2883 1822 1988 -2221 2655 -739 1475 2738 -2182 -626 457 -72 1321 -639 -2695 234 1662 -1481 2032 474 -1769 339 2358 -4048 918 3668 -2853 484 3729 -2512 -2036 3951 -5446 2369 5207 -5325 1992 4589 -6325 2080 1287 -1754 4492 2895 -5391 5627 176 -2824 2511 341 4004 -4628 1480 4881 -3580 -1336 3674 -3954 -298 994 503 -1232 -1299 747 1415 -2296 -847 1731 -2848 -1776 302 -2571 1703 -625 -4119 1520 2638 -836 -5152 3421 1326 -5275 500 3508 -4940 423 -682 -852 1104 625 368 572 -232 -1198 3218 -7992 2233 4700 -7356 2485 3708 -4306 -473 -873 -1243 1300 -2243 -662 506 -1179 -2490 1691 461 -1702 -994 -376 -1821 1759 529 618 558 -1767 -2487 3953 -383 -5377 3703 1326 -2350 974 411 3856 -4559 -737 6129 -4535 -220 1350 176 -445 -1373 233 -1852 -1550 -264 887 -1037 -296 -832 1194 -1248 999 -794 748 1341 -1611 459 326 1036 -1588 -1146 326 239 -523 -2744 502 409 -4409 144 -1118 -2143 1093 -504 -622 1182 835 -658 521 881 -3046 229 1204 -2584 1864 2335 -3420 -682 1386 -1527 -1817 1259 89 -3302 -1871 -838 231 -2964 -1394 1756 -4444 -3028 346 791 -2130 2872 -415 -5999 3815 1639 -3883 1026 4198 -2619 -3000 5166 -2915 -5546 801 4159 -4306 -393 -1667 500 -504 -1851 1458 851 -1338 3295 2062 201 -998 1491 260 -842 863 -544 -2153 -1516 3358 -1705 -2065 2811 -583 -2837 663 1641 2427 -4881 2415 4718 -4401 332 850 836 69 -450 -39 -189 -1116 -689 812 -2022 -219 1370 -1672 -1918 -2461 1491 413 270 2462 1146 -87 659 -146 -3997 895 -327 -3884 713 878 -2279 -1188 -4361 6489 -2232 -4719 15578 -2660 -5032 14127 1779 2008 1886 1355 1630 1930 2234 2685 3251 -3435 -3632 4178 -3418 -2421 6636 -3796 -812 2889 -379 741 -838 -713 867 -1999 -361 714 -2320 513 -3283 2104 3033 -5445 2123 1535 -5288 1996 270 -2982 -435 2262 -7991 5431 1183 -3020 7257 -3406 -693 1178 -2223 854 2674 -2152 -402 955 -460 -390 -1213 -835 1573 -1637 -309 -36 -544 -2342 -1738 2652 -1816 -2857 4146 186 -2543 5848 -485 459 -862 691 2431 -3316 2688 2638 -7334 3869 -927 -5362 5825 1352 -4283 3447 -77 -4367 42 -3190 1728 990 -3298 2805 -221 -925 1619 -50 -1584 629 -1314 -276 -498 259 -1089 -1674 1219 -421 231 1249 -2810 115 719 -2116 117 177 6775 -4423 -1883 4663 -3152 -3491 422 -2279 -1808 1626 114 -2318 1318 1401 -2780 671 1331 2700 16 -4161 785 -1345 -2441 -2079 -996 -790 -3407 -4759 1896 -2267 -4533 6507 -2749 -272 5675 1628 2416 -4635 3708 4513 -7426 4695 3995 -3680 -531 -3401 -4 -876 -5473 804 1418 -3304 2624 1056 -1299 585 646 -3288 2079 1872 -2935 2106 -361 -1056 -412 -731 -1319 -686 -897 -247 -1385 -2874 -2101 4434 -2134 -1096 7995 -3176 91 6410 89 -1158 -2779 -831 -562 -4076 -377 6 -1081 -100 -732 2341 -393 -834 1830 -230 -1656 1139 -1356 686 -789 -1981 2197 -1012 -780 1061 -3002 -80 -858 1034 895 -1941 -2500 3451 -1963 -2967 -3047 736 854 -2467 993 952 295 -1246 2845 878 938 -619 1226 582 -276 685 -717 -742 -2177 3981 -391 -3392 6184 -2545 -3541 6507 -2905 -1902 21 -1495 350 2213 -1512 -279 1211 421 163 -1735 -285 -271 -1809 1144 -941 -1520 1398 -51 11 -1508 300 115 -827 567 123 -468 -642 198 903 -1044 1341 -2686 -184 2241 868 580 -1029 1431 265 -2266 2008 -854 -2701 3033 -705 -169 2326 987 -2059 1826 2778 -2565 1319 86 1581 -1371 136 4913 -3868 -929 3105 -5032 -1493 1784 -2294 118 250 -2705 1742 157 -3495 973 294 -2348 2787 -795 -3784 650 -1356 -2592 3002 31 670 348 -477 578 -404 -1713 1364 2195 775 -757 2520 -4725 4765 2610 -8697 4287 -1766 -1366 -541 -1626 -2086 2757 -2469 -354 2619 -1141 -491 2120 217 486 2680 -493 208 2127 862 7207 -7210 -3221 11914 -10836 103 8789 -8236 843 1431 23 -550 -1568 -1140 3142 -2920 -852 -2127 137 928 -256 1196 -2073 754 1920 -1720 264 2692 -6 -1733 426 -1956 -2160 2021 -1182 2070 -1411 2395 -726 -875 1966 822 -223 3985 1374 -1198 -1664 3064 106 -2264 1744 713 -4368 -21 1122 -740 -7 2720 -670 275 320 33 2443 1699 205 2769 1258 -706 2713 -1968 -678 -107 75 -1733 -75 1580 -2135 -1270 291 -1092 3101 -715 -797 2809 -1889 618 1593 -1061 672 -3511 2499 1170 -3841 4528 2746 -2284 4904 847 -1137 -444 -3083 -230 -1341 -2822 239 -1077 -3125 -1192 324 2719 -333 396 3088 -761 1656 742 1079 -1991 2985 -150 -2591 6805 920 -1012 6121 264 1264 -3086 104 -361 -3490 854 -1445 -2147 -810 306 1362 152 713 2021 -1005 -627 791 -1709 -4841 5366 -2809 -4502 8128 -210 -4312 7500 848 2886 63 1685 1460 -234 668 3256 2128 394 -1986 -1242 -1127 1766 -1085 -2846 -1064 153 1457 -416 -1354 102 1531 -1960 -421 -345 -354 -2928 -1778 -543 -371 -2696 -373 567 89 182 1695 2318 -811 -1312 1154 79 1233 -1367 -2244 1521 1178 525 1455 -234 477 2547 1342 310 1357 -587 -2559 -2205 4785 80 -1399 -1483 -68 -210 -803 1187 740 -2246 -633 133 267 242 -1710 -1299 2045 -3336 -1241 -1122 -1549 1622 2173 3979 -1402 1218 -3781 -390 -1577 2645 -3541 63 -238 -1327 -1579 776 580 -1196 -549 -365 639 92 -519 -1986 -1635 1285 -863 -1549 72 15 5364 -4149 -9134 -2771 18205 -2537 -3595 -4503 5213 10230 -3591 -3928 -951 5548 -3079 -2447 173 293 -1977 418 313 -1011 317 1279 -1841 -2013 -1554 -539 -705 216 91 504 -1838 528 42 -2002 3045 274 -3078 -2236 5011 -1434 -3821 1049 715 2428 -1289 -186 517 417 -2860 88 136 -66 -4494 522 375 2821 -3885 1732 278 -44 -996 -957 -599 1582 916 -1545 -935 991 -52 -1759 -1568 467 1457 883 -34 633 -1112 -1512 -896 1295 -1541 1059 -658 4296 -1405 -2300 -1160 1187 -323 -343 1395 563 -373 -722 -276 591 668 -2302 1350 41 1938 -2364 458 -533 2675 1068 369 -1895 1880 1502 -2744 223 1756 -1127 -352 -419 -1561 3077 1081 -6004 615 2332 -1782 -128 -565 -157 -1994 95 -892 -857 -1827 -1644 -1171 1455 1682 195 -379 1953 1879 -1628 -943 -1329 869 21 -50 -26 -773 266 461 434 167 -1744 2563 907 667 -1606 600 -1130 -1018 -169 -558 -641 -532 -1745 -1162 -513 2268 1262 -715 -3133 -122 4864 1665 -6733 594 979 1303 -1358 405 418 -598 -215 1735 193 -1632 -1990 -1312 -752 -234 -79 4322 -521 -1440 -603 2611 1546 -1588 247 582 -201 -1757 864 -170 215 268 589 690 -296 93 324 -552 -139 1017 266 251 -395 814 -406 -771 -174 -1127 -920 339 -4149 5993 -1152 1685 -8634 3609 1325 757 -128 -713 107 706 520 -1110 682 650 -2371 -277 317 1139 682 -409 -4169 -669 252 1184 -1697 3223 -1756 -10427 -2451 18842 -5512 -8878 994 4007 -5676 -3803 10837 6448 -12369 -3229 853 6570 -4903 216 -2267 -1111 -1154 1552 -476 -1841 995 598 4094 -2059 -3247 -3776 4845 -817 -1615 -972 4 -6793 -1502 10287 1608 -18073 793 8413 2779 -4309 -465 1078 1587 -1448 -1119 -1014 -309 -317 -1199 -1023 248 -833 367 -36 -287 -891 35 127 -2577 -5328 1635 9970 -4228 -2824 -1330 5025 -2007 -482 -2044 7819 3459 -11515 -1549 3124 2419 -3320 -14 -1465 613 206 458 945 -1148 1198 1081 -3641 -2207 461 2213 1364 -1986 1091 897 429 -414 17384 -14822 -12854 9742 12640 2283 -10992 1737 270 6037 -2057 -1815 6619 919 -2451 -2525 -4709 -261 1857 -583 649 -1804 2330 488 -277 -464 -617 976 -4801 -382 5479 2374 -2370 -824 29 -2256 17 437 1027 -2625 -190 1547 -3 876 -1342 2599 568 -3085 -7563 -2828 3198 358 -642 -1609 -1047 -1834 -717 731 -1707 -350 1802 72 -830 -203 1165 37 -1701 -2508 2451 465 -1306 -1327 2111 -1392 -22 1220 -508 205 -958 1294 -1212 -4030 -412 2651 2393 -1459 -2370 -381 1835 71 -2872 4318 1605 -8079 -1266 2854 -818 20 -783 -51 628 -1190 65 181 -1407 -628 295 1129 -1844 -2674 -657 671 692 -1311 -1206 -792 -4963 -5087 8488 9131 -13005 -3130 1617 7406 -1638 514 2007 -2250 1719 2938 -2258 -341 -2206 -469 -1805 1348 -28 507 2715 562 -1204 -980 -658 -1989 -3303 -2887 -217 -1123 -2263 554 -140 -2341 -1470 -2311 -143 -442 -1482 -256 -385 1486 -1050 1718 1644 1397 1087 460 -491 2000 1685 212 -1558 -1443 -715 -1563 -758 605 -1089 -349 -282 873 -264 524 1311 1038 -541 955 1648 -437 6616 -3258 -5237 4455 278 -3449 -3409 -1996 4069 3323 2772 -3403 3242 1677 -2888 -1636 2863 602 112 -1902 977 -1181 -2089 -503 -493 -328 -1514 1783 1688 -1037 3153 3968 -759 1333 -979 709 -2323 1049 3237 -4493 -2583 6960 -3982 -1512 6041 -862 5231 -2151 -1974 4475 -1168 -2655 3413 -905 -961 681 -2187 1736 3296 -1248 41 -7 -1835 -714 -3889 -3038 290 -1963 -849 -1648 130 -652 -2855 1694 3092 -2912 2113 3314 -4372 891 2927 870 1745 -1127 -596 1891 -629 -1878 1532 -241 2020 -791 1210 -469 -464 230 -3701 1103 -932 1622 -207 -46 1004 -228 -29 -16 -1362 -834 -413 -934 -491 -79 114 -231 -16 -693 300 -4367 -2072 -1454 -3140 -856 -1131 -1237 -556 -2062 -606 79 -524 -415 474 1385 -98 1533 3702 -777 -1522 -2081 -1421 -997 -1500 -3483 -3512 -302 5093 -978 -3651 3615 262 -5197 3776 -125 -4709 1542 1897 -2944 1379 550 -5386 -618 1072 -2900 -3665 -3510 301 -364 -506 1083 1597 1929 257 -1250 1586 997 -1912 138 579 -2132 -985 2429 686 -394 -630 535 -574 -528 462 -1558 -1514 582 -2067 337 102 -375 379 -226 673 897 3 -788 -1675 1573 251 126 1131 -50 -704 -1506 760 409 1311 1654 -3052 1954 -1059 -2909 -345 1841 565 -1229 1361 493 -786 -693 -16 -530 -1407 1294 323 821 482 179 1079 -828 842 -348 -1672 -122 285 -1631 -453 946 -481 1457 -82 -1928 458 -411 -119 -892 -2204 1492 129 61 -968 416 100 -883 854 409 441 1123 764 3307 613 -2115 2399 -81 354 485 -668 1120 376 1179 3241 1782 -1588 -411 -1199 -1330 2609 -1197 -653 2787 -3344 641 975 -3581 -6363 -538 2457 -7138 -2351 11492 -2663 180 8666 2585 -3157 -2905 -1002 3925 -6423 -1530 2238 -4281 -54 -566 523 -575 909 1045 -1780 239 -1039 1871 5370 -1293 1599 3730 -3126 738 -2070 -378 4909 -4274 -4917 8043 -4319 -14228 5151 3794 -10390 122 2399 -1736 1795 2890 -1769 629 -336 -3998 -472 -709 -1216 678 687 -112 800 801 -291 1552 3648 270 -350 8073 -3154 -759 5222 -2782 3012 701 -4669 3664 996 -10251 4684 6569 -7332 474 2270 8 -2393 2103 496 -1901 105 -235 659 -1584 2020 -492 -939 1699 372 900 1014 -2170 -3735 10931 -5466 -10019 13396 -1821 -6676 5854 -8936 -365 10916 -10057 -363 11331 -8886 812 7750 203 -528 1231 97 1256 3169 -497 -1466 950 -4713 -900 6399 -5260 -2552 9128 -6207 -300 7937 1151 -1097 -2710 4202 31 -4019 1377 749 -2508 1616 -2542 885 3923 -3756 -2576 5425 -1350 -4074 -1340 -3100 -262 -149 -2344 419 921 706 775 -662 -589 -1399 40 -1040 78 -659 -1671 -432 -641 170 550 -3274 -716 713 -2297 -1149 1543 -93 2439 -627 -34 4527 -184 535 938 -1168 5843 -226 -7519 6934 1836 -10077 6221 3361 -6181 495 205 785 462 -242 511 -514 -824 -224 -135 -1482 -1408 -2651 -2082 -754 -1433 -739 -1384 4871 2854 -6261 4458 1822 -7987 1774 2336 -4156 -733 160 946 -1542 -3135 -1642 -572 1252 199 91 346 -128 594 -632 -906 1449 3638 2406 822 1364 1896 -2354 -1399 -1146 -2045 -1751 -1150 -1798 -1277 101 4078 1608 2009 1268 -4286 -3280 3615 3361 3448 570 -911 -555 1339 -496 29 1393 325 1091 317 -754 1773 -888 -3237 587 132 413 -306 112 613 1874 867 -266 48 -436 -1546 -1826 2183 -1260 -2060 1945 2033 511 -989 -3913 -2096 3611 5560 2742 -4718 -7750 -2294 514 -537 -615 836 1945 1153 -1107 -3 -1229 40 1853 2311 -1206 -2905 -1790 2033 6306 6251 1432 2682 984 -743 -115 -273 -1919 -1493 -3515 -1265 378 -359 -2907 -3666 -3443 -864 -3660 -2346 -2198 -1174 -1406 -712 -571 -681 4579 6560 5511 2060 2912 18 -1599 43 2180 -2882 -927 1474 -1007 -224 515 -1777 -2795 -741 3316 4150 3741 -662 -475 -1039 -584 -392 -357 2575 2482 2366 201 1208 2303 -9050 -16032 -12271 10029 12347 9213 426 1658 2162 -1287 -788 878 -850 -2018 -1354 -379 1809 2082 -2573 -2178 -68 842 -423 -1907 688 1225 244 -212 2258 3520 -5444 -6969 -497 -1988 -1939 -1070 436 -796 185 2128 2524 3641 -4384 1120 1410 2894 5611 4836 306 -5587 -7103 1046 557 -400 -1634 -1036 673 -341 -791 -629 1294 131 150 -1561 -2888 -3444 -138 60 231 2046 213 1341 252 -366 1687 -1920 -2603 -1586 -1742 -1211 -905 2722 3411 3000 -591 1323 1277 282 979 317 -366 503 188 191 748 0 566 -482 89 -343 -830 1009 999 841 1417 -1782 -2215 -2508 4263 7688 3677 -3715 -1847 -973 1461 1473 1684 -513 139 1159 -1761 954 2487 -1411 -1926 -1475 1590 1725 839 283 1765 1005 -1668 -881 -2097 -1476 2294 777 635 1354 2506 -1620 -1706 -1130 -986 -519 -716 1252 1076 1160 -908 159 107 -1736 160 -1233 -547 1759 -772 -1182 -605 -1469 -963 -1726 -1798 1679 60 -63 -1103 -1401 -493 2050 3976 749 -1342 -2537 1096 355 1102 698 -41 90 -1060 1955 1224 665 -1047 1809 -1663 -883 -2483 -859 1130 4312 2426 -1349 -343 2926 -243 -4891 -3805 295 3616 3666 2509 -840 -1709 1702 4142 3002 -825 -3611 -3380 -1153 212 138 -977 2300 1700 -1264 -2737 -1962 -888 -211 1747 -1160 -6045 -4469 3034 3571 4024 -787 -431 -1101 -1156 2208 2872 -3709 -4119 -224 5 452 835 -1278 2669 2998 -3060 -4100 -2724 119 1248 -280 -997 670 267 109 -1167 -443 -826 -1024 1877 -2564 -7593 -3982 2334 4801 2925 1462 -702 -2580 -2956 -1309 400 -2851 -4963 -4030 -1579 -3810 -2684 6467 10372 6545 -5010 -6383 -4282 253 801 77 7408 15004 11966 -14177 -19613 -14813 224 -1083 -865 3616 7029 5119 -3660 -6715 -2645 -3163 -2711 -1559 2460 548 -955 215 -596 66 -599 -551 -192 435 759 1128 643 1786 1833 807 1805 4425 2839 276 -1342 -2396 -2008 -2814 -241 -2547 -1953 4199 6044 974 -3516 -1423 -61 2161 889 -962 2414 3447 431 2539 519 1612 -697 -330 276 3683 4059 4524 -4951 -7406 -5434 1064 -548 -1907 -2382 -5627 -4182 5581 4383 2253 5129 521 -4518 -2141 -1296 -973 -3052 -1185 6183 -1252 -1612 -1840 389 3438 2381 -1366 -6981 -5595 -3803 -3162 -3041 -2923 -8 1723 1119 1811 2461 -477 1193 -22 -1764 232 -1070 -1931 -160 -808 -17 616 48 1549 959 -280 132 -835 293 2189 2696 -714 -2426 -589 775 1946 -2688 -980 -1120 1090 1506 601 1065 583 -544 -11 1234 -1246 -651 -131 -217 133 128 -2022 -86 553 1338 -1198 149 -2113 -3043 743 -3061 -2816 404 -722 -3491 -328 -5479 -6792 -70 -4721 -1914 1070 765 24 2058 -2351 -1258 836 -3017 -1942 -20 -3984 3284 1629 2699 4644 258 5446 -644 1232 -478 -500 -663 -1451 -172 287 1536 2242 210 -828 -1414 230 -4767 559 -1814 1491 2993 -719 -2924 -1080 443 -1778 1817 1105 285 672 2992 -3268 1249 -1554 593 2624 -915 846 217 -1488 131 -1110 -1999 962 -68 -2179 288 -1245 -1634 -1623 4482 640 2750 2040 -4736 1689 -5248 -1773 2177 -1301 -2866 602 -3475 -1055 -1837 -3666 1680 -137 -735 -124 -196 396 1277 -526 983 352 518 -1855 -2695 945 -4177 -1729 -2275 -4261 1063 1393 -586 -1656 -7 -2035 -747 -115 -1966 1335 -3256 -1345 -1119 -1336 952 16 1458 1588 -886 1680 -43 1669 1123 565 812 2266 -100 -3942 2778 -707 -379 2614 -2511 -712 -1517 -4374 78 2884 -1555 -436 388 -7248 -967 -5365 -2626 2645 4948 9241 1068 15624 6629 -1158 10455 -3962 -2899 2488 -677 93 -1739 57 2225 -854 1979 250 1004 1863 919 -6354 1094 2119 -839 4520 -780 1520 -207 1034 264 510 1119 -1289 2254 2791 -2097 -689 311 -380 1011 -266 -736 -1438 -1379 372 63 326 -627 -1530 1334 -1643 376 1212 1890 -713 -1360 3152 -2725 -1787 101 -4791 129 -2139 189 -1255 -3098 1285 -1161 -1097 2194 39 2268 6 -360 2894 -2369 -888 943 564 1310 6553 6625 -1190 7453 2605 -6233 9312 -1245 -5071 -2762 2160 -517 798 4469 323 566 3611 930 -2748 -604 1113 -1494 2 170 -2726 -871 -1770 884 -382 813 1959 -589 -109 27 1091 -376 -4899 162 1711 -3725 4258 1849 -279 4020 497 -3241 -1934 252 -3374 -396 3196 -3874 1089 2141 579 597 -31 -312 -718 -568 -1648 -822 -682 66 -3444 281 -171 -1949 381 41 -2149 1221 -1158 -1684 650 -3869 -59 2570 -2201 1822 1475 1355 -1285 -1543 2586 -2945 -4654 -2401 -4490 -1895 -1611 -2695 493 1196 -106 2291 2177 1511 323 -1069 -2823 -603 -3577 -2581 447 -3814 200 2169 -1046 3177 -727 1245 3672 -1491 5295 39 -780 -522 -582 1383 2914 -2079 -2007 1375 -3844 92 -710 -935 52 -994 2454 -679 2016 5196 -4002 -2100 1896 -2456 -1284 1179 -1065 116 338 -1677 -2398 874 -447 -1432 1461 -575 -216 1545 -575 -3104 -1442 1072 -8197 3451 -887 -1522 7402 2636 -1969 114 1306 -2117 2387 2003 -719 1252 -346 496 -2910 -4607 -2057 382 200 859 2088 756 194 685 -54 6432 2345 -382 4233 -3029 -1832 -333 3279 -1728 -630 3722 -3107 663 -1652 -929 -919 -138 -219 -1154 -301 -690 -1069 1225 2380 1184 -875 -823 -146 -2587 -1406 -2153 -467 239 -2531 1039 -299 -1212 1722 -675 -713 1262 1389 1763 -1460 -1283 -1704 -2034 -1066 -3084 -187 1379 455 -85 181 2972 -2251 929 1097 -1014 1073 2855 -519 -1041 -985 -4311 -338 -6852 -3218 906 -1086 27 -1828 -2952 -214 243 416 3830 2205 -3622 -1746 1634 -4478 2182 546 -1851 -374 -353 2867 1346 414 2820 -3900 -1104 -1102 -4480 -727 1822 2919 -1273 4398 -2356 -3282 1674 -3228 1879 -1958 -286 -2432 -144 2042 166 -486 23 -1364 -5700 1286 1880 584 3612 -1072 3359 974 -2840 3347 2957 -1099 9573 1858 -2239 9239 -7909 233 -130 -922 -1556 971 186 -1229 556 190 637 -1062 -2550 -3160 -1015 -743 663 -2664 -2051 1188 34 109 999 -501 -213 -419 -541 -577 -1790 664 -2786 -4438 -2831 -8936 -492 -2649 -259 4241 1275 1262 2267 582 447 1076 1255 686 710 5393 -2668 -4996 -3239 -11728 -167 -6175 -956 4705 3230 521 -472 1830 -1787 -2004 1103 -2887 -1810 -2018 -715 129 -1918 -985 1385 -1065 418 527 2181 1988 114 623 862 -665 -1845 -171 -197 -565 2819 3502 5064 4639 1009 90 -3375 -5015 910 261 -155 1169 289 -202 545 -762 -970 -540 -1351 121 -497 800 898 -691 829 -1458 606 -1152 -2999 -1735 -1920 -997 -1491 -1299 1432 -2039 -2482 -2343 -1519 -298 227 -756 236 441 -4204 475 112 871 4372 -487 -1250 -564 -3694 7455 2748 -2678 -2080 -8612 -4856 -2570 1463 6323 -1683 -5806 -2331 -2261 -1407 3973 -176 3258 4204 -1001 -5124 -3585 -3291 -3080 3345 -181 2630 3071 1685 3148 158 1582 247 -2110 711 -905 22 1340 -1504 -2418 -1716 -5516 -2371 -735 -477 2481 -3780 272 3479 2906 4009 1601 1823 424 -2336 -2013 -791 -516 -89 1451 1541 -1215 -72 -1440 -180 -1881 -941 -2666 -7022 -1082 461 -1160 4065 -9144 -2169 2594 -255 12976 1557 4485 -304 -15306 2272 450 814 856 -1360 716 553 197 890 2442 -1296 -2394 2052 143 874 378 -178 1403 -1140 3798 3513 1458 4705 366 2528 1348 -782 3053 2155 -705 1509 -3025 -4104 -86 -1469 2200 -6205 -13794 -1195 -12643 3004 12705 3263 12725 431 -874 3399 2654 2810 6446 2242 1415 -620 -5259 -1769 -1532 -258 -1081 755 1340 -2581 576 1462 -3907 4894 5671 1719 7472 669 4000 3846 -6885 5680 7751 1728 7521 -1017 -6106 -442 -7961 -3040 1541 295 -3444 1922 -637 -3156 -2176 -2904 -547 -5722 -1389 -1090 778 5321 1515 3066 1388 -2744 1673 519 497 -2329 -2226 -2346 -704 -1636 -2699 636 702 -943 861 865 -3006 -209 -1805 -1988 -5860 -2314 -1916 -3136 1307 901 -753 3466 629 4830 3640 -1266 3708 -2664 -7073 136 -6669 -2577 -1564 1780 654 1430 1428 -215 1002 -787 -348 2292 2067 89 -235 -5106 -2262 -1114 -980 3295 -375 883 658 -696 1802 -153 -88 315 -247 775 535 -2 1575 841 -305 84 -1408 -1297 -1491 1020 566 1669 -867 108 -281 -179 1334 -2007 -2433 -1917 -2541 166 1222 -2895 703 1189 4350 4276 -1742 4166 -949 -4548 -1187 -4477 627 -1347 -384 555 -2918 1556 2506 640 1871 1893 -27 -702 -775 -1256 -1055 2115 -1599 1459 108 -977 1018 -297 275 3192 -949 -964 -812 -2515 2638 4218 1022 4036 3701 -3892 -2731 -5403 -5718 341 438 461 324 4 492 532 847 860 -963 52 350 -1875 84 -757 -1548 -209 384 4265 -47 -698 -1051 1888 -494 1492 372 -2452 609 231 -977 933 1939 -349 271 1438 -529 -2069 -798 -114 1419 1254 -1520 218 -3608 -3139 625 -1038 -1050 430 -1423 -117 1206 -366 -459 234 -435 -598 -3476 -2834 218 -2159 -156 95 1251 -1344 -135 -559 -2308 -289 19 1513 2036 2262 -177 -165 3109 2966 809 -1444 -2013 -2298 -576 1111 306 243 710 556 435 -700 -319 -1374 2311 790 -142 -1035 -34 64 1774 1548 -1646 -423 634 -963 1360 1139 -286 1943 781 -516 -18 -948 366 -432 -945 -1529 -1313 962 -47 64 1146 1933 4264 3810 396 556 -1441 -580 -1305 400 455 -1195 1216 -200 -2162 570 -1686 -563 979 -386 -44 518 1049 175 -1698 -1322 -996 991 -3667 -3090 1702 -1054 987 2058 771 -1346 -298 -709 1323 366 1428 -1275 -1159 1706 1578 2436 1107 874 1884 1303 1173 1548 -3687 813 340 405 4836 -1415 2408 -3708 -2184 316 -2528 -677 -441 -1343 2349 -464 429 1019 -730 2101 -1094 774 774 782 1354 -1603 -2770 -4788 -6838 4392 -8706 11296 207 7862 3091 -6056 -1557 -104 420 1558 1864 -188 721 -1009 -454 470 -572 -967 -567 -322 153 -115 317 -692 3624 5180 -1313 3932 -7740 -2167 -1488 -5686 1814 -1601 -1357 2360 -3889 2163 -1481 289 888 -1774 -1593 -1937 -1231 -884 -994 955 -1783 -210 520 307 -106 -669 1808 -880 -59 -1456 -1837 443 460 313 1327 1130 -1052 -580 289 -48 1893 -50 -1353 364 -1140 486 -282 349 1358 -374 1252 565 -2316 3267 -5605 1242 -2625 978 2369 1078 -267 -213 -1499 265 267 -445 1250 -492 1444 616 -2535 661 -916 -3942 745 -333 -2409 -2074 -1437 2038 239 2453 -176 645 -1647 268 -73 -1361 531 -1859 -1312 2554 1995 2856 735 1021 285 -191 -57 -1420 -760 -2807 1087 1911 -3669 -207 1940 -683 6618 995 3177 1630 -5347 -2393 -1514 754 -2196 2722 -234 -800 586 -4245 -1490 -3376 -834 -1589 -952 1190 -595 135 151 612 1298 42 -820 -580 -1144 -1067 -23 574 -797 -894 1222 -46 -149 2009 779 429 140 827 1546 -1992 1320 -5265 278 -1504 -30 1590 -1574 -1564 889 -273 -2090 -245 -1222 1800 600 -793 -5715 2412 -3144 1732 3115 732 4950 -1827 789 -286 -519 614 -1076 -648 -476 -1366 129 1875 2856 -987 4840 -2377 -441 359 -741 152 193 -1178 705 -216 -1443 1375 275 1725 986 1275 414 -874 139 266 -232 463 -404 1123 -1403 -1323 481 -1463 -162 1372 -845 78 332 427 -1131 -2613 3959 -5604 2935 -1985 -594 751 446 -1493 50 1261 433 3022 -195 958 -1609 -1464 -3102 3690 -3935 7417 -1615 3431 1364 -6935 6121 5014 -4801 6437 -15596 -972 -2396 -8153 6453 5702 -3676 -889 -2873 -5054 4714 -8477 6563 2080 798 -463 1531 -1575 -160 -766 -1642 -304 -733 -59 1629 -676 1925 -2713 -3442 -1213 -5878 -1225 -2799 4793 1649 8735 12511 -5476 2944 -2656 -12422 -3377 -1234 864 -1668 5237 512 1208 2556 -2425 -1115 -1081 -713 169 -971 281 208 881 55 1798 2046 -322 1015 -7299 3672 -5145 3781 3301 -5098 -2127 2189 -2628 8159 3833 1641 3869 -4212 -653 -3018 1688 -3231 -829 848 -2922 549 523 146 2965 -825 5034 -2094 489 -717 -1682 480 7937 4272 -7581 6698 -18143 791 -1214 -1389 4142 6684 -4455 -2708 -3168 -14059 2970 -2986 1479 10573 1658 178 -364 2145 -3669 1393 -986 145 411 635 710 -2007 432 -5728 -961 -1292 -266 3838 249 1695 -1682 22 470 1075 458 1497 -1158 -7586 -307 902 1263 8122 -1023 5779 1551 -6656 605 364 -15 867 -1992 -1079 -1780 -3057 560 189 113 -390 573 -62 384 -235 489 80 -769 -1400 -834 -1944 -2462 147 -1414 2128 -306 1894 328 244 -1601 -552 -2408 -2779 -1288 450 -5000 375 306 259 8100 1232 767 2945 -6035 -957 -453 731 71 -62 535 83 -91 960 -1763 -985 -567 -1172 1345 -296 1138 -1123 -979 -10681 5682 8108 3881 22317 -11940 7024 -8851 -4704 5883 3414 -4843 4282 2931 -5457 2884 723 -6065 -2007 -1981 -837 -4520 -5533 -3883 -2076 -3038 -1110 -925 772 3355 -697 -2535 -362 -1255 -4140 -1127 4254 4406 2072 2661 2071 564 1503 2718 -394 3475 7800 10625 278 4048 6291 -4322 -2148 -911 905 807 3149 1380 1742 3117 244 2876 3675 503 937 906 -226 -473 -574 -829 -218 -898 -4110 -9760 -8898 -5606 -6590 -8522 -3506 -1430 -2071 -720 1256 2021 -1409 -367 1071 -3786 -2260 -2694 -791 357 2238 -430 14 966 722 711 2022 -3256 -3907 -4966 -2654 -2101 -6786 -1876 -1779 -2407 2115 3736 -584 1640 1941 -1435 1804 4950 1175 -848 -4375 -3391 1014 -3954 -5136 1101 389 -857 1471 -576 -4859 1429 841 -5493 3774 102 -4837 2460 2845 8397 870 546 6417 1029 922 5710 -1311 -3653 -2639 -573 -4224 -5420 -1351 -2417 -445 -3337 -3392 -3255 -2701 -2873 -1793 -2648 -1687 -1019 246 1816 309 -399 -4393 -828 -958 -2385 -1215 -1051 -1580 -419 -1432 -2862 -2327 -2315 -3380 -3421 -2929 -4906 -2184 -2616 -3413 -2620 119 652 986 4386 5371 305 2769 1584 270 1924 1467 781 2110 954 -1533 637 309 -3727 1131 -888 -3385 -382 615 953 -1735 1327 1143 633 4847 1124 -1890 -1336 934 -491 -1209 -992 236 1584 2817 812 643 -921 612 678 -756 1241 1176 218 4442 5879 9031 4232 3365 7753 2194 1526 3323 1284 -2553 -1721 -841 -3883 -4338 441 874 578 506 -694 -1641 116 -1745 -1383 978 -1617 -810 1608 2302 2317 -710 2278 2262 -1113 1606 3857 -3086 -6622 -6000 -6618 -9147 -7844 -5365 -7426 -2963 1482 4150 23 2216 5267 1446 -1874 -353 385 -1787 -3470 -3210 -687 -3373 -4431 -775 -1472 -1977 -659 634 1872 -969 960 3231 55 -341 3504 1450 2101 3964 -992 -1613 735 -1071 -768 1514 945 1408 3029 459 1523 4213 -840 -191 1478 863 -2547 -1307 -66 -3838 -2410 -261 -4133 -3616 2608 1145 4549 -850 -279 1188 -1102 -713 -911 2007 3235 1470 -1087 1127 -674 -2399 -420 -1012 2372 292 -1084 1627 -1104 -3775 -621 782 -2532 1686 1418 3270 -2594 -353 3098 -2129 -2029 1804 2601 4635 2694 -386 201 -81 -1051 1038 -862 -4032 -850 1011 -2378 146 3578 -1314 526 3353 1265 3267 3975 1116 2543 -1974 -998 -811 -2434 -1641 1951 4714 -500 1388 3196 -1350 392 976 -1019 1809 6252 -1517 778 5830 329 2926 2735 1365 1872 1544 1971 1843 2169 1651 1415 2726 1119 2985 4178 -389 2421 2662 126 1980 4427 2675 2581 1714 2399 1818 -1626 4438 3866 698 -788 847 -2450 -1184 -2463 -4750 -58 -170 -3219 2299 5057 706 1937 1540 1362 -303 546 1931 574 2274 -1227 -41 1098 393 -693 50 3041 1115 -304 101 -2201 -2166 767 -1846 -2718 187 299 2750 1273 -134 555 2728 93 2921 3105 3164 2186 1445 46 1918 3019 -391 539 3097 -3799 -1886 -2036 -1124 915 -959 -247 470 2400 -6435 -3566 1302 -1154 91 1996 2836 3593 3080 1757 1342 6733 -143 1428 6345 1359 1188 4177 -3036 -5845 -8546 -1451 -6709 -8950 -490 -4819 -5312 1158 1407 -2146 -37 2359 -271 -968 647 331 -64 -829 -3207 565 17 -234 1031 1301 470 -1482 -3341 -1502 -1000 -810 -3830 2967 644 1234 2115 696 -42 1740 296 -555 1680 1493 721 -1036 -1477 -1503 -603 -617 217 -63 1703 1942 3032 1352 -3475 2214 430 -5307 -1798 -2114 -2930 -3777 -3373 -5095 -3912 -2961 -5070 -1503 -321 -2568 332 1068 2716 -626 1282 2799 -1288 -487 550 -1631 -1706 -648 -811 -1620 -1277 -2193 -3546 -2056 670 3337 2083 2688 3420 1683 2815 2208 1076 1257 -1297 -1063 -106 -2943 -3050 -242 -3478 -3288 -429 1020 7 -34 1627 1895 811 2840 3518 1054 919 165 -410 347 -59 639 2126 1418 610 885 -4743 1390 9 -4120 1110 295 -20 1861 -1134 -1951 3442 -1398 -4376 4594 188 -1617 -847 1504 800 -77 1472 -383 1424 1449 -258 -48 4456 3317 490 4447 4965 715 4283 4772 88 1167 66 888 3314 2179 -217 2903 44 1137 1324 441 -1287 1557 261 -1087 365 -697 19 2503 -30 -1074 1367 -1885 -957 2545 -797 2313 -261 1409 2310 270 2226 2240 1337 2634 -2713 -1437 -3173 -2176 -892 -946 -102 2648 1081 1016 1300 1643 -234 28 1193 -280 -901 228 3359 -405 -281 2525 -2267 -1017 -369 -2464 425 80 -374 -338 519 1261 421 -110 531 604 447 1355 1480 -277 829 3012 -1651 600 2873 315 -1079 76 535 -1142 1384 3067 3257 775 1612 2896 -35 2270 2946 1508 -423 -961 -1301 583 992 812 -58 -207 -181 2356 688 761 -395 360 -2693 -815 1204 -1319 630 4557 1697 -3236 -3629 -4604 -2958 -3058 -5875 -684 -596 -3232 -1954 -696 -983 920 550 785 2725 1178 442 1387 789 1040 -690 -901 853 -2671 -2310 -30 1288 -470 -1379 1331 -245 -1033 1501 1698 472 1801 670 685 -483 1626 -422 399 4351 1288 -1672 -808 -1229 -1456 191 -422 -1271 627 -392 -2997 2784 2735 -3830 4470 5001 -3708 4355 2690 -1500 -1836 -1941 -1979 -1419 -1582 -94 -1290 -531 327 411 -1442 747 2264 1684 1325 2944 3360 -898 -2424 -11 -323 -1443 1066 -400 -796 2488 657 740 143 2126 2198 869 440 1694 563 439 -663 54 2 -1488 -747 -815 -2036 -1806 -400 -212 -922 -2141 -3103 -5044 -2281 -3925 -2401 3141 3367 987 1753 4096 1140 1121 3938 1246 -1558 2447 1877 -2552 -127 -121 -1155 127 -776 -2221 -2801 -1252 -3753 -4732 -2165 -1800 -4253 -3139 2367 2034 -207 1688 4908 2607 6170 9621 5463 -1208 -1391 -90 -402 -1670 -1037 992 -873 -1326 -1240 72 -1605 -1715 2109 85 -749 3509 918 581 -2984 -5228 3320 -1231 -4325 -722 -3841 1549 -2741 -1857 -1702 -265 -760 -1146 3047 362 1369 -1036 -2069 -1002 477 -278 822 843 289 1322 -783 3293 3613 -443 5948 5540 -5692 2398 2970 -2634 -3303 -8642 -434 -3597 -9162 -1271 -3390 -6008 -108 -1694 52 -518 -3239 -2096 -1177 -6190 -3365 1466 3462 3819 1333 3245 4032 7 1946 2256 -2260 -922 1963 -3102 -646 2095 -1594 2103 2134 -5445 -2416 1769 -3535 -2100 3672 1242 732 2325 -93 -823 132 -182 2251 -611 -359 2438 815 292 -454 -301 -371 -822 235 218 -144 -154 1910 2958 2077 -189 1363 -869 298 205 1312 690 -1220 1111 -1741 -3819 -2615 -2457 -4015 -2387 -2942 -1983 -182 338 -2275 663 3149 680 201 -335 -771 603 -3159 -2237 -2089 -3429 -4101 -1918 -979 -163 370 -183 -341 -144 576 -201 -670 -3728 -2229 400 -4136 -1466 2158 -2890 358 2515 2797 1080 -5293 4016 3201 -4378 3048 4711 755 -344 -598 -1200 440 290 -385 660 -198 -530 -1792 -1009 -1092 -98 -77 -1177 2797 3099 1179 1182 1606 -811 658 -95 329 -2049 3187 -461 -1603 1246 986 -715 426 488 -523 426 -827 -1383 -420 740 -1858 -833 -399 -20 -207 -225 -370 -1716 1329 -2264 -2533 1135 -793 -603 1097 -4393 6868 2743 -5839 11611 1579 -345 9035 -1366 3519 361 2569 2167 147 2275 1863 800 1987 -5273 4278 -481 -3425 5924 -2948 515 2792 -2458 1017 -2364 1640 -36 -3048 1874 -210 -1747 1399 -1166 -866 2025 -1918 1281 -847 -622 390 -1775 -1294 -549 2059 -6571 5053 575 507 5449 -3126 -2071 3032 -774 -1553 2013 -1733 -1032 -1188 -846 620 454 -234 3099 1361 -2085 1027 -275 -1244 -1911 1048 621 -1970 1293 -5455 -1007 3792 -3989 792 225 683 1892 -1945 -2879 1142 -3607 -564 543 -3378 773 777 -2778 2137 5 -2418 906 -720 -998 -560 146 -1539 982 3027 -94 2602 75 170 -1126 -365 -635 -2656 279 -197 -2630 -127 530 1531 -1972 -59 3 -1618 830 -618 3027 32 -3516 3291 -2971 1879 -455 -2106 3169 -286 328 -1575 1096 1108 -564 227 1088 -79 1809 -144 -2561 2015 -176 -74 889 -1116 -2083 -3340 512 -2731 -2896 -2159 -2613 -14 -4696 -412 5225 -3575 -543 1576 -5129 -1238 1448 481 1294 -4245 -127 -1244 -6208 297 455 -5131 2820 -346 -1481 3209 -657 -1218 2775 -958 -512 2204 -1487 -699 -1317 1774 -1360 -397 230 -1249 40 -509 -2250 4402 877 -436 6188 -1486 1947 3652 -4705 -119 -3154 -161 -1162 -2194 591 -59 -456 787 534 1247 2378 -885 1161 1056 -1846 815 0 1916 -932 -856 1601 -482 1335 -75 -688 -946 -494 -540 355 -969 -2997 -115 -1346 -2372 331 -2926 1514 2870 -2006 4326 3638 -984 5439 997 -640 -363 -596 -856 -542 -1899 -1501 -277 -1819 2468 297 -199 4426 -2546 1890 1824 -2130 2430 -1215 214 -40 -270 108 377 109 1979 -220 -286 486 -1631 -278 567 453 391 23 926 -261 -1404 981 254 -640 1346 423 -145 1590 -1095 -3031 4723 1449 -4559 4172 1610 -1470 -174 -1154 -1794 1407 -2422 0 1981 -3284 1137 -1277 -1752 1455 1189 -4527 3343 46 -2968 3229 -1442 760 -2103 -1680 3559 -3064 1246 949 -2108 4592 29 -1554 1325 -1046 660 2216 -3511 948 60 2560 -4581 -2842 1643 -7725 -890 -694 -6884 -411 469 1571 80 1775 -121 -2286 744 147 -2155 -150 -1983 2348 -3961 4370 2684 -5338 6805 -1189 -633 4373 -2572 -1224 4813 -371 -2154 3158 -781 76 421 1116 653 615 829 -505 -373 -1377 4994 -2946 -4776 12519 -8553 1520 5383 -9170 3317 -768 -783 -1055 -2523 1203 -1379 -3215 -374 525 -3451 100 1543 1759 -2182 -1904 1313 -881 -2428 2349 -2370 -1912 1481 -2590 -1217 532 -2119 422 3088 -2139 28 1974 -2687 -472 2614 -2109 -1518 -878 -1588 -1283 409 -2016 -1518 728 -1905 -5 1994 -1760 826 1409 -674 1765 661 1116 813 640 -341 -1172 -612 2942 -384 -721 2770 -2244 46 -463 5642 3513 -3469 6059 2484 296 1629 -3736 3527 -1207 -2654 6950 -518 -708 3447 -1318 1649 9199 -6517 6923 4975 -6855 6381 -2152 -3487 -382 1037 -2330 -2113 -133 -1734 -2597 -465 -1049 83 -4553 3406 71 -5749 4455 -3133 1236 2936 -3327 7382 -1941 -2064 9583 -4068 1033 5788 -3616 1320 -2835 262 -1128 -90 -734 519 1632 512 -1281 2743 910 -810 2688 -451 -951 2394 -140 -4416 903 740 -4827 5062 -685 -4596 4651 -3956 -89 3487 -2702 1486 3794 -4325 3778 800 1662 3075 639 -558 669 1175 629 1235 1729 415 -2568 -1871 -1739 -1059 1427 3031 -5586 -4231 -616 980 -216 38 2191 1173 1356 -302 -1787 -829 -3585 -1278 350 1822 4512 3698 -202 2824 794 253 -385 -3215 4042 3971 727 3046 2812 669 327 -346 2926 -1467 855 5004 -2447 414 2979 -1805 -693 314 -1667 -1204 -914 -1531 2 -51 -4457 -1372 3212 -6542 -5235 1500 -299 -2807 -1439 -795 -1621 -864 -1431 1217 1980 354 1818 2527 282 1447 1941 878 2391 3888 -64 1150 2819 -1912 -1611 706 -2982 -3676 -1003 -2381 -3705 -2252 1476 980 -754 -1610 -2127 92 -383 275 -2456 194 2202 567 -1171 -1514 4360 -4440 -6831 511 -448 -72 1843 -5141 -2557 -2309 -1861 -1770 -1206 -364 2875 8035 -3562 3588 11186 -5280 -2122 7605 -3382 -1642 115 -2330 168 2642 -4342 -5658 -1315 -2080 -1368 -744 -647 872 824 -2624 -222 798 -2374 -3200 -5573 -1780 -2564 -2019 1602 -547 -2424 -1655 -943 1633 -3088 -1942 2026 -3847 -3009 593 -2169 -747 1147 -5403 -3504 819 -6560 -7950 -5448 1438 1077 109 1153 -805 1943 262 -2186 349 -546 1297 -277 -1627 1916 -238 -1879 -366 -1037 -823 65 675 3784 4227 3637 2709 2957 3487 619 -268 281 -1485 -1129 515 -1999 -4269 -3075 2282 -1275 -2057 1907 -356 -1616 -707 -2493 -1840 -3730 -2200 3054 -5125 -2737 2703 -5979 -3393 2507 -6978 -10077 -5333 -3039 -5804 -4683 308 830 545 -574 -2188 -1706 1625 1245 1131 480 951 1877 352 -4018 -1944 -238 -666 -425 45 767 2168 -78 -613 337 1605 1454 2750 -1875 -1109 1948 922 -1655 -3109 -2195 -3268 -5493 951 -742 -3702 -3140 -4652 -874 -1686 -2971 -1026 -1466 -3110 -2976 -289 -2200 -1789 3065 1830 -2759 2925 3074 1717 70 229 1899 -988 -57 548 -464 -602 -444 -407 -1768 190 1180 2196 2369 -166 1709 776 -179 -664 -816 -193 501 1674 -2138 -2613 -811 726 -2369 -2836 2003 446 -779 3038 4534 275 1140 -316 417 298 576 -1208 716 535 -1399 -1294 -3281 -3210 493 -1664 -1546 1572 1462 662 -755 -90 -2047 3321 1777 1386 3549 1596 578 859 1031 -1814 2200 1656 -173 951 3819 1477 -1220 -707 -2269 891 981 847 1191 2311 2270 -1432 -2206 -2454 -2819 -324 190 -2783 -1839 161 2203 -326 282 2761 3848 2756 1878 3184 4458 -551 -2866 -117 1400 29 2147 2368 4190 3983 -187 -1503 -1623 -562 159 -560 -2820 -1229 -690 -140 -2395 -1182 -885 -2404 -2967 1451 761 1121 2603 604 -672 -543 -302 -985 -361 785 810 727 878 -1141 1683 835 834 825 4466 1554 164 702 2714 -106 2523 2969 283 -1828 669 -432 -201 -2727 667 -237 -5163 1490 1077 -3082 -2540 3699 4773 -5524 123 4593 -7453 -6155 -76 792 -1734 -178 -1567 -1593 -1072 -464 553 821 1918 1775 2423 1264 11 1551 1277 517 748 -1614 -259 128 -445 -756 563 -616 -799 -216 -2096 -2119 -1753 515 -1104 587 4005 2816 -951 -1301 837 4264 -37 3043 7941 -2095 1475 3236 -698 929 2139 -5015 -994 3194 -9945 -10604 -4063 -829 -2940 -3603 -2944 -6494 -7386 -4813 -9268 -5755 538 -2479 -1090 1322 -402 -1207 -658 172 2000 1894 34 2007 -2861 -1169 146 -5735 -5862 -2563 -1645 -3141 -1964 -127 -1702 -1601 1477 527 -449 5 -1678 1246 -566 -306 1745 -376 472 1815 728 -1015 616 1049 -53 1419 1860 431 343 1894 3782 1185 -3075 -2694 -1062 672 559 -1825 158 2089 821 -2526 -329 -88 63 -1276 -1464 -1995 -3753 -4491 -1243 -2126 -2985 -1360 112 632 -2822 -4926 -1120 1110 280 -3451 -609 932 34 -1171 -2000 -1404 1758 1551 832 2102 2765 4442 -1395 590 1370 -728 -1717 -2814 1860 1356 111 742 -648 633 1523 1289 1483 -2056 -816 814 2430 2687 5178 482 -4127 -5746 -1068 2660 413 -516 485 -613 1940 2501 4670 -447 -1406 -33 -338 1063 -1660 -1035 -23 -294 -1261 -1046 -1223 1032 4643 3604 -1307 -2575 -2223 31 2392 1279 1199 8949 4672 -1753 -11509 -3162 1801 7865 209 1796 8090 2380 -4856 -2570 6397 738 1112 -3261 -291 -166 -261 1119 2344 2951 -3325 -4089 -2850 1681 1728 3170 -2080 -2066 1215 -495 -1324 -2703 2539 2436 467 -495 817 1656 1020 -569 -1244 -697 714 414 -1410 -259 1202 47 -434 425 416 -177 -2881 -462 1759 3063 -1752 740 -103 -434 1883 3240 792 -1142 -398 3040 704 -226 -2054 -672 1311 -3298 -4814 -3819 2091 1481 892 -2653 -1916 -1927 -2334 -2140 -797 2435 1361 2641 -325 -1211 -1908 668 2376 1761 -2836 -3226 -357 764 -2759 -3679 1271 4042 1822 -1506 -1463 3715 -428 646 1074 -695 -3013 -885 1127 390 -1351 3674 4088 -502 -1815 -4675 -2473 -708 -853 -238 -2037 -16 2164 -38 -2041 -3504 291 687 77 -3613 -181 1328 -789 -2215 -3311 386 2815 1424 -1106 -1329 512 -30 360 -30 -1416 -1443 -304 -1102 -627 -54 -322 790 1060 1898 630 -1680 -789 1864 1017 -3637 -2743 1764 2503 11 -145 -369 4770 2915 -4157 -7591 759 -2382 -305 -158 -1014 815 2878 750 -245 -1994 -107 1635 -1184 -410 -2609 -3698 994 2926 820 -1723 -1308 -573 837 -640 -635 2806 3373 2936 -1037 -892 642 -4147 -3467 -1692 1000 -605 -1524 3361 3761 1082 -1734 -294 884 -997 -796 247 -42 58 134 -1540 -4071 1711 4425 4364 1781 -3023 48 5329 -2694 -3649 -3403 3165 4840 1854 -703 585 -134 -2227 -2705 1430 1973 -1073 -3649 -2392 -91 1876 4421 8498 4107 -4052 -4966 4091 3717 -222 -3991 -2556 1392 2907 -1767 -5079 -828 2956 4947 -3696 1785 1199 -210 -2066 -2146 1342 -1305 -1583 -768 3446 4230 1400 -1190 -3089 382 774 2412 550 -2418 -5528 -2328 5057 4171 3462 -1070 1158 2239 -2111 -3477 243 1986 1032 2668 -66 30 2932 631 56 -346 110 1270 362 -564 -1100 -429 -2312 -6820 -2425 5011 8813 1848 -2113 -2926 1739 2191 4676 4065 -2372 -3349 231 1789 2756 893 2909 -1137 -3097 1951 5198 3414 162 -1549 2118 -4887 -6324 -2140 3440 1306 -1618 754 857 -637 -5117 -771 3892 2660 -3817 -6680 -316 3764 2752 -1012 427 421 -1630 1060 1303 7 1070 2042 -1364 -1642 -349 87 -103 -550 -673 -830 -1409 -1348 -177 1639 56 -4369 -3574 846 1914 1013 -3299 -3346 648 -569 -425 -1843 -2688 -2304 -780 1989 4788 4773 -1180 -1550 1393 -508 -630 -860 -1092 -2150 654 -661 -1040 -333 3048 -1401 -2486 7210 7930 4878 -1228 493 4117 -1947 -3044 -3811 -453 -3333 -1993 1821 2965 -2329 -47 -577 -504 206 -1467 -1347 598 -2321 -273 664 376 -456 -2141 -3143 -1739 -1138 -2893 -1336 1290 -807 99 1729 1031 1124 144 -1127 -380 1352 237 86 -405 224 1936 62 -806 -3604 928 425 882 -955 1183 3440 -969 -5127 -2332 2024 4346 -1639 1254 2192 4176 982 1452 1509 319 1095 -954 -1974 1126 1923 350 1434 -272 1659 867 -1369 -1693 -3002 1451 -2560 83 1629 1216 3304 1378 2011 5139 -2353 7918 1196 