256 256 3 3 
-2789 -1713 -1443 -1135 -497 -474 -117 1559 974 -185 -331 -324 79 977 1049 943 2169 3280 -228 -291 174 989 1723 1756 2571 3280 3056 555 848 1562 416 615 1878 411 -88 1513 -633 419 924 -511 1589 1989 -783 1951 2049 -924 -439 -129 -190 -1132 -1660 423 -77 -1995 -490 323 508 -1635 5 369 -1402 -466 -311 498 -821 -69 1107 1357 -529 282 788 -902 1019 -276 337 -1378 -3240 -2867 -289 -2047 -3139 1862 3055 -57 2032 2864 144 752 1279 0 2322 621 -385 1950 653 -1191 1796 701 -1876 -533 -591 -1737 -317 -70 -766 861 -194 -1240 -32 2324 2378 2662 5644 4552 722 2644 2850 2023 408 1201 1949 1689 2326 2352 2251 2401 1213 525 -2073 2100 -445 -2779 579 -1350 -815 -1290 406 -167 -639 -308 -114 -2975 -2935 -1831 458 1403 354 506 1530 1733 1281 1496 1911 -1549 -2134 -1196 -1348 -1899 -1133 300 -475 523 -549 235 66 -578 -707 -789 -1133 12 305 -851 -2292 998 -2563 -4182 -1811 -1799 -3506 -1802 -1911 1160 2275 -1431 573 2689 -558 127 2253 -578 416 -625 -1776 -989 -1010 889 733 1662 -375 475 1020 -925 13 2110 -613 -556 2170 965 2388 4123 922 2256 3473 1285 2660 3768 2456 595 445 1341 1695 137 1486 -1697 -314 1413 -231 1152 335 -1287 -787 2529 2142 2187 694 1431 1137 -116 880 603 610 1086 1205 -162 1107 -513 1325 2574 608 1951 3557 1670 302 1616 1617 1215 2163 1398 1677 1878 -1874 -1 582 1751 1605 752 774 -178 -2156 -1866 433 -1757 -2970 2562 -746 -3193 4301 3062 -1415 2119 139 -1025 1734 -80 106 424 385 948 1498 1864 1679 1280 2007 477 226 1211 746 1232 1830 2300 920 -498 -817 753 -322 -680 774 837 -1331 -667 -538 -2165 -1059 -1262 -888 -1100 -815 -1055 -768 -251 -555 1326 2918 1141 -371 -365 -796 -1345 -2332 -1283 -1829 -3253 -2682 37 -705 323 -1435 -1893 -1438 687 -629 -659 -886 -582 -528 -1700 -2381 -1767 -1518 -1951 -1409 -1014 428 1970 -2062 120 1328 -1767 215 -664 2003 2890 1809 -494 -15 -90 -592 -270 -73 -349 -17 -812 -528 1667 56 904 1832 -943 -499 -317 -828 -67 163 -463 438 1628 1646 -894 859 647 -346 1583 444 56 884 431 -1389 -2835 -2324 100 -265 -202 588 496 528 69 -173 172 193 -755 211 -601 -603 -457 -105 39 712 -90 507 1084 930 819 -425 -1179 -195 1878 -1120 -678 221 -2100 -1714 -2756 356 -42 1122 26 1089 1044 -1075 -1823 116 -20 -599 -512 1328 -631 -631 1289 -384 -789 383 1698 1688 180 995 1641 997 704 33 -3406 -2198 443 -2490 -3807 -1922 -609 -1762 -1160 -1666 576 469 -2167 -38 129 -2658 -1052 -856 613 656 1334 -1070 -537 54 -2029 -1809 -523 -1745 2546 2216 -3149 2080 1533 -2620 1991 1462 -3169 -3215 -2123 -3330 -1957 2864 -1597 2332 6328 -453 285 -263 -556 -146 -351 -826 -495 -1237 227 -1071 -1646 1684 374 590 2027 2866 1295 -802 -566 98 95 159 718 3 207 56 876 888 742 593 709 -807 1168 604 -756 -1568 -2483 -2373 -2237 -1958 -1844 -1955 -1632 -1492 -851 -1161 -151 -1981 -2904 -1029 -2257 -2480 -1569 90 -344 -241 -1487 -1648 -980 -51 182 585 666 -611 -427 -542 -588 1195 140 802 2215 -1477 -1011 -980 -1994 -537 373 -1418 -1147 -328 -277 17 2551 -408 -936 1802 -1355 -2842 -1841 -450 -53 668 203 -898 -32 -530 -999 601 -347 572 1305 915 1895 2420 2191 2874 2839 119 172 1027 -694 -478 869 -1774 -2579 -915 -357 859 -13 -982 -1388 -976 -846 -1251 -799 -1349 429 708 -2226 108 2666 -2572 -375 380 96 738 158 -477 -14 -211 -1650 -935 -1482 -1278 -1597 -1567 -1087 -1881 -1487 -442 -826 -1013 -409 15 91 743 134 42 1768 1549 1229 19 428 989 -387 -862 -745 -297 -493 -718 -679 -773 575 -1437 -2482 -705 -702 -1630 -527 -177 168 547 -755 -488 1458 -538 421 957 -578 183 -316 602 -397 163 -396 -886 -1637 -1433 -2073 -310 -944 -342 -764 -557 -941 -848 -1129 -1493 -2064 1179 220 -345 2369 1866 1803 569 1471 1952 1469 5113 4353 1548 4110 3634 870 583 908 2162 1231 1200 1600 1165 308 5 202 414 -343 -1210 743 1273 544 1478 817 -396 110 1485 -132 643 -177 -461 461 -415 -1807 -1975 621 -1615 -973 736 -227 -553 -2153 -2330 -1991 -1306 -1908 -2458 -155 -285 -1790 -2432 -1092 165 -1394 16 595 -1183 -463 74 528 -2161 -2416 -537 -2957 -2719 -2035 -1921 -1033 943 -1132 -1615 1095 -915 -1422 -646 -575 -1230 2151 1444 1943 715 1074 863 397 386 14 -305 411 -360 -249 714 -794 -431 -506 -1155 -2125 -1033 -1111 -1020 409 -271 -930 -240 -528 822 3397 803 762 3225 1925 121 2746 2044 -1320 -1838 -610 -1409 -2619 -185 -131 -394 1504 -976 38 -23 -950 -672 -421 -1129 -1196 -1229 -717 -2574 93 1207 -225 -1374 1741 438 -1076 2150 1526 -329 2373 1100 -72 1275 -116 -1394 -354 644 -34 844 1151 -1634 690 477 -1939 1625 501 608 545 582 1085 -485 -1705 1275 761 1173 753 -705 -437 -556 -2384 -1294 -973 2602 2338 3153 649 1087 2668 -1002 -897 769 -1279 -1198 -746 380 330 -29 1401 1870 1394 -1516 -1971 -1775 -1214 -1733 -1206 1009 959 1078 -150 -322 -140 -346 303 1052 -576 835 551 -433 118 886 -1566 -511 306 -1674 -1737 -1679 51 194 1590 -274 134 1199 -412 816 2551 -1591 -1969 -1702 -2084 -2087 -1922 -2174 -2274 -1879 -130 -1134 224 -161 -428 -683 1144 1395 892 -641 -915 -787 337 627 1377 2705 1969 751 -1977 -1525 -1506 -1054 -194 -210 -871 361 114 -2517 -2728 -2220 -2223 -1709 -1605 -1248 127 -301 -410 -934 244 433 -605 294 -184 -1732 -166 894 -1029 -1129 1983 463 -396 1880 1569 797 466 -244 71 -656 -2557 -2307 -564 -1219 -1513 62 250 45 -520 -782 -1035 1587 717 1005 -918 560 300 -311 59 -416 -1232 -316 -2045 -1959 -2715 -1664 -794 -357 -403 693 1039 884 -869 -1001 -525 -1666 -3324 -2383 -2451 -3758 -2798 -296 445 138 -40 149 191 -1015 386 265 250 42 343 76 696 -1831 1517 2032 -1601 1309 -692 567 1988 1405 987 2393 2454 2122 -952 -173 -607 -531 748 -288 -1239 -234 -683 817 1641 520 -1679 -1594 -1619 -2708 -2308 -2504 -961 45 -366 16 2939 1854 264 4403 3480 1478 1039 704 235 -116 493 -2146 -552 671 1 609 170 1996 1627 746 2526 846 10 1644 768 1552 320 -37 -347 1291 1284 763 -2053 -1627 -2187 -1214 -711 -2105 -219 -36 333 -2124 876 911 -1480 692 2134 -506 817 570 -675 -479 -685 -154 206 -391 114 234 -99 -363 -447 489 -609 -1128 58 -2043 -2834 -1713 -1140 -1709 -1323 -1326 -1470 32 -1375 -969 650 -571 -603 -2356 352 860 -1514 2267 1514 -616 -930 -190 -255 -303 613 1753 1519 1521 621 2103 2202 2920 1481 418 1099 273 -824 -50 137 11 -301 146 152 580 663 337 330 -1270 391 -897 -2018 -3057 -2007 -939 -2997 -2981 365 508 430 1175 666 1321 89 888 701 -309 -761 -881 -1469 -2508 -2674 -1689 -2066 -2102 -112 922 -604 629 1264 1223 767 1393 2358 311 715 530 -1265 -471 -478 1760 906 528 380 716 904 86 -598 244 171 -749 -379 -1522 -997 -308 -226 -692 -2902 652 -577 -3623 739 1436 954 553 840 537 -195 -580 -1151 -1568 -1143 -1696 489 403 1691 1930 2058 1959 548 666 -1099 -1102 -1090 -1521 726 429 -588 307 -1621 -1913 613 -639 -1407 1043 526 -245 -472 717 2681 2182 1722 3696 1733 3336 3378 -1508 -1943 -363 -2797 -2485 -976 -2613 -1136 733 1276 -500 735 1145 -568 661 1176 231 238 -692 192 1351 -1628 270 964 -1744 -247 528 -2437 263 1581 -3666 261 2763 -2693 -53 3320 599 126 -556 -610 -1765 -2291 700 59 -1059 313 804 1778 54 -622 584 -2002 -3295 -3788 -596 -1645 -1648 279 -1472 -1676 -68 -830 -23 1423 1716 186 1872 1219 1725 774 679 2449 -1902 -1892 -664 -3220 -3527 -1689 -1900 -2576 -1531 570 1657 1400 -1080 286 135 -2410 -1190 -2686 5 7 -665 1297 1894 1578 974 3107 2469 1389 1573 210 2662 2547 239 3268 2045 -1112 532 -1510 -1743 -474 -2957 -1876 -148 -2020 -999 -399 332 -752 -662 -1085 -1226 952 -209 -657 -1342 -1433 564 -822 -1312 67 310 -799 1068 1213 1144 -241 -475 -957 -1710 -1852 -2660 -2126 -866 -238 2219 237 -1399 820 -1373 -2804 -1694 -933 227 1249 -888 2070 644 -946 2003 654 -943 -1707 -2365 41 818 647 373 441 574 -1161 -818 -778 254 40 -60 1238 1368 1958 29 -433 -2422 186 815 -236 484 1304 1550 -1609 -1742 -2670 -1416 -2644 -3025 -1705 -2721 -3540 -823 -2194 -3457 -96 -797 -2653 -621 -49 -1413 834 873 -688 1407 2647 783 2020 3114 1657 1196 1547 295 1180 1863 257 456 725 267 -1786 -1039 -614 -701 -44 -3 145 -7 -36 54 140 -779 -1269 42 1031 -1456 33 966 1589 2196 2829 -2 -1363 -313 -494 -442 515 -811 296 -13 -1338 -500 -1071 -865 -809 -481 -1008 -481 -504 59 1124 337 1745 2766 2278 1750 1355 733 -21 330 760 -363 -338 307 -2318 -1812 -2616 -1397 -1499 -2409 -2743 -3049 -2636 1024 53 -1010 435 237 -602 412 -530 -159 -1342 -1215 -1273 -889 -1141 -224 215 -351 1316 -390 -1397 -600 1381 475 -386 2041 1182 0 -129 634 331 -645 130 -169 -714 -241 -636 -1507 -1823 -523 135 -422 2116 1345 1431 2537 260 80 772 -1498 -436 -1178 -1265 -965 -727 2172 3468 1456 2722 3711 2411 449 967 1498 478 1560 1028 205 475 195 -679 -721 -132 -128 -620 -838 759 650 204 1388 2879 1151 -1711 959 1633 -1628 539 2127 -2734 -350 956 -728 -201 -189 -226 -1123 -89 233 -1154 -261 -4098 -1968 933 -2087 -1169 2033 352 1554 1233 2375 4105 4479 3203 3628 3965 -20 793 174 269 -1998 -1103 -232 -2343 -2171 -674 -2822 -1751 552 106 -52 -1271 -1563 453 590 446 1774 862 20 -105 87 -305 -559 -1067 -1311 -1111 -621 -367 -1436 -426 -225 -1161 -497 -83 -949 -1321 -1643 -1040 -23 -688 -147 710 748 1047 -377 -867 -1163 689 -582 -273 1125 744 104 -1054 68 1609 -879 608 1157 -1897 458 -1 1167 429 1002 838 558 917 -166 -94 766 -1401 -1030 -207 -193 -253 -802 651 -378 -2117 1497 -421 -2851 1098 299 -2851 1640 907 -1423 -1160 -1809 138 -913 -768 420 673 1671 960 -310 -490 -644 -586 54 -873 -478 1339 292 646 -1013 -1373 -836 -1474 -1635 -458 -847 19 -575 -1037 -2086 48 -2 -1427 1156 977 294 -2474 -2738 -1602 -1483 -1693 -716 -403 471 507 -1329 -2156 -3931 -1268 -1919 -3723 -1944 -2541 -3550 35 -763 -2110 603 -144 -140 734 -1398 -2223 407 1573 832 -687 180 71 -223 155 257 -1563 -447 -4 -608 95 458 787 519 143 -2106 698 2749 -2176 -520 3197 -1928 -677 2909 1907 1655 -175 1184 1338 -1153 1959 1112 -1694 1671 2247 709 2284 3780 1967 -1485 408 156 -2489 -1246 668 -999 -1100 263 -1042 -1218 -207 -746 -306 -1529 303 1146 1603 -141 1729 2389 734 -1010 -1167 -861 -2775 -1128 -1632 -2323 -937 161 -1005 -368 -289 -1737 -392 -157 -1058 215 858 -87 560 971 623 1175 362 -770 1170 -484 1356 1417 1096 202 -1601 71 -470 -1917 -2903 -2855 -2359 -1727 -1393 -920 -1664 -1128 -1193 -549 566 -114 1484 2115 2953 1156 1551 1825 -715 -910 595 -1643 -515 1814 905 2196 3930 781 733 834 -190 15 834 -998 -1614 -340 201 -1352 -1323 172 -1914 -1988 1109 -517 -103 -145 -207 1051 -31 -899 1051 1487 1143 2086 125 486 -1047 -337 1000 -725 -55 1538 -306 767 2917 3160 -636 112 1178 -1486 -2927 -1149 1006 1681 789 246 902 -99 136 559 -484 759 2036 2696 -617 0 869 -1152 -271 -500 -115 534 -1493 399 -68 -2808 464 -115 -1796 186 247 -373 -1018 -1133 -283 -1755 -239 -191 84 -2291 -1660 -460 -1987 -3095 -915 -1550 248 -422 -481 -1115 -499 -286 -491 -502 150 242 -386 -6 1396 -1283 -1496 403 -1770 -838 -2103 -2702 -3533 -2892 -2759 -3040 -2379 -1663 -1572 -491 -734 199 478 150 1204 417 -941 276 547 -169 -1345 -1353 -1374 -1988 -2822 -2672 -2733 -3896 -806 -2838 -4181 805 -1345 -3149 2691 83 -2571 2995 2302 165 1862 263 -673 581 -2732 -1891 -291 -1067 -542 489 -505 815 492 1418 1700 -692 -69 -452 -1145 -1649 -1518 -2272 -2960 -2916 -1249 -1400 -1013 -1036 -1487 -1770 -319 -710 381 -124 -755 -727 -1369 -1753 -1174 -1210 -711 -681 -1572 316 173 543 1576 1276 199 1387 492 -400 -161 -1146 1036 -465 -1832 722 -151 -1794 110 -2382 -32 700 -1535 -1518 2362 2318 -539 -913 -406 11 -967 -454 670 -133 -1097 733 -336 -718 -633 147 701 2014 -153 357 1795 -1166 -1491 -1939 -1099 -1216 -1360 1651 1249 356 -966 1337 1468 -1077 667 575 49 1245 846 -144 212 1456 -145 -652 766 774 -987 -328 1499 1012 -1604 2041 2290 871 -11 480 -374 -1427 -2449 -876 1243 927 -428 1758 2382 750 2071 2223 2069 -661 -829 765 676 5 1042 1699 410 398 -299 -2306 -1916 1400 134 410 -193 -89 -569 524 84 -390 -599 -1436 -2724 500 198 18 460 780 -160 -538 -6 -1259 2129 1670 -42 2365 1166 -1211 1655 1013 384 -1479 -958 -479 -1037 402 921 -922 336 -1111 -98 795 355 -645 -107 -625 225 -183 -279 531 -114 -465 353 -1014 -1097 -94 -1100 -1422 -654 1262 525 -498 272 -761 -293 392 747 139 350 378 -622 -277 -1145 -398 -208 -1132 2085 307 -597 1339 -654 -1488 832 -653 -1900 1055 729 -466 2473 1946 169 1788 1547 525 2146 581 -2025 1458 733 -2534 1209 121 -898 450 -202 402 202 379 -357 -332 297 -148 26 207 -829 1173 1912 911 973 2222 1040 1036 -86 -508 -339 -2419 -532 622 -2338 550 2007 2079 1161 622 60 -158 -24 -120 -182 -1185 -447 -877 196 -58 302 201 -436 477 -905 -1106 -15 -2404 -1963 -772 -534 -141 458 917 1048 435 1770 2039 376 811 233 -562 -954 -1135 -1005 -662 -926 -1278 -177 -1895 -74 1312 1886 1122 531 708 -569 -33 417 -491 -1222 1420 -471 344 105 -1015 249 -577 -700 800 -178 -1248 870 516 -1783 1152 -454 -1894 -618 -1774 -726 -1123 -2669 -1840 -668 -1437 -370 685 1087 -1040 2015 575 243 725 1264 102 378 514 586 -1417 -1555 -1197 600 1199 -382 473 -485 -182 62 -799 -533 -939 -885 -569 14 -533 -1160 548 69 -286 1022 1060 123 5 1245 749 1188 2300 722 606 -256 -135 -1269 506 -289 -794 1370 -449 355 22 -850 -90 533 1073 2236 1820 977 2464 1275 -216 852 -257 -1802 3280 909 -1709 3282 523 -706 307 1562 1013 425 -90 593 -374 -1332 -40 1000 1025 1491 -85 586 1321 -117 -826 -115 244 71 -1066 951 -261 -566 1032 146 -1718 771 1890 2894 -589 -1136 -153 -948 -1488 -1809 -22 -1538 740 -4202 -7107 -3513 -2502 -4095 -1752 -329 -1837 -632 -676 -861 292 -403 961 1959 -1525 -1726 236 -2156 -3043 -1737 -841 -1015 -1003 -1288 55 1141 -470 -276 2365 743 -1190 -403 -494 189 -1280 171 -938 -1135 -1150 -853 -932 714 727 -800 943 -442 -771 1040 786 -206 -1369 -2240 -2290 -568 -1171 -1219 1610 3551 1978 576 660 237 584 161 862 -526 -829 211 11 -63 -110 -1060 -1595 -997 -1483 -1852 -1249 -457 -790 -497 -1145 -2008 -1028 -317 -707 394 -166 -906 -1857 467 -591 -2806 1994 16 -676 -1149 -652 -409 -1147 -541 -341 -2341 -1982 -526 -704 -726 -1161 521 1100 -34 -579 -671 -1430 -1403 -737 696 -776 475 3433 -314 1979 3412 -461 -265 -48 -595 -996 -1501 -775 -147 -118 1279 1930 2220 -494 1909 2539 -1297 1322 1098 366 -826 658 -1922 -3419 -1883 -1333 -2803 -1283 1917 1956 1114 564 1076 278 1544 2298 661 -810 618 1273 -4478 1320 2228 -4306 84 759 -147 287 -361 -916 -1566 1280 -190 237 3020 468 1152 -585 245 786 -413 46 399 -198 602 1372 5 871 1142 30 -957 -1295 -1258 718 1583 1609 541 1771 1876 1275 2263 2071 698 1565 782 -446 73 -1882 2076 1438 -1054 343 363 11 -871 -1103 -777 -1718 -2309 -1650 -975 -1359 -1428 -1579 -3253 -1898 -419 -1095 -1770 939 834 -275 938 1357 1482 589 1668 2061 950 515 -1678 590 51 -1332 1144 1688 1551 -462 205 1121 471 827 -129 1607 666 -852 242 1130 257 555 -1239 2971 1636 -1406 633 -178 825 293 -645 1086 470 -713 602 932 -202 -211 252 858 1628 1024 651 660 299 -606 913 1372 -1542 -487 133 -596 576 311 744 74 1256 -1107 -2486 167 634 -159 1625 302 -217 -525 -571 -156 868 -1534 -318 378 -601 -224 -695 75 -163 -895 -576 -82 -1388 -6 -616 559 -697 -2238 -620 63 -1351 -7 -1268 506 -864 -1229 696 99 -412 1680 563 1007 589 223 1000 361 904 598 404 1128 1656 -278 1336 2763 1316 2309 1027 603 2007 479 -285 797 134 182 361 -421 -1193 -664 -2315 -1717 404 460 -1029 -131 975 1018 893 369 1074 162 -266 902 422 -113 1761 1018 133 1381 707 429 1300 925 -124 -100 -426 -2354 -1961 -1482 -2400 270 -1019 -1138 1667 -595 -1743 -895 -252 -1916 -191 2410 -674 591 1431 -1453 -2227 -2386 -125 -632 -1146 2034 2092 2029 -1705 789 2173 -2608 1468 1172 779 858 1322 474 829 1206 7 -884 466 -712 -1276 4 -1528 84 -1089 402 1555 179 1034 1902 1215 -165 -986 -1548 349 57 -537 49 707 604 1409 1350 -165 2699 1236 -1113 -181 -2526 -2198 -1225 -221 871 -30 1572 1525 1577 1729 1062 -236 -940 -442 -644 -2114 -1026 -839 -1520 -1186 -728 98 176 -446 625 333 1076 1210 915 -2667 -2963 -2034 -1128 -747 -748 -540 1037 -506 392 1246 -773 2355 3446 1208 142 1137 -205 -2399 -4995 -1370 -5589 -8804 -4801 -1647 -3734 -928 -70 -1632 -741 -1233 -3027 -1738 1093 211 829 105 739 898 -2000 -863 -479 -334 -327 393 1145 652 1419 495 822 1247 -322 -147 208 86 256 -2 -820 -92 -557 86 1416 366 -287 539 -414 899 1541 -339 -298 1073 -296 1493 2596 1342 690 1791 1275 -1064 154 -167 1133 2588 2140 1147 2969 2312 -2131 -1644 -1224 -467 -1004 -829 -960 -1326 -568 -355 -1131 -309 -1059 -1566 -628 -2321 -2999 -1352 -313 -672 179 -47 -31 -931 1298 1046 -244 2210 1994 887 1133 828 1247 -827 -1182 -232 -955 -629 -768 -1110 -45 71 724 1137 1533 358 766 1506 588 333 228 -788 -1055 -772 -533 -1068 -664 -1475 -2414 -1375 -900 -931 -1023 165 944 221 -293 599 1975 285 1464 2512 1548 2027 2973 -597 916 1237 -644 900 1711 -376 -110 1214 606 575 -4 809 1372 450 -324 -479 107 -566 -231 3178 -1296 -1474 3673 422 1022 3939 -30 -677 -785 -426 -635 282 -215 -448 84 -1071 -1567 -555 -971 -1723 63 -131 -969 160 -964 -1189 -243 -725 -1046 -339 516 707 440 548 219 879 1179 -818 -718 -315 889 42 447 1146 -285 -48 318 615 1683 1357 1650 -1498 -1001 -132 -166 -611 548 -727 -869 418 -734 1951 548 1571 5907 4588 -26 3957 1840 -875 325 359 -576 -21 424 -727 -1672 -791 372 298 596 405 383 1263 440 78 1098 1051 -1539 644 -56 -2746 -525 861 -287 600 208 102 921 -875 -1634 -564 -1713 -1505 -880 -916 364 447 -1174 229 140 -146 777 431 -157 382 -814 2348 -375 -763 -1379 -1878 -134 -434 -187 -945 -964 -544 -1488 -951 -226 -693 -350 1598 998 -133 2171 2017 -1506 -1253 -312 -1432 -1214 -621 -840 -1403 17 -958 -1614 -1013 1301 219 336 695 -260 -36 123 528 737 -38 -859 -327 854 676 2026 -269 961 874 -159 178 -727 1809 3300 1462 1344 2674 2382 -111 -1020 -365 31 -1499 743 621 1793 1917 -1899 -2839 -1309 -304 -425 -628 -359 -199 -1077 177 53 193 -335 -271 -234 -1008 -90 -1758 118 3 -128 -552 -1336 -685 -682 -474 -537 263 -9 -1231 -414 -1309 -1921 1662 900 198 805 1506 555 -96 -271 777 -1052 171 1151 2233 1051 231 1187 826 408 600 292 279 1309 225 1901 987 332 1839 2738 1588 2336 -159 2214 1864 572 2281 1470 1627 2083 1673 -1300 -678 -46 -1458 -630 -194 2 1230 1851 1860 500 1436 1044 247 1207 1117 87 407 442 21 70 -637 -429 -91 176 -885 351 943 1275 437 -121 -763 -1234 -145 -304 -1462 442 82 1553 -3045 -6150 -1604 -2129 -3986 -2057 2377 3379 1594 -116 -1011 -150 530 -751 -776 470 1064 1013 1576 778 1034 -96 -680 109 -600 1616 2332 773 3154 3267 1014 3500 3045 1434 907 -2179 1551 1555 -589 95 1429 627 482 309 1471 220 322 912 31 -127 902 -331 -1281 -548 -1451 596 -382 -58 692 32 -515 -786 256 -509 -1187 -1221 -515 -655 -895 468 882 859 244 -48 -97 777 855 726 5 641 541 603 1781 969 -1111 -1081 -487 -2355 -1828 -1523 -971 -138 654 325 1942 1060 -1263 -700 -1162 -1432 -416 632 -2124 -1847 -1359 -711 -1405 -342 853 173 -703 1850 2388 821 -470 2648 1426 1609 3495 1780 -1282 431 837 1301 1321 1945 858 -701 1074 229 -770 1018 -1742 540 946 -1049 1264 2643 -1024 -621 -23 259 -987 -535 -1544 -1579 1454 -575 926 3195 244 1246 505 2032 -164 -1049 2182 -1196 -1256 -858 -1112 -719 332 -162 -194 627 544 -172 -1351 -981 1045 -1706 -1776 705 -730 -1883 -540 -693 -1230 -564 -988 -1252 -376 -1993 -1441 -792 1301 -447 -387 730 -946 22 -1297 -1165 -1055 827 198 260 2077 1000 1184 1740 2284 1535 2153 1230 1575 909 -927 -654 1525 114 144 -1491 1153 -551 -2150 167 217 -1774 -1215 -589 845 -122 -772 -100 -1654 -1384 289 0 39 766 -127 -603 1809 981 1347 2241 1200 1792 -1884 -550 77 -1258 -93 561 -1207 -266 -510 -2229 -2862 -1901 -35 -279 85 991 1163 1050 -2158 -1924 -510 -975 -754 1135 -2018 -2475 -535 -1104 -892 -778 -491 -149 -809 758 2135 1317 -1644 -2738 -2469 -3026 -4316 -3238 -841 -1614 -1198 -461 -998 -1679 -46 330 723 -1545 -1309 -622 -301 -476 -330 2270 986 162 1910 2275 585 -133 859 1357 861 2325 3348 -101 -316 1090 186 -744 -694 25 -457 627 -556 -1813 -981 697 -137 -1809 105 -292 -1309 -1354 -1141 -1183 219 76 -561 237 244 24 145 1107 -41 -210 -631 -1240 76 1185 359 -1471 -402 -27 390 -134 -851 375 374 270 968 275 242 288 -1164 120 -135 608 260 1953 2461 713 3 -1060 -549 792 346 123 -813 -1279 -175 206 691 -209 523 2094 1519 -550 633 889 131 -56 213 -356 -308 -103 -675 -447 -406 -1020 -2009 -1548 29 -859 -1259 546 1398 105 1257 782 -1206 1675 100 -1563 1037 -162 -1218 -2055 -1017 -763 -1147 -1320 -836 -944 -673 -950 -312 2308 134 817 2976 301 -1117 392 -80 -1734 -2617 -1611 -1883 -3535 -1002 1431 380 1520 6 460 -73 -914 1493 983 -1088 1722 1144 1968 1894 2046 -248 -1592 -438 -616 -1814 -1227 635 -67 1629 -559 -1571 -340 -93 -1654 18 -267 1138 782 265 164 -742 581 -95 -778 265 1527 79 -1013 217 -618 -1405 -581 -626 -349 -1278 -372 125 -418 -438 -1136 -1005 -1384 -613 -1667 -490 -809 -3355 -1935 509 -1944 -2711 -63 -997 -171 -669 -663 500 -1121 -296 1331 -1770 -362 133 -108 935 3166 1679 1856 2948 -1682 -1668 -2539 -708 -324 -2674 -585 203 -2041 2204 4115 3745 100 1940 2878 -1814 -2686 -1902 1651 1118 -37 788 -415 -120 784 -376 25 492 -158 -108 -239 -1959 -1924 556 -1140 -546 -42 178 386 -255 -1093 -211 -810 -1080 -358 772 -245 -1594 -153 71 -645 -64 1601 615 -1345 -2771 -1669 -2451 -5278 -3837 -857 -2702 -1534 123 123 431 -107 817 964 -1186 -642 541 1489 1565 1921 325 1240 2046 124 59 689 198 -668 -512 -716 -993 234 131 69 622 347 474 -1776 1353 1203 93 1025 1032 -285 -964 -616 -2298 -251 150 481 -1854 -1310 -388 -1686 630 1180 -340 671 1119 1339 435 -1027 137 775 -175 773 808 153 448 955 -953 -525 -213 -1705 644 1797 478 1097 2070 1441 1392 676 4 -168 -239 280 -1225 -701 94 -620 -3345 -1787 -2081 -4088 -2865 615 -427 278 825 541 797 953 1189 -892 752 873 -381 -609 197 -1432 225 309 -1459 437 -238 -1579 1027 -426 415 573 -938 -49 578 -361 624 -127 -1047 -2116 957 -1009 -2076 -46 630 -1323 2260 -1114 -789 -412 -2273 -472 535 105 1596 -731 -545 -705 -607 -531 -8 789 1790 1198 -520 712 188 -436 1169 1190 -828 1752 634 267 1146 670 273 311 1424 680 732 1805 -1625 -2430 -972 -922 -1267 -231 -376 537 702 -1093 -2187 -299 -1023 -1855 -584 -689 -1511 -651 1343 -230 -455 290 -792 -448 -1369 27 -616 485 -2003 571 30 -1613 309 367 192 1511 648 590 1655 -292 -831 700 -2049 -1507 -197 -942 -510 -349 -1461 -1159 -630 -1999 -1783 -477 -343 461 -301 1333 696 -497 -106 -538 331 711 895 693 896 807 867 1736 1874 1856 -1564 -1741 -1206 -255 -751 -475 469 -394 -194 -508 -1561 -1716 -432 -954 -1448 6 -384 -966 -1086 8 -165 -1016 -249 -67 -1067 271 59 -216 385 -982 675 728 377 634 1393 8 1806 2087 1666 2351 1512 528 1155 729 369 982 630 277 -116 32 1793 -612 -1065 -194 700 -118 -51 1426 1025 373 958 2892 2022 -1968 -1862 -1715 -2441 -1613 -2290 -1692 -505 -728 745 -155 -502 740 -431 -1974 123 -603 -1594 5 207 986 -350 -380 1092 -134 23 529 1117 1448 1601 755 627 1007 1726 2167 2189 -127 -528 0 -213 -508 260 921 84 513 -1326 -2066 81 198 -3000 -1075 438 -517 -1692 324 -1275 -339 -1211 -1264 753 -1165 -2074 -56 -997 -1424 -929 504 1193 1002 -328 613 418 582 667 650 1147 -243 47 900 155 990 379 -408 -102 -670 -1092 -1199 -1367 -154 -535 -750 1705 1760 -1224 64 2517 -1189 -795 1384 -291 338 245 21 548 239 611 536 73 -4381 -3923 -2223 1463 2092 2440 611 2439 920 -135 813 -203 -543 912 -1355 -1266 783 -1535 -116 -235 -82 -1004 -700 -1331 -22 -145 -984 -1897 -2225 -1667 -10 996 2264 2417 4596 4824 702 141 -368 770 -318 -360 -24 -639 -984 -748 -900 -1737 611 1122 -406 1703 2249 424 -975 -1197 -284 -733 454 377 -1112 314 414 697 -502 806 579 -69 -27 1695 509 523 -323 -897 -1165 -556 -1499 -2524 -605 -806 -1443 -1019 -1185 -691 -433 -937 -1138 390 -809 -1206 198 -515 -282 166 -357 -526 1616 1888 1824 -624 -144 206 -2 -319 540 1051 -325 1367 -1799 -1107 -624 -616 -1665 52 -664 -1413 367 1226 -135 -809 1102 173 -1655 1513 1093 -237 -775 -505 25 -1729 -1533 -479 -1772 -1731 -1466 -614 291 87 197 -519 -635 480 689 522 -205 1244 190 868 637 553 -545 897 1433 625 1240 1360 779 850 1153 2108 2412 3262 -1892 -1091 -964 -459 -368 -545 244 455 -336 883 501 27 -941 -601 -1048 -603 -214 -514 -85 -773 64 -1267 -798 -573 -1154 -443 -1189 -577 496 -251 573 1908 1139 -495 -1197 -1071 -729 -703 -696 -748 -926 -1281 673 -14 -208 975 192 600 387 -633 141 -168 71 270 -1430 -1143 -596 -833 -546 -654 -2044 -69 582 -1724 -1099 -1042 -1052 -126 600 -255 422 969 -1060 -214 -409 -1760 -1960 -784 -1667 -2792 -1308 466 362 616 -273 -201 -53 513 361 326 -1140 -1497 -2252 -1546 -2211 -2303 -1985 -2796 -2549 226 -165 140 -356 -715 -968 10 135 800 -225 1550 1509 344 1488 876 -446 -133 77 -497 214 814 -1324 386 497 -742 32 -295 -364 -763 143 -154 -46 1943 -913 -1185 1521 179 1039 1153 -216 884 488 429 5 -335 -1957 -1742 -253 -872 -1052 -236 -569 -1807 -448 -233 661 20 -843 -743 -778 -1227 -393 -880 541 578 1237 403 287 332 -191 963 86 184 469 1301 63 -802 197 344 21 -422 1780 1784 1427 1784 2824 2022 430 1360 1010 -992 -2054 -1769 -228 -628 641 218 122 443 835 472 481 1021 786 1607 1100 1132 902 -906 -423 -206 -270 -38 -547 209 1296 193 492 510 842 1099 1207 1308 2739 1603 1074 -32 1326 1434 711 482 1119 -360 -1055 555 2185 1905 1717 346 -201 -375 130 -128 -441 43 210 650 923 130 311 1225 549 335 59 -113 -107 -207 -1488 -960 -814 -1644 -1671 -406 962 902 -179 1642 1306 133 1666 1274 398 250 -594 956 328 -1581 2236 853 -948 378 647 1181 389 141 -582 750 -504 -1390 -1329 -1887 -1960 -873 -1549 -1817 -1137 -1196 -1038 -2 -583 616 29 -696 286 1043 -148 459 1397 265 -442 1742 2540 1124 1124 1272 857 -649 1160 342 -998 112 383 -982 -646 -963 -94 -205 347 -794 -1053 -200 -1086 -1135 -683 -232 402 968 -1017 -1367 -615 -452 -960 66 -184 -592 1229 -2139 -1536 36 -362 590 220 695 32 -700 1482 1229 -852 433 -1135 -1340 -480 -477 -467 -804 -838 -580 -320 -401 60 -774 273 -259 -827 115 324 -563 -411 -490 -1596 -1450 -2147 -979 -671 -1650 -1463 -1044 -2157 236 854 1662 -176 545 843 784 1211 734 -579 -769 -370 -112 -583 241 -174 139 384 735 1618 1902 2269 3828 3203 2590 4218 3829 -1241 -363 -439 -1320 -844 -465 -1020 339 134 -1161 -653 -1112 -1024 -229 -481 -1557 -521 318 -745 260 930 -18 764 474 1397 1399 205 -1641 -1577 -987 -312 -1718 -1872 1620 -64 -1837 -1496 -1341 95 -1979 -1508 -1215 239 3 -1776 1864 960 1156 1046 -48 862 879 -57 232 844 898 181 1324 2672 1665 1346 2068 313 -115 637 -871 -1267 266 -1688 358 1640 346 -543 -1387 -2376 341 -569 -1310 -583 653 -723 -733 -1148 -2072 -1610 -1767 -2398 -1144 -1883 -1608 -300 717 -378 1689 4572 3063 1457 3488 2432 -295 61 93 4 890 640 1608 1787 1405 -374 -357 -1027 -728 -504 -820 80 650 640 -368 -165 1184 -467 -1010 562 -444 -257 787 147 -46 -526 -356 -92 -119 -1294 -937 -830 498 632 -906 755 1777 311 1145 1239 354 884 743 704 1756 1173 2083 1219 1021 1545 187 -181 841 -847 -488 301 -1804 -1381 -1441 192 361 720 -31 -524 514 -97 -625 -55 -749 -745 -1357 -1161 -1735 -1714 -616 -1452 -945 -705 -867 -1519 -889 -1441 -2005 -1306 -1142 -1142 -955 806 1311 -485 1196 1408 -58 828 1310 -598 -407 -733 -115 1083 1036 1206 1524 2164 528 790 1208 1759 1718 2214 438 78 226 -496 532 1294 -434 749 1819 627 1404 2064 1092 1460 961 1357 1113 896 428 426 555 -711 -167 59 33 -133 66 708 676 75 -414 -76 -521 361 488 426 794 628 759 236 -289 168 123 -333 -311 -734 -1260 -797 -64 -526 -791 -80 147 -611 -458 120 -912 -910 -489 -705 -114 654 341 -304 837 -65 -1862 -1052 -1239 -1265 -237 -713 -2088 -1476 -1211 -481 803 821 1531 3171 2680 2309 4754 3890 -555 746 2196 -1073 -46 866 -401 964 980 -557 -604 371 -1383 -1483 351 -233 -1304 -892 1345 -954 -70 424 -216 -154 814 -796 -840 -936 356 943 -1458 -128 -673 93 -640 -475 1355 1768 1862 896 1067 649 1121 -346 -126 1964 1636 1385 637 -275 -915 608 550 748 -1161 -1216 -1521 -1118 -1325 -1658 -1739 -1276 -2041 680 965 -298 324 971 -1018 1007 1313 -776 -1395 -1747 -1981 -892 -973 -1315 -1472 -2038 -1697 -1161 -1122 -397 -114 -517 288 441 762 510 -276 -173 864 -151 173 254 1306 777 265 -665 -1771 -1181 -965 -1974 -1710 -12 -683 -505 -589 -362 -327 399 -33 -301 280 674 -126 -58 -931 -1284 637 -1094 -705 94 -1282 -363 -48 -83 -1784 -159 -283 -994 -581 724 -223 -1252 -788 -1906 -885 -358 -2563 -958 -1669 -3400 -205 268 334 781 416 530 1904 1006 178 1364 551 605 1576 911 138 753 -157 -87 -662 -1363 -1277 -819 -777 -1199 -628 -1105 -889 333 1004 1396 727 1387 1820 1522 2676 2805 631 -103 1974 278 -31 1808 -943 87 1113 1022 516 184 -222 -751 -725 1201 1197 783 -327 314 681 50 1392 1961 -231 993 1616 -314 -23 413 -71 844 1682 1368 2316 3206 -195 1360 2107 -107 524 677 -951 -933 -817 116 897 1273 1084 1331 1672 52 535 668 -1804 -1711 -1024 -921 604 762 434 1323 1897 -149 -92 -440 14 434 705 14 152 638 49 -110 28 317 360 384 -32 101 501 -1329 -2495 -1572 -247 -2341 -780 -1343 -1626 -99 -242 -262 -876 -1956 -684 -1701 -1806 -1056 -1389 -1438 -2377 -1976 -80 -704 281 -541 -878 110 1517 1210 81 1543 1439 443 -179 479 -572 -1416 -2121 -1351 -900 -1693 -881 -90 -1259 -256 150 641 1209 1964 1488 1699 1816 874 1316 -327 -930 -1050 -910 -1904 -1529 -856 -1365 -1312 -1195 -290 153 -1799 -755 -734 -2050 -1296 -1231 -1073 -1018 -140 85 -310 683 484 89 541 -1276 -60 -221 -893 900 -241 1459 2047 738 -470 -191 -469 -216 236 274 1221 1679 2017 -925 -696 -159 -1165 -1238 -368 -1125 -1041 -406 -355 263 724 -934 649 1327 -913 95 880 -55 1169 295 484 950 333 142 130 13 -385 -472 -721 -2078 -2356 -1840 -1615 -1573 -525 198 0 514 385 1768 680 734 2244 1508 288 -120 -328 632 -423 -515 1998 1122 515 -361 6 -528 -701 -765 96 -406 619 941 196 -930 -1521 -87 646 -714 -249 157 77 233 950 471 243 687 818 201 197 734 998 1514 1116 -989 -764 -1612 -1339 -1429 -1473 366 690 250 -576 -573 -792 -126 -114 -638 744 394 1390 1356 671 555 1587 2098 1805 -601 772 466 -855 975 544 434 1565 1444 333 -154 -308 863 630 -318 901 1510 49 376 -110 335 1032 -288 371 1324 299 1192 -126 -287 -547 -971 -1206 -204 236 591 1298 -919 -1137 -115 -70 -732 341 -277 -812 -568 -182 -264 -744 -89 390 -444 -284 83 -319 -778 -613 740 -295 -297 1166 -252 -67 1679 -2126 -1414 -2404 -1708 -1408 -2326 -1389 -655 -989 -874 -847 -1068 -511 -1750 -1238 -915 -1582 -2047 -1333 -1199 -1844 -964 -475 -2011 -279 735 -1224 -803 532 -1519 -439 -751 -1753 -1375 -605 -1567 -462 492 -716 -631 -480 -1431 -1133 -1978 -2796 1264 -214 -406 1593 -947 -517 1916 399 689 -248 -256 -522 -2165 -1263 -736 -3291 -2240 -845 80 411 -321 546 1263 1027 -1164 1157 317 -2149 -43 801 -2156 302 1280 -223 617 735 -1100 -2084 -1467 -3051 -3910 -2614 -3058 -3570 -2615 -267 966 1299 -509 537 1283 -846 582 1203 -603 32 222 -570 -43 -755 -375 -1247 -1658 558 109 751 2300 2380 3045 2247 3295 4560 -686 -433 -765 -816 404 138 -1077 -523 -578 -392 -77 -191 245 -33 737 1041 -258 374 236 696 898 -139 631 1142 -648 346 982 284 931 244 -379 27 -470 -75 -445 -1907 409 1170 937 -472 -180 438 -1082 -469 -454 -1997 -1006 -1211 -1608 -1195 -1156 -135 -363 891 -1684 -1592 -2019 674 796 815 -230 1290 190 -566 -514 -584 -271 178 -448 -448 220 -933 -674 -679 -1888 -906 -152 -1783 -468 -599 -1211 303 -166 -400 -1359 -1755 -1673 -730 -1041 -1091 1292 1505 784 113 -164 -548 981 429 -830 -548 -807 -1191 -457 0 123 -187 585 224 76 137 -295 199 368 -11 55 782 743 4 -671 -344 936 168 -732 359 170 245 -2988 -2630 -1351 -2298 -1153 -855 -1129 -705 -1053 460 372 482 1241 1116 209 645 1010 1043 -309 -641 -450 -199 -749 145 -180 -154 -9 447 -434 1258 113 96 539 1313 488 2007 -495 -508 -783 -1770 -1471 -2508 275 -301 -1435 -16 -276 -1008 -381 -1745 -1471 -1112 -1894 -1652 1179 400 362 1022 565 271 917 378 356 -1474 -322 -2 -767 -345 -726 294 -400 -321 768 -475 -393 552 -395 628 -294 7 1460 1349 267 1273 700 71 956 99 -145 632 1157 957 -1642 1638 977 -1065 -303 -1352 -1146 -55 64 -785 606 701 -754 -674 -451 -1297 313 833 942 1091 674 1276 719 249 786 -499 -583 -927 -95 -138 -1302 426 1468 1472 469 495 -47 1447 1047 1790 988 1021 1627 -584 -664 795 -250 224 1460 822 212 -261 1266 999 1996 -251 30 630 -808 -835 246 -1268 -1394 -407 -640 -653 -368 -153 -873 -62 1726 1360 2627 164 -1555 296 1288 -1140 557 20 161 -83 1167 949 586 1290 1661 1022 1019 127 -124 1071 680 -357 825 347 163 -128 29 187 -817 -1038 -831 -1053 -1189 -1076 -422 983 1320 -100 400 1040 -1028 -1681 -1491 -1097 -516 -571 242 -115 229 -1570 -943 -565 -888 -397 -1165 -231 -715 -1097 -118 -166 -783 465 1092 336 885 955 677 2337 1493 2047 548 379 -108 736 718 98 2355 1371 546 -899 -1588 -490 -810 -1632 -699 -792 -1324 -1309 1380 824 -1257 571 104 -2571 1867 765 -1712 333 154 474 -269 10 -408 488 -565 1 -992 391 1094 208 -4 938 744 701 698 689 681 2611 -343 466 2406 656 1053 1830 -1245 -337 277 -1430 -1757 -1215 -387 -1522 -1694 925 456 42 733 46 551 -341 -2411 -935 503 -426 1057 24 -724 889 633 -296 1862 -858 -265 -1499 9 859 -707 34 -695 -1883 -146 -300 -723 49 -297 894 539 319 2419 224 311 279 -1600 -1600 -1388 -1101 -1506 -1330 59 -519 -923 30 64 210 -36 482 310 -824 -869 -1767 165 -1336 -2367 41 -663 -1425 -2578 -2263 -1401 -1521 -1335 -826 -321 66 621 -141 219 155 21 912 2830 -213 1604 3145 -325 -1846 -2137 -227 -1836 -1814 -1096 -1155 -1629 -145 -238 240 -333 156 1423 -1032 633 1070 -1046 -1989 -963 -2456 -2381 -1641 -1667 -2184 -2091 -1192 625 -803 112 2943 -119 1019 3530 887 267 1507 2424 727 1785 2869 147 617 1422 -1114 -813 -619 -182 -834 176 20 776 1386 -426 -881 121 -658 -313 187 -436 850 272 826 595 515 713 400 963 -824 -850 -609 757 -296 -895 250 30 178 -765 -562 -234 320 347 437 46 -502 -552 196 452 -173 223 -115 723 802 608 2319 -136 -322 232 -1478 -1034 -614 -1380 -985 -763 -1161 -920 99 -131 -9 -1694 424 369 -1004 -465 -402 -167 -37 -305 419 841 118 106 1183 426 -1066 350 605 592 -152 -924 -312 -699 -775 -878 550 -237 282 -1042 -1533 -469 118 949 1153 -664 -494 1262 -1298 -990 895 -897 -695 599 -1637 -356 -265 -1082 815 1174 -1244 725 1098 120 1237 269 -249 356 -1114 -1150 -1863 -2993 -469 -1057 -645 -244 -610 -394 297 745 684 54 -386 -1320 750 -47 -765 -225 61 -938 -448 300 1398 -31 1067 1486 -631 -196 529 -119 1325 872 -1020 922 56 -1289 466 342 -474 64 1155 -1399 -145 1109 -1275 -29 1237 -664 165 771 -1122 -448 440 -1088 -1678 -1078 -27 -88 -568 -771 130 406 -67 947 684 343 29 187 195 -17 -1095 -512 -831 -1222 1026 1054 -550 1064 305 -189 -952 -466 -1395 369 1152 1853 -358 -537 193 -1157 -1077 -851 -896 -598 -1085 23 324 -1115 359 554 -729 1023 648 227 964 463 -601 465 413 -235 -422 -443 762 963 1561 3237 1238 2292 2981 1042 2186 1716 695 1213 197 721 1671 894 446 939 441 -279 -848 -852 415 -414 -538 21 -57 183 -479 556 -1287 -322 1010 -361 1028 -479 -129 485 -278 -250 7 93 118 95 295 -54 1011 774 1145 233 -245 -585 -460 -898 -1885 73 -116 933 294 310 1809 798 399 -727 1715 -748 -644 1519 -843 -2308 -2497 -1147 -1348 -1155 52 371 -429 766 2081 325 296 806 1265 179 381 -746 -703 -1301 437 -408 -204 320 455 128 -298 560 -364 1619 -201 -214 1816 467 -1776 764 572 -1705 996 -1242 -1496 602 -1467 -66 306 -693 2153 -43 682 -49 727 513 -1287 -827 46 -1951 33 -1688 -44 -1174 -2217 -1125 -2009 -1823 -1818 -506 1133 1133 341 926 565 81 1391 727 311 981 -423 841 -574 -1343 1802 593 -1072 1683 2384 1521 904 715 284 -209 224 -141 -648 76 -1304 -1300 -1565 -541 -810 -2241 -1860 -1727 -1218 -2273 -600 -323 -1463 -188 209 -384 2783 1867 -384 3462 2295 253 2135 336 -739 -2952 -2591 -2750 -807 -1240 -954 2182 2822 2915 -525 -654 -1409 418 -137 -1223 -272 -6 -1119 -300 -1520 -1694 55 -302 -706 1779 1993 1273 -2410 -346 557 -2950 -786 2475 -2425 -955 2178 261 512 1206 40 254 765 976 1367 1037 -55 138 600 35 1759 770 163 424 30 -182 -257 -496 655 35 -1429 -1885 -784 -1725 1211 1871 649 1294 2231 693 1198 2427 1024 -148 230 1029 -606 -345 487 600 389 867 -408 505 680 1727 -36 -423 772 -589 -1658 -639 621 2000 -638 779 818 -582 -2994 -2134 -453 389 1557 750 -861 1468 694 -449 1175 2336 2142 1555 3885 3509 276 2206 1979 725 368 2160 1131 -338 245 747 -1731 135 1493 1660 65 -996 1165 -618 -785 1201 -477 -621 545 612 1558 1 -1443 1058 284 -522 570 584 -443 54 -1594 -1048 -1153 559 950 -1184 -886 -555 -722 -2060 -2690 -2435 -1338 -1412 -2253 1295 1077 563 -743 -110 -1013 -924 -633 -502 -43 -62 492 -520 -1440 -357 406 -68 -234 -2367 -109 433 -423 -670 -206 1913 1416 314 -635 -606 -162 -426 -653 -852 -1152 -1596 -1260 530 773 527 -707 -866 -1848 563 14 -397 520 1240 246 -890 -883 -875 2150 2105 2445 1112 28 -134 1400 -277 -734 1158 -1225 -1305 1068 1435 2137 -581 -1016 -283 -1051 -957 -805 415 488 248 126 642 109 -1468 -645 -1141 -1247 390 1304 -577 229 2757 -178 552 4294 537 -528 1385 522 1391 1596 -311 -134 655 -1147 -770 -1459 457 2619 2631 549 2498 1652 280 -1465 -1691 1798 -154 -1227 1693 883 -1006 711 -1125 -1200 -1311 -3000 -2192 389 -138 415 1251 59 178 1151 913 68 653 446 -398 1826 1144 617 205 -300 -895 1415 336 -994 691 518 547 -655 -460 -1363 506 148 397 -2367 374 1685 -2445 1313 1297 -1057 1057 -1151 721 -116 35 -1428 -1029 -49 -1295 687 1378 451 1341 -154 1466 2052 233 795 860 -447 -1581 -2106 -2007 -1528 -1170 -933 823 1836 376 -117 804 -812 1377 2136 502 715 1442 715 -610 -578 -489 1041 1857 340 -936 -382 -1539 42 481 1060 402 973 755 618 1369 528 1508 1158 435 -547 -1763 -1565 -188 -1142 -1239 2182 3973 4299 23 -87 966 564 883 400 -985 -1008 -2007 -1180 -1188 -1127 -910 -120 1415 -129 346 508 1199 468 -687 108 -896 -1002 242 124 2342 2748 -208 226 2665 1248 -605 335 1403 428 -838 512 -220 12 167 1225 444 498 895 -355 -284 -527 99 390 -546 258 699 1028 521 370 558 329 36 314 -1635 -1815 -1845 -1871 -2290 -2140 -1409 -1356 -2705 -435 728 2259 -438 14 1398 -227 752 1540 577 908 -73 1583 2115 711 936 426 -161 -484 65 251 -855 -191 230 -473 476 748 480 493 480 -919 -1012 -1119 -700 -1078 -1766 1801 1668 1062 838 1919 1012 927 1533 418 -134 867 2313 892 2137 2861 781 730 755 -1304 -1106 -686 -1320 -35 -147 557 168 254 -866 -739 -1316 -61 0 -2039 -1387 -1598 -1592 -883 -1399 -813 -469 -1407 -387 1379 1999 1458 -564 -1517 -917 -1907 -2122 -1476 -592 -760 -848 -228 -61 -1857 299 810 -650 -482 504 433 1379 524 -2464 3390 635 -1962 3606 768 -1168 1165 3249 1653 1602 2073 1808 1859 1818 977 226 -1219 -2010 265 -824 1559 37 343 2140 723 2753 2249 -843 480 659 -1344 -1415 -1846 -684 -708 -538 214 856 1006 618 437 1339 -858 -1414 155 -306 738 2555 -761 1519 1680 524 2122 619 -456 1536 -347 -1696 -1363 -1075 497 405 -282 -508 -826 -128 -663 21 -348 -138 729 -517 -207 -157 40 182 468 366 -326 -627 29 -535 -513 -565 106 -308 -88 -208 -463 -122 -1147 -2261 -1016 -724 -1325 -123 -663 905 -245 570 1114 737 -404 -168 488 -162 212 823 -740 -743 249 -848 -538 -517 -945 774 102 -299 820 1300 333 1043 1230 -2360 -373 909 -1800 -1442 525 -161 522 -667 -352 -626 -484 -746 -689 82 -85 859 1501 25 -208 251 -306 -251 -1297 -153 104 -1374 -390 -31 153 -406 -1252 -1374 462 -549 -998 1508 881 1762 625 295 1288 -653 289 666 823 1399 1325 1308 2636 1377 385 1013 1248 2239 867 492 1443 620 1009 -95 -57 780 -571 256 440 280 1114 922 2320 3026 2337 -165 301 -1293 694 1455 -80 589 1360 806 -722 -749 -1311 -212 -409 -1051 134 -493 -1329 -616 -1608 -118 -708 68 1489 1048 947 1071 -2389 -2450 -1802 -2924 -3474 -2481 -2868 -3285 -2345 1350 -901 522 600 -1634 -511 -279 -266 -230 2443 1142 -235 505 991 1396 -798 913 270 -126 -590 -189 1260 890 846 -61 -170 -411 -890 216 95 -112 -567 -332 -334 -927 -1037 1586 1504 1500 1038 1336 613 -279 968 613 -862 -509 -186 -1600 188 626 391 274 1200 -1403 -2980 -2413 -1985 -5571 -4259 -741 -1818 -2365 -161 -410 96 -1307 -2632 -2121 -1897 -2681 -2253 1466 1690 969 39 1001 -784 728 784 -1381 -1887 -2401 -1393 19 -116 -688 9 743 -580 -88 -723 -229 -629 -2737 -1349 72 -1816 -1107 391 -214 -1161 444 890 728 -267 915 84 -1110 -795 -124 -1523 -183 367 -1565 -134 -134 988 594 601 1187 600 1851 2538 1525 1611 -1235 -1427 -1977 -896 -1763 -1337 194 -986 -908 -318 -58 314 -962 -979 -181 -1677 -2604 -1162 -535 -593 -2144 -128 -305 -1206 -1368 -1520 -1497 -1022 -288 -670 -1076 -327 1262 -1054 1311 2582 -135 -1616 -248 -950 -1713 -459 323 493 1174 -547 -1148 -1929 1278 426 -825 1294 2155 1023 238 290 14 -102 311 -713 -739 -1072 -859 1868 943 -415 -540 -1489 -3290 -847 -210 -698 1592 -12 -160 573 -984 -663 231 -736 -1081 -2727 -2345 -2381 -545 1601 543 1687 3161 1980 465 -180 -603 -176 -1096 -1316 386 -656 -761 -1099 -2744 176 -794 -1605 -331 -1172 -1355 -993 904 527 167 -586 -1765 -745 -149 -481 -921 277 124 -734 400 964 -189 590 809 107 755 1347 159 -1842 -429 -1104 -1352 -1708 -1621 -925 395 267 -1490 97 307 -1926 -1807 -2001 574 167 -1427 -510 1180 202 -1244 1718 2291 353 194 677 -1343 -1859 -1834 -1591 -2825 -2046 -1514 -831 -401 -1055 1366 1607 -543 1186 1343 668 730 18 -1833 -2794 -2144 -1059 -1007 -721 -1154 -1018 -1177 -704 -477 -672 162 532 -118 2858 613 -23 2788 341 -494 1019 -457 -714 -1574 -1855 -1966 1087 1125 -208 1191 2375 -367 -224 -1066 -448 -120 -261 30 1579 1297 -101 -381 209 -8 -2794 -2305 -1232 287 -232 608 -174 251 -1012 -583 1132 754 -1469 -529 1439 -293 2342 799 1582 3528 1744 673 2925 217 1403 -236 283 599 730 1193 -141 -460 175 8 91 -365 801 693 710 -981 -1014 -648 -118 -118 1228 -128 550 948 -1064 -52 -630 -800 567 1271 -1451 -318 344 -1656 -509 489 1440 -306 67 272 -1579 -115 1741 335 1308 464 68 801 863 -269 1081 -750 -1722 -320 1453 342 -178 2408 2126 1261 3143 3629 1475 1216 392 -436 -798 -103 -855 -867 -626 -776 -1441 -1265 -1244 -737 157 531 -498 -719 -284 1128 1854 449 1704 1495 379 330 -181 -536 -426 722 -535 -437 418 -449 739 1559 1572 -399 -376 627 -536 -274 -458 -1216 682 216 2536 940 -85 1869 1295 -595 955 1034 -24 -790 -630 686 -112 979 224 -266 112 -761 -1467 -662 516 -1412 80 1879 -1375 70 1599 -1222 -209 -510 -1618 -895 -528 -633 -14 -548 -1921 -2596 -3128 1363 41 -2487 2635 687 -2065 -1989 -1421 -942 -127 1475 1110 -1652 653 297 -758 -717 -467 698 -223 1130 48 1582 1952 27 385 224 -30 -262 -339 435 715 723 -363 -34 1368 -1368 -2574 -316 -499 -2129 -327 -1504 -980 -263 -1235 -504 -22 -1374 -652 -337 -993 -864 -462 -524 -488 -693 -136 93 -807 -1429 -2000 -521 -974 -1553 -925 -227 -415 120 -1854 -1314 -1081 -2012 -1260 -1680 -314 -445 -1256 20 -484 -1335 1446 972 -166 752 1364 -306 1408 1588 1121 448 213 800 620 138 802 -1231 -1345 -436 -1785 -2508 -627 -2228 -1896 -1180 -951 -1406 -1600 -787 -699 -1052 1060 1332 1179 1400 1925 1291 1142 381 244 1241 101 162 -1257 -2425 -2357 -309 -720 -416 -651 -373 -402 111 -1277 -619 -602 -2421 -2002 -78 -937 -1135 -265 -497 -1433 1025 684 -377 -561 396 -868 -674 -321 319 -1109 -927 -1250 -408 -875 -872 590 -214 -8 706 -268 138 522 -739 -863 894 1206 292 155 316 -1133 -626 -842 -2067 -2196 -1346 -448 -885 416 444 -966 -657 -1014 308 14 -1123 526 1950 1093 -245 373 623 -82 -508 299 922 329 430 147 -863 -327 -24 125 -112 49 -882 -1198 -174 -741 -1363 -415 167 260 1140 -841 -748 1375 1023 1815 1478 1260 1729 -304 -145 -189 -103 -665 -125 172 -1901 -355 825 3 1365 1225 1131 1651 347 53 -1951 329 198 418 -1337 845 487 -281 -1547 -2128 -1451 -2813 -1408 1499 1825 -18 -481 143 524 -1394 -567 133 -1825 -847 953 -580 -597 114 1288 1192 1996 -1166 1228 2026 -1258 -1026 -668 241 2940 1205 -514 1389 -55 -149 558 1639 13 -1065 271 235 238 -146 1156 1240 546 710 1158 2235 -1111 -63 629 474 454 373 -453 -784 -73 316 -739 -203 394 1689 2499 -1935 -139 1917 -1234 -330 164 641 1973 570 -1416 -2346 -554 -1098 -2066 -408 262 -398 -426 -307 -1377 -590 -898 -827 -741 -147 11 -495 58 662 371 905 1382 573 1405 2734 2202 1768 2670 1732 415 -424 -507 -790 -308 -861 -1051 -1796 -2246 303 478 599 828 1122 934 1634 1481 1007 367 -380 -327 234 72 202 -330 -72 411 -2321 -1669 -616 -613 -1268 -492 1190 73 -1640 2658 953 -1288 -860 -811 168 -1596 -2764 -562 -455 -584 102 -1298 -804 -113 -741 -83 480 -893 -235 -545 1614 -113 -663 285 -311 4 -1220 0 564 736 79 -300 -1066 -728 -959 170 -283 -759 95 -386 -359 -2197 -1840 378 -1905 -1113 1126 882 -312 -1338 1061 411 -577 1704 509 -19 -471 -873 -304 -239 -1276 -1398 -1057 -1365 -1830 -312 -1850 -1533 925 -1025 -848 737 -460 -870 3188 4191 3486 2480 1552 1923 95 -832 303 -1340 -1870 1704 -2330 513 4286 -1851 939 3189 -123 761 847 -1475 -2279 -1401 -657 1025 -232 -1097 -1077 1719 -1625 -1535 1622 -456 -972 1160 1415 812 -948 1271 1277 -1177 -110 213 -731 868 692 933 458 379 86 -105 -1394 -1386 346 -9 -357 1237 1000 693 1157 468 971 1506 -936 440 -1152 -885 1499 -1401 790 1818 -314 -865 -1435 539 49 -76 1317 1419 660 531 90 -1271 -961 -741 -1571 -1144 301 -859 -2075 -1622 -2755 558 2024 -1697 79 1920 -728 -532 -591 631 -325 129 599 707 1583 523 -1547 -501 -628 -985 -1196 -553 -1520 -1851 -1142 576 2302 1817 -362 1142 -170 -1416 -2258 -2319 491 -192 488 -1961 -2092 -684 -1850 -891 394 151 -696 -453 -27 -307 -170 1844 575 -1077 671 903 582 720 -1372 -592 -562 -3189 -2058 -499 530 11 327 831 -174 882 52 189 917 575 837 -165 -796 -259 626 92 572 919 1520 1613 1089 2273 -69 -2409 -1855 -2950 90 374 -301 -205 1333 455 687 2047 1586 667 658 1514 -1739 -1527 -1221 -827 109 518 1072 -741 43 1139 788 358 962 1324 1126 -387 -349 635 18 -1100 492 -509 -1318 1522 -394 -229 2983 72 -486 1144 -669 -581 -89 1037 491 676 -1389 -2099 -1714 -567 -642 -606 -2471 -2106 -1992 -1583 -998 -969 -1486 -1504 -1830 -253 106 -1850 687 23 -969 1129 745 570 -132 415 -381 188 -448 -517 283 -999 -702 800 1245 913 84 -270 1375 1308 2510 2496 -1176 -573 35 -1626 -899 405 -1154 -1210 -15 -1373 1587 1219 -2427 -1565 154 -619 -1795 127 -1290 -922 -1646 -612 766 1563 -818 -1100 -317 -295 -850 -61 2362 2760 2183 897 -466 524 257 923 309 -819 -1502 -1040 732 -244 -715 411 866 306 118 160 -375 1262 643 -195 1375 155 -158 402 -184 1324 -547 -608 107 -687 433 1285 60 1377 1129 -318 1764 111 -851 -2666 -1627 1366 1690 1323 1000 721 -503 -382 313 -296 -40 -454 -501 -79 -493 -157 841 568 491 1009 1382 432 -299 53 -493 -345 1524 1369 659 1340 1216 -2025 -1978 -2526 -506 61 621 -508 27 -425 -1138 -1298 -1997 1349 318 124 771 366 -1300 524 460 -2227 -1256 -938 843 1 533 2036 -727 -633 -1098 -383 -31 -450 -106 1150 752 1908 2417 1871 697 874 961 319 631 81 -13 52 -444 500 1514 -889 1366 2320 -2314 2265 2386 43 -1300 -2215 -2488 -1265 570 973 -599 624 900 367 564 78 -1091 -1681 -102 -2398 -3102 -503 896 -527 -1293 -92 -134 -244 -1131 -1299 -248 -223 171 122 148 908 -1480 -316 922 -995 -28 865 341 -257 433 434 -570 486 -251 -360 -276 -181 588 1041 1185 657 -420 359 1630 -470 -2295 623 -268 -2504 161 -17 -1004 -968 -793 -878 -314 -280 138 -952 -937 -513 582 1757 1454 -911 -1377 -1438 -742 -1572 -2498 -1224 616 358 -768 1030 486 -1632 -1258 -1490 850 344 692 778 -52 932 1019 -240 700 1416 2391 1923 268 502 1022 -385 -2805 -2631 584 920 1496 235 1134 -462 244 374 -975 -1648 -75 585 296 1277 705 -734 1242 1250 537 -155 278 596 -682 -610 -556 -493 -847 -141 142 163 -883 -758 -147 -892 -584 -659 1030 942 519 1766 2105 118 114 795 -100 -37 226 -146 -946 -743 -749 -2165 -2037 -1903 -889 -646 -583 -909 -1215 -1302 -1152 -1350 -2213 1539 656 138 2263 857 128 -700 -2581 -1892 -2088 -1360 6 40 -271 -1318 609 1673 -399 -513 143 168 -888 173 -1214 156 118 -715 -103 -455 1410 -662 -825 972 1058 214 1017 -1334 -203 -450 -1780 -768 1398 -2047 237 2469 326 1906 358 121 407 -1253 -1536 -3081 -1376 -629 411 -98 -156 -35 -260 -250 675 535 875 1096 1943 650 1382 1366 133 54 233 748 1073 703 1311 2605 2188 -1394 -163 235 1358 -2498 -1675 1036 -2489 -2265 130 -2304 -1978 -816 -1785 -1905 137 164 443 -189 2043 2200 414 -967 -416 54 -795 1188 1003 654 190 -1972 -1661 1109 -581 -1266 842 653 -681 986 725 620 596 1200 -1001 -721 291 -404 -427 709 -90 869 -321 -931 -605 -115 -676 -356 -2229 -1648 -1971 -678 226 86 -380 -301 180 -247 80 497 972 213 0 118 -699 -894 609 -64 136 695 -1947 -1156 1668 -528 -908 -297 61 254 543 1198 1243 -82 120 -234 587 1521 -1473 1309 3051 -805 -29 942 -1353 -171 109 2495 219 303 1395 109 -474 -799 -1074 592 1514 62 -1049 -473 313 -1175 32 646 -546 -1919 680 -798 -2394 931 168 -1500 1372 744 729 1070 1426 423 160 432 179 1028 1336 1846 -168 496 1288 -1234 291 791 942 764 206 439 414 -257 745 397 768 730 549 830 -467 -310 418 -803 163 824 -1219 -329 -382 -1645 862 631 -1441 -1247 557 397 115 -2353 -290 -976 -3525 -1240 -1592 870 248 -312 201 752 1028 1043 353 -498 -48 88 1233 1187 635 888 859 1241 1992 1748 19 1721 1681 -689 739 398 -113 108 -87 -1745 -1253 -1421 223 3278 2879 -835 2522 3145 -703 -1356 -2277 -642 -2439 -2484 -129 -1669 -2029 -2353 -881 -385 -2852 -801 -1681 -2237 -289 -1649 518 -353 175 186 63 779 -1066 560 390 -273 -129 -524 1061 99 -535 1971 564 423 -638 -1236 362 -450 230 1604 92 1263 2165 -179 -1054 3714 612 -2238 -1805 843 -439 -2354 1788 1012 389 1201 1017 -167 -641 -346 721 -668 229 -305 -991 -921 -1818 403 83 -347 764 910 2066 -71 403 2648 987 151 1056 -946 -1746 -798 -358 -145 -200 -140 -194 -344 -1198 -2002 1372 -345 -2472 185 -829 -1132 -732 -664 -1161 -1026 435 716 115 -1204 -758 301 -335 -1825 -1530 -1194 -1501 -1457 -558 -1167 -881 -470 462 585 -879 1500 1123 -709 1513 1427 -1330 -549 -454 -748 249 -245 -1183 -603 -867 -863 -981 962 -849 -895 637 -1241 -301 1303 139 399 637 139 1744 1971 407 1650 1064 -1338 -1279 -1600 -228 882 -741 -117 -190 282 -1842 537 -926 -734 1273 -15 -199 860 150 856 1099 1596 45 953 584 -154 751 776 701 290 377 -183 -360 -981 -513 -299 -758 1148 143 -99 1662 -114 780 922 0 943 -1315 -833 -780 632 14 -790 1158 1685 -169 1676 874 -1082 1139 230 -648 -1313 -688 -1624 1070 592 1756 -1082 -1914 -672 82 -1562 -1146 -720 -118 -813 -870 521 37 -889 -362 -775 707 490 -640 -264 -763 334 113 -894 314 970 2328 1865 217 -19 -37 599 223 775 21 -135 3 -449 784 1174 -973 613 106 -204 -1717 -1145 -21 -1133 -731 69 -757 -734 523 683 829 663 500 1106 413 -202 94 -265 -1135 -1024 -487 -637 -689 -702 623 723 382 2235 1411 78 2979 1581 -454 2771 2186 1185 -1327 -1601 2341 -1191 -1266 2089 -1001 -1225 -413 511 925 -1357 594 1642 -1438 204 638 740 -545 514 247 -722 395 -181 55 785 1176 24 -579 924 343 -559 -604 -310 232 1314 892 -160 1061 143 -1102 2040 763 49 -921 691 1105 59 -90 928 126 -1031 -1303 1340 1575 389 1456 811 -207 -280 -1814 -1007 -2116 -3397 -2750 -1331 -2885 -2340 1509 2934 2445 -440 -787 -695 56 229 418 1185 950 748 51 1097 297 -1076 295 -818 -370 -43 -888 -268 383 -334 506 1115 172 1168 1795 1000 -1341 -557 -606 -710 -851 -1978 -539 -889 -1112 1645 655 107 455 977 1424 -792 -17 1247 -669 -505 732 -630 -79 812 -698 -1192 437 297 -807 770 449 -243 223 548 154 -575 -1035 -1440 -486 1446 36 -205 1868 -22 -1098 440 -682 -1154 253 45 -582 -571 -1014 -187 472 18 612 -677 -596 -2184 471 909 595 1516 1870 -750 2108 2452 -591 -157 -370 -1034 -5 -332 -1699 190 703 355 542 785 419 -1240 -70 457 -864 -1301 -296 -247 -905 -1443 1253 -1152 21 7 -922 473 -558 -810 788 -684 1303 760 -1250 -145 -325 -1651 74 1096 1311 1387 401 1185 694 226 -472 354 299 -335 -273 -641 -58 -1015 -329 64 -111 -328 -562 291 659 266 3182 4431 1573 3659 4594 -194 437 1229 -1187 -967 678 -1643 -1759 -362 -16 -1380 -1004 -981 -779 -802 -95 41 384 540 58 -789 979 -80 -1848 1212 528 -23 875 1705 1257 1331 2144 2756 839 1163 997 234 -129 -299 -361 -1638 -2104 36 -1194 -1559 -1346 714 -412 -571 477 -769 -1607 -817 -608 119 -374 -1443 461 -234 -1312 -171 -1150 -1898 251 -2249 -1812 -109 -2089 -2311 245 274 -1461 287 1052 951 597 803 1096 -36 -454 278 613 -1217 -1512 -54 -1014 -2732 -41 -1137 -1900 961 -28 494 980 98 1101 1164 -775 87 -398 398 78 783 1337 2304 -732 -76 1845 403 388 654 -23 -397 -799 577 1765 1491 21 -328 -1025 774 941 54 331 452 873 -914 -351 -502 -53 1594 1736 170 815 1478 818 1190 524 -732 -2550 -2452 -1288 -2057 -2500 -916 614 437 -1219 1478 658 -1831 -802 -1012 -392 56 1053 -532 -1598 -1244 -20 -696 -1545 163 -367 -1017 -233 111 998 -1510 -242 1932 -2277 -828 105 -1404 960 1606 -1445 314 561 0 135 -759 1044 200 -914 1105 289 -868 -2515 -2681 -2062 -2055 -64 277 -81 593 407 778 194 0 -1320 -1370 -42 -1482 -574 781 -703 327 -1190 -1199 336 307 -1360 -62 708 727 1729 1522 993 1236 247 733 552 -157 1438 -12 1675 -941 -4398 -3759 -681 -2265 -1984 820 -276 -257 -683 -2611 -2780 466 1433 623 1474 851 522 -42 -176 274 244 516 -60 -31 254 1129 -439 2404 3167 903 1252 1166 891 -600 503 629 -244 -1083 -682 -476 -1191 -1490 -1689 -847 -220 -692 143 -545 -609 989 -1149 -1120 836 -2381 -2214 -64 -1611 584 1153 -915 -883 -220 474 458 390 461 1183 225 600 478 1651 244 -212 897 1161 1349 2260 -93 677 288 769 915 1646 1660 -47 -774 -543 -1063 -1122 -1142 -922 -884 -1351 -460 72 -140 -1606 -388 -588 -1708 -1600 786 87 -485 -2344 -2837 -2722 378 2143 815 -604 2047 2040 -342 8 -460 482 67 -631 1437 397 1424 -30 -1235 -1284 37 -1503 -1543 398 -1066 -2402 1551 -231 116 820 -623 703 742 173 1571 -632 -2789 -3522 -875 -3802 -1337 -362 -517 3377 -2284 -1891 -1639 -2036 -2116 188 -2107 -1595 2377 -2410 25 2244 -3230 -972 3643 -2897 -936 2937 17 -392 -51 827 733 535 258 1101 1281 1489 1512 415 453 453 442 -188 -333 1439 1073 1274 801 1032 756 994 -1099 -1476 364 -297 1410 614 -14 2235 168 971 2401 1462 -733 -517 -1339 123 1462 705 -395 719 154 994 -594 -433 348 -2053 -834 736 -668 -653 -1180 820 128 -10 1306 -405 -140 -1302 -2915 960 477 729 57 359 1205 -431 63 753 -107 238 553 451 114 266 1329 519 421 -50 -889 235 52 -1816 334 1613 1169 2539 -1433 -2918 -2279 -691 -1282 -1209 -531 -1807 -1998 873 35 -1105 -936 1117 198 -1215 263 -312 -90 -840 -399 -465 534 115 584 136 1092 -896 -1984 -1872 -391 -1224 -1162 -686 -211 0 -1822 -928 -243 -1414 -1938 -1736 1188 0 -525 -385 -1357 -1266 261 -482 87 2092 4003 3301 -1317 -676 -1050 -93 291 124 1370 838 384 517 -1046 -2252 1951 -238 -923 1023 450 -499 257 142 577 836 612 2215 -568 -607 1399 -668 -1780 -1214 3 -1311 -527 958 483 -282 389 456 712 62 282 1504 752 1848 2336 -100 -60 -803 -89 1955 246 -513 801 803 2074 785 -1262 1062 120 -757 2012 1508 637 1244 1595 256 462 210 1128 159 729 1074 -688 276 563 -396 555 1267 -450 -505 42 1058 -750 -1806 1544 134 -1532 1570 2442 2353 685 -874 -541 -485 -1481 -1355 -636 -2381 -2383 -1686 443 232 -882 2133 1315 32 1356 635 -211 1117 951 209 2403 403 223 -258 -326 -380 -955 -1568 -832 -1864 -2261 356 227 -541 -294 -599 -668 -1037 -425 -34 -1496 -855 -292 -524 -50 438 -853 591 433 -592 2059 278 194 -892 -661 -490 -1355 -888 -913 -1799 -2001 1950 1464 863 630 795 -48 -342 -422 -834 1219 668 -472 14 -722 -857 -164 -1629 -538 401 275 749 1289 1554 2164 1513 3409 2073 -656 -4125 -873 318 -3795 -1475 1207 -1040 -2264 688 -745 -662 771 -1437 92 -34 695 741 -385 -553 -838 -740 -748 -2229 -922 -831 -1958 158 862 -200 28 103 -1652 633 -15 -731 997 498 750 62 384 1655 -480 -580 320 -549 -6 369 -263 -289 -285 1074 440 99 888 1291 928 2167 1462 1344 2375 390 -267 -1539 -692 -538 -1636 -765 -511 1110 239 268 134 -894 -1769 100 -213 -76 -300 766 1144 698 -1281 -544 296 -2159 -2109 -810 -2490 -2316 -446 -139 -425 -581 -411 -961 1189 899 248 -2677 -20 541 -1803 -87 1985 -1666 -1624 -807 -983 -523 49 4 642 110 645 280 193 -1051 -1142 -361 771 1143 -143 1486 1649 0 334 148 -300 952 427 645 480 -724 -255 -273 1033 1060 1113 121 813 3406 -214 294 95 -392 -281 -13 -925 -93 503 -60 -70 215 -977 -1904 1922 -195 -629 1788 801 1066 -310 -490 202 -3237 -1014 1771 -2043 961 1263 -400 -2025 -1662 -418 -1505 -978 -684 -1381 -1323 -1300 -1467 -1177 -867 -295 538 -1079 106 463 770 -975 -2296 1626 -789 -2374 1433 484 -1282 544 348 -612 837 -41 -990 -562 -973 -1676 972 85 -914 3022 555 -3681 2799 551 -3846 1165 1068 1069 -344 225 2206 561 1417 978 726 -1258 -1161 1071 -617 -1341 -94 -342 -628 -1032 333 193 842 698 -100 325 -698 -1528 -1485 -2070 -1282 -709 -1064 -759 -246 -151 793 925 1690 1444 243 422 389 -791 -801 -800 95 -919 -1579 -499 -2004 -2494 -77 -1053 -1635 1 340 644 1467 1025 882 2367 1914 1338 727 -211 -856 16 -2386 -2892 99 -1606 -2006 -1709 -1225 -890 -970 -1064 292 -22 -1234 1411 -1496 -1541 -1905 -1839 -2558 -2634 -475 -2145 -2779 1184 1761 1932 2060 1552 -1268 1854 -308 -3535 8 1033 1150 1441 1655 1247 -555 -1304 -630 848 465 -714 -2640 -1980 -1389 -2112 -1784 782 354 -332 167 633 -1873 -845 -1073 -2273 -1605 -276 -169 211 -369 -561 330 342 1307 1844 -1378 -2058 -2302 -1699 -94 91 -686 731 1035 1195 708 882 634 912 962 -686 236 1062 -493 736 -193 -14 -877 -1045 -636 -1194 126 -848 1418 2024 941 1731 938 2047 704 -187 -786 -1668 -1177 -933 -1523 -1206 -696 -476 -161 -721 -1040 -153 -536 48 -492 670 406 -883 -1464 -1808 -1129 -2151 -3208 -3134 -463 -2045 -2128 -1116 -1244 -1688 -1434 972 36 -1815 -1151 -2189 216 980 931 409 1358 2131 -465 929 1650 778 -985 -1558 843 -388 -3185 -588 175 -1805 -1088 364 1592 -550 136 1163 -1153 -341 1199 129 -1738 -847 134 -92 1063 -943 -151 931 -237 -695 -848 -66 -232 -1352 -797 -1333 -2105 149 -1316 -950 2003 827 1022 1194 -346 351 -925 704 -402 128 1521 -814 130 -537 -1844 -14 1171 906 1526 1250 671 283 -81 712 -1768 -2966 -3364 829 1955 524 -713 1764 813 1655 2034 1433 298 988 -688 -815 245 368 -1338 -968 -1269 367 852 26 292 842 51 1003 1527 703 -922 -410 -609 -313 75 353 -848 -1498 -761 60 -232 81 557 717 623 876 1081 -2472 1659 136 -6264 2987 -156 -5805 -252 -19 -26 -696 -146 589 -235 762 1476 476 409 -215 57 770 -541 358 234 -928 -772 496 1012 -1224 342 1476 -1079 -198 524 -333 475 -310 310 1708 178 541 1668 1821 -509 -692 -745 408 643 702 -400 -274 -526 879 -143 -346 71 198 -810 -405 -442 -968 347 140 544 1109 244 470 980 423 375 656 -170 -538 1113 -250 170 828 399 220 -301 -698 -998 36 129 -30 964 525 626 -743 -1102 -611 685 525 1281 1080 1703 1607 394 759 205 1101 -157 -1037 38 -25 -309 -23 173 -226 356 28 -435 -930 -1474 -1750 -173 237 -678 -378 -422 -1066 -60 -1465 -894 151 995 452 746 1155 843 679 1198 661 -592 -830 80 717 148 -150 483 548 1227 -64 -432 -614 342 510 -406 -243 -1145 -544 370 376 -744 566 1496 228 217 780 -229 122 448 455 -136 7 57 867 1061 545 -811 -168 1001 -1475 -803 551 -1153 -206 1089 1006 -21 461 1024 366 308 1652 1395 1009 -322 98 -83 -1096 402 12 -456 125 281 408 361 808 -1080 -1511 -1100 -1299 -1694 -1415 -43 249 458 73 352 115 222 779 463 -665 -1179 -403 -277 -1724 -1361 664 -222 52 343 -113 -226 -233 -159 -578 -1236 -768 -636 -461 -213 471 -965 -939 85 -123 -955 -590 122 -1495 -862 684 -1053 -690 878 -246 -835 -467 67 -293 539 502 -997 825 825 -100 -454 -93 923 -516 261 -61 -509 -1010 -229 -430 529 -40 935 1698 1704 1347 1538 926 83 -249 457 638 579 663 1174 241 560 203 -445 -887 687 340 -657 345 -124 -65 -1102 -1114 -1429 -550 -726 -490 -1479 -2214 -1535 490 1020 1147 -1155 -1190 -1103 -1279 -840 -305 1 399 -459 -728 -961 -606 -631 -682 -597 -786 -219 471 -402 -1318 -425 523 -649 -1272 -710 -935 146 -928 -889 -760 132 -43 -518 -1378 -1481 -818 -57 -558 -830 209 350 -38 -2447 -2537 -2052 -986 -1548 -1989 2563 2857 2729 191 351 -260 -234 -79 -890 359 1 -140 -473 287 569 -665 -210 636 487 550 100 -48 151 606 -448 -691 -25 116 -757 -158 308 511 -885 1168 1451 -1088 85 394 -750 541 -430 187 -155 -505 -1043 -26 -35 -1095 934 897 425 863 660 344 1407 1608 2035 454 -528 -1647 929 -195 -2870 1501 -94 -2550 -1099 -1845 -727 -340 27 232 -798 -746 173 763 -301 -118 30 -1002 -1217 541 -49 -709 796 1394 918 38 -402 -103 495 235 -84 -689 -776 -591 -479 -754 -1496 188 -96 -907 -415 -1235 -28 -1593 -779 -237 -1568 -547 -269 -517 -20 -66 -1314 -919 265 -439 639 1778 1472 1748 1076 977 1108 697 1213 800 963 1046 1838 613 461 938 -251 -772 -582 -499 -1099 -1407 -2300 -2520 -2346 -3118 -2821 -1905 -2959 635 1439 577 -112 432 -26 -532 76 -1172 55 268 -361 -148 -9 -785 -584 -622 -809 50 -1763 -4 -415 -3143 -832 1212 -1670 -272 1008 1678 1369 2054 2097 2053 76 -628 -313 1718 33 -572 393 348 -145 88 2462 2803 149 -136 313 350 -310 -31 -31 166 460 -92 1367 1079 -1404 -788 989 -2136 -1441 -61 638 -151 -821 855 198 -553 696 330 71 -852 -376 -537 -357 -83 415 -175 205 584 334 811 1387 -856 -191 -267 422 677 112 -2441 -1668 -2497 888 904 445 818 1029 545 1216 307 -40 52 485 306 294 643 164 -568 -864 -235 -812 -1420 -1123 162 -333 -150 -1108 -1427 -1144 -1273 -1648 -1638 522 798 865 -59 -718 -783 -647 -2684 -2262 -584 -1520 -1369 -698 -289 -1108 -79 203 -379 -318 337 -312 -523 -838 -897 -953 -864 -654 -621 -571 -1794 -1202 -469 -841 -223 -292 -316 1083 1241 948 394 864 898 211 -190 369 -619 -1599 -205 -153 695 357 1456 1750 1637 2399 2424 3129 -800 -263 -1020 -1035 -280 -948 -301 -203 -357 218 1889 1442 861 1428 1921 829 2615 2463 -655 -878 -3019 307 -643 -3320 -323 -1082 -3474 -536 -145 83 387 453 112 1517 1242 1056 358 2792 1302 -1001 2347 2659 -1163 1338 2857 -58 3 -209 -25 -442 -603 -640 -1054 -1545 1377 1720 723 182 507 -480 67 224 -114 -827 -1101 -902 -740 -450 -473 -258 26 -165 -47 230 637 613 1417 800 602 -20 215 -117 119 -447 213 -95 -1152 366 -288 -1136 521 608 541 203 343 65 406 833 677 -1746 -1632 -1382 -830 -823 -961 261 394 309 890 320 268 31 4 -201 368 -650 -549 63 281 -172 -922 532 -780 580 1624 98 380 551 363 -616 -792 -484 -486 -588 -255 532 3 12 -656 -977 -837 -920 -1105 -1037 -942 1602 2292 -1441 261 1528 -429 -383 875 -435 -510 -152 -548 -925 -1247 398 -468 -547 23 97 551 -405 -255 346 -68 -213 -316 -315 -961 -955 -58 -395 -553 35 -573 -1387 -1057 -614 -779 605 559 -88 -462 318 -1182 -142 35 -1036 -862 -756 -1485 -237 -204 -952 822 742 378 145 -213 -429 -130 -490 22 515 319 297 697 -168 -85 404 182 181 287 772 236 -747 81 26 -298 404 -4 185 -233 -903 -381 -1223 -932 -765 -1447 -1051 -553 -528 -708 -1156 -296 139 -415 -19 654 343 263 768 102 243 532 997 733 715 304 736 929 -63 209 25 -542 -877 70 -48 448 -153 -314 305 114 -812 -160 1027 593 927 570 308 133 -539 -57 -714 -1131 -715 -153 977 -92 -486 460 -65 526 798 -724 -367 -739 -1314 -796 -895 -1448 -1628 -1572 67 1375 1088 -19 475 512 -358 110 50 208 831 366 -248 -543 -45 80 85 -122 -463 -992 -352 -81 -700 -168 563 491 876 -538 904 1511 -535 117 918 18 569 481 422 252 197 499 -10 -206 62 231 -274 252 -213 310 134 -528 -205 633 -60 174 -206 -49 -421 -932 -288 -1631 -2326 -2305 -1643 -153 914 1452 630 718 115 1013 402 270 256 449 -496 -538 -285 -144 -630 -88 -333 -1164 -1616 -456 -617 -1363 -763 490 9 -9 -433 -230 -165 -66 409 489 404 1396 1247 1476 1915 969 723 767 210 379 -144 -168 1828 1530 -719 1453 -505 -1110 -248 -746 -693 -223 -663 -492 -1453 -1364 -1320 -440 -660 -941 1610 956 977 205 -949 -861 -22 158 -146 -1281 -1015 -818 -925 -411 -1122 -1173 -1610 -1532 -610 406 -1210 -253 1379 176 -831 -251 -241 375 -500 147 -352 -698 -104 -198 -380 -593 -12 -73 -192 397 394 262 808 1222 897 -372 1044 1154 -919 -596 401 -543 0 190 429 583 1161 925 600 1061 1000 -469 63 -308 -620 -732 -606 -759 -659 -739 -206 -246 -1540 -1705 -920 281 468 -632 185 1128 805 75 -37 79 105 -255 -608 -1244 -1845 -2344 432 866 433 588 1670 2402 471 730 1015 -141 398 268 -97 605 857 -734 -361 57 158 397 239 159 81 49 508 945 347 296 1440 637 840 681 872 566 392 94 1466 611 543 30 -307 -336 186 -208 -299 55 410 153 82 307 -166 -693 -1565 -1831 -637 -857 -339 808 -3 -736 795 117 -1512 -165 -817 -616 158 -300 -707 -199 -256 -361 -342 -1850 -819 -745 -3143 -1952 -127 -388 -889 374 796 479 -531 -105 510 -990 -1269 -25 358 351 590 2 293 -92 53 460 892 -1072 -1458 -389 -96 -1005 -1091 1350 1109 954 -516 90 388 -1361 -540 -570 -1092 -897 -957 157 1 -38 561 -192 -879 400 -9 -942 356 367 -1203 1381 653 273 1197 1307 412 1011 1250 1240 1309 1397 790 1010 874 -78 -349 -316 -303 -745 -766 -974 -401 -1326 -1849 -141 -1062 -188 493 -215 -22 -372 -500 -423 528 144 -962 541 837 -4 1053 1630 635 -282 637 482 -597 -519 -682 203 -75 -528 1126 1025 560 44 -67 35 112 -228 -274 -229 422 -139 1584 959 485 -6 339 -950 -876 -639 -641 -590 -709 -172 -609 -515 356 -1304 -1673 -361 -1437 -1292 -108 -1180 -1485 -462 -616 -788 -438 -972 -1486 -518 -1058 -2231 -1581 -677 1478 1413 -287 2290 1800 -655 1369 1636 -1522 -1205 -140 -1470 -1318 1181 -729 -1249 808 215 163 118 540 215 797 998 359 585 -823 369 -405 -412 -90 -718 184 844 -616 32 -1121 -1243 187 -119 -1569 2045 1507 -385 -330 -903 -729 100 -1528 -1407 -506 -1141 -316 -621 -1116 -1027 154 -936 -788 -868 -544 -962 -622 -1036 -504 -145 617 1074 1148 680 371 -335 -26 202 -358 -653 -53 186 -117 64 251 -524 313 475 -376 340 191 -538 105 584 921 912 313 734 776 309 647 -61 -1799 -1348 -1796 -1812 -1961 -2496 -2284 -2260 -1891 -497 -1267 -414 -990 -2525 -899 -880 -1453 -137 -132 985 891 -986 -100 -79 523 506 -206 -1868 -2415 -1874 503 -1869 -419 -300 -482 80 53 304 -50 247 187 23 1153 1305 1358 -1111 -1477 -869 585 -264 -380 1097 251 -772 991 1186 1114 870 1145 1548 1208 1281 1079 -98 608 263 517 1852 1335 1541 1983 1662 32 1377 158 -791 103 -270 -458 -326 -366 537 416 -1048 -135 694 -451 -532 696 228 -60 421 54 -393 -765 622 257 -164 167 569 1012 1272 -181 775 1358 270 953 1558 248 -519 297 -1178 -658 -617 1570 2055 1328 -515 498 570 -1154 -531 245 -1402 -674 143 104 -461 352 1181 1168 1200 1423 1891 2151 332 623 277 -662 -327 -494 -312 -55 97 -931 -1577 -1114 118 -703 -458 1185 907 801 -297 -600 -31 -871 -605 121 14 335 849 608 -1288 -765 723 279 -346 1019 14 -1181 426 1209 -33 801 1178 478 15 425 217 -468 -505 -575 -415 -718 -500 1543 1240 1499 71 229 -195 -200 954 264 -1070 405 294 -195 -874 -284 -756 -557 619 -141 296 1175 1396 1109 1663 627 532 1401 2110 2245 2525 162 -406 253 474 112 448 -159 202 673 -593 950 182 778 966 235 510 -66 -60 1170 661 478 -136 -541 -1079 -488 -955 -1064 -66 -2456 -1533 -602 -2373 -1271 -1767 -2902 -931 -88 -90 -913 -1390 -600 -513 -612 -1876 -1231 -216 -1148 -118 -282 -1014 -712 -561 -2102 -1518 119 -429 -231 -697 -680 -1669 777 -927 -782 1050 1254 404 303 1273 263 -2629 -3092 -2191 36 -363 1021 -278 -673 635 -723 -1160 -1016 686 556 513 522 40 405 106 206 315 -785 -955 -203 -348 -429 176 -48 5 -24 5 1015 326 -405 214 -667 393 272 -283 250 -643 249 -1560 -2418 -1730 -322 -1947 -1421 -773 -1167 -1229 -775 -667 -375 -188 -170 -611 739 142 -329 540 150 -126 1719 1285 1652 -733 9 -105 -282 -251 361 -244 0 125 -386 -1599 -697 496 -1287 -438 63 -871 422 1168 -72 147 1336 305 -83 646 -419 -148 942 339 -333 505 116 -329 690 317 -981 -423 -1220 -785 456 -400 -789 -207 -903 -964 618 639 84 944 995 1107 704 1793 1081 -886 -1393 -1188 -1380 -2035 -73 -994 -387 187 -134 -508 -360 513 117 37 149 18 25 -391 -536 -226 583 -1605 -1896 -23 -1403 -985 -1063 -1006 108 -282 -538 -8 -182 -1081 -1356 295 595 -496 622 659 -618 588 1487 100 -1467 -571 273 -799 214 1565 -1036 335 1176 590 -497 -308 155 -495 153 278 668 321 520 116 459 183 -477 148 1634 948 1238 -661 -333 -389 -402 -354 917 -1012 268 1070 -777 109 403 -933 -37 1386 581 1590 2110 -730 433 1395 -227 281 916 675 2136 2612 376 182 366 -946 -694 -882 -540 -783 -579 -877 -259 -69 -62 569 31 445 -176 -306 -2 -40 -208 -73 -1234 -968 1526 -512 -750 108 200 -383 52 1117 421 1557 1801 99 -1851 -2564 -2255 -1672 -2854 -2400 -1549 -2925 -2787 -26 -18 575 171 -1297 -561 -19 -981 -1072 463 -69 124 -604 -1671 -1342 984 -89 413 738 1263 2239 592 723 708 -27 -76 -372 123 435 -609 423 981 -492 64 582 -440 -555 -423 -16 -1028 -1515 -1129 -581 -1899 -1195 428 61 157 -1035 -711 -843 919 1455 1292 72 -21 7 18 -338 -305 -236 -755 -452 -197 210 823 -86 279 1499 296 250 1230 -169 -429 -462 -557 253 -1121 -1007 -455 -1174 -1366 -1771 -1138 261 -98 42 462 -434 -538 666 232 37 112 -46 -1345 382 170 -1654 870 1831 1453 85 631 984 -529 -690 6 -1384 -896 -1120 -71 -1 -644 -557 263 255 -372 -417 304 1001 816 1405 1456 1499 1919 -364 -2081 -2212 85 -2556 -1615 1211 472 139 -372 301 -606 -897 -425 -552 235 236 0 684 101 -393 385 63 654 562 -235 587 1092 779 706 1041 807 394 109 277 177 258 -126 79 803 606 1017 552 384 -115 -861 -29 450 -247 -368 174 -37 -508 -439 116 597 809 370 1063 1151 303 1016 735 -1147 -1351 -600 -306 -783 -1398 802 475 249 -640 -210 541 536 317 217 604 989 1078 1526 2320 2199 -1211 -1617 -745 -1882 -2670 -1429 -2647 -1845 -752 -2810 -4250 -2990 -1054 -1170 -1174 702 -642 742 2239 907 1129 1244 745 222 885 529 -1180 -197 987 575 -43 559 -94 -1293 -1513 -1677 -2628 -1979 165 -854 -296 1641 -79 618 1567 108 -562 286 2005 677 674 -1151 428 2279 1817 2532 1685 1717 -832 -2171 1424 4074 2891 994 265 252 1425 2991 1783 572 -632 -965 -956 -1259 -2520 46 -807 -1201 21 -1460 -312 1104 -1063 -1725 2409 308 -1476 -582 757 -580 -513 -759 -458 -427 -503 -66 1798 2066 2076 -644 20 -2354 -760 265 262 513 -134 -607 -827 -1511 -1733 -696 -790 -618 -1766 -1889 -2180 -1149 -1450 -1079 243 -334 7 1971 2073 -1077 853 -1980 -814 1884 487 -169 491 2574 986 1095 699 -701 -76 -1248 -696 -1333 -1885 -2423 -1248 -1424 -1881 1524 714 612 -598 -1137 -829 -100 -837 -1271 650 1052 684 -1067 -905 11 -269 -20 959 -2033 -1478 -1137 115 -102 -1 224 -243 384 -1084 -719 383 -1223 216 40 -258 623 -520 -714 -581 -405 -2568 -1535 -1144 275 880 -478 535 658 128 -644 -62 -250 169 -457 -24 -1261 -959 0 -583 -1077 -922 -3261 -4285 -2724 -153 91 721 -237 -2492 -2620 2179 4120 854 64 2453 1209 -868 -2006 -2065 645 -402 -1304 1016 2764 988 56 102 -55 -1765 -1968 -2115 -1077 -872 -782 484 -610 -620 1847 1125 735 1153 1331 1249 -1803 -357 -916 679 2974 -22 -1192 -221 -2387 -540 192 130 -242 630 -528 -1700 -1128 -1804 -1414 -2092 -583 -704 -2344 -809 412 -909 -334 778 501 1486 756 18 751 -19 -1327 -1090 1422 2186 1475 -508 -1358 -1456 -12 -252 116 738 -1373 -3738 2387 146 -1611 1229 93 171 831 940 -175 -88 483 2550 -353 -565 1049 -881 54 553 904 362 1300 -1383 -2496 83 903 871 1515 163 -567 1393 -1726 -1502 -498 -41 -685 -113 549 1214 -1161 -1257 129 -1472 16 -3046 -1801 -1140 -2088 -1503 -310 128 -207 -981 273 -872 -428 -808 -92 -375 -232 -880 -1616 -500 714 -1090 -2237 1133 8 -469 1252 558 899 7 -387 -826 -41 -1015 -1033 -841 1522 -64 320 -1149 -2154 -338 -468 -97 455 -225 827 1526 -1015 21 141 219 1649 1437 457 411 -84 -1258 -2563 -831 -428 -521 -558 246 1858 1068 -1916 -67 -261 -1581 -795 -281 -1472 -94 105 -534 -882 -1335 -1130 -1478 -897 1240 384 -2341 1987 2870 111 -1985 -78 231 304 177 1688 1207 1761 2466 2364 6 -419 -773 -256 257 -3419 -650 1998 -1501 245 418 -3048 -804 -584 -1309 -72 821 -1017 837 1254 731 2057 2282 -1135 111 1125 -972 -502 -404 2404 2996 2806 1385 1137 880 869 1426 1338 102 -937 -355 -854 -1020 -1563 295 968 422 277 2441 2121 -3912 932 329 -2099 719 102 -841 -2540 -1622 328 -1367 -687 1350 1759 1128 309 1129 1842 279 2807 1527 890 1951 767 273 -1007 290 -689 -2723 -284 -392 -1259 -523 318 300 1040 -152 707 656 -1493 -1261 -653 -2018 -1261 -626 -1116 1600 647 -1776 154 -228 1040 199 -1005 -2644 -3625 -2603 -3216 -3440 -2069 687 2171 437 206 1194 882 -1528 -1145 115 966 -500 -83 -619 -1689 -598 1273 1242 765 -479 -1250 -1203 -903 -961 -544 -355 -707 -225 -1441 -3071 -2121 -1306 -311 8 1848 1487 1447 1642 2569 1023 -1918 -2463 -1132 606 -1134 -643 1254 1110 687 -341 1753 2072 -376 -1297 22 -631 -857 -1392 756 337 -1725 15 46 -1005 -1002 -1971 -518 -1304 286 1939 8 -249 823 -1004 49 59 594 906 1757 -967 -1018 199 -683 -779 -516 -1742 -1466 -199 -1840 726 2882 1046 555 148 2373 2391 1244 137 -1521 -1053 300 910 1097 -65 371 86 -366 462 608 -12 -46 617 -487 392 599 -596 -118 -17 817 -573 -660 1548 359 521 1318 418 516 -407 -367 629 258 -991 624 -2406 -2174 1178 -2147 -4585 -2994 -253 -3271 -2358 1733 1381 904 -115 619 1176 847 2 241 -53 -776 -1419 -509 -1503 148 -836 -1703 -2279 385 -1210 -525 -2166 -2465 -2509 -722 -600 194 2256 3533 2212 1195 -181 -738 -435 -75 965 -476 1896 63 1203 -105 -1352 1903 326 -841 920 -405 202 -1799 -704 344 856 275 463 548 -294 101 -138 89 670 803 789 287 258 324 -1192 -66 -1759 -1106 -1298 -1389 -614 -1077 -928 219 -1070 -1420 -622 1986 925 176 44 -678 -195 1202 1022 1458 646 -1971 -1471 -1062 -1128 -67 1278 1562 2328 -942 -2218 -1027 -475 -616 -120 -650 -838 1065 -366 -1296 128 -508 -1526 -868 2076 1768 919 1564 362 -27 792 255 470 1040 181 99 -915 -1469 -1293 -870 -971 -1885 1032 -1 596 -694 -1856 -777 841 1063 1151 442 582 528 -127 193 -484 796 -425 -590 -119 1105 219 580 182 -572 1535 1372 333 2039 -583 -144 1233 -2366 -822 1169 -8 1617 217 3550 2591 937 1490 2027 -1397 -472 114 -36 -949 151 -997 -165 2218 -1738 16 2109 -235 1523 -1086 -298 1682 -298 2681 2472 -1279 1822 2075 1777 541 -3101 -1985 -1885 -3117 -2143 604 -200 -699 909 -331 -1118 -198 -569 -922 3234 3342 2782 -525 -1918 -2110 447 -1046 -1061 -368 199 -30 269 -58 204 57 -316 -123 -112 -785 -456 -1403 -2087 -1719 -482 -559 -539 1762 2597 1134 278 -618 -767 -922 -1206 -1989 885 -313 589 763 -1252 -513 986 -49 -256 -1225 -1062 -941 1542 342 -1563 -729 -1524 -3220 -562 230 53 383 79 192 669 690 411 2547 627 427 2972 673 999 1885 1077 1307 -163 1090 714 -2245 -1141 1065 -1849 -1962 -958 -808 -830 -834 -1504 -650 -593 1202 1004 -1296 1 1988 1046 900 1201 1788 -42 -796 529 -1017 -1673 -85 1596 641 359 2154 2862 1463 489 1234 141 473 1629 1584 -2386 -1474 569 243 -1076 108 -724 -1555 -1121 -412 -299 861 -1449 -577 -805 -1377 -1235 -676 -1664 -188 -182 -1648 -162 519 -1816 1231 2785 236 1183 432 -667 220 275 -828 -189 952 -481 2332 2156 -1145 -1209 -441 -1237 -1400 -1040 1105 901 1190 89 643 985 269 2440 56 1172 1249 -46 -872 1577 1278 -2941 -890 615 1178 -559 627 -839 -1287 742 -770 -603 83 509 2458 2244 931 394 281 -1364 -1513 -605 -130 310 1311 293 655 1872 -118 273 389 1252 876 1446 630 -1260 -1616 1060 -611 -449 -914 -800 -1318 -1373 2768 1262 1533 3067 1768 -1693 -2049 -1169 2196 621 -350 -120 -2082 -199 1446 1253 1700 -1395 -530 -341 -1807 -783 -1014 721 899 1378 -138 -953 -1425 806 -193 -1479 190 -201 -1153 -285 -235 -691 1128 -227 -826 -144 284 -438 -1188 -1672 -4 -899 260 1226 1429 272 1811 -172 67 -367 490 -27 -470 1817 2597 1617 -575 -306 -245 -959 -1518 -1571 -207 -184 -123 773 526 417 1173 1780 1891 -563 -664 296 -1559 1413 -440 -1540 -1148 -1316 -2169 -1322 499 558 -287 -198 952 -167 -620 676 143 -309 -63 -1066 -1218 -862 -2561 -1297 793 -244 -123 838 394 842 1912 420 28 716 -831 611 1329 2324 762 586 4673 3828 -1073 2043 2046 300 -146 179 -968 -1526 -972 338 -422 19 -1706 -1661 -495 -654 367 1008 2027 3926 2737 -176 -268 -2084 -288 -845 -1291 -443 542 450 1093 1347 769 -1221 -1185 -258 -970 -486 245 364 -95 1214 1153 945 1520 587 1213 1562 -405 17 -1153 -1987 -2764 -2109 -1307 -1066 -2196 1097 3907 -350 -698 596 2523 -2258 -1522 57 -55 1819 232 894 576 1400 -317 -843 -159 1111 841 -203 2205 2479 -27 991 2776 2397 -364 497 725 98 2972 26 1322 1862 57 1813 433 -66 2045 -117 1583 929 -2349 -208 318 -626 -961 517 -269 1278 -73 -610 776 -1137 -1 1305 -1182 21 1148 1869 2011 1972 400 302 1171 1280 -979 -183 87 -855 -271 -400 -1220 -7 -715 -2237 -336 80 -961 -45 752 -947 959 -1327 -1116 -873 -1165 711 424 -1449 -2735 -1842 992 1076 966 2684 4023 1894 2099 1758 1290 194 459 370 -2215 -1529 -657 -1088 -1137 -1044 -558 157 -159 -409 209 422 -446 -772 -648 211 552 1104 1680 1616 -280 677 298 1362 -556 -2196 -525 280 -929 -366 -287 1597 -694 -615 2258 936 -2032 324 -1876 -1134 324 -348 353 2492 773 -729 705 -182 810 -77 -984 743 -146 -325 1739 3886 455 520 1043 -67 2157 465 -1703 736 -379 -171 -1659 -3073 -70 -844 -2073 251 1336 1286 2851 1923 671 698 756 171 -94 353 797 657 1261 1656 1087 -534 637 -921 -1317 -345 -1366 921 -72 1 -34 144 -615 -1526 -3608 -2617 -2324 -2602 -2863 -1882 -3242 -3617 -1278 -1950 -1708 -318 664 -848 -921 -1252 -2104 484 -1587 -1094 655 -532 -1194 1530 156 172 1575 1024 655 971 -220 -220 4567 339 -1627 2173 -83 -842 483 213 -448 -319 -1161 -1477 390 -202 -214 438 232 400 -1099 -188 193 -932 -1739 -1349 -829 -1215 -1289 -1454 -1669 -1078 -83 626 309 2161 894 631 -1128 -901 -926 -1251 -581 -1925 -1025 -1985 -967 -314 -1780 246 808 -245 960 375 -528 -302 -1271 -2394 -1504 1044 965 994 -710 -1000 -942 -742 -1818 -1394 -972 -675 -678 -391 -1245 -248 292 -2176 -411 1222 -773 566 -956 -1057 -1264 -1102 -831 -50 -47 -526 331 -640 -1389 -168 479 626 -1649 -748 502 -280 477 143 1797 616 -540 35 -1411 -1440 247 259 377 505 -140 -1090 -140 583 -329 -240 -1106 -1338 -1063 37 -389 -679 136 -100 -942 1363 2386 1084 -315 -103 -2136 -426 -1731 -2028 -1666 -62 -637 717 364 852 119 -1411 -513 -579 -1886 -642 -763 -1957 975 1123 -470 2207 -835 -1676 -1937 250 -774 -644 471 -395 -68 1078 -699 -1985 303 -2257 -3372 902 181 -393 2307 504 935 -1233 -2810 -145 -2125 -2802 445 2494 1455 1982 2262 1493 556 1825 746 1314 -1638 -233 472 -1592 965 2231 -2111 168 61 -1138 -1389 -802 -2284 -2923 -2493 678 -651 -653 -1310 -697 61 -2453 -892 -794 -1513 -625 -1811 1287 2501 2919 -748 -2068 -371 -388 1494 1100 34 -240 414 1391 651 635 292 -726 527 -169 -1630 -265 751 -530 -283 1714 -1207 251 -1654 -2508 -2167 -996 -1585 -1527 829 2848 2096 677 -894 181 -434 969 -336 565 601 -501 -1556 -778 -130 1374 244 -550 3098 2466 1036 876 -954 -1039 -3101 -4081 -2615 546 577 518 -1586 432 3304 -2038 365 5245 -183 -1543 567 689 1445 1732 811 706 -1368 3150 801 313 661 699 662 -451 104 -423 -1634 -481 -631 -919 272 -381 302 1022 -252 -702 182 -319 264 -666 -339 423 -966 -521 2314 806 731 401 514 568 577 1118 -679 -1341 154 -807 513 -1672 -2161 749 716 1337 1641 1988 1620 645 -138 -552 611 -415 -479 1897 -326 899 -1341 -716 -98 -290 -3049 -1485 -757 -3258 -1750 -1502 -1601 -1809 -80 979 -1178 -3866 -2506 -2861 2562 1634 776 2588 3218 690 -587 2717 1179 -732 12 882 1073 295 1322 -448 -1887 491 -2060 -1449 -1111 103 41 -215 988 229 -777 859 -253 1038 3689 408 -1479 3671 924 -3132 -576 58 -22 -2070 -1817 -786 -2505 -1260 76 1382 -542 682 1364 1473 -103 619 564 393 -1245 -1287 1190 -2355 -1906 197 -833 -983 1123 461 1410 1719 -31 -21 270 1420 1848 640 287 -622 11 -85 -268 1678 -1063 -811 -628 694 301 -1719 1469 1325 -1808 143 427 -1925 481 416 -82 112 249 -648 862 1147 -371 415 693 -244 286 -1377 -1399 -661 -941 -834 1500 -2932 -813 -519 -4108 -325 1503 720 1781 -427 -236 -248 107 238 -89 -1193 -1694 -1417 -644 -196 -533 -2485 -2349 -1262 1597 -448 -1919 -685 -737 -360 65 -1652 -979 1589 -351 102 6 -146 -503 297 1765 141 -2230 -686 -1131 -1770 -2431 -1029 -878 -283 -226 -514 -570 -1313 667 763 412 -1862 -2637 -2003 -820 -989 -1250 2036 1254 965 -1090 -2040 -2000 -1162 -864 -1454 -1949 -1066 -650 -1299 -75 -96 1895 488 779 706 1202 879 77 -241 -722 1077 -103 1082 903 -1379 -2591 1708 1374 453 1853 389 -539 -294 -1796 -1267 -108 -595 -531 5 425 71 -595 381 545 -1263 -571 -1687 -477 -215 -1124 473 878 1429 516 795 716 337 865 901 410 1879 795 -574 1293 819 1773 5276 4284 2867 3909 1986 1075 825 -381 555 3379 2573 787 338 447 650 -1110 -1161 -194 -1230 -1079 997 262 -1546 -183 -120 -388 -311 -401 439 26 994 93 514 -124 -515 941 -1996 348 74 140 -410 108 -602 -1073 -229 -302 -1418 1122 1059 1879 1000 938 -1306 811 682 -2107 710 168 -273 -548 283 -178 -806 161 1021 798 -919 95 -644 -1097 -822 -68 -2054 -1358 -1796 -443 -836 194 1669 2986 -47 1119 802 -2073 -344 -674 -2932 -3533 -80 -651 276 2075 2446 1159 57 759 1677 102 651 1782 -302 -1292 -692 -356 -1511 -1473 -1690 -851 -1283 -785 450 1019 1478 121 -1431 979 750 84 -318 16 -1706 -1684 -414 -1436 -1297 206 496 760 1012 1294 1122 397 -1512 -1416 -218 -2490 -2120 -793 163 1384 -828 -333 56 2773 3918 -46 -889 -1528 -281 1556 700 2665 -881 -482 1258 -971 -1002 -789 -1174 -1264 -1464 -133 1868 88 649 916 974 474 -644 251 -357 -2147 -942 1469 1373 637 169 705 -861 -398 740 -675 2373 1290 1387 2197 1250 2047 943 199 910 1346 1083 890 690 1750 406 2022 2017 -940 -1728 -1890 -1454 -1985 -454 -372 -1361 53 95 -165 -1360 -340 -339 147 -945 -1054 710 821 -1694 -100 490 -1364 -367 21 203 315 -661 3179 118 -943 3939 2652 -1251 2773 2424 1378 223 -167 -95 0 629 726 -1168 -1947 -1955 -641 332 495 -1626 91 638 -435 1560 180 991 876 111 -374 -801 -1049 -1621 -1182 -898 1877 1664 -13 963 2290 1546 -701 -1039 -933 -1401 474 441 -261 699 88 181 816 -232 -1582 -2218 -1659 -1280 226 186 -1243 661 1071 -1093 -2121 -1419 2505 -286 -976 2381 368 -985 245 -100 64 144 1478 769 2172 4431 3741 -1739 -2655 -1951 -598 -990 236 -675 -590 -627 -232 182 1022 -1189 -1454 -479 -1721 -2636 -2120 -1549 250 -123 -610 1539 -520 -220 2364 1395 655 1393 1534 -1367 -1463 -718 -868 -1487 -1512 -1494 -1162 -71 122 -1296 -1066 575 394 -119 150 91 -688 -711 -454 -1718 459 942 -321 1563 380 304 2818 1908 478 965 1918 668 964 1251 334 600 -295 -107 -1045 -2426 -1797 -790 -1463 -1819 -1917 -2021 -2190 -722 -601 -612 -1353 -1618 -1274 -214 -722 -529 -542 -32 -1394 387 701 685 -840 -335 186 -685 -380 121 -1211 1553 459 65 1686 466 -913 13 -2045 603 -1170 -494 -259 -887 1492 1165 470 41 -414 -1133 -45 2102 1172 -624 1651 -1099 -1335 -476 -658 -239 342 67 -995 210 1467 -4 -681 -797 -1356 222 645 -328 909 1931 1015 860 -2268 -1997 916 62 -481 1260 -450 -1537 258 -370 -310 80 -865 -194 134 38 -1233 -753 -1071 -891 -637 -716 -542 -173 700 1118 -194 -465 391 -376 -1371 -532 1186 -846 -551 -1589 -635 -1129 -1063 14 -115 -1442 -1027 -893 417 2066 -402 -890 459 -737 -1675 -581 -865 830 -867 -277 -1427 -398 -897 -644 -225 -179 108 868 613 1164 1823 182 -269 609 596 -545 -465 -695 597 -854 -251 -647 -1949 -436 -797 17 231 509 3686 953 1392 1735 -1047 -1720 -3116 -1489 -1206 -1440 -1007 1320 2027 1277 -864 556 1026 56 1771 2203 846 1444 1596 134 -861 -8 96 1974 432 -1620 -269 -157 29 -90 976 -779 -1586 -464 -610 -1104 20 -2424 -947 177 -1725 -825 -460 160 612 -896 -1017 -3259 -2657 -1396 -204 -646 -1341 1048 2279 -24 -2106 771 -288 -36 2014 -1962 -102 1871 -1339 -283 -2089 651 669 -800 26 503 1343 -1596 -352 660 -504 1074 1439 1128 1064 579 -1685 645 1655 -1135 -1809 -770 -373 -1748 -1614 -528 -397 145 -788 208 1055 541 718 1014 -160 -1460 -1064 -283 -434 609 -584 615 403 -983 586 -1552 -972 -194 -1004 416 -452 -1941 287 -993 -522 -687 -417 507 1322 1090 1088 962 330 -111 85 -956 -973 -1167 -2191 -2003 -101 -1380 30 157 1339 1983 -469 1627 445 445 232 225 110 -290 -380 -202 -732 -912 324 -684 -791 3214 1234 -324 2377 3272 2240 -273 -874 -874 -890 1260 1598 -1085 193 262 -705 417 -11 207 272 152 -1977 -552 -2097 -462 -1430 -1458 229 514 -266 -671 -757 -1203 -1180 -857 -462 -454 -613 -52 314 1172 -641 -1150 -528 524 -711 1811 2493 1277 -440 -1568 -1628 -1014 420 -1414 -1279 175 -1144 -2014 -1406 719 1287 -648 1300 2251 -106 -278 -812 -1473 -674 44 108 -131 1011 214 -39 340 356 -1055 1592 2143 -2061 1627 1953 -1804 74 -179 -484 135 -894 -133 781 451 -1213 -576 -576 -468 -35 415 -517 -170 -713 -669 -129 -2119 -301 152 876 -1666 -1154 -463 -1442 -841 -903 -2050 -596 -1047 -2747 -1864 -2199 -647 -716 -830 -279 -42 -787 1240 1663 405 -544 371 -847 -1412 -1837 -1308 -1725 -1854 -1213 -1358 -631 -923 -270 -18 653 1875 952 1505 2680 2830 1452 1582 1641 854 381 -1233 -22 -823 -3051 -1757 -627 -107 406 -515 -303 -6 1739 1632 -476 1518 551 677 1393 -42 10 1182 599 -106 1304 1430 1308 2197 2456 2198 1061 1362 945 1593 802 648 411 1928 -31 -1549 1547 547 -1134 -1344 487 -152 1379 879 918 2458 638 -2037 -1752 -1475 354 111 715 -1600 260 1136 410 -324 235 -779 -17 1565 -817 271 2352 1226 2429 3030 364 1056 706 -2464 -2297 -2366 1233 -1237 -477 2082 986 1072 869 633 -727 292 58 -37 3184 -790 -1511 3968 -1769 -4424 797 -490 -2188 928 -1260 -2207 -273 -1230 -2485 -1203 1371 324 -2068 -768 -344 -151 -206 -719 -1722 -648 -873 -850 -956 -1019 -477 -1921 -2139 -535 -526 -806 872 817 324 3203 2741 2486 -387 -899 796 637 -227 1740 200 -152 1028 1020 -1054 -1209 1580 -806 -2152 613 -353 -2047 1603 2271 630 559 515 -48 1209 623 656 831 1268 827 1133 1084 868 -2630 -2876 -2696 -221 -882 -215 24 -91 420 -2018 -512 508 -485 96 -980 -1446 -275 611 -1821 -627 132 -773 -1118 -982 -1542 -126 -1701 -934 2036 757 -993 185 679 160 -1121 807 1 -412 -1056 348 -607 -1067 1221 1367 650 -1574 -537 -2523 -240 -790 -297 1082 1191 28 -652 -970 -1654 421 393 362 -191 -910 -2 -494 -1041 -544 -82 27 -120 -702 -669 40 -2367 -2469 -1331 -1178 -1597 -815 582 364 -262 -187 153 -76 195 542 355 148 527 668 -598 -1185 -1204 -654 383 -1093 792 505 -728 2276 1960 741 -583 -286 -581 -833 -904 32 -573 -1223 -187 395 -716 -349 3099 -766 308 2415 1573 36 -1467 -1243 -14 -619 1365 2225 1506 2453 2953 -2722 -433 703 -2763 191 2899 -1441 287 2904 -1686 196 799 -90 -1464 -79 -310 -757 234 -1035 -2075 483 -54 -168 825 1941 1324 461 744 -42 -1205 2052 1846 284 1963 2883 931 -1474 -2882 -1747 -446 -786 877 -326 131 1139 1583 2285 2173 404 -677 -46 -855 -1712 -1500 1955 1019 -2399 2048 3813 1188 279 2549 3083 -806 -906 -944 521 936 261 1029 1284 569 -217 -157 -315 -634 -73 -628 -157 -164 -159 854 -80 1573 2154 863 1598 1475 -327 779 1200 1376 64 950 3017 727 -949 1653 1617 -846 -2641 -815 1432 394 227 1059 1313 1125 985 792 615 1631 366 202 3286 1788 672 -351 292 1724 -1723 -2291 -1548 -1039 -2458 -2031 -936 -382 -127 -2199 -752 -1417 -1706 -1252 -762 1511 -1113 -953 -1154 -1616 118 -1333 -1257 214 214 -169 -573 -927 -772 824 -1363 -674 -359 181 25 -171 -102 -762 -1139 427 1041 56 -634 -8 -673 -28 118 -677 611 1130 372 -1003 -1050 501 1800 367 959 -153 2277 1277 557 323 1181 -565 -1255 -732 -803 -1309 -1114 1763 1630 1390 988 2041 1716 2765 2976 2698 -1304 -1048 -751 -98 -628 275 -392 -9 402 1825 3927 -330 1804 3179 151 135 2326 1381 539 1174 774 248 1191 850 297 1185 -648 -1421 -2596 -1785 238 -1130 -1490 520 1093 830 15 741 121 477 1185 66 -1122 -516 -1718 -1111 1870 2273 -1292 -401 1621 -1930 253 -296 786 130 -169 151 274 -1478 -1915 -1595 -2226 -270 -709 -573 -2225 -3080 -2184 -2202 -3556 -2470 731 -684 -1629 1942 837 -888 1567 1258 289 -117 765 464 123 302 186 1073 808 806 -931 -773 -547 -53 273 -520 883 454 473 -381 211 902 88 691 2076 1017 859 154 -3122 -2740 -967 -1825 -1231 683 560 -23 1067 -3097 -3866 -3496 -2151 -2767 -3576 -2067 -1498 -3438 -591 1559 1269 -1658 -2070 -1380 -2648 -3453 -2386 1357 -1873 -1540 1496 11 -1457 -598 -10 -1679 -615 -924 -93 1727 2545 2145 -427 1166 1800 1006 -69 -2980 -805 484 -39 -3503 -319 2515 -448 -1205 -813 -497 -489 395 401 -74 1102 -1634 922 2935 -940 2559 3231 1264 2693 2949 -327 -70 -313 -987 -10 986 -982 767 -97 -1836 -2162 -1536 -1106 -1475 -822 1371 846 669 -58 459 -323 182 -356 -542 -82 -2160 -2088 431 -519 -85 1393 1182 829 409 865 113 270 -1519 -2165 1280 635 -2417 1220 2513 953 357 1033 1154 -666 85 -195 -790 -432 -382 3671 2203 2839 194 -215 57 -336 -682 702 -638 58 1005 -1045 -927 261 -1860 -98 -8 -1780 -8 -45 -686 860 100 -495 226 325 985 -808 -1517 410 -1786 -1149 1089 -492 1714 -1251 -648 725 234 734 -1467 -588 -425 -1318 -959 47 935 -24 652 697 302 404 -21 861 1088 846 271 416 -10 -428 -726 -242 -866 -1466 -915 -431 -990 -1625 1117 -468 -3217 -554 -1404 -676 762 737 223 -767 310 250 -973 -1358 -750 -290 896 555 1460 1255 1195 -1401 -76 -240 -1890 -1233 -1423 -816 -167 -802 -732 -589 -1894 1738 3643 406 -1710 521 1410 794 358 877 655 203 407 195 -968 -632 -209 -540 73 1571 3237 2149 4532 3960 582 -645 -1983 -1850 -839 -1588 -1510 -70 -363 -459 1413 865 217 -582 -281 -135 -49 795 -339 359 750 630 139 299 381 373 366 1050 902 193 200 363 67 140 601 -266 -751 -897 371 -1004 -1429 -35 -613 -2702 -1719 -2812 -1813 -1745 -1550 -133 423 -521 -179 -1006 -1996 -60 -688 -712 1612 -162 -519 1334 -11 -136 47 136 689 2063 -420 1943 735 -547 38 585 691 517 -1186 -254 291 -100 -621 -1316 1693 -345 -1683 2167 3080 -2478 -89 2295 -322 -602 469 -1437 423 11 -571 -429 -1103 -814 430 -2478 -1505 1337 3677 185 889 1146 2580 -319 -563 110 -1890 -2528 -1133 -437 -1317 -807 -3822 -1044 -2707 401 2569 2404 -977 226 -236 1249 203 650 1483 -576 -1197 -2085 -1011 20 -200 439 -542 -1398 -420 -1249 -559 -774 -248 627 100 75 138 -27 307 114 877 1243 -350 -3002 -1550 2709 1217 565 1662 3535 2181 -364 1600 -113 2852 2558 -262 2867 -323 -1153 1372 1874 -1830 895 89 -2127 -1790 -1776 -1237 -687 -1379 64 -1684 -842 -159 196 856 861 -241 -1062 -1323 -461 -1145 -1820 -43 189 -1153 -1555 -1010 -2166 -695 -450 -1854 -1823 464 -331 717 378 335 1728 1660 1930 906 -897 -666 -598 104 -1411 -28 115 -913 -1091 -953 -1425 -1949 -635 1670 -678 1815 1304 942 494 -2601 -2481 -2823 -2297 5 -1229 -1503 -238 -2170 -2103 -106 -299 -696 -652 -1895 -1800 -3034 -4539 -2929 -1496 964 -974 -783 -875 -843 1848 -1040 -1135 1352 1157 410 -217 887 -125 -2348 -1984 -1524 670 472 473 131 2061 3330 -1648 849 2208 -3110 -2038 -2178 -1618 -783 -1399 528 816 -984 -545 -423 162 -492 -57 -190 -842 234 337 951 2310 593 996 1704 799 1451 2442 2752 1145 2284 1131 104 -55 -1133 -36 -244 -816 -1458 -1496 -2358 1033 -591 -1436 2465 3243 2221 -2856 -1973 1431 -1406 109 1993 -761 868 1035 -110 -1239 -1238 67 -1482 -92 20 -611 94 -1111 -804 780 565 -357 557 2338 1914 548 -1252 -1659 -1058 -372 2 -50 -918 -317 -477 -1290 148 -379 931 1161 -94 1288 3161 956 -131 -528 -1563 -243 -1021 -1468 410 -202 -735 0 -413 23 1435 1084 280 -223 682 165 -1554 -499 660 755 -1007 -404 1278 659 -434 1151 42 -591 218 -328 1033 -676 206 2921 -58 847 -5 882 1396 1177 -1177 -2514 -2761 1188 -1613 215 -291 -1172 -1274 -926 -2689 -668 -2082 -4101 -2038 -817 -2315 -653 131 -382 896 -147 195 -62 940 2435 1644 648 2092 -181 1743 -342 -1173 2761 -770 -4701 2005 -542 -2686 -593 331 -494 -1195 -1129 -694 -874 -1356 -1525 -892 -940 -882 -388 -362 66 899 -838 -858 -615 400 -13 -576 -267 -434 -1397 -1403 71 284 1110 1077 1031 2269 915 -1640 -1053 -665 -54 -1238 -1837 -1498 -456 -156 -193 -411 -752 -417 -1011 -332 -881 -1323 -1042 -1215 -1673 -907 -953 -617 -604 139 -824 139 138 131 34 -1444 -829 -633 -833 -337 -68 -13 -617 -426 315 -146 40 -152 1404 1002 -1195 -473 -858 -78 -829 -335 -837 -395 -1246 -1203 -628 -1784 -1340 -515 -618 -223 -171 -1622 154 -452 -2219 297 455 285 -931 -1050 -97 863 486 196 1411 609 -603 1321 539 -1146 641 839 98 -1042 -1419 -1217 -940 -2866 -2243 -1518 -2225 -1475 2011 1799 -449 -1924 -2665 -1414 -650 691 -1037 -1000 371 -734 248 1605 56 773 2047 98 107 476 -49 390 1637 487 72 -460 962 470 1722 499 1094 2068 1521 -478 636 -357 597 986 -1216 218 807 325 -29 316 -1383 -1560 -2331 -1142 -1639 -1502 687 -1015 525 1498 339 -139 -434 52 1069 -39 1232 1464 2108 -282 -1376 -193 51 -1624 -75 351 -1546 -524 691 785 1126 -162 963 1232 -232 -771 -483 -498 291 101 94 1719 930 -896 -338 -871 -1707 -1214 -2230 475 235 574 -637 -647 -814 -160 -220 -719 1374 -465 -1203 442 -1813 -1453 -1342 -1172 810 -20 -1553 -749 573 920 401 609 -732 -143 438 -976 -606 596 349 60 80 277 -248 1376 1047 1632 183 1261 990 957 -615 251 943 485 2360 -145 202 1734 476 -246 260 153 -115 -561 1024 559 651 2229 2806 1157 710 1548 3293 -1179 779 5020 -59 -657 519 324 -864 287 1821 877 -730 -726 -377 -1559 -581 159 -192 -26 710 1021 928 735 -1 1839 1305 1614 -371 -49 701 -506 507 839 -2255 -2345 -1428 -953 -2115 -1125 1040 1802 544 532 393 131 -1704 -1706 -1414 937 302 1081 1246 259 158 650 210 687 1162 -476 -692 1700 -2061 -1899 408 -3059 -3233 477 671 1608 681 62 144 282 270 226 -1180 -377 148 -327 -8 424 412 106 -40 -893 1421 3296 -1083 157 2500 -317 1764 3044 1573 659 244 1438 1152 -393 2675 450 -1668 966 498 668 273 593 781 1551 1144 1613 -160 -534 -352 774 -31 -487 41 -684 -52 1051 1612 697 1264 1584 963 -655 -582 -976 89 -478 -839 190 490 -486 370 1059 201 206 647 999 969 1042 1510 -103 -1297 -217 214 -121 -734 21 886 -713 248 1851 1753 -319 1644 1338 -499 1773 1539 -620 762 2007 172 -928 -525 1060 656 901 129 450 1371 -1397 -1006 -314 -269 -283 -731 732 1506 1476 -2016 -511 -327 -1169 617 294 -729 -328 -109 1360 227 -613 1094 -411 -1201 -440 -1326 -1604 -686 -748 -1656 1738 2813 1171 -888 -1098 -995 -1473 -605 -1244 24 555 -133 255 301 190 2089 1810 2534 981 679 721 1211 -520 -160 -431 612 -726 2013 1490 -907 1325 1640 -381 -1810 -1742 -739 -403 -31 1120 2142 2473 2616 27 -1647 -1645 244 -104 -799 534 -1364 -686 -2175 -661 -1272 -205 -240 904 -160 -1942 -1418 880 500 547 483 130 -87 776 445 -546 -1001 -809 54 -433 -748 164 -551 -832 863 -54 1026 -375 846 -33 -543 354 407 -1135 866 2120 612 518 2539 1170 -1436 -373 -250 -1001 959 1988 -143 49 -55 673 1070 -1246 -235 -741 739 -658 -872 873 -1179 -422 392 710 1592 1399 1429 2543 561 1404 2327 1984 -44 -125 -578 1792 234 625 468 -800 -27 243 201 -1014 -797 -1165 -189 -378 509 577 -342 -174 -378 1129 1832 -520 2159 3381 -177 903 426 1526 -86 -1096 596 -809 -1505 -155 1466 1375 970 734 1277 2370 1175 1809 3376 -753 -1008 362 -493 -604 1220 -126 -384 918 -1016 -188 491 -167 197 -677 -1026 1156 -324 -572 -1169 -2323 -124 436 -833 26 638 1361 101 2030 722 -318 812 1664 218 -195 175 -2046 -2130 -1862 -911 -952 -754 822 1154 1794 1009 -336 36 1493 -208 195 -139 -1136 -207 851 709 936 742 660 -238 -250 5 -305 -897 -1369 -218 -58 1185 1194 -459 772 1035 -1625 -1477 -1277 1197 357 -2216 915 2061 -1166 2229 1178 17 1753 139 -1400 975 -1345 -2294 839 1555 907 525 1991 485 81 47 -1228 339 -439 1360 2090 1342 3558 731 902 2687 454 190 553 -435 308 1983 218 417 1485 1083 628 -385 1104 1737 1236 -584 437 806 -1203 -871 -280 -2384 -1476 -1122 -759 -218 -81 -104 -861 -7 495 -66 338 1358 874 393 -638 -343 -23 -76 1079 496 -959 1198 436 47 -83 606 754 -633 283 24 -252 1618 1060 1007 -419 771 764 -1636 1161 1042 -439 1914 2061 -25 -368 104 -819 -490 -496 344 -2092 -2014 -997 -1580 -2308 -946 -1201 -1593 -947 1047 930 914 -480 -1352 -453 -812 -1158 -1997 1928 1192 3 1287 1006 501 -469 -537 -934 1485 1550 1365 64 888 1492 -350 80 657 313 937 813 -147 -212 -150 544 932 1086 -432 -91 887 53 240 1023 -360 1347 2584 -1030 -868 -1010 -811 212 155 -590 -339 -341 -881 242 2011 87 1920 3598 1168 -649 22 251 13 106 641 933 1666 1707 2614 2367 -812 -276 482 -1776 -1929 -1811 -437 -1314 -747 -1038 -431 421 -992 -449 30 -603 -234 426 -901 -301 -1381 1341 2499 800 1735 2536 698 -818 832 1703 -1109 148 1298 -580 682 163 219 -176 30 1448 1010 1579 2578 2342 2259 100 -921 -424 -1034 -3113 -2597 -602 -2046 -1774 -1010 -1178 -450 -357 -783 -267 1867 1692 1616 -1371 -982 -970 -409 -667 6 93 -289 416 160 -226 96 274 -2051 -41 -1372 -3311 -1046 1577 546 998 1918 1493 1147 245 992 -535 -957 -145 -798 -1058 -1262 -758 -595 -591 -211 -170 748 72 1515 3114 1011 716 273 98 1382 1234 434 477 257 -798 -572 -591 -1341 -1609 -1527 -294 -1685 -1844 -1327 -2375 -3829 -2578 -1643 -1878 815 -3154 -1811 3331 -1661 785 3510 482 -788 -672 726 -212 52 404 247 59 489 918 1908 -851 -307 1350 -163 -55 264 1965 2082 2127 1931 2900 2736 145 1253 1302 520 732 866 635 350 639 259 -764 99 932 338 610 853 42 1354 9 -526 744 -11 -399 -1440 993 1354 113 664 976 530 -1613 -1263 -231 -1023 -816 425 421 19 448 -694 -1877 -1099 -1047 -2230 -1395 -809 -1852 -1604 -277 -539 -1486 -272 158 -847 757 1425 635 -2183 -1145 -218 -996 -457 834 277 2400 1836 -1731 -1785 -1230 -1097 -27 229 -1989 709 1085 -799 -1242 -574 -2597 -3600 -2653 -1545 -3821 -2214 726 1263 1232 832 1750 1812 189 1339 1495 -274 -791 949 999 354 910 544 -100 1246 -548 -2002 -1896 -991 -1384 -1132 2006 542 23 147 -1038 -1607 982 464 1336 200 -1114 1780 209 1486 1556 1609 2391 1363 -79 1627 1673 82 918 363 -36 182 172 -1302 -1348 -441 73 -114 125 674 1104 1298 653 1017 632 1311 868 718 296 -6 -21 -1364 -1368 -1374 -422 -153 -552 -358 -403 -241 554 459 303 13 763 251 -97 -418 -330 -57 -629 -320 299 -384 380 73 -712 158 -771 -974 -145 -418 -697 -1066 435 -426 -1117 651 21 447 -80 -468 -1529 -676 -1616 -1807 -1441 -2229 -2404 1381 1481 685 380 428 889 1165 1230 1745 70 467 1966 -937 -124 1385 293 -339 254 1449 401 -308 814 521 118 332 -211 316 -1008 -654 -907 -1098 -509 -829 -185 -1188 -1949 -809 -452 -270 -1039 -1912 -288 -31 -2082 -1384 1616 -353 -1556 2932 220 -785 1886 -221 -293 -1368 -1625 -1194 40 -242 -723 -1178 -1638 -1194 2391 2551 2878 2757 2786 2920 3789 4318 3638 1266 -264 115 2197 662 150 1795 687 1314 -525 40 -1493 -1021 -525 -524 -1077 -1636 -1034 -621 -468 -816 -436 -705 -1685 78 -248 -397 -1108 -722 -1054 -190 1876 2528 77 2127 3367 -1439 -767 465 -453 -898 -843 508 -1588 -2377 744 -827 -526 187 -1267 -846 -377 -456 555 -862 -385 -470 -578 -621 -545 -1852 -1626 -1395 68 254 475 -356 -522 -1598 44 -239 -488 390 1180 1146 770 2421 2731 565 1780 2228 513 1716 -353 2195 1983 -1199 1332 -524 -1324 -1736 -2134 -2336 100 651 422 655 1256 1320 -997 241 774 700 1551 1457 1304 -19 -405 -1180 -1640 -1444 -916 -2254 -1431 -1268 -2596 -1177 78 1533 849 908 2652 769 -301 245 -556 -808 -90 -387 230 -97 513 -216 -282 938 1742 1121 471 903 494 543 748 645 785 -813 -460 -94 42 216 284 -413 98 -32 693 441 531 725 160 94 504 708 -14 733 752 505 833 327 -986 1443 1640 1241 283 1488 805 405 1182 1525 1610 1918 2270 243 340 147 -1342 -908 -603 -575 64 -61 -1527 -161 -591 314 -343 257 -855 -72 453 157 389 955 -513 -343 244 -112 922 2182 445 -108 668 -395 -1206 -604 -954 -1578 -1515 -504 -271 156 -664 -905 -1878 -937 -2272 -3241 -1920 -1828 -1887 -1662 -1952 -1680 -607 -779 11 243 1322 1447 554 1773 1455 -439 588 1011 -339 -867 730 -777 132 722 -68 1058 1444 -1028 -44 80 -464 -327 -175 -123 190 142 -596 659 1239 -2096 -1430 -93 -1112 -418 -1011 -867 -1433 -1319 1198 489 -880 850 2049 1729 207 -364 183 668 -1204 -955 951 -1686 -1621 -191 -705 544 -816 -1621 1393 558 -28 1787 -1499 -1095 -2202 -1466 610 -1058 499 97 23 1104 282 -1602 1653 369 -1763 1121 -3 -1620 -584 -37 1481 -1411 431 2420 -1807 76 1694 -531 -503 -664 -1291 -715 -1695 -513 -356 -826 -206 724 -162 1370 1551 555 957 1658 803 578 1849 1020 772 1480 481 373 563 -1547 -596 187 197 758 1171 797 -303 -635 -164 197 1788 1093 -182 1083 940 -739 -343 -562 84 366 351 -79 -452 -530 -116 388 597 -615 531 1181 401 2286 2653 -961 185 1534 840 1324 722 2215 1688 1737 2154 1268 1503 -100 322 2476 301 1890 4344 850 1369 3804 -542 -1223 -2290 -991 -1811 -158 -1640 798 4094 -599 -665 941 -1189 -814 1499 -1108 -430 -153 -286 -1373 -598 -242 -1580 -181 5 -625 -400 -1382 -1026 -386 -1325 -2492 -2501 -808 -2386 -2744 1306 1244 1950 1747 1480 3581 -408 1 2424 -850 -1290 -517 -522 -1240 -610 -2076 -1843 -830 469 -8 619 558 564 2270 -7 632 1279 -465 -1209 -971 -389 -1856 -2407 462 -759 -991 37 873 552 626 1070 1417 749 471 759 1261 98 460 5 -2472 -1451 -500 -3176 -2113 -2117 -1335 737 -3340 -1425 894 -2067 -502 1016 -912 -899 -2796 -33 -851 -2773 -1857 -2534 -2810 -51 -748 -1198 -1679 -2936 -2465 -1752 -1732 -1785 -1096 -583 -1041 151 1616 225 -947 -389 -1567 -286 358 -80 25 606 201 -1214 38 -107 -1187 -965 -537 -204 -560 -209 1113 1197 1239 -217 457 276 1141 2221 1478 1110 2744 2817 -65 -237 290 840 302 875 2669 1412 1113 -1615 -596 -855 -780 -953 -1178 -978 -754 -725 535 25 813 -815 -816 -163 -2567 -2418 -1396 664 -98 -39 1606 1275 530 1526 1886 973 -19 905 319 -222 1374 1423 -69 1220 1658 -1508 -853 -164 630 1123 1330 809 639 970 -1549 -1236 -1008 -1305 -1714 -759 -805 -1233 -665 -337 953 437 -1136 -1013 -1289 31 -976 -658 -1697 -1234 171 -1015 -733 515 -65 -12 -869 -415 -852 -217 -1061 -1563 -1408 -1919 -3191 -1508 -802 -1034 -788 916 1596 1068 1217 2016 2022 443 1030 -52 1301 761 -258 1056 836 1157 -588 -477 136 -912 -901 186 -606 -1156 -1294 383 1085 108 1200 2191 561 1484 3257 3258 -78 1849 517 1692 1756 416 1111 305 -409 4814 5630 4964 5432 5931 5355 3011 2900 2729 -1186 -42 -538 -484 62 466 572 929 451 429 963 248 -77 1690 1556 1366 2137 2051 -1239 -1658 -2723 -814 -1365 -2706 -521 -1223 -2435 84 -475 -560 -1057 -200 338 -740 956 1372 -1073 -1800 -1728 234 538 499 417 2211 876 1370 2130 996 1283 1389 -1151 -1043 -1173 -1750 -1551 376 1239 -639 136 1429 1897 1093 1072 605 1233 2046 1951 2251 2949 2470 2911 4514 -736 1145 1431 -108 673 104 -653 710 -121 1759 1141 1315 305 71 736 -149 -575 -75 -419 -543 -271 -242 -780 110 -767 605 1098 -1449 -825 -1543 922 1703 985 628 1242 556 226 -220 -923 -985 -601 -1599 -2499 -1974 -2570 439 755 -152 968 1434 195 954 681 737 -74 -1151 -1314 -1061 -932 -1133 -1207 -474 -362 192 143 -1076 1508 40 -1495 313 -1277 -2214 -1299 76 1082 -2792 -804 994 -3147 -4 712 2090 1356 234 1208 2238 1676 887 740 1709 461 -1199 -1014 234 -511 -1412 417 -302 48 1282 -2110 -1972 2211 -1974 -2546 2911 -272 -1235 -1498 -214 500 -1359 -638 704 -104 35 413 -1436 478 1561 -2451 -1362 431 -1987 -2604 -328 374 -292 -677 691 -1029 -1812 1237 -918 -1907 -1359 -954 -1094 -1570 -411 -310 -1568 -277 273 -803 1796 466 2114 2223 904 -1237 -838 210 -1242 -2828 -1066 -2144 -3526 -2038 -858 -1910 -1393 1504 974 1126 1526 1131 -682 1296 -432 -813 -929 -138 226 26 1040 2021 -119 -118 2082 1394 721 427 1102 318 97 1356 1238 312 697 -1313 -988 1956 -421 -1242 1227 470 -744 -131 40 -1023 1435 174 114 -980 -384 169 -56 -251 -47 -235 258 178 -610 589 855 -1156 -979 -104 -1407 -675 21 -656 858 1086 692 1250 888 483 -201 719 293 -280 654 -161 -948 -464 -675 -2040 -943 -1046 -2292 -1035 -794 -238 -1077 205 483 -725 504 1063 84 746 -847 -723 -237 -2221 -1309 -546 -1295 -1287 -447 -2306 -1730 -346 -2661 -2523 -1445 -3483 -2584 -1242 -2493 -633 -2524 -3541 -787 -378 -385 1214 1001 1197 581 978 1099 1212 -739 33 123 280 -23 -171 837 1083 743 52 123 514 586 1044 1121 290 562 260 494 1094 561 1431 1284 980 282 796 76 100 -468 825 561 -536 175 534 -603 335 993 363 775 841 403 -18 -958 -1011 -650 -163 -354 203 102 597 608 -22 -579 -945 255 -321 -448 -467 -77 1427 706 738 1256 -716 -703 202 -445 -881 -691 -464 -1461 228 -584 -1839 -4 -618 -926 -727 -18 -244 313 262 1319 213 85 -1761 -1060 31 -1548 -910 411 -861 356 -1008 -516 341 -621 550 204 -558 -631 -235 857 893 1482 -221 9 818 172 -611 137 -29 -272 -732 -289 -822 -1048 419 249 409 -1015 -1054 191 -1090 -1043 641 -1161 -827 -601 710 -314 -1314 506 -601 -905 1051 -391 -637 -934 -1579 -550 -1067 -1780 97 -412 -1804 -864 58 879 214 -278 890 229 162 1792 946 296 -419 296 734 930 1664 1756 999 698 -329 -2204 -996 128 -918 -432 1699 2971 2709 78 -13 120 34 -793 -862 -531 -2239 -1298 961 674 229 59 405 -118 -1216 834 1224 -942 -1482 -1939 259 1368 1799 417 572 795 -1283 -387 -978 181 872 895 319 1995 420 -938 -1126 -542 -1337 -1850 -1141 -1110 -2346 -1977 1115 1887 1596 -208 241 40 -1088 -366 -421 697 -252 -607 1243 214 67 48 -269 -242 -591 66 -442 -124 133 -189 